<?xml version="1.0"?>
<opencv_storage>
<em_0514_lbp_51>
  <stageType>BOOST</stageType>
  <featureType>LBP</featureType>
  <height>32</height>
  <width>32</width>
  <stageParams>
    <boostType>GAB</boostType>
    <minHitRate>9.9991518259048462e-01</minHitRate>
    <maxFalseAlarm>5.0000000000000000e-01</maxFalseAlarm>
    <weightTrimRate>9.4999999999999996e-01</weightTrimRate>
    <maxDepth>1</maxDepth>
    <maxWeakCount>500</maxWeakCount></stageParams>
  <featureParams>
    <maxCatCount>256</maxCatCount>
    <featSize>1</featSize></featureParams>
  <stageNum>51</stageNum>
  <stages>
    <!-- stage 0 -->
    <_>
      <maxWeakCount>10</maxWeakCount>
      <stageThreshold>-2.9617061614990234e+00</stageThreshold>
      <weakClassifiers>
        <_>
          <internalNodes>
            0 -1 468 0 -1073792001 488581823 -21761 -1065985 -1073760001
            -1073759493 -1073759569</internalNodes>
          <leafValues>
            -7.9440629482269287e-01 6.7911076545715332e-01</leafValues></_>
        <_>
          <internalNodes>
            0 -1 253 -2097154 -2181970 -37380161 -1142388 -67125254
            -87380 -7623796 264712</internalNodes>
          <leafValues>
            -8.0466747283935547e-01 5.2089762687683105e-01</leafValues></_>
        <_>
          <internalNodes>
            0 -1 878 -18887371 2113216773 -824460497 532357951 -34603073
            -67165377 -12600897 15671611</internalNodes>
          <leafValues>
            -6.7969471216201782e-01 3.8928735256195068e-01</leafValues></_>
        <_>
          <internalNodes>
            0 -1 711 358367229 -170592385 -180225 -81956 -235569153
            -196609 -1074872324 -1393547100</internalNodes>
          <leafValues>
            -4.8363476991653442e-01 5.4190653562545776e-01</leafValues></_>
        <_>
          <internalNodes>
            0 -1 98 -362813905 -486613057 -318787706 -285212674
            1977040231 2012217199 -503896571 -402653441</internalNodes>
          <leafValues>
            -4.4748759269714355e-01 5.0223934650421143e-01</leafValues></_>
        <_>
          <internalNodes>
            0 -1 367 -1561018376 -1141104709 -67969027 -782345
            -2109960708 -291442689 -1884009571 -1899756348</internalNodes>
          <leafValues>
            -5.6829297542572021e-01 3.7547901272773743e-01</leafValues></_>
        <_>
          <internalNodes>
            0 -1 705 884228021 2109587453 -541077635 -368642 2113708031
            -3047425 -1342264068 -1125111580</internalNodes>
          <leafValues>
            -4.1818928718566895e-01 4.3592736124992371e-01</leafValues></_>
        <_>
          <internalNodes>
            0 -1 691 704458551 1073725439 2147446775 -33689601
            1736343551 1467938813 -67126273 -1074942024</internalNodes>
          <leafValues>
            -3.4812656044960022e-01 5.2598404884338379e-01</leafValues></_>
        <_>
          <internalNodes>
            0 -1 24 -387396878 -1467062589 -1450685617 1540008059
            581610629 25303938 960169374 579556187</internalNodes>
          <leafValues>
            -5.6646507978439331e-01 3.2104244828224182e-01</leafValues></_>
        <_>
          <internalNodes>
            0 -1 1166 -285229297 149946303 -1543848025 -352391298
            1742696308 1577025407 -144310409 -455213113</internalNodes>
          <leafValues>
            -4.9485903978347778e-01 3.5136994719505310e-01</leafValues></_></weakClassifiers></_>
    <!-- stage 1 -->
    <_>
      <maxWeakCount>14</maxWeakCount>
      <stageThreshold>-2.7386856079101562e+00</stageThreshold>
      <weakClassifiers>
        <_>
          <internalNodes>
            0 -1 18 -2097153 -20481 -136331281 -2150481 -1065025
            -1073804402 -21589 932121098</internalNodes>
          <leafValues>
            -6.8495887517929077e-01 6.3517487049102783e-01</leafValues></_>
        <_>
          <internalNodes>
            0 -1 380 36053504 -20481 1034889962 -17682 -279570 -1065046
            -4473942 -3167574</internalNodes>
          <leafValues>
            -6.2947577238082886e-01 5.0119417905807495e-01</leafValues></_>
        <_>
          <internalNodes>
            0 -1 880 -3 -10616875 -139266 -117571649 -67108884 -67195432
            -18089222 -1338966214</internalNodes>
          <leafValues>
            -5.4333025217056274e-01 4.7626060247421265e-01</leafValues></_>
        <_>
          <internalNodes>
            0 -1 659 1419010012 -720900 -196609 -1076609028 -720900
            -487692 -1078394900 -1091556848</internalNodes>
          <leafValues>
            -5.2926570177078247e-01 4.1088384389877319e-01</leafValues></_>
        <_>
          <internalNodes>
            0 -1 881 -599800800 1537802244 -507546659 1068437935
            -1285049181 997926715 2067779883 1001380859</internalNodes>
          <leafValues>
            -4.9981871247291565e-01 4.1470396518707275e-01</leafValues></_>
        <_>
          <internalNodes>
            0 -1 40 -353435649 -1376334 -2883594 -76046 266255871
            1049547762 2147440628 -973736716</internalNodes>
          <leafValues>
            -5.2801305055618286e-01 3.7096163630485535e-01</leafValues></_>
        <_>
          <internalNodes>
            0 -1 206 -301994225 1793064959 -151015569 -386138145
            1467447151 1735851839 -167775451 -136323209</internalNodes>
          <leafValues>
            -4.3249416351318359e-01 3.9333227276802063e-01</leafValues></_>
        <_>
          <internalNodes>
            0 -1 1138 -206569550 142789298 -3231840 -871698464 902811634
            780790253 -707878528 -866259484</internalNodes>
          <leafValues>
            -4.9237373471260071e-01 3.3961373567581177e-01</leafValues></_>
        <_>
          <internalNodes>
            0 -1 12 -931476302 -923874573 -4239089 -1879405861 947923003
            312136331 2147169075 161157819</internalNodes>
          <leafValues>
            -6.1984330415725708e-01 2.2988836467266083e-01</leafValues></_>
        <_>
          <internalNodes>
            0 -1 541 754462527 1040070579 1073643519 -381122 1339699199
            -20481 -159745 -68931868</internalNodes>
          <leafValues>
            -3.3452624082565308e-01 4.8853743076324463e-01</leafValues></_>
        <_>
          <internalNodes>
            0 -1 707 494155773 2144663421 -1082687489 -1073972363
            1761411063 -2260999 -1342276612 -1092077440</internalNodes>
          <leafValues>
            -3.3471241593360901e-01 4.4198754429817200e-01</leafValues></_>
        <_>
          <internalNodes>
            0 -1 135 -721498418 -201896305 -426576466 -133796185
            1718900224 1582986245 -62558516 -195821789</internalNodes>
          <leafValues>
            -4.1780722141265869e-01 3.4875103831291199e-01</leafValues></_>
        <_>
          <internalNodes>
            0 -1 974 -1128267855 -1901264910 -1612712716 -1398344972
            -1145569863 -1366622730 226301137 -1931624516</internalNodes>
          <leafValues>
            -4.5859912037849426e-01 2.9422789812088013e-01</leafValues></_>
        <_>
          <internalNodes>
            0 -1 646 473946288 479589648 -2032009987 -1074930081
            -114574859 929421819 146755728 263715103</internalNodes>
          <leafValues>
            -4.5846283435821533e-01 2.9468390345573425e-01</leafValues></_></weakClassifiers></_>
    <!-- stage 2 -->
    <_>
      <maxWeakCount>18</maxWeakCount>
      <stageThreshold>-2.9844410419464111e+00</stageThreshold>
      <weakClassifiers>
        <_>
          <internalNodes>
            0 -1 25 -1 -2098177 -12865537 -22529 -1073758209 -1141134593
            2146381823 66520311</internalNodes>
          <leafValues>
            -7.0666664838790894e-01 5.7703369855880737e-01</leafValues></_>
        <_>
          <internalNodes>
            0 -1 977 -1 -45057 -97 -134236225 -134222097 -139729361
            -490752337 11481919</internalNodes>
          <leafValues>
            -5.8613765239715576e-01 4.7222205996513367e-01</leafValues></_>
        <_>
          <internalNodes>
            0 -1 692 805250879 1073740799 -16385 -1 2145352703
            2143272959 -16385 -131076</internalNodes>
          <leafValues>
            -4.1575884819030762e-01 5.6511747837066650e-01</leafValues></_>
        <_>
          <internalNodes>
            0 -1 661 341598205 -753729 2147385343 -115206 1978948861
            -33718338 -537083908 -1129305296</internalNodes>
          <leafValues>
            -3.9748081564903259e-01 4.2326748371124268e-01</leafValues></_>
        <_>
          <internalNodes>
            0 -1 169 -691543162 -553669891 -774905073 -268465426
            -14697541 1006578619 -4211926 1072638602</internalNodes>
          <leafValues>
            -4.6324598789215088e-01 3.5747128725051880e-01</leafValues></_>
        <_>
          <internalNodes>
            0 -1 1197 -271585497 785891119 -1130714 -1494433857
            2012182391 1148696447 -411046042 -453050385</internalNodes>
          <leafValues>
            -5.0303119421005249e-01 2.7480685710906982e-01</leafValues></_>
        <_>
          <internalNodes>
            0 -1 74 -268435457 1878966255 -1048678 -68626 352321535
            134217695 -167811849 -436731913</internalNodes>
          <leafValues>
            -3.3087801933288574e-01 3.9951294660568237e-01</leafValues></_>
        <_>
          <internalNodes>
            0 -1 238 -16790322 -655506 -627904790 1916986944 -51558400
            -10521851 -61552620 -29169086</internalNodes>
          <leafValues>
            -4.5554310083389282e-01 2.8237003087997437e-01</leafValues></_>
        <_>
          <internalNodes>
            0 -1 630 359933884 -101433921 -1073946625 -1078582408
            -246851 -1076512769 -1343411267 783027720</internalNodes>
          <leafValues>
            -5.5270910263061523e-01 2.1951091289520264e-01</leafValues></_>
        <_>
          <internalNodes>
            0 -1 106 -92483890 1349992543 2114649722 1510133579
            1725393871 1480738431 -537526561 2136987903</internalNodes>
          <leafValues>
            -3.5896313190460205e-01 3.4641963243484497e-01</leafValues></_>
        <_>
          <internalNodes>
            0 -1 1083 -542113861 -2068925662 -541147776 -886258256
            -173015105 -1901659663 -537819708 -993005596</internalNodes>
          <leafValues>
            -3.6939072608947754e-01 3.3524090051651001e-01</leafValues></_>
        <_>
          <internalNodes>
            0 -1 170 -943718401 -823197842 -1361059850 -287113500
            1341104127 -1946321921 -671133728 -453646428</internalNodes>
          <leafValues>
            -3.7344866991043091e-01 3.1479772925376892e-01</leafValues></_>
        <_>
          <internalNodes>
            0 -1 618 336600564 -44269576 -1722860035 1072836286
            -35848452 -40850452 704383933 713566368</internalNodes>
          <leafValues>
            -4.3840163946151733e-01 2.7056449651718140e-01</leafValues></_>
        <_>
          <internalNodes>
            0 -1 796 -31752160 438043649 -136620405 268240751 -99884778
            2070086587 -30951141 990844179</internalNodes>
          <leafValues>
            -5.5297482013702393e-01 2.1284431219100952e-01</leafValues></_>
        <_>
          <internalNodes>
            0 -1 1191 -5769433 746450811 -268455956 1210777582
            1182750551 1736170861 -570429721 -453514409</internalNodes>
          <leafValues>
            -4.0543356537818909e-01 2.8596675395965576e-01</leafValues></_>
        <_>
          <internalNodes>
            0 -1 295 1423235544 1417468830 296066526 -1933255058
            1918041076 552633788 2131393088 15169338</internalNodes>
          <leafValues>
            -5.9132593870162964e-01 1.8672573566436768e-01</leafValues></_>
        <_>
          <internalNodes>
            0 -1 365 -60641538 -203639938 1532207103 -271144838
            -1275942914 -137020690 -70931576 669257356</internalNodes>
          <leafValues>
            -5.3938484191894531e-01 2.0255865156650543e-01</leafValues></_>
        <_>
          <internalNodes>
            0 -1 132 -621877618 1918702174 69393646 2049588027
            1715881040 2118262854 1348914128 -162006462</internalNodes>
          <leafValues>
            -4.5668256282806396e-01 2.2968997061252594e-01</leafValues></_></weakClassifiers></_>
    <!-- stage 3 -->
    <_>
      <maxWeakCount>21</maxWeakCount>
      <stageThreshold>-2.6970674991607666e+00</stageThreshold>
      <weakClassifiers>
        <_>
          <internalNodes>
            0 -1 547 243216191 -1 -16385 -8421377 -268435457 -1 -1
            -20481</internalNodes>
          <leafValues>
            -5.3073793649673462e-01 6.2746793031692505e-01</leafValues></_>
        <_>
          <internalNodes>
            0 -1 6 -4097 -538972161 -857739265 -67123393 -1344294913
            -36966769 1809558495 595272567</internalNodes>
          <leafValues>
            -5.7995086908340454e-01 4.3279606103897095e-01</leafValues></_>
        <_>
          <internalNodes>
            0 -1 1109 -1 -1 -151535874 -352387074 -268435473 -16777345
            -4370 -251658241</internalNodes>
          <leafValues>
            -4.0364816784858704e-01 4.9211475253105164e-01</leafValues></_>
        <_>
          <internalNodes>
            0 -1 745 1033388029 -674168835 -933889 -94210 -167968771
            -655363 -1074855940 -1124323656</internalNodes>
          <leafValues>
            -3.4947180747985840e-01 4.2512059211730957e-01</leafValues></_>
        <_>
          <internalNodes>
            0 -1 102 -268439793 1652555455 -18355346 -356517906
            1434398535 1719629653 -201363900 -185073833</internalNodes>
          <leafValues>
            -4.4663465023040771e-01 2.7220532298088074e-01</leafValues></_>
        <_>
          <internalNodes>
            0 -1 632 -44615404 -48941284 -138953217 1060447021 -4481603
            -54809666 -1082418387 940052232</internalNodes>
          <leafValues>
            -4.9335551261901855e-01 2.7703070640563965e-01</leafValues></_>
        <_>
          <internalNodes>
            0 -1 1128 -268439773 153616290 -340791936 -443678877
            1207948755 111575007 -167783179 -671089697</internalNodes>
          <leafValues>
            -3.4035149216651917e-01 3.6476790904998779e-01</leafValues></_>
        <_>
          <internalNodes>
            0 -1 591 1415864276 2145156607 1073414143 527441882
            -822550564 -701473 -65537 -1074656398</internalNodes>
          <leafValues>
            -3.4571588039398193e-01 3.2669371366500854e-01</leafValues></_>
        <_>
          <internalNodes>
            0 -1 47 -404754433 -404555858 -343932938 -38870486
            -553649153 1156562751 2147481588 -437786633</internalNodes>
          <leafValues>
            -3.4427222609519958e-01 3.2042101025581360e-01</leafValues></_>
        <_>
          <internalNodes>
            0 -1 144 -84947218 1446453141 -871223618 1879222446
            -128957360 1983715924 -565949428 -1073689088</internalNodes>
          <leafValues>
            -5.0620454549789429e-01 2.2186253964900970e-01</leafValues></_>
        <_>
          <internalNodes>
            0 -1 715 -551293808 762521847 -72364337 2078246111
            -553147855 -1209064281 -80791506 872353907</internalNodes>
          <leafValues>
            -4.9962958693504333e-01 1.9990861415863037e-01</leafValues></_>
        <_>
          <internalNodes>
            0 -1 1026 -1421869263 212762544 -3145803 -152111136
            1073741811 -1365000195 502744532 -856163340</internalNodes>
          <leafValues>
            -3.7175154685974121e-01 2.8376948833465576e-01</leafValues></_>
        <_>
          <internalNodes>
            0 -1 434 -425767601 2122267967 -17634562 -1572952470
            -471398636 2103265135 -184553930 -25231394</internalNodes>
          <leafValues>
            -3.4694460034370422e-01 2.9457205533981323e-01</leafValues></_>
        <_>
          <internalNodes>
            0 -1 1056 -373295705 -1498480710 -1628545500 -319000672
            -678690817 -1966081109 -739383883 -990386741</internalNodes>
          <leafValues>
            -3.7455597519874573e-01 2.7677601575851440e-01</leafValues></_>
        <_>
          <internalNodes>
            0 -1 0 -269484033 105443310 -1088684038 -923997408 -20088833
            497481727 -151017483 -994707516</internalNodes>
          <leafValues>
            -3.7213587760925293e-01 2.6694256067276001e-01</leafValues></_>
        <_>
          <internalNodes>
            0 -1 799 -486560011 -16826507 -556794387 534534045
            -620775428 -56907981 -287542481 808785698</internalNodes>
          <leafValues>
            -4.4368988275527954e-01 2.4116563796997070e-01</leafValues></_>
        <_>
          <internalNodes>
            0 -1 688 569716533 2004041079 -1108083205 -1619183329
            1929197407 1979056095 -1620365825 668999064</internalNodes>
          <leafValues>
            -4.3032962083816528e-01 2.3688702285289764e-01</leafValues></_>
        <_>
          <internalNodes>
            0 -1 616 2131008764 -178931812 -562217001 2138590170
            -169558017 -102481775 1071103423 1026883738</internalNodes>
          <leafValues>
            -3.1102600693702698e-01 3.1731837987899780e-01</leafValues></_>
        <_>
          <internalNodes>
            0 -1 1105 -408961217 -1251508377 -25233562 815791934
            -184960692 1433729303 -337580464 1886912319</internalNodes>
          <leafValues>
            -3.8618129491806030e-01 2.4738101661205292e-01</leafValues></_>
        <_>
          <internalNodes>
            0 -1 418 -1561448657 -1157748738 -6574593 -67977239
            -1988182345 250908663 1206261719 -2064283209</internalNodes>
          <leafValues>
            -3.5968151688575745e-01 2.7513203024864197e-01</leafValues></_>
        <_>
          <internalNodes>
            0 -1 241 -589304217 -35810354 -892424626 -1293509178
            -21347324 -283834012 -1276022208 1970494295</internalNodes>
          <leafValues>
            -4.9408936500549316e-01 1.8877059221267700e-01</leafValues></_></weakClassifiers></_>
    <!-- stage 4 -->
    <_>
      <maxWeakCount>25</maxWeakCount>
      <stageThreshold>-2.4303393363952637e+00</stageThreshold>
      <weakClassifiers>
        <_>
          <internalNodes>
            0 -1 643 1073692479 -57537 -1 -1 -1 -1 -25665 -4417</internalNodes>
          <leafValues>
            -4.3837249279022217e-01 6.3989150524139404e-01</leafValues></_>
        <_>
          <internalNodes>
            0 -1 23 -4194305 -8388614 -73412609 -10512 -7340037 -1310766
            -538116097 -973749004</internalNodes>
          <leafValues>
            -4.7719123959541321e-01 4.7432425618171692e-01</leafValues></_>
        <_>
          <internalNodes>
            0 -1 1100 -81 1598491951 -145228021 262618902 -2363729
            -51926657 -332416341 549447567</internalNodes>
          <leafValues>
            -4.3601390719413757e-01 3.9736211299896240e-01</leafValues></_>
        <_>
          <internalNodes>
            0 -1 710 838082557 -2826243 2145255423 -4964356 2013134845
            -131073 -1073889284 -1124849488</internalNodes>
          <leafValues>
            -3.7661847472190857e-01 3.6327010393142700e-01</leafValues></_>
        <_>
          <internalNodes>
            0 -1 82 -268435569 -1526997121 -268448280 -1572958
            1342144375 2143289343 1442281301 -134742153</internalNodes>
          <leafValues>
            -3.9551585912704468e-01 3.0464854836463928e-01</leafValues></_>
        <_>
          <internalNodes>
            0 -1 687 561260351 939343359 1071606781 -1073803457
            536690687 939331567 -1074843665 805053224</internalNodes>
          <leafValues>
            -4.1339156031608582e-01 2.9661116003990173e-01</leafValues></_>
        <_>
          <internalNodes>
            0 -1 1016 -94 59768491 -137373824 -778372126 -939542649
            126610147 -714636059 -705173537</internalNodes>
          <leafValues>
            -3.6333283782005310e-01 3.1245777010917664e-01</leafValues></_>
        <_>
          <internalNodes>
            0 -1 175 -203511874 -203671572 -263544427 -140072274
            -201605160 -139585122 -136532084 84158986</internalNodes>
          <leafValues>
            -5.3919488191604614e-01 1.7884522676467896e-01</leafValues></_>
        <_>
          <internalNodes>
            0 -1 34 -603273070 1251654166 1029692159 235569499 977604259
            863185055 1606377167 177947867</internalNodes>
          <leafValues>
            -5.0907117128372192e-01 1.8875429034233093e-01</leafValues></_>
        <_>
          <internalNodes>
            0 -1 1179 -177 -131073 -2655874 -1326137418 1566400325
            1970667389 -17507260 -530251930</internalNodes>
          <leafValues>
            -3.7618744373321533e-01 2.6662620902061462e-01</leafValues></_>
        <_>
          <internalNodes>
            0 -1 1140 -5242976 -2004292984 -1081696896 -1937183584
            -1457806925 -1408450630 1141884288 -859507520</internalNodes>
          <leafValues>
            -4.9058708548545837e-01 2.1688927710056305e-01</leafValues></_>
        <_>
          <internalNodes>
            0 -1 274 -268439705 612368255 -285315345 -1300562178
            1878998879 2004795183 -101712811 -2621449</internalNodes>
          <leafValues>
            -3.4686058759689331e-01 2.8094613552093506e-01</leafValues></_>
        <_>
          <internalNodes>
            0 -1 488 -554218371 -134782977 -490946818 846372795
            -327204540 -578859426 -285806796 -13607118</internalNodes>
          <leafValues>
            -3.6838731169700623e-01 2.5900366902351379e-01</leafValues></_>
        <_>
          <internalNodes>
            0 -1 1066 -2138329 1802993443 -2063897882 573761899
            -187992201 1203208061 -522333308 1647771514</internalNodes>
          <leafValues>
            -4.5893886685371399e-01 2.0791891217231750e-01</leafValues></_>
        <_>
          <internalNodes>
            0 -1 482 1446837684 -556468236 1059845013 785119903
            -696911368 -1141507144 191068672 181381694</internalNodes>
          <leafValues>
            -3.7106740474700928e-01 2.4490939080715179e-01</leafValues></_>
        <_>
          <internalNodes>
            0 -1 1061 -539111660 492601213 2073948158 980745560
            -58525492 1610537540 -59057460 -265224426</internalNodes>
          <leafValues>
            -4.4549390673637390e-01 2.0113305747509003e-01</leafValues></_>
        <_>
          <internalNodes>
            0 -1 743 628371317 -138608643 -536936451 -4261897
            -1221280769 -155780101 -1078063171 -1096275800</internalNodes>
          <leafValues>
            -2.7404418587684631e-01 3.2019573450088501e-01</leafValues></_>
        <_>
          <internalNodes>
            0 -1 243 -69473042 -136853619 -458321396 -260927634
            -738238716 -683185664 -521999872 1952972551</internalNodes>
          <leafValues>
            -4.4667035341262817e-01 2.0641323924064636e-01</leafValues></_>
        <_>
          <internalNodes>
            0 -1 840 804728623 83818495 -1347512724 -67326022 1861746503
            2115403735 2109709684 2145775540</internalNodes>
          <leafValues>
            -4.3884837627410889e-01 1.9715805351734161e-01</leafValues></_>
        <_>
          <internalNodes>
            0 -1 387 1962557644 460787439 -226828370 453123903
            1440699588 2128234846 -483504405 2134638459</internalNodes>
          <leafValues>
            -3.3437907695770264e-01 2.5422590970993042e-01</leafValues></_>
        <_>
          <internalNodes>
            0 -1 892 -1346428617 -142606505 -4464705 -227065922
            2113887239 -59424907 -536887361 -75514313</internalNodes>
          <leafValues>
            -2.7097851037979126e-01 3.2419896125793457e-01</leafValues></_>
        <_>
          <internalNodes>
            0 -1 177 -270534929 -1532559432 -282067182 -290799966
            -618210305 1703763444 -1308662459 -724056624</internalNodes>
          <leafValues>
            -3.4646728634834290e-01 2.4653726816177368e-01</leafValues></_>
        <_>
          <internalNodes>
            0 -1 709 -585239307 -1867983448 -241970700 -459334787
            -72352771 -1204163995 1567192484 210750443</internalNodes>
          <leafValues>
            -3.2983118295669556e-01 2.7107086777687073e-01</leafValues></_>
        <_>
          <internalNodes>
            0 -1 716 202255909 741763261 -5318671 2116980718 1962311679
            -2753537 -201510980 -1396954844</internalNodes>
          <leafValues>
            -4.1696232557296753e-01 2.0521488785743713e-01</leafValues></_>
        <_>
          <internalNodes>
            0 -1 76 -488722649 827242485 -178413633 863952378 553496431
            809267471 1414362997 1884742263</internalNodes>
          <leafValues>
            -4.1330584883689880e-01 2.1661911904811859e-01</leafValues></_></weakClassifiers></_>
    <!-- stage 5 -->
    <_>
      <maxWeakCount>28</maxWeakCount>
      <stageThreshold>-2.5198318958282471e+00</stageThreshold>
      <weakClassifiers>
        <_>
          <internalNodes>
            0 -1 506 803155967 -1 -16385 -64513 -1879068673 -16385
            -17409 -20561</internalNodes>
          <leafValues>
            -4.1294163465499878e-01 5.6891220808029175e-01</leafValues></_>
        <_>
          <internalNodes>
            0 -1 978 -67108933 -2125005 -2642025 1068184511 -77071429
            -21005557 -268438597 1001355199</internalNodes>
          <leafValues>
            -4.8306033015251160e-01 4.0018332004547119e-01</leafValues></_>
        <_>
          <internalNodes>
            0 -1 66 -33554433 -17 -37748750 -2198 -1 -16781313
            -134220688 -134744073</internalNodes>
          <leafValues>
            -3.7873753905296326e-01 4.2184135317802429e-01</leafValues></_>
        <_>
          <internalNodes>
            0 -1 622 1565548500 -11206659 -5210625 2147373052 -70201356
            -34291716 -1073808388 720382768</internalNodes>
          <leafValues>
            -4.7419527173042297e-01 2.3073506355285645e-01</leafValues></_>
        <_>
          <internalNodes>
            0 -1 1169 -272634065 670040039 -268437661 -285220945
            2012477015 1207949311 -150997129 -134217729</internalNodes>
          <leafValues>
            -3.2094699144363403e-01 3.4173375368118286e-01</leafValues></_>
        <_>
          <internalNodes>
            0 -1 104 -352325906 1915746167 -201523521 1919614879
            1281846799 2004571999 -12949 2004873195</internalNodes>
          <leafValues>
            -4.1184297204017639e-01 2.2872696816921234e-01</leafValues></_>
        <_>
          <internalNodes>
            0 -1 13 -967902282 -3232297 -312811650 -1342402857
            -101400585 -535297 -1378030875 75498976</internalNodes>
          <leafValues>
            -5.8357399702072144e-01 1.8128234148025513e-01</leafValues></_>
        <_>
          <internalNodes>
            0 -1 654 1567948284 -4719619 2078138367 -33723425 -655874
            -689220 -1075130370 783288368</internalNodes>
          <leafValues>
            -4.0065181255340576e-01 2.1732452511787415e-01</leafValues></_>
        <_>
          <internalNodes>
            0 -1 990 -8437953 2012689791 -1090535433 846946095 -34869401
            2132245311 -69471362 1920203575</internalNodes>
          <leafValues>
            -3.4212902188301086e-01 2.6733618974685669e-01</leafValues></_>
        <_>
          <internalNodes>
            0 -1 946 -37748813 78571930 -33558288 -420431132 -1342441737
            -1954176321 -1796213259 -994576907</internalNodes>
          <leafValues>
            -3.8551011681556702e-01 2.2083956003189087e-01</leafValues></_>
        <_>
          <internalNodes>
            0 -1 173 1111936512 1316981501 -1777360250 -1342240017
            -818430157 526331839 -1077994725 225389354</internalNodes>
          <leafValues>
            -5.4192066192626953e-01 1.6643394529819489e-01</leafValues></_>
        <_>
          <internalNodes>
            0 -1 1146 -21045665 -2097153 -18928274 -90769585 -620929964
            -144715937 -20124208 -193921162</internalNodes>
          <leafValues>
            -3.3143627643585205e-01 2.4532768130302429e-01</leafValues></_>
        <_>
          <internalNodes>
            0 -1 222 -16789810 2128518119 -493703436 1382743622
            1953517660 1532906352 -327877432 -162005425</internalNodes>
          <leafValues>
            -3.3795896172523499e-01 2.5608155131340027e-01</leafValues></_>
        <_>
          <internalNodes>
            0 -1 1024 792461107 111340400 -134219791 -268895308
            1073217523 -1443889793 1476351893 -989989648</internalNodes>
          <leafValues>
            -3.6215168237686157e-01 2.2102913260459900e-01</leafValues></_>
        <_>
          <internalNodes>
            0 -1 424 788473615 585105375 -1196179785 721092606
            2111536751 2138471871 -335685772 1660151779</internalNodes>
          <leafValues>
            -4.7872284054756165e-01 1.7550063133239746e-01</leafValues></_>
        <_>
          <internalNodes>
            0 -1 633 928268276 -2286737 -1109614595 -125025 -414599237
            -41369602 -1073893703 705441312</internalNodes>
          <leafValues>
            -4.2330166697502136e-01 1.8291713297367096e-01</leafValues></_>
        <_>
          <internalNodes>
            0 -1 1135 -141689982 -2140995910 -749226752 -1066861344
            -274733149 210429350 -987246140 1153957091</internalNodes>
          <leafValues>
            -3.9499065279960632e-01 1.9455161690711975e-01</leafValues></_>
        <_>
          <internalNodes>
            0 -1 451 -117486113 -42238081 -154746370 -260376961
            1909412933 -1084268974 -90113532 -28262873</internalNodes>
          <leafValues>
            -3.5458698868751526e-01 2.3232646286487579e-01</leafValues></_>
        <_>
          <internalNodes>
            0 -1 352 1146288852 -50675204 1275756509 -1896068642
            1646328820 -558548174 230063964 1004496738</internalNodes>
          <leafValues>
            -3.4267997741699219e-01 2.1698646247386932e-01</leafValues></_>
        <_>
          <internalNodes>
            0 -1 22 -7350313 -270344708 -1929383440 -55643200 1305077759
            -1946161940 1173344404 -993528073</internalNodes>
          <leafValues>
            -2.9374474287033081e-01 2.6110735535621643e-01</leafValues></_>
        <_>
          <internalNodes>
            0 -1 1190 -2097297 -965478473 -337645650 1782775798
            1598938949 1398798299 -27420 -522715321</internalNodes>
          <leafValues>
            -3.1778249144554138e-01 2.5319728255271912e-01</leafValues></_>
        <_>
          <internalNodes>
            0 -1 267 -1343248535 -1374881363 -1114161998 -974143056
            632813567 1604279263 1945612454 1101514679</internalNodes>
          <leafValues>
            -3.4731438755989075e-01 2.1747368574142456e-01</leafValues></_>
        <_>
          <internalNodes>
            0 -1 961 695156515 248512447 -412811370 -22135811 2136422213
            770504503 -142650780 2129647396</internalNodes>
          <leafValues>
            -4.7993114590644836e-01 1.5454001724720001e-01</leafValues></_>
        <_>
          <internalNodes>
            0 -1 29 -128530708 -1960864693 -2057161015 -778730896
            859873941 1491979539 17832348 543621684</internalNodes>
          <leafValues>
            -4.5648247003555298e-01 1.6261729598045349e-01</leafValues></_>
        <_>
          <internalNodes>
            0 -1 706 744766757 1069416445 -180225 1040084919 -279644171
            -1073766441 -1610776919 -1075302652</internalNodes>
          <leafValues>
            -3.5689705610275269e-01 2.0729744434356689e-01</leafValues></_>
        <_>
          <internalNodes>
            0 -1 236 -117454594 2087128144 -58134786 -92214546
            2085899328 -581172156 -227235328 1912724230</internalNodes>
          <leafValues>
            -4.2075103521347046e-01 1.8896508216857910e-01</leafValues></_>
        <_>
          <internalNodes>
            0 -1 777 -693390336 822367315 -3572515 582474138 201315327
            356210993 1557091800 1543461013</internalNodes>
          <leafValues>
            -3.7388780713081360e-01 2.0107945799827576e-01</leafValues></_>
        <_>
          <internalNodes>
            0 -1 947 -542900367 -1811612421 -33632779 -271143248
            -1171525649 -1474515464 257269757 -1930561331</internalNodes>
          <leafValues>
            -2.6113742589950562e-01 2.7867373824119568e-01</leafValues></_></weakClassifiers></_>
    <!-- stage 6 -->
    <_>
      <maxWeakCount>36</maxWeakCount>
      <stageThreshold>-2.2568182945251465e+00</stageThreshold>
      <weakClassifiers>
        <_>
          <internalNodes>
            0 -1 546 805252927 -1342177345 -138412033 -20481 -1879048193
            -536870913 -1 -1</internalNodes>
          <leafValues>
            -4.2466044425964355e-01 4.8061969876289368e-01</leafValues></_>
        <_>
          <internalNodes>
            0 -1 986 -1 -16623 -39887138 981203838 -33829137 -679827676
            -66 1886912319</internalNodes>
          <leafValues>
            -4.1716283559799194e-01 3.5461926460266113e-01</leafValues></_>
        <_>
          <internalNodes>
            0 -1 5 -1052961 -612388609 -1442659122 -236985697 -825258865
            -1713773869 -1974499093 1090472671</internalNodes>
          <leafValues>
            -3.5391309857368469e-01 3.5464280843734741e-01</leafValues></_>
        <_>
          <internalNodes>
            0 -1 610 267860863 2011168255 -1208238081 -267313 1610612735
            -406083 -1025 -1349</internalNodes>
          <leafValues>
            -2.4067060649394989e-01 3.8022831082344055e-01</leafValues></_>
        <_>
          <internalNodes>
            0 -1 285 -50336017 -134225969 -254087426 1914367967
            1978617679 2137984591 -487066625 -143130625</internalNodes>
          <leafValues>
            -3.1932953000068665e-01 2.3694592714309692e-01</leafValues></_>
        <_>
          <internalNodes>
            0 -1 377 -1375752241 -1360011387 -6305358 -269506961
            268173311 116826031 1207908343 1172297719</internalNodes>
          <leafValues>
            -2.8909772634506226e-01 2.5899076461791992e-01</leafValues></_>
        <_>
          <internalNodes>
            0 -1 1052 -1389887709 646643490 -181415952 -320407836
            259915775 -1880375297 234833397 -990906891</internalNodes>
          <leafValues>
            -3.5771265625953674e-01 1.9301319122314453e-01</leafValues></_>
        <_>
          <internalNodes>
            0 -1 625 -558368912 -53100561 -675152548 -56822836 -24773771
            -235038721 -63121611 806362372</internalNodes>
          <leafValues>
            -5.2429819107055664e-01 1.4098520576953888e-01</leafValues></_>
        <_>
          <internalNodes>
            0 -1 1001 -402706641 1877955959 -334561293 -486547609
            1538750327 1467328809 -162007257 2012736343</internalNodes>
          <leafValues>
            -4.1834846138954163e-01 1.5189261734485626e-01</leafValues></_>
        <_>
          <internalNodes>
            0 -1 244 -5773441 -1012203722 -273990 -423432224 -990120449
            -1954218241 -991604764 -990584332</internalNodes>
          <leafValues>
            -3.1511473655700684e-01 2.1035197377204895e-01</leafValues></_>
        <_>
          <internalNodes>
            0 -1 154 -554635010 -554088222 -1869556739 1310770402
            1900036804 -309968767 -146748549 1598189139</internalNodes>
          <leafValues>
            -3.4222346544265747e-01 2.0142276585102081e-01</leafValues></_>
        <_>
          <internalNodes>
            0 -1 1098 -536870945 2002769779 -1742751522 1917976530
            -220363508 1987840847 -84214290 -263726233</internalNodes>
          <leafValues>
            -2.6080065965652466e-01 2.3539629578590393e-01</leafValues></_>
        <_>
          <internalNodes>
            0 -1 936 -4980958 665583544 -572527098 -59836466 1179641831
            261814809 96425189 1408224963</internalNodes>
          <leafValues>
            -3.3348205685615540e-01 1.8143284320831299e-01</leafValues></_>
        <_>
          <internalNodes>
            0 -1 667 87304976 939405151 -1078518305 -10612739 914702269
            871889886 -1346523459 665594120</internalNodes>
          <leafValues>
            -3.1918805837631226e-01 1.8352670967578888e-01</leafValues></_>
        <_>
          <internalNodes>
            0 -1 60 -338776285 -761352804 928643351 1071636432 183349047
            998044690 1711488307 1690683126</internalNodes>
          <leafValues>
            -3.4973683953285217e-01 1.6471034288406372e-01</leafValues></_>
        <_>
          <internalNodes>
            0 -1 1142 -742391901 -1256134752 -317722640 -312417048
            -338957377 -1434146978 1406131328 -997726842</internalNodes>
          <leafValues>
            -2.4649669229984283e-01 2.3698925971984863e-01</leafValues></_>
        <_>
          <internalNodes>
            0 -1 185 1141113360 -538990081 649989496 -1344986465
            2147293879 2140662254 -1619182789 224537128</internalNodes>
          <leafValues>
            -4.6856147050857544e-01 1.2701937556266785e-01</leafValues></_>
        <_>
          <internalNodes>
            0 -1 744 1429534192 -1943472136 1434676181 -855907588
            -1080182792 -1438666311 453922220 215830708</internalNodes>
          <leafValues>
            -3.7154361605644226e-01 1.4619196951389313e-01</leafValues></_>
        <_>
          <internalNodes>
            0 -1 472 618335791 777912159 -1401102434 542702951
            1383563103 626260795 -134777774 1086647686</internalNodes>
          <leafValues>
            -5.2514308691024780e-01 1.0656309872865677e-01</leafValues></_>
        <_>
          <internalNodes>
            0 -1 1104 -261952384 290923138 -2063387215 356528791
            2068154285 745333775 1179005822 222229794</internalNodes>
          <leafValues>
            -3.4724044799804688e-01 1.5943248569965363e-01</leafValues></_>
        <_>
          <internalNodes>
            0 -1 161 -51130738 -570467921 1714864778 438888170
            -1963703224 -647599548 -529917944 -700199166</internalNodes>
          <leafValues>
            -3.0718615651130676e-01 1.7781212925910950e-01</leafValues></_>
        <_>
          <internalNodes>
            0 -1 1018 980416 409002510 1648871940 80013120 74092976
            185213088 1157666768 -2070160430</internalNodes>
          <leafValues>
            -3.6787697672843933e-01 1.4567872881889343e-01</leafValues></_>
        <_>
          <internalNodes>
            0 -1 73 -41943041 1530303485 -111171922 -289484118
            1240833919 532806119 1308050804 -991431449</internalNodes>
          <leafValues>
            -2.4902787804603577e-01 2.1545512974262238e-01</leafValues></_>
        <_>
          <internalNodes>
            0 -1 609 786771759 719254495 -2135472209 183250894 368924515
            1564336109 -1093437884 1151124278</internalNodes>
          <leafValues>
            -4.9928936362266541e-01 1.0659179836511612e-01</leafValues></_>
        <_>
          <internalNodes>
            0 -1 614 292568564 -713687300 -1344453155 -1147462727
            -1114180678 -1250685512 -1626563080 -1618925486</internalNodes>
          <leafValues>
            -2.6808634400367737e-01 1.9760143756866455e-01</leafValues></_>
        <_>
          <internalNodes>
            0 -1 928 669859647 2039445373 1390098782 1914059535
            1819284529 1061109253 1987411814 1985281839</internalNodes>
          <leafValues>
            -3.5788047313690186e-01 1.5453331172466278e-01</leafValues></_>
        <_>
          <internalNodes>
            0 -1 586 48441167 104857503 1790763774 719495059 1143414583
            2096983999 -1393300015 686880206</internalNodes>
          <leafValues>
            -4.0089622139930725e-01 1.2692536413669586e-01</leafValues></_>
        <_>
          <internalNodes>
            0 -1 70 -101218782 2137775806 -1170538505 589364878
            -101718786 -1073953547 -1442883871 1802143222</internalNodes>
          <leafValues>
            -1.9383314251899719e-01 2.7846413850784302e-01</leafValues></_>
        <_>
          <internalNodes>
            0 -1 1179 -50340401 -145109131 -85840498 839021482
            -547872924 1966161245 -16803572 -536845212</internalNodes>
          <leafValues>
            -3.1160056591033936e-01 1.8153938651084900e-01</leafValues></_>
        <_>
          <internalNodes>
            0 -1 629 546580292 1966897933 -1660970505 -212033602
            1841049581 1509878383 1072045039 137627652</internalNodes>
          <leafValues>
            -4.7437226772308350e-01 1.0614574700593948e-01</leafValues></_>
        <_>
          <internalNodes>
            0 -1 1157 -294144725 747566058 -87614306 -435378304
            2007879663 97226639 1370316758 -989859385</internalNodes>
          <leafValues>
            -2.3224575817584991e-01 2.0918555557727814e-01</leafValues></_>
        <_>
          <internalNodes>
            0 -1 178 -295774853 -1074885582 1998016850 -405890380
            -1943304529 -499327068 66090545 -1060125372</internalNodes>
          <leafValues>
            -2.6319250464439392e-01 1.8999443948268890e-01</leafValues></_>
        <_>
          <internalNodes>
            0 -1 933 803152167 1315909995 -13662922 -1570078858
            1398232951 1158926647 -472624779 1634960196</internalNodes>
          <leafValues>
            -5.0966131687164307e-01 9.6085950732231140e-02</leafValues></_>
        <_>
          <internalNodes>
            0 -1 500 1145347925 1878966251 225389999 499909135 -10502275
            -137634593 191694164 650643460</internalNodes>
          <leafValues>
            -3.4451511502265930e-01 1.4296089112758636e-01</leafValues></_>
        <_>
          <internalNodes>
            0 -1 637 74788149 402465726 939503549 1069222703 545243071
            -1577206308 -1476449361 801048079</internalNodes>
          <leafValues>
            -1.9577598571777344e-01 2.7566727995872498e-01</leafValues></_>
        <_>
          <internalNodes>
            0 -1 158 -788533250 1496315175 -626356968 379722014
            -60990388 -42596268 -328157080 -1036979102</internalNodes>
          <leafValues>
            -2.7042582631111145e-01 1.8695403635501862e-01</leafValues></_></weakClassifiers></_>
    <!-- stage 7 -->
    <_>
      <maxWeakCount>41</maxWeakCount>
      <stageThreshold>-2.3711142539978027e+00</stageThreshold>
      <weakClassifiers>
        <_>
          <internalNodes>
            0 -1 856 805252927 2147483647 -2081 -1025 2013233023
            2147478511 -32769 -1</internalNodes>
          <leafValues>
            -4.4946008920669556e-01 4.1363018751144409e-01</leafValues></_>
        <_>
          <internalNodes>
            0 -1 1189 -1 -1 -17039362 -286326801 -805314593 2147483647
            -306 -185073681</internalNodes>
          <leafValues>
            -2.8730756044387817e-01 4.4739833474159241e-01</leafValues></_>
        <_>
          <internalNodes>
            0 -1 471 788475711 184547287 -17829953 -1427965969 769388415
            1825046459 -2100361 1157627903</internalNodes>
          <leafValues>
            -4.8115044832229614e-01 2.0679825544357300e-01</leafValues></_>
        <_>
          <internalNodes>
            0 -1 8 -1116353 -2294438 -279722595 -537006882 -1425082438
            -1102646393 -96404545 -856373292</internalNodes>
          <leafValues>
            -3.8151773810386658e-01 2.5006645917892456e-01</leafValues></_>
        <_>
          <internalNodes>
            0 -1 337 -318772657 2004745087 -556010242 855375135
            -268730803 1464818559 -2368037 2004877051</internalNodes>
          <leafValues>
            -3.3590316772460938e-01 2.1916139125823975e-01</leafValues></_>
        <_>
          <internalNodes>
            0 -1 0 -274206793 -1943078930 -420481300 -1373312152
            1191182271 133143983 1962869860 -991627948</internalNodes>
          <leafValues>
            -4.2530298233032227e-01 1.3937559723854065e-01</leafValues></_>
        <_>
          <internalNodes>
            0 -1 378 -2014335041 111071151 -301998088 -2031095894
            213902575 89124847 671045445 1157619189</internalNodes>
          <leafValues>
            -3.6853021383285522e-01 1.9308359920978546e-01</leafValues></_>
        <_>
          <internalNodes>
            0 -1 1166 -271585497 58720175 -386026065 -1568997425
            1105155447 1566046071 -285740633 -184549585</internalNodes>
          <leafValues>
            -3.0178940296173096e-01 2.2448539733886719e-01</leafValues></_>
        <_>
          <internalNodes>
            0 -1 1013 800042791 -1910308865 -151650317 -8389770
            117440503 -1879048785 1509905909 2112337397</internalNodes>
          <leafValues>
            -3.0288764834403992e-01 1.9872927665710449e-01</leafValues></_>
        <_>
          <internalNodes>
            0 -1 199 -1501567041 256573151 -134486094 -121766110
            1429202783 1197997999 1207923735 -436733993</internalNodes>
          <leafValues>
            -2.8326037526130676e-01 2.1388278901576996e-01</leafValues></_>
        <_>
          <internalNodes>
            0 -1 548 534724575 -536924481 -436481153 -269196646
            -1912615029 -1400941577 -71318674 -943666040</internalNodes>
          <leafValues>
            -2.0283393561840057e-01 2.9713773727416992e-01</leafValues></_>
        <_>
          <internalNodes>
            0 -1 1028 -671875109 -1123376232 -2013536896 -1943223168
            -1698497622 -1936796898 1502196104 -871498358</internalNodes>
          <leafValues>
            -2.4417139589786530e-01 2.3952130973339081e-01</leafValues></_>
        <_>
          <internalNodes>
            0 -1 934 804208443 255327227 -27855 -285675756 1340047207
            1499791231 -164018831 2010639697</internalNodes>
          <leafValues>
            -3.8117977976799011e-01 1.5279251337051392e-01</leafValues></_>
        <_>
          <internalNodes>
            0 -1 443 -587266465 928870231 -88167762 812808998 -454144956
            2134863703 -59319532 -160236718</internalNodes>
          <leafValues>
            -3.1319025158882141e-01 1.7820596694946289e-01</leafValues></_>
        <_>
          <internalNodes>
            0 -1 992 -356539611 1869293414 -670636337 1312872011
            1116877765 1207465710 2127288244 1883550261</internalNodes>
          <leafValues>
            -3.2999259233474731e-01 1.7107337713241577e-01</leafValues></_>
        <_>
          <internalNodes>
            0 -1 512 356990683 -36902987 1070545407 1070535346 -60966983
            -465502939 -1080052737 -6309222</internalNodes>
          <leafValues>
            -1.7647142708301544e-01 3.2057651877403259e-01</leafValues></_>
        <_>
          <internalNodes>
            0 -1 466 218050559 -1361580289 -673268230 -1413958146
            164573183 236977087 1744786887 1105694695</internalNodes>
          <leafValues>
            -2.9480674862861633e-01 1.8472833931446075e-01</leafValues></_>
        <_>
          <internalNodes>
            0 -1 764 1023997945 -641925188 -645005315 -5334796
            -1087455237 -1162687520 489361820 79364256</internalNodes>
          <leafValues>
            -2.6645660400390625e-01 2.0080958306789398e-01</leafValues></_>
        <_>
          <internalNodes>
            0 -1 732 644296503 101941151 -51467924 -1306072277
            1993167190 1398205411 1440488532 1425407855</internalNodes>
          <leafValues>
            -3.7845256924629211e-01 1.3893827795982361e-01</leafValues></_>
        <_>
          <internalNodes>
            0 -1 748 -428362320 -136431696 -146565897 -225708139
            -576832069 -17851489 -1614503019 -265027564</internalNodes>
          <leafValues>
            -2.5723558664321899e-01 2.0600663125514984e-01</leafValues></_>
        <_>
          <internalNodes>
            0 -1 447 -721757060 -203602817 -365364741 454184351
            -254779788 -26131708 -39661802 2064674643</internalNodes>
          <leafValues>
            -3.0069747567176819e-01 1.7038661241531372e-01</leafValues></_>
        <_>
          <internalNodes>
            0 -1 1182 -18883507 523476779 -407064690 -1162697756
            -319858620 1499847551 -318845056 -462357660</internalNodes>
          <leafValues>
            -3.2117739319801331e-01 1.5712043642997742e-01</leafValues></_>
        <_>
          <internalNodes>
            0 -1 164 -615711754 1686040559 -9 176060060 -312483853
            -53608449 -106668 -100663345</internalNodes>
          <leafValues>
            -2.0114420354366302e-01 2.5578540563583374e-01</leafValues></_>
        <_>
          <internalNodes>
            0 -1 204 -118832918 1366253407 2085421052 285932864
            468281292 1012683023 571433060 772533230</internalNodes>
          <leafValues>
            -2.5974828004837036e-01 1.9329366087913513e-01</leafValues></_>
        <_>
          <internalNodes>
            0 -1 576 612314919 619829623 -421429642 617021183 114259837
            1819602367 -1050651 1174404805</internalNodes>
          <leafValues>
            -3.7006217241287231e-01 1.4139570295810699e-01</leafValues></_>
        <_>
          <internalNodes>
            0 -1 815 1223415492 1023588366 -823273884 -1404699329
            1046831103 -1109008555 202195519 -281018629</internalNodes>
          <leafValues>
            -2.1428862214088440e-01 2.3161196708679199e-01</leafValues></_>
        <_>
          <internalNodes>
            0 -1 926 981417775 1946115399 -1113625293 573972235
            2037861983 1425424343 530569037 1922133823</internalNodes>
          <leafValues>
            -2.8446134924888611e-01 1.8580448627471924e-01</leafValues></_>
        <_>
          <internalNodes>
            0 -1 1087 -274608350 774038914 -935616000 -999539294
            -959193170 227465606 -437959292 1151845863</internalNodes>
          <leafValues>
            -4.2945447564125061e-01 1.1166094988584518e-01</leafValues></_>
        <_>
          <internalNodes>
            0 -1 1096 -584807760 1967925000 1363152904 963641904
            1657018158 -1367011262 -60016621 323367826</internalNodes>
          <leafValues>
            -3.7500718235969543e-01 1.2496139854192734e-01</leafValues></_>
        <_>
          <internalNodes>
            0 -1 403 1761562191 -1149272975 -1680453706 1513236286
            -1061354492 -547520684 -388084928 1916829538</internalNodes>
          <leafValues>
            -3.8974615931510925e-01 1.2246299535036087e-01</leafValues></_>
        <_>
          <internalNodes>
            0 -1 698 788475695 1018187774 -457339158 918301929
            1291279975 1290655295 -202114075 1414854236</internalNodes>
          <leafValues>
            -3.7240475416183472e-01 1.2718367576599121e-01</leafValues></_>
        <_>
          <internalNodes>
            0 -1 1097 -151270577 -681649370 1053416446 -229386484
            -592982204 2081542246 -122126642 542604867</internalNodes>
          <leafValues>
            -2.6179805397987366e-01 1.7862069606781006e-01</leafValues></_>
        <_>
          <internalNodes>
            0 -1 533 747908631 815300031 -1141451297 -1241860876
            372150271 -1158440961 -1551954249 82577588</internalNodes>
          <leafValues>
            -3.8732281327247620e-01 1.2047898024320602e-01</leafValues></_>
        <_>
          <internalNodes>
            0 -1 110 1944086214 424962260 1296362324 2034684334
            1607493560 -2050665939 1514264576 -1795168614</internalNodes>
          <leafValues>
            -2.5692272186279297e-01 1.7858198285102844e-01</leafValues></_>
        <_>
          <internalNodes>
            0 -1 1045 -544211296 23128014 -691672488 -200412439
            113889526 92949248 1091519941 1440999290</internalNodes>
          <leafValues>
            -2.7286121249198914e-01 1.7395083606243134e-01</leafValues></_>
        <_>
          <internalNodes>
            0 -1 858 -1356647646 2137144432 -460939305 406753119
            1736654823 1420374772 -710684617 -143067353</internalNodes>
          <leafValues>
            -2.7944341301918030e-01 1.7003299295902252e-01</leafValues></_>
        <_>
          <internalNodes>
            0 -1 801 -858274736 -1034145196 -165426466 1289597019
            -359794544 -621081666 -570373509 812247871</internalNodes>
          <leafValues>
            -2.9451245069503784e-01 1.5482364594936371e-01</leafValues></_>
        <_>
          <internalNodes>
            0 -1 909 658472767 -1560084766 2130134496 -21184604
            1604818871 1843648333 1707038196 1425295348</internalNodes>
          <leafValues>
            -3.1999599933624268e-01 1.4543248713016510e-01</leafValues></_>
        <_>
          <internalNodes>
            0 -1 165 -588255841 -13369617 -22099926 -261704027 23448844
            -598221185 -454562660 -1060902313</internalNodes>
          <leafValues>
            -1.9209952652454376e-01 2.4604551494121552e-01</leafValues></_>
        <_>
          <internalNodes>
            0 -1 32 -269554781 -1960380566 -1091487630 -1209880926
            165662675 1319549031 620707925 -792222460</internalNodes>
          <leafValues>
            -2.6194724440574646e-01 1.7518553137779236e-01</leafValues></_>
        <_>
          <internalNodes>
            0 -1 225 1176653564 -28694422 -779954638 201377882
            1884573894 -1149222672 -48177530 1225018978</internalNodes>
          <leafValues>
            -4.2610827088356018e-01 1.0445013642311096e-01</leafValues></_></weakClassifiers></_>
    <!-- stage 8 -->
    <_>
      <maxWeakCount>42</maxWeakCount>
      <stageThreshold>-2.1821157932281494e+00</stageThreshold>
      <weakClassifiers>
        <_>
          <internalNodes>
            0 -1 756 796864295 -8391905 -1152405729 -2103297 -1 -2097153
            -538993169 -65</internalNodes>
          <leafValues>
            -4.6273109316825867e-01 3.5763350129127502e-01</leafValues></_>
        <_>
          <internalNodes>
            0 -1 78 -276824145 -209848489 -268582624 -203162881 94367527
            825491267 1207912199 1936717607</internalNodes>
          <leafValues>
            -4.5180770754814148e-01 2.6269915699958801e-01</leafValues></_>
        <_>
          <internalNodes>
            0 -1 1107 -142606369 -2689 -184623874 -227542042 -118633475
            1602222939 -2 -193462481</internalNodes>
          <leafValues>
            -3.3274120092391968e-01 3.1307998299598694e-01</leafValues></_>
        <_>
          <internalNodes>
            0 -1 1050 -1347682525 -1358889056 -134217740 -4653148
            268430847 -1986002949 1375725045 -570427916</internalNodes>
          <leafValues>
            -2.4342785775661469e-01 3.1392079591751099e-01</leafValues></_>
        <_>
          <internalNodes>
            0 -1 467 671035391 -1359527937 -524289 -276844545 167747583
            -1895825425 1107293683 -990382089</internalNodes>
          <leafValues>
            -3.3650484681129456e-01 2.2049017250537872e-01</leafValues></_>
        <_>
          <internalNodes>
            0 -1 224 -16782130 -144715265 -124330770 -252256325
            1889224015 2135640617 -190981394 -245891153</internalNodes>
          <leafValues>
            -3.7860208749771118e-01 1.5803115069866180e-01</leafValues></_>
        <_>
          <internalNodes>
            0 -1 26 -565250570 -154075436 -736305700 -269177379
            -168034345 -2622985 -271808124 36701925</internalNodes>
          <leafValues>
            -4.4037550687789917e-01 1.7948307096958160e-01</leafValues></_>
        <_>
          <internalNodes>
            0 -1 1081 -1343750173 748879648 -170398352 -286206112
            1340079615 -1901134865 1609557476 -992487947</internalNodes>
          <leafValues>
            -3.1567186117172241e-01 2.1174904704093933e-01</leafValues></_>
        <_>
          <internalNodes>
            0 -1 1044 804204295 -1351615041 -21508190 1723531263
            1577022839 83359671 1207259457 1962932069</internalNodes>
          <leafValues>
            -4.6980217099189758e-01 1.1351562291383743e-01</leafValues></_>
        <_>
          <internalNodes>
            0 -1 674 -601817092 -603658796 1440439806 -329394692
            -1389510727 -185999124 403712564 137183240</internalNodes>
          <leafValues>
            -3.6592367291450500e-01 1.5289653837680817e-01</leafValues></_>
        <_>
          <internalNodes>
            0 -1 80 -218109269 844822398 -150649819 153153756 1039024095
            2138931069 2108509004 1918889584</internalNodes>
          <leafValues>
            -2.7921894192695618e-01 1.9952128827571869e-01</leafValues></_>
        <_>
          <internalNodes>
            0 -1 638 939473717 1025322797 -1082245249 -5304513
            -1476411713 -1074026737 -33706103 -1087402229</internalNodes>
          <leafValues>
            -1.3425824046134949e-01 4.0019327402114868e-01</leafValues></_>
        <_>
          <internalNodes>
            0 -1 1191 -873074817 1668677503 -281350212 674426759
            1205696359 1979702765 -507671826 -453509129</internalNodes>
          <leafValues>
            -2.6465955376625061e-01 2.0123380422592163e-01</leafValues></_>
        <_>
          <internalNodes>
            0 -1 525 -587444898 2080317279 -1370816521 1043480363
            1153715300 -109215898 -1661448880 840986434</internalNodes>
          <leafValues>
            -4.0539747476577759e-01 1.2954413890838623e-01</leafValues></_>
        <_>
          <internalNodes>
            0 -1 519 -855946113 2138791775 -320929825 1041391402
            2094488668 2088333111 -855711884 -264978634</internalNodes>
          <leafValues>
            -2.8317308425903320e-01 1.8193560838699341e-01</leafValues></_>
        <_>
          <internalNodes>
            0 -1 409 1430218244 249368287 1541355495 1340015166
            -1155616205 1070447295 2146152506 1064442409</internalNodes>
          <leafValues>
            -4.3416118621826172e-01 1.1345283687114716e-01</leafValues></_>
        <_>
          <internalNodes>
            0 -1 1159 -696267001 -1121256609 -324132876 874691898
            -1176609468 2138394471 -590562288 -252641420</internalNodes>
          <leafValues>
            -3.4400692582130432e-01 1.4101286232471466e-01</leafValues></_>
        <_>
          <internalNodes>
            0 -1 886 -389045845 1592670199 -1475290337 763572376
            -1283447308 -2099764309 -977129176 1085018920</internalNodes>
          <leafValues>
            -3.0166202783584595e-01 1.6314969956874847e-01</leafValues></_>
        <_>
          <internalNodes>
            0 -1 566 -704319016 1960629968 389166941 798407962
            -181928208 -195257092 654979856 739047100</internalNodes>
          <leafValues>
            -3.6029034852981567e-01 1.4311990141868591e-01</leafValues></_>
        <_>
          <internalNodes>
            0 -1 379 -1344295121 648914351 -1882255373 -1466173521
            805172599 620232639 1342128935 1174140919</internalNodes>
          <leafValues>
            -3.0733194947242737e-01 1.6838721930980682e-01</leafValues></_>
        <_>
          <internalNodes>
            0 -1 780 1067838384 -1233593928 -288786184 -1138893364
            536709099 -1985459497 156124633 219151007</internalNodes>
          <leafValues>
            -2.5420203804969788e-01 2.0941533148288727e-01</leafValues></_>
        <_>
          <internalNodes>
            0 -1 860 803684127 754909159 -1208254549 1198587864
            1605328623 1972760355 1876242288 1702227285</internalNodes>
          <leafValues>
            -3.6972478032112122e-01 1.4593206346035004e-01</leafValues></_>
        <_>
          <internalNodes>
            0 -1 1032 238414627 48289570 -1782752128 -1530383262
            1795019743 -1903432789 1153905892 1153953870</internalNodes>
          <leafValues>
            -3.8078832626342773e-01 1.2871140241622925e-01</leafValues></_>
        <_>
          <internalNodes>
            0 -1 54 -414189601 1046806455 -348393568 -307959838
            2139045359 550485915 -772981280 -991435033</internalNodes>
          <leafValues>
            -2.1016068756580353e-01 2.3129904270172119e-01</leafValues></_>
        <_>
          <internalNodes>
            0 -1 432 -270587379 845149991 -1096292866 841405917
            -287502780 1581508981 -33556268 1884552191</internalNodes>
          <leafValues>
            -3.1551435589790344e-01 1.5192338824272156e-01</leafValues></_>
        <_>
          <internalNodes>
            0 -1 571 2140944400 -287504239 -758409227 -1945626521
            2144679989 -172053599 1249979681 -1945334264</internalNodes>
          <leafValues>
            -3.8453823328018188e-01 1.2977425754070282e-01</leafValues></_>
        <_>
          <internalNodes>
            0 -1 1090 -111288501 859023161 -1765892494 -1340629143
            -1657418036 1364533063 -84431400 1886599003</internalNodes>
          <leafValues>
            -2.2023899853229523e-01 2.1855024993419647e-01</leafValues></_>
        <_>
          <internalNodes>
            0 -1 994 267861295 -55614697 -922820038 2121989951
            1190481521 1164713781 -1663618233 1920663351</internalNodes>
          <leafValues>
            -3.2436493039131165e-01 1.4854627847671509e-01</leafValues></_>
        <_>
          <internalNodes>
            0 -1 457 -755588104 -797001514 -748246563 -1659983571
            -1946602824 -1207983105 -247448819 -179564788</internalNodes>
          <leafValues>
            -2.8468951582908630e-01 1.5890088677406311e-01</leafValues></_>
        <_>
          <internalNodes>
            0 -1 989 -557850464 378024334 -1727884787 -1527008
            1065090896 -1295287514 1539637837 838000987</internalNodes>
          <leafValues>
            -2.5187203288078308e-01 1.8431749939918518e-01</leafValues></_>
        <_>
          <internalNodes>
            0 -1 644 644562735 76939241 -588799298 8533884 1878912879
            2013133805 -128981186 636872670</internalNodes>
          <leafValues>
            -3.4627950191497803e-01 1.3910058140754700e-01</leafValues></_>
        <_>
          <internalNodes>
            0 -1 81 -604517278 2045476733 -405012770 2133000157
            1911551487 1996738421 1442710596 1130746355</internalNodes>
          <leafValues>
            -2.1701197326183319e-01 2.4143050611019135e-01</leafValues></_>
        <_>
          <internalNodes>
            0 -1 828 1677784688 -529477204 -712802819 -1405683204
            -1286674983 -1434134342 254594557 206423197</internalNodes>
          <leafValues>
            -2.9842340946197510e-01 1.6430796682834625e-01</leafValues></_>
        <_>
          <internalNodes>
            0 -1 195 -1362104409 782368539 -142108600 224573986 98499415
            231209567 1644134148 73909575</internalNodes>
          <leafValues>
            -3.4219697117805481e-01 1.3247029483318329e-01</leafValues></_>
        <_>
          <internalNodes>
            0 -1 410 778958824 902363896 -278928405 -1075385124
            1229127423 -1678007585 921509053 -860606780</internalNodes>
          <leafValues>
            -2.8303879499435425e-01 1.6705568134784698e-01</leafValues></_>
        <_>
          <internalNodes>
            0 -1 1131 -5256958 1034418780 -54016736 74239840 1303368698
            354209 1127952774 1155002094</internalNodes>
          <leafValues>
            -2.4170635640621185e-01 1.9435676932334900e-01</leafValues></_>
        <_>
          <internalNodes>
            0 -1 276 411872784 1548147702 1053589349 1852110200
            -19403785 985237714 450607701 -1907364078</internalNodes>
          <leafValues>
            -3.2063892483711243e-01 1.4376710355281830e-01</leafValues></_>
        <_>
          <internalNodes>
            0 -1 898 661851911 743501112 -944771535 -735122802
            1738686310 1181282135 1942955093 1431371588</internalNodes>
          <leafValues>
            -4.5160299539566040e-01 9.8098620772361755e-02</leafValues></_>
        <_>
          <internalNodes>
            0 -1 656 74458484 1071732735 -1090537547 916225534
            1554801989 351866861 -85148912 538979104</internalNodes>
          <leafValues>
            -5.1072651147842407e-01 8.2425832748413086e-02</leafValues></_>
        <_>
          <internalNodes>
            0 -1 325 -2000187629 1125458911 1477692757 1804251129
            64933595 1076214774 1190543926 -994784108</internalNodes>
          <leafValues>
            -2.6115021109580994e-01 1.7107474803924561e-01</leafValues></_>
        <_>
          <internalNodes>
            0 -1 137 -179516164 1422738654 -569090638 1313262218 3166788
            -880607192 -251471018 1581525506</internalNodes>
          <leafValues>
            -3.8925573229789734e-01 1.1297069489955902e-01</leafValues></_>
        <_>
          <internalNodes>
            0 -1 1067 -335827181 586038604 -225994237 3317137 1345009573
            1461866595 1889735620 1883633534</internalNodes>
          <leafValues>
            -3.5325434803962708e-01 1.2143439799547195e-01</leafValues></_></weakClassifiers></_>
    <!-- stage 9 -->
    <_>
      <maxWeakCount>50</maxWeakCount>
      <stageThreshold>-2.3323483467102051e+00</stageThreshold>
      <weakClassifiers>
        <_>
          <internalNodes>
            0 -1 857 803155775 -79726753 -36708353 -1 2143248247
            -8921217 -614762625 -193</internalNodes>
          <leafValues>
            -4.4409340620040894e-01 3.1089526414871216e-01</leafValues></_>
        <_>
          <internalNodes>
            0 -1 59 -2228229 -2698277 -1156063781 -4334371 201043967
            -1946645572 1202018291 1173841911</internalNodes>
          <leafValues>
            -4.4330456852912903e-01 2.6851394772529602e-01</leafValues></_>
        <_>
          <internalNodes>
            0 -1 1095 -65 -1201614 -7342541 -13945050 -616308053
            -1209604946 -514860149 738190135</internalNodes>
          <leafValues>
            -3.4169000387191772e-01 2.9587924480438232e-01</leafValues></_>
        <_>
          <internalNodes>
            0 -1 348 -50337553 -75530401 -218169602 1915944927
            1593771087 2136952647 -184550198 -230162609</internalNodes>
          <leafValues>
            -2.5733989477157593e-01 2.8444486856460571e-01</leafValues></_>
        <_>
          <internalNodes>
            0 -1 639 670837567 1073561599 1070808445 939396383 702233535
            1039646463 -1363202113 669778444</internalNodes>
          <leafValues>
            -3.8764530420303345e-01 1.6879908740520477e-01</leafValues></_>
        <_>
          <internalNodes>
            0 -1 1035 -11534429 -1576600666 -807552848 -1930645534
            -826544641 -1937067093 -839125519 -993006609</internalNodes>
          <leafValues>
            -3.3839607238769531e-01 2.0261684060096741e-01</leafValues></_>
        <_>
          <internalNodes>
            0 -1 893 -143658078 1005185006 -440181377 655029770
            1740765179 133955325 1372837324 1388043965</internalNodes>
          <leafValues>
            -3.0081096291542053e-01 2.0991910994052887e-01</leafValues></_>
        <_>
          <internalNodes>
            0 -1 240 -16852993 -13573 -851969 -987427 -27997499
            -50576448 -145563817 -547926521</internalNodes>
          <leafValues>
            -1.7472776770591736e-01 3.5376539826393127e-01</leafValues></_>
        <_>
          <internalNodes>
            0 -1 983 -48301 -681995431 1343481136 1920439582 -23077051
            1596177957 1996488446 -261622965</internalNodes>
          <leafValues>
            -3.2839486002922058e-01 1.6712692379951477e-01</leafValues></_>
        <_>
          <internalNodes>
            0 -1 207 -353522034 811040095 -27277266 1923870719
            1742557023 1919774075 1337158233 2004352967</internalNodes>
          <leafValues>
            -3.2076585292816162e-01 1.8370799720287323e-01</leafValues></_>
        <_>
          <internalNodes>
            0 -1 313 1946134170 -205089794 -49114705 -225922324
            -250893416 -1275072008 -203495028 96733196</internalNodes>
          <leafValues>
            -4.7780647873878479e-01 1.3166822493076324e-01</leafValues></_>
        <_>
          <internalNodes>
            0 -1 148 -556990472 -588476180 -563188472 1324239434
            -1173365324 -1197620496 1260084032 1271885583</internalNodes>
          <leafValues>
            -3.2977512478828430e-01 1.6507263481616974e-01</leafValues></_>
        <_>
          <internalNodes>
            0 -1 708 2365205 2113207289 526040575 -1076220258 1039728573
            -34278487 -1143002632 921698464</internalNodes>
          <leafValues>
            -3.4360736608505249e-01 1.6162773966789246e-01</leafValues></_>
        <_>
          <internalNodes>
            0 -1 1114 -17840565 1181181807 -2141163998 573046634
            1173045348 1685287264 -1232897160 1617421824</internalNodes>
          <leafValues>
            -3.9617544412612915e-01 1.3396406173706055e-01</leafValues></_>
        <_>
          <internalNodes>
            0 -1 470 -1478676625 644741119 1861940475 -1602224450
            -270537217 1249345531 -876886025 -990909257</internalNodes>
          <leafValues>
            -3.0546659231185913e-01 1.7760530114173889e-01</leafValues></_>
        <_>
          <internalNodes>
            0 -1 553 336595704 -589557762 -1622432005 -1616926598
            -539904080 -1250917444 -338479010 -537091446</internalNodes>
          <leafValues>
            -3.1202813982963562e-01 1.7071977257728577e-01</leafValues></_>
        <_>
          <internalNodes>
            0 -1 1051 -840040542 -2027774072 -1593994080 -495788222
            364902383 1321679649 1157620977 1422389231</internalNodes>
          <leafValues>
            -3.5027074813842773e-01 1.4777569472789764e-01</leafValues></_>
        <_>
          <internalNodes>
            0 -1 228 -16781778 1581250351 -356634962 -1469920410
            -582788026 2138274578 -823884992 -229179565</internalNodes>
          <leafValues>
            -3.1129303574562073e-01 1.7051471769809723e-01</leafValues></_>
        <_>
          <internalNodes>
            0 -1 12 -17119054 1761512403 -1890588917 251379723 427631418
            587075867 1071589202 312152827</internalNodes>
          <leafValues>
            -4.1231453418731689e-01 1.2004216760396957e-01</leafValues></_>
        <_>
          <internalNodes>
            0 -1 972 790869429 -1574766154 -166448 -826882320 265809343
            -269495321 -1394668104 -857247260</internalNodes>
          <leafValues>
            -2.7527913451194763e-01 1.8909053504467010e-01</leafValues></_>
        <_>
          <internalNodes>
            0 -1 47 -169881745 1335918916 1792794036 1827467024
            1275054527 375712143 1172005876 1106769271</internalNodes>
          <leafValues>
            -3.4030973911285400e-01 1.5443255007266998e-01</leafValues></_>
        <_>
          <internalNodes>
            0 -1 299 -193069569 -9219889 -83960706 -1828525382
            -396448640 -539244716 -216998840 -217583834</internalNodes>
          <leafValues>
            -1.8370573222637177e-01 2.7747303247451782e-01</leafValues></_>
        <_>
          <internalNodes>
            0 -1 663 -757780620 2094294001 -624730657 1989993649
            -1836061196 -723176451 -641451463 808200976</internalNodes>
          <leafValues>
            -4.6871665120124817e-01 1.1331791430711746e-01</leafValues></_>
        <_>
          <internalNodes>
            0 -1 538 109330287 1072185339 2128494039 -1242367626
            125827071 872119231 -1899787851 218084848</internalNodes>
          <leafValues>
            -3.0451196432113647e-01 1.6140867769718170e-01</leafValues></_>
        <_>
          <internalNodes>
            0 -1 1137 -515376206 413971616 -548686524 -855072624
            1208145330 34638126 1144347008 1279653860</internalNodes>
          <leafValues>
            -3.2810682058334351e-01 1.4324955642223358e-01</leafValues></_>
        <_>
          <internalNodes>
            0 -1 590 1626745941 2013233021 2124312319 1048446975
            -524922283 -29803533 -558433012 -1200591070</internalNodes>
          <leafValues>
            -3.1001707911491394e-01 1.5130513906478882e-01</leafValues></_>
        <_>
          <internalNodes>
            0 -1 645 234827535 39843711 670009280 174765679 1121416518
            111929269 -270545000 1145503663</internalNodes>
          <leafValues>
            -3.8839662075042725e-01 1.2739974260330200e-01</leafValues></_>
        <_>
          <internalNodes>
            0 -1 806 -830232793 -27838683 -1056572273 138411637
            -1452690955 1458909684 -1677028325 -268132088</internalNodes>
          <leafValues>
            -2.3443040251731873e-01 2.1143083274364471e-01</leafValues></_>
        <_>
          <internalNodes>
            0 -1 213 -84219666 948135453 -760414290 285323006 1784436456
            2018973854 -398430872 1767898382</internalNodes>
          <leafValues>
            -2.0489804446697235e-01 2.2610822319984436e-01</leafValues></_>
        <_>
          <internalNodes>
            0 -1 792 615524197 887647645 784224237 -21053528 1609007093
            -1108214789 -650504 -18872064</internalNodes>
          <leafValues>
            -3.3348476886749268e-01 1.4600254595279694e-01</leafValues></_>
        <_>
          <internalNodes>
            0 -1 941 236371749 673496994 -270536728 -524489520 779610111
            -1393558601 1022304692 1156416964</internalNodes>
          <leafValues>
            -3.4939563274383545e-01 1.3121831417083740e-01</leafValues></_>
        <_>
          <internalNodes>
            0 -1 642 598552423 129957239 857055579 559742327 1666547343
            1853692451 -379868459 22410039</internalNodes>
          <leafValues>
            -3.6936637759208679e-01 1.2384403496980667e-01</leafValues></_>
        <_>
          <internalNodes>
            0 -1 186 -67195385 -1176624234 -441485217 697363268
            -1679970672 31399194 712486210 572835440</internalNodes>
          <leafValues>
            -2.7447742223739624e-01 1.7752440273761749e-01</leafValues></_>
        <_>
          <internalNodes>
            0 -1 2 -842399857 -366953264 -329376310 -389886792 469959678
            204321263 -503445840 -1043598109</internalNodes>
          <leafValues>
            -2.7854117751121521e-01 1.6886970400810242e-01</leafValues></_>
        <_>
          <internalNodes>
            0 -1 1201 -303059161 231538470 -269540048 -2035536608
            1540717351 1638267643 671049077 1087303647</internalNodes>
          <leafValues>
            -3.5323560237884521e-01 1.2705637514591217e-01</leafValues></_>
        <_>
          <internalNodes>
            0 -1 577 391197631 -195420551 -1610634471 -1087440134
            -1156055560 -872563394 -303178019 -439581560</internalNodes>
          <leafValues>
            -1.9955413043498993e-01 2.3003132641315460e-01</leafValues></_>
        <_>
          <internalNodes>
            0 -1 615 -92840065 2088736763 -355059011 -1085514762
            -453026304 -197835177 -538919628 -132056104</internalNodes>
          <leafValues>
            -2.0135948061943054e-01 2.2853215038776398e-01</leafValues></_>
        <_>
          <internalNodes>
            0 -1 825 -116002607 411883996 -1005460056 -871505024
            -919880542 -1707986286 1017073472 210759298</internalNodes>
          <leafValues>
            -2.8605028986930847e-01 1.5625306963920593e-01</leafValues></_>
        <_>
          <internalNodes>
            0 -1 987 1609246519 1476099903 -608463562 976714559
            1958169861 -59801641 809184252 1780621079</internalNodes>
          <leafValues>
            -2.8512972593307495e-01 1.6217446327209473e-01</leafValues></_>
        <_>
          <internalNodes>
            0 -1 1185 -9970945 1999618007 -1091178690 -60100801
            637881325 1033109109 -151220536 -189269049</internalNodes>
          <leafValues>
            -1.6468246281147003e-01 2.7642539143562317e-01</leafValues></_>
        <_>
          <internalNodes>
            0 -1 413 1513635789 -134414338 -1636827469 -269664344
            2147418012 -76570641 -284724 -305919928</internalNodes>
          <leafValues>
            -2.1093782782554626e-01 2.1983633935451508e-01</leafValues></_>
        <_>
          <internalNodes>
            0 -1 306 -2063700579 508991445 1560839711 261276831
            210764720 -2131318535 -1952884203 -2000337852</internalNodes>
          <leafValues>
            -2.9137963056564331e-01 1.5880157053470612e-01</leafValues></_>
        <_>
          <internalNodes>
            0 -1 398 474913532 -1642532156 724717051 239992872
            1766640592 -27198824 260434704 235620864</internalNodes>
          <leafValues>
            -3.5006085038185120e-01 1.2553170323371887e-01</leafValues></_>
        <_>
          <internalNodes>
            0 -1 82 -281295205 808320839 -305476548 -5906678 258841655
            2010935109 -1040720571 -462953481</internalNodes>
          <leafValues>
            -2.4372047185897827e-01 1.9372147321701050e-01</leafValues></_>
        <_>
          <internalNodes>
            0 -1 510 78065487 707223511 1285512816 604692399 1131769716
            5003628 516310596 1081904867</internalNodes>
          <leafValues>
            -4.9277198314666748e-01 9.4462804496288300e-02</leafValues></_>
        <_>
          <internalNodes>
            0 -1 791 1953298933 -1408459370 -145244811 1283847890
            -1164329537 -2062294617 160642460 213906940</internalNodes>
          <leafValues>
            -2.4659319221973419e-01 1.7949044704437256e-01</leafValues></_>
        <_>
          <internalNodes>
            0 -1 344 1858938958 1920447879 -1158250786 577433591
            1790248004 2000035079 -1674189820 1886440758</internalNodes>
          <leafValues>
            -4.3241986632347107e-01 1.0748615860939026e-01</leafValues></_>
        <_>
          <internalNodes>
            0 -1 719 2115414672 134220462 1524811870 -1141112129
            236420353 -145554238 973808384 865542755</internalNodes>
          <leafValues>
            -4.1710117459297180e-01 1.0564631968736649e-01</leafValues></_>
        <_>
          <internalNodes>
            0 -1 1123 -880804686 1414581900 -1661175324 -147786198
            894916606 804585324 1963284222 124056178</internalNodes>
          <leafValues>
            -1.8642720580101013e-01 2.6087889075279236e-01</leafValues></_>
        <_>
          <internalNodes>
            0 -1 859 795815687 551710326 495929089 -1998312349
            1262963559 2001678531 342573600 1478875984</internalNodes>
          <leafValues>
            -4.8063296079635620e-01 9.8453097045421600e-02</leafValues></_></weakClassifiers></_>
    <!-- stage 10 -->
    <_>
      <maxWeakCount>52</maxWeakCount>
      <stageThreshold>-2.2747681140899658e+00</stageThreshold>
      <weakClassifiers>
        <_>
          <internalNodes>
            0 -1 544 738144063 -26657 -1613025505 -12900145 -1929400321
            -287334149 -4472833 -268452177</internalNodes>
          <leafValues>
            -4.1314023733139038e-01 3.0630940198898315e-01</leafValues></_>
        <_>
          <internalNodes>
            0 -1 980 -2109699 -2125092 -150112769 -537014067 -597820674
            -594619170 -66854 -265226378</internalNodes>
          <leafValues>
            -4.5136609673500061e-01 2.6392877101898193e-01</leafValues></_>
        <_>
          <internalNodes>
            0 -1 88 -337646129 857601487 -644628474 1943920583
            1733719887 858257274 1462597143 2012741463</internalNodes>
          <leafValues>
            -4.1921064257621765e-01 2.3870323598384857e-01</leafValues></_>
        <_>
          <internalNodes>
            0 -1 1053 -8390750 2872746 1946022768 -243531806 -1744833553
            261069451 1103099120 1174402535</internalNodes>
          <leafValues>
            -3.6385256052017212e-01 2.1001581847667694e-01</leafValues></_>
        <_>
          <internalNodes>
            0 -1 56 -134217729 -5440530 -1499488380 -34218626 201062399
            114212847 -34887706 -974657545</internalNodes>
          <leafValues>
            -2.8532797098159790e-01 2.4151872098445892e-01</leafValues></_>
        <_>
          <internalNodes>
            0 -1 526 -655958018 -570665769 -83820547 2112898135
            -548349964 -67370378 -3870788 -1087218829</internalNodes>
          <leafValues>
            -2.3718155920505524e-01 2.7261087298393250e-01</leafValues></_>
        <_>
          <internalNodes>
            0 -1 1118 -336597233 1205595751 -493133906 37615519
            1360947191 1102833878 -73927795 1643632639</internalNodes>
          <leafValues>
            -3.3174538612365723e-01 1.6833966970443726e-01</leafValues></_>
        <_>
          <internalNodes>
            0 -1 854 802635583 2138519359 -90115 1920466815 804224893
            -1132767627 -1342490323 -8409283</internalNodes>
          <leafValues>
            -2.3117266595363617e-01 2.5590956211090088e-01</leafValues></_>
        <_>
          <internalNodes>
            0 -1 1049 -1347436761 -1566115921 -125878826 -52957188
            799600639 193697775 1419732469 -704660011</internalNodes>
          <leafValues>
            -2.6642894744873047e-01 2.0644129812717438e-01</leafValues></_>
        <_>
          <internalNodes>
            0 -1 360 -52475185 -2630289 -621743474 1918274666 -788970940
            -62455227 -1073725952 1464336199</internalNodes>
          <leafValues>
            -3.7746688723564148e-01 1.3690051436424255e-01</leafValues></_>
        <_>
          <internalNodes>
            0 -1 9 -293667018 -66781413 -182915227 -973282596
            -1520643629 -1367213949 -281215249 10486928</internalNodes>
          <leafValues>
            -5.1014482975006104e-01 1.1639390140771866e-01</leafValues></_>
        <_>
          <internalNodes>
            0 -1 122 -17766690 1995963852 -59604430 369267207 1462793422
            2115768839 -100604698 1850202827</internalNodes>
          <leafValues>
            -2.8707045316696167e-01 1.8854236602783203e-01</leafValues></_>
        <_>
          <internalNodes>
            0 -1 613 780087119 242285599 -4120 -1429553189 1559199355
            1300226743 -538067080 1087962798</internalNodes>
          <leafValues>
            -3.9208135008811951e-01 1.2407208234071732e-01</leafValues></_>
        <_>
          <internalNodes>
            0 -1 982 -15547248 1563034658 -221622261 598534590
            -1172051455 1873930391 123406647 1057456058</internalNodes>
          <leafValues>
            -3.3448299765586853e-01 1.5031431615352631e-01</leafValues></_>
        <_>
          <internalNodes>
            0 -1 975 -147064911 -1934954560 -1549418064 -1405031516
            530553595 -2004033238 1767760072 -858791217</internalNodes>
          <leafValues>
            -2.7327603101730347e-01 2.0168782770633698e-01</leafValues></_>
        <_>
          <internalNodes>
            0 -1 483 -589475985 2147448119 -25233537 976367471
            1751926852 2147372365 -51061972 -93143182</internalNodes>
          <leafValues>
            -2.5378060340881348e-01 1.9927589595317841e-01</leafValues></_>
        <_>
          <internalNodes>
            0 -1 619 -172492684 -731331508 -393489708 -308679730
            -13001039 -1196301391 1327189792 680524735</internalNodes>
          <leafValues>
            -2.9057046771049500e-01 1.7002470791339874e-01</leafValues></_>
        <_>
          <internalNodes>
            0 -1 422 803155759 574475999 -293890633 -488637026
            -2114863129 100324617 1207219031 1189597059</internalNodes>
          <leafValues>
            -3.6922058463096619e-01 1.3416819274425507e-01</leafValues></_>
        <_>
          <internalNodes>
            0 -1 35 -81160 -69557482 -549212719 -1343574669 -1310770253
            -1076553553 -1143260174 858784434</internalNodes>
          <leafValues>
            -3.1087598204612732e-01 1.5897664427757263e-01</leafValues></_>
        <_>
          <internalNodes>
            0 -1 1164 -571769009 1305960299 -92282178 576978731
            2103273303 1431328627 -41746363 1953890167</internalNodes>
          <leafValues>
            -3.1387260556221008e-01 1.6497965157032013e-01</leafValues></_>
        <_>
          <internalNodes>
            0 -1 549 223154143 2040169119 -1954865795 -82491221
            -880410672 -1326288189 -1689602672 -404184576</internalNodes>
          <leafValues>
            -2.5025853514671326e-01 2.0183236896991730e-01</leafValues></_>
        <_>
          <internalNodes>
            0 -1 156 -1057 -9439315 -16920582 1927083882 -17904307
            -75694289 -302211772 -525075641</internalNodes>
          <leafValues>
            -2.0312833786010742e-01 2.3639459908008575e-01</leafValues></_>
        <_>
          <internalNodes>
            0 -1 915 657243936 -1570466480 -2138251 -1372527164
            747879935 -1426873867 499074541 -1929569052</internalNodes>
          <leafValues>
            -3.1444647908210754e-01 1.5508197247982025e-01</leafValues></_>
        <_>
          <internalNodes>
            0 -1 462 103591869 1038790442 -476217477 1005382516 66047471
            1868298239 -922788364 167070133</internalNodes>
          <leafValues>
            -3.1875309348106384e-01 1.4634861052036285e-01</leafValues></_>
        <_>
          <internalNodes>
            0 -1 862 -170133842 -1077626934 1559682519 -197722267
            394262495 268375541 1442797023 1607988186</internalNodes>
          <leafValues>
            -1.7276015877723694e-01 2.7945497632026672e-01</leafValues></_>
        <_>
          <internalNodes>
            0 -1 672 771172223 209710039 -300052707 -1493265470
            1688139565 905096951 871335376 1141242135</internalNodes>
          <leafValues>
            -3.5014185309410095e-01 1.3961106538772583e-01</leafValues></_>
        <_>
          <internalNodes>
            0 -1 1206 -675811545 214881070 -76640622 -358183886
            2139617127 1301676031 -675842975 1156906867</internalNodes>
          <leafValues>
            -3.3366611599922180e-01 1.3457696139812469e-01</leafValues></_>
        <_>
          <internalNodes>
            0 -1 174 -277872649 -5577238 -167802414 -286359070
            -2094009409 1734908419 133120130 1156044023</internalNodes>
          <leafValues>
            -2.5834867358207703e-01 1.8174757063388824e-01</leafValues></_>
        <_>
          <internalNodes>
            0 -1 542 2147163927 2134380814 1384242559 -4290146
            -666109890 1328351537 2068753196 -1069241544</internalNodes>
          <leafValues>
            -2.3102718591690063e-01 2.0497351884841919e-01</leafValues></_>
        <_>
          <internalNodes>
            0 -1 913 715538208 -1509895392 -404891172 -399183948
            2077065183 691104183 115281396 11539892</internalNodes>
          <leafValues>
            -4.9042361974716187e-01 9.0241223573684692e-02</leafValues></_>
        <_>
          <internalNodes>
            0 -1 7 -85007648 -1931498834 -536625009 -1914836410
            168201860 412893549 919406745 150686204</internalNodes>
          <leafValues>
            -3.7326940894126892e-01 1.1882587522268295e-01</leafValues></_>
        <_>
          <internalNodes>
            0 -1 353 -126138497 1971060495 -300756310 -1440694658
            -683603388 -109628157 -121341952 1981086038</internalNodes>
          <leafValues>
            -3.5455459356307983e-01 1.3254116475582123e-01</leafValues></_>
        <_>
          <internalNodes>
            0 -1 1187 1398771551 -797446411 -67183764 708032478
            1574389705 1960280054 -587334038 -186123709</internalNodes>
          <leafValues>
            -1.9635236263275146e-01 2.3763798177242279e-01</leafValues></_>
        <_>
          <internalNodes>
            0 -1 1209 -147587184 -1616708426 -224409812 -1090466816
            1508370398 -2145341441 -845204284 -863121196</internalNodes>
          <leafValues>
            -2.3832072317600250e-01 1.9687713682651520e-01</leafValues></_>
        <_>
          <internalNodes>
            0 -1 334 -419483954 1913108095 -838145285 305708923
            1305952596 625683619 -800869051 1611136954</internalNodes>
          <leafValues>
            -3.1797659397125244e-01 1.4763715863227844e-01</leafValues></_>
        <_>
          <internalNodes>
            0 -1 835 -313577937 2136949785 -573448833 577230175
            -1142936778 1024981586 -342184192 1881140074</internalNodes>
          <leafValues>
            -3.7587460875511169e-01 1.1972057819366455e-01</leafValues></_>
        <_>
          <internalNodes>
            0 -1 527 1151223647 1559692767 -85455873 2035854331
            1190417488 -10287097 -21463180 -10457278</internalNodes>
          <leafValues>
            -2.7803558111190796e-01 1.7133933305740356e-01</leafValues></_>
        <_>
          <internalNodes>
            0 -1 165 -224664097 -1212750994 -133380518 -389890334
            -470428594 1028127533 -856166838 1617424367</internalNodes>
          <leafValues>
            -2.2401061654090881e-01 2.1066977083683014e-01</leafValues></_>
        <_>
          <internalNodes>
            0 -1 665 74455824 -1646986241 -1227254089 -1208347153
            -436992011 -1140853809 -1157649768 73665548</internalNodes>
          <leafValues>
            -4.6092626452445984e-01 1.0011811554431915e-01</leafValues></_>
        <_>
          <internalNodes>
            0 -1 1215 -278598737 1158428458 1339648933 -438044128
            -989892625 -851976773 -304351632 -1002188509</internalNodes>
          <leafValues>
            -2.1908281743526459e-01 2.0618052780628204e-01</leafValues></_>
        <_>
          <internalNodes>
            0 -1 1043 -1376833753 1845490948 -19626193 -20519117
            2110347127 1121710519 -282384 1701272963</internalNodes>
          <leafValues>
            -2.9830497503280640e-01 1.5502996742725372e-01</leafValues></_>
        <_>
          <internalNodes>
            0 -1 223 -25241906 360663030 -1941789454 286789583 175470028
            1760574504 -836745160 -636104162</internalNodes>
          <leafValues>
            -2.1777632832527161e-01 2.1952310204505920e-01</leafValues></_>
        <_>
          <internalNodes>
            0 -1 597 76557621 796453374 2079735768 -1392993300 301868917
            931127023 937361908 749997860</internalNodes>
          <leafValues>
            -4.8834562301635742e-01 9.5797672867774963e-02</leafValues></_>
        <_>
          <internalNodes>
            0 -1 712 371488532 413464886 1301519869 -1084979926
            1402141685 -1229964742 969543160 234261040</internalNodes>
          <leafValues>
            -2.8434300422668457e-01 1.5999534726142883e-01</leafValues></_>
        <_>
          <internalNodes>
            0 -1 33 -1161249262 -624119597 55957829 -879705942
            1854911422 -1197099452 1533865827 1153804022</internalNodes>
          <leafValues>
            -2.9194927215576172e-01 1.6540449857711792e-01</leafValues></_>
        <_>
          <internalNodes>
            0 -1 842 233778951 652797821 -1009275138 -371153719
            496973077 2109435558 -436902716 1640064800</internalNodes>
          <leafValues>
            -3.7721645832061768e-01 1.2141966819763184e-01</leafValues></_>
        <_>
          <internalNodes>
            0 -1 1172 -815268057 -1985019988 1876940704 -978537098
            1672439767 193376255 1456624788 -973485329</internalNodes>
          <leafValues>
            -2.2964031994342804e-01 1.9750869274139404e-01</leafValues></_>
        <_>
          <internalNodes>
            0 -1 474 185863824 -253785126 1422662571 235537466 609262225
            -1322227582 -357229808 -1610602262</internalNodes>
          <leafValues>
            -3.4831705689430237e-01 1.3225398957729340e-01</leafValues></_>
        <_>
          <internalNodes>
            0 -1 264 -1437622230 982740889 -284043165 -1201755374
            -1452301550 544140035 542545748 14537940</internalNodes>
          <leafValues>
            -3.2433006167411804e-01 1.3438925147056580e-01</leafValues></_>
        <_>
          <internalNodes>
            0 -1 109 -85988104 1368640382 -1240812018 1361169931
            1876818667 2071817438 -857871171 -45746227</internalNodes>
          <leafValues>
            -1.4678664505481720e-01 3.1119564175605774e-01</leafValues></_>
        <_>
          <internalNodes>
            0 -1 849 1190073940 2119115044 -201235428 721367063
            1239373768 -840302250 -81774246 403717648</internalNodes>
          <leafValues>
            -4.3775957822799683e-01 1.0594956576824188e-01</leafValues></_>
        <_>
          <internalNodes>
            0 -1 399 -721532914 887061583 -1965580346 304104559
            1985612803 1578339160 1962063364 -512297362</internalNodes>
          <leafValues>
            -3.8214308023452759e-01 1.2012352794408798e-01</leafValues></_></weakClassifiers></_>
    <!-- stage 11 -->
    <_>
      <maxWeakCount>73</maxWeakCount>
      <stageThreshold>-2.1868331432342529e+00</stageThreshold>
      <weakClassifiers>
        <_>
          <internalNodes>
            0 -1 603 905396223 2147481587 -1073741921 -1048577
            1929379839 -4194305 -1025 -1</internalNodes>
          <leafValues>
            -3.4145447611808777e-01 4.0247735381126404e-01</leafValues></_>
        <_>
          <internalNodes>
            0 -1 1103 -673187909 332333067 -1676864997 938423063
            -1018493697 -1144586088 1795654299 1073738479</internalNodes>
          <leafValues>
            -2.9596650600433350e-01 2.6574200391769409e-01</leafValues></_>
        <_>
          <internalNodes>
            0 -1 929 805257023 -41985665 -829437185 -253894657
            -542410953 1997959013 -170268809 -143134897</internalNodes>
          <leafValues>
            -3.1926661729812622e-01 2.1029455959796906e-01</leafValues></_>
        <_>
          <internalNodes>
            0 -1 44 256879547 -309839077 560020939 223088440 1004355519
            1036603903 -1463113590 50995968</internalNodes>
          <leafValues>
            -3.1877839565277100e-01 2.1848589181900024e-01</leafValues></_>
        <_>
          <internalNodes>
            0 -1 419 -1479032833 -1345858561 -1391741661 -268437505
            267386815 184532207 1203459575 -805310465</internalNodes>
          <leafValues>
            -2.5096330046653748e-01 2.3763701319694519e-01</leafValues></_>
        <_>
          <internalNodes>
            0 -1 1055 -47449165 -1727073128 -1837697308 -1006197968
            -1953763414 -1964443168 1334675691 -856688214</internalNodes>
          <leafValues>
            -2.2086744010448456e-01 2.3294106125831604e-01</leafValues></_>
        <_>
          <internalNodes>
            0 -1 127 -620769682 -9838609 -790309774 1388763607
            2059098446 1731180825 -376439809 1951381931</internalNodes>
          <leafValues>
            -3.0000331997871399e-01 1.8902565538883209e-01</leafValues></_>
        <_>
          <internalNodes>
            0 -1 579 795807535 141033087 -1888124040 547791499
            1844432479 685203423 -1048580537 1213726399</internalNodes>
          <leafValues>
            -4.1154175996780396e-01 7.1258425712585449e-02</leafValues></_>
        <_>
          <internalNodes>
            0 -1 202 -268445777 612878215 -279125080 -91495226 595455855
            1170135357 1488733991 -973602874</internalNodes>
          <leafValues>
            -2.4112753570079803e-01 1.8597790598869324e-01</leafValues></_>
        <_>
          <internalNodes>
            0 -1 0 -273678865 134282662 -1757451034 -995824468
            -1934635777 56640510 -791863132 -2131733504</internalNodes>
          <leafValues>
            -3.3678820729255676e-01 1.1857303231954575e-01</leafValues></_>
        <_>
          <internalNodes>
            0 -1 301 -538973441 2136972383 1903189598 2132658287
            -7467300 -69721019 -230257848 -78123454</internalNodes>
          <leafValues>
            -1.3737410306930542e-01 2.8234452009201050e-01</leafValues></_>
        <_>
          <internalNodes>
            0 -1 43 -36664800 784018374 -842696747 -1883104061
            -1160134731 -1149422761 -201557761 52497621</internalNodes>
          <leafValues>
            -2.8394559025764465e-01 1.3437642157077789e-01</leafValues></_>
        <_>
          <internalNodes>
            0 -1 469 250556207 779876158 -2032783462 681295665 95285231
            582871919 -54556793 91743221</internalNodes>
          <leafValues>
            -3.4175482392311096e-01 1.2897574901580811e-01</leafValues></_>
        <_>
          <internalNodes>
            0 -1 866 664974114 673485504 -268698412 -196295306
            1464301555 437873474 1437029717 1440152960</internalNodes>
          <leafValues>
            -3.5970142483711243e-01 1.0190634429454803e-01</leafValues></_>
        <_>
          <internalNodes>
            0 -1 1179 -26224801 2034103735 -68232198 -1162690653
            -674145460 -1517802626 -557953652 -261984425</internalNodes>
          <leafValues>
            -2.0747712254524231e-01 1.8177278339862823e-01</leafValues></_>
        <_>
          <internalNodes>
            0 -1 1017 -68486240 296738806 -363051820 1508413728
            958394818 135844768 1141217664 1560527818</internalNodes>
          <leafValues>
            -2.3397764563560486e-01 1.5587808191776276e-01</leafValues></_>
        <_>
          <internalNodes>
            0 -1 11 -153553390 -331292845 -1790118564 -861606263
            -1781139131 -8023405 -1248526891 18875828</internalNodes>
          <leafValues>
            -4.5370662212371826e-01 8.3557620644569397e-02</leafValues></_>
        <_>
          <internalNodes>
            0 -1 687 550831935 905723631 805216255 -2455653 939342307
            884341479 -1375752193 736961519</internalNodes>
          <leafValues>
            -2.0932643115520477e-01 1.9066464900970459e-01</leafValues></_>
        <_>
          <internalNodes>
            0 -1 648 239546139 913813375 968665722 -1268191730
            1685537621 423344391 1573032008 1693908142</internalNodes>
          <leafValues>
            -3.1034356355667114e-01 1.1330433189868927e-01</leafValues></_>
        <_>
          <internalNodes>
            0 -1 1133 -1613760601 212791168 -1365299280 -123803986
            150988799 614398975 1139774964 -990382355</internalNodes>
          <leafValues>
            -2.1590894460678101e-01 1.6394911706447601e-01</leafValues></_>
        <_>
          <internalNodes>
            0 -1 155 -991142922 1358349754 1187822047 250527820
            1934688112 -575370973 1498635094 1222333254</internalNodes>
          <leafValues>
            -2.8894585371017456e-01 1.2154559046030045e-01</leafValues></_>
        <_>
          <internalNodes>
            0 -1 314 -1668631769 330218134 1402313818 -1894403008
            214868731 -1161762570 177893335 -858455853</internalNodes>
          <leafValues>
            -1.9399546086788177e-01 1.8249602615833282e-01</leafValues></_>
        <_>
          <internalNodes>
            0 -1 811 268381983 217972502 717153024 1161263786 1934374727
            2146803782 1968661045 1432735143</internalNodes>
