<?xml version="1.0"?>
<opencv_storage>
<bp_h_24_20_24>
  <stageType>BOOST</stageType>
  <featureType>LBP</featureType>
  <height>20</height>
  <width>24</width>
  <stageParams>
    <boostType>GAB</boostType>
    <minHitRate>9.9985468387603760e-01</minHitRate>
    <maxFalseAlarm>5.0000000000000000e-01</maxFalseAlarm>
    <weightTrimRate>9.4999999999999996e-01</weightTrimRate>
    <maxDepth>1</maxDepth>
    <maxWeakCount>500</maxWeakCount></stageParams>
  <featureParams>
    <maxCatCount>256</maxCatCount>
    <featSize>1</featSize></featureParams>
  <stageNum>24</stageNum>
  <stages>
    <!-- stage 0 -->
    <_>
      <maxWeakCount>6</maxWeakCount>
      <stageThreshold>-3.2479965686798096e+00</stageThreshold>
      <weakClassifiers>
        <_>
          <internalNodes>
            0 -1 160 -78857464 -2293118 -787508737 -58401 -543183974
            -1080360022 -269534209 -54341</internalNodes>
          <leafValues>
            -8.9826440811157227e-01 7.1637505292892456e-01</leafValues></_>
        <_>
          <internalNodes>
            0 -1 56 -288454014 -3759154 -2012086256 -6297618 -73404690
            -71322130 -272651313 -1042</internalNodes>
          <leafValues>
            -8.7031906843185425e-01 6.6924303770065308e-01</leafValues></_>
        <_>
          <internalNodes>
            0 -1 120 -1427505152 1006305851 837944830 1065294779
            1001078203 1073425087 -1147453441 -4097</internalNodes>
          <leafValues>
            -8.1293958425521851e-01 5.9623426198959351e-01</leafValues></_>
        <_>
          <internalNodes>
            0 -1 166 -109251912 -33558087 -1320103427 -1073769729
            -1065989 -1074028033 -4281345 -54613</internalNodes>
          <leafValues>
            -6.9640207290649414e-01 6.6988962888717651e-01</leafValues></_>
        <_>
          <internalNodes>
            0 -1 114 -619776188 1594153228 729807869 2134891949
            -699859068 -837882100 -7553794 -1343239166</internalNodes>
          <leafValues>
            -6.3437181711196899e-01 6.8293333053588867e-01</leafValues></_>
        <_>
          <internalNodes>
            0 -1 16 -67965067 -986804 -783093025 -10530371 -1759485508
            -3091840 2065423615 252407791</internalNodes>
          <leafValues>
            -7.4487358331680298e-01 5.1722377538681030e-01</leafValues></_></weakClassifiers></_>
    <!-- stage 1 -->
    <_>
      <maxWeakCount>7</maxWeakCount>
      <stageThreshold>-2.6904346942901611e+00</stageThreshold>
      <weakClassifiers>
        <_>
          <internalNodes>
            0 -1 82 -84217616 -60961 2142984703 1073690111 -1073759233
            -1073804801 1073703935 1073692671</internalNodes>
          <leafValues>
            -9.0238738059997559e-01 6.3188666105270386e-01</leafValues></_>
        <_>
          <internalNodes>
            0 -1 164 -19968 -1321234 -994637776 -1049618 -1140867124
            -9538 -603980050 -1048594</internalNodes>
          <leafValues>
            -8.5029286146163940e-01 5.2241486310958862e-01</leafValues></_>
        <_>
          <internalNodes>
            0 -1 57 -68093192 -27426 -797649923 -29953 -1114113 -1062213
            -603997189 -1073763669</internalNodes>
          <leafValues>
            -7.3375606536865234e-01 5.5562126636505127e-01</leafValues></_>
        <_>
          <internalNodes>
            0 -1 119 1070283663 2130934528 -687637695 -218044608
            -138679301 -90534717 -1075314689 -1085</internalNodes>
          <leafValues>
            -6.8358194828033447e-01 5.9270548820495605e-01</leafValues></_>
        <_>
          <internalNodes>
            0 -1 30 -1060715448 -3605580 10492148 -145958964 -1194721283
            -1613307672 -1697726883 -341050484</internalNodes>
          <leafValues>
            -7.3973172903060913e-01 5.2485626935958862e-01</leafValues></_>
        <_>
          <internalNodes>
            0 -1 170 -233639120 -175081724 -250480143 1899059537
            -16842756 -328203 -68034561 -4775405</internalNodes>
          <leafValues>
            -5.8393687009811401e-01 6.1364191770553589e-01</leafValues></_>
        <_>
          <internalNodes>
            0 -1 245 -1541395212 368312720 -1183637507 1035550205
            -1316275724 -1147337877 2066444287 -1081879</internalNodes>
          <leafValues>
            -6.4123123884201050e-01 5.3866422176361084e-01</leafValues></_></weakClassifiers></_>
    <!-- stage 2 -->
    <_>
      <maxWeakCount>9</maxWeakCount>
      <stageThreshold>-2.4009625911712646e+00</stageThreshold>
      <weakClassifiers>
        <_>
          <internalNodes>
            0 -1 10 -252514063 -2049 420721663 1071620095 -122029059
            -4201537 2146434047 1073741823</internalNodes>
          <leafValues>
            -7.7586579322814941e-01 6.3570672273635864e-01</leafValues></_>
        <_>
          <internalNodes>
            0 -1 207 -50399747 -36119107 -13503489 -513 -102958596
            -50803204 -1 2139053839</internalNodes>
          <leafValues>
            -7.9010897874832153e-01 5.6637006998062134e-01</leafValues></_>
        <_>
          <internalNodes>
            0 -1 161 -585443888 -539289921 -572695073 -134225921
            -2012476212 -573796915 -1932751363 -536895489</internalNodes>
          <leafValues>
            -5.9867352247238159e-01 7.1785676479339600e-01</leafValues></_>
        <_>
          <internalNodes>
            0 -1 115 -74514452 -208564 1067376111 -2403368 -224724802
            -67389206 -1412759574 -355807744</internalNodes>
          <leafValues>
            -6.5639311075210571e-01 6.3702791929244995e-01</leafValues></_>
        <_>
          <internalNodes>
            0 -1 186 -1191664928 -1363287819 -2012968724 -1428379394
            -1418687511 -34062167 -1090935554 -1090540801</internalNodes>
          <leafValues>
            -6.2588030099868774e-01 5.9683281183242798e-01</leafValues></_>
        <_>
          <internalNodes>
            0 -1 71 -122880772 -33778608 -1644431635 -2292353 -72381027
            -71396165 -339168005 -1997625142</internalNodes>
          <leafValues>
            -6.1941337585449219e-01 5.7989770174026489e-01</leafValues></_>
        <_>
          <internalNodes>
            0 -1 16 -831066252 -537863260 -738537089 -1216392227
            2042388476 -78408 2147199999 258993647</internalNodes>
          <leafValues>
            -7.2420436143875122e-01 4.3603190779685974e-01</leafValues></_>
        <_>
          <internalNodes>
            0 -1 249 -934358848 1608450232 1897853088 -1080086290
            -1693519724 -536890954 1056964084 -1059077</internalNodes>
          <leafValues>
            -5.1992660760879517e-01 6.3559466600418091e-01</leafValues></_>
        <_>
          <internalNodes>
            0 -1 204 -223153935 -739337 1012103163 2146398719 -270962689
            -87311377 1871674366 1606418431</internalNodes>
          <leafValues>
            -6.0556530952453613e-01 5.4932928085327148e-01</leafValues></_></weakClassifiers></_>
    <!-- stage 3 -->
    <_>
      <maxWeakCount>9</maxWeakCount>
      <stageThreshold>-3.2420642375946045e+00</stageThreshold>
      <weakClassifiers>
        <_>
          <internalNodes>
            0 -1 127 1363541983 1465253887 -439028739 -168427553
            1431174143 1494585855 -239731713 -168427521</internalNodes>
          <leafValues>
            -7.7934968471527100e-01 5.7504838705062866e-01</leafValues></_>
        <_>
          <internalNodes>
            0 -1 105 -1423308744 -1074068737 993134698 -1073799297
            713755455 -1143212037 -9814529 -8197</internalNodes>
          <leafValues>
            -7.4195671081542969e-01 5.1706099510192871e-01</leafValues></_>
        <_>
          <internalNodes>
            0 -1 48 -286603032 -385897558 -841877272 -165215 -1433534552
            -1148416856 -1375798277 -4458237</internalNodes>
          <leafValues>
            -5.6774532794952393e-01 6.6123318672180176e-01</leafValues></_>
        <_>
          <internalNodes>
            0 -1 230 -767552012 -262145 -1094893575 -20547 706751672
            -268484610 -16826373 -4212033</internalNodes>
          <leafValues>
            -5.7588404417037964e-01 6.2942081689834595e-01</leafValues></_>
        <_>
          <internalNodes>
            0 -1 121 -252645136 -2165797 -80222305 -549425 -6557697
            1874576207 -69223441 2147483615</internalNodes>
          <leafValues>
            -7.2146570682525635e-01 5.0343602895736694e-01</leafValues></_>
        <_>
          <internalNodes>
            0 -1 251 -117899588 -537068552 27318509 -134228225
            -242527236 1040105962 -1342312529 -1346377181</internalNodes>
          <leafValues>
            -6.9501870870590210e-01 4.6727067232131958e-01</leafValues></_>
        <_>
          <internalNodes>
            0 -1 113 -857814592 -572662460 -135340321 -6324739
            -827666706 -553714136 -1930502689 -291173</internalNodes>
          <leafValues>
            -5.0925695896148682e-01 6.6870987415313721e-01</leafValues></_>
        <_>
          <internalNodes>
            0 -1 208 -76293004 -1074307313 -8388773 -5304551 -12943583
            -524289 -134381685 -1154281216</internalNodes>
          <leafValues>
            -5.5425429344177246e-01 5.9760838747024536e-01</leafValues></_>
        <_>
          <internalNodes>
            0 -1 55 -2112168732 -2415392 1531428862 -1073804802
            -1098187858 -1886905176 -6619140 -1092976914</internalNodes>
          <leafValues>
            -6.0339355468750000e-01 5.3606402873992920e-01</leafValues></_></weakClassifiers></_>
    <!-- stage 4 -->
    <_>
      <maxWeakCount>9</maxWeakCount>
      <stageThreshold>-2.3088927268981934e+00</stageThreshold>
      <weakClassifiers>
        <_>
          <internalNodes>
            0 -1 36 -135204896 -1140867169 -1623508033 -1075894273
            -203292741 -138429553 -49153 -49153</internalNodes>
          <leafValues>
            -7.1644145250320435e-01 5.4089438915252686e-01</leafValues></_>
        <_>
          <internalNodes>
            0 -1 97 -55389968 -29185 -1850683152 2010190333 -1346654721
            -65569 1035549695 -1</internalNodes>
          <leafValues>
            -5.8388566970825195e-01 6.5479463338851929e-01</leafValues></_>
        <_>
          <internalNodes>
            0 -1 144 -71390840 -1073838948 -1622168155 -4368395
            -608556360 -5322546 -71386183 -1078206663</internalNodes>
          <leafValues>
            -6.1443608999252319e-01 6.0050618648529053e-01</leafValues></_>
        <_>
          <internalNodes>
            0 -1 70 -1675315724 500441120 469045751 1069490175
            -1145062401 -1074087333 -1079264773 -1074808337</internalNodes>
          <leafValues>
            -6.0621738433837891e-01 5.5116409063339233e-01</leafValues></_>
        <_>
          <internalNodes>
            0 -1 232 -105843728 -205860621 -273518151 -78012165
            -1426538760 -4488973 -475546693 -7132160</internalNodes>
          <leafValues>
            -6.0474038124084473e-01 5.7677674293518066e-01</leafValues></_>
        <_>
          <internalNodes>
            0 -1 202 -67573000 -6620741 -80699150 -9244174 1540884697
            2076057778 -123905 -1079042037</internalNodes>
          <leafValues>
            -5.4974699020385742e-01 5.9302926063537598e-01</leafValues></_>
        <_>
          <internalNodes>
            0 -1 134 -196812 -8587268 -214969381 -69211393 -555156996
            -4390980 -134480961 2147463167</internalNodes>
          <leafValues>
            -7.3646479845046997e-01 4.6290323138237000e-01</leafValues></_>
        <_>
          <internalNodes>
            0 -1 106 -1601171456 -208717568 -1644490548 532626007
            -1416910162 -1081368435 -1262835996 -1493225745</internalNodes>
          <leafValues>
            -6.7245745658874512e-01 5.0342392921447754e-01</leafValues></_>
        <_>
          <internalNodes>
            0 -1 182 -216998592 -319893300 -100668954 -890313778
            -1079072071 -1213671733 -1146962949 -1527829522</internalNodes>
          <leafValues>
            -6.2356293201446533e-01 4.5120415091514587e-01</leafValues></_></weakClassifiers></_>
    <!-- stage 5 -->
    <_>
      <maxWeakCount>9</maxWeakCount>
      <stageThreshold>-2.4421956539154053e+00</stageThreshold>
      <weakClassifiers>
        <_>
          <internalNodes>
            0 -1 191 -15990981 252443407 -1224689406 -16515209 -1
            -12845829 -2098177 -3866628</internalNodes>
          <leafValues>
            -7.1653032302856445e-01 5.8671128749847412e-01</leafValues></_>
        <_>
          <internalNodes>
            0 -1 177 1070546943 -1025 -1937189681 -1 1322212302
            -69469217 -1060569652 -17825809</internalNodes>
          <leafValues>
            -6.7920416593551636e-01 5.2966451644897461e-01</leafValues></_>
        <_>
          <internalNodes>
            0 -1 102 -992159492 -65548 -858465057 -570557187 -892543493
            -17039875 51455 -1073803585</internalNodes>
          <leafValues>
            -5.8657187223434448e-01 6.1105048656463623e-01</leafValues></_>
        <_>
          <internalNodes>
            0 -1 56 -17846614 -1114130 -16864718 -268435986 -1073741826
            -8194 -16385 -274</internalNodes>
          <leafValues>
            -6.7106014490127563e-01 4.7505432367324829e-01</leafValues></_>
        <_>
          <internalNodes>
            0 -1 222 -235866667 -207361 2145859583 -131073 -271892483
            -3329 1065041918 2147450863</internalNodes>
          <leafValues>
            -7.1579474210739136e-01 4.5833891630172729e-01</leafValues></_>
        <_>
          <internalNodes>
            0 -1 226 -50528323 -131592 -2376711 -67108897 -4390915
            -230179 -9437201 2132016923</internalNodes>
          <leafValues>
            -6.5621888637542725e-01 4.3086051940917969e-01</leafValues></_>
        <_>
          <internalNodes>
            0 -1 35 -569126704 -119903266 902212334 -560267522
            -1080325558 -218108234 -1142977557 -4195329</internalNodes>
          <leafValues>
            -5.0606626272201538e-01 6.0528767108917236e-01</leafValues></_>
        <_>
          <internalNodes>
            0 -1 40 -284168955 -2097315 -212996 -197508 -136314883
            -33554433 -268894852 -27</internalNodes>
          <leafValues>
            -4.5002108812332153e-01 5.9254431724548340e-01</leafValues></_>
        <_>
          <internalNodes>
            0 -1 125 -106901288 -101362183 1607848666 493950417
            -1182493955 -68166916 25181437 905002867</internalNodes>
          <leafValues>
            -6.9133144617080688e-01 3.8535237312316895e-01</leafValues></_></weakClassifiers></_>
    <!-- stage 6 -->
    <_>
      <maxWeakCount>12</maxWeakCount>
      <stageThreshold>-2.6134524345397949e+00</stageThreshold>
      <weakClassifiers>
        <_>
          <internalNodes>
            0 -1 142 -538981153 -1025 -859042612 -1025 1167019339
            -536895489 -573841955 -33751076</internalNodes>
          <leafValues>
            -7.0514082908630371e-01 5.5866259336471558e-01</leafValues></_>
        <_>
          <internalNodes>
            0 -1 156 -484192445 54659584 -65537 -2097153 -4194305
            -4718859 -51839489 -454754321</internalNodes>
          <leafValues>
            -6.4619135856628418e-01 5.5632269382476807e-01</leafValues></_>
        <_>
          <internalNodes>
            0 -1 80 595011431 1073724415 619641798 1040187391 -823219456
            -5244466 -990908918 -17825978</internalNodes>
          <leafValues>
            -7.1082234382629395e-01 4.6864387392997742e-01</leafValues></_>
        <_>
          <internalNodes>
            0 -1 162 -586230575 -548069428 -4759553 1562377719
            -1680867422 -549159292 -1082179585 -1621139457</internalNodes>
          <leafValues>
            -4.6649369597434998e-01 6.6787832975387573e-01</leafValues></_>
        <_>
          <internalNodes>
            0 -1 29 -9109545 -73731 -201351681 -8219 -68616450 -196611
            -67384325 133156095</internalNodes>
          <leafValues>
            -6.3208442926406860e-01 4.6363091468811035e-01</leafValues></_>
        <_>
          <internalNodes>
            0 -1 138 -570696508 -34506492 -821305877 -545301223
            -349441896 -67374608 -402526294 -71309302</internalNodes>
          <leafValues>
            -5.2008384466171265e-01 5.2678549289703369e-01</leafValues></_>
        <_>
          <internalNodes>
            0 -1 248 398439099 -658739459 -1615090476 -1094713604
            392165365 2138161087 1759310068 -17</internalNodes>
          <leafValues>
            -4.9574959278106689e-01 5.0928080081939697e-01</leafValues></_>
        <_>
          <internalNodes>
            0 -1 126 -601830208 -67695134 1058626975 -5304054
            -1091592454 1924868254 -1347835241 653734847</internalNodes>
          <leafValues>
            -6.7944437265396118e-01 3.9578652381896973e-01</leafValues></_>
        <_>
          <internalNodes>
            0 -1 246 -15468193 -49257196 -12845219 -818545287
            -1351893490 -92167 -11730977 -1415868961</internalNodes>
          <leafValues>
            -4.0376237034797668e-01 6.7225706577301025e-01</leafValues></_>
        <_>
          <internalNodes>
            0 -1 205 -218115595 -34547969 -5276161 -139265 -1074790401
            -1076892707 1565342975 2109636573</internalNodes>
          <leafValues>
            -5.2027988433837891e-01 4.9700304865837097e-01</leafValues></_>
        <_>
          <internalNodes>
            0 -1 137 -570359855 -13566049 -9404425 -573325359
            -1639645720 -4 -55509009 -1080871023</internalNodes>
          <leafValues>
            -4.7111251950263977e-01 5.4948598146438599e-01</leafValues></_>
        <_>
          <internalNodes>
            0 -1 149 665794359 784711391 1603343697 -621625770
            -1075512848 -1208682316 1073740742 -235470922</internalNodes>
          <leafValues>
            -6.4526206254959106e-01 3.9074715971946716e-01</leafValues></_></weakClassifiers></_>
    <!-- stage 7 -->
    <_>
      <maxWeakCount>10</maxWeakCount>
      <stageThreshold>-2.5486712455749512e+00</stageThreshold>
      <weakClassifiers>
        <_>
          <internalNodes>
            0 -1 155 1044378879 1061156447 -1665164036 -1124082436
            1627190520 2092497345 -50463491 -50332417</internalNodes>
          <leafValues>
            -6.3969773054122925e-01 5.9275513887405396e-01</leafValues></_>
        <_>
          <internalNodes>
            0 -1 256 -1058814 -209340 1574235854 -537008001 -3169754
            -605092638 -297145618 -823407409</internalNodes>
          <leafValues>
            -5.3696954250335693e-01 6.3215810060501099e-01</leafValues></_>
        <_>
          <internalNodes>
            0 -1 25 -252643845 -1073791489 -1207980033 1071592831
            -72746017 2147479485 -393233 1073741807</internalNodes>
          <leafValues>
            -6.7609512805938721e-01 4.7079852223396301e-01</leafValues></_>
        <_>
          <internalNodes>
            0 -1 103 -615587892 -547369524 -538020865 -2367783
            -813110324 -548417652 -14090241 -282341793</internalNodes>
          <leafValues>
            -5.2467668056488037e-01 5.6900364160537720e-01</leafValues></_>
        <_>
          <internalNodes>
            0 -1 140 -877668353 362673660 -7153667 -206860 1392795646
            1467808760 -289476628 1590487796</internalNodes>
          <leafValues>
            -7.5074583292007446e-01 4.0769991278648376e-01</leafValues></_>
        <_>
          <internalNodes>
            0 -1 241 -662712077 -537180679 993533265 -1074068843
            -823221762 -1073752677 -1941416752 -1074005293</internalNodes>
          <leafValues>
            -4.8058378696441650e-01 6.0701638460159302e-01</leafValues></_>
        <_>
          <internalNodes>
            0 -1 21 -30343440 -34569520 -816762883 -539895704
            -1710179871 -35026689 -1082102276 -1979662320</internalNodes>
          <leafValues>
            -6.2504720687866211e-01 4.8232394456863403e-01</leafValues></_>
        <_>
          <internalNodes>
            0 -1 210 78336783 -59839996 -590447804 -211681790 2079800831
            -378998514 2077170559 -855644733</internalNodes>
          <leafValues>
            -5.8099192380905151e-01 4.4445469975471497e-01</leafValues></_>
        <_>
          <internalNodes>
            0 -1 188 -1132148656 515903508 956307657 -1108336239
            -21889607 -69484358 -616956229 -1083506629</internalNodes>
          <leafValues>
            -6.0232752561569214e-01 3.9913985133171082e-01</leafValues></_>
        <_>
          <internalNodes>
            0 -1 91 -9181437 -180630521 1980987201 2004043603 -139296845
            -537440521 -1900713 -288895321</internalNodes>
          <leafValues>
            -3.8726794719696045e-01 6.9021874666213989e-01</leafValues></_></weakClassifiers></_>
    <!-- stage 8 -->
    <_>
      <maxWeakCount>10</maxWeakCount>
      <stageThreshold>-2.6255815029144287e+00</stageThreshold>
      <weakClassifiers>
        <_>
          <internalNodes>
            0 -1 122 1431699455 1599461375 1095845727 1430649767
            1566174207 1595771775 1364581071 1431699455</internalNodes>
          <leafValues>
            -8.1152367591857910e-01 4.9422955513000488e-01</leafValues></_>
        <_>
          <internalNodes>
            0 -1 19 -68092043 -38734852 -1818502789 -2081 -201785356
            -68092936 -739508225 268431311</internalNodes>
          <leafValues>
            -7.9635161161422729e-01 3.6956018209457397e-01</leafValues></_>
        <_>
          <internalNodes>
            0 -1 12 -99353869 -14468815 -1904156965 -98535151
            -1147490369 -1146360066 2063280314 -4458241</internalNodes>
          <leafValues>
            -4.5628935098648071e-01 7.2588670253753662e-01</leafValues></_>
        <_>
          <internalNodes>
            0 -1 23 -846474849 -1481734134 -1918902529 -274727139
            -1970762328 -876892482 -2002727749 -69476853</internalNodes>
          <leafValues>
            -3.7309926748275757e-01 7.4846500158309937e-01</leafValues></_>
        <_>
          <internalNodes>
            0 -1 39 -1897978574 -8845570 558564379 261033623 -638608678
            -69517093 675221275 -3150657</internalNodes>
          <leafValues>
            -5.6955868005752563e-01 5.3540772199630737e-01</leafValues></_>
        <_>
          <internalNodes>
            0 -1 129 -563883390 -234893281 -46689108 491615370
            -1651539053 -67385877 -1458434142 2063070199</internalNodes>
          <leafValues>
            -5.9367549419403076e-01 4.4162622094154358e-01</leafValues></_>
        <_>
          <internalNodes>
            0 -1 237 -537867012 -6520440 -1278267553 -6340977 1066274748
            -1074937815 1070214911 -1074020353</internalNodes>
          <leafValues>
            -6.4777404069900513e-01 3.9838030934333801e-01</leafValues></_>
        <_>
          <internalNodes>
            0 -1 206 -318865419 278663644 -683552005 -545797990 -197636
            -88286040 -1152033 1599864591</internalNodes>
          <leafValues>
            -6.4367818832397461e-01 3.7792381644248962e-01</leafValues></_>
        <_>
          <internalNodes>
            0 -1 34 -587211445 301154513 502235054 1475827519 511432702
            469704061 -1342439585 -67114641</internalNodes>
          <leafValues>
            -4.2862182855606079e-01 6.2113785743713379e-01</leafValues></_>
        <_>
          <internalNodes>
            0 -1 114 1527574988 -32583420 2033709565 2113794525
            -204800124 -905254264 -72705621 -827339221</internalNodes>
          <leafValues>
            -5.2782487869262695e-01 5.1277548074722290e-01</leafValues></_></weakClassifiers></_>
    <!-- stage 9 -->
    <_>
      <maxWeakCount>10</maxWeakCount>
      <stageThreshold>-2.5157408714294434e+00</stageThreshold>
      <weakClassifiers>
        <_>
          <internalNodes>
            0 -1 139 -65539 -136446179 -262657 -4207733 -403771649
            2009039871 -72356161 934219419</internalNodes>
          <leafValues>
            -6.6299998760223389e-01 6.2358915805816650e-01</leafValues></_>
        <_>
          <internalNodes>
            0 -1 54 -669976880 -19808274 -33554433 -1610629121
            -544407570 -586354740 -538968065 -1622196257</internalNodes>
          <leafValues>
            -5.7986027002334595e-01 6.5579885244369507e-01</leafValues></_>
        <_>
          <internalNodes>
            0 -1 171 -235605767 -541261827 1366618363 -33686019
            -707330056 -262147 1441659899 -1079297989</internalNodes>
          <leafValues>
            -4.5626154541969299e-01 6.8757140636444092e-01</leafValues></_>
        <_>
          <internalNodes>
            0 -1 214 -235866635 -1243808260 -1748771905 -33695009
            -1093669905 -1478763921 2141601775 1072660479</internalNodes>
          <leafValues>
            -7.0744532346725464e-01 4.4916221499443054e-01</leafValues></_>
        <_>
          <internalNodes>
            0 -1 20 880820148 -1744889857 1073626879 -1073760257
            820252140 -1342228033 -1073860673 -1077150001</internalNodes>
          <leafValues>
            -6.3022238016128540e-01 4.2922320961952209e-01</leafValues></_>
        <_>
          <internalNodes>
            0 -1 126 -33366896 -843813 2109466047 -16836301 -1195393029
            1977563123 -1159754529 888618999</internalNodes>
          <leafValues>
            -6.3457107543945312e-01 3.7942251563072205e-01</leafValues></_>
        <_>
          <internalNodes>
            0 -1 42 -16892930 -6453539 -144081441 -810644216 -3216453
            -71658805 -368079347 -829649400</internalNodes>
          <leafValues>
            -5.5627584457397461e-01 4.5449626445770264e-01</leafValues></_>
        <_>
          <internalNodes>
            0 -1 92 -68095768 1073279485 -782274354 -134352035
            1721660671 2147220957 1156443647 -1958787041</internalNodes>
          <leafValues>
            -4.9013665318489075e-01 5.0191861391067505e-01</leafValues></_>
        <_>
          <internalNodes>
            0 -1 175 -541335553 -536928897 -9 -67143681 -12604481
            1975517159 -1424282130 599521983</internalNodes>
          <leafValues>
            -4.1942277550697327e-01 5.5751872062683105e-01</leafValues></_>
        <_>
          <internalNodes>
            0 -1 235 -991630038 1836958180 -444946644 -365953887
            -1060640788 -336728843 -354046225 -214190325</internalNodes>
          <leafValues>
            -4.4403943419456482e-01 5.4302823543548584e-01</leafValues></_></weakClassifiers></_>
    <!-- stage 10 -->
    <_>
      <maxWeakCount>11</maxWeakCount>
      <stageThreshold>-2.2889761924743652e+00</stageThreshold>
      <weakClassifiers>
        <_>
          <internalNodes>
            0 -1 2 -252643851 -2097665 -1048577 1073725407 -40828964
            -163841 -393235 1073741823</internalNodes>
          <leafValues>
            -7.4960589408874512e-01 4.3831616640090942e-01</leafValues></_>
        <_>
          <internalNodes>
            0 -1 225 -532521 -524329 -558155 -786523 1608471893 -57 -9
            -524329</internalNodes>
          <leafValues>
            -4.5043504238128662e-01 7.2541540861129761e-01</leafValues></_>
        <_>
          <internalNodes>
            0 -1 168 1912541434 -2162689 -236981509 -1 -33793 -16863313
            -1025 -207500</internalNodes>
          <leafValues>
            -6.3926005363464355e-01 4.6287491917610168e-01</leafValues></_>
        <_>
          <internalNodes>
            0 -1 143 -65540 -4653412 -196612 -4216515 1743580796
            2013265343 -86081 935005631</internalNodes>
          <leafValues>
            -6.5734982490539551e-01 3.9838907122612000e-01</leafValues></_>
        <_>
          <internalNodes>
            0 -1 123 -590291459 890973509 -552534053 -150962368 -4211713
            -1077952513 -1 -6295585</internalNodes>
          <leafValues>
            -4.3654862046241760e-01 5.9589159488677979e-01</leafValues></_>
        <_>
          <internalNodes>
            0 -1 47 -421007441 -419430433 -34619409 -41025724 -815280222
            -285343750 -167911441 -134358564</internalNodes>
          <leafValues>
            -4.7289237380027771e-01 5.2743542194366455e-01</leafValues></_>
        <_>
          <internalNodes>
            0 -1 185 -533660235 -207820 -1325214721 -268435969 -34668547
            -197633 -2293969 235392775</internalNodes>
          <leafValues>
            -6.5381020307540894e-01 3.8097685575485229e-01</leafValues></_>
        <_>
          <internalNodes>
            0 -1 174 921124719 2102091263 -397615378 -385884457
            1155526540 -786475 -2066960948 -320868402</internalNodes>
          <leafValues>
            -6.2026685476303101e-01 3.6224040389060974e-01</leafValues></_>
        <_>
          <internalNodes>
            0 -1 130 -42156151 -1610826243 -772192 -1074151441 -41089
            -2097281 -2327755 -151011333</internalNodes>
          <leafValues>
            -5.1205348968505859e-01 4.5817121863365173e-01</leafValues></_>
        <_>
          <internalNodes>
            0 -1 199 -868168619 -1661692300 -1901035523 1060373796
            536797149 -402915329 1572482959 -1140913809</internalNodes>
          <leafValues>
            -5.0872516632080078e-01 4.7277593612670898e-01</leafValues></_>
        <_>
          <internalNodes>
            0 -1 148 -362811441 654192463 -268926834 179181455
            -1350566145 183352570 -1073955060 496975615</internalNodes>
          <leafValues>
            -5.8344489336013794e-01 3.7440338730812073e-01</leafValues></_></weakClassifiers></_>
    <!-- stage 11 -->
    <_>
      <maxWeakCount>10</maxWeakCount>
      <stageThreshold>-2.1748464107513428e+00</stageThreshold>
      <weakClassifiers>
        <_>
          <internalNodes>
            0 -1 108 2147180531 1928388595 -68018318 -851973 1609523195
            2146762689 -893966 -851982</internalNodes>
          <leafValues>
            -6.5066093206405640e-01 4.8900398612022400e-01</leafValues></_>
        <_>
          <internalNodes>
            0 -1 228 -134226210 -202375185 -70388745 -17 2101906568
            -273681429 -69206337 -135790841</internalNodes>
          <leafValues>
            -4.8550850152969360e-01 6.2407457828521729e-01</leafValues></_>
        <_>
          <internalNodes>
            0 -1 43 -269488209 -268435457 -1504866771 -274797666
            1464142594 1532818166 -572698980 -196690</internalNodes>
          <leafValues>
            -5.4192405939102173e-01 5.2991044521331787e-01</leafValues></_>
        <_>
          <internalNodes>
            0 -1 51 803028863 1070415871 -1075873793 268397567
            -1621237793 1598324172 -32769 -547487745</internalNodes>
          <leafValues>
            -5.9243571758270264e-01 4.5692011713981628e-01</leafValues></_>
        <_>
          <internalNodes>
            0 -1 8 -486545627 -1 -403181765 -431558706 -11 -513
            -135299328 -277872681</internalNodes>
          <leafValues>
            -4.8743489384651184e-01 5.0272947549819946e-01</leafValues></_>
        <_>
          <internalNodes>
            0 -1 183 -590504739 1035451859 -1132419014 -1095057989
            -171159332 2093994075 -806384018 -3145761</internalNodes>
          <leafValues>
            -5.1390910148620605e-01 4.5769518613815308e-01</leafValues></_>
        <_>
          <internalNodes>
            0 -1 218 -925897009 -1803750757 -2138289972 2096037870
            1319062991 -288428641 -839280387 -228795624</internalNodes>
          <leafValues>
            -5.9358721971511841e-01 3.9902174472808838e-01</leafValues></_>
        <_>
          <internalNodes>
            0 -1 110 -386343124 -270729347 -294787090 -396054555
            -3149969 -169813505 -1095110994 1626324735</internalNodes>
          <leafValues>
            -5.9102964401245117e-01 3.6552539467811584e-01</leafValues></_>
        <_>
          <internalNodes>
            0 -1 213 -3145777 -665977084 2102161219 -12320953 -268468225
            -305692689 2038382590 -18350097</internalNodes>
          <leafValues>
            -3.4164559841156006e-01 6.9577622413635254e-01</leafValues></_>
        <_>
          <internalNodes>
            0 -1 219 -1056969521 -1260392705 13413455 -2066743353
            -894439773 -268566618 82834687 -218109005</internalNodes>
          <leafValues>
            -3.1603920459747314e-01 6.9823586940765381e-01</leafValues></_></weakClassifiers></_>
    <!-- stage 12 -->
    <_>
      <maxWeakCount>12</maxWeakCount>
      <stageThreshold>-2.7262797355651855e+00</stageThreshold>
      <weakClassifiers>
        <_>
          <internalNodes>
            0 -1 59 856698301 1061109567 -1075855361 -1078001665
            2147450879 2138800127 -16387 -16842764</internalNodes>
          <leafValues>
            -7.0402556657791138e-01 4.3035700917243958e-01</leafValues></_>
        <_>
          <internalNodes>
            0 -1 67 -22020097 704839679 -117506049 -16777217 -17 -17
            -51445761 -50331649</internalNodes>
          <leafValues>
            -4.1862213611602783e-01 7.2647726535797119e-01</leafValues></_>
        <_>
          <internalNodes>
            0 -1 41 203426832 -252657665 -1381028065 -1912631297
            -168447503 -1285 -1079034049 -1049601</internalNodes>
          <leafValues>
            -6.7160290479660034e-01 4.1351971030235291e-01</leafValues></_>
        <_>
          <internalNodes>
            0 -1 258 -344458241 -134238294 -302663426 -1202038
            2071198139 -540674 -9190722 -412671486</internalNodes>
          <leafValues>
            -4.2323195934295654e-01 6.1687511205673218e-01</leafValues></_>
        <_>
          <internalNodes>
            0 -1 136 -211836337 1560280527 -1090555009 2147351903
            4468237 -570425355 -1427267633 -1573051</internalNodes>
          <leafValues>
            -4.6876993775367737e-01 5.1299452781677246e-01</leafValues></_>
        <_>
          <internalNodes>
            0 -1 117 466599819 151764510 -1652375638 -1157578784
            -12060165 2071441151 -1064965 1066385343</internalNodes>
          <leafValues>
            -6.2552493810653687e-01 3.4560313820838928e-01</leafValues></_>
        <_>
          <internalNodes>
            0 -1 151 -610761508 -2099713 -981186306 -2097313 -288157259
            -67109121 -2134631172 -2834433</internalNodes>
          <leafValues>
            -5.3217905759811401e-01 4.2035800218582153e-01</leafValues></_>
        <_>
          <internalNodes>
            0 -1 150 794574719 -1076052500 2142764407 -335544451 -163890
            -28774516 -201490433 -305070180</internalNodes>
          <leafValues>
            -6.2161123752593994e-01 3.2428801059722900e-01</leafValues></_>
        <_>
          <internalNodes>
            0 -1 215 -385631549 1057882058 -45274448 -1349599237
            1868383439 1073741769 -547674480 -11010277</internalNodes>
          <leafValues>
            -4.3225085735321045e-01 4.8957234621047974e-01</leafValues></_>
        <_>
          <internalNodes>
            0 -1 8 -521214201 -287375361 -991891708 -354227258
            -134217857 -15681 -671088892 -571474197</internalNodes>
          <leafValues>
            -5.3808623552322388e-01 4.0361762046813965e-01</leafValues></_>
        <_>
          <internalNodes>
            0 -1 90 -12340477 436858406 -1761591552 -16515269 -539656335
            -71304394 -141073436 -867376536</internalNodes>
          <leafValues>
            -6.2332290410995483e-01 2.9284930229187012e-01</leafValues></_>
        <_>
          <internalNodes>
            0 -1 146 1476712268 1563818812 -15673379 -1889552899
            1832274926 1605364726 -541574161 664472635</internalNodes>
          <leafValues>
            -6.2256455421447754e-01 3.2742565870285034e-01</leafValues></_></weakClassifiers></_>
    <!-- stage 13 -->
    <_>
      <maxWeakCount>14</maxWeakCount>
      <stageThreshold>-2.5546576976776123e+00</stageThreshold>
      <weakClassifiers>
        <_>
          <internalNodes>
            0 -1 164 -21886 -3090 -268456272 -1049106 -1076 -335547410
            -263186 -18</internalNodes>
          <leafValues>
            -7.7152502536773682e-01 4.0574133396148682e-01</leafValues></_>
        <_>
          <internalNodes>
            0 -1 66 -52429602 1073741535 -52510721 -1073742657 -16777218
            2147352575 -16843041 -50331905</internalNodes>
          <leafValues>
            -4.8283904790878296e-01 5.8497315645217896e-01</leafValues></_>
        <_>
          <internalNodes>
            0 -1 27 1862270943 653196159 -272911489 778481407 1979186175
            1568013215 1740635135 1155854319</internalNodes>
          <leafValues>
            -5.7621121406555176e-01 4.4521167874336243e-01</leafValues></_>
        <_>
          <internalNodes>
            0 -1 252 -463190924 -2327300 -1174447619 -114692 -688387
            -67244548 -19006467 -12843</internalNodes>
          <leafValues>
            -6.2306368350982666e-01 4.1994953155517578e-01</leafValues></_>
        <_>
          <internalNodes>
            0 -1 119 751779791 1007087430 -50269376 -381618368
            -134742021 -86508809 -1074005001 -34078777</internalNodes>
          <leafValues>
            -6.4889860153198242e-01 3.1999087333679199e-01</leafValues></_>
        <_>
          <internalNodes>
            0 -1 1 -287314115 -271646721 -1376359122 778980334
            -604258508 -279118855 -536913140 -268959745</internalNodes>
          <leafValues>
            -5.5182731151580811e-01 3.9933484792709351e-01</leafValues></_>
        <_>
          <internalNodes>
            0 -1 157 2115042092 -14942452 -31481867 -12714155 1243807742
            -77668371 -1376514 -542134494</internalNodes>
          <leafValues>
            -5.4725742340087891e-01 4.1954821348190308e-01</leafValues></_>
        <_>
          <internalNodes>
            0 -1 154 -17530924 -84233537 -1330669091 -4194801 -4919300
            -1056841 -67108866 1979148039</internalNodes>
          <leafValues>
            -7.3720854520797729e-01 2.6410591602325439e-01</leafValues></_>
        <_>
          <internalNodes>
            0 -1 209 -270008921 -286015581 -336089554 -1367359825
            -2375749 -136986693 -14893153 -95160357</internalNodes>
          <leafValues>
            -3.9456209540367126e-01 5.4294925928115845e-01</leafValues></_>
        <_>
          <internalNodes>
            0 -1 173 -11534609 -704643329 -3171124 -279810 -817377974
            -578854921 -590490532 2145355743</internalNodes>
          <leafValues>
            -3.9337140321731567e-01 6.1169636249542236e-01</leafValues></_>
        <_>
          <internalNodes>
            0 -1 0 -84879403 -199683 730020315 804794333 -53084167
            -68435507 1004236789 -99331</internalNodes>
          <leafValues>
            -4.6132147312164307e-01 4.6059781312942505e-01</leafValues></_>
        <_>
          <internalNodes>
            0 -1 234 -961566457 -1074008589 -966014537 -84419977
            -958150718 -805836749 -1526727757 -441342142</internalNodes>
          <leafValues>
            -4.6564254164695740e-01 4.5383349061012268e-01</leafValues></_>
        <_>
          <internalNodes>
            0 -1 11 -1839209 -1162158081 -823193890 -289869825 -76350993
            1069547391 712977867 -17043457</internalNodes>
          <leafValues>
            -3.9085540175437927e-01 5.7844287157058716e-01</leafValues></_>
        <_>
          <internalNodes>
            0 -1 227 -537854019 -1610612739 -1073791568 -8540481
            1325281279 1073217527 1073627054 -272650326</internalNodes>
          <leafValues>
            -3.5738843679428101e-01 5.5692481994628906e-01</leafValues></_></weakClassifiers></_>
    <!-- stage 14 -->
    <_>
      <maxWeakCount>13</maxWeakCount>
      <stageThreshold>-2.1313557624816895e+00</stageThreshold>
      <weakClassifiers>
        <_>
          <internalNodes>
            0 -1 61 -201657607 -16843521 1903293177 2012610527 -196609
            -1 -65537 -1342214145</internalNodes>
          <leafValues>
            -4.5027485489845276e-01 6.2743735313415527e-01</leafValues></_>
        <_>
          <internalNodes>
            0 -1 31 -536900901 -27262977 -1417734 -85918734 -548877
            -16385 -536581 -1</internalNodes>
          <leafValues>
            -3.7981912493705750e-01 6.9605952501296997e-01</leafValues></_>
        <_>
          <internalNodes>
            0 -1 189 -674255069 352658208 -1074823331 -3310809 -1572889
            -17829377 -336921617 -319881233</internalNodes>
          <leafValues>
            -4.7849282622337341e-01 5.2796101570129395e-01</leafValues></_>
        <_>
          <internalNodes>
            0 -1 194 -538968273 -1 -67379412 -8211 2004827958 2066949966
            -1145630905 -8405045</internalNodes>
          <leafValues>
            -4.0959551930427551e-01 5.7184100151062012e-01</leafValues></_>
        <_>
          <internalNodes>
            0 -1 131 -13142021 -156049989 -34601872 -35520517 2146924511
            2146959297 -17473799 -8126509</internalNodes>
          <leafValues>
            -4.0850389003753662e-01 5.5558496713638306e-01</leafValues></_>
        <_>
          <internalNodes>
            0 -1 124 993735550 -1174536708 -549453825 -68158466 -426386
            -201393970 -134488146 -17907840</internalNodes>
          <leafValues>
            -5.6559234857559204e-01 3.9166030287742615e-01</leafValues></_>
        <_>
          <internalNodes>
            0 -1 15 -992399 -2097153 -109650049 -70264337 -67436547
            -6661 -67571713 -823164785</internalNodes>
          <leafValues>
            -5.1627725362777710e-01 3.9498674869537354e-01</leafValues></_>
        <_>
          <internalNodes>
            0 -1 240 -956436523 -176358180 -809127969 -1084572164
            -268550145 -270205953 -1158791683 -21053507</internalNodes>
          <leafValues>
            -4.7840350866317749e-01 4.6308138966560364e-01</leafValues></_>
        <_>
          <internalNodes>
            0 -1 86 -303042581 776767980 74480472 2112225253 2144333804
            2129588204 -536936471 -286785626</internalNodes>
          <leafValues>
            -3.5214728116989136e-01 5.6814068555831909e-01</leafValues></_>
        <_>
          <internalNodes>
            0 -1 241 -658517773 -227841 -1120176655 -1107296267
            -276895809 -537536513 -2064364459 -1073750833</internalNodes>
          <leafValues>
            -3.6995795369148254e-01 5.6626999378204346e-01</leafValues></_>
        <_>
          <internalNodes>
            0 -1 74 -194007289 -265296890 -29503673 -134221833 -25690435
            -168300993 -1 -252196690</internalNodes>
          <leafValues>
            -3.1605067849159241e-01 5.8307552337646484e-01</leafValues></_>
        <_>
          <internalNodes>
            0 -1 65 -368771980 -8704276 -1256194050 1071527903 -10486788
            -3392120 858750894 -590053408</internalNodes>
          <leafValues>
            -5.2847844362258911e-01 3.7221199274063110e-01</leafValues></_>
        <_>
          <internalNodes>
            0 -1 118 1780482047 666842879 -7864392 738193407 537818645
            683012799 661588244 -1493730059</internalNodes>
          <leafValues>
            -5.4255807399749756e-01 3.4400677680969238e-01</leafValues></_></weakClassifiers></_>
    <!-- stage 15 -->
    <_>
      <maxWeakCount>14</maxWeakCount>
      <stageThreshold>-2.9309296607971191e+00</stageThreshold>
      <weakClassifiers>
        <_>
          <internalNodes>
            0 -1 198 -14880908 -3 -15122 -17891346 2147299325 2147480575
            -36995 -1</internalNodes>
          <leafValues>
            -5.3207623958587646e-01 5.0325566530227661e-01</leafValues></_>
        <_>
          <internalNodes>
            0 -1 73 -5526597 -16401 -17409 -16465 -1048641 -1 -20481
            -2064666709</internalNodes>
          <leafValues>
            -4.3719366192817688e-01 5.9234255552291870e-01</leafValues></_>
        <_>
          <internalNodes>
            0 -1 172 -2106417 -5121 -3323094 -131281 -68158601 -5242881
            2009071444 -5000397</internalNodes>
          <leafValues>
            -3.9192414283752441e-01 6.2042957544326782e-01</leafValues></_>
        <_>
          <internalNodes>
            0 -1 254 -12583153 -568590833 -8978593 -34078849 -67109001
            -33554562 -22220818 -1026</internalNodes>
          <leafValues>
            -3.8450363278388977e-01 6.7121911048889160e-01</leafValues></_>
        <_>
          <internalNodes>
            0 -1 64 2147466495 620570879 -17186 -21825 1610603997
            905313779 -187846436 -67108866</internalNodes>
          <leafValues>
            -3.9167815446853638e-01 5.4329770803451538e-01</leafValues></_>
        <_>
          <internalNodes>
            0 -1 229 -855771659 -50528956 -651980033 -4214017 -67584003
            -39528979 -2097441 2142994235</internalNodes>
          <leafValues>
            -5.5434232950210571e-01 4.0606111288070679e-01</leafValues></_>
        <_>
          <internalNodes>
            0 -1 13 -47530501 1073658335 -73450017 1072644063 -71747144
            -67502453 -5555271 -16417</internalNodes>
          <leafValues>
            -4.6492671966552734e-01 4.4454717636108398e-01</leafValues></_>
        <_>
          <internalNodes>
            0 -1 94 -268439565 -302024193 -876609537 -847571747
            -268470401 1409244783 -1343009281 1114787439</internalNodes>
          <leafValues>
            -5.1814752817153931e-01 3.8866913318634033e-01</leafValues></_>
        <_>
          <internalNodes>
            0 -1 250 -1157648593 654163631 -1409302878 770179070
            -25223419 1034403839 -202951168 -2130706653</internalNodes>
          <leafValues>
            -3.7542945146560669e-01 5.2614349126815796e-01</leafValues></_>
        <_>
          <internalNodes>
            0 -1 163 -39793199 -44563 -1114259986 -34392065 -297078834
            -16889092 -1394131490 619134150</internalNodes>
          <leafValues>
            -5.4502958059310913e-01 3.3597841858863831e-01</leafValues></_>
        <_>
          <internalNodes>
            0 -1 16 -1091146891 -458761 -1622752881 -33 -1078271099
            -84348044 -33820161 1309147119</internalNodes>
          <leafValues>
            -5.9588670730590820e-01 2.9851916432380676e-01</leafValues></_>
        <_>
          <internalNodes>
            0 -1 212 -40306219 -1915427633 -84976642 1573700602
            1049562532 -6571061 1070545407 1876754173</internalNodes>
          <leafValues>
            -6.1172485351562500e-01 2.8493636846542358e-01</leafValues></_>
        <_>
          <internalNodes>
            0 -1 193 -201789192 1067122545 -203557270 1039794045
            2132630009 1073736447 -470360067 -1456794061</internalNodes>
          <leafValues>
            -4.9901244044303894e-01 3.8624724745750427e-01</leafValues></_>
        <_>
          <internalNodes>
            0 -1 203 -29360273 -454611282 796094062 -290525522 897167801
            -1056769 -563139845 -155193681</internalNodes>
          <leafValues>
            -3.9865928888320923e-01 4.8420929908752441e-01</leafValues></_></weakClassifiers></_>
    <!-- stage 16 -->
    <_>
      <maxWeakCount>15</maxWeakCount>
      <stageThreshold>-2.3542499542236328e+00</stageThreshold>
      <weakClassifiers>
        <_>
          <internalNodes>
            0 -1 128 -4522497 -2053 -1614864961 -16830661 -4215105
            2013265919 -1145066313 939474943</internalNodes>
          <leafValues>
            -6.1794537305831909e-01 4.2322465777397156e-01</leafValues></_>
        <_>
          <internalNodes>
            0 -1 233 -26369 -4097 -50177 -16385 -16465 -1 -16465
            -144232701</internalNodes>
          <leafValues>
            -4.4021534919738770e-01 5.7611030340194702e-01</leafValues></_>
        <_>
          <internalNodes>
            0 -1 104 904863759 -196288508 -78783521 -37224482 -471859457
            -2190658 -1029 -184549377</internalNodes>
          <leafValues>
            -5.9722065925598145e-01 3.9927494525909424e-01</leafValues></_>
        <_>
          <internalNodes>
            0 -1 253 -4337 220981775 -1818478325 -1078919234 -134218913
            1244175164 -278278852 -659860</internalNodes>
          <leafValues>
            -5.0954449176788330e-01 4.6902936697006226e-01</leafValues></_>
        <_>
          <internalNodes>
            0 -1 28 -2113621 366344703 -49253 -1644303685 -2117713
            805302014 -24679 -17477</internalNodes>
          <leafValues>
            -3.7046304345130920e-01 6.0167199373245239e-01</leafValues></_>
        <_>
          <internalNodes>
            0 -1 46 -1342296536 782018332 -1073870035 -1615001665
            2145143604 -805586437 -4243793 -273682913</internalNodes>
          <leafValues>
            -5.7835531234741211e-01 3.5650700330734253e-01</leafValues></_>
        <_>
          <internalNodes>
            0 -1 49 -33554449 -33745667 -36718614 -33737227 -302006529
            -1191922435 -439091745 -791284513</internalNodes>
          <leafValues>
            -3.6008116602897644e-01 5.5344939231872559e-01</leafValues></_>
        <_>
          <internalNodes>
            0 -1 116 -3146769 -285232181 -1350717878 1291509758
            -536872001 -8193 -692363 -117473089</internalNodes>
          <leafValues>
            -3.5931941866874695e-01 5.7153475284576416e-01</leafValues></_>
        <_>
          <internalNodes>
            0 -1 195 -65 -1342177409 -2113 -1648627911 -1073741957
            1744543403 -1087259206 926936371</internalNodes>
          <leafValues>
            -4.4581845402717590e-01 4.1410675644874573e-01</leafValues></_>
        <_>
          <internalNodes>
            0 -1 3 -17106955 -39927841 -1082656257 767036891 -172425227
            -17567809 -294913 2147373054</internalNodes>
          <leafValues>
            -5.4589003324508667e-01 3.4864825010299683e-01</leafValues></_>
        <_>
          <internalNodes>
            0 -1 190 -858991403 -52920627 -1111165443 -34738843
            -2121328429 -67110021 -126374737 751770863</internalNodes>
          <leafValues>
            -4.6639063954353333e-01 3.8919454813003540e-01</leafValues></_>
        <_>
          <internalNodes>
            0 -1 211 -101189649 -1858124297 2147479502 -269484041
            1695560639 2126479359 2075914235 -269765953</internalNodes>
          <leafValues>
            -3.2213908433914185e-01 5.6094133853912354e-01</leafValues></_>
        <_>
          <internalNodes>
            0 -1 48 -286283603 718269350 -556302899 -3179765 -285358150
            -88098264 -1652835339 -1042825429</internalNodes>
          <leafValues>
            -3.9326575398445129e-01 4.6762523055076599e-01</leafValues></_>
        <_>
          <internalNodes>
            0 -1 70 -1669530275 1038878581 -1076379897 -1073763681
            -1143116303 2146153279 -17521 -51401797</internalNodes>
          <leafValues>
            -4.1463780403137207e-01 4.3344372510910034e-01</leafValues></_>
        <_>
          <internalNodes>
            0 -1 87 1320151875 -330141965 -722151940 -1157833729 -16847
            -1890636993 -71534096 -138499</internalNodes>
          <leafValues>
            -4.3415758013725281e-01 3.9966312050819397e-01</leafValues></_></weakClassifiers></_>
    <!-- stage 17 -->
    <_>
      <maxWeakCount>14</maxWeakCount>
      <stageThreshold>-2.2733359336853027e+00</stageThreshold>
      <weakClassifiers>
        <_>
          <internalNodes>
            0 -1 152 -547561987 -2228259 -1 -2097153 -10485778 -3346484
            -49153 -539099137</internalNodes>
          <leafValues>
            -4.0611284971237183e-01 6.5962320566177368e-01</leafValues></_>
        <_>
          <internalNodes>
            0 -1 200 -269160475 -268435473 -269095057 -1057014 -524289
            -33 -196753 -134742157</internalNodes>
          <leafValues>
            -4.1927483677864075e-01 5.7945543527603149e-01</leafValues></_>
        <_>
          <internalNodes>
            0 -1 5 -2139029744 -1073950723 -1082721295 -198689 -2293888
            -67309651 -1073823812 -22093889</internalNodes>
          <leafValues>
            -6.5383607149124146e-01 3.6508315801620483e-01</leafValues></_>
        <_>
          <internalNodes>
            0 -1 231 -202903841 -270337 -655403 -262433 256772236
            -143361 -524297 -524473</internalNodes>
          <leafValues>
            -3.8747522234916687e-01 5.6422549486160278e-01</leafValues></_>
        <_>
          <internalNodes>
            0 -1 24 -287322131 -827347418 -9437251 -15745624 -1427047496
            -589837 1853620223 -12845277</internalNodes>
          <leafValues>
            -3.9528179168701172e-01 4.9430745840072632e-01</leafValues></_>
        <_>
          <internalNodes>
            0 -1 249 -401671510 -1088476497 -1580747864 -1147195201
            -1625425548 -69211210 -10486572 -525321</internalNodes>
          <leafValues>
            -4.1167935729026794e-01 5.0165158510208130e-01</leafValues></_>
        <_>
          <internalNodes>
            0 -1 111 -52434689 485358796 -867705700 -33948962 -537658885
            1420153593 -304088872 -82948</internalNodes>
          <leafValues>
            -4.7291961312294006e-01 3.7573862075805664e-01</leafValues></_>
        <_>
          <internalNodes>
            0 -1 75 357434676 1068417020 -1342291969 -1610752300
            2072923864 -554962433 1542740411 -1358180581</internalNodes>
          <leafValues>
            -4.7675096988677979e-01 3.8647401332855225e-01</leafValues></_>
        <_>
          <internalNodes>
            0 -1 176 -118562571 2147274701 264974847 1071601111
            1810757885 -16848149 1055472703 1065351149</internalNodes>
          <leafValues>
            -5.6366586685180664e-01 3.1740975379943848e-01</leafValues></_>
        <_>
          <internalNodes>
            0 -1 220 -12714009 -239649281 -2621490 -1359216785 -49233921
            -17681037 -1162346505 -699146249</internalNodes>
          <leafValues>
            -3.5842359066009521e-01 4.9136099219322205e-01</leafValues></_>
        <_>
          <internalNodes>
            0 -1 50 -603988561 1475524969 369090442 1065290546 -17358073
            -1073774689 -699 -1080789</internalNodes>
          <leafValues>
            -3.9229029417037964e-01 4.8011425137519836e-01</leafValues></_>
        <_>
          <internalNodes>
            0 -1 32 575644523 2047858479 505589282 -2107445306 -68711430
            -1175981361 -438400 -135790777</internalNodes>
          <leafValues>
            -4.6841794252395630e-01 3.7189757823944092e-01</leafValues></_>
        <_>
          <internalNodes>
            0 -1 145 -822095889 -100667273 13434606 -1241645057
            -1026569270 -268624581 -2131248089 568634278</internalNodes>
          <leafValues>
            -5.3789365291595459e-01 3.1862920522689819e-01</leafValues></_>
        <_>
          <internalNodes>
            0 -1 107 -1034633940 212664255 -354734174 783201192
            2075852797 805301247 -5349452 1073622975</internalNodes>
          <leafValues>
            -7.0098000764846802e-01 2.3628538846969604e-01</leafValues></_></weakClassifiers></_>
    <!-- stage 18 -->
    <_>
      <maxWeakCount>16</maxWeakCount>
      <stageThreshold>-2.6743295192718506e+00</stageThreshold>
      <weakClassifiers>
        <_>
          <internalNodes>
            0 -1 158 872198905 -196611 1366684155 1979578877 -65538
            -2097409 -34209793 -8385</internalNodes>
          <leafValues>
            -4.3763864040374756e-01 5.7692307233810425e-01</leafValues></_>
        <_>
          <internalNodes>
            0 -1 224 -13 -12 -16641 -1048591 2146140123 2147483643
            -53253 -5</internalNodes>
          <leafValues>
            -3.5355725884437561e-01 6.8677693605422974e-01</leafValues></_>
        <_>
          <internalNodes>
            0 -1 109 -2135951601 -268435457 -71303683 -918699 3014664
            -50398721 -69287969 -168431803</internalNodes>
          <leafValues>
            -5.6131434440612793e-01 4.2495188117027283e-01</leafValues></_>
        <_>
          <internalNodes>
            0 -1 96 -570362628 -552552700 -1089356037 -1089454763
            2136468735 -283264049 -67108865 -549453825</internalNodes>
          <leafValues>
            -5.1723873615264893e-01 3.8470199704170227e-01</leafValues></_>
        <_>
          <internalNodes>
            0 -1 246 -15990945 -14914300 -1048609 -13372327 -5267635
            -86664 -268963841 -1901082997</internalNodes>
          <leafValues>
            -3.2616618275642395e-01 5.7522243261337280e-01</leafValues></_>
        <_>
          <internalNodes>
            0 -1 167 -33554945 67369979 -1156858759 -1081682436
            1744624604 930933746 -69420068 -1769488</internalNodes>
          <leafValues>
            -4.8926743865013123e-01 4.2228662967681885e-01</leafValues></_>
        <_>
          <internalNodes>
            0 -1 221 2013245439 1609236447 -271900934 -37700902
            2012691027 2037386495 -1140905026 -16642</internalNodes>
          <leafValues>
            -4.3507605791091919e-01 4.3697679042816162e-01</leafValues></_>
        <_>
          <internalNodes>
            0 -1 23 -829435929 -273752241 -305135617 -103940129
            -894922836 -285294932 -924525317 -272662761</internalNodes>
          <leafValues>
            -3.4459006786346436e-01 5.2852040529251099e-01</leafValues></_>
        <_>
          <internalNodes>
            0 -1 68 -2294017 1065344789 -1342526465 -1107445266
            -134283521 2147418095 -610369 -35674450</internalNodes>
          <leafValues>
            -3.1956353783607483e-01 5.3819608688354492e-01</leafValues></_>
        <_>
          <internalNodes>
            0 -1 45 -269848658 803006716 -1073955922 -1614878070
            1274703804 -1347249933 -327364897 1864363055</internalNodes>
          <leafValues>
            -5.6206053495407104e-01 2.9753369092941284e-01</leafValues></_>
        <_>
          <internalNodes>
            0 -1 180 -636461728 -536969294 -1181360642 -1073793705
            -1904333394 -116490792 1054284799 -1863958537</internalNodes>
          <leafValues>
            -5.4025268554687500e-01 3.0310064554214478e-01</leafValues></_>
        <_>
          <internalNodes>
            0 -1 9 -13044321 1069419517 1472400383 -1073857123
            -911606787 -7427141 -68829217 -16793611</internalNodes>
          <leafValues>
            -4.4302392005920410e-01 3.7195345759391785e-01</leafValues></_>
        <_>
          <internalNodes>
            0 -1 244 1151952705 -37791529 -604129795 -17965109
            -487261187 -50466817 -65553 -72384221</internalNodes>
          <leafValues>
            -4.2682492733001709e-01 4.2231437563896179e-01</leafValues></_>
        <_>
          <internalNodes>
            0 -1 4 -285217197 174049215 -1772241036 -823218050
            1927230226 1341899131 -201363884 -301990017</internalNodes>
          <leafValues>
            -5.2376800775527954e-01 3.3617708086967468e-01</leafValues></_>
        <_>
          <internalNodes>
            0 -1 72 -259215023 -53724418 -1128374275 -1347514394
            -88875023 -242042117 -72356406 1877962442</internalNodes>
          <leafValues>
            -4.3539434671401978e-01 3.7511336803436279e-01</leafValues></_>
        <_>
          <internalNodes>
            0 -1 77 -294928630 -75500716 -554263122 -570445510
            1402140962 -658968052 -566567422 -532170069</internalNodes>
          <leafValues>
            -4.2740228772163391e-01 4.2547386884689331e-01</leafValues></_></weakClassifiers></_>
    <!-- stage 19 -->
    <_>
      <maxWeakCount>16</maxWeakCount>
      <stageThreshold>-2.6481776237487793e+00</stageThreshold>
      <weakClassifiers>
        <_>
          <internalNodes>
            0 -1 89 -17 -218310659 -6291585 83292413 -148408457
            2004844415 -4194433 1962901495</internalNodes>
          <leafValues>
            -5.1860994100570679e-01 4.6334740519523621e-01</leafValues></_>
        <_>
          <internalNodes>
            0 -1 179 -145687299 -263169 -573711105 -1 -825829905 -1
            -1999840035 -1048577</internalNodes>
          <leafValues>
            -4.1202244162559509e-01 5.6385082006454468e-01</leafValues></_>
        <_>
          <internalNodes>
            0 -1 69 -139460614 -12931362 -2097673 -17 -1 -1 -16781585
            -452984849</internalNodes>
          <leafValues>
            -3.9123281836509705e-01 5.6558489799499512e-01</leafValues></_>
        <_>
          <internalNodes>
            0 -1 181 792166262 939523583 -33685506 -1243939841 -786433
            -50660231 -1 553645951</internalNodes>
          <leafValues>
            -5.5708825588226318e-01 3.6902889609336853e-01</leafValues></_>
        <_>
          <internalNodes>
            0 -1 169 1912599551 -4673 1373991935 939327487 -301989889
            -284737 1971189627 -80216267</internalNodes>
          <leafValues>
            -4.2183518409729004e-01 4.5184272527694702e-01</leafValues></_>
        <_>
          <internalNodes>
            0 -1 79 -33 1006615295 -1086392178 1073710335 -817771196
            -841499299 -867197736 -538968297</internalNodes>
          <leafValues>
            -2.6263317465782166e-01 6.2925952672958374e-01</leafValues></_>
        <_>
          <internalNodes>
            0 -1 232 -55511051 -67584001 2147385279 -69617169 1073545213
            -346441 -1025 -135822591</internalNodes>
          <leafValues>
            -4.6054816246032715e-01 4.1132864356040955e-01</leafValues></_>
        <_>
          <internalNodes>
            0 -1 93 -549192965 -551838388 1997602771 1460884307
            -17104901 -66122 -829685761 -607958905</internalNodes>
          <leafValues>
            -2.8185591101646423e-01 5.9201335906982422e-01</leafValues></_>
        <_>
          <internalNodes>
            0 -1 12 -764189709 -545587427 -1632807169 -98501296 -6569989
            -1145307137 -1204612289 -1090568211</internalNodes>
          <leafValues>
            -3.3868730068206787e-01 5.2064979076385498e-01</leafValues></_>
        <_>
          <internalNodes>
            0 -1 14 -368118192 -18895618 -1158713379 805238766 -69223492
            -5848791 -1076927684 -134218514</internalNodes>
          <leafValues>
            -4.2069420218467712e-01 3.7745240330696106e-01</leafValues></_>
        <_>
          <internalNodes>
            0 -1 133 2096431101 1607269725 -38010913 -1065251 1811464153
            2146172925 -1312869 -1342233537</internalNodes>
          <leafValues>
            -4.1501322388648987e-01 4.0478324890136719e-01</leafValues></_>
        <_>
          <internalNodes>
            0 -1 95 569581619 1948761662 2142188495 -1277241134
            -2055181888 -1847619197 -838861830 -1258842137</internalNodes>
          <leafValues>
            -6.1153739690780640e-01 2.7039107680320740e-01</leafValues></_>
        <_>
          <internalNodes>
            0 -1 243 -1128735115 -1610614531 -314092801 -353504859
            -29622785 -3146243 -69206273 -16536829</internalNodes>
          <leafValues>
            -5.0273346900939941e-01 3.2222673296928406e-01</leafValues></_>
        <_>
          <internalNodes>
            0 -1 122 1180696511 1392106867 -447620163 1614866891
            1396440243 1855366343 1383555873 357919594</internalNodes>
          <leafValues>
            -4.9383839964866638e-01 3.3161959052085876e-01</leafValues></_>
        <_>
          <internalNodes>
            0 -1 17 16773489 -1263470383 -1621107251 -1461849035
            384824759 -117538941 835170355 -1161891329</internalNodes>
          <leafValues>
            -4.9848929047584534e-01 3.1672146916389465e-01</leafValues></_>
        <_>
          <internalNodes>
            0 -1 184 -33825677 -1712071429 1977055151 -1966551882
            -272981225 -1737957537 -1380189693 -1732583497</internalNodes>
          <leafValues>
            -3.9255610108375549e-01 4.1727203130722046e-01</leafValues></_></weakClassifiers></_>
    <!-- stage 20 -->
    <_>
      <maxWeakCount>16</maxWeakCount>
      <stageThreshold>-2.2993621826171875e+00</stageThreshold>
      <weakClassifiers>
        <_>
          <internalNodes>
            0 -1 187 -1660953345 1040187383 -2001685318 -1113983309
            -704915233 -50989905 -320878370 -51393314</internalNodes>
          <leafValues>
            -5.1328331232070923e-01 4.7097134590148926e-01</leafValues></_>
        <_>
          <internalNodes>
            0 -1 147 -808657411 -33718291 1306484191 -2097699 -825307666
            -33685505 -858792449 -1</internalNodes>
          <leafValues>
            -3.9830628037452698e-01 5.5868178606033325e-01</leafValues></_>
        <_>
          <internalNodes>
            0 -1 248 -13648965 -55591169 -549454596 -46137409 -538970113
            -278593 -123735852 -1</internalNodes>
          <leafValues>
            -3.3563074469566345e-01 6.3245970010757446e-01</leafValues></_>
        <_>
          <internalNodes>
            0 -1 247 -821100761 -4687772 -2306081 -134226057 -269004986
            -8965 -270889266 -805321489</internalNodes>
          <leafValues>
            -4.1134655475616455e-01 4.9510172009468079e-01</leafValues></_>
        <_>
          <internalNodes>
            0 -1 52 1330569055 -16390 -1 -537919489 -1084387398
            -16805890 -1075855393 -1073766401</internalNodes>
          <leafValues>
            -4.1127637028694153e-01 4.5743441581726074e-01</leafValues></_>
        <_>
          <internalNodes>
            0 -1 42 -16912622 -86043 -1612747777 -809597113 -66647
            -69206533 -395335124 -269553912</internalNodes>
          <leafValues>
            -4.7780224680900574e-01 3.8942193984985352e-01</leafValues></_>
        <_>
          <internalNodes>
            0 -1 83 -1319937 -34914306 496344287 1432174591 1334332814
            -548462593 -858943009 -537174049</internalNodes>
          <leafValues>
            -3.1995970010757446e-01 5.6436520814895630e-01</leafValues></_>
        <_>
          <internalNodes>
            0 -1 112 -3084152 1025301944 -856057672 -1075971073
            -286593539 2078081020 -925106947 -605385077</internalNodes>
          <leafValues>
            -4.1189336776733398e-01 4.3113514780998230e-01</leafValues></_>
        <_>
          <internalNodes>
            0 -1 38 -75700250 -1086719581 -687263267 -16682506
            -202506248 -71175523 -72484081 -289445361</internalNodes>
          <leafValues>
            -4.7938883304595947e-01 3.4559980034828186e-01</leafValues></_>
        <_>
          <internalNodes>
            0 -1 153 -7151663 -134316474 -268439570 -16832854
            -1097888081 -528401 -1075540049 -135839930</internalNodes>
          <leafValues>
            -3.9235675334930420e-01 4.2798823118209839e-01</leafValues></_>
        <_>
          <internalNodes>
            0 -1 78 -71323889 -839014667 -1628520662 -573067793
            -1224868026 -1393248831 -528601 -403707925</internalNodes>
          <leafValues>
            -2.8912946581840515e-01 5.4026621580123901e-01</leafValues></_>
        <_>
          <internalNodes>
            0 -1 216 2080353535 -16974083 -1074463235 -10497 2138877676
            -13059 -8585219 -822097713</internalNodes>
          <leafValues>
            -2.7850529551506042e-01 5.8052724599838257e-01</leafValues></_>
        <_>
          <internalNodes>
            0 -1 242 -1611293483 -537095955 -1309689860 -1076052481
            -1164492801 2146812383 1003175887 -344067</internalNodes>
          <leafValues>
            -4.4072699546813965e-01 3.8242140412330627e-01</leafValues></_>
        <_>
          <internalNodes>
            0 -1 18 989331031 -1610872193 -282133921 192752479
            1021508607 -1376052243 -97321281 -805339522</internalNodes>
          <leafValues>
            -3.9688917994499207e-01 4.2508843541145325e-01</leafValues></_>
        <_>
          <internalNodes>
            0 -1 81 1061369751 1035450362 738581709 -1644981254
            -834341568 1033210779 -926419516 -44063273</internalNodes>
          <leafValues>
            -5.0339680910110474e-01 3.1763747334480286e-01</leafValues></_>
        <_>
          <internalNodes>
            0 -1 238 -1048921 1070055390 522009234 -1275117230
            1895782628 1028350599 -504159576 1624448519</internalNodes>
          <leafValues>
            -3.7733578681945801e-01 4.1640031337738037e-01</leafValues></_></weakClassifiers></_>
    <!-- stage 21 -->
    <_>
      <maxWeakCount>18</maxWeakCount>
      <stageThreshold>-2.1156704425811768e+00</stageThreshold>
      <weakClassifiers>
        <_>
          <internalNodes>
            0 -1 44 -8192022 -1118594 -538968065 -33690074 -71188545
            -4465671 -1 -286261494</internalNodes>
          <leafValues>
            -5.0070494413375854e-01 4.6563026309013367e-01</leafValues></_>
        <_>
          <internalNodes>
            0 -1 257 -20753 -20849 -1073762561 -86337 2138127035
            2143240174 2138386367 -553281</internalNodes>
          <leafValues>
            -3.9279806613922119e-01 5.6110918521881104e-01</leafValues></_>
        <_>
          <internalNodes>
            0 -1 99 -269488721 -861010678 -586953249 -201984017
            -1934949376 -1930557312 -140903425 -170524673</internalNodes>
          <leafValues>
            -4.9359220266342163e-01 4.2641142010688782e-01</leafValues></_>
        <_>
          <internalNodes>
            0 -1 54 -556073475 -35651841 -4202497 -1073790977 -551550978
            -556994676 -27541505 -538968065</internalNodes>
          <leafValues>
            -3.3229607343673706e-01 5.8274120092391968e-01</leafValues></_>
        <_>
          <internalNodes>
            0 -1 192 -14680273 -11538873 2097503557 1970747207
            -891819009 -46154881 -135135241 2012558286</internalNodes>
          <leafValues>
            -4.4741824269294739e-01 4.0088751912117004e-01</leafValues></_>
        <_>
          <internalNodes>
            0 -1 84 218062710 -654573577 2147089918 -1141115905
            2141855741 -304630544 1945795071 1911781239</internalNodes>
          <leafValues>
            -5.2650338411331177e-01 3.2359784841537476e-01</leafValues></_>
        <_>
          <internalNodes>
            0 -1 58 -1124074443 -1115930763 -1073775169 1069494063
            -1124139523 -1073741825 -1090977795 -24577</internalNodes>
          <leafValues>
            -3.6985149979591370e-01 4.5096212625503540e-01</leafValues></_>
        <_>
          <internalNodes>
            0 -1 7 -286347744 -1902896134 -539312771 1304951507
            -136766619 2144317629 -8520879 -813708449</internalNodes>
          <leafValues>
            -5.2811825275421143e-01 3.1001400947570801e-01</leafValues></_>
        <_>
          <internalNodes>
            0 -1 230 -596625419 -131585 110046687 -4512835 184302844
            1811754233 -117625857 -545073</internalNodes>
          <leafValues>
            -4.3799236416816711e-01 3.7825641036033630e-01</leafValues></_>
        <_>
          <internalNodes>
            0 -1 236 -352325649 -285229322 -269537728 -285282418
            -210584069 -1470089992 -78508033 -142606358</internalNodes>
          <leafValues>
            -3.0691394209861755e-01 5.0842863321304321e-01</leafValues></_>
        <_>
          <internalNodes>
            0 -1 159 -585113601 -10534977 -303105 -75532801 1795948445
            1173093343 709559090 16754491</internalNodes>
          <leafValues>
            -4.6221846342086792e-01 3.5542473196983337e-01</leafValues></_>
        <_>
          <internalNodes>
            0 -1 88 -1998004783 -1713312916 -1719035905 -1108590931
            -604322857 -33776965 -1143300145 -1060239121</internalNodes>
          <leafValues>
            -4.6518218517303467e-01 3.3750027418136597e-01</leafValues></_>
        <_>
          <internalNodes>
            0 -1 100 -1507792080 -1821586514 -100836385 2146033121
            -72960515 -1140930049 1978346357 1172772855</internalNodes>
          <leafValues>
            -4.8392429947853088e-01 3.1878235936164856e-01</leafValues></_>
        <_>
          <internalNodes>
            0 -1 26 1475860351 300634961 501208428 507238881 1056638683
            -294953 1073741823 -32353</internalNodes>
          <leafValues>
            -3.3972957730293274e-01 4.6709933876991272e-01</leafValues></_>
        <_>
          <internalNodes>
            0 -1 101 -201791128 2136273916 -3938309 -1624227971
            1574198268 2102188733 -84968450 199950444</internalNodes>
          <leafValues>
            -5.5594187974929810e-01 2.9908186197280884e-01</leafValues></_>
        <_>
          <internalNodes>
            0 -1 37 -569713964 -7041827 469531157 -1342958658 -70706381
            -44514164 -1140900900 -1123640</internalNodes>
          <leafValues>
            -4.2399442195892334e-01 3.5023486614227295e-01</leafValues></_>
        <_>
          <internalNodes>
            0 -1 62 -273162385 -228671680 -8409094 -2394795 -302154419
            -638389166 -68749594 -817365302</internalNodes>
          <leafValues>
            -3.4006673097610474e-01 4.6721094846725464e-01</leafValues></_>
        <_>
          <internalNodes>
            0 -1 197 -1426104581 -25493892 -71830800 -4494594 1061102073
            -1415610565 863713241 -880812065</internalNodes>
          <leafValues>
            -3.2835283875465393e-01 4.4935324788093567e-01</leafValues></_></weakClassifiers></_>
    <!-- stage 22 -->
    <_>
      <maxWeakCount>16</maxWeakCount>
      <stageThreshold>-2.2657573223114014e+00</stageThreshold>
      <weakClassifiers>
        <_>
          <internalNodes>
            0 -1 201 -262157 -33819649 -775695533 -327718 2070967024
            2046097662 -69219585 -66564</internalNodes>
          <leafValues>
            -5.1995694637298584e-01 4.2728316783905029e-01</leafValues></_>
        <_>
          <internalNodes>
            0 -1 178 -993207844 -1250099842 -214182433 989459829
            -84155426 1073680631 -33820165 1073741823</internalNodes>
          <leafValues>
            -7.0270377397537231e-01 3.0200782418251038e-01</leafValues></_>
        <_>
          <internalNodes>
            0 -1 98 1516229331 1925444339 -84225838 -221056621
            2126242419 1341385535 -86316302 -67374349</internalNodes>
          <leafValues>
            -5.1570039987564087e-01 4.1306009888648987e-01</leafValues></_>
        <_>
          <internalNodes>
            0 -1 148 -268439569 586100717 -6619349 -855818386 -1
            200128440 -1115141 -810565633</internalNodes>
          <leafValues>
            -3.5666596889495850e-01 5.3740304708480835e-01</leafValues></_>
        <_>
          <internalNodes>
            0 -1 35 -2624550 -52888577 -154473860 -31784970 -77657174
            -268572 -1143000085 -1313</internalNodes>
          <leafValues>
            -3.9608556032180786e-01 5.3890854120254517e-01</leafValues></_>
        <_>
          <internalNodes>
            0 -1 165 -923307931 -241985093 -117752459 -70715025
            -239087154 -348972065 -637538612 -274514</internalNodes>
          <leafValues>
            -4.4963115453720093e-01 3.7141624093055725e-01</leafValues></_>
        <_>
          <internalNodes>
            0 -1 22 -1732979211 -1124552403 -7086115 -1644718667
            2108943093 -5329939 -10665732 -1963695881</internalNodes>
          <leafValues>
            -4.3682223558425903e-01 3.8425135612487793e-01</leafValues></_>
        <_>
          <internalNodes>
            0 -1 60 -1290031463 -298140355 -1154241573 -608600203
            -1883243017 -8389129 -1348534273 -353677061</internalNodes>
          <leafValues>
            -3.4420812129974365e-01 4.8023009300231934e-01</leafValues></_>
        <_>
          <internalNodes>
            0 -1 239 -590355269 -645942849 -12771824 536821595 -50340363
            -536879369 -268513932 -537924353</internalNodes>
          <leafValues>
            -3.4252810478210449e-01 5.0018179416656494e-01</leafValues></_>
        <_>
          <internalNodes>
            0 -1 135 -855605643 -1438867713 1607731481 -1879057669
            671887257 -372543314 -1464456963 735784031</internalNodes>
          <leafValues>
            -5.0879645347595215e-01 3.1223028898239136e-01</leafValues></_>
        <_>
          <internalNodes>
            0 -1 213 751779535 -196428732 1400981073 -1103004861
            1274510069 987174558 2071150075 2095577983</internalNodes>
          <leafValues>
            -5.5287986993789673e-01 2.7999487519264221e-01</leafValues></_>
        <_>
          <internalNodes>
            0 -1 132 -377508816 -180913412 -1611068252 -6167412
            -1082179669 -1111831842 1936919712 2147482481</internalNodes>
          <leafValues>
            -5.6080430746078491e-01 2.6072326302528381e-01</leafValues></_>
        <_>
          <internalNodes>
            0 -1 33 -67637305 -1612005905 -61961 -1342231574 1574928214
            2146744317 2146907966 -270009821</internalNodes>
          <leafValues>
            -2.4915616214275360e-01 6.3331758975982666e-01</leafValues></_>
        <_>
          <internalNodes>
            0 -1 255 -411576457 1408986103 1727987327 7864157 938235696
            -436240386 -285475009 -268239009</internalNodes>
          <leafValues>
            -3.6497285962104797e-01 4.2975685000419617e-01</leafValues></_>
        <_>
          <internalNodes>
            0 -1 217 1814321008 486294429 -610062338 -288924196
            -1077068100 -1426448449 -1680643586 -1357033115</internalNodes>
          <leafValues>
            -5.0458997488021851e-01 3.2305276393890381e-01</leafValues></_>
        <_>
          <internalNodes>
            0 -1 85 -964174625 71600130 -2109435852 340283985 -107508595
            -828846819 -57159228 -856699797</internalNodes>
          <leafValues>
            -3.9371737837791443e-01 4.1717380285263062e-01</leafValues></_></weakClassifiers></_>
    <!-- stage 23 -->
    <_>
      <maxWeakCount>7</maxWeakCount>
      <stageThreshold>-1.8839236497879028e+00</stageThreshold>
      <weakClassifiers>
        <_>
          <internalNodes>
            0 -1 141 -805174400 16781312 1074872320 268435456
            -2143289326 131072 -1073708407 1359577490</internalNodes>
          <leafValues>
            -7.5034618377685547e-01 7.2288924455642700e-01</leafValues></_>
        <_>
          <internalNodes>
            0 -1 223 -1056390960 -771718656 16793601 -536870784
            -2147352568 -2013265920 142639104 415399938</internalNodes>
          <leafValues>
            -7.2174191474914551e-01 7.8483641147613525e-01</leafValues></_>
        <_>
          <internalNodes>
            0 -1 76 -1054719600 1409286144 4096 1459617856 32907
            -2147483648 17072137 1627586688</internalNodes>
          <leafValues>
            -7.4056655168533325e-01 7.3656070232391357e-01</leafValues></_>
        <_>
          <internalNodes>
            0 -1 53 -251445231 -1677721600 16 286261248 33589250
            -1476361728 22528 301990034</internalNodes>
          <leafValues>
            -6.5153604745864868e-01 8.1318747997283936e-01</leafValues></_>
        <_>
          <internalNodes>
            0 -1 63 -572941053 276835840 -1395916288 -2126308349
            83102736 -2007759808 5505059 -938848884</internalNodes>
          <leafValues>
            -6.4160126447677612e-01 8.2938575744628906e-01</leafValues></_>
        <_>
          <internalNodes>
            0 -1 6 -1589616631 1358954497 9 293666897 134742016
            -2147483632 16809995 1241567232</internalNodes>
          <leafValues>
            -5.7161313295364380e-01 8.3399689197540283e-01</leafValues></_>
        <_>
          <internalNodes>
            0 -1 196 16953803 537919504 128 1342177282 -2013249311
            -1610612736 2101386 -1316978560</internalNodes>
          <leafValues>
            -5.8413755893707275e-01 7.8787136077880859e-01</leafValues></_></weakClassifiers></_></stages>
  <features>
    <_>
      <rect>
        0 0 4 5</rect></_>
    <_>
      <rect>
        0 0 8 2</rect></_>
    <_>
      <rect>
        0 1 3 4</rect></_>
    <_>
      <rect>
        0 1 4 4</rect></_>
    <_>
      <rect>
        0 1 8 1</rect></_>
    <_>
      <rect>
        0 7 2 2</rect></_>
    <_>
      <rect>
        0 9 2 1</rect></_>
    <_>
      <rect>
        0 14 8 1</rect></_>
    <_>
      <rect>
        0 14 8 2</rect></_>
    <_>
      <rect>
        1 0 2 5</rect></_>
    <_>
      <rect>
        1 0 3 5</rect></_>
    <_>
      <rect>
        1 1 2 1</rect></_>
    <_>
      <rect>
        1 2 2 1</rect></_>
    <_>
      <rect>
        1 2 2 4</rect></_>
    <_>
      <rect>
        1 3 7 1</rect></_>
    <_>
      <rect>
        1 5 2 5</rect></_>
    <_>
      <rect>
        1 5 3 5</rect></_>
    <_>
      <rect>
        1 6 3 2</rect></_>
    <_>
      <rect>
        1 7 3 1</rect></_>
    <_>
      <rect>
        1 7 3 4</rect></_>
    <_>
      <rect>
        1 8 2 1</rect></_>
    <_>
      <rect>
        1 9 2 1</rect></_>
    <_>
      <rect>
        1 9 3 1</rect></_>
    <_>
      <rect>
        1 15 2 1</rect></_>
    <_>
      <rect>
        1 16 2 1</rect></_>
    <_>
      <rect>
        2 0 2 5</rect></_>
    <_>
      <rect>
        2 0 3 1</rect></_>
    <_>
      <rect>
        2 1 2 6</rect></_>
    <_>
      <rect>
        2 5 1 2</rect></_>
    <_>
      <rect>
        2 5 2 5</rect></_>
    <_>
      <rect>
        2 7 4 2</rect></_>
    <_>
      <rect>
        3 0 1 2</rect></_>
    <_>
      <rect>
        3 0 1 3</rect></_>
    <_>
      <rect>
        3 0 1 6</rect></_>
    <_>
      <rect>
        3 0 2 1</rect></_>
    <_>
      <rect>
        3 1 1 1</rect></_>
    <_>
      <rect>
        3 1 1 4</rect></_>
    <_>
      <rect>
        3 3 6 1</rect></_>
    <_>
      <rect>
        3 7 1 4</rect></_>
    <_>
      <rect>
        3 7 6 1</rect></_>
    <_>
      <rect>
        3 7 6 2</rect></_>
    <_>
      <rect>
        3 8 6 1</rect></_>
    <_>
      <rect>
        3 10 6 1</rect></_>
    <_>
      <rect>
        3 11 1 3</rect></_>
    <_>
      <rect>
        3 11 4 1</rect></_>
    <_>
      <rect>
        3 12 4 1</rect></_>
    <_>
      <rect>
        3 13 6 1</rect></_>
    <_>
      <rect>
        3 14 1 2</rect></_>
    <_>
      <rect>
        3 16 1 1</rect></_>
    <_>
      <rect>
        3 17 2 1</rect></_>
    <_>
      <rect>
        4 0 2 1</rect></_>
    <_>
      <rect>
        4 0 3 2</rect></_>
    <_>
      <rect>
        4 0 3 4</rect></_>
    <_>
      <rect>
        4 2 2 1</rect></_>
    <_>
      <rect>
        4 2 3 1</rect></_>
    <_>
      <rect>
        4 3 3 1</rect></_>
    <_>
      <rect>
        4 4 3 4</rect></_>
    <_>
      <rect>
        4 7 3 4</rect></_>
    <_>
      <rect>
        4 8 2 1</rect></_>
    <_>
      <rect>
        4 13 5 2</rect></_>
    <_>
      <rect>
        4 14 2 1</rect></_>
    <_>
      <rect>
        4 15 3 1</rect></_>
    <_>
      <rect>
        4 16 2 1</rect></_>
    <_>
      <rect>
        4 17 2 1</rect></_>
    <_>
      <rect>
        5 0 1 2</rect></_>
    <_>
      <rect>
        5 3 3 1</rect></_>
    <_>
      <rect>
        5 4 1 3</rect></_>
    <_>
      <rect>
        5 4 1 4</rect></_>
    <_>
      <rect>
        5 7 1 1</rect></_>
    <_>
      <rect>
        5 7 1 3</rect></_>
    <_>
      <rect>
        5 8 1 1</rect></_>
    <_>
      <rect>
        5 9 1 1</rect></_>
    <_>
      <rect>
        5 9 3 1</rect></_>
    <_>
      <rect>
        5 10 1 1</rect></_>
    <_>
      <rect>
        5 14 1 2</rect></_>
    <_>
      <rect>
        5 14 5 1</rect></_>
    <_>
      <rect>
        5 15 2 1</rect></_>
    <_>
      <rect>
        5 16 1 1</rect></_>
    <_>
      <rect>
        5 17 1 1</rect></_>
    <_>
      <rect>
        6 0 1 2</rect></_>
    <_>
      <rect>
        6 0 1 3</rect></_>
    <_>
      <rect>
        6 1 1 2</rect></_>
    <_>
      <rect>
        6 1 4 4</rect></_>
    <_>
      <rect>
        6 2 1 1</rect></_>
    <_>
      <rect>
        6 3 2 2</rect></_>
    <_>
      <rect>
        6 7 1 2</rect></_>
    <_>
      <rect>
        6 7 1 3</rect></_>
    <_>
      <rect>
        6 7 4 2</rect></_>
    <_>
      <rect>
        6 9 1 1</rect></_>
    <_>
      <rect>
        6 12 2 1</rect></_>
    <_>
      <rect>
        6 13 1 2</rect></_>
    <_>
      <rect>
        6 14 1 2</rect></_>
    <_>
      <rect>
        6 14 2 1</rect></_>
    <_>
      <rect>
        6 15 1 1</rect></_>
    <_>
      <rect>
        6 17 2 1</rect></_>
    <_>
      <rect>
        7 1 1 2</rect></_>
    <_>
      <rect>
        7 2 2 1</rect></_>
    <_>
      <rect>
        7 2 3 1</rect></_>
    <_>
      <rect>
        7 6 3 2</rect></_>
    <_>
      <rect>
        7 8 3 2</rect></_>
    <_>
      <rect>
        7 10 1 1</rect></_>
    <_>
      <rect>
        7 14 1 1</rect></_>
    <_>
      <rect>
        7 15 2 1</rect></_>
    <_>
      <rect>
        7 15 3 1</rect></_>
    <_>
      <rect>
        8 1 1 2</rect></_>
    <_>
      <rect>
        8 1 3 1</rect></_>
    <_>
      <rect>
        8 3 1 1</rect></_>
    <_>
      <rect>
        8 6 1 1</rect></_>
    <_>
      <rect>
        8 6 2 2</rect></_>
    <_>
      <rect>
        8 8 2 2</rect></_>
    <_>
      <rect>
        8 11 1 1</rect></_>
    <_>
      <rect>
        8 13 1 2</rect></_>
    <_>
      <rect>
        8 14 1 1</rect></_>
    <_>
      <rect>
        8 15 2 1</rect></_>
    <_>
      <rect>
        8 15 3 1</rect></_>
    <_>
      <rect>
        8 16 3 1</rect></_>
    <_>
      <rect>
        9 0 1 1</rect></_>
    <_>
      <rect>
        9 0 1 2</rect></_>
    <_>
      <rect>
        9 0 5 1</rect></_>
    <_>
      <rect>
        9 1 1 2</rect></_>
    <_>
      <rect>
        9 1 2 1</rect></_>
    <_>
      <rect>
        9 1 2 4</rect></_>
    <_>
      <rect>
        9 1 2 6</rect></_>
    <_>
      <rect>
        9 2 1 1</rect></_>
    <_>
      <rect>
        9 2 4 2</rect></_>
    <_>
      <rect>
        9 3 2 1</rect></_>
    <_>
      <rect>
        9 4 2 1</rect></_>
    <_>
      <rect>
        9 4 2 4</rect></_>
    <_>
      <rect>
        9 5 2 1</rect></_>
    <_>
      <rect>
        9 5 4 1</rect></_>
    <_>
      <rect>
        9 6 1 1</rect></_>
    <_>
      <rect>
        9 6 1 2</rect></_>
    <_>
      <rect>
        9 6 4 1</rect></_>
    <_>
      <rect>
        9 7 2 1</rect></_>
    <_>
      <rect>
        9 7 2 4</rect></_>
    <_>
      <rect>
        9 8 1 1</rect></_>
    <_>
      <rect>
        9 8 1 2</rect></_>
    <_>
      <rect>
        9 9 1 1</rect></_>
    <_>
      <rect>
        9 11 4 1</rect></_>
    <_>
      <rect>
        9 12 2 1</rect></_>
    <_>
      <rect>
        9 12 2 2</rect></_>
    <_>
      <rect>
        9 12 4 1</rect></_>
    <_>
      <rect>
        9 13 1 2</rect></_>
    <_>
      <rect>
        9 13 2 1</rect></_>
    <_>
      <rect>
        9 13 4 1</rect></_>
    <_>
      <rect>
        9 14 1 2</rect></_>
    <_>
      <rect>
        9 14 2 1</rect></_>
    <_>
      <rect>
        9 15 1 1</rect></_>
    <_>
      <rect>
        9 17 1 1</rect></_>
    <_>
      <rect>
        10 1 1 2</rect></_>
    <_>
      <rect>
        10 1 3 2</rect></_>
    <_>
      <rect>
        10 2 2 1</rect></_>
    <_>
      <rect>
        10 2 3 1</rect></_>
    <_>
      <rect>
        10 4 2 1</rect></_>
    <_>
      <rect>
        10 6 1 4</rect></_>
    <_>
      <rect>
        10 6 2 2</rect></_>
    <_>
      <rect>
        10 8 2 2</rect></_>
    <_>
      <rect>
        10 15 2 1</rect></_>
    <_>
      <rect>
        10 15 3 1</rect></_>
    <_>
      <rect>
        11 0 3 1</rect></_>
    <_>
      <rect>
        11 0 3 5</rect></_>
    <_>
      <rect>
        11 2 2 1</rect></_>
    <_>
      <rect>
        11 2 3 1</rect></_>
    <_>
      <rect>
        11 3 1 1</rect></_>
    <_>
      <rect>
        11 4 3 4</rect></_>
    <_>
      <rect>
        11 7 3 3</rect></_>
    <_>
      <rect>
        11 7 3 4</rect></_>
    <_>
      <rect>
        11 12 1 2</rect></_>
    <_>
      <rect>
        11 13 3 2</rect></_>
    <_>
      <rect>
        11 14 3 2</rect></_>
    <_>
      <rect>
        11 15 2 1</rect></_>
    <_>
      <rect>
        11 15 3 1</rect></_>
    <_>
      <rect>
        12 0 1 1</rect></_>
    <_>
      <rect>
        12 0 1 2</rect></_>
    <_>
      <rect>
        12 0 1 3</rect></_>
    <_>
      <rect>
        12 0 2 1</rect></_>
    <_>
      <rect>
        12 0 4 5</rect></_>
    <_>
      <rect>
        12 1 1 2</rect></_>
    <_>
      <rect>
        12 1 2 4</rect></_>
    <_>
      <rect>
        12 2 1 1</rect></_>
    <_>
      <rect>
        12 3 2 1</rect></_>
    <_>
      <rect>
        12 3 2 2</rect></_>
    <_>
      <rect>
        12 4 1 1</rect></_>
    <_>
      <rect>
        12 4 1 3</rect></_>
    <_>
      <rect>
        12 5 4 1</rect></_>
    <_>
      <rect>
        12 5 4 5</rect></_>
    <_>
      <rect>
        12 6 1 1</rect></_>
    <_>
      <rect>
        12 6 1 2</rect></_>
    <_>
      <rect>
        12 8 1 1</rect></_>
    <_>
      <rect>
        12 8 1 2</rect></_>
    <_>
      <rect>
        12 9 1 1</rect></_>
    <_>
      <rect>
        12 13 1 2</rect></_>
    <_>
      <rect>
        12 14 1 2</rect></_>
    <_>
      <rect>
        12 14 2 1</rect></_>
    <_>
      <rect>
        12 17 1 1</rect></_>
    <_>
      <rect>
        12 17 2 1</rect></_>
    <_>
      <rect>
        13 0 3 1</rect></_>
    <_>
      <rect>
        13 0 3 2</rect></_>
    <_>
      <rect>
        13 6 1 1</rect></_>
    <_>
      <rect>
        13 8 1 1</rect></_>
    <_>
      <rect>
        13 11 1 1</rect></_>
    <_>
      <rect>
        13 13 1 2</rect></_>
    <_>
      <rect>
        13 14 1 1</rect></_>
    <_>
      <rect>
        14 0 2 1</rect></_>
    <_>
      <rect>
        14 0 3 5</rect></_>
    <_>
      <rect>
        14 1 3 4</rect></_>
    <_>
      <rect>
        14 5 3 5</rect></_>
    <_>
      <rect>
        14 7 3 4</rect></_>
    <_>
      <rect>
        14 10 2 1</rect></_>
    <_>
      <rect>
        14 17 2 1</rect></_>
    <_>
      <rect>
        15 0 1 3</rect></_>
    <_>
      <rect>
        15 0 2 1</rect></_>
    <_>
      <rect>
        15 0 3 5</rect></_>
    <_>
      <rect>
        15 1 1 2</rect></_>
    <_>
      <rect>
        15 1 3 4</rect></_>
    <_>
      <rect>
        15 4 1 3</rect></_>
    <_>
      <rect>
        15 5 1 5</rect></_>
    <_>
      <rect>
        15 8 3 1</rect></_>
    <_>
      <rect>
        15 13 1 2</rect></_>
    <_>
      <rect>
        15 14 1 2</rect></_>
    <_>
      <rect>
        15 17 2 1</rect></_>
    <_>
      <rect>
        16 0 1 2</rect></_>
    <_>
      <rect>
        16 0 2 5</rect></_>
    <_>
      <rect>
        16 2 1 1</rect></_>
    <_>
      <rect>
        16 4 1 3</rect></_>
    <_>
      <rect>
        16 4 1 4</rect></_>
    <_>
      <rect>
        16 5 2 5</rect></_>
    <_>
      <rect>
        16 7 1 1</rect></_>
    <_>
      <rect>
        16 7 1 3</rect></_>
    <_>
      <rect>
        16 7 2 4</rect></_>
    <_>
      <rect>
        16 8 1 1</rect></_>
    <_>
      <rect>
        16 8 1 2</rect></_>
    <_>
      <rect>
        16 9 1 1</rect></_>
    <_>
      <rect>
        16 10 1 1</rect></_>
    <_>
      <rect>
        16 14 1 2</rect></_>
    <_>
      <rect>
        16 16 1 1</rect></_>
    <_>
      <rect>
        16 17 1 1</rect></_>
    <_>
      <rect>
        17 0 2 5</rect></_>
    <_>
      <rect>
        17 1 1 6</rect></_>
    <_>
      <rect>
        17 1 2 1</rect></_>
    <_>
      <rect>
        17 1 2 4</rect></_>
    <_>
      <rect>
        17 2 2 1</rect></_>
    <_>
      <rect>
        17 2 2 4</rect></_>
    <_>
      <rect>
        17 5 2 5</rect></_>
    <_>
      <rect>
        17 7 2 4</rect></_>
    <_>
      <rect>
        17 8 2 1</rect></_>
    <_>
      <rect>
        17 15 2 1</rect></_>
    <_>
      <rect>
        17 16 2 1</rect></_>
    <_>
      <rect>
        18 0 1 2</rect></_>
    <_>
      <rect>
        18 1 1 1</rect></_>
    <_>
      <rect>
        18 1 1 6</rect></_>
    <_>
      <rect>
        18 7 1 4</rect></_>
    <_>
      <rect>
        18 7 2 2</rect></_>
    <_>
      <rect>
        18 11 1 3</rect></_>
    <_>
      <rect>
        18 14 1 2</rect></_>
    <_>
      <rect>
        18 14 2 2</rect></_>
    <_>
      <rect>
        18 16 1 1</rect></_>
    <_>
      <rect>
        19 5 1 2</rect></_>
    <_>
      <rect>
        19 9 1 2</rect></_></features></bp_h_24_20_24>
</opencv_storage>
