<?xml version="1.0"?>
<opencv_storage>
<oxero_round_white_tablet_12_18_lbp_23>
  <stageType>BOOST</stageType>
  <featureType>LBP</featureType>
  <height>18</height>
  <width>12</width>
  <stageParams>
    <boostType>GAB</boostType>
    <minHitRate>9.9991512298583984e-01</minHitRate>
    <maxFalseAlarm>5.0000000000000000e-01</maxFalseAlarm>
    <weightTrimRate>9.4999999999999996e-01</weightTrimRate>
    <maxDepth>1</maxDepth>
    <maxWeakCount>500</maxWeakCount></stageParams>
  <featureParams>
    <maxCatCount>256</maxCatCount>
    <featSize>1</featSize></featureParams>
  <stageNum>23</stageNum>
  <stages>
    <!-- stage 0 -->
    <_>
      <maxWeakCount>13</maxWeakCount>
      <stageThreshold>-2.9820203781127930e+00</stageThreshold>
      <weakClassifiers>
        <_>
          <internalNodes>
            0 -1 52 -247401344 -241639502 -678797315 -2370275 1929463024
            -1058657 -74520065 -1025</internalNodes>
          <leafValues>
            -7.1485507488250732e-01 7.0624965429306030e-01</leafValues></_>
        <_>
          <internalNodes>
            0 -1 229 -53573 -1073795233 -39857729 1006580027 -1684329509
            -1076152081 998969007 -1355087813</internalNodes>
          <leafValues>
            -5.5352652072906494e-01 5.3606539964675903e-01</leafValues></_>
        <_>
          <internalNodes>
            0 -1 643 -221 -135806985 -8388766 -285278210 -176200332
            -524289 -2060 -1</internalNodes>
          <leafValues>
            -4.9937492609024048e-01 5.2613657712936401e-01</leafValues></_>
        <_>
          <internalNodes>
            0 -1 432 -1342218369 -1078003713 -4194305 -1073840133
            -16822531 -4523073 -99332 -1430619088</internalNodes>
          <leafValues>
            -5.7174891233444214e-01 4.3153610825538635e-01</leafValues></_>
        <_>
          <internalNodes>
            0 -1 290 -1 -12582915 -6692865 -290531880 -608373793
            -71574789 -270801551 -320017040</internalNodes>
          <leafValues>
            -4.9105602502822876e-01 5.1611566543579102e-01</leafValues></_>
        <_>
          <internalNodes>
            0 -1 99 -268439769 -1393624578 -4203538 -16844802 -907027465
            -268699137 -272896156 -285213185</internalNodes>
          <leafValues>
            -4.8041030764579773e-01 4.0449866652488708e-01</leafValues></_>
        <_>
          <internalNodes>
            0 -1 417 804722559 720990167 -655371 -83977 -11062411
            -33557509 1028225908 -459268</internalNodes>
          <leafValues>
            -6.0177046060562134e-01 2.8754743933677673e-01</leafValues></_>
        <_>
          <internalNodes>
            0 -1 331 -1347797069 -83504 -524835 -98532 -4489217 -4227585
            -1912659969 -1883748176</internalNodes>
          <leafValues>
            -4.5458769798278809e-01 3.6177924275398254e-01</leafValues></_>
        <_>
          <internalNodes>
            0 -1 578 -1108083343 -1373454876 -2049 -1073747332
            -1610877451 -1141378053 -1661516555 -301996548</internalNodes>
          <leafValues>
            -4.2061680555343628e-01 3.9959233999252319e-01</leafValues></_>
        <_>
          <internalNodes>
            0 -1 52 1526654 147553321 -2113267632 -36138670 -1339408369
            -5580645 -368981764 -284385</internalNodes>
          <leafValues>
            -4.5083579421043396e-01 3.4803864359855652e-01</leafValues></_>
        <_>
          <internalNodes>
            0 -1 124 -8388801 976961407 -16777540 -1162674374 -33562544
            -176849025 -268435844 -25690305</internalNodes>
          <leafValues>
            -3.6493247747421265e-01 3.9616021513938904e-01</leafValues></_>
        <_>
          <internalNodes>
            0 -1 494 -148176912 917241827 -1079001173 591380265
            -1074267749 -1073741973 -50458806 -938218239</internalNodes>
          <leafValues>
            -3.4605076909065247e-01 4.0820005536079407e-01</leafValues></_>
        <_>
          <internalNodes>
            0 -1 545 504586001 -1036725838 -3181155 -54595496 -308466827
            -38037063 -69994251 -16986380</internalNodes>
          <leafValues>
            -5.4782778024673462e-01 2.7896699309349060e-01</leafValues></_></weakClassifiers></_>
    <!-- stage 1 -->
    <_>
      <maxWeakCount>15</maxWeakCount>
      <stageThreshold>-2.5471532344818115e+00</stageThreshold>
      <weakClassifiers>
        <_>
          <internalNodes>
            0 -1 516 -184167136 -42075273 -65537 -9 -4205060 -3 -1 -1</internalNodes>
          <leafValues>
            -5.6016176939010620e-01 7.1217381954193115e-01</leafValues></_>
        <_>
          <internalNodes>
            0 -1 324 -1346748624 -1075937893 -36439047 -557073
            -1678803969 -4461665 -1079018753 -1073775105</internalNodes>
          <leafValues>
            -6.5028810501098633e-01 4.3892577290534973e-01</leafValues></_>
        <_>
          <internalNodes>
            0 -1 483 -4194305 -4784193 -1 -262145 -49153 -1 -37781763
            -1363484572</internalNodes>
          <leafValues>
            -4.7307378053665161e-01 5.0346183776855469e-01</leafValues></_>
        <_>
          <internalNodes>
            0 -1 442 -4194305 -2053 -167788545 -151062537 -5313539 -1105
            -201328812 -319496860</internalNodes>
          <leafValues>
            -4.9071258306503296e-01 4.6550142765045166e-01</leafValues></_>
        <_>
          <internalNodes>
            0 -1 106 -285216977 586678066 -2866 -83961346 -689176713
            -458239049 -51643020 -83886609</internalNodes>
          <leafValues>
            -5.0496459007263184e-01 4.1734346747398376e-01</leafValues></_>
        <_>
          <internalNodes>
            0 -1 649 -268718169 -352915001 -1075866128 -268763790
            232196087 -846348309 1992230133 -1</internalNodes>
          <leafValues>
            -4.3077757954597473e-01 3.7826216220855713e-01</leafValues></_>
        <_>
          <internalNodes>
            0 -1 518 -1359016331 -1075872417 -72351745 -134777921
            -88428804 -1077943697 -268767235 -1078306756</internalNodes>
          <leafValues>
            -3.8129159808158875e-01 3.8599213957786560e-01</leafValues></_>
        <_>
          <internalNodes>
            0 -1 98 -545276678 269559888 718863058 -712986478 100930994
            -1196293759 202758364 -9990</internalNodes>
          <leafValues>
            -4.3851381540298462e-01 3.5881471633911133e-01</leafValues></_>
        <_>
          <internalNodes>
            0 -1 363 254770847 784062779 -10233377 -163121989 2120181845
            -71771473 -540017708 -16974092</internalNodes>
          <leafValues>
            -5.9090644121170044e-01 2.4275770783424377e-01</leafValues></_>
        <_>
          <internalNodes>
            0 -1 165 -143458563 -34153520 -57419339 -17107251 -771131529
            -673220393 -1103166128 -656607692</internalNodes>
          <leafValues>
            -4.2164564132690430e-01 3.2269379496574402e-01</leafValues></_>
        <_>
          <internalNodes>
            0 -1 295 -1080422500 -1097196041 -1325281001 2145024799
            -1279043363 -82083361 731642233 -1074062929</internalNodes>
          <leafValues>
            -5.4663860797882080e-01 2.7207377552986145e-01</leafValues></_>
        <_>
          <internalNodes>
            0 -1 640 -20451546 -139202249 -293283634 -429753918
            2004844352 -673623 -69216044 -93143245</internalNodes>
          <leafValues>
            -4.6224913001060486e-01 3.1504723429679871e-01</leafValues></_>
        <_>
          <internalNodes>
            0 -1 182 -1347440862 -307579448 -2236943 -34702338 267385847
            -270956885 128711157 -855987980</internalNodes>
          <leafValues>
            -4.6971526741981506e-01 2.8459718823432922e-01</leafValues></_>
        <_>
          <internalNodes>
            0 -1 204 -587209185 1882947423 -83951618 -231555202
            1433885974 -557059 -21140 -524290</internalNodes>
          <leafValues>
            -3.2164072990417480e-01 4.1338193416595459e-01</leafValues></_>
        <_>
          <internalNodes>
            0 -1 574 1051164479 656987479 -43131403 -935661162
            1005287223 -38285349 -100668675 -66051</internalNodes>
          <leafValues>
            -4.4678217172622681e-01 2.7675324678421021e-01</leafValues></_></weakClassifiers></_>
    <!-- stage 2 -->
    <_>
      <maxWeakCount>18</maxWeakCount>
      <stageThreshold>-2.5435259342193604e+00</stageThreshold>
      <weakClassifiers>
        <_>
          <internalNodes>
            0 -1 52 -111871024 -103153733 2113863677 -2098401 926246141
            -1 -269484033 -1</internalNodes>
          <leafValues>
            -5.6739461421966553e-01 5.7678478956222534e-01</leafValues></_>
        <_>
          <internalNodes>
            0 -1 607 -37751049 -1362173978 -135692 -6 -1618216961
            -1078198273 369034485 -570434307</internalNodes>
          <leafValues>
            -4.3138965964317322e-01 4.6863731741905212e-01</leafValues></_>
        <_>
          <internalNodes>
            0 -1 162 -1214271813 -1080347393 -1814968841 1073689019
            -1081406536 -1074162945 1066345727 -1883567045</internalNodes>
          <leafValues>
            -4.9956184625625610e-01 4.0289768576622009e-01</leafValues></_>
        <_>
          <internalNodes>
            0 -1 636 -16781554 -564398085 -688915970 -226825930
            -102028476 -6427793 -69206018 -9177281</internalNodes>
          <leafValues>
            -4.2375406622886658e-01 4.4100001454353333e-01</leafValues></_>
        <_>
          <internalNodes>
            0 -1 6 -4457987 -34903043 -127345 1840250029 2147424207
            -469809969 1576944719 -865975264</internalNodes>
          <leafValues>
            -4.0862831473350525e-01 4.6791568398475647e-01</leafValues></_>
        <_>
          <internalNodes>
            0 -1 275 -17630209 -78416009 -631704161 -1170574413
            -561349804 -35651589 -68240392 -67437706</internalNodes>
          <leafValues>
            -4.5470479130744934e-01 3.9781096577644348e-01</leafValues></_>
        <_>
          <internalNodes>
            0 -1 529 1073700733 -1342458401 -20398113 -293676065
            -71402124 -2103113 -21169156 -71632131</internalNodes>
          <leafValues>
            -4.6516680717468262e-01 3.1034475564956665e-01</leafValues></_>
        <_>
          <internalNodes>
            0 -1 124 -540869 1044072223 -85262858 846394259 -187731403
            1061630235 -274207620 -786497</internalNodes>
          <leafValues>
            -3.8610234856605530e-01 3.5529661178588867e-01</leafValues></_>
        <_>
          <internalNodes>
            0 -1 551 532372855 -1081281702 -202915841 -1108370567
            -1409582083 -69470149 -1914742179 -318816156</internalNodes>
          <leafValues>
            -3.9092037081718445e-01 3.3222037553787231e-01</leafValues></_>
        <_>
          <internalNodes>
            0 -1 424 522936127 705687810 -11534985 -97872930 -12420745
            -72372085 1912600308 -19072004</internalNodes>
          <leafValues>
            -5.3763258457183838e-01 2.4705567955970764e-01</leafValues></_>
        <_>
          <internalNodes>
            0 -1 87 -268443865 -270237714 -1312202 -4194314 1364193783
            -973209601 1157063572 -855644673</internalNodes>
          <leafValues>
            -3.5214757919311523e-01 3.6314171552658081e-01</leafValues></_>
        <_>
          <internalNodes>
            0 -1 521 2130177036 -231751881 2130706431 -1079804114
            -8454724 -17301633 -1090535620 -1088192741</internalNodes>
          <leafValues>
            -2.9712522029876709e-01 4.1619476675987244e-01</leafValues></_>
        <_>
          <internalNodes>
            0 -1 499 -556007951 -1567195161 -1207968375 -1430339751
            -548809761 -1644203597 -541513387 -1473217232</internalNodes>
          <leafValues>
            -5.1822382211685181e-01 2.5928243994712830e-01</leafValues></_>
        <_>
          <internalNodes>
            0 -1 351 1021933567 -2013269543 -325402928 -42544674
            521164407 -74866677 2099806196 -268637191</internalNodes>
          <leafValues>
            -4.4909533858299255e-01 2.5242415070533752e-01</leafValues></_>
        <_>
          <internalNodes>
            0 -1 403 -1096007692 -1210392621 2063726941 1876833541
            -205882660 -24428149 -125299987 -1078322179</internalNodes>
          <leafValues>
            -5.1543837785720825e-01 2.1298927068710327e-01</leafValues></_>
        <_>
          <internalNodes>
            0 -1 432 775429981 1035345846 -5006849 764940539 -1191294027
            -67477453 -827446420 -1371928528</internalNodes>
          <leafValues>
            -5.4556226730346680e-01 1.8397809565067291e-01</leafValues></_>
        <_>
          <internalNodes>
            0 -1 637 -966263002 -1004273808 -17891538 -311427098
            1442127028 -571050625 -327688200 -62931077</internalNodes>
          <leafValues>
            -2.8553828597068787e-01 3.8451263308525085e-01</leafValues></_>
        <_>
          <internalNodes>
            0 -1 494 -142879784 1067630395 935309225 858255145
            1069495197 -1309409494 2097051647 -381952207</internalNodes>
          <leafValues>
            -2.6228761672973633e-01 4.0792125463485718e-01</leafValues></_></weakClassifiers></_>
    <!-- stage 3 -->
    <_>
      <maxWeakCount>23</maxWeakCount>
      <stageThreshold>-2.4813206195831299e+00</stageThreshold>
      <weakClassifiers>
        <_>
          <internalNodes>
            0 -1 510 1979053552 -132321 -1 -9 -34079233 -8227 -268976129
            -1</internalNodes>
          <leafValues>
            -4.9171730875968933e-01 5.8897805213928223e-01</leafValues></_>
        <_>
          <internalNodes>
            0 -1 186 -1343246558 -423168530 -46139632 -3592 -939524121
            -270286709 -542122121 -2561</internalNodes>
          <leafValues>
            -4.7913849353790283e-01 4.0703698992729187e-01</leafValues></_>
        <_>
          <internalNodes>
            0 -1 374 -4237345 -2156161 -40906241 -1086704289 -275976452
            -26437 -72455169 -1413825992</internalNodes>
          <leafValues>
            -4.1592115163803101e-01 4.3226003646850586e-01</leafValues></_>
        <_>
          <internalNodes>
            0 -1 0 -2105377 -12599330 -270798119 -83963129 -68167041
            -77335691 -55905419 -127602848</internalNodes>
          <leafValues>
            -4.4231778383255005e-01 3.6162969470024109e-01</leafValues></_>
        <_>
          <internalNodes>
            0 -1 605 -13633741 -407961682 -11 -266818 116381175
            -268435457 -989903371 -2305</internalNodes>
          <leafValues>
            -2.9677641391754150e-01 5.1925057172775269e-01</leafValues></_>
        <_>
          <internalNodes>
            0 -1 114 -449 -230957225 -86254388 -1305283786 1081048149
            -479731069 -12845978 -84410369</internalNodes>
          <leafValues>
            -3.8342255353927612e-01 3.5726016759872437e-01</leafValues></_>
        <_>
          <internalNodes>
            0 -1 595 -285258162 -27363521 -90243329 -32370369 -72680884
            -71569061 -290521092 -76284101</internalNodes>
          <leafValues>
            -3.8283088803291321e-01 3.3648607134819031e-01</leafValues></_>
        <_>
          <internalNodes>
            0 -1 323 -1078018119 -1073907205 -186919937 -1086385193
            -1079037953 -1181148785 1056641213 -1884796808</internalNodes>
          <leafValues>
            -3.6665141582489014e-01 3.3189246058464050e-01</leafValues></_>
        <_>
          <internalNodes>
            0 -1 579 -1079378057 -1146044432 -1073758211 -67109185
            783958011 -286621703 215963645 -839170820</internalNodes>
          <leafValues>
            -2.8486946225166321e-01 4.1395366191864014e-01</leafValues></_>
        <_>
          <internalNodes>
            0 -1 421 892567487 773258007 -65380492 -421070370 1921086327
            -1173626585 -34870796 -50535700</internalNodes>
          <leafValues>
            -5.7315963506698608e-01 1.9251407682895660e-01</leafValues></_>
        <_>
          <internalNodes>
            0 -1 317 1002184688 -1081968239 -1052744615 2139230467
            1016014997 -108425077 2051799548 -1080350273</internalNodes>
          <leafValues>
            -5.1295274496078491e-01 2.4551613628864288e-01</leafValues></_>
        <_>
          <internalNodes>
            0 -1 622 -139299 -1882201611 -1022630497 -1401920214
            -1013266255 -1086722897 -205596720 -659367376</internalNodes>
          <leafValues>
            -3.9031049609184265e-01 2.9743689298629761e-01</leafValues></_>
        <_>
          <internalNodes>
            0 -1 97 -103809078 286380083 -2145582568 -217935334
            1074218194 -258965359 -710388515 -2377217</internalNodes>
          <leafValues>
            -3.4745633602142334e-01 3.1345680356025696e-01</leafValues></_>
        <_>
          <internalNodes>
            0 -1 130 -21033291 1035930677 -645 756225397 -587457284
            -1342206603 -1359421704 -1950359681</internalNodes>
          <leafValues>
            -2.6282155513763428e-01 4.2817929387092590e-01</leafValues></_>
        <_>
          <internalNodes>
            0 -1 362 201278711 -1898134117 -21515267 -1032168963
            1555246677 -121852951 -609231551 -555155500</internalNodes>
          <leafValues>
            -5.6325817108154297e-01 1.9744651019573212e-01</leafValues></_>
        <_>
          <internalNodes>
            0 -1 650 -1075142913 -1615167622 -1107398863 -1957958
            196231163 -4472834 95765629 -269518977</internalNodes>
          <leafValues>
            -2.6174432039260864e-01 4.0693250298500061e-01</leafValues></_>
        <_>
          <internalNodes>
            0 -1 370 -592060425 -9339141 -562642945 -1220886669
            -553878026 -16777217 -88 -67440840</internalNodes>
          <leafValues>
            -2.7827462553977966e-01 3.5577708482742310e-01</leafValues></_>
        <_>
          <internalNodes>
            0 -1 631 -285227516 -558203480 -8716673 -143327941 -262147
            -32897 -9209922 -80583389</internalNodes>
          <leafValues>
            -2.6663520932197571e-01 3.9279195666313171e-01</leafValues></_>
        <_>
          <internalNodes>
            0 -1 496 339152452 508702268 -1055811385 -44167083
            -1952769620 -751468504 453684762 2134601599</internalNodes>
          <leafValues>
            -4.5127296447753906e-01 2.1530845761299133e-01</leafValues></_>
        <_>
          <internalNodes>
            0 -1 6 -621809412 2077171924 -251275105 991588676 1972063428
            428540138 1552831567 -857029535</internalNodes>
          <leafValues>
            -3.2969695329666138e-01 3.0295449495315552e-01</leafValues></_>
        <_>
          <internalNodes>
            0 -1 87 -268439802 -1361930902 -2623046 -460074 -1158196249
            -477527669 1452491092 -990129988</internalNodes>
          <leafValues>
            -3.5072475671768188e-01 2.5245898962020874e-01</leafValues></_>
        <_>
          <internalNodes>
            0 -1 342 1071865847 -1348544009 -40644291 -67743436
            736873079 -21264213 -1884294315 -14900739</internalNodes>
          <leafValues>
            -3.7649130821228027e-01 2.4677579104900360e-01</leafValues></_>
        <_>
          <internalNodes>
            0 -1 206 -84457632 1408568703 -83886157 842012603
            -1097069484 536632701 -65540 -786497</internalNodes>
          <leafValues>
            -2.8442782163619995e-01 3.3816316723823547e-01</leafValues></_></weakClassifiers></_>
    <!-- stage 4 -->
    <_>
      <maxWeakCount>29</maxWeakCount>
      <stageThreshold>-2.5434620380401611e+00</stageThreshold>
      <weakClassifiers>
        <_>
          <internalNodes>
            0 -1 509 -144179424 -21364885 -1 -205 -4196865 -1 -146800641
            -129</internalNodes>
          <leafValues>
            -4.5126578211784363e-01 5.3936004638671875e-01</leafValues></_>
        <_>
          <internalNodes>
            0 -1 93 1349573330 2063653298 -2088202496 -545205888
            1619288547 -74329973 -70288640 -2105345</internalNodes>
          <leafValues>
            -4.9636417627334595e-01 3.4525290131568909e-01</leafValues></_>
        <_>
          <internalNodes>
            0 -1 491 -264195 -347088933 -6554151 -385943619 -1712587305
            -273697989 -138878443 -319488144</internalNodes>
          <leafValues>
            -5.1284879446029663e-01 2.9524704813957214e-01</leafValues></_>
        <_>
          <internalNodes>
            0 -1 578 -579339273 -5705868 -149507 -8407298 -1879048705 -1
            -1931487755 -8708</internalNodes>
          <leafValues>
            -3.0008542537689209e-01 4.6286389231681824e-01</leafValues></_>
        <_>
          <internalNodes>
            0 -1 331 -1346748621 -10538512 -209005571 -2627 -1361101569
            -5551733 -1145336321 -1078242003</internalNodes>
          <leafValues>
            -3.9895960688591003e-01 3.7166365981101990e-01</leafValues></_>
        <_>
          <internalNodes>
            0 -1 129 -2159051 993989975 -558696486 540177179 -271623052
            1930131571 -1141194756 -8915081</internalNodes>
          <leafValues>
            -4.0176019072532654e-01 2.7040413022041321e-01</leafValues></_>
        <_>
          <internalNodes>
            0 -1 651 -1409372166 -1964310530 -8393324 -679592600
            216604671 -536938497 1308579317 -104857605</internalNodes>
          <leafValues>
            -3.1209495663642883e-01 3.4835058450698853e-01</leafValues></_>
        <_>
          <internalNodes>
            0 -1 41 -5 -11865929 -482375169 -181207403 -99922857
            -39204805 -100700123 -931606192</internalNodes>
          <leafValues>
            -3.6037471890449524e-01 3.0305573344230652e-01</leafValues></_>
        <_>
          <internalNodes>
            0 -1 495 1551854685 1042165360 2143252055 2137751073
            2146663934 -79700101 1862150638 -550813621</internalNodes>
          <leafValues>
            -3.0640655755996704e-01 3.4909951686859131e-01</leafValues></_>
        <_>
          <internalNodes>
            0 -1 277 -1358987265 1073700183 -49153 993148787 -855671300
            -809 -4165 -80545926</internalNodes>
          <leafValues>
            -2.9933226108551025e-01 3.7762200832366943e-01</leafValues></_>
        <_>
          <internalNodes>
            0 -1 99 -268439772 80665582 -1059852340 -4263426 -1057257998
            -458112824 -995373472 -855790410</internalNodes>
          <leafValues>
            -3.9738672971725464e-01 2.5191420316696167e-01</leafValues></_>
        <_>
          <internalNodes>
            0 -1 534 939425759 786322391 -38471169 1325200351 -873772187
            -46415701 -3343364 -71500804</internalNodes>
          <leafValues>
            -4.4836422801017761e-01 2.1314260363578796e-01</leafValues></_>
        <_>
          <internalNodes>
            0 -1 104 -208675906 285332487 -268368776 -250081090
            1141065166 -536772078 -2121809668 -68163137</internalNodes>
          <leafValues>
            -2.9858636856079102e-01 3.2225114107131958e-01</leafValues></_>
        <_>
          <internalNodes>
            0 -1 553 -1677140783 -78612112 109349791 -15138916 772021845
            -1089455648 237242891 -902433423</internalNodes>
          <leafValues>
            -3.1332713365554810e-01 3.0150577425956726e-01</leafValues></_>
        <_>
          <internalNodes>
            0 -1 643 -319881438 1711696663 -25056918 -1369253402
            1636253812 883007747 -107483664 -187501649</internalNodes>
          <leafValues>
            -4.6558007597923279e-01 2.1258381009101868e-01</leafValues></_>
        <_>
          <internalNodes>
            0 -1 125 -4735239 1035939097 -285212997 322141503 1878990333
            2146913663 -549627947 964157439</internalNodes>
          <leafValues>
            -2.1820992231369019e-01 4.3065550923347473e-01</leafValues></_>
        <_>
          <internalNodes>
            0 -1 265 251604687 -488648195 -1895962156 -50441846
            1082740229 -106448725 -593376220 -459868</internalNodes>
          <leafValues>
            -4.9904426932334900e-01 1.9124506413936615e-01</leafValues></_>
        <_>
          <internalNodes>
            0 -1 364 -1431347212 -1080543777 1174524407 120120976
            -1146480388 -72642408 984767836 -587931792</internalNodes>
          <leafValues>
            -5.1619595289230347e-01 1.6120256483554840e-01</leafValues></_>
        <_>
          <internalNodes>
            0 -1 652 -1356288493 -1120895115 1878585343 1597512816
            264186043 -1074249793 212142463 1795114367</internalNodes>
          <leafValues>
            -2.6108500361442566e-01 3.2547679543495178e-01</leafValues></_>
        <_>
          <internalNodes>
            0 -1 57 1731129258 -114689 1610596094 2147422127 -1880629807
            -1 1291841516 -1947214405</internalNodes>
          <leafValues>
            -2.2758999466896057e-01 3.8465231657028198e-01</leafValues></_>
        <_>
          <internalNodes>
            0 -1 303 -548929569 -280495637 -243238049 -1539267553
            -204770475 2143150287 1407923799 -823101708</internalNodes>
          <leafValues>
            -3.8603314757347107e-01 2.1961975097656250e-01</leafValues></_>
        <_>
          <internalNodes>
            0 -1 502 -117966314 1044021039 -71303424 925581095
            -1073746759 1069547519 2147372395 -81533951</internalNodes>
          <leafValues>
            -2.5887632369995117e-01 3.2721456885337830e-01</leafValues></_>
        <_>
          <internalNodes>
            0 -1 19 774777514 589443594 344037763 794179611 -2117205812
            -1197755791 185166572 799935245</internalNodes>
          <leafValues>
            -5.6030732393264771e-01 1.4888727664947510e-01</leafValues></_>
        <_>
          <internalNodes>
            0 -1 636 -50860466 -615266849 -711745026 1348358962
            -51435964 -224796663 -605291778 -67963358</internalNodes>
          <leafValues>
            -2.9328724741935730e-01 2.7391827106475830e-01</leafValues></_>
        <_>
          <internalNodes>
            0 -1 489 213809968 -1401887804 2025846083 -295906880
            -1058177964 -233013205 -68657344 -8585616</internalNodes>
          <leafValues>
            -5.5310434103012085e-01 1.4809751510620117e-01</leafValues></_>
        <_>
          <internalNodes>
            0 -1 146 2057772987 1060978419 -1669382353 159394560
            1835337094 -1891336636 1425899071 -288889806</internalNodes>
          <leafValues>
            -2.5251397490501404e-01 3.3185487985610962e-01</leafValues></_>
        <_>
          <internalNodes>
            0 -1 358 1003913177 -1998666602 67672273 -866852822
            1526952757 -637349757 1229680420 -17896972</internalNodes>
          <leafValues>
            -5.0029975175857544e-01 1.6089597344398499e-01</leafValues></_>
        <_>
          <internalNodes>
            0 -1 35 18907392 -1827108453 1397211225 -715923175
            -1906374411 -355278711 1854658649 -541368083</internalNodes>
          <leafValues>
            -4.2088049650192261e-01 1.8228024244308472e-01</leafValues></_>
        <_>
          <internalNodes>
            0 -1 568 -84185506 -135028257 -163330561 -1168152807
            -78918700 -1358706389 -221331014 -1172294632</internalNodes>
          <leafValues>
            -2.8607511520385742e-01 2.8777348995208740e-01</leafValues></_></weakClassifiers></_>
    <!-- stage 5 -->
    <_>
      <maxWeakCount>35</maxWeakCount>
      <stageThreshold>-2.6485662460327148e+00</stageThreshold>
      <weakClassifiers>
        <_>
          <internalNodes>
            0 -1 122 -34603046 -134549840 -1074009858 1366424434
            -159461892 -219093839 1953886970 -67111681</internalNodes>
          <leafValues>
            -4.4729283452033997e-01 4.8895075917243958e-01</leafValues></_>
        <_>
          <internalNodes>
            0 -1 594 -823185908 -197177009 -661063205 -4220833
            -1160848388 -6569527 -24266529 -8421569</internalNodes>
          <leafValues>
            -4.5598593354225159e-01 3.5404837131500244e-01</leafValues></_>
        <_>
          <internalNodes>
            0 -1 646 -21 -412942557 -1048864 -268767250 -553723913
            -722077833 -536916748 -4097</internalNodes>
          <leafValues>
            -3.4890913963317871e-01 4.2109861969947815e-01</leafValues></_>
        <_>
          <internalNodes>
            0 -1 222 -526849 -8455268 -106981383 -17403403 -134230673
            -51468909 -1402011 -398134668</internalNodes>
          <leafValues>
            -4.7171014547348022e-01 2.9284939169883728e-01</leafValues></_>
        <_>
          <internalNodes>
            0 -1 79 -269488222 -269549594 -14 -67785 -839911433
            -268435465 -805449777 -805320449</internalNodes>
          <leafValues>
            -3.5076397657394409e-01 3.6770761013031006e-01</leafValues></_>
        <_>
          <internalNodes>
            0 -1 115 -524297 2134318513 -1096106244 523957523 2113230708
            -210371115 -4152 -8396929</internalNodes>
          <leafValues>
            -2.7708730101585388e-01 4.3922847509384155e-01</leafValues></_>
        <_>
          <internalNodes>
            0 -1 483 512720245 -1611212329 -251399681 -1082453123
            -1470537729 -71603733 -1112572035 -1363523516</internalNodes>
          <leafValues>
            -4.4801080226898193e-01 2.4154150485992432e-01</leafValues></_>
        <_>
          <internalNodes>
            0 -1 248 -1347537101 -3219586 -214699593 -1208802156
            62877029 -340059741 431831735 -2009594800</internalNodes>
          <leafValues>
            -4.5972749590873718e-01 2.1285402774810791e-01</leafValues></_>
        <_>
          <internalNodes>
            0 -1 545 926121271 169890719 -841362945 -871074113
            -341886219 -103906385 -68355855 -16986636</internalNodes>
          <leafValues>
            -4.9979522824287415e-01 1.6364984214305878e-01</leafValues></_>
        <_>
          <internalNodes>
            0 -1 130 -553820419 1035929715 2147286457 219238679 -221699
            -1610715652 918298364 2104751991</internalNodes>
          <leafValues>
            -2.2031463682651520e-01 3.9905902743339539e-01</leafValues></_>
        <_>
          <internalNodes>
            0 -1 316 -1092866512 -1109782065 -956206689 990524895
            -1115604507 -1081376630 428020589 -1355214807</internalNodes>
          <leafValues>
            -4.7264760732650757e-01 1.7568083107471466e-01</leafValues></_>
        <_>
          <internalNodes>
            0 -1 53 -744631433 -1936879 -309594529 1916516903 1082881042
            -116877137 1553166369 -937364480</internalNodes>
          <leafValues>
            -3.1023052334785461e-01 2.7069863677024841e-01</leafValues></_>
        <_>
          <internalNodes>
            0 -1 482 -88277767 -24063280 630263965 -1077701942 237534175
            -80064360 170740349 -832057248</internalNodes>
          <leafValues>
            -3.0108392238616943e-01 2.8844967484474182e-01</leafValues></_>
        <_>
          <internalNodes>
            0 -1 21 280692 153661185 324164401 -40177407 1608796303
            -74544915 -356259591 -10753761</internalNodes>
          <leafValues>
            -4.2200592160224915e-01 1.9079390168190002e-01</leafValues></_>
        <_>
          <internalNodes>
            0 -1 563 -17826341 -1562640429 -346031705 -1429228129
            -87037185 -936390518 -1646415 -768412556</internalNodes>
          <leafValues>
            -3.5738882422447205e-01 2.3941110074520111e-01</leafValues></_>
        <_>
          <internalNodes>
            0 -1 633 -889455090 -127664524 -419516932 1981959094
            -1075396788 -16908417 -1079263268 -366837742</internalNodes>
          <leafValues>
            -2.7408990263938904e-01 3.0151188373565674e-01</leafValues></_>
        <_>
          <internalNodes>
            0 -1 349 1070555063 -1088431345 -246033445 -19475489
            -87064713 -608585585 -80250251 -71376996</internalNodes>
          <leafValues>
            -3.2861030101776123e-01 2.5569754838943481e-01</leafValues></_>
        <_>
          <internalNodes>
            0 -1 558 514481461 -1907567331 -86142227 1182062557
            -656256251 -1180893179 -27366332 -70452364</internalNodes>
          <leafValues>
            -4.6932801604270935e-01 1.6230864822864532e-01</leafValues></_>
        <_>
          <internalNodes>
            0 -1 106 -4603 9623355 -694159156 -128526690 1687417205
            1954906563 -789389980 -992612127</internalNodes>
          <leafValues>
            -4.3535780906677246e-01 1.6706763207912445e-01</leafValues></_>
        <_>
          <internalNodes>
            0 -1 652 -1624571909 -13582351 805220093 -181609099
            536809151 -376899 137382015 -79995521</internalNodes>
          <leafValues>
            -1.9939467310905457e-01 4.0474149584770203e-01</leafValues></_>
        <_>
          <internalNodes>
            0 -1 203 -2034787725 -1623652230 -364429229 486559842
            1116036234 -1684430775 -599138738 -51062752</internalNodes>
          <leafValues>
            -3.5975646972656250e-01 2.0762580633163452e-01</leafValues></_>
        <_>
          <internalNodes>
            0 -1 389 -1216209552 -1145959486 -1056714421 -691384024
            -1320586295 -787234814 -1577025908 1069251727</internalNodes>
          <leafValues>
            -5.5038833618164062e-01 1.3099874556064606e-01</leafValues></_>
        <_>
          <internalNodes>
            0 -1 599 -718281293 201384240 -28405602 -871738942
            1711231413 -399408474 2041268428 -17902358</internalNodes>
          <leafValues>
            -2.6557877659797668e-01 2.7335852384567261e-01</leafValues></_>
        <_>
          <internalNodes>
            0 -1 61 -269553669 -98385 1879048191 589983526 1878986709
            -557057 1845445748 -538784560</internalNodes>
          <leafValues>
            -2.3177075386047363e-01 3.2163894176483154e-01</leafValues></_>
        <_>
          <internalNodes>
            0 -1 138 -1093715158 526327919 -258363197 707277587
            412026964 1528930374 -1148523842 -116262050</internalNodes>
          <leafValues>
            -3.3616387844085693e-01 2.2617001831531525e-01</leafValues></_>
        <_>
          <internalNodes>
            0 -1 212 -30520232 -39551286 1606176687 800022434
            -1904808204 -572465420 -824410853 -825764542</internalNodes>
          <leafValues>
            -2.4063135683536530e-01 2.9501271247863770e-01</leafValues></_>
        <_>
          <internalNodes>
            0 -1 625 -195240097 -1562119325 -913800743 993771523
            -502889847 -1448894325 1686512880 -653213584</internalNodes>
          <leafValues>
            -2.7917325496673584e-01 2.5088366866111755e-01</leafValues></_>
        <_>
          <internalNodes>
            0 -1 298 -135289922 1042952044 -272711781 992722855
            1073697997 1610612607 402609230 -835982265</internalNodes>
          <leafValues>
            -2.1911570429801941e-01 3.0543777346611023e-01</leafValues></_>
        <_>
          <internalNodes>
            0 -1 268 689917175 -1941204089 -328992272 988991910
            1119568404 -610630999 -880095788 -1610687756</internalNodes>
          <leafValues>
            -4.7264382243156433e-01 1.3764761388301849e-01</leafValues></_>
        <_>
          <internalNodes>
            0 -1 67 1871703040 -141159994 -216935972 -106958822
            467618036 -97402694 -829575056 -2064166748</internalNodes>
          <leafValues>
            -2.5787609815597534e-01 2.5597289204597473e-01</leafValues></_>
        <_>
          <internalNodes>
            0 -1 432 -1461780527 -586014521 -745350657 -1111789349
            -1730885388 -286637361 -892683651 -1430599376</internalNodes>
          <leafValues>
            -3.2761842012405396e-01 2.0442180335521698e-01</leafValues></_>
        <_>
          <internalNodes>
            0 -1 612 -1446094287 -284803286 -537755649 2008084349
            -1665200316 -1090816649 -805759665 -9699459</internalNodes>
          <leafValues>
            -2.3281344771385193e-01 3.0482074618339539e-01</leafValues></_>
        <_>
          <internalNodes>
            0 -1 52 1365369851 966880811 -327683 -2506959 -1493187345
            -65537 -269562689 -268718593</internalNodes>
          <leafValues>
            -1.1416418105363846e-01 5.7364100217819214e-01</leafValues></_>
        <_>
          <internalNodes>
            0 -1 514 1456958980 962095391 1476420891 1041838342
            412105456 -1635205093 1067124876 -818191585</internalNodes>
          <leafValues>
            -3.0923411250114441e-01 2.2321505844593048e-01</leafValues></_>
        <_>
          <internalNodes>
            0 -1 573 1018062957 644903259 -1639289892 1321398487
            -202786220 -811892693 -41226288 -29721688</internalNodes>
          <leafValues>
            -4.5339184999465942e-01 1.4651601016521454e-01</leafValues></_></weakClassifiers></_>
    <!-- stage 6 -->
    <_>
      <maxWeakCount>38</maxWeakCount>
      <stageThreshold>-2.4360718727111816e+00</stageThreshold>
      <weakClassifiers>
        <_>
          <internalNodes>
            0 -1 641 -704645134 -707526937 -177312032 -806366010
            1425364468 -259983497 -839027724 -524369</internalNodes>
          <leafValues>
            -4.3153125047683716e-01 4.7624152898788452e-01</leafValues></_>
        <_>
          <internalNodes>
            0 -1 88 -520622514 -1601006614 -436012608 -34090674
            -464126825 -267272043 -257951197 -570433617</internalNodes>
          <leafValues>
            -4.0828734636306763e-01 4.2728891968727112e-01</leafValues></_>
        <_>
          <internalNodes>
            0 -1 434 -2228257 -541261830 -1073791489 -4347010
            -1073741827 -1048609 1216089276 -346049016</internalNodes>
          <leafValues>
            -2.8973808884620667e-01 4.5403698086738586e-01</leafValues></_>
        <_>
          <internalNodes>
            0 -1 446 -73403937 -1089759857 1426897291 730562957
            -77694275 -1164187461 2076066123 136448000</internalNodes>
          <leafValues>
            -4.5974597334861755e-01 2.4876157939434052e-01</leafValues></_>
        <_>
          <internalNodes>
            0 -1 58 16174594 -1755398898 -754198269 1833420685
            -391258905 -83259223 -354562852 -285218625</internalNodes>
          <leafValues>
            -4.5653352141380310e-01 1.7284300923347473e-01</leafValues></_>
        <_>
          <internalNodes>
            0 -1 23 -69207945 1944720625 -536953099 1396559595
            -579380971 -54624897 -855882497 -937770759</internalNodes>
          <leafValues>
            -2.5223901867866516e-01 3.5603943467140198e-01</leafValues></_>
        <_>
          <internalNodes>
            0 -1 640 -889197782 -258764493 -1609512722 -430780094
            -141461180 -148668160 -1681400584 -181167309</internalNodes>
          <leafValues>
            -3.3154740929603577e-01 2.9295328259468079e-01</leafValues></_>
        <_>
          <internalNodes>
            0 -1 204 -788541426 1360728531 -267472454 1879103258
            336222212 -150669177 -393024756 -210306186</internalNodes>
          <leafValues>
            -3.9480158686637878e-01 2.0185416936874390e-01</leafValues></_>
        <_>
          <internalNodes>
            0 -1 346 490166773 -1501114017 1209065041 -536948274
            -605989067 -107241301 -624035608 -66568</internalNodes>
          <leafValues>
            -3.8998529314994812e-01 1.9941815733909607e-01</leafValues></_>
        <_>
          <internalNodes>
            0 -1 230 1073614630 -1169548306 1359337735 929307066
            -1073784359 -5003125 970926585 -1078256721</internalNodes>
          <leafValues>
            -4.4382429122924805e-01 1.8137040734291077e-01</leafValues></_>
        <_>
          <internalNodes>
            0 -1 76 -269490910 -276654712 -250686063 -48873266 514044630
            -1448037600 393994660 1156108472</internalNodes>
          <leafValues>
            -3.0804055929183960e-01 2.5293672084808350e-01</leafValues></_>
        <_>
          <internalNodes>
            0 -1 46 -515179533 -2426983 -753800871 542167952 -810871818
            -72267575 -878032043 -831333647</internalNodes>
          <leafValues>
            -2.7954372763633728e-01 2.4602237343788147e-01</leafValues></_>
        <_>
          <internalNodes>
            0 -1 605 -351802398 1175361038 -619473960 -268970556
            270726135 -1984954197 -1863892492 -1056967681</internalNodes>
          <leafValues>
            -2.8558793663978577e-01 2.4753794074058533e-01</leafValues></_>
        <_>
          <internalNodes>
            0 -1 15 1366299716 -1852724305 956342371 -573312561
            -1436739500 -347430693 -1962949911 -810829409</internalNodes>
          <leafValues>
            -3.4845504164695740e-01 2.0816844701766968e-01</leafValues></_>
        <_>
          <internalNodes>
            0 -1 221 -17965318 1814712590 -725082379 -321612720
            -775171052 -904871680 -90637704 -2295811</internalNodes>
          <leafValues>
            -3.1680014729499817e-01 2.1966111660003662e-01</leafValues></_>
        <_>
          <internalNodes>
            0 -1 139 -163914511 2045666512 -229483 254346497 479780085
            -1661141516 -587661380 -612640905</internalNodes>
          <leafValues>
            -1.8908478319644928e-01 3.9676037430763245e-01</leafValues></_>
        <_>
          <internalNodes>
            0 -1 480 16784371 -585334283 -240016931 1073000913
            -1349664835 -89816907 -1410630659 -340484</internalNodes>
          <leafValues>
            -2.9030001163482666e-01 2.3871472477912903e-01</leafValues></_>
        <_>
          <internalNodes>
            0 -1 615 -2074885411 -2100501553 1732309329 -1985306736
            1264784377 -1682963941 1462465273 -869216208</internalNodes>
          <leafValues>
            -3.8153553009033203e-01 1.7099231481552124e-01</leafValues></_>
        <_>
          <internalNodes>
            0 -1 633 -486806710 1382765906 1351610598 2052907322
            -1736265216 -493778934 -1349997942 -214805966</internalNodes>
          <leafValues>
            -2.6753559708595276e-01 2.3995293676853180e-01</leafValues></_>
        <_>
          <internalNodes>
            0 -1 124 -61889498 840630557 -795556130 842195254 1411539012
            1966166065 -18630056 -1259099372</internalNodes>
          <leafValues>
            -3.6813098192214966e-01 1.7526951432228088e-01</leafValues></_>
        <_>
          <internalNodes>
            0 -1 374 -1338025379 402593095 -1182019105 1058607403
            -100118384 -275593015 -71124068 -1079348478</internalNodes>
          <leafValues>
            -2.5780677795410156e-01 2.4524909257888794e-01</leafValues></_>
        <_>
          <internalNodes>
            0 -1 609 -1094799169 -1900528272 -16863784 -15040712
            1055565499 1052671927 180309469 -880849155</internalNodes>
          <leafValues>
            -2.3118191957473755e-01 2.7077057957649231e-01</leafValues></_>
        <_>
          <internalNodes>
            0 -1 490 -163160560 -334834428 -467109651 -334431820
            982078292 -222068718 -385827308 -144376844</internalNodes>
          <leafValues>
            -4.4740682840347290e-01 1.4481170475482941e-01</leafValues></_>
        <_>
          <internalNodes>
            0 -1 18 -568586574 747372954 -1869499916 -1187507559
            -1110833072 737884415 -1427504915 -1891958663</internalNodes>
          <leafValues>
            -3.7943252921104431e-01 1.6450579464435577e-01</leafValues></_>
        <_>
          <internalNodes>
            0 -1 405 -21025251 -558448833 -16842883 993554031
            -1610612739 -135364609 794640495 -1710429160</internalNodes>
          <leafValues>
            -2.2536160051822662e-01 2.6530927419662476e-01</leafValues></_>
        <_>
          <internalNodes>
            0 -1 98 -1107443720 403243537 127367984 1568685394 37751370
            -1464827755 69246174 -33882885</internalNodes>
          <leafValues>
            -2.9754716157913208e-01 1.9885790348052979e-01</leafValues></_>
        <_>
          <internalNodes>
            0 -1 363 356190651 210370771 -1291627555 -833684995
            -652486569 -620183397 -340864639 -1075045672</internalNodes>
          <leafValues>
            -4.1949519515037537e-01 1.6565296053886414e-01</leafValues></_>
        <_>
          <internalNodes>
            0 -1 85 -782765121 -242090437 -83921679 -67387469 1165280507
            -119081003 -129537 -65539</internalNodes>
          <leafValues>
            -1.0411339253187180e-01 5.9442257881164551e-01</leafValues></_>
        <_>
          <internalNodes>
            0 -1 215 989791830 -173756758 2134584874 230529280
            -814912380 -1941639536 -42572964 -807406733</internalNodes>
          <leafValues>
            -1.9562150537967682e-01 2.9487654566764832e-01</leafValues></_>
        <_>
          <internalNodes>
            0 -1 248 -1393583309 -173146022 -1190440715 -973579560
            -2053396000 -1934915550 -1884498286 -1997896608</internalNodes>
          <leafValues>
            -2.8137147426605225e-01 2.1742981672286987e-01</leafValues></_>
        <_>
          <internalNodes>
            0 -1 464 1055877845 -1359327090 -506437211 1524945354
            -87331979 -91586046 1505291044 2075828920</internalNodes>
          <leafValues>
            -4.2458045482635498e-01 1.3324107229709625e-01</leafValues></_>
        <_>
          <internalNodes>
            0 -1 5 -581971461 -69844849 2103029902 -117484065 -116668085
            714571915 1402876791 1355349844</internalNodes>
          <leafValues>
            -3.1506964564323425e-01 1.7899164557456970e-01</leafValues></_>
        <_>
          <internalNodes>
            0 -1 578 -450187215 -469457932 -1970699585 -681735092
            999003638 -816799555 277151969 -588411460</internalNodes>
          <leafValues>
            -3.0040484666824341e-01 1.8027463555335999e-01</leafValues></_>
        <_>
          <internalNodes>
            0 -1 654 2146962736 1595424592 -4567041 -10207884 784150132
            -1367441411 -1976291618 -25239825</internalNodes>
          <leafValues>
            -2.3861598968505859e-01 2.5542977452278137e-01</leafValues></_>
        <_>
          <internalNodes>
            0 -1 209 -67417149 1929325619 2147204790 1060255735
            -2039032652 1048532341 -1610682692 -9189302</internalNodes>
          <leafValues>
            -1.6505306959152222e-01 3.5384550690650940e-01</leafValues></_>
        <_>
          <internalNodes>
            0 -1 644 -575162398 481849080 -16826720 -604307478 490031090
            1559855101 -285979447 -855769217</internalNodes>
          <leafValues>
            -1.9804695248603821e-01 2.8409633040428162e-01</leafValues></_>
        <_>
          <internalNodes>
            0 -1 13 768477866 730238927 -1659813696 659963919
            -1373763372 -645119857 765410232 -1954591015</internalNodes>
          <leafValues>
            -4.8548436164855957e-01 1.1553470790386200e-01</leafValues></_>
        <_>
          <internalNodes>
            0 -1 87 -305671424 1726353858 1972990342 -102827790
            1090733104 -1053273462 883286672 -1058938640</internalNodes>
          <leafValues>
            -2.9292121529579163e-01 1.8273635208606720e-01</leafValues></_></weakClassifiers></_>
    <!-- stage 7 -->
    <_>
      <maxWeakCount>40</maxWeakCount>
      <stageThreshold>-2.4121351242065430e+00</stageThreshold>
      <weakClassifiers>
        <_>
          <internalNodes>
            0 -1 517 1442185212 -153816481 -641666306 -153617665
            -387712100 -1441561983 -637277201 -1041</internalNodes>
          <leafValues>
            -4.6559330821037292e-01 4.2078033089637756e-01</leafValues></_>
        <_>
          <internalNodes>
            0 -1 99 -456138586 1623490990 -1404813248 -134295394
            -257720089 102529 -248258110 -637540129</internalNodes>
          <leafValues>
            -4.2914965748786926e-01 3.5718351602554321e-01</leafValues></_>
        <_>
          <internalNodes>
            0 -1 636 -252712434 -632193002 -800857890 1347412058
            824818180 1879900168 -92021782 -76285374</internalNodes>
          <leafValues>
            -4.1533127427101135e-01 3.3048290014266968e-01</leafValues></_>
        <_>
          <internalNodes>
            0 -1 275 -657261830 -78430211 -68407365 823164787 -721646460
            -33751179 -335609928 -1154302150</internalNodes>
          <leafValues>
            -2.7693066000938416e-01 3.7862735986709595e-01</leafValues></_>
        <_>
          <internalNodes>
            0 -1 397 -86116609 -218721853 -2130585131 -1466007153
            -257231884 -221339432 -215461324 -1945837296</internalNodes>
          <leafValues>
            -4.6325099468231201e-01 2.2259208559989929e-01</leafValues></_>
        <_>
          <internalNodes>
            0 -1 227 -1616233486 -40125537 -805086817 2010427768
            -1185186563 -82198327 -1151600133 -1075847169</internalNodes>
          <leafValues>
            -3.9854115247726440e-01 2.0229966938495636e-01</leafValues></_>
        <_>
          <internalNodes>
            0 -1 551 -1555368577 -1668251632 -716106273 -45367267
            -1173669127 -24427896 193270173 -1685368824</internalNodes>
          <leafValues>
            -2.8719121217727661e-01 3.0971756577491760e-01</leafValues></_>
        <_>
          <internalNodes>
            0 -1 107 -42223086 270080787 -1879011120 570458262
            2015384112 671121541 -83397780 -80217253</internalNodes>
          <leafValues>
            -3.0124074220657349e-01 2.6052129268646240e-01</leafValues></_>
        <_>
          <internalNodes>
            0 -1 621 -95685640 -1738212555 -29475015 330951984
            -214303047 -1087184907 1476318827 -787361504</internalNodes>
          <leafValues>
            -2.3658582568168640e-01 3.2329428195953369e-01</leafValues></_>
        <_>
          <internalNodes>
            0 -1 27 2042625023 -1376529 -823134529 -1348206709
            1342135540 -16822273 1325356543 -835993581</internalNodes>
          <leafValues>
            -1.8979325890541077e-01 3.8595676422119141e-01</leafValues></_>
        <_>
          <internalNodes>
            0 -1 607 -741678414 1250726272 1887600864 -41008180
            855814835 -393740149 1369653669 -979632417</internalNodes>
          <leafValues>
            -2.7363532781600952e-01 2.7908009290695190e-01</leafValues></_>
        <_>
          <internalNodes>
            0 -1 339 1022131197 -1598236262 1652872076 1586680219
            -259450831 -108297846 -1173554467 -1144112439</internalNodes>
          <leafValues>
            -3.9009889960289001e-01 2.0105768740177155e-01</leafValues></_>
        <_>
          <internalNodes>
            0 -1 378 -24519216 -600776720 774360493 1833737928
            -1128407660 -46637615 704917018 -296751502</internalNodes>
          <leafValues>
            -2.5643473863601685e-01 2.9246911406517029e-01</leafValues></_>
        <_>
          <internalNodes>
            0 -1 568 -83947940 -218988721 -1635897409 -75612295
            -1082196068 -13139977 -1212879176 -1691182040</internalNodes>
          <leafValues>
            -2.4140726029872894e-01 2.8711333870887756e-01</leafValues></_>
        <_>
          <internalNodes>
            0 -1 637 1073981986 53250 -1073708726 -867897038 1635849140
            -1206908908 -335123460 -198921358</internalNodes>
          <leafValues>
            -3.3669921755790710e-01 1.9958029687404633e-01</leafValues></_>
        <_>
          <internalNodes>
            0 -1 182 -811074782 -576258072 2146434848 -33673496
            125826997 -1124245633 369059319 -838868744</internalNodes>
          <leafValues>
            -1.9535812735557556e-01 3.4180560708045959e-01</leafValues></_>
        <_>
          <internalNodes>
            0 -1 144 33622256 133890564 805109621 1027159137 343776756
            -1396896412 204299512 -1142954785</internalNodes>
          <leafValues>
            -2.1126621961593628e-01 3.2709872722625732e-01</leafValues></_>
        <_>
          <internalNodes>
            0 -1 121 -1650780809 528335095 499454750 1284248886
            1538267173 -1950856851 -71087828 -587399176</internalNodes>
          <leafValues>
            -3.8156878948211670e-01 1.7437100410461426e-01</leafValues></_>
        <_>
          <internalNodes>
            0 -1 226 -1078288390 -1079066691 -553656413 2147090109
            -1065483 -1073758209 -268519939 -1081386501</internalNodes>
          <leafValues>
            -2.4437865614891052e-01 2.6033541560173035e-01</leafValues></_>
        <_>
          <internalNodes>
            0 -1 53 -644877982 2072027280 1744941590 1490835976
            805528087 805962251 -960376798 1075896448</internalNodes>
          <leafValues>
            -3.3278128504753113e-01 1.9649197161197662e-01</leafValues></_>
        <_>
          <internalNodes>
            0 -1 352 169547991 -1375153230 -771436400 -16067628
            -647280044 -125796207 -1081411216 -2294788</internalNodes>
          <leafValues>
            -4.5194187760353088e-01 1.4213261008262634e-01</leafValues></_>
        <_>
          <internalNodes>
            0 -1 408 1048526340 -1080330869 -25112087 2085153747
            -1173394876 -74823543 -55907143 -1088807523</internalNodes>
          <leafValues>
            -4.2427405714988708e-01 1.4589381217956543e-01</leafValues></_>
        <_>
          <internalNodes>
            0 -1 598 -419444866 1532219722 580440234 583199118
            1938422308 -1191149568 -242562116 -1166368150</internalNodes>
          <leafValues>
            -2.7216359972953796e-01 2.2520589828491211e-01</leafValues></_>
        <_>
          <internalNodes>
            0 -1 653 -1157725166 -559927364 -293711884 1494283900
            804169403 -1298187017 871055083 -1885339909</internalNodes>
          <leafValues>
            -1.5540944039821625e-01 3.9482498168945312e-01</leafValues></_>
        <_>
          <internalNodes>
            0 -1 21 16795020 404239248 -1049071275 -608439552 124601477
            -1074883873 -876199769 -844444225</internalNodes>
          <leafValues>
            -3.9945840835571289e-01 1.5438066422939301e-01</leafValues></_>
        <_>
          <internalNodes>
            0 -1 139 -19988512 804980820 -1324874923 212795905 414763700
            -1694826360 -77006288 -1459628201</internalNodes>
          <leafValues>
            -2.4708411097526550e-01 2.3120969533920288e-01</leafValues></_>
        <_>
          <internalNodes>
            0 -1 505 -86102827 -1305973306 -788160112 -1165465507
            -741699375 -87555965 -112721616 -332336076</internalNodes>
          <leafValues>
            -3.2044714689254761e-01 1.7906327545642853e-01</leafValues></_>
        <_>
          <internalNodes>
            0 -1 379 -1640078480 433078544 -1852796619 457517037
            -619077600 -813160448 -75474788 -1441633518</internalNodes>
          <leafValues>
            -2.8854155540466309e-01 1.9276846945285797e-01</leafValues></_>
        <_>
          <internalNodes>
            0 -1 576 -1760848077 1208144130 -1870407467 -561995258
            -653657097 -23625598 1371226576 -39081732</internalNodes>
          <leafValues>
            -2.8995287418365479e-01 1.8920558691024780e-01</leafValues></_>
        <_>
          <internalNodes>
            0 -1 398 -1101517260 -1509263241 1568723026 -543549118
            -1181529635 -1735802239 332757480 -1086713413</internalNodes>
          <leafValues>
            -4.2275488376617432e-01 1.2347058951854706e-01</leafValues></_>
        <_>
          <internalNodes>
            0 -1 67 -909131758 -788742673 -536871503 -637567490
            -965630249 -17367049 -721834370 -855653180</internalNodes>
          <leafValues>
            -1.8875449895858765e-01 3.0700349807739258e-01</leafValues></_>
        <_>
          <internalNodes>
            0 -1 93 1370866371 422656882 -1118368 2065924018 1962209027
            -1090519051 -302579800 -18874371</internalNodes>
          <leafValues>
            -1.4420472085475922e-01 3.9021804928779602e-01</leafValues></_>
        <_>
          <internalNodes>
            0 -1 206 -221344102 1356791902 -1861205860 806375854
            985217600 -205912047 -1146356898 -80479926</internalNodes>
          <leafValues>
            -2.3988352715969086e-01 2.3808375000953674e-01</leafValues></_>
        <_>
          <internalNodes>
            0 -1 364 -1416738980 -1080386948 268655319 -1941358189
            -488366596 -795635033 -556041736 -1937331340</internalNodes>
          <leafValues>
            -4.4532847404479980e-01 1.3463540375232697e-01</leafValues></_>
        <_>
          <internalNodes>
            0 -1 560 -202639733 -343009138 822497536 -1764650849
            -628364662 -627933056 -1318956560 -790695040</internalNodes>
          <leafValues>
            -2.6955905556678772e-01 1.9998672604560852e-01</leafValues></_>
        <_>
          <internalNodes>
            0 -1 631 -832844278 -537657346 -8753547 1736163135
            -142999616 -50331787 -262147 -266285278</internalNodes>
          <leafValues>
            -1.8604701757431030e-01 2.7971369028091431e-01</leafValues></_>
        <_>
          <internalNodes>
            0 -1 106 -288382429 276869624 -805136314 -254373858
            1082880033 1655767057 -662373548 -708577214</internalNodes>
          <leafValues>
            -2.8364816308021545e-01 1.7948931455612183e-01</leafValues></_>
        <_>
          <internalNodes>
            0 -1 38 749996712 -1885277722 -791636505 844435890
            -1726792756 -1196174917 1760764668 -1349557095</internalNodes>
          <leafValues>
            -3.6223310232162476e-01 1.5353295207023621e-01</leafValues></_>
        <_>
          <internalNodes>
            0 -1 559 2127254532 -392375422 67130837 1783415764
            -133486524 -619708412 -81597867 -984548540</internalNodes>
          <leafValues>
            -4.4415634870529175e-01 1.1554430425167084e-01</leafValues></_>
        <_>
          <internalNodes>
            0 -1 113 1216328820 1260163204 -829076880 1560335306
            190841000 -2012737001 1948583964 -571212562</internalNodes>
          <leafValues>
            -3.3183580636978149e-01 1.5297517180442810e-01</leafValues></_></weakClassifiers></_>
    <!-- stage 8 -->
    <_>
      <maxWeakCount>47</maxWeakCount>
      <stageThreshold>-2.4271793365478516e+00</stageThreshold>
      <weakClassifiers>
        <_>
          <internalNodes>
            0 -1 90 -65 607715029 -1359036422 681115568 -838861315
            -1073872900 -536879623 -65</internalNodes>
          <leafValues>
            -3.1393104791641235e-01 5.0302046537399292e-01</leafValues></_>
        <_>
          <internalNodes>
            0 -1 649 -263169 -490290722 -35913744 -268698630 232443903
            1219164843 1373331957 -570425345</internalNodes>
          <leafValues>
            -3.5641905665397644e-01 3.7672296166419983e-01</leafValues></_>
        <_>
          <internalNodes>
            0 -1 387 -208675073 -119606817 -750273057 -922815013
            -105119747 -1109677381 -132235 -327881868</internalNodes>
          <leafValues>
            -4.2300036549568176e-01 2.3603141307830811e-01</leafValues></_>
        <_>
          <internalNodes>
            0 -1 432 -36175873 -1644571681 -249572385 -1075882753
            -91702275 -1073769316 -1682964481 -1346752712</internalNodes>
          <leafValues>
            -3.4486711025238037e-01 2.9134920239448547e-01</leafValues></_>
        <_>
          <internalNodes>
            0 -1 512 -1359074084 -1101036597 -62598673 -540050469
            -68486421 -1718820222 -204559633 -1076138241</internalNodes>
          <leafValues>
            -4.1621515154838562e-01 2.3504634201526642e-01</leafValues></_>
        <_>
          <internalNodes>
            0 -1 652 -23286272 -141008299 1702940125 932843732 785524792
            705573131 167921983 1211334527</internalNodes>
          <leafValues>
            -3.1024554371833801e-01 2.3783078789710999e-01</leafValues></_>
        <_>
          <internalNodes>
            0 -1 595 -16782770 -50335889 -16843010 1929346943 -184615092
            -306315393 -155271202 -97322374</internalNodes>
          <leafValues>
            -2.1104338765144348e-01 3.3119797706604004e-01</leafValues></_>
        <_>
          <internalNodes>
            0 -1 588 -599532295 37336016 -850135561 179881399 -634858827
            -824095085 -1717545647 -2144283632</internalNodes>
          <leafValues>
            -4.2388835549354553e-01 1.5727332234382629e-01</leafValues></_>
        <_>
          <internalNodes>
            0 -1 137 -1397049795 247071794 1069547453 267196193
            -1907581699 -1627501195 -1392714243 -805307017</internalNodes>
          <leafValues>
            -2.3290427029132843e-01 3.0227568745613098e-01</leafValues></_>
        <_>
          <internalNodes>
            0 -1 483 730085749 -40611662 -713961089 -279545731 -99542535
            -339869001 195378175 -1901458320</internalNodes>
          <leafValues>
            -3.8476604223251343e-01 1.7687311768531799e-01</leafValues></_>
        <_>
          <internalNodes>
            0 -1 56 -277940225 -614234369 -604045635 1643297989
            1342129911 -67111433 251536623 -870656776</internalNodes>
          <leafValues>
            -2.4446231126785278e-01 2.7850589156150818e-01</leafValues></_>
        <_>
          <internalNodes>
            0 -1 356 467631615 -637537313 1997265783 1599923161
            1532197651 -538209126 2066972245 -3343372</internalNodes>
          <leafValues>
            -2.6475948095321655e-01 2.3068951070308685e-01</leafValues></_>
        <_>
          <internalNodes>
            0 -1 98 -813978114 1636888 77485104 1430323056 1048794
            -394264411 -196026914 -34080257</internalNodes>
          <leafValues>
            -3.4865242242813110e-01 1.9337271153926849e-01</leafValues></_>
        <_>
          <internalNodes>
            0 -1 124 -687883252 859246875 -1677310792 842191124
            1640736772 1996525585 -358876984 -713835717</internalNodes>
          <leafValues>
            -2.8713572025299072e-01 2.0925228297710419e-01</leafValues></_>
        <_>
          <internalNodes>
            0 -1 368 218856575 -826019785 -1861158669 -633171201
            -1389639081 -608198437 -73403919 -71370792</internalNodes>
          <leafValues>
            -3.2950377464294434e-01 1.7318303883075714e-01</leafValues></_>
        <_>
          <internalNodes>
            0 -1 300 1058486812 -1643725320 -1336283118 -52774834
            -1713434083 -586432261 987705151 -5278945</internalNodes>
          <leafValues>
            -3.6818408966064453e-01 1.6741704940795898e-01</leafValues></_>
        <_>
          <internalNodes>
            0 -1 323 -1279328269 -2174517 -1056311821 -1278943787
            -1194496075 -643235703 -358936071 212337784</internalNodes>
          <leafValues>
            -2.8456187248229980e-01 1.8793787062168121e-01</leafValues></_>
        <_>
          <internalNodes>
            0 -1 254 527394815 -2017536565 -570371200 -148964972
            -159298971 -106430325 2023995925 -71507</internalNodes>
          <leafValues>
            -2.8480717539787292e-01 2.0630063116550446e-01</leafValues></_>
        <_>
          <internalNodes>
            0 -1 70 1306972066 -283733108 -251529264 -849454252
            -925547529 -844380159 1788567776 -2003844905</internalNodes>
          <leafValues>
            -3.2295697927474976e-01 2.0357164740562439e-01</leafValues></_>
        <_>
          <internalNodes>
            0 -1 634 -526654138 -264076929 -1059391026 -1302215906
            -108462128 -1341562742 -87305394 -32263325</internalNodes>
          <leafValues>
            -2.2274243831634521e-01 2.4922774732112885e-01</leafValues></_>
        <_>
          <internalNodes>
            0 -1 513 -81856674 1046403410 1435554040 974150047
            -644877379 -660872965 2027611176 -935660528</internalNodes>
          <leafValues>
            -2.4260596930980682e-01 2.2683773934841156e-01</leafValues></_>
        <_>
          <internalNodes>
            0 -1 141 2140983035 -5939401 1035951899 239957040
            -1629166412 -871564034 1585747544 -830481037</internalNodes>
          <leafValues>
            -2.0268012583255768e-01 2.5421258807182312e-01</leafValues></_>
        <_>
          <internalNodes>
            0 -1 229 -61272424 -1132057954 -1861886701 1024495897
            -772269671 -1193678374 1137314509 -1077987077</internalNodes>
          <leafValues>
            -2.5979909300804138e-01 1.8542891740798950e-01</leafValues></_>
        <_>
          <internalNodes>
            0 -1 66 -953166590 1905141755 1435587069 -142673974
            1250640197 -24407893 1428845744 -1071070156</internalNodes>
          <leafValues>
            -2.4010564386844635e-01 2.1109542250633240e-01</leafValues></_>
        <_>
          <internalNodes>
            0 -1 547 -337188098 2050133624 788405821 -1346818562
            2137976575 519206903 472997085 1837105151</internalNodes>
          <leafValues>
            -1.8228287994861603e-01 2.8526753187179565e-01</leafValues></_>
        <_>
          <internalNodes>
            0 -1 539 478115837 617412913 79419871 1324139735 1811110743
            -765615954 1548614644 2128403356</internalNodes>
          <leafValues>
            -3.9813193678855896e-01 1.3476784527301788e-01</leafValues></_>
        <_>
          <internalNodes>
            0 -1 273 108746447 2050318559 -1235884845 805501503
            2144012308 -365236022 -74777856 -1154417808</internalNodes>
          <leafValues>
            -4.0474992990493774e-01 1.2009537220001221e-01</leafValues></_>
        <_>
          <internalNodes>
            0 -1 1 -661128769 -1728922515 1320153303 859818175
            -285710865 -559106 1710630475 -1005402889</internalNodes>
          <leafValues>
            -1.7980778217315674e-01 2.7288717031478882e-01</leafValues></_>
        <_>
          <internalNodes>
            0 -1 125 -21029648 2143227097 -16875592 364666129 1878791421
            1459576181 523681241 2113404799</internalNodes>
          <leafValues>
            -1.7559508979320526e-01 2.7563545107841492e-01</leafValues></_>
        <_>
          <internalNodes>
            0 -1 33 -1362612318 -1356582751 -1006535396 756046092
            -1193472848 -809413382 227229180 -1717872129</internalNodes>
          <leafValues>
            -3.7291517853736877e-01 1.3399997353553772e-01</leafValues></_>
        <_>
          <internalNodes>
            0 -1 100 -512242682 1026654199 1862201172 2138226558
            1685382583 -1588199467 -843186852 1828052720</internalNodes>
          <leafValues>
            -2.0470392704010010e-01 2.5247713923454285e-01</leafValues></_>
        <_>
          <internalNodes>
            0 -1 384 605879655 -1597857340 1921549427 -824396812
            1553742193 -1400170104 -583222427 -274926209</internalNodes>
          <leafValues>
            -2.7695778012275696e-01 1.7090283334255219e-01</leafValues></_>
        <_>
          <internalNodes>
            0 -1 123 -1891631501 2131869587 -1880105194 -584769710
            -570585922 -1468696578 -1401845282 -42082566</internalNodes>
          <leafValues>
            -1.8399532139301300e-01 2.6052400469779968e-01</leafValues></_>
        <_>
          <internalNodes>
            0 -1 351 1009196543 -1396715319 680677424 -599343011
            -1297474969 -39124849 1495826257 -1132541200</internalNodes>
          <leafValues>
            -3.6359190940856934e-01 1.3931705057621002e-01</leafValues></_>
        <_>
          <internalNodes>
            0 -1 494 -768680197 948569994 156033485 91986817 2127505823
            1373356435 1846433151 -935593659</internalNodes>
          <leafValues>
            -2.1224062144756317e-01 2.1686509251594543e-01</leafValues></_>
        <_>
          <internalNodes>
            0 -1 7 1061355426 928065690 -1342063463 934528776 478870176
            -644654901 176560890 -1989983829</internalNodes>
          <leafValues>
            -2.2961980104446411e-01 1.9576209783554077e-01</leafValues></_>
        <_>
          <internalNodes>
            0 -1 521 2088726286 941086807 -1738480898 2072170496
            -913506772 -292419445 -6751380 -1642104054</internalNodes>
          <leafValues>
            -3.1622353196144104e-01 1.4270077645778656e-01</leafValues></_>
        <_>
          <internalNodes>
            0 -1 486 -1232117869 -1506353228 -1090568203 -1074792456
            792489977 -1472446599 229395817 -1904478593</internalNodes>
          <leafValues>
            -1.8434946238994598e-01 2.5487527251243591e-01</leafValues></_>
        <_>
          <internalNodes>
            0 -1 53 -176110605 2055796800 637588844 -790864738 -33456619
            -1117376311 1523315125 -1743728560</internalNodes>
          <leafValues>
            -2.4218371510505676e-01 1.9473710656166077e-01</leafValues></_>
        <_>
          <internalNodes>
            0 -1 277 -286712307 2111590623 -1044235787 427440599
            -105006732 -623951819 -5657608 -1424868038</internalNodes>
          <leafValues>
            -2.5587296485900879e-01 1.9599786400794983e-01</leafValues></_>
        <_>
          <internalNodes>
            0 -1 643 -370217462 570935299 -1069027262 608358812
            1903509618 571586881 -108659728 -730664089</internalNodes>
          <leafValues>
            -4.1055834293365479e-01 1.1466991156339645e-01</leafValues></_>
        <_>
          <internalNodes>
            0 -1 40 1432614399 -644255909 -1343225881 -67387617
            -16915265 -1073823747 -8420161 -291521</internalNodes>
          <leafValues>
            -7.9323895275592804e-02 6.2520223855972290e-01</leafValues></_>
        <_>
          <internalNodes>
            0 -1 9 13666304 -1786079070 -1878536049 -720403830
            -1885447040 -1686042367 -513872903 -813049125</internalNodes>
          <leafValues>
            -3.3120721578598022e-01 1.4988447725772858e-01</leafValues></_>
        <_>
          <internalNodes>
            0 -1 167 -549005582 -490026529 -720271464 180406727
            -1475920921 -133461829 1938442869 -465513308</internalNodes>
          <leafValues>
            -3.7232047319412231e-01 1.4561174809932709e-01</leafValues></_>
        <_>
          <internalNodes>
            0 -1 657 2136951891 1846825311 810473695 1144673815
            1744902208 -113563388 -636814041 -866058379</internalNodes>
          <leafValues>
            -3.7277734279632568e-01 1.2578235566616058e-01</leafValues></_>
        <_>
          <internalNodes>
            0 -1 511 -25274627 -16973829 -83968273 1001946995
            -1073889284 -2113537 -50530571 -1725916107</internalNodes>
          <leafValues>
            -2.0462085306644440e-01 2.2937807440757751e-01</leafValues></_>
        <_>
          <internalNodes>
            0 -1 575 977173043 -1371615142 1493365039 1149424542
            991673189 -473268081 -168758844 -25375780</internalNodes>
          <leafValues>
            -4.1802749037742615e-01 1.1260537803173065e-01</leafValues></_></weakClassifiers></_>
    <!-- stage 9 -->
    <_>
      <maxWeakCount>54</maxWeakCount>
      <stageThreshold>-2.4606213569641113e+00</stageThreshold>
      <weakClassifiers>
        <_>
          <internalNodes>
            0 -1 115 -1 427642101 -22347784 168884087 -2059 2071944661
            -81921 -1082654721</internalNodes>
          <leafValues>
            -3.4104743599891663e-01 4.3891227245330811e-01</leafValues></_>
        <_>
          <internalNodes>
            0 -1 646 -822940694 1111684575 -662047518 -288964138
            1387132919 1101129983 1990153206 -671089665</internalNodes>
          <leafValues>
            -3.8416299223899841e-01 3.2388350367546082e-01</leafValues></_>
        <_>
          <internalNodes>
            0 -1 57 -1343295582 -10972041 -1056853825 -1411921441
            1262738419 -112068418 -1886651473 -1946432001</internalNodes>
          <leafValues>
            -3.4759694337844849e-01 2.7596259117126465e-01</leafValues></_>
        <_>
          <internalNodes>
            0 -1 610 -566567179 1603821173 -268529683 -268931331
            783813308 -1363181573 169873151 780107647</internalNodes>
          <leafValues>
            -2.4397113919258118e-01 3.4898135066032410e-01</leafValues></_>
        <_>
          <internalNodes>
            0 -1 470 1073709055 -1952452207 583881727 238998997
            2071820799 -72769445 1515191289 1532821469</internalNodes>
          <leafValues>
            -3.5990554094314575e-01 1.8968389928340912e-01</leafValues></_>
        <_>
          <internalNodes>
            0 -1 626 -83887521 2025586555 -1049665 2071584635 -131073
            -134234113 -1082523809 -80511181</internalNodes>
          <leafValues>
            -1.8497319519519806e-01 3.9575690031051636e-01</leafValues></_>
        <_>
          <internalNodes>
            0 -1 130 -8659203 1073678964 -66247 1025835317 -1912840964
            -1073861257 -13624067 225933183</internalNodes>
          <leafValues>
            -2.3782995343208313e-01 3.1564646959304810e-01</leafValues></_>
        <_>
          <internalNodes>
            0 -1 565 -86112003 2115928031 -209697317 1058428127
            -16024081 -1702674001 -1282703377 992615807</internalNodes>
          <leafValues>
            -3.4796801209449768e-01 2.0882996916770935e-01</leafValues></_>
        <_>
          <internalNodes>
            0 -1 165 -551094529 1530392912 -531104489 1681704669
            -74591457 -77651941 -67028623 -329722763</internalNodes>
          <leafValues>
            -3.5611426830291748e-01 1.6710554063320160e-01</leafValues></_>
        <_>
          <internalNodes>
            0 -1 579 -1165296393 -19244140 -1220296199 -8465412
            729815551 -1372954374 217928957 -1984209412</internalNodes>
          <leafValues>
            -2.6190844178199768e-01 2.4340143799781799e-01</leafValues></_>
        <_>
          <internalNodes>
            0 -1 295 935009790 -1215564821 -788413481 499809551
            -74491649 -788344438 700707817 -2491921</internalNodes>
          <leafValues>
            -2.8386446833610535e-01 2.0771756768226624e-01</leafValues></_>
        <_>
          <internalNodes>
            0 -1 622 -351272961 -1490297995 -540814569 -1469988069
            -562038309 -1984265729 1471204113 -587140751</internalNodes>
          <leafValues>
            -3.0190697312355042e-01 2.1958847343921661e-01</leafValues></_>
        <_>
          <internalNodes>
            0 -1 358 1067147263 -1933589793 100943952 1313636398
            -71621869 -72384349 689490688 -569447436</internalNodes>
          <leafValues>
            -4.6039035916328430e-01 1.2823098897933960e-01</leafValues></_>
        <_>
          <internalNodes>
            0 -1 123 1528762235 -1115302443 1817664578 -576669738
            1586585279 1494598282 -333377830 -545988866</internalNodes>
          <leafValues>
            -2.6969611644744873e-01 2.2395333647727966e-01</leafValues></_>
        <_>
          <internalNodes>
            0 -1 382 245063251 -2079791820 471124625 -1345497379
            -76526748 -598418248 -1148174469 -1359003777</internalNodes>
          <leafValues>
            -2.4536317586898804e-01 2.7369859814643860e-01</leafValues></_>
        <_>
          <internalNodes>
            0 -1 87 -307240160 602851338 -749479808 -10496266 17555875
            -276180769 2187542 -922760725</internalNodes>
          <leafValues>
            -2.8110158443450928e-01 2.1050631999969482e-01</leafValues></_>
        <_>
          <internalNodes>
            0 -1 413 998209015 -1376003655 379216173 2090095517
            718073215 -341057405 2072310516 527174117</internalNodes>
          <leafValues>
            -3.4231507778167725e-01 1.4808632433414459e-01</leafValues></_>
        <_>
          <internalNodes>
            0 -1 651 -1071730990 1153994874 -183239692 -718647088
            211427230 112116474 1402033655 1307277247</internalNodes>
          <leafValues>
            -2.1314989030361176e-01 2.3055569827556610e-01</leafValues></_>
        <_>
          <internalNodes>
            0 -1 427 -330245772 -1208299041 -1862020785 -1074826881
            -710033156 -212885301 -74753059 -1363509968</internalNodes>
          <leafValues>
            -3.8555255532264709e-01 1.3401348888874054e-01</leafValues></_>
        <_>
          <internalNodes>
            0 -1 636 -285226482 1343983893 -694630194 35538962 30370380
            1984266267 -626402344 1766877731</internalNodes>
          <leafValues>
            -3.1785446405410767e-01 1.4801174402236938e-01</leafValues></_>
        <_>
          <internalNodes>
            0 -1 293 -86067211 -1635935272 -787945191 789493692
            -594724648 2043191531 2076840413 -1366801392</internalNodes>
          <leafValues>
            -3.1865477561950684e-01 1.4828379452228546e-01</leafValues></_>
        <_>
          <internalNodes>
            0 -1 206 2061451336 844039671 -232216424 840979331 977947716
            399577099 -1414817316 2066898295</internalNodes>
          <leafValues>
            -3.4724786877632141e-01 1.3731312751770020e-01</leafValues></_>
        <_>
          <internalNodes>
            0 -1 562 213261312 -157494612 1342236883 -633282107
            -1986305539 -1064648703 -1847832565 -1086357633</internalNodes>
          <leafValues>
            -4.4793209433555603e-01 1.0613148659467697e-01</leafValues></_>
        <_>
          <internalNodes>
            0 -1 417 1072914431 -69610083 71510373 116835797 974725759
            -125214709 1478721332 1900838909</internalNodes>
          <leafValues>
            -3.0709862709045410e-01 1.5375564992427826e-01</leafValues></_>
        <_>
          <internalNodes>
            0 -1 287 -1575747591 -2000406044 -1092888077 -285970071
            -2009537961 -1959081797 -1929457355 -8585251</internalNodes>
          <leafValues>
            -2.7990528941154480e-01 1.6598087549209595e-01</leafValues></_>
        <_>
          <internalNodes>
            0 -1 422 492509947 -1979870853 360963966 181042621
            1331063131 -893533541 1260409685 1534915581</internalNodes>
          <leafValues>
            -3.3070647716522217e-01 1.3315168023109436e-01</leafValues></_>
        <_>
          <internalNodes>
            0 -1 6 -766586636 980068561 1426083023 -1416904212 835601620
            9253389 1225540783 -1003306640</internalNodes>
          <leafValues>
            -2.7637681365013123e-01 1.6364149749279022e-01</leafValues></_>
        <_>
          <internalNodes>
            0 -1 86 -1093800428 270598144 1511776272 -171910376 5514944
            1890713779 -511383332 -262913</internalNodes>
          <leafValues>
            -3.7717276811599731e-01 1.2164556980133057e-01</leafValues></_>
        <_>
          <internalNodes>
            0 -1 81 1374805403 -1716273173 -268828928 -71565316
            360308183 1995964413 -1342309168 -268435457</internalNodes>
          <leafValues>
            -1.1532791703939438e-01 4.1669222712516785e-01</leafValues></_>
        <_>
          <internalNodes>
            0 -1 529 884637695 249344667 503361751 1783287853 -223428806
            -1196833789 708902896 -91694415</internalNodes>
          <leafValues>
            -2.9552179574966431e-01 1.5727336704730988e-01</leafValues></_>
        <_>
          <internalNodes>
            0 -1 302 1617175564 705314403 -1604148588 -13851808
            -78380885 -620002760 1000516095 -78386921</internalNodes>
          <leafValues>
            -3.6681446433067322e-01 1.1819431185722351e-01</leafValues></_>
        <_>
          <internalNodes>
            0 -1 630 -360985266 974836056 -1156719850 290674905
            1657533949 -272968861 -1215897823 173036560</internalNodes>
          <leafValues>
            -2.6846557855606079e-01 1.8358221650123596e-01</leafValues></_>
        <_>
          <internalNodes>
            0 -1 289 2114976322 1746977005 -837692320 -824340020
            1253284420 -1002461151 -1431635102 -1409434881</internalNodes>
          <leafValues>
            -2.9731440544128418e-01 1.5434148907661438e-01</leafValues></_>
        <_>
          <internalNodes>
            0 -1 245 -1394173520 -67708473 -654117741 688013787
            -754440204 -73850651 496587261 -844888848</internalNodes>
          <leafValues>
            -2.2592712938785553e-01 1.9062925875186920e-01</leafValues></_>
        <_>
          <internalNodes>
            0 -1 17 -20982029 -1347485712 -328224 733052661 -536941460
            1575481247 771642749 -646741957</internalNodes>
          <leafValues>
            -1.8494953215122223e-01 2.3450309038162231e-01</leafValues></_>
        <_>
          <internalNodes>
            0 -1 211 -294906113 1062547263 1056665343 790633315
            -1094820700 -1078595642 -50536482 -546062473</internalNodes>
          <leafValues>
            -1.6728344559669495e-01 2.7666619420051575e-01</leafValues></_>
        <_>
          <internalNodes>
            0 -1 473 423049439 121540859 102380903 217580946 1662608945
            2064203930 994603349 461168636</internalNodes>
          <leafValues>
            -4.2723622918128967e-01 1.0114129632711411e-01</leafValues></_>
        <_>
          <internalNodes>
            0 -1 55 1148706822 -205078305 -787754549 -182497230
            -1045365785 -410845053 1135205316 1087704556</internalNodes>
          <leafValues>
            -2.1099551022052765e-01 2.0207278430461884e-01</leafValues></_>
        <_>
          <internalNodes>
            0 -1 546 1126848817 -1228479996 -2126392181 -1818938291
            -1148503125 -209084255 -1956939265 -1371647899</internalNodes>
          <leafValues>
            -2.9177790880203247e-01 1.4424425363540649e-01</leafValues></_>
        <_>
          <internalNodes>
            0 -1 641 1635974075 68256177 268482828 -964634868
            -1734323721 346122693 1488531836 1545960118</internalNodes>
          <leafValues>
            -2.0840977132320404e-01 2.0145951211452484e-01</leafValues></_>
        <_>
          <internalNodes>
            0 -1 464 507008729 1874676865 1795580261 155468025
            -108364931 -100024181 1406299004 594573996</internalNodes>
          <leafValues>
            -3.2132366299629211e-01 1.2741814553737640e-01</leafValues></_>
        <_>
          <internalNodes>
            0 -1 326 -1092734988 -1689378349 -2012162731 1329611989
            -1333051455 -125775872 981512653 -1113974614</internalNodes>
          <leafValues>
            -2.9330280423164368e-01 1.3671055436134338e-01</leafValues></_>
        <_>
          <internalNodes>
            0 -1 79 -540021342 -423603890 1360124306 2136494142
            1770089106 -585441078 1149969362 -1933587213</internalNodes>
          <leafValues>
            -2.3388309776782990e-01 1.8946188688278198e-01</leafValues></_>
        <_>
          <internalNodes>
            0 -1 563 1522527445 -1028662785 1298100991 1118827645
            -119953193 -240822049 2137866551 1143266897</internalNodes>
          <leafValues>
            -2.9772007465362549e-01 1.4089503884315491e-01</leafValues></_>
        <_>
          <internalNodes>
            0 -1 212 -30617663 -46334016 1069391761 795827732 1591004880
            -1075773708 -184918050 -970597566</internalNodes>
          <leafValues>
            -2.0717209577560425e-01 2.1075204014778137e-01</leafValues></_>
        <_>
          <internalNodes>
            0 -1 145 -253211137 779964280 -805339273 258569905 209478832
            72095095 -1930109249 -549978258</internalNodes>
          <leafValues>
            -1.5196806192398071e-01 2.7605766057968140e-01</leafValues></_>
        <_>
          <internalNodes>
            0 -1 359 101342805 -1953851245 -1073299115 839570134
            -489995184 -490024798 1989547856 -107424300</internalNodes>
          <leafValues>
            -4.3767446279525757e-01 9.9584005773067474e-02</leafValues></_>
        <_>
          <internalNodes>
            0 -1 550 -822092147 2125475568 -822169868 -138543442
            531759103 2138635636 1046765151 -33566981</internalNodes>
          <leafValues>
            -1.1928528547286987e-01 3.6979997158050537e-01</leafValues></_>
        <_>
          <internalNodes>
            0 -1 327 -22094334 -1640059074 1878949695 -1162711248
            -1073750031 -1527250945 -1795226359 -1675897800</internalNodes>
          <leafValues>
            -2.0169097185134888e-01 2.1652220189571381e-01</leafValues></_>
        <_>
          <internalNodes>
            0 -1 349 334200735 782225692 1262836185 1178999197 973305941
            -888963062 1529233236 1478281109</internalNodes>
          <leafValues>
            -3.7380456924438477e-01 1.1617364734411240e-01</leafValues></_>
        <_>
          <internalNodes>
            0 -1 291 -1615127555 -246206331 -1056320614 -1068371633
            -753992755 -1878933240 843184825 -1147151889</internalNodes>
          <leafValues>
            -2.5948172807693481e-01 1.7443715035915375e-01</leafValues></_>
        <_>
          <internalNodes>
            0 -1 107 -120113584 305345405 -175910552 926442080 414014004
            -1442797439 -100421524 -843711623</internalNodes>
          <leafValues>
            -2.2939489781856537e-01 1.8063451349735260e-01</leafValues></_>
        <_>
          <internalNodes>
            0 -1 174 -819011824 -49376167 -989666840 1212301017
            713069552 -336596917 1804366005 -937275339</internalNodes>
          <leafValues>
            -2.1679827570915222e-01 1.8978127837181091e-01</leafValues></_>
        <_>
          <internalNodes>
            0 -1 160 102402992 -1332686523 637539293 927994636
            -1286874384 -532483646 -208447048 -1080854181</internalNodes>
          <leafValues>
            -2.3564770817756653e-01 1.7393922805786133e-01</leafValues></_></weakClassifiers></_>
    <!-- stage 10 -->
    <_>
      <maxWeakCount>55</maxWeakCount>
      <stageThreshold>-2.2105348110198975e+00</stageThreshold>
      <weakClassifiers>
        <_>
          <internalNodes>
            0 -1 114 -16777473 1887305693 -16777494 -1157627905
            -218370609 -209715201 -2 -1</internalNodes>
          <leafValues>
            -3.0285605788230896e-01 4.5568004250526428e-01</leafValues></_>
        <_>
          <internalNodes>
            0 -1 639 -16846849 -91160585 -49548 -12923146 1600933244
            -720898 1861504112 -4353</internalNodes>
          <leafValues>
            -2.8205880522727966e-01 3.7149167060852051e-01</leafValues></_>
        <_>
          <internalNodes>
            0 -1 225 -536871937 -1217948677 -157963777 -1433740391
            -107012097 -72355585 -68284257 -1911944102</internalNodes>
          <leafValues>
            -2.9093846678733826e-01 2.8031954169273376e-01</leafValues></_>
        <_>
          <internalNodes>
            0 -1 551 -1678778369 -2293774 -1073889281 -1108344963
            -1073741825 -4194305 268402175 -1342225156</internalNodes>
          <leafValues>
            -2.4290984869003296e-01 2.8064277768135071e-01</leafValues></_>
        <_>
          <internalNodes>
            0 -1 586 -100663845 -2038045742 -583872001 -2003149165
            -727780659 -437263430 1374606673 -938411200</internalNodes>
          <leafValues>
            -4.3420997262001038e-01 1.2505966424942017e-01</leafValues></_>
        <_>
          <internalNodes>
            0 -1 182 -1347420382 -403770940 -672800816 -3284560
            -1965295629 -343551223 33481671 218091770</internalNodes>
          <leafValues>
            -3.0711713433265686e-01 2.1503108739852905e-01</leafValues></_>
        <_>
          <internalNodes>
            0 -1 420 461340671 117298641 664524271 142534111 1944804215
            -539262837 641236853 1610415101</internalNodes>
          <leafValues>
            -4.0713289380073547e-01 1.6211488842964172e-01</leafValues></_>
        <_>
          <internalNodes>
            0 -1 652 -21037057 -1112506639 -268763139 934829559
            1069427434 1044053821 146426015 -268959873</internalNodes>
          <leafValues>
            -1.9837141036987305e-01 3.3596402406692505e-01</leafValues></_>
        <_>
          <internalNodes>
            0 -1 307 -1361305904 -7638049 -804661089 2140772319
            -1094091377 -238907197 260582397 -1076020485</internalNodes>
          <leafValues>
            -3.7469339370727539e-01 1.6127523779869080e-01</leafValues></_>
        <_>
          <internalNodes>
            0 -1 633 -897847730 275554166 -728968836 844265830
            -1459424180 2089646094 -1381303350 305166352</internalNodes>
          <leafValues>
            -3.3314752578735352e-01 1.7552819848060608e-01</leafValues></_>
        <_>
          <internalNodes>
            0 -1 342 1071873535 -268501505 -589506659 2146729460
            -874811521 -206597749 1534916949 -1907588687</internalNodes>
          <leafValues>
            -3.0003789067268372e-01 1.8876887857913971e-01</leafValues></_>
        <_>
          <internalNodes>
            0 -1 367 -25244203 -1644211713 -775302149 536826847
            -339022916 -250965765 -339801137 -1363481742</internalNodes>
          <leafValues>
            -2.7917343378067017e-01 1.8995967507362366e-01</leafValues></_>
        <_>
          <internalNodes>
            0 -1 475 524246143 775904701 -709895873 137151485 1650669171
            1043980955 1582593909 1551695860</internalNodes>
          <leafValues>
            -4.7657948732376099e-01 1.1363212764263153e-01</leafValues></_>
        <_>
          <internalNodes>
            0 -1 511 -153211651 -1093267009 -645277606 580532695
            -1148224259 -1256162562 2060344573 187698256</internalNodes>
          <leafValues>
            -3.5066154599189758e-01 1.4046932756900787e-01</leafValues></_>
        <_>
          <internalNodes>
            0 -1 221 -1058415670 -433553074 -1777804256 -285935668
            -846925744 -970807181 -24576956 -54198275</internalNodes>
          <leafValues>
            -4.1329011321067810e-01 1.1835257709026337e-01</leafValues></_>
        <_>
          <internalNodes>
            0 -1 210 -834742835 -1075050440 -73795 229311761 -1373848344
            -164737 -268632647 -1879048333</internalNodes>
          <leafValues>
            -1.6913957893848419e-01 2.8875097632408142e-01</leafValues></_>
        <_>
          <internalNodes>
            0 -1 113 -75515905 456769044 -293610636 1441897360
            1198785530 5268529 1545967838 -34349569</internalNodes>
          <leafValues>
            -1.9392654299736023e-01 2.5098320841789246e-01</leafValues></_>
        <_>
          <internalNodes>
            0 -1 418 939490555 680104323 67865411 1324895739 -659401889
            -471760766 -612312187 -86050151</internalNodes>
          <leafValues>
            -2.9471388459205627e-01 1.6993737220764160e-01</leafValues></_>
        <_>
          <internalNodes>
            0 -1 366 228019415 -824209293 -1715879561 1593366011
            426984213 -633695573 -618931375 -543622223</internalNodes>
          <leafValues>
            -3.3234518766403198e-01 1.4673797786235809e-01</leafValues></_>
        <_>
          <internalNodes>
            0 -1 88 -1041251066 -1433345254 -808992508 -1109993674
            1885395008 -528367480 -723257020 -2131289097</internalNodes>
          <leafValues>
            -2.6519659161567688e-01 1.8051661550998688e-01</leafValues></_>
        <_>
          <internalNodes>
            0 -1 243 -1081943053 -539044385 1469372889 -2058221604
            990139349 -16171007 363402709 241190064</internalNodes>
          <leafValues>
            -3.1697431206703186e-01 1.6803017258644104e-01</leafValues></_>
        <_>
          <internalNodes>
            0 -1 34 154010874 -2029960981 -2147168062 -1647633955
            -1679866639 -44902263 752614133 -545271809</internalNodes>
          <leafValues>
            -3.1673660874366760e-01 1.5382699668407440e-01</leafValues></_>
        <_>
          <internalNodes>
            0 -1 612 1024400727 -1400367081 -677350093 1815234903
            -1871181196 -1095294957 261770031 -277086209</internalNodes>
          <leafValues>
            -2.2049495577812195e-01 2.1814101934432983e-01</leafValues></_>
        <_>
          <internalNodes>
            0 -1 640 -387977426 875741202 79942240 1650127202 1378710340
            -772610029 -1146890000 -261934285</internalNodes>
          <leafValues>
            -3.5502025485038757e-01 1.3508136570453644e-01</leafValues></_>
        <_>
          <internalNodes>
            0 -1 23 -78064297 -464899 2130640637 599379709 2088002399
            -21012993 -25668418 -870266625</internalNodes>
          <leafValues>
            -1.8553856015205383e-01 2.5013309717178345e-01</leafValues></_>
        <_>
          <internalNodes>
            0 -1 209 -623459648 1072633173 -750743049 1058043767
            717388020 2049642832 -1834423620 -1624067265</internalNodes>
          <leafValues>
            -2.0087684690952301e-01 2.1509332954883575e-01</leafValues></_>
        <_>
          <internalNodes>
            0 -1 298 -12600590 -1096105988 2142240731 -1414529292
            -134310883 -1212153987 2105427037 -306457583</internalNodes>
          <leafValues>
            -2.0763589441776276e-01 2.1588979661464691e-01</leafValues></_>
        <_>
          <internalNodes>
            0 -1 410 500454385 998953297 -973070139 -1966587824
            -208967495 -92059638 -1339511867 -222372920</internalNodes>
          <leafValues>
            -3.5519695281982422e-01 1.1489636451005936e-01</leafValues></_>
        <_>
          <internalNodes>
            0 -1 104 -303040341 1359212548 -728850704 -238004973
            1077985478 -2144337920 -509230947 -2122753</internalNodes>
          <leafValues>
            -1.9231943786144257e-01 2.1572016179561615e-01</leafValues></_>
        <_>
          <internalNodes>
            0 -1 426 1067671037 214803335 1036370133 -1938291841
            -92607659 -901178999 689002869 1511561213</internalNodes>
          <leafValues>
            -3.3867117762565613e-01 1.2192225456237793e-01</leafValues></_>
        <_>
          <internalNodes>
            0 -1 129 -94392776 1035278420 -666831110 909375977 722172532
            2071017585 -1824912676 -1351095945</internalNodes>
          <leafValues>
            -2.0906382799148560e-01 1.9856268167495728e-01</leafValues></_>
        <_>
          <internalNodes>
            0 -1 425 -1361087140 -1117206626 -1559891371 847948462
            -1375183363 -761560949 1081433964 -319230992</internalNodes>
          <leafValues>
            -3.9950996637344360e-01 1.0937093943357468e-01</leafValues></_>
        <_>
          <internalNodes>
            0 -1 647 2146090682 13955408 -250068848 -539191076 817883035
            343986627 466049533 1979546607</internalNodes>
          <leafValues>
            -1.9656705856323242e-01 2.2010238468647003e-01</leafValues></_>
        <_>
          <internalNodes>
            0 -1 76 -911293178 1867412932 -510333020 -3362594 1393448435
            -544483198 1191274132 137019472</internalNodes>
          <leafValues>
            -2.8176575899124146e-01 1.5346242487430573e-01</leafValues></_>
        <_>
          <internalNodes>
            0 -1 440 141848439 -1536795654 -431227613 -2030284695
            -730498299 -109457241 -2295195 -268632067</internalNodes>
          <leafValues>
            -3.2930073142051697e-01 1.3004848361015320e-01</leafValues></_>
        <_>
          <internalNodes>
            0 -1 625 -262349362 11463027 1359862613 706056403 1755236489
            -58648169 1938580129 1210111312</internalNodes>
          <leafValues>
            -2.7877950668334961e-01 1.4761190116405487e-01</leafValues></_>
        <_>
          <internalNodes>
            0 -1 506 -1495384876 -1638239961 1363261591 1031950495
            411802617 -803024244 -1555268885 1057635647</internalNodes>
          <leafValues>
            -4.1706892848014832e-01 1.0901489853858948e-01</leafValues></_>
        <_>
          <internalNodes>
            0 -1 356 407863283 -2055278536 2063858485 1600098757
            1800417812 -97939325 458601237 1511849965</internalNodes>
          <leafValues>
            -2.8130644559860229e-01 1.4562380313873291e-01</leafValues></_>
        <_>
          <internalNodes>
            0 -1 483 -826354179 -1095322727 -545008673 -2021779915
            -1598973772 -359724854 1066695289 -1397082104</internalNodes>
          <leafValues>
            -2.9997691512107849e-01 1.3488672673702240e-01</leafValues></_>
        <_>
          <internalNodes>
            0 -1 152 -1901537365 -1935614742 1451596182 -807603387
            260831869 -1930260238 285496181 -889916043</internalNodes>
          <leafValues>
            -2.7370393276214600e-01 1.3343629240989685e-01</leafValues></_>
        <_>
          <internalNodes>
            0 -1 229 -1764424134 910439933 -1874734761 1004072081
            1371639901 1942212826 413926639 -1354771719</internalNodes>
          <leafValues>
            -2.2978191077709198e-01 1.5951779484748840e-01</leafValues></_>
        <_>
          <internalNodes>
            0 -1 453 -218219269 -2101289778 -2027889249 584630745
            -330231067 1388126370 1929926513 167791952</internalNodes>
          <leafValues>
            -4.2325407266616821e-01 9.6121959388256073e-02</leafValues></_>
        <_>
          <internalNodes>
            0 -1 609 1010749984 -1777708784 1363526104 -67112696
            719043518 736083992 703535473 1308309695</internalNodes>
          <leafValues>
            -2.0593373477458954e-01 1.8173061311244965e-01</leafValues></_>
        <_>
          <internalNodes>
            0 -1 537 1965553835 -16417568 -17928598 -1360625695
            -167947009 2097119231 -197121 -33685505</internalNodes>
          <leafValues>
            -1.0515464097261429e-01 3.7645214796066284e-01</leafValues></_>
        <_>
          <internalNodes>
            0 -1 127 668475258 -572698265 -1592488188 84151056
            -611710302 -1163173751 2064042458 -13306652</internalNodes>
          <leafValues>
            -2.9077538847923279e-01 1.3924598693847656e-01</leafValues></_>
        <_>
          <internalNodes>
            0 -1 268 725568607 -1943070309 -1474295168 1782598474
            1376076103 -1010071367 -545194172 -1628636588</internalNodes>
          <leafValues>
            -4.6899843215942383e-01 8.0049872398376465e-02</leafValues></_>
        <_>
          <internalNodes>
            0 -1 496 1074865672 1314536730 -1065009026 -686398956
            -1650585542 -259522488 805832730 791639679</internalNodes>
          <leafValues>
            -3.9174622297286987e-01 9.3952775001525879e-02</leafValues></_>
        <_>
          <internalNodes>
            0 -1 40 -772541441 1536819115 -268435617 1505439507
            -286405393 -65537 -16790081 -541340225</internalNodes>
