<?xml version="1.0"?>
<opencv_storage>
<suboxone_in_hand_47>
  <stageType>BOOST</stageType>
  <featureType>LBP</featureType>
  <height>26</height>
  <width>16</width>
  <stageParams>
    <boostType>GAB</boostType>
    <minHitRate>9.9980896711349487e-01</minHitRate>
    <maxFalseAlarm>5.0000000000000000e-01</maxFalseAlarm>
    <weightTrimRate>9.4999999999999996e-01</weightTrimRate>
    <maxDepth>1</maxDepth>
    <maxWeakCount>500</maxWeakCount></stageParams>
  <featureParams>
    <maxCatCount>256</maxCatCount>
    <featSize>1</featSize></featureParams>
  <stageNum>47</stageNum>
  <stages>
    <!-- stage 0 -->
    <_>
      <maxWeakCount>10</maxWeakCount>
      <stageThreshold>-2.4034183025360107e+00</stageThreshold>
      <weakClassifiers>
        <_>
          <internalNodes>
            0 -1 309 -35262708 -413905 -912200376 -577778 -302534737
            -131073 -1397952594 -4337</internalNodes>
          <leafValues>
            -4.1042515635490417e-01 6.4084160327911377e-01</leafValues></_>
        <_>
          <internalNodes>
            0 -1 1083 250904373 -50528259 -1 -269025345 -134217739 -1
            -11 -1393533088</internalNodes>
          <leafValues>
            -5.2012515068054199e-01 4.6213868260383606e-01</leafValues></_>
        <_>
          <internalNodes>
            0 -1 1354 1878994735 620756831 -536903762 -1359548418
            1979678583 1996488703 -557244 -185270412</internalNodes>
          <leafValues>
            -6.1289888620376587e-01 3.7420886754989624e-01</leafValues></_>
        <_>
          <internalNodes>
            0 -1 519 805244783 788529151 -269488346 -353435698
            2147448645 -134742025 -32940 -319488217</internalNodes>
          <leafValues>
            -5.4273867607116699e-01 3.9391398429870605e-01</leafValues></_>
        <_>
          <internalNodes>
            0 -1 1000 70268917 -1074692097 -524417 -1073954851 937852671
            -134348801 -35331 -1359208588</internalNodes>
          <leafValues>
            -4.5899790525436401e-01 4.4366973638534546e-01</leafValues></_>
        <_>
          <internalNodes>
            0 -1 418 805302063 1694232575 -268435670 -1434779678
            -536871067 -956301313 -268437180 -453709869</internalNodes>
          <leafValues>
            -5.1735788583755493e-01 3.3905798196792603e-01</leafValues></_>
        <_>
          <internalNodes>
            0 -1 1161 670904175 784334783 669969006 -424870025
            2130013559 -65665 -276858012 -455811820</internalNodes>
          <leafValues>
            -5.4901903867721558e-01 3.3178865909576416e-01</leafValues></_>
        <_>
          <internalNodes>
            0 -1 171 -67851606 -249024630 2068230144 -1601532928
            -765344380 -995016542 -123313656 -290993654</internalNodes>
          <leafValues>
            -5.2155429124832153e-01 3.3566904067993164e-01</leafValues></_>
        <_>
          <internalNodes>
            0 -1 878 786308917 788201471 1069203071 -1363232844
            -167936139 -268439563 -201 -319492268</internalNodes>
          <leafValues>
            -5.4496377706527710e-01 3.1898522377014160e-01</leafValues></_>
        <_>
          <internalNodes>
            0 -1 1289 -1493401803 914292725 -169877505 -419627012
            -269885579 -144834561 -1695892 -1397689484</internalNodes>
          <leafValues>
            -5.0632143020629883e-01 3.1989207863807678e-01</leafValues></_></weakClassifiers></_>
    <!-- stage 1 -->
    <_>
      <maxWeakCount>13</maxWeakCount>
      <stageThreshold>-2.1113729476928711e+00</stageThreshold>
      <weakClassifiers>
        <_>
          <internalNodes>
            0 -1 29 -1065294200 -707413115 -1929631140 -3600640
            -455619090 -134742337 -1000296785 -268447826</internalNodes>
          <leafValues>
            -4.9620893597602844e-01 5.5768972635269165e-01</leafValues></_>
        <_>
          <internalNodes>
            0 -1 1081 741621557 -1208156161 -6291457 -198145 -131075
            -16417 -197635 -1359675548</internalNodes>
          <leafValues>
            -4.7083681821823120e-01 4.6110022068023682e-01</leafValues></_>
        <_>
          <internalNodes>
            0 -1 897 611855733 -1078673411 -65537 -1073955332 -591438337
            -16777217 -268554244 -1090764816</internalNodes>
          <leafValues>
            -4.5734450221061707e-01 4.0441545844078064e-01</leafValues></_>
        <_>
          <internalNodes>
            0 -1 18 -1434399032 -2001566758 -117652163 -1344534764
            -1327051281 -4731469 -1579914305 -1548612521</internalNodes>
          <leafValues>
            -4.7596907615661621e-01 3.6271759867668152e-01</leafValues></_>
        <_>
          <internalNodes>
            0 -1 1175 805257087 -1392590849 -263250 -319902225 -8552577
            -150994945 -16912524 -185532604</internalNodes>
          <leafValues>
            -4.8462724685668945e-01 3.6053422093391418e-01</leafValues></_>
        <_>
          <internalNodes>
            0 -1 414 -1409290481 620232559 -1076908054 -320438292
            1207431013 1971322871 -167772364 -520814603</internalNodes>
          <leafValues>
            -5.5978012084960938e-01 2.5852653384208679e-01</leafValues></_>
        <_>
          <internalNodes>
            0 -1 1028 267468799 -1610645505 -1090523137 -353959947
            -32825 -131073 -369164443 -51054595</internalNodes>
          <leafValues>
            -3.7474077939987183e-01 4.1884347796440125e-01</leafValues></_>
        <_>
          <internalNodes>
            0 -1 413 -2643794 -263130147 537919624 -1148583808
            -996617848 -283605019 -256603384 -42997597</internalNodes>
          <leafValues>
            -4.2784625291824341e-01 3.8377478718757629e-01</leafValues></_>
        <_>
          <internalNodes>
            0 -1 654 -168267907 -213025 -269090817 -590172 -33554459
            -539230225 -268509323 -285414028</internalNodes>
          <leafValues>
            -3.8670331239700317e-01 4.0158131718635559e-01</leafValues></_>
        <_>
          <internalNodes>
            0 -1 1075 801390397 754857979 -18994209 -1429325987
            2080210741 -285674497 -2801819 -1393283228</internalNodes>
          <leafValues>
            -5.7602053880691528e-01 2.9467073082923889e-01</leafValues></_>
        <_>
          <internalNodes>
            0 -1 1355 -268472465 -289433393 -335573145 -286326930
            -470325465 -449335445 -1124454812 -453707100</internalNodes>
          <leafValues>
            -4.9939078092575073e-01 2.6727640628814697e-01</leafValues></_>
        <_>
          <internalNodes>
            0 -1 806 1016889205 -196612 -2105489 1073393525 -25276579
            -339457 -1073846915 -1530892524</internalNodes>
          <leafValues>
            -4.0928211808204651e-01 3.3211711049079895e-01</leafValues></_>
        <_>
          <internalNodes>
            0 -1 861 1035872191 150927071 -6837010 -1900249174
            -813858971 -439092225 -808538348 -2132479148</internalNodes>
          <leafValues>
            -5.4430180788040161e-01 2.3850439488887787e-01</leafValues></_></weakClassifiers></_>
    <!-- stage 2 -->
    <_>
      <maxWeakCount>17</maxWeakCount>
      <stageThreshold>-1.9598376750946045e+00</stageThreshold>
      <weakClassifiers>
        <_>
          <internalNodes>
            0 -1 229 -151213896 -73866024 -1610569696 -276299744
            -654774104 -43939666 -276263800 -5189</internalNodes>
          <leafValues>
            -4.6837836503982544e-01 4.1759034991264343e-01</leafValues></_>
        <_>
          <internalNodes>
            0 -1 996 -38895872 -46137419 -1207980097 -33558619 -12753221
            -147457 -1360057425 -1381028049</internalNodes>
          <leafValues>
            -3.5632571578025818e-01 4.5137640833854675e-01</leafValues></_>
        <_>
          <internalNodes>
            0 -1 1262 -50335953 1718006719 -704716824 -620757446
            -51421353 1995961031 -789624028 -185073801</internalNodes>
          <leafValues>
            -4.5226892828941345e-01 3.2593032717704773e-01</leafValues></_>
        <_>
          <internalNodes>
            0 -1 1127 754744693 -17368065 -675426309 -16973841 -25989123
            -133409 -33685508 -289898636</internalNodes>
          <leafValues>
            -4.2608943581581116e-01 3.2826223969459534e-01</leafValues></_>
        <_>
          <internalNodes>
            0 -1 101 -387723520 608297360 -867007734 -1598019307
            -426539309 -453381813 -219166760 -1057488905</internalNodes>
          <leafValues>
            -3.5892769694328308e-01 3.7112069129943848e-01</leafValues></_>
        <_>
          <internalNodes>
            0 -1 935 1040154495 -16982033 -524545 -320143507 -172490787
            -9177089 -369316011 -1278091</internalNodes>
          <leafValues>
            -3.6592936515808105e-01 3.3472603559494019e-01</leafValues></_>
        <_>
          <internalNodes>
            0 -1 858 233078623 -1426939909 -87701524 -1403192130
            -488813723 -606078001 -185303244 -924517020</internalNodes>
          <leafValues>
            -5.6969267129898071e-01 2.3234497010707855e-01</leafValues></_>
        <_>
          <internalNodes>
            0 -1 906 918314485 -33701891 -310018051 -1073941129
            -168697859 -67633730 -218131 -1094959308</internalNodes>
          <leafValues>
            -3.6392119526863098e-01 3.0688321590423584e-01</leafValues></_>
        <_>
          <internalNodes>
            0 -1 323 -732432690 -257591132 134260896 1161941009
            -186611974 -256515641 -805271430 -961427198</internalNodes>
          <leafValues>
            -3.4635350108146667e-01 3.4185770153999329e-01</leafValues></_>
        <_>
          <internalNodes>
            0 -1 1116 215826303 -1361125441 -1822688465 -1359283377
            -134265985 -68293649 -555487375 -332076268</internalNodes>
          <leafValues>
            -4.3403607606887817e-01 2.6723343133926392e-01</leafValues></_>
        <_>
          <internalNodes>
            0 -1 741 635727727 796520307 667828010 239239018 1165852535
            -403444809 -2236571 -453708508</internalNodes>
          <leafValues>
            -5.0582128763198853e-01 1.9583037495613098e-01</leafValues></_>
        <_>
          <internalNodes>
            0 -1 1128 -1504412571 -1436614819 -313821185 -537206787
            -68157955 -578819114 -537280515 -286458507</internalNodes>
          <leafValues>
            -3.3787935972213745e-01 3.0637052655220032e-01</leafValues></_>
        <_>
          <internalNodes>
            0 -1 230 -826284241 177207295 -607654426 -1360095650
            1606115187 -1007502337 -134220492 -1526792266</internalNodes>
          <leafValues>
            -4.0021264553070068e-01 2.6393961906433105e-01</leafValues></_>
        <_>
          <internalNodes>
            0 -1 337 -245108726 428942593 1145046152 -177896444
            1668879790 -249978505 -1998575576 -1465028853</internalNodes>
          <leafValues>
            -3.3998733758926392e-01 2.9881647229194641e-01</leafValues></_>
        <_>
          <internalNodes>
            0 -1 816 1006465023 -8396809 1878698479 -1510227985
            2012045084 -2720785 -272859271 -357531808</internalNodes>
          <leafValues>
            -3.4936144948005676e-01 2.8582242131233215e-01</leafValues></_>
        <_>
          <internalNodes>
            0 -1 1413 1844678445 778034686 -19947546 -286855218
            -1019773099 -172638785 -1095096540 -453713932</internalNodes>
          <leafValues>
            -4.4733330607414246e-01 2.3278084397315979e-01</leafValues></_>
        <_>
          <internalNodes>
            0 -1 185 -573864537 931691495 -16891994 -1583042716
            -734659147 -1904295949 -562045267 -1059062089</internalNodes>
          <leafValues>
            -2.4747398495674133e-01 4.2669588327407837e-01</leafValues></_></weakClassifiers></_>
    <!-- stage 3 -->
    <_>
      <maxWeakCount>21</maxWeakCount>
      <stageThreshold>-1.8354588747024536e+00</stageThreshold>
      <weakClassifiers>
        <_>
          <internalNodes>
            0 -1 1266 -528625 -44564609 -4574 -68177925 1727487076
            1970798591 -16829440 -176687241</internalNodes>
          <leafValues>
            -3.9994946122169495e-01 4.0683630108833313e-01</leafValues></_>
        <_>
          <internalNodes>
            0 -1 891 83124093 -212995 -147457 -73793 -101713155 -1052945
            -100835331 -1359709340</internalNodes>
          <leafValues>
            -4.1027721762657166e-01 3.6144453287124634e-01</leafValues></_>
        <_>
          <internalNodes>
            0 -1 10 -286732340 -1677860929 -134221889 -1074812159
            -17772545 -17301513 -168390657 -269021945</internalNodes>
          <leafValues>
            -3.0435130000114441e-01 4.3946591019630432e-01</leafValues></_>
        <_>
          <internalNodes>
            0 -1 205 -273821913 77528386 -495981558 -1459705238
            -976111323 1235090343 -72633052 -1057489161</internalNodes>
          <leafValues>
            -4.3369084596633911e-01 2.8536587953567505e-01</leafValues></_>
        <_>
          <internalNodes>
            0 -1 1091 477134293 -90121 -268488705 -147593 -197123 -1
            -5079043 -1396949132</internalNodes>
          <leafValues>
            -3.0799466371536255e-01 3.8298544287681580e-01</leafValues></_>
        <_>
          <internalNodes>
            0 -1 872 794246967 264240575 -583286809 -1372786769
            2145350525 2146435007 -4493595 -456851660</internalNodes>
          <leafValues>
            -4.8682734370231628e-01 2.1374106407165527e-01</leafValues></_>
        <_>
          <internalNodes>
            0 -1 822 468285439 -1321279657 -1721450506 -84798102
            -893446147 -35661170 -336220444 -1128890892</internalNodes>
          <leafValues>
            -3.3127468824386597e-01 3.2554107904434204e-01</leafValues></_>
        <_>
          <internalNodes>
            0 -1 1408 -1342312657 -1929707649 -487728194 -286195732
            2126475127 -167907329 -1581228 -185303180</internalNodes>
          <leafValues>
            -4.6290928125381470e-01 2.1321018040180206e-01</leafValues></_>
        <_>
          <internalNodes>
            0 -1 26 1092800704 967947074 -783110788 301934342
            -1058733906 -36377925 -1400601681 -309473781</internalNodes>
          <leafValues>
            -3.6368164420127869e-01 2.9727879166603088e-01</leafValues></_>
        <_>
          <internalNodes>
            0 -1 1018 771719039 -1345486883 -268701697 -1594433790
            2130673663 -1321 2134720256 672153381</internalNodes>
          <leafValues>
            -4.7875365614891052e-01 2.3616582155227661e-01</leafValues></_>
        <_>
          <internalNodes>
            0 -1 1187 652091261 931068415 2147449599 -94962721
            1878984565 -1116372993 -268683196 -1393270923</internalNodes>
          <leafValues>
            -4.3276152014732361e-01 2.3882485926151276e-01</leafValues></_>
        <_>
          <internalNodes>
            0 -1 217 -210704593 1030255030 -1412757012 -1553432320
            -1045913111 20320961 -900002865 -991563861</internalNodes>
          <leafValues>
            -3.3227917551994324e-01 2.9602375626564026e-01</leafValues></_>
        <_>
          <internalNodes>
            0 -1 954 534732415 89161679 -2097809 -1361379505 465010547
            2008415983 1206777701 609255029</internalNodes>
          <leafValues>
            -5.0410598516464233e-01 1.9884854555130005e-01</leafValues></_>
        <_>
          <internalNodes>
            0 -1 1311 -14733499 674754559 -844717394 -1460474882
            1509383535 1429205879 -118663616 -454787227</internalNodes>
          <leafValues>
            -4.5497626066207886e-01 1.9550913572311401e-01</leafValues></_>
        <_>
          <internalNodes>
            0 -1 1193 1157394269 2128019438 -643960841 -1095305329
            -873644547 -168559777 -21202531 -1934565548</internalNodes>
          <leafValues>
            -3.6253434419631958e-01 2.6267018914222717e-01</leafValues></_>
        <_>
          <internalNodes>
            0 -1 959 1576909741 -155783618 -1359221586 -1112817753
            -4866564 2144886269 -965343672 -181011929</internalNodes>
          <leafValues>
            -2.9124048352241516e-01 3.2648476958274841e-01</leafValues></_>
        <_>
          <internalNodes>
            0 -1 966 721370911 149878219 -152895517 -1934309444
            -282174091 -207749637 2137598784 5532992</internalNodes>
          <leafValues>
            -6.4679819345474243e-01 1.6866832971572876e-01</leafValues></_>
        <_>
          <internalNodes>
            0 -1 1095 501645205 937033164 -85983435 -1375944763
            1549647327 -73410697 -336110673 779406197</internalNodes>
          <leafValues>
            -3.4597450494766235e-01 2.5640162825584412e-01</leafValues></_>
        <_>
          <internalNodes>
            0 -1 1218 -856701914 -1267807305 -1925021140 -3185964
            1082475732 -1668968285 1611678242 -172540665</internalNodes>
          <leafValues>
            -3.0569097399711609e-01 3.0747601389884949e-01</leafValues></_>
        <_>
          <internalNodes>
            0 -1 414 796905261 666696543 -1115953206 -391187718
            -342918335 1909978099 -102798032 -252387468</internalNodes>
          <leafValues>
            -4.5554524660110474e-01 1.9978903234004974e-01</leafValues></_>
        <_>
          <internalNodes>
            0 -1 1052 536690549 749207551 1949693653 108707656
            1809153869 -218795729 -608990667 1827961653</internalNodes>
          <leafValues>
            -4.8380407691001892e-01 1.9683445990085602e-01</leafValues></_></weakClassifiers></_>
    <!-- stage 4 -->
    <_>
      <maxWeakCount>24</maxWeakCount>
      <stageThreshold>-2.0456266403198242e+00</stageThreshold>
      <weakClassifiers>
        <_>
          <internalNodes>
            0 -1 200 -787240534 -124728580 553781416 -819427198
            -779685381 -738938227 -16023414 -4198773</internalNodes>
          <leafValues>
            -3.8642606139183044e-01 3.6712634563446045e-01</leafValues></_>
        <_>
          <internalNodes>
            0 -1 986 -1526958747 -137167489 -171966465 -196609 -74129411
            -4194305 -100679683 -1398505628</internalNodes>
          <leafValues>
            -4.0321344137191772e-01 3.1780683994293213e-01</leafValues></_>
        <_>
          <internalNodes>
            0 -1 669 -41257984 -38537411 -1073945091 -1111539907
            -126372098 -16842755 -1363365953 -1379987649</internalNodes>
          <leafValues>
            -3.1320917606353760e-01 3.6762410402297974e-01</leafValues></_>
        <_>
          <internalNodes>
            0 -1 1042 704085887 574128119 1073614719 648060702
            1341750141 2145910775 1459572548 1144323872</internalNodes>
          <leafValues>
            -5.8869099617004395e-01 1.7537425458431244e-01</leafValues></_>
        <_>
          <internalNodes>
            0 -1 121 -293608192 540408597 -1499792632 539024965
            -872732652 -118373407 -125042760 -1393295541</internalNodes>
          <leafValues>
            -3.9913442730903625e-01 2.5123694539070129e-01</leafValues></_>
        <_>
          <internalNodes>
            0 -1 930 1040153983 2096979967 -67117393 -1359675412
            2147430269 -310396446 796884277 1017646973</internalNodes>
          <leafValues>
            -4.6652877330780029e-01 1.8434150516986847e-01</leafValues></_>
        <_>
          <internalNodes>
            0 -1 976 749997949 805105629 -310428741 612002559 2071344757
            -369231369 -622122155 -1401655451</internalNodes>
          <leafValues>
            -4.7409304976463318e-01 2.0453341305255890e-01</leafValues></_>
        <_>
          <internalNodes>
            0 -1 989 103828853 -1686970377 -34621665 -1612792947
            -36865027 -1312771 -1540099 -1393549580</internalNodes>
          <leafValues>
            -3.6687996983528137e-01 2.6013189554214478e-01</leafValues></_>
        <_>
          <internalNodes>
            0 -1 1310 1711271727 -1361052837 -154140918 -822153249
            2130262871 1400865791 -134217980 -194707609</internalNodes>
          <leafValues>
            -4.4493201375007629e-01 2.0362068712711334e-01</leafValues></_>
        <_>
          <internalNodes>
            0 -1 11 176869288 428909046 -499023461 -12505342 -907229188
            -1074138733 -339293793 -307656053</internalNodes>
          <leafValues>
            -2.8275826573371887e-01 3.1012234091758728e-01</leafValues></_>
        <_>
          <internalNodes>
            0 -1 960 914194295 616365887 -795907117 782015935 1299668789
            -105522245 1664425281 1291116369</internalNodes>
          <leafValues>
            -5.3639042377471924e-01 1.5290907025337219e-01</leafValues></_>
        <_>
          <internalNodes>
            0 -1 1250 -424235256 -2146129644 272694276 1754957826
            1218008324 1759715495 -981128192 1903516199</internalNodes>
          <leafValues>
            -4.5757815241813660e-01 1.8477249145507812e-01</leafValues></_>
        <_>
          <internalNodes>
            0 -1 716 936869887 326795135 2134814268 2111356536
            -747292177 -526369 -269008916 -1107939928</internalNodes>
          <leafValues>
            -2.8653603792190552e-01 3.1480431556701660e-01</leafValues></_>
        <_>
          <internalNodes>
            0 -1 630 661024559 214954446 -8491674 -1565360360 1382907767
            1907621871 -1833820588 1616166756</internalNodes>
          <leafValues>
            -6.0116034746170044e-01 1.4119809865951538e-01</leafValues></_>
        <_>
          <internalNodes>
            0 -1 1427 -8585219 -289638923 -541590529 -1506607201
            -35854507 -168175105 -36934104 -520340116</internalNodes>
          <leafValues>
            -3.4579589962959290e-01 2.3301106691360474e-01</leafValues></_>
        <_>
          <internalNodes>
            0 -1 183 1296760608 218219806 -598145910 717368896
            1543789333 1673765131 -358100000 1157100534</internalNodes>
          <leafValues>
            -4.3193471431732178e-01 2.0173090696334839e-01</leafValues></_>
        <_>
          <internalNodes>
            0 -1 1015 888954869 -1363681473 -1074791085 -1931019409
            -879263769 -101462633 1157590765 83113300</internalNodes>
          <leafValues>
            -4.0980875492095947e-01 2.0210398733615875e-01</leafValues></_>
        <_>
          <internalNodes>
            0 -1 131 1904447723 1371631198 -43714692 -37650940 -44792339
            -195756076 -1931166517 -369823810</internalNodes>
          <leafValues>
            -2.5065675377845764e-01 3.4997665882110596e-01</leafValues></_>
        <_>
          <internalNodes>
            0 -1 1073 -17127748 2024902637 -1384206662 -37765317
            -541393732 -696812075 473172156 -416815273</internalNodes>
          <leafValues>
            -2.3799534142017365e-01 3.4894669055938721e-01</leafValues></_>
        <_>
          <internalNodes>
            0 -1 1184 786464573 797490431 -1884582437 216815572
            1269374335 -201430291 -537034891 1143249668</internalNodes>
          <leafValues>
            -5.2325755357742310e-01 1.7559976875782013e-01</leafValues></_>
        <_>
          <internalNodes>
            0 -1 263 -1528643779 -1654588963 -537140834 -1616184992
            767382007 -140391177 -235464860 -1359196811</internalNodes>
          <leafValues>
            -4.0721303224563599e-01 2.0584595203399658e-01</leafValues></_>
        <_>
          <internalNodes>
            0 -1 944 779974527 646159741 805031712 752287607 1205809015
            -693007 796212564 888958368</internalNodes>
          <leafValues>
            -5.2387565374374390e-01 1.6500137746334076e-01</leafValues></_>
        <_>
          <internalNodes>
            0 -1 223 -140267711 -1596174078 -905246412 -1401282140
            1275916693 771480225 -204835347 1089852151</internalNodes>
          <leafValues>
            -3.5790193080902100e-01 2.2886273264884949e-01</leafValues></_>
        <_>
          <internalNodes>
            0 -1 1188 799805277 -1478749195 127253822 775601567
            1668241277 -1346913833 -37918395 743967613</internalNodes>
          <leafValues>
            -5.1405900716781616e-01 1.4782746136188507e-01</leafValues></_></weakClassifiers></_>
    <!-- stage 5 -->
    <_>
      <maxWeakCount>28</maxWeakCount>
      <stageThreshold>-2.0175206661224365e+00</stageThreshold>
      <weakClassifiers>
        <_>
          <internalNodes>
            0 -1 210 -1049617 -39323665 -269571926 -37098654 -34476593
            -84230161 -301990742 -68161825</internalNodes>
          <leafValues>
            -2.5972518324851990e-01 5.0074625015258789e-01</leafValues></_>
        <_>
          <internalNodes>
            0 -1 887 -2146431691 -141509737 -1618700869 -7292018
            -119684611 -71372323 -52606740 -1397728671</internalNodes>
          <leafValues>
            -4.3616154789924622e-01 2.4616120755672455e-01</leafValues></_>
        <_>
          <internalNodes>
            0 -1 1224 -197202910 -58287558 -1379233792 -70329930
            1150315028 -20594429 -993786523 -520628425</internalNodes>
          <leafValues>
            -3.7678605318069458e-01 2.6743188500404358e-01</leafValues></_>
        <_>
          <internalNodes>
            0 -1 5 -458569844 981065524 -1115705427 -1410004190
            -805777427 2113797631 -1514746227 -1461252797</internalNodes>
          <leafValues>
            -2.9013112187385559e-01 3.4307435154914856e-01</leafValues></_>
        <_>
          <internalNodes>
            0 -1 793 268455120 -1111163979 -34104393 -1617546787
            -50566147 -72394837 -1386340356 783825712</internalNodes>
          <leafValues>
            -4.8120182752609253e-01 1.8365406990051270e-01</leafValues></_>
        <_>
          <internalNodes>
            0 -1 1108 804355967 268040687 -168296577 1319663596
            1574928255 -571483153 -856223 -327876619</internalNodes>
          <leafValues>
            -4.3394035100936890e-01 1.8091163039207458e-01</leafValues></_>
        <_>
          <internalNodes>
            0 -1 1268 2128603951 101242093 1146349614 -1299199570
            1591177838 599238789 933887556 1962147331</internalNodes>
          <leafValues>
            -5.0165575742721558e-01 1.7613142728805542e-01</leafValues></_>
        <_>
          <internalNodes>
            0 -1 785 217874261 -1649878705 1536948735 -1073959633
            -37930635 -140574237 -153106091 -319021999</internalNodes>
          <leafValues>
            -3.5044565796852112e-01 2.3375211656093597e-01</leafValues></_>
        <_>
          <internalNodes>
            0 -1 1198 -442044668 -574292595 -1006253137 -178590807
            1268081138 2111932911 -376598082 -323499257</internalNodes>
          <leafValues>
            -2.9077342152595520e-01 2.8474053740501404e-01</leafValues></_>
        <_>
          <internalNodes>
            0 -1 532 266333999 1817312605 -538448060 -420544530
            -603988393 2004866991 2138045780 -453640347</internalNodes>
          <leafValues>
            -3.8980042934417725e-01 2.1720673143863678e-01</leafValues></_>
        <_>
          <internalNodes>
            0 -1 869 1060470655 570291195 997698478 -1937969723
            -756063651 -40896027 -305160315 2091183092</internalNodes>
          <leafValues>
            -3.6520004272460938e-01 2.0908465981483459e-01</leafValues></_>
        <_>
          <internalNodes>
            0 -1 247 -68616267 -1079468676 -1065812 -1087231828
            -1091463233 -1359609861 -1242198050 1154873035</internalNodes>
          <leafValues>
            -2.3037011921405792e-01 3.2348847389221191e-01</leafValues></_>
        <_>
          <internalNodes>
            0 -1 950 938967039 133625711 -1382024531 1190049251
            1922923901 -79955617 1740455540 208985956</internalNodes>
          <leafValues>
            -4.6711474657058716e-01 1.6095083951950073e-01</leafValues></_>
        <_>
          <internalNodes>
            0 -1 798 410013044 -1084954115 -2443585 -1074173572
            -1147896835 2080355007 -1392690305 783551328</internalNodes>
          <leafValues>
            -4.0386795997619629e-01 1.7983683943748474e-01</leafValues></_>
        <_>
          <internalNodes>
            0 -1 144 1693639463 -600824066 -1391950510 -458106880
            1502808547 -88743463 -72820069 -1060635806</internalNodes>
          <leafValues>
            -2.9220598936080933e-01 2.5563532114028931e-01</leafValues></_>
        <_>
          <internalNodes>
            0 -1 647 538453949 769982329 -40376969 -1367415374 733950325
            1732757242 2071881297 -1527486160</internalNodes>
          <leafValues>
            -4.8417523503303528e-01 1.4644856750965118e-01</leafValues></_>
        <_>
          <internalNodes>
            0 -1 1270 -855654513 -115282082 1874759076 -206389653
            -168686340 -629899561 -1929632500 -467536121</internalNodes>
          <leafValues>
            -2.5565388798713684e-01 2.9991805553436279e-01</leafValues></_>
        <_>
          <internalNodes>
            0 -1 691 2031121678 -106119781 -487687503 -1107493056
            -864791110 -1125646385 665855228 -1364869353</internalNodes>
          <leafValues>
            -2.6076373457908630e-01 2.7731430530548096e-01</leafValues></_>
        <_>
          <internalNodes>
            0 -1 1099 246758895 214892486 -312521554 217352014
            1823760245 2071129087 -373614812 207894292</internalNodes>
          <leafValues>
            -5.8235210180282593e-01 1.1953880637884140e-01</leafValues></_>
        <_>
          <internalNodes>
            0 -1 81 1853877122 35762962 -2050096113 687993088 1779419412
            -635428215 -1421366552 -1058820153</internalNodes>
          <leafValues>
            -2.7668422460556030e-01 2.6777863502502441e-01</leafValues></_>
        <_>
          <internalNodes>
            0 -1 975 232594813 788527101 898627806 251214831 1378704753
            -80501057 455810357 -1535840875</internalNodes>
          <leafValues>
            -4.3218502402305603e-01 1.7036785185337067e-01</leafValues></_>
        <_>
          <internalNodes>
            0 -1 721 1886235773 1882530982 -1373042730 1433640156
            -386440471 -105089541 2088880264 -666641342</internalNodes>
          <leafValues>
            -2.5681117177009583e-01 2.8693991899490356e-01</leafValues></_>
        <_>
          <internalNodes>
            0 -1 1271 798257133 673117167 -900170258 -2133989538
            1504673647 1735515119 2092772452 74741572</internalNodes>
          <leafValues>
            -5.5939722061157227e-01 1.2075173854827881e-01</leafValues></_>
        <_>
          <internalNodes>
            0 -1 1189 -1097273995 -1143437993 -1327808052 2143716343
            -31011331 -755302005 -71751240 212995701</internalNodes>
          <leafValues>
            -3.6429375410079956e-01 1.9457259774208069e-01</leafValues></_>
        <_>
          <internalNodes>
            0 -1 1407 782044709 1852724895 -18616858 -1374094866
            1320648239 -337552417 -296444 1684043568</internalNodes>
          <leafValues>
            -5.3002679347991943e-01 1.3108491897583008e-01</leafValues></_>
        <_>
          <internalNodes>
            0 -1 911 1018454005 -1074410195 -1131483143 -1929708178
            -60015179 872384143 -13978635 217086724</internalNodes>
          <leafValues>
            -4.2009794712066650e-01 1.6340054571628571e-01</leafValues></_>
        <_>
          <internalNodes>
            0 -1 228 2008976059 -542593183 1978968238 -274158494
            -59337009 -503349266 -59454453 -50855961</internalNodes>
          <leafValues>
            -2.2660021483898163e-01 3.3026996254920959e-01</leafValues></_>
        <_>
          <internalNodes>
            0 -1 757 614281071 129626591 -374898380 242024438 1675112247
            -742691865 265764101 1078213984</internalNodes>
          <leafValues>
            -6.0425710678100586e-01 1.2036243826150894e-01</leafValues></_></weakClassifiers></_>
    <!-- stage 6 -->
    <_>
      <maxWeakCount>33</maxWeakCount>
      <stageThreshold>-2.0275647640228271e+00</stageThreshold>
      <weakClassifiers>
        <_>
          <internalNodes>
            0 -1 997 -14683132 -131267 -5658721 -40376547 -137030721
            -131595 -1392657361 -5260229</internalNodes>
          <leafValues>
            -2.7856448292732239e-01 4.0009316802024841e-01</leafValues></_>
        <_>
          <internalNodes>
            0 -1 780 -2003304396 -584011342 -1889794636 -1089423407
            -376665667 -38851651 -323474756 -1944023772</internalNodes>
          <leafValues>
            -4.5660594105720520e-01 2.2315539419651031e-01</leafValues></_>
        <_>
          <internalNodes>
            0 -1 792 442121649 -1114047075 -172064771 -1075920899
            -12161027 -540806434 -2473987 -1364706288</internalNodes>
          <leafValues>
            -3.0031290650367737e-01 2.8598746657371521e-01</leafValues></_>
        <_>
          <internalNodes>
            0 -1 411 -872960082 799735802 -272650338 -1431917016
            1323945231 -1887504649 -1342177830 -991434809</internalNodes>
          <leafValues>
            -2.7537789940834045e-01 3.4274169802665710e-01</leafValues></_>
        <_>
          <internalNodes>
            0 -1 820 1040154623 -524289 -143028369 -1091124306
            -270565507 -1095765013 -1090654363 -1471123467</internalNodes>
          <leafValues>
            -3.4027075767517090e-01 2.3696514964103699e-01</leafValues></_>
        <_>
          <internalNodes>
            0 -1 1258 -808194290 740999587 -1356103678 -122781082
            1204246823 2089591183 1624134912 1886911346</internalNodes>
          <leafValues>
            -4.4448629021644592e-01 1.4515666663646698e-01</leafValues></_>
        <_>
          <internalNodes>
            0 -1 833 970028541 -712189615 -1013849322 -39553444
            -896722695 -1248357669 -1515947830 -22637616</internalNodes>
          <leafValues>
            -2.8231841325759888e-01 2.7511051297187805e-01</leafValues></_>
        <_>
          <internalNodes>
            0 -1 1112 788488167 -1529354881 1257290558 1851308966
            2136964695 -4277779 -1219760780 1147184708</internalNodes>
          <leafValues>
            -5.4096406698226929e-01 1.1470211297273636e-01</leafValues></_>
        <_>
          <internalNodes>
            0 -1 788 61632341 -1082606209 -49095339 -1074463974
            1525505908 -436627789 -319624219 -320582299</internalNodes>
          <leafValues>
            -3.3557146787643433e-01 2.1859174966812134e-01</leafValues></_>
        <_>
          <internalNodes>
            0 -1 110 1843643339 825536047 -1327488636 -1189003456
            1291187387 1683357695 -2132488754 -303567053</internalNodes>
          <leafValues>
            -2.7110314369201660e-01 2.8355333209037781e-01</leafValues></_>
        <_>
          <internalNodes>
            0 -1 1059 -895570352 -761736796 -1110046562 2110775573
            -1595014756 1879245329 -1970664696 -462042617</internalNodes>
          <leafValues>
            -2.9974505305290222e-01 2.5407314300537109e-01</leafValues></_>
        <_>
          <internalNodes>
            0 -1 768 1069383487 758763803 -6718854 786873650 -587891841
            -69813897 -268489131 -455803052</internalNodes>
          <leafValues>
            -4.1477450728416443e-01 1.6242155432701111e-01</leafValues></_>
        <_>
          <internalNodes>
            0 -1 1103 544488959 583202791 2144964575 236722668
            2046132093 -4605845 1794873189 1086615604</internalNodes>
          <leafValues>
            -4.7117465734481812e-01 1.5843810141086578e-01</leafValues></_>
        <_>
          <internalNodes>
            0 -1 17 -998077192 -1649090062 -1732112144 -1345540863
            -106284113 -1187335767 -343905574 -1008529913</internalNodes>
          <leafValues>
            -2.6006391644477844e-01 2.6117768883705139e-01</leafValues></_>
        <_>
          <internalNodes>
            0 -1 1126 242490741 751213559 1640120301 721309583
            2075492181 -1293116417 -1116517867 787483940</internalNodes>
          <leafValues>
            -5.4423028230667114e-01 1.3043873012065887e-01</leafValues></_>
        <_>
          <internalNodes>
            0 -1 224 -345243821 -1314717712 -1343512600 -1422381306
            1305935350 -836370509 -277050119 -1058677281</internalNodes>
          <leafValues>
            -2.2875303030014038e-01 2.9004642367362976e-01</leafValues></_>
        <_>
          <internalNodes>
            0 -1 941 742547311 846722047 -1113351478 1052293374
            1808891253 -1483747673 1906012451 1423204212</internalNodes>
          <leafValues>
            -4.4937047362327576e-01 1.4175464212894440e-01</leafValues></_>
        <_>
          <internalNodes>
            0 -1 80 -958673152 269607386 -482729428 660027178 1938345957
            -2915377 -668211272 -1602942321</internalNodes>
          <leafValues>
            -2.5775495171546936e-01 2.5305545330047607e-01</leafValues></_>
        <_>
          <internalNodes>
            0 -1 851 803172197 795265949 2094491252 116816359 1608867169
            2013264829 1237408372 1147434276</internalNodes>
          <leafValues>
            -5.5505502223968506e-01 1.1099824309349060e-01</leafValues></_>
        <_>
          <internalNodes>
            0 -1 139 1574235648 741466905 -754777272 75516432 549456292
            843702401 -119541264 16115543</internalNodes>
          <leafValues>
            -3.8038241863250732e-01 1.7616477608680725e-01</leafValues></_>
        <_>
          <internalNodes>
            0 -1 909 684094769 -1651416219 -946083862 -1101215472
            1290565116 -75331446 -1146455380 917912096</internalNodes>
          <leafValues>
            -4.4714435935020447e-01 1.4476323127746582e-01</leafValues></_>
        <_>
          <internalNodes>
            0 -1 1314 1862143789 1734188809 -2112820182 740746683
            1685749621 1719488885 -592041612 611610468</internalNodes>
          <leafValues>
            -5.7554209232330322e-01 1.1818553507328033e-01</leafValues></_>
        <_>
          <internalNodes>
            0 -1 544 -580866140 -1860914761 -1514288742 -1751637072
            -1750938371 714048679 -242250753 -527365515</internalNodes>
          <leafValues>
            -2.8278383612632751e-01 2.4008801579475403e-01</leafValues></_>
        <_>
          <internalNodes>
            0 -1 237 124667649 227985301 -918099510 720032524 661126701
            -1228949861 -806369419 817018144</internalNodes>
          <leafValues>
            -4.6604779362678528e-01 1.4038154482841492e-01</leafValues></_>
        <_>
          <internalNodes>
            0 -1 1009 739253589 -1896509467 -270566484 788443629
            -319067345 1946147791 -283025996 746324292</internalNodes>
          <leafValues>
            -5.1028692722320557e-01 1.2885423004627228e-01</leafValues></_>
        <_>
          <internalNodes>
            0 -1 51 419506346 -1085502426 -618626792 -1717966080
            -41809526 -56852322 -387108134 -508196009</internalNodes>
          <leafValues>
            -2.9220363497734070e-01 2.2944588959217072e-01</leafValues></_>
        <_>
          <internalNodes>
            0 -1 1028 804731783 241911791 -2039239694 544484144
            2134721893 157285801 -1644692156 1077182229</internalNodes>
          <leafValues>
            -5.4200011491775513e-01 1.2715843319892883e-01</leafValues></_>
        <_>
          <internalNodes>
            0 -1 550 -870299904 1884308945 -850850379 803079797
            -830350849 -130973029 1486605293 204345095</internalNodes>
          <leafValues>
            -2.8810593485832214e-01 2.2591651976108551e-01</leafValues></_>
        <_>
          <internalNodes>
            0 -1 1064 135540503 619009771 2126491749 777697190
            1844213859 1979443703 1593795153 67134020</internalNodes>
          <leafValues>
            -6.3492649793624878e-01 1.0315581411123276e-01</leafValues></_>
        <_>
          <internalNodes>
            0 -1 256 -1345032412 775195447 -860757788 -1364164111
            593879661 -1761852465 -107395836 618706209</internalNodes>
          <leafValues>
            -5.3549462556838989e-01 1.1271966248750687e-01</leafValues></_>
        <_>
          <internalNodes>
            0 -1 373 1429453055 926412095 2024671390 -272766907
            1641023209 -437911890 -354179909 -67633446</internalNodes>
          <leafValues>
            -1.6940261423587799e-01 4.1518950462341309e-01</leafValues></_>
        <_>
          <internalNodes>
            0 -1 799 544233328 -1220484730 -788270123 494989581
            -57119828 -222637905 -370639931 717499236</internalNodes>
          <leafValues>
            -5.2345436811447144e-01 1.3743771612644196e-01</leafValues></_>
        <_>
          <internalNodes>
            0 -1 1263 1027358511 40142527 -804815670 -1331263092
            16593195 1835001659 1908098644 1349836644</internalNodes>
          <leafValues>
            -5.4873853921890259e-01 1.1224602162837982e-01</leafValues></_></weakClassifiers></_>
    <!-- stage 7 -->
    <_>
      <maxWeakCount>32</maxWeakCount>
      <stageThreshold>-1.7603814601898193e+00</stageThreshold>
      <weakClassifiers>
        <_>
          <internalNodes>
            0 -1 1267 -44041841 -93717129 -268452586 -9701577 620174960
            2055040895 -16904668 -210239645</internalNodes>
          <leafValues>
            -2.9630088806152344e-01 3.1484159827232361e-01</leafValues></_>
        <_>
          <internalNodes>
            0 -1 984 137656181 -985665 -136578049 -1078002187 -34243843
            -5662773 -442371 -1359192203</internalNodes>
          <leafValues>
            -3.5561463236808777e-01 2.6221480965614319e-01</leafValues></_>
        <_>
          <internalNodes>
            0 -1 18 -1561801560 -105732648 -616631425 -336753515
            -505000705 -73404237 -1477030913 -1346957377</internalNodes>
          <leafValues>
            -3.1333890557289124e-01 2.7084115147590637e-01</leafValues></_>
        <_>
          <internalNodes>
            0 -1 204 -337645785 780923902 -1597273042 -286594586
            1434831652 1930814627 -226366732 -990384157</internalNodes>
          <leafValues>
            -3.7157103419303894e-01 2.3529353737831116e-01</leafValues></_>
        <_>
          <internalNodes>
            0 -1 923 1073643485 1073264503 -72351745 15077357
            -1075005969 -316810101 -1208015323 203689253</internalNodes>
          <leafValues>
            -4.4120711088180542e-01 1.4889165759086609e-01</leafValues></_>
        <_>
          <internalNodes>
            0 -1 1318 -1392746627 -825167361 -72302593 -286458881
            -2229059 -234882049 -123733507 -1594556555</internalNodes>
          <leafValues>
            -3.5583397746086121e-01 1.8254163861274719e-01</leafValues></_>
        <_>
          <internalNodes>
            0 -1 1055 804749183 805173247 2145385727 -1932862699
            125730135 -21238785 -1476698255 1617985332</internalNodes>
          <leafValues>
            -4.2504799365997314e-01 1.8847811222076416e-01</leafValues></_>
        <_>
          <internalNodes>
            0 -1 874 180365589 -1890010923 -2071262154 -1904073942
            -3519619 -85212738 -1472583168 -319787999</internalNodes>
          <leafValues>
            -5.1612180471420288e-01 1.4416952431201935e-01</leafValues></_>
        <_>
          <internalNodes>
            0 -1 112 1193118158 -1341943636 -179542840 -2549744
            -266670597 -511397256 -1860113174 -322109448</internalNodes>
          <leafValues>
            -3.1868371367454529e-01 2.2117875516414642e-01</leafValues></_>
        <_>
          <internalNodes>
            0 -1 1100 251426559 245806079 1441529775 619490158 935815167
            1627384761 1493003124 415252245</internalNodes>
          <leafValues>
            -4.5190957188606262e-01 1.4015655219554901e-01</leafValues></_>
        <_>
          <internalNodes>
            0 -1 1223 -303372754 1682884751 -1539153302 -48316330
            1145380339 -1829959281 1818297409 -575183305</internalNodes>
          <leafValues>
            -3.1361821293830872e-01 2.0640121400356293e-01</leafValues></_>
        <_>
          <internalNodes>
            0 -1 818 1073182719 -61206129 -551557577 1039037797
            1033595175 -1697495663 -1091657747 -1077663084</internalNodes>
          <leafValues>
            -2.6223030686378479e-01 2.6264888048171997e-01</leafValues></_>
        <_>
          <internalNodes>
            0 -1 1232 1092398378 -1274246229 -2126507762 -1036065978
            1350566738 -899030493 -536585152 1919246967</internalNodes>
          <leafValues>
            -3.4767729043960571e-01 2.0350851118564606e-01</leafValues></_>
        <_>
          <internalNodes>
            0 -1 654 -1249609227 -196745 -618695681 -8993372 -666159107
            -1646543537 -404828299 -453229195</internalNodes>
          <leafValues>
            -2.8179979324340820e-01 2.2646220028400421e-01</leafValues></_>
        <_>
          <internalNodes>
            0 -1 201 -411291865 733207859 -119537718 -1363756806
            -101815435 2112804707 -67248796 -529207468</internalNodes>
          <leafValues>
            -4.2345580458641052e-01 1.5510919690132141e-01</leafValues></_>
        <_>
          <internalNodes>
            0 -1 897 607145461 601185535 2074069983 -1359151692
            -1136689795 -20976899 -87131387 -1934872720</internalNodes>
          <leafValues>
            -3.9679107069969177e-01 1.6936028003692627e-01</leafValues></_>
        <_>
          <internalNodes>
            0 -1 774 251019063 683439901 -146808130 750299515 -638919319
            -1225546249 -574658691 -1359727327</internalNodes>
          <leafValues>
            -3.8531783223152161e-01 1.7340205609798431e-01</leafValues></_>
        <_>
          <internalNodes>
            0 -1 99 -275200 355531633 -888718336 170933848 -475799352
            -1224367689 -343098392 -1462513729</internalNodes>
          <leafValues>
            -2.6852706074714661e-01 2.4379518628120422e-01</leafValues></_>
        <_>
          <internalNodes>
            0 -1 847 222389887 97903951 1838119790 -1372521469
            1418407237 196458939 797073156 74720276</internalNodes>
          <leafValues>
            -5.4983615875244141e-01 1.2575672566890717e-01</leafValues></_>
        <_>
          <internalNodes>
            0 -1 672 1891725428 -628938090 -485975179 -1654536112
            447972351 -640958301 176212635 -25298310</internalNodes>
          <leafValues>
            -2.7079781889915466e-01 2.4795278906822205e-01</leafValues></_>
        <_>
          <internalNodes>
            0 -1 539 217804583 657850213 -816378486 -357775390
            1909940053 1977331625 -352644780 620025793</internalNodes>
          <leafValues>
            -4.5807367563247681e-01 1.4438162744045258e-01</leafValues></_>
        <_>
          <internalNodes>
            0 -1 1192 644898677 786339783 1070043357 -1103586834
            -883093027 -1078206145 -1159649371 746586997</internalNodes>
          <leafValues>
            -4.5142325758934021e-01 1.3298298418521881e-01</leafValues></_>
        <_>
          <internalNodes>
            0 -1 1197 -36905116 1607974704 -285479953 -1116500187
            1186623164 1593573307 -318866260 -994353907</internalNodes>
          <leafValues>
            -2.3714308440685272e-01 2.8361034393310547e-01</leafValues></_>
        <_>
          <internalNodes>
            0 -1 1161 547712959 97484794 1698986639 -308355242
            2023849023 1226015210 692342630 1961889668</internalNodes>
          <leafValues>
            -3.8419216871261597e-01 1.8707755208015442e-01</leafValues></_>
        <_>
          <internalNodes>
            0 -1 403 631597838 96706837 68622830 -1000029696 1763773703
            339837097 -343041108 -520128781</internalNodes>
          <leafValues>
            -3.8430619239807129e-01 1.5385998785495758e-01</leafValues></_>
        <_>
          <internalNodes>
            0 -1 1109 696877021 663853520 -679356672 210662182 -41305640
            -1426734241 -1016332683 -849281227</internalNodes>
          <leafValues>
            -3.5270446538925171e-01 1.7988146841526031e-01</leafValues></_>
        <_>
          <internalNodes>
            0 -1 180 1297558032 1895870926 1484955778 1631196288
            1344391201 -1063948192 234882058 -958347136</internalNodes>
          <leafValues>
            -4.2715695500373840e-01 1.4278751611709595e-01</leafValues></_>
        <_>
          <internalNodes>
            0 -1 1047 264963925 649513047 -741137490 750182688 700325205
            1518218079 1102829895 337912612</internalNodes>
          <leafValues>
            -5.9219729900360107e-01 1.0644479840993881e-01</leafValues></_>
        <_>
          <internalNodes>
            0 -1 1092 1043617109 -1616192611 -309756881 -1473350443
            1943368669 1786641455 -489801889 618936925</internalNodes>
          <leafValues>
            -3.5855352878570557e-01 1.7034205794334412e-01</leafValues></_>
        <_>
          <internalNodes>
            0 -1 242 -300765516 -1282393678 -1071955648 -1894775416
            -1336385103 -1566532933 -1165171922 -991573829</internalNodes>
          <leafValues>
            -3.0032563209533691e-01 2.1118521690368652e-01</leafValues></_>
        <_>
          <internalNodes>
            0 -1 884 268188021 -2029199371 -282629669 650426982
            1515993973 1035795279 -1189842115 770967365</internalNodes>
          <leafValues>
            -4.5114436745643616e-01 1.3888373970985413e-01</leafValues></_>
        <_>
          <internalNodes>
            0 -1 584 -2097156049 -1447906262 -2003663344 -150444287
            -369008372 -2134667062 -1400730576 -1242193358</internalNodes>
          <leafValues>
            -3.0213400721549988e-01 2.0498465001583099e-01</leafValues></_></weakClassifiers></_>
    <!-- stage 8 -->
    <_>
      <maxWeakCount>41</maxWeakCount>
      <stageThreshold>-1.9760009050369263e+00</stageThreshold>
      <weakClassifiers>
        <_>
          <internalNodes>
            0 -1 772 -42302224 -785314263 -4452430 -10109905 -33780227
            -571089435 -1943262152 -5243905</internalNodes>
          <leafValues>
            -2.6269924640655518e-01 3.2883593440055847e-01</leafValues></_>
        <_>
          <internalNodes>
            0 -1 12 1088999114 -1789857032 -48258347 -439015006
            -472020001 -68292205 -370086945 -273289221</internalNodes>
          <leafValues>
            -2.7283486723899841e-01 2.8717952966690063e-01</leafValues></_>
        <_>
          <internalNodes>
            0 -1 824 24409973 -548079169 -1794376200 -41289276
            -249699332 -1711091511 -354034212 -118036860</internalNodes>
          <leafValues>
            -3.4583422541618347e-01 2.0848152041435242e-01</leafValues></_>
        <_>
          <internalNodes>
            0 -1 82 -866669052 4530740 1175414344 -2132755487 974621648
            -666287999 -363075180 14524663</internalNodes>
          <leafValues>
            -3.7520980834960938e-01 1.7943726480007172e-01</leafValues></_>
        <_>
          <internalNodes>
            0 -1 1023 1073053695 -1396738049 -138679313 -1902317665
            1068630014 -25365210 -50582715 804002164</internalNodes>
          <leafValues>
            -3.5782355070114136e-01 2.0344643294811249e-01</leafValues></_>
        <_>
          <internalNodes>
            0 -1 996 -244420864 -1081118563 -1018590785 -574116971
            2080667324 -119948899 511846414 -466934209</internalNodes>
          <leafValues>
            -3.2721659541130066e-01 1.7500463128089905e-01</leafValues></_>
        <_>
          <internalNodes>
            0 -1 885 -1535623371 -7284515 -1856777251 -1078278661
            2026516989 1964889643 -876541443 -1963065291</internalNodes>
          <leafValues>
            -3.3951187133789062e-01 1.9860091805458069e-01</leafValues></_>
        <_>
          <internalNodes>
            0 -1 1257 -497684982 -1409162731 1193237346 -456752304
            1830255471 1119062667 -796401664 -990385305</internalNodes>
          <leafValues>
            -3.6056408286094666e-01 1.8220533430576324e-01</leafValues></_>
        <_>
          <internalNodes>
            0 -1 972 389037877 234876847 2011684775 145010999 2113764181
            -38805259 569863685 71322944</internalNodes>
          <leafValues>
            -5.8464014530181885e-01 6.8208321928977966e-02</leafValues></_>
        <_>
          <internalNodes>
            0 -1 626 -543041417 -1255965149 1022191736 -39093752
            234630559 -740003843 -322524050 -189792525</internalNodes>
          <leafValues>
            -1.7182692885398865e-01 3.4271904826164246e-01</leafValues></_>
        <_>
          <internalNodes>
            0 -1 915 900562421 -269527073 -52538121 -1644741375
            -574635145 -2100505 -91670699 11015521</internalNodes>
          <leafValues>
            -3.1793069839477539e-01 1.9054919481277466e-01</leafValues></_>
        <_>
          <internalNodes>
            0 -1 553 -1883996807 -4670117 -743165601 -5051166
            -1803420299 -144972297 -643042604 -448502447</internalNodes>
          <leafValues>
            -2.6700690388679504e-01 2.2602719068527222e-01</leafValues></_>
        <_>
          <internalNodes>
            0 -1 177 -62009809 -1215763617 -1073366342 -1488681148
            -998170622 -1962040701 1250541984 1084356318</internalNodes>
          <leafValues>
            -2.7169302105903625e-01 2.1698257327079773e-01</leafValues></_>
        <_>
          <internalNodes>
            0 -1 1151 696221631 78550173 -470170066 -298923129
            1977929567 1700526891 -373338236 1153461664</internalNodes>
          <leafValues>
            -3.6674824357032776e-01 1.6664808988571167e-01</leafValues></_>
        <_>
          <internalNodes>
            0 -1 1280 -319903700 -858432161 -183397602 -254557824
            -795993987 2073231483 -1155004356 1903524391</internalNodes>
          <leafValues>
            -3.1435924768447876e-01 1.8503181636333466e-01</leafValues></_>
        <_>
          <internalNodes>
            0 -1 1075 229654333 216439629 -1718107657 544012111
            1536720152 -51289218 1608993857 208682548</internalNodes>
          <leafValues>
            -5.5743736028671265e-01 1.1098673939704895e-01</leafValues></_>
        <_>
          <internalNodes>
            0 -1 658 746854268 -1107892228 -572812867 -1077956639
            2074017785 -136148293 -337416228 217325429</internalNodes>
          <leafValues>
            -3.6667463183403015e-01 1.4244481921195984e-01</leafValues></_>
        <_>
          <internalNodes>
            0 -1 229 -538592321 -105272008 -1510953808 1600722986
            -1611479894 -973744347 -524772113 -37884741</internalNodes>
          <leafValues>
            -1.6275247931480408e-01 3.5054290294647217e-01</leafValues></_>
        <_>
          <internalNodes>
            0 -1 866 228540243 94748635 2001412043 -1361660537
            2008178047 -172104263 1530751333 1839513412</internalNodes>
          <leafValues>
            -3.9661508798599243e-01 1.5828672051429749e-01</leafValues></_>
        <_>
          <internalNodes>
            0 -1 1211 1878247458 -107855742 1422281054 -590445752
            1148994487 -544948053 -1938550265 -66776541</internalNodes>
          <leafValues>
            -2.7201429009437561e-01 2.2183859348297119e-01</leafValues></_>
        <_>
          <internalNodes>
            0 -1 1039 602701823 225180607 1670467502 71967582 760250171
            456700475 1061255492 71327905</internalNodes>
          <leafValues>
            -4.9387127161026001e-01 1.1569300293922424e-01</leafValues></_>
        <_>
          <internalNodes>
            0 -1 1117 208931949 -1940348965 1671425502 217489750
            2072790325 -710371089 -1930427579 74456880</internalNodes>
          <leafValues>
            -6.1944746971130371e-01 9.5278471708297729e-02</leafValues></_>
        <_>
          <internalNodes>
            0 -1 1078 -2101289676 -20950925 16794107 -1115618406
            -653178451 -369883127 -1152636484 604013344</internalNodes>
          <leafValues>
            -3.6298006772994995e-01 1.5128335356712341e-01</leafValues></_>
        <_>
          <internalNodes>
            0 -1 73 1370827402 1494855953 542161096 -246843388
            -900921111 -478105445 -2138813301 -324670618</internalNodes>
          <leafValues>
            -2.8334549069404602e-01 1.9616521894931793e-01</leafValues></_>
        <_>
          <internalNodes>
            0 -1 262 -1347227787 -1526924292 -1922314585 -1117883540
            2005597085 536542195 -142727372 637363061</internalNodes>
          <leafValues>
            -2.9426702857017517e-01 1.9477389752864838e-01</leafValues></_>
        <_>
          <internalNodes>
            0 -1 1412 796737325 -1898414275 1182541604 -498664066
            2106619981 1530654424 -2114621904 615536500</internalNodes>
          <leafValues>
            -5.1973825693130493e-01 1.1529837548732758e-01</leafValues></_>
        <_>
          <internalNodes>
            0 -1 990 3431749 -1118647599 -1291444254 -1077220520
            2039379900 -208678705 -1432863761 217202465</internalNodes>
          <leafValues>
            -4.1935691237449646e-01 1.3526237010955811e-01</leafValues></_>
        <_>
          <internalNodes>
            0 -1 1163 614281165 4520329 -1267499538 -1397238818
            -404934305 -780346917 -526512585 347364801</internalNodes>
          <leafValues>
            -4.1913631558418274e-01 1.3469938933849335e-01</leafValues></_>
        <_>
          <internalNodes>
            0 -1 1386 -352416340 -1433219165 -1350570242 -272728068
            1962700783 -1216653377 771712959 901205799</internalNodes>
          <leafValues>
            -2.0879535377025604e-01 2.7062469720840454e-01</leafValues></_>
        <_>
          <internalNodes>
            0 -1 1283 -1301019339 -353298561 1854929391 -1637591108
            1901551423 89840399 -22204588 -1394323597</internalNodes>
          <leafValues>
            -3.2487255334854126e-01 1.7312388122081757e-01</leafValues></_>
        <_>
          <internalNodes>
            0 -1 142 192275752 1032942871 -1332670564 562660099
            1235701380 -1400860183 -383796315 -459293050</internalNodes>
          <leafValues>
            -2.5761169195175171e-01 2.1632269024848938e-01</leafValues></_>
        <_>
          <internalNodes>
            0 -1 472 -1564816176 -440614332 205570297 -1412385382
            -1405860706 -246185975 -1438356228 -1444475913</internalNodes>
          <leafValues>
            -3.0112797021865845e-01 1.9707870483398438e-01</leafValues></_>
        <_>
          <internalNodes>
            0 -1 857 603815257 265784775 647182206 680916877 -1154131641
            726492499 1530158081 1146384500</internalNodes>
          <leafValues>
            -4.7732630372047424e-01 1.2382579594850540e-01</leafValues></_>
        <_>
          <internalNodes>
            0 -1 1318 1828458084 752603591 -369583108 1179447290
            1032672884 -220897797 -50476883 1081136676</internalNodes>
          <leafValues>
            -4.7919785976409912e-01 1.1770518124103546e-01</leafValues></_>
        <_>
          <internalNodes>
            0 -1 216 -14208569 -1869033008 1360823068 -1402756728
            -2138459325 103350673 -477411094 1895167315</internalNodes>
          <leafValues>
            -2.2552673518657684e-01 2.5838580727577209e-01</leafValues></_>
        <_>
          <internalNodes>
            0 -1 551 776744749 778105141 -944057394 -1076436330
            -295711756 -1390956305 -303475963 1278272597</internalNodes>
          <leafValues>
            -3.9518967270851135e-01 1.4412203431129456e-01</leafValues></_>
        <_>
          <internalNodes>
            0 -1 1035 130641799 1842412446 2111166682 1019404479
            1436508029 -3966069 495925542 251679220</internalNodes>
          <leafValues>
            -3.9242109656333923e-01 1.4520289003849030e-01</leafValues></_>
        <_>
          <internalNodes>
            0 -1 549 -406021360 -566845025 -2058092100 -1079472840
            -1473831939 -1693908072 -217871378 1281818953</internalNodes>
          <leafValues>
            -2.4319022893905640e-01 2.4508395791053772e-01</leafValues></_>
        <_>
          <internalNodes>
            0 -1 1199 1731027458 -103247331 -1056783102 -175415076
            -1530433045 -87750489 -901370994 -182064605</internalNodes>
          <leafValues>
            -2.3830330371856689e-01 2.4938863515853882e-01</leafValues></_>
        <_>
          <internalNodes>
            0 -1 128 1375006395 1006153778 1538202808 -595228542
            -1158443612 -1145473025 -198804248 -938488718</internalNodes>
          <leafValues>
            -2.2750635445117950e-01 2.6347944140434265e-01</leafValues></_>
        <_>
          <internalNodes>
            0 -1 399 897314661 895352151 -443747864 1044312300
            1859221543 2095809929 -64354571 1893203814</internalNodes>
          <leafValues>
            -2.6630866527557373e-01 2.2121998667716980e-01</leafValues></_></weakClassifiers></_>
    <!-- stage 9 -->
    <_>
      <maxWeakCount>39</maxWeakCount>
      <stageThreshold>-2.0917913913726807e+00</stageThreshold>
      <weakClassifiers>
        <_>
          <internalNodes>
            0 -1 1254 -149160191 -251543502 319652608 -15105725
            1652759808 1915423235 1627456000 1936937747</internalNodes>
          <leafValues>
            -4.3049636483192444e-01 3.7216213345527649e-01</leafValues></_>
        <_>
          <internalNodes>
            0 -1 1198 -72880896 -14811867 519974575 -168833231 217908658
            -1968137 -1397423957 -1534368753</internalNodes>
          <leafValues>
            -2.9192012548446655e-01 3.6559683084487915e-01</leafValues></_>
        <_>
          <internalNodes>
            0 -1 441 -81608912 892919192 -805556674 456665528 1073024308
            606535679 1341351902 -11813617</internalNodes>
          <leafValues>
            -2.5375536084175110e-01 3.1684914231300354e-01</leafValues></_>
        <_>
          <internalNodes>
            0 -1 19 144884128 421249872 1267739497 930154259 19138787
            -69539439 -1998437381 -1422849135</internalNodes>
          <leafValues>
            -3.6680081486701965e-01 2.1581046283245087e-01</leafValues></_>
        <_>
          <internalNodes>
            0 -1 356 1870622468 1896995479 -935228158 -1136615158
            1208616964 1921188857 -509359511 651625343</internalNodes>
          <leafValues>
            -2.9392322897911072e-01 2.7084851264953613e-01</leafValues></_>
        <_>
          <internalNodes>
            0 -1 311 -655366144 829533796 -84050133 900824445 -864596396
            2113699831 -1208135828 -2132702145</internalNodes>
          <leafValues>
            -2.4959130585193634e-01 2.7750819921493530e-01</leafValues></_>
        <_>
          <internalNodes>
            0 -1 1289 -1873516259 -1309609017 -1199514753 -140078819
            -83289355 322681253 -1957156420 -491718724</internalNodes>
          <leafValues>
            -2.6479011774063110e-01 2.6063045859336853e-01</leafValues></_>
        <_>
          <internalNodes>
            0 -1 939 827619997 839430283 276905992 1540411526 1103639475
            -477392375 320891010 -65865148</internalNodes>
          <leafValues>
            -3.6135789752006531e-01 1.6828206181526184e-01</leafValues></_>
        <_>
          <internalNodes>
            0 -1 123 -850295264 553652240 53135362 612483184 1355876101
            -1727151869 -141960416 79684491</internalNodes>
          <leafValues>
            -3.0558106303215027e-01 2.1557232737541199e-01</leafValues></_>
        <_>
          <internalNodes>
            0 -1 1044 1153957380 67223594 1124258688 -455966254
            1627657047 1820381321 683206692 1411890022</internalNodes>
          <leafValues>
            -5.0048917531967163e-01 1.2682445347309113e-01</leafValues></_>
        <_>
          <internalNodes>
            0 -1 564 -1861598704 -1265917650 -1722662755 495202712
            -1512547852 -746436582 1370252220 -1178916067</internalNodes>
          <leafValues>
            -3.1222227215766907e-01 2.0894420146942139e-01</leafValues></_>
        <_>
          <internalNodes>
            0 -1 1279 -431247936 -1877929639 -2063266994 1620087196
            1885100220 -784508887 -2018827892 1965153127</internalNodes>
          <leafValues>
            -3.0142438411712646e-01 1.9768878817558289e-01</leafValues></_>
        <_>
          <internalNodes>
            0 -1 822 458060733 -1837448397 -1056714054 2122323371
            -1031049039 -122437504 64602241 -36496996</internalNodes>
          <leafValues>
            -2.6401433348655701e-01 2.4176275730133057e-01</leafValues></_>
        <_>
          <internalNodes>
            0 -1 309 291624330 998311510 1360040269 290548233 27394456
            1628014781 687622314 -1467922428</internalNodes>
          <leafValues>
            -3.2190254330635071e-01 1.9636388123035431e-01</leafValues></_>
        <_>
          <internalNodes>
            0 -1 1212 1153478318 -1072773100 822837634 -1298392689
            25430390 -1600831351 -2134900497 1176440435</internalNodes>
          <leafValues>
            -2.5083920359611511e-01 2.4440772831439972e-01</leafValues></_>
        <_>
          <internalNodes>
            0 -1 266 -64870876 -785055818 -134797391 -1075888592
            796383151 -58851459 -294262964 -923847662</internalNodes>
          <leafValues>
            -2.0283791422843933e-01 3.0816549062728882e-01</leafValues></_>
        <_>
          <internalNodes>
            0 -1 98 -989859860 364461809 2146361132 -1549191634
            -822162027 -646594562 -302003940 -1411313857</internalNodes>
          <leafValues>
            -1.9943419098854065e-01 2.9210302233695984e-01</leafValues></_>
        <_>
          <internalNodes>
            0 -1 997 1712735780 -1206570086 -1819703140 1956270118
            1925251256 -1718017919 143196204 -299627494</internalNodes>
          <leafValues>
            -3.4125700592994690e-01 1.7490711808204651e-01</leafValues></_>
        <_>
          <internalNodes>
            0 -1 854 11297461 -1857546092 1610645517 -328584304 4587992
            -902086526 -1450309564 -816526524</internalNodes>
          <leafValues>
            -4.1994133591651917e-01 1.2191688269376755e-01</leafValues></_>
        <_>
          <internalNodes>
            0 -1 1254 1324199662 -2136675083 -86361 2136927866
            -1208132165 -92315781 1744805163 -180751102</internalNodes>
          <leafValues>
            -1.8397247791290283e-01 3.0864262580871582e-01</leafValues></_>
        <_>
          <internalNodes>
            0 -1 438 -785874768 -1248083328 -2112618496 -5728079
            -1439694616 1478492161 -1576781816 -304352159</internalNodes>
          <leafValues>
            -2.9477417469024658e-01 2.1074551343917847e-01</leafValues></_>
        <_>
          <internalNodes>
            0 -1 837 932803449 14643335 655944618 180983051 2037334325
            -214920575 1658925620 241459613</internalNodes>
          <leafValues>
            -4.3018069863319397e-01 1.3398312032222748e-01</leafValues></_>
        <_>
          <internalNodes>
            0 -1 75 -772934689 -108545625 -1852797259 1433492683
            -998330897 -176365585 -1251870993 -2359585</internalNodes>
          <leafValues>
            -1.0360947251319885e-01 6.3567054271697998e-01</leafValues></_>
        <_>
          <internalNodes>
            0 -1 816 803635199 -412530762 -281096246 -1919294834
            1542200224 -1042833405 -1604093396 10777120</internalNodes>
          <leafValues>
            -3.3561655879020691e-01 1.7986147105693817e-01</leafValues></_>
        <_>
          <internalNodes>
            0 -1 186 -258478174 95605774 -519978864 1820381632 221341702
            1922646184 -1013192672 1157102194</internalNodes>
          <leafValues>
            -3.9562091231346130e-01 1.4137114584445953e-01</leafValues></_>
        <_>
          <internalNodes>
            0 -1 491 -2052768787 -1177447653 -1383852716 -1243348018
            -510721592 -104820543 -1197950578 -1359549118</internalNodes>
          <leafValues>
            -2.4421240389347076e-01 2.3365318775177002e-01</leafValues></_>
        <_>
          <internalNodes>
            0 -1 299 141831040 -1554986574 -2105384081 1762671234
            -1064138028 -652670966 -1421544683 -277544191</internalNodes>
          <leafValues>
            -3.7905117869377136e-01 1.4762213826179504e-01</leafValues></_>
        <_>
          <internalNodes>
            0 -1 115 -853820416 903717084 -712963899 2021591611
            -1062640827 2027503764 -1583142144 619350529</internalNodes>
          <leafValues>
            -2.9066088795661926e-01 1.9716741144657135e-01</leafValues></_>
        <_>
          <internalNodes>
            0 -1 781 -910157648 -1055628989 -1325083842 -242288573
            -935274271 -2053004413 -2011796899 206499328</internalNodes>
          <leafValues>
            -2.8871771693229675e-01 1.9005990028381348e-01</leafValues></_>
        <_>
          <internalNodes>
            0 -1 1228 -339024338 739283590 -989231868 2068500710
            1090739447 -175013480 1630158849 1576223747</internalNodes>
          <leafValues>
            -2.9725459218025208e-01 2.0192778110504150e-01</leafValues></_>
        <_>
          <internalNodes>
            0 -1 800 -51358031 -546996237 -285347849 -1423327251
            -864616801 -17301508 -1627513585 -1214476759</internalNodes>
          <leafValues>
            -1.7303749918937683e-01 3.2839405536651611e-01</leafValues></_>
        <_>
          <internalNodes>
            0 -1 1121 209608117 -1290235411 1417839307 -1221404909
            1978346276 -377241589 -70739952 -1426445507</internalNodes>
          <leafValues>
            -3.4736362099647522e-01 1.6761688888072968e-01</leafValues></_>
        <_>
          <internalNodes>
            0 -1 1008 1146462892 1161904641 -1879004985 -230542654
            1940737072 -1876746135 284834 1647405090</internalNodes>
          <leafValues>
            -3.1028011441230774e-01 1.8634873628616333e-01</leafValues></_>
        <_>
          <internalNodes>
            0 -1 152 -748961692 1025523511 -1476608151 1509003125
            1207223950 -596508681 -16806148 -125309069</internalNodes>
          <leafValues>
            -1.6665469110012054e-01 3.3533281087875366e-01</leafValues></_>
        <_>
          <internalNodes>
            0 -1 11 -1500844236 823189706 -989574739 -270454463
            -1350499078 -617578365 -364844862 -841938229</internalNodes>
          <leafValues>
            -2.6296135783195496e-01 2.1643875539302826e-01</leafValues></_>
        <_>
          <internalNodes>
            0 -1 595 233001915 1025789429 -316064036 -310776146
            1442635073 -1084227625 -303509589 -228139540</internalNodes>
          <leafValues>
            -2.2076900303363800e-01 2.5191187858581543e-01</leafValues></_>
        <_>
          <internalNodes>
            0 -1 1371 1184419077 -1300048391 -1525792515 -1077109999
            -2133391120 -611613377 -686677300 820457745</internalNodes>
          <leafValues>
            -2.6588541269302368e-01 2.1597905457019806e-01</leafValues></_>
        <_>
          <internalNodes>
            0 -1 1083 1185729893 -675479559 519957887 -739345729
            -1225523407 -1040252937 -939524131 -337978003</internalNodes>
          <leafValues>
            -1.9995552301406860e-01 2.8848582506179810e-01</leafValues></_>
        <_>
          <internalNodes>
            0 -1 1067 -322509907 1063174357 -1065279478 -850660989
            -1039576771 1664827457 -660060052 -159437065</internalNodes>
          <leafValues>
            -2.4401718378067017e-01 2.4109528958797455e-01</leafValues></_></weakClassifiers></_>
    <!-- stage 10 -->
    <_>
      <maxWeakCount>33</maxWeakCount>
      <stageThreshold>-1.9708466529846191e+00</stageThreshold>
      <weakClassifiers>
        <_>
          <internalNodes>
            0 -1 1259 -216274173 -216694520 34291714 -16056301
            2014396769 -1057800166 -1451161600 2004054551</internalNodes>
          <leafValues>
            -4.1851547360420227e-01 3.6459079384803772e-01</leafValues></_>
        <_>
          <internalNodes>
            0 -1 669 -184519680 -1322036987 730387741 -1784999875 687292
            -133109622 2046822298 624099641</internalNodes>
          <leafValues>
            -4.0311864018440247e-01 2.6130828261375427e-01</leafValues></_>
        <_>
          <internalNodes>
            0 -1 894 -737123296 -684690930 285361371 924111095
            1164445012 -637431798 -1683207815 -362259388</internalNodes>
          <leafValues>
            -3.9490771293640137e-01 2.3063601553440094e-01</leafValues></_>
        <_>
          <internalNodes>
            0 -1 153 1307675174 824306740 -1896501512 1210158128
            81792005 1031765885 -1091713104 1156840835</internalNodes>
          <leafValues>
            -2.6884725689888000e-01 3.1734097003936768e-01</leafValues></_>
        <_>
          <internalNodes>
            0 -1 9 -928850476 -1848528902 -1241729 301272865 -823210339
            -28675 -134983729 -874361344</internalNodes>
          <leafValues>
            -2.5532653927803040e-01 3.5039478540420532e-01</leafValues></_>
        <_>
          <internalNodes>
            0 -1 14 1080086272 1627480591 595792137 1363432128 739494786
            -1861154742 973841081 -9285</internalNodes>
          <leafValues>
            -2.9555746912956238e-01 2.7936536073684692e-01</leafValues></_>
        <_>
          <internalNodes>
            0 -1 80 -757346730 290679287 -268503506 355562795 1438240132
            -571408521 2088685484 672484783</internalNodes>
          <leafValues>
            -1.9675305485725403e-01 3.6902952194213867e-01</leafValues></_>
        <_>
          <internalNodes>
            0 -1 1206 -299897183 -13271513 -84621790 -38093018 72699389
            -1115815945 766774568 -39383761</internalNodes>
          <leafValues>
            -2.4353677034378052e-01 3.2259157299995422e-01</leafValues></_>
        <_>
          <internalNodes>
            0 -1 639 -1116094823 -1623478526 817832481 -1347294172
            821972157 863367151 -1669463039 -76677497</internalNodes>
          <leafValues>
            -2.1487057209014893e-01 3.5978347063064575e-01</leafValues></_>
        <_>
          <internalNodes>
            0 -1 801 -1808367660 -1201536973 -1722742505 -1693535846
            -1333628448 -1078492991 2059559037 -1902493744</internalNodes>
          <leafValues>
            -3.3777624368667603e-01 2.2556079924106598e-01</leafValues></_>
        <_>
          <internalNodes>
            0 -1 1204 -450237423 -1256981201 -1073811861 -1314083027
            -1217038601 -159416450 620701198 1631273994</internalNodes>
          <leafValues>
            -2.2342920303344727e-01 3.3498817682266235e-01</leafValues></_>
        <_>
          <internalNodes>
            0 -1 247 -14483670 531684669 -1065540 892541985 -1099933793
            745865209 1039228671 -610803765</internalNodes>
          <leafValues>
            -1.7894290387630463e-01 4.0726104378700256e-01</leafValues></_>
        <_>
          <internalNodes>
            0 -1 1142 1063691814 -1235691254 -2130673118 1556500753
            1897988299 -1601978176 -1468176312 877993247</internalNodes>
          <leafValues>
            -2.7257663011550903e-01 2.4499963223934174e-01</leafValues></_>
        <_>
          <internalNodes>
            0 -1 525 -238946097 -1588756219 -1073740542 -1006583632
            167927817 1503166537 -352200608 -54013806</internalNodes>
          <leafValues>
            -3.2982546091079712e-01 1.9336427748203278e-01</leafValues></_>
        <_>
          <internalNodes>
            0 -1 598 85023951 1932085492 1099002757 -1655635967
            809560325 -1693876149 -1182790680 -37320108</internalNodes>
          <leafValues>
            -2.6378819346427917e-01 2.6603335142135620e-01</leafValues></_>
        <_>
          <internalNodes>
            0 -1 67 1167369120 889249843 38387716 286265393 1489089155
            -1475639296 974829707 295424057</internalNodes>
          <leafValues>
            -2.8613620996475220e-01 2.4996563792228699e-01</leafValues></_>
        <_>
          <internalNodes>
            0 -1 117 -605565052 1031662709 2130541559 870154043
            -554309668 -51085443 -155736 1593392999</internalNodes>
          <leafValues>
            -1.9976437091827393e-01 3.5562518239021301e-01</leafValues></_>
        <_>
          <internalNodes>
            0 -1 1279 1568585640 -663249551 -1095778450 -172769345
            1985748188 -713195907 -1628084964 -182218917</internalNodes>
          <leafValues>
            -2.0324768126010895e-01 3.2849001884460449e-01</leafValues></_>
        <_>
          <internalNodes>
            0 -1 26 -1721239054 -1154930889 -1817527067 1941568972
            65864943 -16908545 744908011 -74588471</internalNodes>
          <leafValues>
            -1.8714995682239532e-01 3.5211810469627380e-01</leafValues></_>
        <_>
          <internalNodes>
            0 -1 1154 604093864 1074374818 -1064973440 -1844395310
            941718291 -1740111861 -1055899501 -228073449</internalNodes>
          <leafValues>
            -2.7044677734375000e-01 2.5845929980278015e-01</leafValues></_>
        <_>
          <internalNodes>
            0 -1 982 109625888 1662567195 -536559169 -813530861
            1224984672 -77528247 -635797960 -1994364880</internalNodes>
          <leafValues>
            -3.6769461631774902e-01 1.8589043617248535e-01</leafValues></_>
        <_>
          <internalNodes>
            0 -1 193 2134624055 926105401 -17158231 -1468928452
            1207244064 -1078132873 528164637 1156044715</internalNodes>
          <leafValues>
            -2.2354398667812347e-01 3.0874547362327576e-01</leafValues></_>
        <_>
          <internalNodes>
            0 -1 122 1615914752 755175708 1074794960 -1540271725
            546005476 -326623104 -74786416 1224600498</internalNodes>
          <leafValues>
            -3.3048671483993530e-01 2.0117996633052826e-01</leafValues></_>
        <_>
          <internalNodes>
            0 -1 1375 -1408731899 -1828290142 -1651320631 -39086783
            805517768 1065083068 -526376568 1269256453</internalNodes>
          <leafValues>
            -2.6083365082740784e-01 2.4858440458774567e-01</leafValues></_>
        <_>
          <internalNodes>
            0 -1 471 -1601828194 -1690389550 -716896819 715184501
            1235701901 -1152675712 1804402785 -1427592896</internalNodes>
          <leafValues>
            -3.0620712041854858e-01 2.2055047750473022e-01</leafValues></_>
        <_>
          <internalNodes>
            0 -1 18 -1567957880 -2143280688 -2129628756 -745193379
            564273221 -846020592 -880752240 -438228841</internalNodes>
          <leafValues>
            -3.4513396024703979e-01 1.9752353429794312e-01</leafValues></_>
        <_>
          <internalNodes>
            0 -1 1017 2142167843 1033875309 -285565012 -84283483
            926373359 830463807 -1610718071 -1474067443</internalNodes>
          <leafValues>
            -2.3984993994235992e-01 2.8269729018211365e-01</leafValues></_>
        <_>
          <internalNodes>
            0 -1 692 -168954453 -93929692 955102901 -86245837 1324318645
            2130443253 -1457502630 -306776186</internalNodes>
          <leafValues>
            -1.6699542105197906e-01 3.8732904195785522e-01</leafValues></_>
        <_>
          <internalNodes>
            0 -1 1028 1056406518 -790380323 -478068281 1196757973
            -1472036700 -1609842624 -1448875657 -415305220</internalNodes>
          <leafValues>
            -2.5855222344398499e-01 2.6591756939888000e-01</leafValues></_>
        <_>
          <internalNodes>
            0 -1 1427 -180571048 -1157464074 1862269949 -1304957129
            -555942463 -144001 -571192103 -83985191</internalNodes>
          <leafValues>
            -1.9255580008029938e-01 3.3084422349929810e-01</leafValues></_>
        <_>
          <internalNodes>
            0 -1 407 2113322939 929664812 804351616 -447365224 880151691
            880605116 1072617482 -18228082</internalNodes>
          <leafValues>
            -2.0970082283020020e-01 3.0251735448837280e-01</leafValues></_>
        <_>
          <internalNodes>
            0 -1 1211 1187727524 -105619191 -753925786 -804208563
            222888759 -1736408951 838928461 -447250381</internalNodes>
          <leafValues>
            -2.7450191974639893e-01 2.3318862915039062e-01</leafValues></_>
        <_>
          <internalNodes>
            0 -1 348 1401410027 -1559052371 -874155035 1998683151
            203034603 2128412509 -1343910234 -302166863</internalNodes>
          <leafValues>
            -1.7048665881156921e-01 3.8648071885108948e-01</leafValues></_></weakClassifiers></_>
    <!-- stage 11 -->
    <_>
      <maxWeakCount>33</maxWeakCount>
      <stageThreshold>-1.7593411207199097e+00</stageThreshold>
      <weakClassifiers>
        <_>
          <internalNodes>
            0 -1 1267 -784073805 1930543153 553747204 -79060461
            539033680 809066507 -1178007808 1936937539</internalNodes>
          <leafValues>
            -3.6445191502571106e-01 3.0416470766067505e-01</leafValues></_>
        <_>
          <internalNodes>
            0 -1 1135 -710287616 -142739533 -54690001 -1322795897
            1417639422 -1275134209 -807386065 -1926558449</internalNodes>
          <leafValues>
            -2.4482563138008118e-01 3.6888271570205688e-01</leafValues></_>
        <_>
          <internalNodes>
            0 -1 560 411071696 1066864080 -1920847659 -1285480675
            -1937223681 -1702641662 1972381775 -1373240560</internalNodes>
          <leafValues>
            -3.1217491626739502e-01 2.5381490588188171e-01</leafValues></_>
        <_>
          <internalNodes>
            0 -1 780 -1729081296 -653254477 -2125985355 -1760530247
            1359528133 -340160375 1298933769 -865548220</internalNodes>
          <leafValues>
            -3.4588810801506042e-01 2.0692418515682220e-01</leafValues></_>
        <_>
          <internalNodes>
            0 -1 252 905486944 899093656 1418207281 932683991 160905481
            563417226 284369248 494375025</internalNodes>
          <leafValues>
            -2.7326473593711853e-01 2.7129194140434265e-01</leafValues></_>
        <_>
          <internalNodes>
            0 -1 292 1073991810 -1182060286 387634061 462502169
            1317011638 -72268719 541747887 -1381167101</internalNodes>
          <leafValues>
            -3.0645963549613953e-01 2.2003166377544403e-01</leafValues></_>
        <_>
          <internalNodes>
            0 -1 402 -616700497 45182526 -822270088 -931582417
            -566675931 226058239 -579365072 1215025535</internalNodes>
          <leafValues>
            -1.8395511806011200e-01 3.9261844754219055e-01</leafValues></_>
        <_>
          <internalNodes>
            0 -1 1229 -899486934 1013099043 -268518240 -4264321
            1157448879 -1093337803 750065129 -582533857</internalNodes>
          <leafValues>
            -2.4987606704235077e-01 2.8025186061859131e-01</leafValues></_>
        <_>
          <internalNodes>
            0 -1 819 301430779 1360103537 -1051688184 1509970320
            -1071398731 -82796416 392033156 -1308330384</internalNodes>
          <leafValues>
            -3.4482321143150330e-01 1.9436773657798767e-01</leafValues></_>
        <_>
          <internalNodes>
            0 -1 6 8097282 301008967 1090998664 -1658910710 1738096860
            1402044544 -492385462 -491681141</internalNodes>
          <leafValues>
            -2.5303915143013000e-01 2.6199215650558472e-01</leafValues></_>
        <_>
          <internalNodes>
            0 -1 82 -42602720 825560629 1857011304 283181029 -1126855600
            -2005041801 -318804516 33268799</internalNodes>
          <leafValues>
            -2.5291612744331360e-01 2.6195803284645081e-01</leafValues></_>
        <_>
          <internalNodes>
            0 -1 198 -741100625 -2122235853 335577634 -75104128
            -1441677237 278503584 -1811226010 -53880669</internalNodes>
          <leafValues>
            -2.5215855240821838e-01 2.3823297023773193e-01</leafValues></_>
        <_>
          <internalNodes>
            0 -1 455 -695170400 -1078816549 -1006529380 -1152122615
            1493258477 -1878687221 -519106321 1241530392</internalNodes>
          <leafValues>
            -3.1099283695220947e-01 1.9204311072826385e-01</leafValues></_>
        <_>
          <internalNodes>
            0 -1 871 913849765 -2024111821 -2147286878 -1366912830
            1116678453 -526860288 -355988992 -323445980</internalNodes>
          <leafValues>
            -5.1993721723556519e-01 1.2202520668506622e-01</leafValues></_>
        <_>
          <internalNodes>
            0 -1 470 -290265648 402073060 1494028795 -1109827383
            -125137985 -1145599615 -611816629 -945675244</internalNodes>
          <leafValues>
            -2.3568330705165863e-01 2.6463064551353455e-01</leafValues></_>
        <_>
          <internalNodes>
            0 -1 1233 -2033350484 1695894752 33591882 1981416103
            -1844442995 -1945861494 -1341123696 1895909527</internalNodes>
          <leafValues>
            -2.8635746240615845e-01 2.0794978737831116e-01</leafValues></_>
        <_>
          <internalNodes>
            0 -1 968 -1174685007 817470489 -1074790621 -273809870
            -965718851 1207373045 -1959187336 -1285560721</internalNodes>
          <leafValues>
            -2.1338540315628052e-01 2.9273349046707153e-01</leafValues></_>
        <_>
          <internalNodes>
            0 -1 730 1352972459 1008843428 999910913 -609896431
            879822258 -1662126091 -1665106014 -530907454</internalNodes>
          <leafValues>
            -2.2111387550830841e-01 2.8725382685661316e-01</leafValues></_>
        <_>
          <internalNodes>
            0 -1 1205 1084403488 -636366963 -2011114686 -524004964
            1828995319 -1308557048 -1435622754 -1514848221</internalNodes>
          <leafValues>
            -2.8363189101219177e-01 2.1924647688865662e-01</leafValues></_>
        <_>
          <internalNodes>
            0 -1 106 1079690120 553847061 50669569 285298944 311103616
            -625966949 743450784 -1413141824</internalNodes>
          <leafValues>
            -3.1307825446128845e-01 1.9651357829570770e-01</leafValues></_>
        <_>
          <internalNodes>
            0 -1 1013 2073015460 -62539362 -1342156565 -698416356
            286482849 -123142016 -1475057656 -320469446</internalNodes>
          <leafValues>
            -2.4509713053703308e-01 2.4914288520812988e-01</leafValues></_>
        <_>
          <internalNodes>
            0 -1 464 -1803531744 -1147583792 -1969543120 -753249864
            1361920064 -743063406 10053969 -13961931</internalNodes>
          <leafValues>
            -2.7510038018226624e-01 2.2176700830459595e-01</leafValues></_>
        <_>
          <internalNodes>
            0 -1 1371 -1960804096 -1718000075 1237386139 353755217
            1084754144 2090549711 520299150 590037521</internalNodes>
          <leafValues>
            -2.7333968877792358e-01 2.2871135175228119e-01</leafValues></_>
        <_>
          <internalNodes>
            0 -1 537 -645143933 -1349414763 1091248205 176729957
            570577089 -1558671353 -68654680 1288698193</internalNodes>
          <leafValues>
            -2.7453261613845825e-01 2.2035837173461914e-01</leafValues></_>
        <_>
          <internalNodes>
            0 -1 1286 -1562344580 -1120624298 428232986 -1152945899
            -90482479 705921044 -1081599044 1863465264</internalNodes>
          <leafValues>
            -3.5783794522285461e-01 1.9025006890296936e-01</leafValues></_>
        <_>
          <internalNodes>
            0 -1 935 1055878011 -561883697 -1765252873 1239248975
            -1339034839 -409829206 44861535 -2120297699</internalNodes>
          <leafValues>
            -2.5878474116325378e-01 2.3344430327415466e-01</leafValues></_>
        <_>
          <internalNodes>
            0 -1 58 -2037464062 450068528 1082323214 237098528
            1481134166 -209010287 2009927695 1670568568</internalNodes>
          <leafValues>
            -3.3701193332672119e-01 1.7863155901432037e-01</leafValues></_>
        <_>
          <internalNodes>
            0 -1 113 -717505793 -114164337 1608612829 -37896181
            2105216767 -508192053 1047254267 -537928453</internalNodes>
          <leafValues>
            -9.4631001353263855e-02 6.5994018316268921e-01</leafValues></_>
        <_>
          <internalNodes>
            0 -1 288 44720290 -1554407016 1620615361 522208684
            -1870132298 -75464487 -2146908488 -375042311</internalNodes>
          <leafValues>
            -3.3031105995178223e-01 1.8638019263744354e-01</leafValues></_>
        <_>
          <internalNodes>
            0 -1 1386 -116740550 -876277848 -1367453982 -339808782
            930574331 -1225123916 913638611 494624295</internalNodes>
          <leafValues>
            -2.0905815064907074e-01 2.9733934998512268e-01</leafValues></_>
        <_>
          <internalNodes>
            0 -1 93 -159478480 365957904 -905952696 816009475
            -1945205695 -1297407863 180537916 210258413</internalNodes>
          <leafValues>
            -3.2199069857597351e-01 1.8529662489891052e-01</leafValues></_>
        <_>
          <internalNodes>
            0 -1 668 -398054352 -1294480459 -2080288047 776262200
            1217031592 -845512653 -309852340 -1540734967</internalNodes>
          <leafValues>
            -3.0786231160163879e-01 1.8746861815452576e-01</leafValues></_>
        <_>
          <internalNodes>
            0 -1 147 286324745 1359167885 -1056915197 -1139470332
            302701512 -737099598 -1372869088 -84443664</internalNodes>
          <leafValues>
            -2.2706100344657898e-01 2.6048013567924500e-01</leafValues></_></weakClassifiers></_>
    <!-- stage 12 -->
    <_>
      <maxWeakCount>47</maxWeakCount>
      <stageThreshold>-1.9089417457580566e+00</stageThreshold>
      <weakClassifiers>
        <_>
          <internalNodes>
            0 -1 320 2099630858 2076681091 417604180 -136218880
            1140313007 -167908609 -1918304838 -1315441</internalNodes>
          <leafValues>
            -3.0105417966842651e-01 3.2650890946388245e-01</leafValues></_>
        <_>
          <internalNodes>
            0 -1 1131 -142846688 -740977807 -468858369 -1313897715
            -133400066 -83591038 -1268098566 -1473297143</internalNodes>
          <leafValues>
            -2.6204752922058105e-01 2.6953613758087158e-01</leafValues></_>
        <_>
          <internalNodes>
            0 -1 266 -535649280 -49220222 1358955837 -1648348912
            36295328 -223280831 1791344873 -297340928</internalNodes>
          <leafValues>
            -3.1903138756752014e-01 2.1631251275539398e-01</leafValues></_>
        <_>
          <internalNodes>
            0 -1 184 -878066138 162737963 -1360056786 762555960
            232036144 527793727 -1661233871 14153699</internalNodes>
          <leafValues>
            -2.3792992532253265e-01 2.7363252639770508e-01</leafValues></_>
        <_>
          <internalNodes>
            0 -1 66 -925134966 856786347 -15371455 -1659895552
            1401013950 -1170505297 -97858561 -1344991233</internalNodes>
          <leafValues>
            -2.8043013811111450e-01 2.4957662820816040e-01</leafValues></_>
        <_>
          <internalNodes>
            0 -1 937 921663927 735841737 155812184 -1431206 -644619333
            -1834448744 -251542856 -71303760</internalNodes>
          <leafValues>
            -2.5445863604545593e-01 2.5902268290519714e-01</leafValues></_>
        <_>
          <internalNodes>
            0 -1 1274 -823663384 -120472267 -4314100 1497054904
            -176401044 -587903401 -1494276120 1965130967</internalNodes>
          <leafValues>
            -2.4500846862792969e-01 2.5728157162666321e-01</leafValues></_>
        <_>
          <internalNodes>
            0 -1 116 -545814784 1025583930 -17154444 497647148
            1961614860 -813694979 1023318956 -1140113433</internalNodes>
          <leafValues>
            -2.1657656133174896e-01 2.8536447882652283e-01</leafValues></_>
        <_>
          <internalNodes>
            0 -1 982 -1202936780 1880145947 1510474045 -150371685
            -1727937140 -376371075 713570969 -1442590967</internalNodes>
          <leafValues>
            -2.2673632204532623e-01 2.4743777513504028e-01</leafValues></_>
        <_>
          <internalNodes>
            0 -1 10 -1528245426 463324247 1494291347 -1385594623
            -1736414224 -89943918 170060671 -885830377</internalNodes>
          <leafValues>
            -2.5336357951164246e-01 2.3072749376296997e-01</leafValues></_>
        <_>
          <internalNodes>
            0 -1 1231 -463409522 1277312307 -1342394574 2124610738
            1278232511 -1140883468 -457941929 -1049368777</internalNodes>
          <leafValues>
            -2.1087358891963959e-01 2.7176427841186523e-01</leafValues></_>
        <_>
          <internalNodes>
            0 -1 517 -511795200 -71463050 -286364064 -9170958 1249863236
            -1377337474 -992710712 -1207701509</internalNodes>
          <leafValues>
            -1.9714599847793579e-01 3.0011129379272461e-01</leafValues></_>
        <_>
          <internalNodes>
            0 -1 219 -150097998 -1216292588 1074379312 -2045766864
            -916919071 697335961 -435552022 -587531633</internalNodes>
          <leafValues>
            -2.7116304636001587e-01 2.1235218644142151e-01</leafValues></_>
        <_>
          <internalNodes>
            0 -1 562 279995584 -1164737612 -1580168995 -1681897344
            -1459856199 -1415937848 610277852 739271220</internalNodes>
          <leafValues>
            -4.6077030897140503e-01 1.1660698056221008e-01</leafValues></_>
        <_>
          <internalNodes>
            0 -1 962 368360447 -1346666101 -1056948029 -988512253
            -1869919107 -805071816 -761295840 -303235356</internalNodes>
          <leafValues>
            -2.6021075248718262e-01 2.0620752871036530e-01</leafValues></_>
        <_>
          <internalNodes>
            0 -1 38 -170556662 6376753 -272683479 279000851 -419582357
            -1082230919 -2118285 -1917069921</internalNodes>
          <leafValues>
            -2.0245757699012756e-01 2.8983625769615173e-01</leafValues></_>
        <_>
          <internalNodes>
            0 -1 1006 1892131364 -522871790 -796258177 1427925453
            809500731 -411008946 -1461188312 -1942715602</internalNodes>
          <leafValues>
            -2.8994426131248474e-01 1.9915980100631714e-01</leafValues></_>
        <_>
          <internalNodes>
            0 -1 839 937652735 -2087956221 -1056542440 -1789439529
            -1970965679 -1308442494 1779170237 -306988515</internalNodes>
          <leafValues>
            -2.3041607439517975e-01 2.3624309897422791e-01</leafValues></_>
        <_>
          <internalNodes>
            0 -1 178 1163317130 61069636 -510274876 2026914576
            1091242274 1603371521 -266080332 1417542342</internalNodes>
          <leafValues>
            -3.4096986055374146e-01 1.5591822564601898e-01</leafValues></_>
        <_>
          <internalNodes>
            0 -1 4 -368800520 845123650 -251243769 -1120728316 730204318
            -108384243 1754311119 -1541223149</internalNodes>
          <leafValues>
            -2.4314872920513153e-01 2.1780060231685638e-01</leafValues></_>
        <_>
          <internalNodes>
            0 -1 1194 -668665772 -191884653 1360023871 319082676
            -922695211 -133545975 -259983156 1649584432</internalNodes>
          <leafValues>
            -2.3481732606887817e-01 2.2262866795063019e-01</leafValues></_>
        <_>
          <internalNodes>
            0 -1 257 -1105282124 894566417 1343390489 -552746972
            690542668 -1575993340 1344280644 230097957</internalNodes>
          <leafValues>
            -2.5502219796180725e-01 2.0511898398399353e-01</leafValues></_>
        <_>
          <internalNodes>
            0 -1 611 321122575 -2136747866 50332944 -392392696 27398594
            9013361 -400426990 -196414746</internalNodes>
          <leafValues>
            -2.8703859448432922e-01 1.7963346838951111e-01</leafValues></_>
        <_>
          <internalNodes>
            0 -1 877 -2006284759 -1088765685 -268345070 -1281719885
            -878149463 -1174404607 -295823187 -1943922939</internalNodes>
          <leafValues>
            -3.2669383287429810e-01 1.6178217530250549e-01</leafValues></_>
        <_>
          <internalNodes>
            0 -1 1040 1885285928 1830858764 1082251812 -679165302
            1172404576 958366123 1098996769 1634163206</internalNodes>
          <leafValues>
            -3.9173662662506104e-01 1.4134003221988678e-01</leafValues></_>
        <_>
          <internalNodes>
            0 -1 700 721056693 -23984106 -1065051735 1420062982
            -327008079 -1955364863 -374791395 -1465095916</internalNodes>
          <leafValues>
            -3.1077837944030762e-01 1.6444815695285797e-01</leafValues></_>
        <_>
          <internalNodes>
            0 -1 22 815848400 583119302 1496645845 297877710 -1597046130
            -776896381 -342482832 -278434821</internalNodes>
          <leafValues>
            -2.3164336383342743e-01 2.2501887381076813e-01</leafValues></_>
        <_>
          <internalNodes>
            0 -1 669 1913150464 1076581285 -2122259209 343696156
            1484945988 -1407811365 940092990 -1532915909</internalNodes>
          <leafValues>
            -3.4160894155502319e-01 1.4593553543090820e-01</leafValues></_>
        <_>
          <internalNodes>
            0 -1 1000 -164563232 -239294476 1039957457 -1241629016
            -1208566571 -444793346 -453558868 -1409671524</internalNodes>
          <leafValues>
            -1.7659580707550049e-01 3.2092878222465515e-01</leafValues></_>
        <_>
          <internalNodes>
            0 -1 413 -4988009 -243581020 364200889 -618026311 -553740050
            1173743459 -1661363957 -570429718</internalNodes>
          <leafValues>
            -1.2707760930061340e-01 4.2940941452980042e-01</leafValues></_>
        <_>
          <internalNodes>
            0 -1 110 -172492289 1404546815 -1075790931 2065774367
            -1359489813 -136970241 545058295 -50342737</internalNodes>
          <leafValues>
            -8.2465827465057373e-02 5.5425918102264404e-01</leafValues></_>
        <_>
          <internalNodes>
            0 -1 553 -21697216 -542494870 -1090620172 -137039904
            2102417792 930971516 1610606548 -378608320</internalNodes>
          <leafValues>
            -2.1784117817878723e-01 2.3998333513736725e-01</leafValues></_>
