<?xml version="1.0"?>
<opencv_storage>
<white_round_tablet_flat_30>
  <stageType>BOOST</stageType>
  <featureType>LBP</featureType>
  <height>12</height>
  <width>16</width>
  <stageParams>
    <boostType>GAB</boostType>
    <minHitRate>9.9988478422164917e-01</minHitRate>
    <maxFalseAlarm>5.0000000000000000e-01</maxFalseAlarm>
    <weightTrimRate>9.4999999999999996e-01</weightTrimRate>
    <maxDepth>1</maxDepth>
    <maxWeakCount>500</maxWeakCount></stageParams>
  <featureParams>
    <maxCatCount>256</maxCatCount>
    <featSize>1</featSize></featureParams>
  <stageNum>30</stageNum>
  <stages>
    <!-- stage 0 -->
    <_>
      <maxWeakCount>7</maxWeakCount>
      <stageThreshold>-2.3881793022155762e+00</stageThreshold>
      <weakClassifiers>
        <_>
          <internalNodes>
            0 -1 276 -603660836 -4325377 -537001985 -131585 -268644355
            -1 -4984897 -1</internalNodes>
          <leafValues>
            -7.3401755094528198e-01 8.5760676860809326e-01</leafValues></_>
        <_>
          <internalNodes>
            0 -1 151 -892809508 -11353858 -8861187 -392008 -339619881
            -15649 -829518081 -1342764481</internalNodes>
          <leafValues>
            -6.6858720779418945e-01 5.8671975135803223e-01</leafValues></_>
        <_>
          <internalNodes>
            0 -1 540 -704653836 -570589259 -536879651 -16385 -826397188
            -32769 247204024 -1347474757</internalNodes>
          <leafValues>
            -5.4398417472839355e-01 6.6434448957443237e-01</leafValues></_>
        <_>
          <internalNodes>
            0 -1 483 781197172 -98339 -2097153 -246275 -1078314243
            -66625 -376835 -1078186627</internalNodes>
          <leafValues>
            -7.3958110809326172e-01 4.4191154837608337e-01</leafValues></_>
        <_>
          <internalNodes>
            0 -1 473 -108332512 -1262890667 -34502145 -1657458241
            -1182024776 -1080489559 730729227 1058745143</internalNodes>
          <leafValues>
            -5.7303774356842041e-01 4.6183025836944580e-01</leafValues></_>
        <_>
          <internalNodes>
            0 -1 20 -46639279 -467977 -308282889 -46210085 -723727
            -1073747021 -14754308 -286747200</internalNodes>
          <leafValues>
            -4.7767525911331177e-01 4.8317396640777588e-01</leafValues></_>
        <_>
          <internalNodes>
            0 -1 488 -21168132 -17105315 -70591521 -1076200455 -370179
            -265825 -6369283 -1346756748</internalNodes>
          <leafValues>
            -7.0044314861297607e-01 3.1383576989173889e-01</leafValues></_></weakClassifiers></_>
    <!-- stage 1 -->
    <_>
      <maxWeakCount>11</maxWeakCount>
      <stageThreshold>-2.6305551528930664e+00</stageThreshold>
      <weakClassifiers>
        <_>
          <internalNodes>
            0 -1 341 -40050724 -1 -131073 -8705 -4390913 -1 -1052673 -1</internalNodes>
          <leafValues>
            -6.9236373901367188e-01 7.7164202928543091e-01</leafValues></_>
        <_>
          <internalNodes>
            0 -1 356 -572656140 -587342337 -1107460097 -33566721 -72
            -8707 -48899 -4214785</internalNodes>
          <leafValues>
            -5.4074454307556152e-01 6.1193931102752686e-01</leafValues></_>
        <_>
          <internalNodes>
            0 -1 42 -891105570 -2447910 2140139519 -1378121557
            -2010116617 -4540257 -288093961 251594943</internalNodes>
          <leafValues>
            -6.6573816537857056e-01 4.0940210223197937e-01</leafValues></_>
        <_>
          <internalNodes>
            0 -1 577 -1095230160 -1610760193 -2107395 -1073856515
            -1073807363 -3141 -1145373700 -1078444039</internalNodes>
          <leafValues>
            -6.4580816030502319e-01 3.6958232522010803e-01</leafValues></_>
        <_>
          <internalNodes>
            0 -1 608 -4459248 -1114265699 -1652294145 -1124773057
            993209004 -1078811959 -1656575170 -1187824873</internalNodes>
          <leafValues>
            -4.9769642949104309e-01 4.5523741841316223e-01</leafValues></_>
        <_>
          <internalNodes>
            0 -1 161 -23142404 -1223281194 -575483427 -1078851296
            -1146422273 -342652710 -68464641 465240595</internalNodes>
          <leafValues>
            -5.9144949913024902e-01 3.9638304710388184e-01</leafValues></_>
        <_>
          <internalNodes>
            0 -1 89 254295921 896536341 -541237473 -1086906371 905732089
            -1124074249 -1375961875 -1049073</internalNodes>
          <leafValues>
            -4.0584227442741394e-01 5.2249866724014282e-01</leafValues></_>
        <_>
          <internalNodes>
            0 -1 541 747658613 -1075908097 -11272705 -268501163
            -1209337092 -5310789 -1073856516 -1363387012</internalNodes>
          <leafValues>
            -6.6439014673233032e-01 3.3382523059844971e-01</leafValues></_>
        <_>
          <internalNodes>
            0 -1 463 -1095073924 -1082132773 -154544163 -1077951529
            -1147453959 -4220513 -1196745733 -1946215077</internalNodes>
          <leafValues>
            -5.7833993434906006e-01 2.7177351713180542e-01</leafValues></_>
        <_>
          <internalNodes>
            0 -1 435 -1360241155 -1074077697 -685313539 -1073816161
            2078964717 -4482897 -67735171 -1359466639</internalNodes>
          <leafValues>
            -5.9004718065261841e-01 2.9306238889694214e-01</leafValues></_>
        <_>
          <internalNodes>
            0 -1 678 -1983922411 -1785377327 -141959719 -2017436344
            468193701 -1682978327 998902256 -1363529161</internalNodes>
          <leafValues>
            -4.7712373733520508e-01 3.4514948725700378e-01</leafValues></_></weakClassifiers></_>
    <!-- stage 2 -->
    <_>
      <maxWeakCount>15</maxWeakCount>
      <stageThreshold>-2.5273594856262207e+00</stageThreshold>
      <weakClassifiers>
        <_>
          <internalNodes>
            0 -1 132 -615710756 -536870945 -1179649 -1 -273371145 -1
            -809505089 -1</internalNodes>
          <leafValues>
            -6.3958227634429932e-01 6.8887114524841309e-01</leafValues></_>
        <_>
          <internalNodes>
            0 -1 474 -574620676 -855646337 -65569 -201850881 -4612
            -134742539 -272709910 -1</internalNodes>
          <leafValues>
            -4.6598112583160400e-01 5.5064827203750610e-01</leafValues></_>
        <_>
          <internalNodes>
            0 -1 233 -1431433476 -383020 -2394113 -12704840 -908021761
            -71372599 -811267649 -272684799</internalNodes>
          <leafValues>
            -5.4029679298400879e-01 4.6210342645645142e-01</leafValues></_>
        <_>
          <internalNodes>
            0 -1 527 -5246704 -1133478655 -1748541537 -1126837473
            -8126536 -1080313197 253962303 1060318003</internalNodes>
          <leafValues>
            -5.3067392110824585e-01 3.5408422350883484e-01</leafValues></_>
        <_>
          <internalNodes>
            0 -1 296 -4268108 -1088524332 -39848643 -1080161499
            -1109989643 -6557037 -1613824387 -1343611595</internalNodes>
          <leafValues>
            -5.6012243032455444e-01 3.3992302417755127e-01</leafValues></_>
        <_>
          <internalNodes>
            0 -1 80 1067989808 892340017 -141168165 1060320689
            -1889116235 -1130614077 -1150789276 -11393</internalNodes>
          <leafValues>
            -4.3577897548675537e-01 4.2478838562965393e-01</leafValues></_>
        <_>
          <internalNodes>
            0 -1 536 -1397220236 -632359 -1313793 -1073816577 -70357505
            -72616475 -71417859 -1078299663</internalNodes>
          <leafValues>
            -5.8348226547241211e-01 3.0234402418136597e-01</leafValues></_>
        <_>
          <internalNodes>
            0 -1 138 -421346082 -2940503 -686302721 629122045 -534771275
            -1090862930 -943370796 150405247</internalNodes>
          <leafValues>
            -5.5154150724411011e-01 2.7931395173072815e-01</leafValues></_>
        <_>
          <internalNodes>
            0 -1 540 -570830344 -858163817 -582853380 -571231849
            -1105197649 -5402456 205654072 -1398338945</internalNodes>
          <leafValues>
            -4.7534045577049255e-01 3.5543969273567200e-01</leafValues></_>
        <_>
          <internalNodes>
            0 -1 468 -1128522627 -117793 -141041699 -1073809953
            -1074830851 -72425985 -1145356963 -1346761419</internalNodes>
          <leafValues>
            -5.1798492670059204e-01 3.2823696732521057e-01</leafValues></_>
        <_>
          <internalNodes>
            0 -1 9 -43199524 -218194117 -302309889 -1343648369
            -1402069553 -1073758211 -2013329713 -823440313</internalNodes>
          <leafValues>
            -3.1754314899444580e-01 5.1579040288925171e-01</leafValues></_>
        <_>
          <internalNodes>
            0 -1 484 -4259851 -4734551 -715142243 -343113 -68494667
            -1415872509 -67195077 -1359334019</internalNodes>
          <leafValues>
            -4.6014609932899475e-01 3.1696078181266785e-01</leafValues></_>
        <_>
          <internalNodes>
            0 -1 434 757873456 -1180698345 -1749728835 -1086801091
            -206913604 -41700978 1944863708 -328619477</internalNodes>
          <leafValues>
            -4.0278175473213196e-01 3.4876352548599243e-01</leafValues></_>
        <_>
          <internalNodes>
            0 -1 425 -1078039044 -67305213 -708325285 -1077459003
            983258085 -37781489 -237965589 -1342212763</internalNodes>
          <leafValues>
            -4.8659151792526245e-01 2.9517427086830139e-01</leafValues></_>
        <_>
          <internalNodes>
            0 -1 618 -1078265423 -1413498529 -134876673 -1076209249
            -72352772 -1147419925 -335664664 -1363263624</internalNodes>
          <leafValues>
            -4.3161123991012573e-01 3.0959135293960571e-01</leafValues></_></weakClassifiers></_>
    <!-- stage 3 -->
    <_>
      <maxWeakCount>17</maxWeakCount>
      <stageThreshold>-2.6779582500457764e+00</stageThreshold>
      <weakClassifiers>
        <_>
          <internalNodes>
            0 -1 279 -548405252 -58851361 -393249 -1 -273682449 -4194307
            -1 -33</internalNodes>
          <leafValues>
            -5.5973684787750244e-01 6.6512566804885864e-01</leafValues></_>
        <_>
          <internalNodes>
            0 -1 151 -18952482 -545090 -4225 -21313 -17371177 -1
            -440938497 -6401</internalNodes>
          <leafValues>
            -4.3100425601005554e-01 5.1709258556365967e-01</leafValues></_>
        <_>
          <internalNodes>
            0 -1 539 -8422640 -1182793921 -81956 -1120682177 -1074282564
            -1157701700 -20840 -1371820241</internalNodes>
          <leafValues>
            -3.9642962813377380e-01 4.7210800647735596e-01</leafValues></_>
        <_>
          <internalNodes>
            0 -1 469 -1078050820 -273 -3157569 -271617121 -1076133905
            -1077188373 -544246913 -1342235269</internalNodes>
          <leafValues>
            -5.6169587373733521e-01 3.2763624191284180e-01</leafValues></_>
        <_>
          <internalNodes>
            0 -1 232 -74241 1068630384 -549236321 1068630576 -71378191
            -1347448555 -71902987 1035670901</internalNodes>
          <leafValues>
            -4.9951159954071045e-01 3.1823360919952393e-01</leafValues></_>
        <_>
          <internalNodes>
            0 -1 39 -1161986 -9196042 -33587713 2147454463 -923875842
            -1091043457 -1060663307 139922687</internalNodes>
          <leafValues>
            -3.5173675417900085e-01 4.3886807560920715e-01</leafValues></_>
        <_>
          <internalNodes>
            0 -1 578 -4259844 -102853750 -2029811069 -6311493
            -1140912223 -1680899669 -67229156 -1430644620</internalNodes>
          <leafValues>
            -5.4981833696365356e-01 3.0687144398689270e-01</leafValues></_>
        <_>
          <internalNodes>
            0 -1 89 1059987453 1031214885 -1073774721 1064517567
            -1263716675 -67371785 -1350801924 -268441857</internalNodes>
          <leafValues>
            -3.2089850306510925e-01 4.7429478168487549e-01</leafValues></_>
        <_>
          <internalNodes>
            0 -1 117 -1991982272 -37824258 1464062936 2111764820
            -1148784160 -16086867 -3343435 -18415627</internalNodes>
          <leafValues>
            -6.4591646194458008e-01 2.4453344941139221e-01</leafValues></_>
        <_>
          <internalNodes>
            0 -1 231 -353499149 2118007099 -70517293 -126474 -492226121
            -72240853 -902042243 -1376320155</internalNodes>
          <leafValues>
            -3.9569851756095886e-01 3.6923325061798096e-01</leafValues></_>
        <_>
          <internalNodes>
            0 -1 620 -205014752 -1950354166 -544387098 -1914724049
            212146165 -49756101 -1883569988 -1364525445</internalNodes>
          <leafValues>
            -4.2471760511398315e-01 3.1613805890083313e-01</leafValues></_>
        <_>
          <internalNodes>
            0 -1 269 -429760683 -32440873 -3179777 -1346467623 -47343116
            -17128513 -1342401928 -1431810928</internalNodes>
          <leafValues>
            -3.9685049653053284e-01 3.6035534739494324e-01</leafValues></_>
        <_>
          <internalNodes>
            0 -1 650 -34865407 -1246642369 -1283576833 -1322795201
            -2064143180 -1711276097 2096966973 -384695246</internalNodes>
          <leafValues>
            -3.3881238102912903e-01 3.9433220028877258e-01</leafValues></_>
        <_>
          <internalNodes>
            0 -1 304 -1392615595 -1099426923 -8482145 -1078054021
            -1615984527 -1112569681 -1144645012 -1346752964</internalNodes>
          <leafValues>
            -4.9796402454376221e-01 2.8638920187950134e-01</leafValues></_>
        <_>
          <internalNodes>
            0 -1 515 -1158144004 -1614817665 -120401761 -1080421423
            283790073 -1836363641 -1299491941 -1356129921</internalNodes>
          <leafValues>
            -5.7710635662078857e-01 2.1782174706459045e-01</leafValues></_>
        <_>
          <internalNodes>
            0 -1 694 -1447053379 -1530170182 -82868497 891736466
            679280892 -1432180591 197789932 238755135</internalNodes>
          <leafValues>
            -3.8421246409416199e-01 3.1735071539878845e-01</leafValues></_>
        <_>
          <internalNodes>
            0 -1 35 -300089355 -772241541 -321473173 -74305 -1795176973
            -50340481 192431581 -860566307</internalNodes>
          <leafValues>
            -3.4474638104438782e-01 4.0216380357742310e-01</leafValues></_></weakClassifiers></_>
    <!-- stage 4 -->
    <_>
      <maxWeakCount>19</maxWeakCount>
      <stageThreshold>-2.5310015678405762e+00</stageThreshold>
      <weakClassifiers>
        <_>
          <internalNodes>
            0 -1 31 -539033634 -262241 -16385 -257 -273289245 -331777
            -339743009 -5121</internalNodes>
          <leafValues>
            -5.5166345834732056e-01 5.5668753385543823e-01</leafValues></_>
        <_>
          <internalNodes>
            0 -1 491 -34606316 -1242054657 -134365188 -1065169 -4
            -8388610 -1342333704 -1398018118</internalNodes>
          <leafValues>
            -4.3600994348526001e-01 4.4805327057838440e-01</leafValues></_>
        <_>
          <internalNodes>
            0 -1 295 -1364456195 -85026 -77597185 -13173284 -340836865
            -69469201 -873731075 -1342223947</internalNodes>
          <leafValues>
            -4.6412616968154907e-01 3.6333101987838745e-01</leafValues></_>
        <_>
          <internalNodes>
            0 -1 513 -974694416 -523894789 -785359906 -187376690
            -643081483 -588275575 -104169763 -33599243</internalNodes>
          <leafValues>
            -5.4989498853683472e-01 2.9492777585983276e-01</leafValues></_>
        <_>
          <internalNodes>
            0 -1 176 176299477 1060575063 -67280931 926035763 2095480053
            -1073775116 -1368285671 -1342191753</internalNodes>
          <leafValues>
            -3.6600795388221741e-01 4.5368987321853638e-01</leafValues></_>
        <_>
          <internalNodes>
            0 -1 470 -268763148 -1124501 -242761689 2141610497
            -207627391 -320370677 -1348691 -16777883</internalNodes>
          <leafValues>
            -5.0761818885803223e-01 2.6713740825653076e-01</leafValues></_>
        <_>
          <internalNodes>
            0 -1 614 -1078132812 -1073742465 -268500993 -1073807361
            -1073807364 -83886081 -1073938436 -1363509705</internalNodes>
          <leafValues>
            -3.7199005484580994e-01 4.4555404782295227e-01</leafValues></_>
        <_>
          <internalNodes>
            0 -1 1 -581118764 -70363241 1945552088 -13906039 -919546652
            -82197489 -2000156644 -2010595148</internalNodes>
          <leafValues>
            -4.1578811407089233e-01 3.1074392795562744e-01</leafValues></_>
        <_>
          <internalNodes>
            0 -1 345 -216469476 938817559 319832495 -1222696657
            1058712495 -1077213039 1863788079 926621503</internalNodes>
          <leafValues>
            -4.2063865065574646e-01 3.2776677608489990e-01</leafValues></_>
        <_>
          <internalNodes>
            0 -1 475 -1363657355 -2632741 -141438497 -1074810465
            -1142211601 -125068573 -296467 -1162142671</internalNodes>
          <leafValues>
            -4.4879025220870972e-01 2.8340205550193787e-01</leafValues></_>
        <_>
          <internalNodes>
            0 -1 676 -1414861024 -1120024638 -688924077 -1078005489
            160063420 -7613509 -1683335432 787627831</internalNodes>
          <leafValues>
            -5.1877176761627197e-01 2.5414380431175232e-01</leafValues></_>
        <_>
          <internalNodes>
            0 -1 537 -327683 1402187919 1938522155 -10751093 869202879
            2029240323 -1098188161 201227129</internalNodes>
          <leafValues>
            -4.6038159728050232e-01 2.8837791085243225e-01</leafValues></_>
        <_>
          <internalNodes>
            0 -1 92 -2012981164 878584535 -922197713 631779586 6636004
            1418068108 1780015934 1339713066</internalNodes>
          <leafValues>
            -3.9424335956573486e-01 3.1318950653076172e-01</leafValues></_>
        <_>
          <internalNodes>
            0 -1 39 -368949178 1461059856 1665225215 100386268
            -935228308 -1157496823 -2142908875 5701823</internalNodes>
          <leafValues>
            -5.2515614032745361e-01 2.3755297064781189e-01</leafValues></_>
        <_>
          <internalNodes>
            0 -1 375 -826520195 -1213309569 -75787297 1073353591
            -1145423311 -1147156306 -1409388193 -1073856656</internalNodes>
          <leafValues>
            -4.5221146941184998e-01 2.4756790697574615e-01</leafValues></_>
        <_>
          <internalNodes>
            0 -1 83 -964104484 978452531 524551197 221642758 1407697125
            126714056 -238564673 -547421582</internalNodes>
          <leafValues>
            -3.7616962194442749e-01 3.0191701650619507e-01</leafValues></_>
        <_>
          <internalNodes>
            0 -1 706 -1912682187 -537444747 -269585633 -549470351
            -1703699530 -34243139 1189743837 -550175439</internalNodes>
          <leafValues>
            -2.9625546932220459e-01 3.9784637093544006e-01</leafValues></_>
        <_>
          <internalNodes>
            0 -1 19 -1599582656 -2012423028 -686140744 -1260730120
            193875232 -1899306358 -557647180 -16852516</internalNodes>
          <leafValues>
            -8.2637137174606323e-01 1.6683000326156616e-01</leafValues></_>
        <_>
          <internalNodes>
            0 -1 94 985279797 981097838 -50831425 -1087170243 1249303760
            -1207992707 -587268739 -1319203</internalNodes>
          <leafValues>
            -3.3688709139823914e-01 3.5648575425148010e-01</leafValues></_></weakClassifiers></_>
    <!-- stage 5 -->
    <_>
      <maxWeakCount>23</maxWeakCount>
      <stageThreshold>-2.3107645511627197e+00</stageThreshold>
      <weakClassifiers>
        <_>
          <internalNodes>
            0 -1 346 -780273668 -58854913 -1156492289 -830977 1315695615
            -73140079 -1073751057 -2106385</internalNodes>
          <leafValues>
            -5.0375580787658691e-01 4.7605171799659729e-01</leafValues></_>
        <_>
          <internalNodes>
            0 -1 160 -353498370 -136436737 2046560767 -4708418
            -386421761 -74766208 -1415771221 -536900301</internalNodes>
          <leafValues>
            -4.7937893867492676e-01 4.5234453678131104e-01</leafValues></_>
        <_>
          <internalNodes>
            0 -1 122 -29851855 -33654915 -541473389 -241316 -605911920
            -576072789 -208779 -890184380</internalNodes>
          <leafValues>
            -4.1094976663589478e-01 3.7903249263763428e-01</leafValues></_>
        <_>
          <internalNodes>
            0 -1 617 -570688076 -906628165 -984952385 -241183861
            258280892 -610795333 247400504 -273991045</internalNodes>
          <leafValues>
            -4.0666475892066956e-01 3.8941261172294617e-01</leafValues></_>
        <_>
          <internalNodes>
            0 -1 417 -1074110468 -147341153 -738736945 -69508975
            -1276482563 -310198269 -1158843796 -1342222869</internalNodes>
          <leafValues>
            -5.3462195396423340e-01 2.5103172659873962e-01</leafValues></_>
        <_>
          <internalNodes>
            0 -1 82 -96797220 1033050525 -1074299011 1059266051
            -13576204 -1912668707 2113586680 -1281</internalNodes>
          <leafValues>
            -2.9425001144409180e-01 5.4811090230941772e-01</leafValues></_>
        <_>
          <internalNodes>
            0 -1 354 -790809899 -1124352203 -1216730180 -1356683486
            -319517196 -196624460 1681132545 -720134912</internalNodes>
          <leafValues>
            -2.3755952715873718e-01 5.1160842180252075e-01</leafValues></_>
        <_>
          <internalNodes>
            0 -1 645 -369364159 -1716159045 -273028097 -174817513
            1823669500 -570556417 -1476517954 -176982157</internalNodes>
          <leafValues>
            -3.3829364180564880e-01 3.7141048908233643e-01</leafValues></_>
        <_>
          <internalNodes>
            0 -1 69 -574039044 -1713450817 77395294 -1992392692
            -72422148 1671136137 -807434785 498926643</internalNodes>
          <leafValues>
            -4.8754936456680298e-01 2.7158519625663757e-01</leafValues></_>
        <_>
          <internalNodes>
            0 -1 577 -1163378832 -35802226 -7088677 -1075955745
            -1140883460 -79965797 -338789411 -1090897040</internalNodes>
          <leafValues>
            -5.3600406646728516e-01 2.4255400896072388e-01</leafValues></_>
        <_>
          <internalNodes>
            0 -1 248 707937525 1064967953 -1122561605 1035605267
            618682868 -1162621733 -1564597059 -1342284685</internalNodes>
          <leafValues>
            -4.3221747875213623e-01 2.5875976681709290e-01</leafValues></_>
        <_>
          <internalNodes>
            0 -1 42 -525146724 -144989430 26839503 1679499394
            -2077028873 -484507071 -1058708617 184486111</internalNodes>
          <leafValues>
            -4.7202557325363159e-01 2.4232164025306702e-01</leafValues></_>
        <_>
          <internalNodes>
            0 -1 506 -54894735 -685456945 2071433966 -241501963
            -242551924 1619034499 -202462739 -74243</internalNodes>
          <leafValues>
            -4.7927591204643250e-01 2.2370783984661102e-01</leafValues></_>
        <_>
          <internalNodes>
            0 -1 544 -237520075 67105149 -1683279987 790200718
            -924197636 -81231112 -2124560200 671526059</internalNodes>
          <leafValues>
            -3.1873077154159546e-01 3.6326357722282410e-01</leafValues></_>
        <_>
          <internalNodes>
            0 -1 487 -1107534732 -1208059526 -744828421 -108580
            -67125251 -1145071473 -339849347 -1342282884</internalNodes>
          <leafValues>
            -4.8782408237457275e-01 2.0966230332851410e-01</leafValues></_>
        <_>
          <internalNodes>
            0 -1 260 -121479387 -55577153 -1299187493 -352996 -555165451
            -1613073671 -1549223371 -285713092</internalNodes>
          <leafValues>
            -3.0885657668113708e-01 3.5145935416221619e-01</leafValues></_>
        <_>
          <internalNodes>
            0 -1 633 -1040920361 -134758953 -71565315 -47202957
            -473974819 -1347045392 -38091797 -79956187</internalNodes>
          <leafValues>
            -2.0240134000778198e-01 5.9863853454589844e-01</leafValues></_>
        <_>
          <internalNodes>
            0 -1 54 -820850308 1068880 -2012692069 344065296 1312299391
            683012352 88078957 12037748</internalNodes>
          <leafValues>
            -4.9121433496475220e-01 2.2895073890686035e-01</leafValues></_>
        <_>
          <internalNodes>
            0 -1 574 -1363657356 -1144056845 -86469665 -1616367221
            -1159053332 -5299509 -1282917395 -1975903938</internalNodes>
          <leafValues>
            -5.1973259449005127e-01 1.9451269507408142e-01</leafValues></_>
        <_>
          <internalNodes>
            0 -1 24 -496762664 1603147030 -49546469 1306199375
            -2010201122 -628571902 -2103361155 1114573025</internalNodes>
          <leafValues>
            -4.0129038691520691e-01 2.5183928012847900e-01</leafValues></_>
        <_>
          <internalNodes>
            0 -1 598 724806160 -1601583013 329338502 -296723509
            565914299 -800948053 -1324784893 1563578743</internalNodes>
          <leafValues>
            -4.6595138311386108e-01 2.3499730229377747e-01</leafValues></_>
        <_>
          <internalNodes>
            0 -1 486 993465137 -1198220005 -2095535619 -1893907641
            -336348227 -1075085208 1271859708 740297279</internalNodes>
          <leafValues>
            -3.2647091150283813e-01 3.2803720235824585e-01</leafValues></_>
        <_>
          <internalNodes>
            0 -1 180 586825077 384975797 -157822049 926430067 450911088
            -1229864671 -961382048 -2624143</internalNodes>
          <leafValues>
            -3.7735202908515930e-01 2.6875194907188416e-01</leafValues></_></weakClassifiers></_>
    <!-- stage 6 -->
    <_>
      <maxWeakCount>25</maxWeakCount>
      <stageThreshold>-2.4171347618103027e+00</stageThreshold>
      <weakClassifiers>
        <_>
          <internalNodes>
            0 -1 34 -540082226 -17378849 1363923423 -572538625
            -341839901 -268506369 -829166609 -1025</internalNodes>
          <leafValues>
            -5.8413821458816528e-01 4.1218873858451843e-01</leafValues></_>
        <_>
          <internalNodes>
            0 -1 358 -107268 -36744576 -771243765 -3160555 -83997995
            -250615729 -611882457 -268470155</internalNodes>
          <leafValues>
            -4.9298569560050964e-01 2.7754914760589600e-01</leafValues></_>
        <_>
          <internalNodes>
            0 -1 616 -3819 964673407 -4371 -1379401857 -268438108
            -1140916387 -114946 -1357123793</internalNodes>
          <leafValues>
            -3.3928027749061584e-01 4.1061776876449585e-01</leafValues></_>
        <_>
          <internalNodes>
            0 -1 35 -72296715 -202188849 -812453639 -35072585 -319371781
            -58892803 -1059330857 -928463620</internalNodes>
          <leafValues>
            -2.6556250452995300e-01 4.8161035776138306e-01</leafValues></_>
        <_>
          <internalNodes>
            0 -1 659 -975438339 -539623473 -1082245956 -720917 234298846
            -822969123 203294780 -612667781</internalNodes>
          <leafValues>
            -3.2326522469520569e-01 4.0593150258064270e-01</leafValues></_>
        <_>
          <internalNodes>
            0 -1 74 -285290753 -142704777 -114753 523904830 -956956673
            2129983476 1794486271 534205523</internalNodes>
          <leafValues>
            -3.4992304444313049e-01 3.6328893899917603e-01</leafValues></_>
        <_>
          <internalNodes>
            0 -1 523 -1078297347 -1143258917 -509610037 -506477941
            -1077187601 -1467793277 938372975 -1581569181</internalNodes>
          <leafValues>
            -4.3823793530464172e-01 2.3597741127014160e-01</leafValues></_>
        <_>
          <internalNodes>
            0 -1 312 -2110623407 -1181349513 -1692725091 1058734867
            42485940 -272905846 -491570328 -1346500301</internalNodes>
          <leafValues>
            -3.6160844564437866e-01 2.9616165161132812e-01</leafValues></_>
        <_>
          <internalNodes>
            0 -1 150 -354277580 -68107778 1023613426 797507758 559219191
            -1360441213 1502412940 1320091786</internalNodes>
          <leafValues>
            -4.1681778430938721e-01 2.4901744723320007e-01</leafValues></_>
        <_>
          <internalNodes>
            0 -1 400 -269549579 -82910463 -1593671665 -783359103
            -248458523 1078149156 -760487219 -855059</internalNodes>
          <leafValues>
            -4.4321930408477783e-01 2.4358217418193817e-01</leafValues></_>
        <_>
          <internalNodes>
            0 -1 90 45504276 979047797 85530911 791876626 1342783684
            -1255959744 76165881 -1056934</internalNodes>
          <leafValues>
            -3.1227788329124451e-01 3.4751001000404358e-01</leafValues></_>
        <_>
          <internalNodes>
            0 -1 673 -889202345 -1124405406 -1342455809 -739643409
            -1384727300 -33619971 -1363521544 -1137682943</internalNodes>
          <leafValues>
            -2.8629687428474426e-01 3.7087309360504150e-01</leafValues></_>
        <_>
          <internalNodes>
            0 -1 6 -1066221505 1372821903 1301801887 347814557 4620464
            -1031684082 -2066627819 16248191</internalNodes>
          <leafValues>
            -4.1229432821273804e-01 2.4223025143146515e-01</leafValues></_>
        <_>
          <internalNodes>
            0 -1 374 -573113348 -591528162 1124131624 454771486
            -1174189647 -209468471 1216480280 604048574</internalNodes>
          <leafValues>
            -4.9332410097122192e-01 1.9841171801090240e-01</leafValues></_>
        <_>
          <internalNodes>
            0 -1 610 -1431634436 -1381600871 1644875783 -1199643973
            1900169932 -1031634775 -336713028 -1367459017</internalNodes>
          <leafValues>
            -4.7500962018966675e-01 1.8280763924121857e-01</leafValues></_>
        <_>
          <internalNodes>
            0 -1 67 -509456658 1910415390 -510242468 387097790
            -485154329 -39681663 -863041307 1306986503</internalNodes>
          <leafValues>
            -3.4712082147598267e-01 2.8355482220649719e-01</leafValues></_>
        <_>
          <internalNodes>
            0 -1 5 -218083055 -162900324 -233702145 -1357457201
            -2136471043 20665263 743165183 15173717</internalNodes>
          <leafValues>
            -3.3720818161964417e-01 2.9104995727539062e-01</leafValues></_>
        <_>
          <internalNodes>
            0 -1 463 -1364587276 -1093985654 -176030967 -1953799273
            -1635048685 -1845264254 -1609623223 -1411703505</internalNodes>
          <leafValues>
            -5.8586567640304565e-01 1.5592426061630249e-01</leafValues></_>
        <_>
          <internalNodes>
            0 -1 612 -454391024 -1797286017 319930845 -1272524001
            977638276 -1198423934 757295656 137496832</internalNodes>
          <leafValues>
            -4.4071587920188904e-01 1.9923216104507446e-01</leafValues></_>
        <_>
          <internalNodes>
            0 -1 57 1542776558 184837954 -1738619683 945337360
            1492338866 -570326511 -806754075 -1999262763</internalNodes>
          <leafValues>
            -4.2554444074630737e-01 2.2109326720237732e-01</leafValues></_>
        <_>
          <internalNodes>
            0 -1 185 975321172 407782725 -1062682579 737808699
            -1840745648 -1155284864 -173639584 -341573771</internalNodes>
          <leafValues>
            -3.5043624043464661e-01 2.6027017831802368e-01</leafValues></_>
        <_>
          <internalNodes>
            0 -1 548 -1461770444 1751003511 -2130574056 -975273041
            9045488 -1482022907 1304824872 141539342</internalNodes>
          <leafValues>
            -4.8497936129570007e-01 1.7579080164432526e-01</leafValues></_>
        <_>
          <internalNodes>
            0 -1 495 -1360380060 -27909857 -651980327 1071139191
            -2104673359 -39779413 -1148555267 -1347789964</internalNodes>
          <leafValues>
            -4.7060367465019226e-01 1.9605973362922668e-01</leafValues></_>
        <_>
          <internalNodes>
            0 -1 581 -1113039532 -1158759716 -104091233 -1912979396
            -68534788 -71581528 2079128300 783949612</internalNodes>
          <leafValues>
            -5.5999004840850830e-01 1.6271422803401947e-01</leafValues></_>
        <_>
          <internalNodes>
            0 -1 268 201589856 738972639 -1840884804 -158416740
            2059822832 -213230687 -926613676 -26279947</internalNodes>
          <leafValues>
            -7.0936888456344604e-01 1.0569129884243011e-01</leafValues></_></weakClassifiers></_>
    <!-- stage 7 -->
    <_>
      <maxWeakCount>27</maxWeakCount>
      <stageThreshold>-2.4123818874359131e+00</stageThreshold>
      <weakClassifiers>
        <_>
          <internalNodes>
            0 -1 121 -68157442 -126355457 -65543 -1 -1 -11 -262145 -1</internalNodes>
          <leafValues>
            -4.4103279709815979e-01 5.4035568237304688e-01</leafValues></_>
        <_>
          <internalNodes>
            0 -1 27 -806959665 -950414917 -1051344625 793608783 23069975
            991427441 86442919 -1896903425</internalNodes>
          <leafValues>
            -4.6264490485191345e-01 3.7236982583999634e-01</leafValues></_>
        <_>
          <internalNodes>
            0 -1 236 -486620929 1917981070 -788360830 2132410482
            -1836956333 -327016304 -70625532 -271095212</internalNodes>
          <leafValues>
            -3.5897070169448853e-01 3.6134788393974304e-01</leafValues></_>
        <_>
          <internalNodes>
            0 -1 677 -67115759 -1317544121 -321984583 -1124747467
            -725895964 -534537 -1394178308 -1468825801</internalNodes>
          <leafValues>
            -3.2568711042404175e-01 3.5606947541236877e-01</leafValues></_>
        <_>
          <internalNodes>
            0 -1 40 -546904202 353943578 -573515386 960023680 1145361013
            -1186938877 -42863243 14678395</internalNodes>
          <leafValues>
            -4.8479023575782776e-01 2.0272964239120483e-01</leafValues></_>
        <_>
          <internalNodes>
            0 -1 517 -1062153100 -732658684 357626011 1062451218
            -191896656 -1333417928 -1296889292 -1407153152</internalNodes>
          <leafValues>
            -3.4009480476379395e-01 3.4328395128250122e-01</leafValues></_>
        <_>
          <internalNodes>
            0 -1 91 -2111798092 343836277 -671314115 790826275 342177012
            -860594596 -537579589 -1356386181</internalNodes>
          <leafValues>
            -2.4144759774208069e-01 4.1845932602882385e-01</leafValues></_>
        <_>
          <internalNodes>
            0 -1 659 -438311939 1333747679 805308888 -1187843633
            349438460 -388693874 -2133327688 -328732677</internalNodes>
          <leafValues>
            -3.2987752556800842e-01 3.1916379928588867e-01</leafValues></_>
        <_>
          <internalNodes>
            0 -1 533 -205018352 341502039 1417736655 756650271
            -363954012 -1325488000 845885708 134456110</internalNodes>
          <leafValues>
            -3.8168570399284363e-01 2.4614514410495758e-01</leafValues></_>
        <_>
          <internalNodes>
            0 -1 14 1153879882 -987243353 -1051725650 -98315897 45223801
            -1568738842 -1598126929 -386144393</internalNodes>
          <leafValues>
            -3.9984565973281860e-01 2.3516620695590973e-01</leafValues></_>
        <_>
          <internalNodes>
            0 -1 20 -198029296 -752189355 16970239 -683216549 1237454896
            -1440209952 1363804420 -299842496</internalNodes>
          <leafValues>
            -4.2904737591743469e-01 2.1986261010169983e-01</leafValues></_>
        <_>
          <internalNodes>
            0 -1 388 776242782 349176019 21047583 801674252 814168176
            806404256 1523387144 146792463</internalNodes>
          <leafValues>
            -3.8076934218406677e-01 2.5017812848091125e-01</leafValues></_>
        <_>
          <internalNodes>
            0 -1 202 -2147482352 806417253 1368621446 -2061293011
            -265018793 -1262804756 1761020813 19073595</internalNodes>
          <leafValues>
            -5.0383365154266357e-01 1.6847904026508331e-01</leafValues></_>
        <_>
          <internalNodes>
            0 -1 96 582138870 -1229967565 -1073938499 803546661
            541456048 -1913325964 1567403889 -12068793</internalNodes>
          <leafValues>
            -2.6077485084533691e-01 3.2266142964363098e-01</leafValues></_>
        <_>
          <internalNodes>
            0 -1 575 -38865924 -1148533885 -1006411773 -1319442045
            -1060386645 -1567981438 -1416976085 -1394709653</internalNodes>
          <leafValues>
            -3.7624651193618774e-01 2.1791262924671173e-01</leafValues></_>
        <_>
          <internalNodes>
            0 -1 152 2080305902 -705248040 -1861692812 -1249181912
            1612171774 -926300059 -314580093 -791157903</internalNodes>
          <leafValues>
            -3.5152113437652588e-01 2.7707386016845703e-01</leafValues></_>
        <_>
          <internalNodes>
            0 -1 297 1854556372 -36421410 1393314269 -1621491652
            671245170 -79904592 1784944696 175654968</internalNodes>
          <leafValues>
            -4.6289238333702087e-01 1.7516739666461945e-01</leafValues></_>
        <_>
          <internalNodes>
            0 -1 49 -1010638382 -550620676 1870099822 -541888129
            1173837637 -1930003075 -1539086337 -1006056356</internalNodes>
          <leafValues>
            -2.6574280858039856e-01 3.0793237686157227e-01</leafValues></_>
        <_>
          <internalNodes>
            0 -1 633 -1046507049 -784605873 2075312117 -12587728
            -939674195 -1343522820 1979176939 -316411017</internalNodes>
          <leafValues>
            -1.5911868214607239e-01 4.7656857967376709e-01</leafValues></_>
        <_>
          <internalNodes>
            0 -1 15 143573708 -1843472690 291295640 -728041062 162133876
            -2025401833 -1323763025 -558171427</internalNodes>
          <leafValues>
            -5.6708115339279175e-01 1.3788922131061554e-01</leafValues></_>
        <_>
          <internalNodes>
            0 -1 89 539112251 856822082 -654241505 1024852184 1369000432
            405930024 536871168 -144719634</internalNodes>
          <leafValues>
            -3.0650827288627625e-01 2.7021300792694092e-01</leafValues></_>
        <_>
          <internalNodes>
            0 -1 646 -847387216 1266503947 -1073009467 1574097258
            438061140 1503703799 8390844 1039562559</internalNodes>
          <leafValues>
            -3.9610728621482849e-01 2.0254869759082794e-01</leafValues></_>
        <_>
          <internalNodes>
            0 -1 607 -388054441 283820940 1208074265 -1937494013
            -1031737164 -1196851037 -943062963 -1627229408</internalNodes>
          <leafValues>
            -3.2397174835205078e-01 2.4874618649482727e-01</leafValues></_>
        <_>
          <internalNodes>
            0 -1 498 -2147323019 -762312680 -2080124431 525861305
            -1186807179 -636764151 -1281615363 -1342504903</internalNodes>
          <leafValues>
            -2.9494464397430420e-01 2.7418389916419983e-01</leafValues></_>
        <_>
          <internalNodes>
            0 -1 72 -497119498 460473492 -771694186 -1747582926
            816914947 -1307353088 -804668629 223706995</internalNodes>
          <leafValues>
            -3.2582610845565796e-01 2.3889453709125519e-01</leafValues></_>
        <_>
          <internalNodes>
            0 -1 244 -891890955 -169999649 285639071 90079466 10621460
            -796909432 2013987545 -302047695</internalNodes>
          <leafValues>
            -2.7097198367118835e-01 2.8252646327018738e-01</leafValues></_>
        <_>
          <internalNodes>
            0 -1 523 -1148577572 -1219235703 1359118403 -2008645493
            -506764637 42074243 186343975 -1165004217</internalNodes>
          <leafValues>
            -4.8766171932220459e-01 1.5315321087837219e-01</leafValues></_></weakClassifiers></_>
    <!-- stage 8 -->
    <_>
      <maxWeakCount>35</maxWeakCount>
      <stageThreshold>-2.3466079235076904e+00</stageThreshold>
      <weakClassifiers>
        <_>
          <internalNodes>
            0 -1 19 -67176450 -86051329 1364655614 -740829697 -9
            -590677123 -402655265 -2097153</internalNodes>
          <leafValues>
            -5.2011495828628540e-01 3.4843429923057556e-01</leafValues></_>
        <_>
          <internalNodes>
            0 -1 205 -64424591 -204058859 -217910885 -1097021256
            -1026494091 -1412669247 -73383664 -1429676684</internalNodes>
          <leafValues>
            -3.8165619969367981e-01 3.0508607625961304e-01</leafValues></_>
        <_>
          <internalNodes>
            0 -1 42 -421083954 -136319142 -1660050613 1876926861
            -1000026907 -240447221 -867841801 -822098689</internalNodes>
          <leafValues>
            -4.9563917517662048e-01 2.3603558540344238e-01</leafValues></_>
        <_>
          <internalNodes>
            0 -1 539 -100664560 952044475 -1660290305 -1895317185
            -1148744780 -1142242888 -133461828 -1399083477</internalNodes>
          <leafValues>
            -3.7212565541267395e-01 2.9597675800323486e-01</leafValues></_>
        <_>
          <internalNodes>
            0 -1 569 -463709099 -51101488 -1584866817 -1074061923
            -87966815 -661974838 -111645219 -1371923184</internalNodes>
          <leafValues>
            -3.5911899805068970e-01 2.4288953840732574e-01</leafValues></_>
        <_>
          <internalNodes>
            0 -1 81 -562618633 993660797 1056845725 791822122 -722078244
            -1120582040 -50451185 -805843881</internalNodes>
          <leafValues>
            -2.7604916691780090e-01 3.2460409402847290e-01</leafValues></_>
        <_>
          <internalNodes>
            0 -1 548 -990925323 347918743 -1929313447 -1378910049
            -1467240520 -121719882 191695912 -2006980545</internalNodes>
          <leafValues>
            -3.2983371615409851e-01 2.3943062126636505e-01</leafValues></_>
        <_>
          <internalNodes>
            0 -1 586 -1091298191 -1728818850 -1855782571 -1610984995
            -1704576583 -79003133 -1143259207 -1895885704</internalNodes>
          <leafValues>
            -3.4722468256950378e-01 2.5375750660896301e-01</leafValues></_>
        <_>
          <internalNodes>
            0 -1 82 -84426761 -1804461579 -1074581704 789734673
            -600768590 217529844 -311396488 -525701</internalNodes>
          <leafValues>
            -2.3755088448524475e-01 3.4629011154174805e-01</leafValues></_>
        <_>
          <internalNodes>
            0 -1 480 -19924460 -1869096899 -887531265 -1927692897
            -1203113540 -1199404414 -1706349814 757268483</internalNodes>
          <leafValues>
            -3.0796152353286743e-01 2.6627486944198608e-01</leafValues></_>
        <_>
          <internalNodes>
            0 -1 159 -206372 353661208 -715370338 499002384 1389477892
            1217405148 -775624292 215955793</internalNodes>
          <leafValues>
            -4.2945593595504761e-01 1.7968590557575226e-01</leafValues></_>
        <_>
          <internalNodes>
            0 -1 535 -1929381400 -1998587585 1125280564 -157912501
            1507609172 -800235566 381682912 -531313413</internalNodes>
          <leafValues>
            -4.8782825469970703e-01 1.4646525681018829e-01</leafValues></_>
        <_>
          <internalNodes>
            0 -1 181 168967440 781356881 -1626221091 -1437389563
            340812532 -1481480192 -1185895531 -8922811</internalNodes>
          <leafValues>
            -3.6052384972572327e-01 2.0881192386150360e-01</leafValues></_>
        <_>
          <internalNodes>
            0 -1 610 -17113348 -1500561336 1116193307 -1573926007
            2049899339 -1450467061 1406282479 -1355076789</internalNodes>
          <leafValues>
            -3.2975697517395020e-01 2.2343468666076660e-01</leafValues></_>
        <_>
          <internalNodes>
            0 -1 722 911343632 1884029112 1904415129 306467156
            -2146423638 -1433269845 212377515 -1069887813</internalNodes>
          <leafValues>
            -2.7927029132843018e-01 2.5414147973060608e-01</leafValues></_>
        <_>
          <internalNodes>
            0 -1 140 -223946960 -253296771 -590019 -1884901648
            -2055365387 -1090715657 -1342239412 -822622985</internalNodes>
          <leafValues>
            -2.1309833228588104e-01 3.5211405158042908e-01</leafValues></_>
        <_>
          <internalNodes>
            0 -1 454 -1401010820 -74688000 -920428286 -205470975
            -1016409363 -2146328446 -472911644 -201395515</internalNodes>
          <leafValues>
            -5.9881126880645752e-01 1.4151287078857422e-01</leafValues></_>
        <_>
          <internalNodes>
            0 -1 233 1256590846 1976992606 1964003836 924725720
            1273234247 -75356023 -2092168307 163383296</internalNodes>
          <leafValues>
            -4.1191875934600830e-01 1.7106114327907562e-01</leafValues></_>
        <_>
          <internalNodes>
            0 -1 644 -422133186 -1735196950 159913755 -2116556536
            -668755531 -1647058795 -1849163519 -650905552</internalNodes>
          <leafValues>
            -2.7577370405197144e-01 2.3977054655551910e-01</leafValues></_>
        <_>
          <internalNodes>
            0 -1 443 -1933830315 -388594243 -1878883361 526129943
            -1031128588 -276375541 -1306231811 -1346475493</internalNodes>
          <leafValues>
            -3.0606809258460999e-01 2.2810524702072144e-01</leafValues></_>
        <_>
          <internalNodes>
            0 -1 409 -1364721228 -1533361216 -788475773 -2147241277
            -1484692917 -1870413822 -1144313535 -2000483381</internalNodes>
          <leafValues>
            -5.4221487045288086e-01 1.2365168333053589e-01</leafValues></_>
        <_>
          <internalNodes>
            0 -1 693 -268456137 -1959332967 2095441784 -1683624082
            1458754997 -1124207361 -2018574916 -1474122190</internalNodes>
          <leafValues>
            -2.3779135942459106e-01 2.8319478034973145e-01</leafValues></_>
        <_>
          <internalNodes>
            0 -1 0 -682484621 -36269346 100782131 -646516389 1503728401
            713742632 1749609266 -90518340</internalNodes>
          <leafValues>
            -2.5998386740684509e-01 2.5050789117813110e-01</leafValues></_>
        <_>
          <internalNodes>
            0 -1 514 -922692555 -164595722 -1073873217 -1201078549
            -46270764 -285352579 -1371783683 -1879347703</internalNodes>
          <leafValues>
            -1.9103570282459259e-01 3.4342861175537109e-01</leafValues></_>
        <_>
          <internalNodes>
            0 -1 120 1127212614 839577791 1082246378 -694990814
            2075335455 1519073538 1753948843 -495984265</internalNodes>
          <leafValues>
            -3.3162340521812439e-01 2.0632389187812805e-01</leafValues></_>
        <_>
          <internalNodes>
            0 -1 536 -1078305291 -1080115124 -552370033 -1080106808
            -1153729554 -192806781 -1148314835 268189700</internalNodes>
          <leafValues>
            -4.0436390042304993e-01 1.6489012539386749e-01</leafValues></_>
        <_>
          <internalNodes>
            0 -1 72 -529626369 454040687 -662666870 497210250 605268885
            345014416 -670995610 -975701185</internalNodes>
          <leafValues>
            -2.6016858220100403e-01 2.4873059988021851e-01</leafValues></_>
        <_>
          <internalNodes>
            0 -1 562 -1733662672 822141825 -1073495925 575593290
            -524104443 1073938507 -519314815 -889259540</internalNodes>
          <leafValues>
            -6.1549562215805054e-01 1.0657124966382980e-01</leafValues></_>
        <_>
          <internalNodes>
            0 -1 655 1224452024 -929437249 -1694242450 -930574277
            407113982 1311818088 -1696397126 157760439</internalNodes>
          <leafValues>
            -2.7620381116867065e-01 2.3957110941410065e-01</leafValues></_>
        <_>
          <internalNodes>
            0 -1 334 -1540325356 -1733185115 25251242 -1264602868
            -640073135 338565306 -487651315 -1575809237</internalNodes>
          <leafValues>
            -3.8468313217163086e-01 1.7351949214935303e-01</leafValues></_>
        <_>
          <internalNodes>
            0 -1 52 -301554910 2114489732 1997560143 730765003
            1175675249 2005116937 1082589189 148227076</internalNodes>
          <leafValues>
            -3.8958075642585754e-01 1.7252185940742493e-01</leafValues></_>
        <_>
          <internalNodes>
            0 -1 488 -73598980 -1025847231 1346568323 1369170249
            1980383616 -2113732223 -895288816 -1911417484</internalNodes>
          <leafValues>
            -5.2040755748748779e-01 1.2129296362400055e-01</leafValues></_>
        <_>
          <internalNodes>
            0 -1 554 -1493431322 885013381 -1073770497 -1381187800
            -1074211339 -1139409483 -1094832835 -1897929425</internalNodes>
          <leafValues>
            -2.3646910488605499e-01 2.7774086594581604e-01</leafValues></_>
        <_>
          <internalNodes>
            0 -1 84 -825952258 -1630333079 -1979428415 -1105023728
            -939462352 -632096568 1749521341 -1073759376</internalNodes>
          <leafValues>
            -2.7324292063713074e-01 2.5693851709365845e-01</leafValues></_>
        <_>
          <internalNodes>
            0 -1 3 -537985540 1041237440 1116946691 -451841911
            1700126749 1074987145 4532332 963971453</internalNodes>
          <leafValues>
            -3.2135629653930664e-01 1.9117093086242676e-01</leafValues></_></weakClassifiers></_>
    <!-- stage 9 -->
    <_>
      <maxWeakCount>36</maxWeakCount>
      <stageThreshold>-2.5145704746246338e+00</stageThreshold>
      <weakClassifiers>
        <_>
          <internalNodes>
            0 -1 338 -107012 -2106807 -371207553 -11367 -70325249
            -674250165 -69219361 -5121</internalNodes>
          <leafValues>
            -5.0797724723815918e-01 2.6689723134040833e-01</leafValues></_>
        <_>
          <internalNodes>
            0 -1 609 -1095017355 -1126269955 -100664321 -1126608689
            -1144356865 -2375541 -1174455297 -1363518337</internalNodes>
          <leafValues>
            -4.3815836310386658e-01 2.5837835669517517e-01</leafValues></_>
        <_>
          <internalNodes>
            0 -1 35 -39389827 -495523 -44302853 -8628993 -36871 -729633
            -1980113409 -938419076</internalNodes>
          <leafValues>
            -3.2814693450927734e-01 3.6073291301727295e-01</leafValues></_>
        <_>
          <internalNodes>
            0 -1 661 -1929396233 16449277 -318885899 770518949 267263421
            -1174503430 210176056 -859837185</internalNodes>
          <leafValues>
            -2.8759148716926575e-01 3.4131774306297302e-01</leafValues></_>
        <_>
          <internalNodes>
            0 -1 385 -1361937035 -1611238531 -745015841 -1073799811
            -1126933643 -136604717 -1284937345 -1346732169</internalNodes>
          <leafValues>
            -3.4395319223403931e-01 2.7549165487289429e-01</leafValues></_>
        <_>
          <internalNodes>
            0 -1 709 -323823875 -2081164717 -1013587969 -1454771815
            -1320967171 -1356076339 -893527043 -901720719</internalNodes>
          <leafValues>
            -2.9714068770408630e-01 3.1150791049003601e-01</leafValues></_>
        <_>
          <internalNodes>
            0 -1 542 -202716388 -2100670179 -2146484133 -757640155
            -740623889 -1010077301 -69275393 -1430618764</internalNodes>
          <leafValues>
            -4.9290689826011658e-01 2.1046434342861176e-01</leafValues></_>
        <_>
          <internalNodes>
            0 -1 80 649755637 1059141381 1331419611 1059785809
            -1434492995 -1175496535 432632669 -9</internalNodes>
          <leafValues>
            -3.0567416548728943e-01 3.0463048815727234e-01</leafValues></_>
        <_>
          <internalNodes>
            0 -1 574 -1632084491 -539008773 -186648065 -1646275121
            -84003843 -104085367 -1149731905 -1348772044</internalNodes>
          <leafValues>
            -3.5324347019195557e-01 2.3494364321231842e-01</leafValues></_>
        <_>
          <internalNodes>
            0 -1 512 1057487616 549321375 651395903 819765207 1172791591
            -110116819 -221835509 -25174249</internalNodes>
          <leafValues>
            -3.9931857585906982e-01 2.0475339889526367e-01</leafValues></_>
        <_>
          <internalNodes>
            0 -1 280 -1103989455 -2327203 -49032865 1072725968
            -1350010891 -1282682226 2064021844 -1360110303</internalNodes>
          <leafValues>
            -3.6468982696533203e-01 2.2632540762424469e-01</leafValues></_>
        <_>
          <internalNodes>
            0 -1 168 -288995682 -12655750 1406538175 1058672394
            -1436020277 -1145321302 -74839249 2144694643</internalNodes>
          <leafValues>
            -3.8855034112930298e-01 2.0330347120761871e-01</leafValues></_>
        <_>
          <internalNodes>
            0 -1 435 787372157 -1074010983 -250887841 -1073860167
            -74826780 -73686805 -1143051653 -1900390923</internalNodes>
          <leafValues>
            -3.9061811566352844e-01 2.0178124308586121e-01</leafValues></_>
        <_>
          <internalNodes>
            0 -1 600 -398467721 -1666162411 -661400579 -1942697643
            -80880011 -168573865 -723971308 -1145546383</internalNodes>
          <leafValues>
            -3.0003637075424194e-01 2.6046422123908997e-01</leafValues></_>
        <_>
          <internalNodes>
            0 -1 481 1766850360 677688254 580964463 -1307708577
            2074282362 998418603 753404138 552201011</internalNodes>
          <leafValues>
            -3.6631575226783752e-01 2.1238435804843903e-01</leafValues></_>
        <_>
          <internalNodes>
            0 -1 721 443702365 1067064958 794681341 161251029 177276923
            -26587649 1151555071 -325329025</internalNodes>
          <leafValues>
            -2.5118848681449890e-01 2.9579645395278931e-01</leafValues></_>
        <_>
          <internalNodes>
            0 -1 99 995325943 -1376821269 -671682569 1470856177
            -1125843220 -570458123 -680067283 -8782731</internalNodes>
          <leafValues>
            -2.2210091352462769e-01 3.1492781639099121e-01</leafValues></_>
        <_>
          <internalNodes>
            0 -1 409 -1363518084 -825300668 -267128758 -1505291349
            -1282909502 -108539381 -102022579 -1951708161</internalNodes>
          <leafValues>
            -4.2611721158027649e-01 1.6377133131027222e-01</leafValues></_>
        <_>
          <internalNodes>
            0 -1 231 -353473281 -27389134 -23659323 -4288234 -937296967
            -8293973 -864945803 -1940176859</internalNodes>
          <leafValues>
            -3.1614580750465393e-01 2.0868542790412903e-01</leafValues></_>
        <_>
          <internalNodes>
            0 -1 657 -438405128 -1570880784 1359102992 -325431208
            1348082524 462274686 451415120 -1895932035</internalNodes>
          <leafValues>
            -4.7525990009307861e-01 1.4769680798053741e-01</leafValues></_>
        <_>
          <internalNodes>
            0 -1 641 -992064939 -1899856235 -712451587 -1933835299
            -1198740555 -1819619165 -2002765604 -1934602959</internalNodes>
          <leafValues>
            -3.4264153242111206e-01 1.8828780949115753e-01</leafValues></_>
        <_>
          <internalNodes>
            0 -1 25 -523321254 425959696 1721156097 100500246 -927614865
            -221728638 1961748597 83328501</internalNodes>
          <leafValues>
            -3.8895270228385925e-01 1.5325483679771423e-01</leafValues></_>
        <_>
          <internalNodes>
            0 -1 625 -1371646891 -869499567 -680308353 -1273474243
            -1702877839 -567764817 -1929357185 -1427220101</internalNodes>
          <leafValues>
            -2.7855831384658813e-01 2.3193840682506561e-01</leafValues></_>
        <_>
          <internalNodes>
            0 -1 204 -2010231260 -113714447 1376934396 1565575380
            -560695856 -632421568 -235340292 -53018668</internalNodes>
          <leafValues>
            -6.8545073270797729e-01 9.6834793686866760e-02</leafValues></_>
        <_>
          <internalNodes>
            0 -1 393 -1470997392 -1460577647 -1685398019 -1130991297
            -662120844 -85016839 -539690127 -9404623</internalNodes>
          <leafValues>
            -4.0016186237335205e-01 1.5802872180938721e-01</leafValues></_>
        <_>
          <internalNodes>
            0 -1 483 -1363649035 -1076014200 -797969703 -1684252667
            -341147909 -1182040049 -74830935 171733349</internalNodes>
          <leafValues>
            -4.1654324531555176e-01 1.4939199388027191e-01</leafValues></_>
        <_>
          <internalNodes>
            0 -1 44 -228334928 -1333485230 -1455388408 658671008
            1910833653 833827315 1237649544 -991701657</internalNodes>
          <leafValues>
            -2.7551561594009399e-01 2.3602215945720673e-01</leafValues></_>
        <_>
          <internalNodes>
            0 -1 81 1624648912 339150686 135463006 788670770 -1850675148
            -1309070664 805847852 1333788211</internalNodes>
          <leafValues>
            -2.7448990941047668e-01 2.2164860367774963e-01</leafValues></_>
        <_>
          <internalNodes>
            0 -1 366 -795353880 -1398841166 -922727712 -1861135851
            1423966324 -2083812627 676333820 1486157041</internalNodes>
          <leafValues>
            -4.5591583847999573e-01 1.3245351612567902e-01</leafValues></_>
        <_>
          <internalNodes>
            0 -1 675 -2003119787 -2135117482 -956247331 -1403691683
            -1431700787 -229654325 -334796679 -869242027</internalNodes>
          <leafValues>
            -2.8111773729324341e-01 2.0752912759780884e-01</leafValues></_>
        <_>
          <internalNodes>
            0 -1 452 -1346740743 -1164930596 -1065233965 -2137528941
            -1614062972 -1048001861 -242585269 -1358996105</internalNodes>
          <leafValues>
            -3.4602984786033630e-01 1.7253357172012329e-01</leafValues></_>
        <_>
          <internalNodes>
            0 -1 723 -667267755 -1201119439 -1259212929 1727590381
            -1447668497 -421626137 78701055 -858988801</internalNodes>
          <leafValues>
            -2.3155391216278076e-01 2.6851826906204224e-01</leafValues></_>
        <_>
          <internalNodes>
            0 -1 177 33690676 1018823706 1661075933 125437219 602324
            -326833128 2040556092 -1391244768</internalNodes>
          <leafValues>
            -3.4687733650207520e-01 1.6866543889045715e-01</leafValues></_>
        <_>
          <internalNodes>
            0 -1 56 -464067362 -1112095484 -783744993 547197580
            1484087639 2006352142 -86138858 1422762203</internalNodes>
          <leafValues>
            -3.9091524481773376e-01 1.4896008372306824e-01</leafValues></_>
        <_>
          <internalNodes>
            0 -1 539 -473959936 -1659271681 1225054924 -1408777549
            -894986244 -1451220821 1640564764 739502894</internalNodes>
          <leafValues>
            -3.1335961818695068e-01 1.9328783452510834e-01</leafValues></_>
        <_>
          <internalNodes>
            0 -1 541 792482165 -1415589729 -1828519785 -1350691707
            -1551146260 -1148581713 -153187335 783970608</internalNodes>
          <leafValues>
            -4.6706420183181763e-01 1.3363768160343170e-01</leafValues></_></weakClassifiers></_>
    <!-- stage 10 -->
    <_>
      <maxWeakCount>40</maxWeakCount>
      <stageThreshold>-2.2404177188873291e+00</stageThreshold>
      <weakClassifiers>
        <_>
          <internalNodes>
            0 -1 15 -94971138 -6302369 -539659305 -545794593 -573184001
            -572570675 -543165953 -2097153</internalNodes>
          <leafValues>
            -4.2823848128318787e-01 2.8049865365028381e-01</leafValues></_>
        <_>
          <internalNodes>
            0 -1 389 237657969 -1099931785 -5 -1610645643 -1645160491
            -33686017 -1269497867 -32897</internalNodes>
          <leafValues>
            -2.7284649014472961e-01 3.8619709014892578e-01</leafValues></_>
        <_>
          <internalNodes>
            0 -1 136 -12593803 -12812489 -2083 -1086390307 -285389327
            -100737539 1339249983 -935801483</internalNodes>
          <leafValues>
            -2.7189299464225769e-01 3.2888978719711304e-01</leafValues></_>
        <_>
          <internalNodes>
            0 -1 633 -1985229665 -1631597185 -72155273 -1464337033
            -675562051 -272648193 -21790849 -215746697</internalNodes>
          <leafValues>
            -2.3831923305988312e-01 3.8493579626083374e-01</leafValues></_>
        <_>
          <internalNodes>
            0 -1 515 -1095098884 -1565566905 -213126697 -2092756594
            -1977660982 -1073033067 -2100606241 -1093980177</internalNodes>
          <leafValues>
            -5.2112716436386108e-01 1.4985734224319458e-01</leafValues></_>
        <_>
          <internalNodes>
            0 -1 89 102793077 1027147569 -771131961 1025061181 9141748
            -88908887 -1957406343 -8392335</internalNodes>
          <leafValues>
            -2.8799641132354736e-01 2.6240557432174683e-01</leafValues></_>
        <_>
          <internalNodes>
            0 -1 651 1336395921 -1059062879 -6565383 -1130826830
            191449272 1001947534 2126977742 720599923</internalNodes>
          <leafValues>
            -3.2879948616027832e-01 2.1668373048305511e-01</leafValues></_>
        <_>
          <internalNodes>
            0 -1 348 -1080406531 -136582635 -222040041 -2050665707
            -7832667 -74727341 -69506082 -1427173993</internalNodes>
          <leafValues>
            -3.9561831951141357e-01 1.5734706819057465e-01</leafValues></_>
        <_>
          <internalNodes>
            0 -1 667 -1898031753 -2065933472 -129174017 -1600371627
            -1999100153 -1141220929 -1846948865 -323299841</internalNodes>
          <leafValues>
            -2.5851491093635559e-01 2.6358637213706970e-01</leafValues></_>
        <_>
          <internalNodes>
            0 -1 425 -107524 -536907479 -477413357 -469802243 -340825105
            -250380277 -341577303 -1347199659</internalNodes>
          <leafValues>
            -3.8812819123268127e-01 1.8083822727203369e-01</leafValues></_>
        <_>
          <internalNodes>
            0 -1 650 -103548157 1033886366 -687744643 -2138864714
            181128128 -628178804 696476013 -300820895</internalNodes>
          <leafValues>
            -2.6635351777076721e-01 2.4577994644641876e-01</leafValues></_>
        <_>
          <internalNodes>
            0 -1 55 -488193834 -556489790 2030126553 653140482
            1150625209 -74770416 1226851470 -935083960</internalNodes>
          <leafValues>
            -3.5836473107337952e-01 1.7001612484455109e-01</leafValues></_>
        <_>
          <internalNodes>
            0 -1 652 1220529660 -986586149 -112996228 -377031914
            1576817756 2026435274 1912078540 -399479553</internalNodes>
          <leafValues>
            -3.5609585046768188e-01 1.6584981977939606e-01</leafValues></_>
        <_>
          <internalNodes>
            0 -1 577 -1078306307 -1159786260 -643907249 -1996553763
            -1144115281 -71595640 -5317637 -1095992475</internalNodes>
          <leafValues>
            -2.9631605744361877e-01 2.0741200447082520e-01</leafValues></_>
        <_>
          <internalNodes>
            0 -1 623 538334565 303564885 -800981801 -677899427
            -1600503939 -82066801 -1344070657 -1884324483</internalNodes>
          <leafValues>
            -2.5555238127708435e-01 2.3013386130332947e-01</leafValues></_>
        <_>
          <internalNodes>
            0 -1 59 -791492114 -575497008 -972266468 -1246719048
            986693882 -879773687 -443235865 1349645683</internalNodes>
          <leafValues>
            -3.6798512935638428e-01 1.4678630232810974e-01</leafValues></_>
        <_>
          <internalNodes>
            0 -1 90 -2102631600 -1273033169 -2045116367 791158834
            4414256 -1346719199 545972500 -10260610</internalNodes>
          <leafValues>
            -3.0450427532196045e-01 2.0240034162998199e-01</leafValues></_>
        <_>
          <internalNodes>
            0 -1 451 -2131274127 -1430382887 -670966785 1249661941
            -901754575 -116144659 -758300811 -22490763</internalNodes>
          <leafValues>
            -3.4494295716285706e-01 1.6851502656936646e-01</leafValues></_>
        <_>
          <internalNodes>
            0 -1 439 -589538307 659702097 -788270809 530535709 592316509
            -206863989 -1289134103 775575413</internalNodes>
          <leafValues>
            -3.6043432354927063e-01 1.6288746893405914e-01</leafValues></_>
        <_>
          <internalNodes>
            0 -1 713 202620595 -1110114991 -233579557 -1518209072
            62539191 -912145721 989098431 614498167</internalNodes>
          <leafValues>
            -2.5978487730026245e-01 2.3035939037799835e-01</leafValues></_>
        <_>
          <internalNodes>
            0 -1 120 523232840 267339775 -268369366 1402556723 464472449
            193939686 545401035 1249891831</internalNodes>
          <leafValues>
            -3.4918597340583801e-01 1.8563678860664368e-01</leafValues></_>
        <_>
          <internalNodes>
            0 -1 347 -67176236 -34811910 -65569 -1375936517 -570556931
            -1107503617 -1376291337 -1363780255</internalNodes>
          <leafValues>
            -2.1177457273006439e-01 3.0537441372871399e-01</leafValues></_>
        <_>
          <internalNodes>
            0 -1 642 -1909309360 -1595223207 -519834881 -1396903273
            -2117174594 -661920821 -1343866817 1041399635</internalNodes>
          <leafValues>
            -5.2934592962265015e-01 1.0792895406484604e-01</leafValues></_>
        <_>
          <internalNodes>
            0 -1 320 772953969 721381173 -275259945 772340669 -608021787
            -6582023 -259728396 -5154443</internalNodes>
          <leafValues>
            -3.2537335157394409e-01 1.7371505498886108e-01</leafValues></_>
        <_>
          <internalNodes>
            0 -1 470 -286327435 390779693 -794574709 -1860666831
            -366025841 -922490875 -632311606 -95355931</internalNodes>
          <leafValues>
            -3.6175116896629333e-01 1.5280906856060028e-01</leafValues></_>
        <_>
          <internalNodes>
            0 -1 74 -824513825 1530802523 -1794899701 218104586
            1939169735 1908248584 1184571487 1272407568</internalNodes>
          <leafValues>
            -2.9842019081115723e-01 2.0505264401435852e-01</leafValues></_>
        <_>
          <internalNodes>
            0 -1 664 572413012 1880494354 -2012348355 236216334
            -1970794446 -1430769638 209782873 205520442</internalNodes>
          <leafValues>
            -3.1774982810020447e-01 1.7100091278553009e-01</leafValues></_>
        <_>
          <internalNodes>
            0 -1 10 1156334666 -200813682 1367728594 1028497959
            754026707 -299994750 -120739625 210762107</internalNodes>
          <leafValues>
            -3.6242717504501343e-01 1.5678693354129791e-01</leafValues></_>
        <_>
          <internalNodes>
            0 -1 567 -361774377 -122378898 788491421 -1734121039
            -83904336 -1392674827 -840346512 -102766923</internalNodes>
          <leafValues>
            -1.8913552165031433e-01 3.2369855046272278e-01</leafValues></_>
        <_>
          <internalNodes>
            0 -1 546 -290434875 -1538903280 -1859784629 832291205
            -617907546 -1064583157 -329483333 -1506902443</internalNodes>
          <leafValues>
            -3.5739618539810181e-01 1.5761725604534149e-01</leafValues></_>
        <_>
          <internalNodes>
            0 -1 20 1504924977 -662564057 833210707 1546832155
            1908814224 1484488931 1301169517 1752748245</internalNodes>
          <leafValues>
            -3.2698544859886169e-01 1.6657598316669464e-01</leafValues></_>
        <_>
          <internalNodes>
            0 -1 614 -1361093379 -1663090547 -913579873 -1902849587
            -339821828 -662470453 -1148268545 -1975878413</internalNodes>
          <leafValues>
            -2.3096857964992523e-01 2.3294134438037872e-01</leafValues></_>
        <_>
          <internalNodes>
            0 -1 516 -1212252427 -209300958 -1065119329 -1291390677
            -1764788023 -2113699837 -1325104964 -1209</internalNodes>
          <leafValues>
            -3.1707665324211121e-01 1.6750618815422058e-01</leafValues></_>
        <_>
          <internalNodes>
            0 -1 486 -176164336 412862482 1283490373 1009602887
            1489234364 2072610944 668141628 134858815</internalNodes>
          <leafValues>
            -3.1246048212051392e-01 1.8274259567260742e-01</leafValues></_>
        <_>
          <internalNodes>
            0 -1 709 -1340417703 775922385 -1987585447 240234873 2326779
            1262219491 872515305 -862661291</internalNodes>
          <leafValues>
            -2.7251917123794556e-01 1.9782251119613647e-01</leafValues></_>
        <_>
          <internalNodes>
            0 -1 448 740445809 -1564420123 -787757583 -1944529075
            -1161411372 -92503479 -1456973739 -1424458379</internalNodes>
          <leafValues>
            -4.2042663693428040e-01 1.3504359126091003e-01</leafValues></_>
        <_>
          <internalNodes>
            0 -1 5 -503118708 1514703886 -788146087 437514261 1208505803
            -114499133 -1610475446 -892874421</internalNodes>
          <leafValues>
            -2.4387733638286591e-01 2.2074775397777557e-01</leafValues></_>
        <_>
          <internalNodes>
            0 -1 475 -1129554608 -1158786355 -1853650721 -1127296675
            -1081402689 -494747648 956846552 143284273</internalNodes>
          <leafValues>
            -4.4582533836364746e-01 1.2382677942514420e-01</leafValues></_>
        <_>
          <internalNodes>
            0 -1 53 -665662242 426287518 1370525784 1038885376
            -221770798 -1262018176 -497420176 8219763</internalNodes>
          <leafValues>
            -3.9227318763732910e-01 1.3678072392940521e-01</leafValues></_>
        <_>
          <internalNodes>
            0 -1 640 -1538018816 -843203805 -805266637 -1130499169
            73411126 1988714539 801179898 2004252279</internalNodes>
          <leafValues>
            -3.2746660709381104e-01 1.5404212474822998e-01</leafValues></_></weakClassifiers></_>
    <!-- stage 11 -->
    <_>
      <maxWeakCount>46</maxWeakCount>
      <stageThreshold>-2.2024898529052734e+00</stageThreshold>
      <weakClassifiers>
        <_>
          <internalNodes>
            0 -1 15 -286326786 -589507234 -618998434 -69938405
            -167903233 -571484723 -535553 -1</internalNodes>
          <leafValues>
            -4.9573054909706116e-01 2.3768907785415649e-01</leafValues></_>
        <_>
          <internalNodes>
            0 -1 336 -185272971 -287375521 -570499117 -1930522915
            -320414235 -72614981 -666347408 -1363656587</internalNodes>
          <leafValues>
            -3.5628032684326172e-01 2.6819244027137756e-01</leafValues></_>
        <_>
          <internalNodes>
            0 -1 445 203448181 -1104119183 -8405025 -1342742665
            -554635275 -67585 -196611 -1073774721</internalNodes>
          <leafValues>
            -2.6567777991294861e-01 3.3350273966789246e-01</leafValues></_>
        <_>
          <internalNodes>
            0 -1 610 -1363476996 -1463093011 -234628477 -2105288451
            -85529910 -234126773 -1627739393 -1430589441</internalNodes>
          <leafValues>
            -3.5987010598182678e-01 2.1740582585334778e-01</leafValues></_>
        <_>
          <internalNodes>
            0 -1 688 -891364387 -1441734995 -1110781443 179175225
            -910373963 -1230249223 -875864135 -870230991</internalNodes>
          <leafValues>
            -2.7798679471015930e-01 2.7014076709747314e-01</leafValues></_>
        <_>
          <internalNodes>
            0 -1 24 -865680181 -15238270 -48638518 -3943159 -841724604
            -4597493 -868890140 -870070049</internalNodes>
          <leafValues>
            -3.2986205816268921e-01 2.2984658181667328e-01</leafValues></_>
        <_>
          <internalNodes>
            0 -1 430 -1078436355 -99364 -149171203 -1281587 -1146422353
            -223616373 -83723891 -1363657995</internalNodes>
          <leafValues>
            -3.4085112810134888e-01 2.2306253015995026e-01</leafValues></_>
        <_>
          <internalNodes>
            0 -1 1 -182692547 -134538057 -17334407 -13664769 -550169145
            -8856449 -864592830 -936190857</internalNodes>
          <leafValues>
            -2.1682189404964447e-01 3.0216857790946960e-01</leafValues></_>
        <_>
          <internalNodes>
            0 -1 288 -112548 -1751182884 1897386267 -1073792532 -3679467
            -560997880 -59445756 218068599</internalNodes>
          <leafValues>
            -3.8278779387474060e-01 1.4635618031024933e-01</leafValues></_>
        <_>
          <internalNodes>
            0 -1 624 -856144812 -797942951 -1352123075 -411259139
            -1419362313 -306512001 187107369 -1912607493</internalNodes>
          <leafValues>
            -2.2011958062648773e-01 2.8191730380058289e-01</leafValues></_>
        <_>
          <internalNodes>
            0 -1 359 -269036545 -1814634632 18333707 -1143807560
            -247017417 -527961405 1401610567 -1342507147</internalNodes>
          <leafValues>
            -3.0794203281402588e-01 2.0964656770229340e-01</leafValues></_>
        <_>
          <internalNodes>
            0 -1 570 -1355129604 -1140859954 -1072971029 185453194
            -1760863509 -1509178736 1388496427 -1883277713</internalNodes>
          <leafValues>
            -4.2615100741386414e-01 1.2871202826499939e-01</leafValues></_>
        <_>
          <internalNodes>
            0 -1 590 -1363615883 -1436765699 -653004385 -1362308353
            -1176961931 -1080249095 -373428875 -1929585155</internalNodes>
          <leafValues>
            -3.1427785754203796e-01 1.7185704410076141e-01</leafValues></_>
        <_>
          <internalNodes>
            0 -1 83 -1772223396 1599998992 17698104 791817994 546505072
            -1292041816 805634906 794231603</internalNodes>
          <leafValues>
            -3.2775738835334778e-01 1.7562665045261383e-01</leafValues></_>
        <_>
          <internalNodes>
            0 -1 426 -1231105787 -1075920099 1108066827 -1493253463
            -766520371 -918323189 -246488115 -98971</internalNodes>
          <leafValues>
            -3.2289880514144897e-01 1.5699626505374908e-01</leafValues></_>
        <_>
          <internalNodes>
            0 -1 661 211631828 150573784 -1937634440 766640905 117713405
            468320504 -1916073956 -1889538417</internalNodes>
          <leafValues>
            -2.7856901288032532e-01 1.8084904551506042e-01</leafValues></_>
        <_>
          <internalNodes>
            0 -1 584 -1093115395 254431945 -528232229 -1646438697
            -74520067 -114691365 -1490136065 780016241</internalNodes>
          <leafValues>
            -3.3138868212699890e-01 1.5834157168865204e-01</leafValues></_>
        <_>
          <internalNodes>
            0 -1 100 780156788 -1407158425 2046877549 1322602777
            -654836748 -241971549 -1279984684 -79366027</internalNodes>
          <leafValues>
            -3.1616017222404480e-01 1.6386215388774872e-01</leafValues></_>
        <_>
          <internalNodes>
            0 -1 529 -1372037644 -1613016181 -78458483 -1127460671
            -1182074211 -394018816 -87161869 775429427</internalNodes>
          <leafValues>
            -3.7257492542266846e-01 1.2780514359474182e-01</leafValues></_>
        <_>
          <internalNodes>
            0 -1 335 1059045120 883088575 1619124942 -91956475 198865667
            126057420 969386407 2054912339</internalNodes>
          <leafValues>
            -4.0478548407554626e-01 1.2402486801147461e-01</leafValues></_>
        <_>
          <internalNodes>
            0 -1 703 12241405 436309280 -1609510305 744599684 814088143
            -1903312634 32087244 -2012152528</internalNodes>
          <leafValues>
            -3.1443116068840027e-01 1.7109818756580353e-01</leafValues></_>
        <_>
          <internalNodes>
            0 -1 484 -21561379 -242302303 -1073556969 -1827679599
            1393477652 -1073544665 -607218093 -1157991555</internalNodes>
          <leafValues>
            -3.3252146840095520e-01 1.5164498984813690e-01</leafValues></_>
        <_>
          <internalNodes>
            0 -1 178 -2136790768 280307479 -1609531107 799671840
            269592500 1119168619 -491345364 -345773505</internalNodes>
          <leafValues>
            -2.3919978737831116e-01 2.0542958378791809e-01</leafValues></_>
        <_>
          <internalNodes>
            0 -1 352 -61565488 -244039691 -268718212 -1356092865
            -705190156 -1258836107 -965331191 742083899</internalNodes>
          <leafValues>
            -2.0067715644836426e-01 2.5139540433883667e-01</leafValues></_>
        <_>
          <internalNodes>
            0 -1 268 -1939585440 137943038 -784926116 -804206647
            -674892816 -32584307 -225649924 -55246859</internalNodes>
          <leafValues>
            -6.3311582803726196e-01 8.1195414066314697e-02</leafValues></_>
        <_>
          <internalNodes>
            0 -1 125 -88666063 -27602761 -174958113 -1911236225
            -88977194 -233057501 1787431740 -286605065</internalNodes>
          <leafValues>
            -2.1859538555145264e-01 2.1930162608623505e-01</leafValues></_>
        <_>
          <internalNodes>
            0 -1 158 1852991487 -1692483046 1906190520 -1214643888
            1618406395 2060497033 -318420861 214237478</internalNodes>
          <leafValues>
            -2.7589744329452515e-01 1.6926133632659912e-01</leafValues></_>
        <_>
          <internalNodes>
            0 -1 722 1859149181 953971291 -16388641 50910760 137528063
            -1561703717 217668027 1681836795</internalNodes>
          <leafValues>
            -2.2154104709625244e-01 2.1458378434181213e-01</leafValues></_>
        <_>
          <internalNodes>
            0 -1 281 -1364836079 2013262736 1359467347 -681098684
            -409639353 -645807998 -18520251 -1944246029</internalNodes>
          <leafValues>
            -3.4400278329849243e-01 1.3272517919540405e-01</leafValues></_>
        <_>
          <internalNodes>
            0 -1 514 -364226955 742281237 -447686945 714817173
            -946333067 -1279142765 -1458471147 -1095873163</internalNodes>
          <leafValues>
            -2.9241570830345154e-01 1.5615944564342499e-01</leafValues></_>
        <_>
          <internalNodes>
            0 -1 94 716715269 -2141825699 1170804887 489374055
            -1831055500 -2018655727 1819031892 -203391376</internalNodes>
          <leafValues>
            -3.8642698526382446e-01 1.1335342377424240e-01</leafValues></_>
        <_>
          <internalNodes>
            0 -1 500 -1607047595 -1499923559 -2088578618 -1401661225
            410831841 -298155575 -1099852047 -1908781451</internalNodes>
          <leafValues>
            -3.0764153599739075e-01 1.4342756569385529e-01</leafValues></_>
        <_>
          <internalNodes>
            0 -1 62 -1101005842 -1169187340 -858861686 -1329139687
            1599456239 1528496137 -2140814116 1081310717</internalNodes>
          <leafValues>
            -2.8972965478897095e-01 1.6035175323486328e-01</leafValues></_>
        <_>
          <internalNodes>
            0 -1 662 -1932785836 -142747060 -2146397775 -1318005807
            -1472707076 -152021173 143019040 -847314957</internalNodes>
          <leafValues>
            -2.5151428580284119e-01 1.7482435703277588e-01</leafValues></_>
        <_>
          <internalNodes>
            0 -1 124 1859542016 894898180 -920399825 -1078640095
            -184693212 1054056448 1221913669 7699668</internalNodes>
          <leafValues>
            -3.7410861253738403e-01 1.1382519453763962e-01</leafValues></_>
        <_>
          <internalNodes>
            0 -1 581 992531677 -2099522579 -1342102849 384762861
            -606443281 -1683259133 2073747963 1052401073</internalNodes>
          <leafValues>
            -2.4334606528282166e-01 1.7992587387561798e-01</leafValues></_>
        <_>
          <internalNodes>
            0 -1 398 -1363010220 -2130311871 -788279224 -1940901183
            -1482737395 -250560314 -1853727922 -1935192217</internalNodes>
          <leafValues>
            -3.8329622149467468e-01 1.0954396426677704e-01</leafValues></_>
        <_>
          <internalNodes>
            0 -1 362 -13721615 511639516 -822157579 -1380306945
            -167864577 -1241548801 -1191555235 531179283</internalNodes>
          <leafValues>
            -1.5999032557010651e-01 2.7830210328102112e-01</leafValues></_>
        <_>
          <internalNodes>
            0 -1 11 37144270 -1956867446 -804548220 -544943672 357933910
            -665386813 -1534791579 613741168</internalNodes>
          <leafValues>
            -4.9135494232177734e-01 9.7172193229198456e-02</leafValues></_>
        <_>
          <internalNodes>
            0 -1 257 238631536 713595433 -1658006145 715852037
            -1669039548 -216524449 -801703660 -1099473036</internalNodes>
          <leafValues>
            -3.6206963658332825e-01 1.1985427886247635e-01</leafValues></_>
        <_>
          <internalNodes>
            0 -1 550 -1929611931 -419664007 -589953 -303153283
            -1073889284 -301989889 -272678981 -1140885701</internalNodes>
          <leafValues>
            -1.4972250163555145e-01 2.9598736763000488e-01</leafValues></_>
        <_>
          <internalNodes>
            0 -1 535 -772276872 1103970702 1396859164 -159025325
            -1651749656 -639006008 -403428156 -933301505</internalNodes>
          <leafValues>
            -3.1840530037879944e-01 1.4287464320659637e-01</leafValues></_>
        <_>
          <internalNodes>
            0 -1 671 -2030122784 -1484202076 986371569 1825895517
            -2138316563 1607132396 752814451 -287540875</internalNodes>
          <leafValues>
            -2.4555294215679169e-01 1.7478956282138824e-01</leafValues></_>
        <_>
          <internalNodes>
            0 -1 512 52554496 620878235 134469984 -1329013865 -792242546
            579520559 1367460687 -1164772489</internalNodes>
          <leafValues>
            -3.1974890828132629e-01 1.5188924968242645e-01</leafValues></_>
        <_>
          <internalNodes>
            0 -1 483 -1360372619 -1143013300 -249835093 -1201067575
            -70378769 -1861496701 2074769323 984361285</internalNodes>
          <leafValues>
            -3.3904227614402771e-01 1.2822252511978149e-01</leafValues></_>
        <_>
          <internalNodes>
            0 -1 38 -500710607 2081555223 -620642715 -1475819885
            -355261554 -229204559 1216905999 -868169536</internalNodes>
          <leafValues>
            -2.4627029895782471e-01 1.7506469786167145e-01</leafValues></_></weakClassifiers></_>
    <!-- stage 12 -->
    <_>
      <maxWeakCount>37</maxWeakCount>
      <stageThreshold>-2.0142738819122314e+00</stageThreshold>
      <weakClassifiers>
        <_>
          <internalNodes>
            0 -1 424 -1359470595 -2097153 -235408737 -1073753633
            -1154483201 -74722617 -1079017473 -1141170381</internalNodes>
          <leafValues>
            -4.6014648675918579e-01 2.5531914830207825e-01</leafValues></_>
        <_>
          <internalNodes>
            0 -1 166 -285806849 -25266313 -12665449 -29475394 -69608533
            -4222466 -339801305 -49552</internalNodes>
          <leafValues>
            -4.0868195891380310e-01 2.4604184925556183e-01</leafValues></_>
        <_>
          <internalNodes>
            0 -1 620 1912600337 79691231 -14968321 -1631856053
            -1358954508 -67126534 -1342197772 -1397751878</internalNodes>
          <leafValues>
            -3.7448278069496155e-01 2.3421378433704376e-01</leafValues></_>
        <_>
          <internalNodes>
            0 -1 350 -1292746892 -53562409 -2966017 -1907839268
            -1170392075 -102105857 -1349907156 -1937243132</internalNodes>
          <leafValues>
            -3.8786673545837402e-01 2.1002338826656342e-01</leafValues></_>
        <_>
          <internalNodes>
            0 -1 386 7867765 -2099374241 -547539073 -1879111841
            -1329562827 -985027 -1107345473 -1342559186</internalNodes>
          <leafValues>
            -2.7197009325027466e-01 2.6723557710647583e-01</leafValues></_>
        <_>
          <internalNodes>
            0 -1 106 -255977643 -287378433 -555827715 -287507970
            -160965003 -22109185 -39913963 -16984348</internalNodes>
          <leafValues>
            -3.1906640529632568e-01 2.0715340971946716e-01</leafValues></_>
        <_>
          <internalNodes>
            0 -1 562 -16843907 -86318417 -1580233945 -336604226
            -94391381 -376536438 -70255959 -68161537</internalNodes>
          <leafValues>
            -3.0986613035202026e-01 2.0331764221191406e-01</leafValues></_>
        <_>
          <internalNodes>
            0 -1 526 -85984388 -654573825 -1077936643 -1196296257
            -168496655 -722288643 -262261500 -117768400</internalNodes>
          <leafValues>
            -2.5088667869567871e-01 2.7493891119956970e-01</leafValues></_>
        <_>
          <internalNodes>
            0 -1 377 -276935947 -1208045190 -686304385 -1084345540
            -1480641670 1045631147 733879167 788274016</internalNodes>
          <leafValues>
            -3.1803202629089355e-01 1.9210790097713470e-01</leafValues></_>
        <_>
          <internalNodes>
            0 -1 49 -404752449 -391679523 1360786303 2146392543
            -424204705 -1018982071 -145373997 -939465668</internalNodes>
          <leafValues>
            -2.6093438267707825e-01 2.1681952476501465e-01</leafValues></_>
        <_>
          <internalNodes>
            0 -1 326 788451188 -180454996 -246971740 -471936196
            -17833275 -587103605 -539507739 -65563</internalNodes>
          <leafValues>
            -5.0502544641494751e-01 1.3413511216640472e-01</leafValues></_>
        <_>
          <internalNodes>
            0 -1 249 -2137510059 -1300364483 -268452865 -1883299523
            913651541 -138446979 -168722435 -1342231758</internalNodes>
          <leafValues>
            -2.4680902063846588e-01 2.6279795169830322e-01</leafValues></_>
        <_>
          <internalNodes>
            0 -1 628 -2006837385 -1896025634 -411588625 -319886904
            -682072827 -389107337 -1113655513 -868417544</internalNodes>
          <leafValues>
            -3.4477505087852478e-01 1.5679405629634857e-01</leafValues></_>
        <_>
          <internalNodes>
            0 -1 513 167211872 -1057619969 -72687618 -424379397
            -102144130 -652711008 -374834444 -105545935</internalNodes>
          <leafValues>
            -4.2083361744880676e-01 1.2847355008125305e-01</leafValues></_>
        <_>
          <internalNodes>
            0 -1 556 -2011402763 -1562840069 -476315649 -1057163301
            -158826511 -1349803491 -1685063355 -830842499</internalNodes>
          <leafValues>
            -2.9430744051933289e-01 1.7005388438701630e-01</leafValues></_>
        <_>
          <internalNodes>
            0 -1 139 2012659828 -1479230978 -229486337 787539760
            2132269383 -271243115 -537552283 50187359</internalNodes>
          <leafValues>
            -3.6868140101432800e-01 1.4456169307231903e-01</leafValues></_>
        <_>
          <internalNodes>
            0 -1 38 -368117999 -30212769 2001180055 -349375282 -80492779
            -143593185 -609335552 -294335416</internalNodes>
          <leafValues>
            -2.5439646840095520e-01 2.1365214884281158e-01</leafValues></_>
        <_>
          <internalNodes>
            0 -1 664 653135700 686962678 -2035728451 1677050231
            -1347272779 1177167452 82774281 -1930428885</internalNodes>
          <leafValues>
            -2.8724631667137146e-01 1.9308936595916748e-01</leafValues></_>
        <_>
          <internalNodes>
            0 -1 565 -1095100035 701281225 -909909301 -1634734202
            -637112536 -393428342 1531263811 -1121251025</internalNodes>
          <leafValues>
            -4.2465940117835999e-01 1.2199817597866058e-01</leafValues></_>
        <_>
          <internalNodes>
            0 -1 638 -296816929 -1964317809 -1102374241 146362837
            -80806687 -252804871 2048059429 -121834188</internalNodes>
          <leafValues>
            -2.3769907653331757e-01 2.0293635129928589e-01</leafValues></_>
        <_>
          <internalNodes>
            0 -1 112 250479738 -497839732 -142624924 -1566330237
            1836403711 -1074003974 1822493383 -1069095945</internalNodes>
          <leafValues>
            -3.8087603449821472e-01 1.1830047518014908e-01</leafValues></_>
        <_>
          <internalNodes>
            0 -1 375 242224477 1058493917 -785681905 2145325433
            990531948 -1081392757 -2094380583 536485493</internalNodes>
          <leafValues>
            -3.0505880713462830e-01 1.5492022037506104e-01</leafValues></_>
        <_>
          <internalNodes>
            0 -1 215 -87101164 -622002179 -68673 -1364279623 -1091210308
            -17404809 -318937745 -295563840</internalNodes>
          <leafValues>
            -1.9349968433380127e-01 2.5811129808425903e-01</leafValues></_>
        <_>
          <internalNodes>
            0 -1 212 1243512148 1590098943 -201331738 1010589715
            1859464157 1576964089 -102637121 406241151</internalNodes>
          <leafValues>
            -4.4079518318176270e-01 1.0932508856058121e-01</leafValues></_>
        <_>
          <internalNodes>
            0 -1 82 -938967332 -1901065420 -1870641860 662585141
            -904367276 -529093147 1624275576 -956301323</internalNodes>
          <leafValues>
            -2.7303645014762878e-01 1.7959389090538025e-01</leafValues></_>
        <_>
          <internalNodes>
            0 -1 579 696143669 -1126826227 -1924473860 -1932729721
            -68043780 -1176469335 1910651892 639773479</internalNodes>
          <leafValues>
            -3.1561872363090515e-01 1.4985781908035278e-01</leafValues></_>
        <_>
          <internalNodes>
            0 -1 639 -976509175 296609565 -1110589130 -117639825
            1204600660 -1462845436 1330050415 -245105370</internalNodes>
          <leafValues>
            -2.1372310817241669e-01 2.2232292592525482e-01</leafValues></_>
        <_>
          <internalNodes>
            0 -1 0 1583111763 -3686433 -144770381 1601694719 -1082166506
            -556471817 -810614945 -9773601</internalNodes>
          <leafValues>
            -1.7387211322784424e-01 2.8205969929695129e-01</leafValues></_>
        <_>
          <internalNodes>
            0 -1 467 -858223394 -1198856364 -1462989795 1016114844
            -605362907 -185277709 -268480715 -1195332304</internalNodes>
          <leafValues>
            -2.4819958209991455e-01 1.8718862533569336e-01</leafValues></_>
        <_>
          <internalNodes>
            0 -1 25 1684291742 1204234496 2119673295 534085898 620096949
            2013192529 -1510610356 74788333</internalNodes>
          <leafValues>
            -3.7834656238555908e-01 1.2405245006084442e-01</leafValues></_>
        <_>
          <internalNodes>
            0 -1 615 -54859331 1661645096 -1056860885 2052803469
            2127767928 -1014693853 -1214379400 -1361166475</internalNodes>
          <leafValues>
            -3.6047285795211792e-01 1.2834659218788147e-01</leafValues></_>
        <_>
          <internalNodes>
            0 -1 541 1052525689 -2081533489 -1056271333 -508124407
            -1278526791 -70541237 -25280680 788423541</internalNodes>
          <leafValues>
            -3.8069120049476624e-01 1.1701523512601852e-01</leafValues></_>
        <_>
          <internalNodes>
            0 -1 497 236461381 617918838 -853805283 -140897061
            -1109115019 -2075684060 -1342297795 -1936727010</internalNodes>
          <leafValues>
            -2.2855842113494873e-01 1.9364328682422638e-01</leafValues></_>
        <_>
          <internalNodes>
            0 -1 99 466763641 -2021699257 -1919812833 -778611883
            -445352268 -618930173 1400302373 -9636012</internalNodes>
          <leafValues>
            -2.8712844848632812e-01 1.5128178894519806e-01</leafValues></_>
        <_>
          <internalNodes>
            0 -1 613 1492626952 -2114391570 -1291723780 948234746
            1497784158 945349324 571375226 576929571</internalNodes>
          <leafValues>
            -3.0030012130737305e-01 1.4893704652786255e-01</leafValues></_>
        <_>
          <internalNodes>
            0 -1 463 -1366679684 -1404128605 -1739856960 -1484330042
            -1299192209 -536870906 -1300017046 -1084548853</internalNodes>
          <leafValues>
            -4.3220841884613037e-01 1.0901498794555664e-01</leafValues></_>
        <_>
          <internalNodes>
            0 -1 297 2058243197 2111758806 1966524919 -257560 -324815946
            -22306629 1528629565 245696851</internalNodes>
          <leafValues>
            -2.1994054317474365e-01 1.9770239293575287e-01</leafValues></_></weakClassifiers></_>
    <!-- stage 13 -->
    <_>
      <maxWeakCount>53</maxWeakCount>
      <stageThreshold>-2.2007629871368408e+00</stageThreshold>
      <weakClassifiers>
        <_>
          <internalNodes>
            0 -1 358 -108036 -2164048 1398497947 -1031 -101979193
            -181698033 -103845229 -38923</internalNodes>
          <leafValues>
            -4.6629014611244202e-01 2.2626321017742157e-01</leafValues></_>
        <_>
          <internalNodes>
            0 -1 262 -153714827 -285281281 -2230273 -16860194 -68224459
            -74007 -85459040 -285448224</internalNodes>
          <leafValues>
            -3.4514996409416199e-01 2.7394932508468628e-01</leafValues></_>
        <_>
          <internalNodes>
            0 -1 568 -289472720 -1461780481 -99638289 -16973825
            -137380930 -760485239 -1174471685 -4195345</internalNodes>
          <leafValues>
            -4.2227974534034729e-01 2.1044109761714935e-01</leafValues></_>
        <_>
          <internalNodes>
            0 -1 471 -564903947 -174703659 -73662465 -1075956435
            -104023084 -7085664 -76996848 -1702886400</internalNodes>
          <leafValues>
            -2.8820896148681641e-01 2.7720150351524353e-01</leafValues></_>
        <_>
          <internalNodes>
            0 -1 108 -420560641 -270533793 -35917417 -335544445
            -302174985 -77857253 -269111567 -1360007169</internalNodes>
          <leafValues>
            -3.1417629122734070e-01 2.0901815593242645e-01</leafValues></_>
        <_>
          <internalNodes>
            0 -1 572 -922895147 -1398501391 -33555457 -1196247107
            -591611403 -255983691 -101052912 -1137042144</internalNodes>
          <leafValues>
            -2.4023328721523285e-01 2.7092358469963074e-01</leafValues></_>
        <_>
          <internalNodes>
            0 -1 432 1068240860 -1075858498 -283313153 -1075928100
            -1146373192 -225785622 -1680987140 249047844</internalNodes>
          <leafValues>
            -3.9471697807312012e-01 1.4366206526756287e-01</leafValues></_>
        <_>
          <internalNodes>
            0 -1 186 646922103 -1369906261 -1151414275 2130697181
            -15863308 -560100911 -68157455 -67731468</internalNodes>
          <leafValues>
            -2.7676430344581604e-01 2.0964905619621277e-01</leafValues></_>
        <_>
          <internalNodes>
            0 -1 540 -799014916 -856558669 -785458188 -71720133
            1673465853 -534741006 788467260 686243771</internalNodes>
          <leafValues>
            -3.9106062054634094e-01 1.3178052008152008e-01</leafValues></_>
        <_>
          <internalNodes>
            0 -1 4 908990227 -287411329 -791249553 -318885945 2019259765
            -90546698 -1226942652 -50569868</internalNodes>
          <leafValues>
            -3.6974370479583740e-01 1.4674109220504761e-01</leafValues></_>
        <_>
          <internalNodes>
            0 -1 506 -1363251344 -2014385527 -1056710590 -70358904
            -403717236 -1001947006 -739354483 -68967</internalNodes>
          <leafValues>
            -5.8347249031066895e-01 7.4059918522834778e-02</leafValues></_>
        <_>
          <internalNodes>
            0 -1 496 -1359987595 -1426311170 -268566529 -1610792961
            -1101056651 -33849345 -1350746241 -1342228354</internalNodes>
          <leafValues>
            -1.8982569873332977e-01 2.8086149692535400e-01</leafValues></_>
        <_>
          <internalNodes>
            0 -1 165 1727926015 975058430 -653895526 -1157727246
            1950826779 2048907651 -1291620300 -1243654028</internalNodes>
          <leafValues>
            -2.8154712915420532e-01 1.8632616102695465e-01</leafValues></_>
        <_>
          <internalNodes>
            0 -1 400 -1359063276 -27335017 -770473333 -955342132
            -336084215 -1039728640 -745539064 -1158237332</internalNodes>
          <leafValues>
            -6.0355508327484131e-01 7.5792908668518066e-02</leafValues></_>
        <_>
          <internalNodes>
            0 -1 634 -1414272239 -1869021233 -1315969249 150011866
            -1209273345 -611325845 869195775 -680362153</internalNodes>
          <leafValues>
            -2.6526513695716858e-01 1.8176576495170593e-01</leafValues></_>
        <_>
          <internalNodes>
            0 -1 90 716062545 -1292229395 -1627705799 -1356714469
            620226535 -293666955 -2048000040 -1049763</internalNodes>
          <leafValues>
            -2.1725283563137054e-01 2.2035025060176849e-01</leafValues></_>
        <_>
          <internalNodes>
            0 -1 67 -422680577 -6639202 -47421518 -544069610 1674914759
            -74049407 -645445430 1206209543</internalNodes>
          <leafValues>
            -2.4213705956935883e-01 2.0381665229797363e-01</leafValues></_>
        <_>
          <internalNodes>
            0 -1 688 -782254723 -553799761 -1350633859 -639898241
            -63181611 -1636630699 2135947185 -300358544</internalNodes>
          <leafValues>
            -1.9317947328090668e-01 2.4409389495849609e-01</leafValues></_>
        <_>
