svm_type c_svc
kernel_type rbf
gamma 0.125
nr_class 2
total_sv 561
rho 1.21773
label 1 -1
probA -6.77043
probB 0.137169
nr_sv 268 293
SV
0.3148353870277119 0:0.34607489 1:0.086660989 2:0.098401952 3:0.041236884 4:0.16506496 5:0.12187644 6:0.14068323 7:0 8:0.25978508 9:0.015842346 10:0.0098994849 11:-2.4087208e-18 12:0.039728073 13:0.10322714 14:0.25688533 15:0.31463239 16:0.06069772 17:0.0059340784 18:0.018765204 19:0.0109419 20:0.19829471 21:0.53336043 22:0.15847404 23:0.013531781 24:0.082247683 25:0.012191312 26:0.017124382 27:0.02390913 28:0.42401667 29:0.36544638 30:0.075064202 31:4.2044289e-17 32:0.012871075 33:0.012996064 34:0.030614707 35:0.13589986 36:0.49888939 37:0.24744499 38:0.043955645 39:0.017328215 40:-1.0282148e-17 41:0.040209276 42:0.10322184 43:0.083050881 44:0.41312871 45:0.21654556 46:0.1319106 47:0.011932958 48:0.025406467 49:0.024607807 50:0.3670619 51:0.27034435 52:0.28765375 53:0.011004946 54:0.013920278 55:0 56:0.007705675 57:0.0086152065 58:0.23876801 59:0.491616 60:0.2446796 61:0.0086152065 62:1.5399032e-17 63:0 64:0.060215664 65:0.049491559 66:0.19774978 67:0.43288702 68:0.12857559 69:0.031241831 70:0.063411178 71:0.036427228 72:0.039732453 73:0.007845294 74:0.065887491 75:0.040079865 76:0.280738 77:0.3515278 78:0.15191913 79:0.062269708 80:0.10296058 81:0.037591033 82:0.11978352 83:0.046881708 84:0.29429381 85:0.071945896 86:0.30619323 87:0.020349372 88:0.25272289 89:0.048368346 90:0.036613675 91:-2.7922187e-17 92:0.16643429 93:0.18140102 94:0.18098449 95:0.13347501 96:0.047829827 97:0.13800392 98:0.19167113 99:0.30120611 100:0.27160999 101:0.040827181 102:0.0088515143 103:0 104:0.041418078 105:0.32874108 106:0.52141388 107:0.096694457 108:0.0077422317 109:8.5956039e-19 110:3.4382415e-18 111:0.0039902549 112:0.0086268547 113:0.072625947 114:0.23962958 115:0.44601571 116:0.22852823 117:0.0028017098 118:0.0017719569 119:0 120:0.0027329315 121:2.4273308e-18 122:0.005392704 123:0.033201135 124:0.84356922 125:0.0015277552 126:0.10660326 127:0.0069729847 128:0.018336401 129:0.0054698353 130:0.020061034 131:0.018026292 132:0.26021288 133:0.38026192 134:0.27258365 135:0.025047984 136:0.26735228 137:0.022777302 138:0.12361671 139:-4.2522163e-16 140:0.30849657 141:0.022777302 142:0.16794575 143:0.087031948 144:0.29119915 145:0.23693175 146:0.059254353 147:0.013375818 148:0.060590076 149:0.058875953 150:0.14475246 151:0.13502008 152:0.48235877 153:0.37957396 154:0.11770183 155:-8.2566495e-19 156:0.0018592322 157:1.3761082e-18 158:0.0055431594 159:0.012963037 160:3.5741956e-14 161:2.3631045e-15 162:0 163:-7.5323956e-15 164:0.99773218 165:-1.1815523e-15 166:-1.9200224e-15 167:1.1815523e-15 168:0.92830633 169:0.014222584 170:0.0089951518 171:0.034252518 172:-1.158104e-16 173:-3.6720372e-17 174:0.014222584 175:2.5421796e-17 176:0.38854105 177:0.11981221 178:0.023801919 179:0.0075516942 180:7.4069205e-19 181:0.021890066 182:0.10520144 183:0.33320161 184:0.18342058 185:0.0055220577 186:0.025013939 187:0.026597752 188:0.074486929 189:0.046098186 190:0.4476724 191:0.19118802 192:0.25437234 193:0.014788637 194:0.017039512 195:0.011579001 196:0.0484204 197:0.027070022 198:0.056635091 199:0.57009493 200:0.48365631 201:-4.4001844e-17 202:0.01014062 203:-1.2336966e-18 204:0.011262422 205:0.002070627 206:0.071654838 207:0.42121517 208:0.099218819 209:0 210:0.11827666 211:-2.8089529e-16 212:0.47128939 213:0.055465006 214:0.25574698 215:3.0843405e-16 216:0.83100321 217:0.046357933 218:0.022051885 219:1.341404e-18 220:0.078534902 221:0.013508414 222:0.0085434711 223:7.6460025e-17 224:0.63612294 225:0.19119988 226:0.048378374 227:0.061549927 228:0.0083480219 229:1.7477113e-17 230:0.01554927 231:0.038851559 232:0.37038315 233:0.0099355431 234:0.013882388 235:0.0081321143 236:0.38100237 237:0.083522971 238:0.023018676 239:0.11012276 240:0.28167723 241:0.085401621 242:0.0503628 243:0 244:0.047474204 245:0.061914408 246:0.14080759 247:0.33236199 248:0 249:-2.7957609e-17 250:0.015290132 251:0.049106794 252:0.06095285 253:0.11032302 254:0.090499559 255:0.67382763 256:0.00846517 257:0.013675799 258:0.05903073 259:0.72117589 260:0.15407628 261:0.018312963 262:0.016145841 263:0.0091172672 264:0.039128458 265:0.26312917 266:0.25928701 267:0.39772772 268:0.0312876 269:4.1700616e-17 270:0.0094399973 271:-3.0167789e-16 272:0.090939443 273:0.057531826 274:0.083953027 275:0.37032575 276:0.32277984 277:0.019069011 278:0.047343009 279:0.0080580819 280:-1.1982669e-17 281:0.020577028 282:0.20510126 283:0.19339581 284:0.54287002 285:0.0023163582 286:0.035739516 287:-1.2039729e-16 288:0.020035721 289:0.27152215 290:0.63551778 291:0.045456075 292:0.0062867914 293:1.0368842e-18 294:0.0075112057 295:0.013670254 296:0.2148116 297:0.15967193 298:0.50549371 299:0.061767297 300:0.021778468 301:1.8040898e-18 302:0.032194765 303:0.0042821974 304:0.054581562 305:0.04641182 306:0.55673616 307:0.23304049 308:0.070258756 309:0.021692617 310:0.017278439 311:-1.1926009e-17 312:0.22121894 313:0.20258256 314:0.29375376 315:0.042329073 316:0.052669967 317:0.038376699 318:0.068216496 319:0.080852172 320:0.2092794 321:0.5926148 322:0.11183895 323:0.047854088 324:0.026542465 325:0.011870151 326:2.4753167e-17 327:3.8897834e-17 328:0.30271396 329:0.22246361 330:0.37185537 331:0.031274733 332:0.05340567 333:0 334:2.020327e-17 335:0.018286576 336:0.082002655 337:0.52937083 338:0.31040772 339:0.016872305 340:0.028198768 341:0.01153112 342:0.021616523 343:-8.9414638e-17 344:0.12584832 345:0.42942408 346:0.33866425 347:0.041775314 348:0.036833654 349:0.027454185 350:-1.6357428e-17 351:-1.2131759e-16 352:0.39401928 353:0.22875695 354:0.17230414 355:-5.5154842e-17 356:0.038606218 357:0.009918372 358:0.081379122 359:0.075015811 360:0.31833791 361:0.33212764 362:0.31813041 363:-2.8947953e-17 364:0.0040740623 365:0.01821976 366:0.0091098801 367:1.0855483e-17 368:0.22703848 369:0.71638348 370:0.056577906 371:-7.994929e-17 372:2.5539356e-17 373:4.5526679e-17 374:2.4984153e-17 375:5.3299527e-17 376:0.39898917 377:0.34681375 378:0.21166664 379:4.8625103e-17 380:0.021056538 381:1.8701963e-18 382:4.5819809e-17 383:0.02147354 
0.3917751075227344 0:0.12706018 1:0.051657311 2:0.24510914 3:0.07305447 4:0.32342592 5:0 6:0.17969024 7:0 8:0 9:0.061714617 10:0.38601364 11:0.13091647 12:0.30359577 13:0.10800058 14:0.0097579377 15:0 16:0.016457776 17:0.049166907 18:0.55420246 19:0.23749761 20:0.13531455 21:0 22:0.007360141 23:0 24:0.0068537025 25:0.030650689 26:0.64518041 27:0.17338648 28:0.14392775 29:0 30:-9.130966e-18 31:0 32:0.022177763 33:0.059715012 34:0.69152987 35:0.09350966 36:0.13306658 37:0 38:-9.8489053e-18 39:0 40:0.017252642 41:0.01928904 42:0.53019463 43:0.13639411 44:0.28466859 45:0 46:0.01219946 47:0 48:0.0060542257 49:0.01353766 50:0.31189785 51:0.29881128 52:0.33903664 53:0.01353766 54:0.017123936 55:0 56:0.023491985 57:0.017509892 58:0.42486952 59:0.14857636 60:0.36804109 61:0.017509892 62:0 63:0 64:0.015622271 65:0.052398689 66:0.76013281 67:6.9376818e-18 68:0.17184498 69:0 70:0 71:0 72:0.089291068 73:0.066553633 74:0.52603406 75:-3.5247289e-17 76:0.2678732 77:0.022184544 78:0.028061475 79:0 80:0.091395584 81:0.11782896 82:0.50042942 83:-3.0440845e-17 84:0.27418675 85:0 86:0.016156609 87:0 88:0.15677395 89:0 90:0.36477911 91:-5.2216214e-17 92:0.4507251 93:0 94:0.02771398 95:0 96:0.0079123013 97:0 98:0.30797563 99:0.12510447 100:0.53012419 101:0.017692444 102:0.011189684 103:0 104:0.0077887675 105:0 106:0.45172445 107:0.073890737 108:0.38164961 109:0.034832427 110:0.050112762 111:0 112:0.12379028 113:0.092372859 114:0.44840563 115:0.16376054 116:0.1474012 117:0.012134443 118:0.012134443 119:0 120:0.0085801 121:0.0095928434 122:0.10288497 123:0.18784133 124:0.55969031 125:0.053839369 126:0.06400437 127:0.013566329 128:0.011538851 129:0.0086005518 130:0.072230407 131:0.18329034 132:0.65513375 133:0.051603311 134:0.0054394666 135:0.012163017 136:0.012016973 137:0.013435384 138:0.21463482 139:0.35538598 140:0.37409615 141:0.013435384 142:0.016994566 143:0 144:0.14569058 145:0.24769125 146:0.32618154 147:0.081580489 148:0.13701231 149:0.025359267 150:0.036483904 151:0 152:0.0057741233 153:0.050480548 154:0.51465066 155:0.32718282 156:0.078526447 157:0.0032278331 158:0.020157518 159:0 160:0.0053251582 161:0.0018827277 162:0.26689238 163:0.69369685 164:0.023812753 165:0.0030358073 166:0.0018827277 167:0.0034715784 168:0.0052371455 169:0.0063160569 170:0.09865899 171:0.70136138 172:0.18257111 173:0.0039035378 174:0.0019517689 175:0 176:0.0091964468 177:0.0027631884 178:0.0043352466 179:0.21544934 180:0.40557373 181:0.25728533 182:0.068001811 183:0.037394894 184:0.0021006847 185:0.0067254725 186:0.42611656 187:0.26216573 188:0.27423366 189:0.0046972737 190:0.023960601 191:0 192:0.72581095 193:0.16853957 194:0.030725256 195:-3.2040006e-18 196:0.017029591 197:0 198:0.029127788 199:0.028766814 200:0.020832994 201:0.084973394 202:0.76897934 203:0.046927793 204:0.027847014 205:0.0091421472 206:0.02123339 207:0.020063898 208:0.053868869 209:0.049664644 210:0.36367606 211:0.28842806 212:0.15170701 213:0.012045445 214:0.080609323 215:4.7845167e-18 216:0.080550553 217:0.083055201 218:0.29722233 219:0.062165593 220:0.29207372 221:0.078633946 222:0.10629707 223:7.8084583e-18 224:0.33467695 225:0.15594246 226:0.1987309 227:0.061577046 228:0.088407893 229:0.047608754 230:0.021514247 231:0.091541037 232:0.4519753 233:0.10073447 234:0.17204686 235:4.3423177e-17 236:0.030086247 237:0.0084093617 238:0.10844453 239:0.12830294 240:0.38552566 241:0.0089531257 242:0.0079766623 243:0.19562288 244:0.067294613 245:0.062742385 246:0.032139705 247:0.23974497 248:0.045594008 249:0.064830666 250:1.0292635e-16 251:0.032462948 252:0.22285722 253:0.31022606 254:0.31201373 255:0.012015076 256:0.052859679 257:3.9124022e-18 258:0.076776716 259:0.055718994 260:0.42430709 261:0.2014269 262:0.18890903 263:-3.2472938e-16 264:6.9729239e-18 265:0.017554955 266:0.31953384 267:0.082022647 268:0.55868183 269:-1.3945848e-16 270:0.022205456 271:-2.8937634e-16 272:0.15095556 273:0.20307445 274:0.43621646 275:0.047490265 276:0.15518332 277:-4.2238371e-17 278:0.0070794307 279:-1.8229192e-16 280:0.489773 281:0.1888339 282:0.18970118 283:0.022136447 284:0.084001909 285:0.015652832 286:0.0098997199 287:-2.7045648e-16 288:0.31136939 289:0.24699808 290:0.12387035 291:0.058584791 292:0.20433877 293:0.027353077 294:0.027485385 295:9.8639078e-18 296:0.01403321 297:9.9711957e-18 298:0.015876765 299:0.025415225 300:0.62275557 301:0.11706517 302:0.20485389 303:0 304:0.039491231 305:0.0049058377 306:0.01421401 307:0.022921722 308:0.89754414 309:0.014717513 310:0.0062054483 311:0 312:0.024489939 313:1.6053071e-17 314:0.050536796 315:0.40656446 316:0.46386311 317:0.038932624 318:0.015612955 319:0 320:0.0097723956 321:0.069310979 322:0.12701362 323:0.40699219 324:0.36026597 325:0.0054629352 326:0.021181781 327:1.0849539e-18 328:-6.8437581e-17 329:3.732959e-17 330:0.032441098 331:0.057896956 332:0.6127587 333:0.23053817 334:0.055289107 335:0.011075715 336:0.12928842 337:-3.280891e-17 338:0.23508185 339:-8.2022274e-17 340:0.60950254 341:-3.280891e-17 342:0.026120205 343:6.5617819e-17 344:0.25232995 345:-5.6028505e-17 346:0.26763633 347:9.3380841e-18 348:0.42054992 349:1.8676168e-17 350:0.05947474 351:0 352:0.27008532 353:0.030196457 354:0.36905874 355:6.1170408e-16 356:0.21606826 357:5.9970988e-18 358:0.1145875 359:0 360:0.14431605 361:0.043026733 362:0.069808876 363:0.030424495 364:0.43294815 365:0.086053467 366:0.13257134 367:0.06084899 368:0.14803183 369:0.12731124 370:0.4546126 371:-5.0568722e-17 372:0.17080596 373:0.025462249 374:0.073773469 375:5.0568722e-18 376:0.25598568 377:0.045496786 378:0.22417125 379:4.9696823e-17 380:0.30604369 381:0.073615346 382:0.094685128 383:-1.8071572e-17 
1.847538181398712 0:0.61870912 1:0.086480959 2:0.0063507308 3:0 4:0.031434514 5:0.010041387 6:0.077667329 7:0.16931555 8:0.1893701 9:0.023974509 10:0 11:0.022103405 12:0.11344807 13:0.1152269 14:0.37965265 15:0.15622377 16:0.04469239 17:0.044229217 18:0.07220468 19:0.022575984 20:0.17965811 21:0.15545678 22:0.35616571 23:0.12501651 24:2.0928245e-16 25:9.5128385e-18 26:0.050591979 27:0.09496492 28:0.37886203 29:0.16300513 30:0.29564057 31:0.016934794 32:1.934209e-16 33:8.7918592e-18 34:0 35:0.020406803 36:0.37621583 37:0.2604585 38:0.32726706 39:0.015651303 40:1.8716185e-16 41:8.5073567e-18 42:0.28424788 43:0.069782549 44:0.41519568 45:0.15233467 46:0.078438755 47:1.2761035e-17 48:0.16256162 49:0.051928403 50:0.050336312 51:0.036718926 52:0.17972308 53:0.24444648 54:0.15999862 55:0.11428588 56:0.096059051 57:0.016522659 58:0.0478722 59:-6.5628905e-18 60:0.22738076 61:0.12577794 62:0.43965313 63:0.046733137 64:0.053582393 65:2.3415383e-18 66:0.014913378 67:0.038413462 68:0.33002436 69:0.26276698 70:0.28362519 71:0.016673664 72:0.14002366 73:0.012958316 74:0.0081955585 75:0.029549506 76:0.51256573 77:0.19226713 78:0.10443941 79:2.5735569e-17 80:0.071770156 81:0 82:0.04484209 83:0.034916486 84:0.34292221 85:0.27249292 86:0.16322254 87:0.069832973 88:-3.6964663e-17 89:0 90:0.15282499 91:0.13523072 92:0.627433 93:0.069796364 94:0.014714365 95:2.7723497e-17 96:0.4945399 97:0.06585406 98:0.0030566369 99:0.015746399 100:0.12159655 101:0.029406613 102:0.091681811 103:0.17811794 104:0.066161241 105:0.1112519 106:0.50366688 107:0.15562444 108:0.11117987 109:0.032572183 110:0.01954331 111:-1.5525419e-17 112:0.0091547859 113:0.034117873 114:0.29764358 115:0.63089883 116:0.021361167 117:-9.4862638e-18 118:0.0068235746 119:-1.7617347e-17 120:6.8583153e-17 121:-6.454885e-18 122:0.23351682 123:0.67886889 124:0.087614229 125:-2.4205819e-18 126:-3.2274425e-18 127:-9.6823274e-18 128:3.7530694e-17 129:0.0086579641 130:0.07932501 131:0.68793868 132:0.2176362 133:0.006442123 134:-4.0211458e-18 135:-5.3615277e-18 136:0.051788851 137:0.050010391 138:0.04612396 139:0.026216474 140:0.29897902 141:0.11470339 142:0.29209584 143:0.12008207 144:0.18892125 145:0.033836787 146:0.1397822 147:0.08704261 148:0.14013145 149:0.13968162 150:0.17016256 151:0.1004415 152:0.12270183 153:0.34884964 154:0.45583141 155:1.0191022e-17 156:0.034422214 157:-1.1210125e-17 158:0.0082740704 159:0.029920717 160:0.019105163 161:0.095162723 162:0.52481615 163:0.26581185 164:0.057976838 165:-7.6416317e-18 166:0.0044315895 167:0.032695647 168:0.021993582 169:0.071929672 170:0.47294738 171:0.35346099 172:0.018392908 173:0.025784938 174:0.019155515 175:0.016334983 176:0.044288808 177:0.052772982 178:0.35243084 179:0.24774564 180:0.24434041 181:0.020797367 182:0.037623745 183:1.3768046e-17 184:0.48482069 185:0.0076336439 186:0.0032873864 187:0.0056450385 188:0.050120216 189:0.014892156 190:0.048734976 191:0.38486588 192:0.10219597 193:0.21263902 194:0.22508768 195:0.084796808 196:0.060486684 197:0.011100616 198:0.16076458 199:0.14292845 200:0.46433473 201:0.056785536 202:-4.8996753e-17 203:1.6332251e-18 204:-8.1661255e-18 205:0.044575324 206:0.18264317 207:0.25166117 208:0.21819653 209:0.0092388108 210:-7.7379074e-17 211:3.2999899e-17 212:-1.3655131e-17 213:0.12266631 214:0.52559458 215:0.12430364 216:0.027535198 217:-1.8780189e-17 218:-1.2975403e-16 219:-5.1218697e-17 220:0.080715152 221:0.37115892 222:0.38494299 223:0.13564744 224:0.080648793 225:0.10300507 226:0.20918482 227:0.068676777 228:0.19815934 229:0.11815402 230:0.17346876 231:0.048702061 232:0.59835871 233:0.19373514 234:0.037410388 235:0.010692461 236:0.058513803 237:0.0019329336 238:0.010688779 239:0.088667772 240:0.19437781 241:0.032962503 242:0.21493215 243:0.075402676 244:0.11376968 245:0.091300799 246:0.14957213 247:0.1276816 248:0.19140966 249:0.042430842 250:0.0079931516 251:8.3666581e-19 252:0.046093579 253:0.16756151 254:0.34658169 255:0.1979295 256:0.0045706499 257:-4.0595526e-18 258:-4.0595526e-18 259:2.8416868e-17 260:0.031840535 261:0.47030563 262:0.48386044 263:0.0094226361 264:-1.8029261e-17 265:-1.1386902e-17 266:-1.1386902e-17 267:0.088654493 268:0.43958364 269:0.44456536 270:0.027196412 271:3.6058522e-17 272:0.058100788 273:0.19149706 274:0.36875819 275:0.24882435 276:0.12306337 277:0.0097562013 278:7.8796068e-17 279:2.4543038e-17 280:0.036926161 281:0.35174769 282:0.29798861 283:0.055113144 284:0.2004563 285:0.035386888 286:0.022380633 287:4.7321413e-16 288:0.26144686 289:0.047560854 290:0.071547826 291:0.080240326 292:0.11538367 293:0.021257304 294:0.26051035 295:0.14205209 296:0.37637247 297:0.095008716 298:0.090487441 299:-2.737798e-18 300:0.066871068 301:0.031792011 302:0.19363155 303:0.14583655 304:0.077881039 305:0.04659006 306:0.049605003 307:0.049090917 308:0.061389064 309:0.1160151 310:0.47419754 311:0.1252309 312:0.12086269 313:-4.0656004e-17 314:0.024275643 315:0.034804496 316:0.37676579 317:0.15159455 318:0.21932018 319:0.072375983 320:0.26659305 321:0.10838549 322:0.18133162 323:1.5067958e-16 324:0.21812159 325:0.027096372 326:0.19846887 327:2.1525654e-17 328:0.27073664 329:0.090807828 330:0.43539931 331:-7.2138731e-17 332:0.20305248 333:1.082081e-16 334:-2.1040463e-17 335:1.0099422e-15 336:0.18147046 337:1.3431512e-17 338:0.030707892 339:0.1619833 340:0.32447061 341:0.045699967 342:0.13431462 343:0.12135286 344:0.17506481 345:1.7903021e-17 346:0 347:1.7903021e-17 348:0.095344375 349:0.088515818 350:0.3588742 351:0.28220039 352:0.1817028 353:7.6849763e-18 354:-1.7291197e-17 355:0.013680826 356:0.017305028 357:0.069892303 358:0.31252331 359:0.40489535 360:0.28197279 361:-1.0850511e-17 362:0.025915299 363:-5.6965181e-17 364:0.012216589 365:0.068292808 366:0.3991244 367:0.21247735 368:0.58158962 369:0.02078405 370:0.033929037 371:1.6923853e-16 372:0.11304727 373:0.02078405 374:0.2298642 375:4.1277691e-18 376:0.26177826 377:0.21130739 378:0.35672667 379:4.1043151e-18 380:0.15711563 381:8.2086303e-18 382:0.013070298 383:6.77212e-16 
0.9527618089956088 0:0.013652663 1:0 2:0 3:0.10280578 4:0.7496043 5:0.069577563 6:0.064359269 7:0 8:0 9:0 10:0 11:6.4420914e-18 12:0.83097516 13:0.14338081 14:0.025643758 15:0 16:0 17:0 18:0 19:0.060629789 20:0.81823679 21:0.10900895 22:0.012124309 23:0 24:0 25:0 26:0 27:0.28785499 28:0.70587737 29:0.006267479 30:0 31:0 32:0 33:0.010066543 34:0.061428723 35:0.25459636 36:0.39751564 37:0.17182298 38:0.10456965 39:0 40:0.01011339 41:0 42:0.0035756235 43:0.14568405 44:0.80818675 45:0.024345493 46:0.0080946619 47:0 48:0.020712846 49:0 50:0.10081029 51:0.021833256 52:0.72086564 53:0.061753774 54:0.074023218 55:0 56:0 57:0 58:0.015061401 59:0 60:0.78115959 61:0.16567542 62:0.038102667 63:0 64:0 65:0 66:0.026194367 67:0.055566644 68:0.79342446 69:0.091680285 70:0.033133545 71:0 72:0.011302468 73:0 74:0.028620646 75:0.094783715 76:0.79876224 77:0.050546172 78:0.015984103 79:0 80:0 81:0 82:0.032711281 83:0.16691612 84:0.73494955 85:0.065422562 86:2.2737924e-17 87:0 88:0.056551645 89:0 90:0.11972827 91:0.39447994 92:0.36867769 93:0.012714945 94:0.023667945 95:0.024179428 96:0.024328215 97:0 98:0.17481806 99:-1.0803898e-17 100:0.59604126 101:0.10879908 102:0.096010353 103:0 104:0.07898017 105:0.05045858 106:0.19665558 107:0 108:0.53029543 109:4.0084847e-17 110:0.14360764 111:0 112:0.14748939 113:0 114:0.38560113 115:-1.9649534e-17 116:0.38347242 117:5.2398758e-17 118:0.0834326 119:0 120:0.1366568 121:0.047011369 122:0.46909456 123:0.086684681 124:0.094608555 125:0.047011369 126:0.1189304 127:0 128:0.073334844 129:0.13406246 130:0.28071491 131:0.21254638 132:0.066452954 133:0.0071811268 134:0.0090834867 135:0.21662379 136:0.013256511 137:0.10568814 138:0.54698338 139:0.22614208 140:0.091137933 141:0.011756139 142:0.0050357969 143:-7.1562978e-18 144:0.0041795708 145:0 146:0.03461305 147:0.50668701 148:0.44098117 149:9.2805115e-19 150:0.013539111 151:0 152:0.088287137 153:0.039183176 154:0.43798304 155:0.26576753 156:0.16877819 157:2.383014e-17 158:0 159:0 160:0 161:0 162:0.5602885 163:0.2590699 164:0.1732178 165:1.864828e-17 166:0.0074232412 167:0 168:0.021097331 169:0.012027329 170:0.59160137 171:0.25270522 172:0.11510949 173:0 174:0.0074590329 175:0 176:0.21208228 177:0.16409651 178:0.23707912 179:0.074047582 180:0.0038176021 181:0.017072835 182:0.044520508 183:0.24728347 184:0.032473702 185:-2.1631831e-17 186:0.0090766757 187:-1.9288383e-16 188:0.24541835 189:0.17065466 190:0.38935935 191:0.15301693 192:0.040989718 193:0.037812968 194:0.027167761 195:0.19187431 196:0.45165663 197:0.049952767 198:0.068781006 199:0.13176483 200:0.16993155 201:0.14279361 202:0.22530378 203:0.064666565 204:0.056072974 205:0.15825146 206:0.10155888 207:0.081420965 208:0.020478685 209:0.057311729 210:0.8064376 211:0.070491633 212:0.039669864 213:4.22807e-17 214:0.005610166 215:-1.0217836e-16 216:0.06555072 217:0.036643966 218:0.5787234 219:0.044125179 220:0.14748912 221:5.8220735e-17 222:0.12746624 223:-2.1105016e-16 224:0.20118218 225:0.04408931 226:0.1328505 227:0.06866669 228:0.12807616 229:0.058785746 230:0.32478073 231:0.0415678 232:0.27605023 233:0.20189376 234:0.019789222 235:8.531748e-17 236:0.023161019 237:0.0056524823 238:0.15642188 239:0.31703128 240:0.0083313147 241:0 242:0.047025967 243:0.064538347 244:0.68170866 245:0.14875807 246:0.039745652 247:0.0098919313 248:0.044269672 249:0.090913198 250:0.10437009 251:0.071547536 252:0.36092949 253:0.090613705 254:0.12398101 255:0.11337516 256:0.011437316 257:0.0085248719 258:0.027832949 259:0.21128971 260:0.61027498 261:0.059674103 262:0.070965768 263:1.3544503e-17 264:0.019264518 265:1.711033e-17 266:0.038013336 267:0.015229939 268:0.85431794 269:0.03230758 270:0.040866215 271:1.711033e-17 272:0.29801663 273:0.1339348 274:0.090351588 275:1.4797189e-17 276:0.083275344 277:0.054309578 278:0.060296457 279:0.27981546 280:0.036117449 281:0.44994257 282:0.31967993 283:0.0087032298 284:0.080260505 285:1.5888907e-17 286:0.070483242 287:0.034812919 288:0.011626408 289:0 290:0.064993596 291:0.11192408 292:0.72791 293:0.025997439 294:0.057547783 295:1.4456855e-16 296:0.0090010575 297:0.010063488 298:0.12875965 299:0.014231922 300:0.70548504 301:0.10063488 302:0.031823544 303:3.9972725e-18 304:0.015456929 305:2.2880851e-18 306:0.10132337 307:0.088952279 308:0.7232718 309:0.034562744 310:0.036432331 311:0 312:0.087914488 313:3.0032212e-18 314:0.053377094 315:0.29590513 316:0.56280235 317:0 318:2.552738e-17 319:0 320:0.18319708 321:0.040220328 322:0.092444637 323:0.017516285 324:0.034352261 325:0.10548999 326:0.32054377 327:0.20623541 328:-9.9176187e-18 329:-3.9670475e-18 330:-5.5538665e-17 331:0.020222932 332:0.83978125 333:0.13999571 334:3.173638e-17 335:1.1901142e-17 336:0.034483954 337:0 338:0.12587614 339:0.072698558 340:0.64370047 341:0.025702822 342:0.09753535 343:2.8586043e-16 344:0.049581875 345:0.055434221 346:0.3619756 347:-2.7523469e-17 348:0.53300515 349:4.4037551e-17 350:-5.5046939e-18 351:1.1009388e-17 352:0.031127568 353:0 354:0.20523826 355:-8.2940503e-17 356:0.6848065 357:0.034801679 358:0.044021029 359:0 360:0.19681835 361:0 362:0.025888188 363:2.056586e-17 364:0.49783464 365:0.18121732 366:0.098238767 367:0 368:0.040288314 369:-2.2364507e-17 370:0.17189704 371:0.063701418 372:0.64461302 373:0.022521852 374:0.05697628 375:2.5942828e-16 376:0.01421368 377:-1.5780355e-17 378:0.031782755 379:0.022473801 380:0.58681723 381:0.20400325 382:0.14070825 383:8.5213916e-17 
0.3927363619845689 0:0 1:0 2:0.27479019 3:0.30380812 4:0.38673437 5:0.024899832 6:0.0097665176 7:0 8:0.090752741 9:0.068535633 10:0.19255279 11:0.15482411 12:0.11665578 13:0.093295983 14:0.19737931 15:0.086003342 16:0.051983295 17:0.029054643 18:0.092812607 19:0.017286945 20:0.47203898 21:0.24922729 22:0.087596126 23:-4.2149852e-18 24:0.060946028 25:0.014043284 26:0.027225453 27:0.0099301015 28:0.50627543 29:0.23782942 30:0.094791531 31:0.048958553 32:0.087651169 33:0.017168758 34:0.038676976 35:0.019633226 36:0.30777117 37:0.20409645 38:0.24513657 39:0.079865213 40:0.051917635 41:0.006630947 42:0.053694061 43:0.0093775752 44:0.28348457 45:0.23688969 46:0.30669833 47:0.051307013 48:0 49:0 50:0.1909214 51:0.54007506 52:0.26033084 53:0.0086723856 54:0 55:0 56:0 57:1.0833013e-18 58:0.1762471 59:0.77661288 60:0.047139891 61:-2.1666027e-18 62:-2.1666027e-18 63:0 64:0.0041533887 65:0.0023218149 66:0.042323899 67:0.70017043 68:0.24027474 69:0.0092872594 70:0.0014684446 71:0 72:0.021839288 73:0.011229413 74:0.030385036 75:0.094393518 76:0.79510156 77:0.03055826 78:0.0090065502 79:0.0074863309 80:0.13605543 81:0.045572087 82:0.082254706 83:0.25882098 84:0.24608777 85:0.083754759 86:0.12678439 87:0.020669648 88:0.30266625 89:0 90:0.066645728 91:0.080045519 92:0.30266625 93:0.088275953 94:0.15969675 95:1.1687897e-17 96:0.10586078 97:0.46872559 98:0.22439378 99:0.073824821 100:0.070941306 101:0.0056004262 102:0.040326488 103:0.010326676 104:-1.481547e-18 105:0.23104165 106:0.7432605 107:0.022786467 108:0.0016680737 109:-7.4077352e-19 110:0.0012433087 111:0 112:0.0012785624 113:3.633893e-17 114:0.40593059 115:0.52113323 116:0.071657583 117:1.4194895e-17 118:-8.5169367e-18 119:0 120:0.01133292 121:2.9281906e-17 122:-1.3222611e-16 123:-2.9281906e-17 124:0.74948885 125:0.20717702 126:0.022227228 127:0.0097739566 128:0.016604657 129:0.03020898 130:0.0052837846 131:0.0040337253 132:0.43474471 133:0.30533569 134:0.14127062 135:0.062517829 136:0.012690103 137:4.3326568e-17 138:0.039308407 139:-4.3326568e-17 140:0.26806953 141:0.26240188 142:0.23205347 143:0.18547657 144:0.62656124 145:0.3333651 146:0.010728013 147:0.0021417773 148:0.0060956052 149:3.0077694e-19 150:0.0059024264 151:0.015205831 152:0.07338831 153:0.7965752 154:0.075286669 155:-1.4969058e-18 156:0.040448786 157:-2.9938116e-18 158:0.014300805 159:-8.9814347e-18 160:0.11108303 161:-1.5736517e-14 162:4.8097505e-15 163:9.3728471e-16 164:0.88866423 165:1.2826001e-15 166:-2.4665387e-16 167:-2.9598465e-16 168:0.63154312 169:-7.4556011e-15 170:1.9866022e-16 171:-7.0115371e-17 172:0.36840015 173:2.1034611e-16 174:2.2203201e-16 175:-1.4023074e-16 176:0.63242146 177:0.087221388 178:0.12211966 179:0.057390902 180:0.027187014 181:-1.1978787e-17 182:-4.1177082e-18 183:0.073659517 184:0.2726877 185:0.025770198 186:0.040247366 187:0 188:0.019817666 189:0.0053878233 190:0.16470278 191:0.47138645 192:0.35425315 193:0.016131922 194:0.016125981 195:-4.8915692e-18 196:5.7547873e-19 197:2.8773937e-19 198:0 199:0.61348893 200:0.11044346 201:-8.4080139e-17 202:0.10402916 203:0.10736633 204:0.35094855 205:0.13428314 206:0.19292808 207:1.0089617e-15 208:0.055048512 209:-1.4056709e-16 210:0.058387765 211:0.04351967 212:0.56424725 213:0.12309222 214:0.15570071 215:1.7601444e-15 216:0.17030594 217:0.076527883 218:0.20379529 219:0.041427283 220:0.35371235 221:0.058587026 222:0.095640715 223:1.6755183e-15 224:0.79590798 225:0.074917069 226:0.058628204 227:0.052542101 228:1.805255e-17 229:-8.5248155e-18 230:0.0097780577 231:0.0082265596 232:0.25032348 233:0.040295383 234:0.08470767 235:0.099965624 236:0.37462277 237:0.047955643 238:0.044634785 239:0.057494629 240:0.18365809 241:0.088217264 242:0.032472822 243:0.017625728 244:6.767212e-19 245:0.022895535 246:0.20595881 247:0.44917174 248:0.022783478 249:0 250:3.6942943e-17 251:0.35956111 252:0.2455024 253:0.19255677 254:0.16790444 255:0.011691729 256:0.0033057149 257:7.3401616e-19 258:0.1845451 259:0.65982755 260:0.11860656 261:0.023006629 262:0.010708382 263:4.2572937e-17 264:0.063820178 265:0.015695324 266:0.061052348 267:0.77656159 268:0.066791384 269:0.0050615901 270:0.011017547 271:3.6158758e-17 272:0.099323138 273:0.10608337 274:0.39514847 275:0.24628377 276:0.0833077 277:-1.7023288e-17 278:0.053372301 279:0.016481238 280:4.8787289e-17 281:0.0078546511 282:0.24079718 283:0.34455347 284:0.39807951 285:-1.084162e-17 286:-2.7104049e-18 287:0.0087151727 288:0.13930359 289:0.10400282 290:0.51133957 291:0.1895895 292:0.017116162 293:0 294:0.010076328 295:0.028571992 296:0.15068632 297:0.1652679 298:0.30926288 299:0.10032017 300:0.12020286 301:0.0089296173 302:0.029045842 303:0.11628429 304:0.008473265 305:0.021825198 306:0.7776341 307:0.073808525 308:0.083983744 309:0.023683496 310:0.010591581 311:-2.8221642e-17 312:0.33744036 313:0.14778254 314:0.098068887 315:0.077807224 316:0.11673029 317:0.064241206 318:0.063489453 319:0.094439764 320:0.12444227 321:0.38550947 322:0.3434262 323:0.022502891 324:0.013429615 325:0.044905032 326:0.03495697 327:0.030827419 328:0.32058721 329:0.48326143 330:0.11590311 331:0.010085199 332:0.070162841 333:-1.1330386e-17 334:9.489198e-17 335:-9.9140875e-17 336:0.31782078 337:-8.7106124e-18 338:0.14485563 339:0.22584058 340:0.13836289 341:0.043859479 342:0.10858421 343:0.020675557 344:0.15161058 345:0.26787672 346:0.50350571 347:0.056524451 348:-2.5236698e-17 349:0.0052946355 350:0.015187787 351:0 352:0.29336416 353:0.241319 354:0.25400933 355:0.076456324 356:0.051244196 357:0.0096398556 358:0.056187072 359:0.017779991 360:0.2988507 361:0.37528458 362:0.30550256 363:8.2651982e-17 364:0.013060752 365:0.0073011824 366:1.1600278e-17 367:-2.9000695e-18 368:0.10824708 369:0.3833232 370:0.48916042 371:0.0118037 372:0.0074653155 373:-3.3152661e-17 374:-8.2881652e-19 375:-9.9457982e-18 376:0.1346501 377:0.71859434 378:0.072978457 379:0.015057741 380:0.058719199 381:-9.9339287e-18 382:6.3328795e-17 383:-5.4636608e-17 
0.4867364042573517 0:0.04888098 1:0 2:0.086345166 3:0.24120518 4:0.47796982 5:0.046843369 6:0.098754492 7:0 8:0.0062850595 9:0 10:0.19586819 11:0.10541438 12:0.60438563 13:0.070269101 14:0.017776833 15:0 16:0.005556032 17:0 18:1.8505304e-17 19:0.040477822 20:0.85256011 21:0.062118326 22:0.039287079 23:0 24:0 25:0 26:1.4014459e-17 27:0.030654713 28:0.73425629 29:0.18511354 30:0.036669173 31:0.013305918 32:0 33:0 34:0.015386061 35:0.21415342 36:0.74534322 37:0.015386061 38:0.0097309992 39:0 40:0.01821255 41:0.11321764 42:0.23917421 43:0.42089054 44:0.20206578 45:0.0064391088 46:-1.2788246e-17 47:0 48:0.011556038 49:0 50:0.068022881 51:0.19229089 52:0.62635364 53:0.085433163 54:0.016342706 55:0 56:0.021216558 57:0.25172027 58:0.33989306 59:0.1114083 60:0.27576128 61:0 62:0 63:0 64:0.011800068 65:-2.0961132e-17 66:0.15211153 67:0.086057028 68:0.75003066 69:0 70:0 71:0 72:0.0098011912 73:-1.7410413e-17 74:0.056568574 75:0.051199761 76:0.88242998 77:8.7052065e-18 78:0 79:0 80:1.6657102e-18 81:0.016774292 82:0.056988421 83:0.56541298 84:0.36082401 85:0 86:0 87:0 88:1.6370349e-18 89:-6.5481394e-18 90:0.087436579 91:0.49232782 92:0.42023533 93:0 94:0 95:0 96:0 97:0 98:0.066825219 99:0.34078725 100:0.55688516 101:0.029320646 102:0.006181335 103:0 104:0.065643738 105:0.012231988 106:0.048927954 107:0.1927704 108:0.56061625 109:0.048927954 110:0.07088111 111:0 112:0 113:0 114:0.070282285 115:0.66049458 116:0.24016696 117:0.01491055 118:0.01414539 119:0 120:0.015112976 121:0 122:0.029490967 123:0.67426546 124:0.27044397 125:4.4743397e-18 126:0.010686488 127:0 128:0.026921946 129:0.025242396 130:0.08752153 131:0.496615 132:0.35331536 133:0 134:0.010383649 135:0 136:0.0033810957 137:0.033810957 138:0.43271184 139:0.26888448 140:0.26121139 141:0 142:4.5045244e-18 143:0 144:0.034976835 145:0.15941007 146:0.2474734 147:0.15313678 148:0.20487892 149:0.11477006 150:0.085353471 151:0 152:0.012330659 153:0.11997406 154:0.52202827 155:0.23116529 156:0.090778158 157:0.0090256037 158:-1.7925096e-18 159:0.01469794 160:0.0032185191 161:0.0043180964 162:0.16176041 163:0.7862226 164:0.037841364 165:0.0043180964 166:0.0023209071 167:-1.1434477e-18 168:0 169:0.0025400954 170:0.083174419 171:0.87477541 172:0.039510066 173:2.5028716e-18 174:-9.3857684e-19 175:-1.2514358e-18 176:0.0033452027 177:1.693548e-17 178:1.7975378e-17 179:0.2345216 180:0.42146877 181:0.21702294 182:0.10520436 183:0.018437118 184:0.00081701097 185:2.1769545e-17 186:0.13099492 187:0.15091157 188:0.27205026 189:0.28293674 190:0.16228948 191:0 192:0.67119353 193:0.1467272 194:0.034040329 195:0.048737232 196:0.055990421 197:0.0028867964 198:0.020379756 199:0.020044707 200:0.33669327 201:0.17387934 202:0.42282934 203:0.065811991 204:0.00078604643 205:0 206:1.7453737e-19 207:6.9814948e-19 208:3.1381935e-15 209:0.93749969 210:0.062460365 211:-2.8243742e-15 212:-2.3536451e-16 213:0 214:2.9420564e-17 215:3.9227419e-17 216:3.5108335e-13 217:-5.2662502e-14 218:-1.4262761e-13 219:3.4230626e-13 220:-1.7554167e-14 221:8.7770837e-15 222:3.2914064e-15 223:4.3885418e-15 224:0.71187737 225:-9.0889405e-16 226:0.19897577 227:-2.0548909e-15 228:0.088984672 229:1.8968224e-15 230:-8.8913548e-16 231:7.9034265e-17 232:0.5179874 233:0.02415319 234:0.017434767 235:0.0082129727 236:0.014852248 237:2.8781338e-17 238:0.07165049 239:0.34570889 240:0.20169641 241:0.18757436 242:0.018957001 243:0.34001175 244:0.1237735 245:0.016815454 246:0.018115014 247:0.093056499 248:0.16294357 249:0.016107173 250:0.0046257106 251:0.021323472 252:0.12762988 253:0.20106072 254:0.22808256 255:0.23822686 256:-2.5598696e-16 257:-2.1556797e-17 258:-6.062849e-17 259:-3.9880074e-16 260:0.98643146 261:0.013567787 262:-1.0104748e-16 263:8.6227186e-17 264:-3.6527114e-16 265:-3.0759675e-17 266:0.012244372 267:5.8443382e-16 268:0.96326535 269:-1.5379837e-17 270:0.024488745 271:1.230387e-16 272:0.019213977 273:0.75535502 274:0.18620449 275:0.035733 276:0.0034934503 277:3.1028072e-17 278:-4.731781e-17 279:2.4822458e-17 280:0.090845053 281:0.29570361 282:0.47513364 283:0.0604362 284:0.062197352 285:3.549925e-17 286:0.015684063 287:1.41997e-17 288:0.36234249 289:0.028697359 290:0.19204559 291:-2.1087683e-16 292:0.30801237 293:1.1398748e-17 294:0.10889882 295:-2.2797495e-17 296:0.03446436 297:-4.0814002e-17 298:0.0040616638 299:0.19303151 300:0.43212337 301:0.24546644 302:0.090852487 303:3.5712251e-17 304:0.0068140166 305:0.0038091511 306:0.037309619 307:0.0053869531 308:0.93945285 309:0 310:0.007227356 311:0 312:-5.0413345e-18 313:0 314:2.0795505e-17 315:0.13977684 316:0.85070411 317:0.0095190052 318:5.6715013e-18 319:0 320:0.015202639 321:0.085601967 322:0.28763158 323:0.36405067 324:0.1712486 325:0.045074866 326:0.021499778 327:0.0096898189 328:0.039222481 329:0.049028101 330:0.32708497 331:0.22458688 332:0.25494612 333:1.9160108e-16 334:0.10512948 335:-6.9673122e-17 336:0.18195769 337:-1.740425e-16 338:0.2669636 339:-2.2998474e-16 340:0.34991864 341:0.031297674 342:0.16985839 343:-2.4863215e-17 344:0.12413293 345:-1.7640351e-16 346:0.24411513 347:-1.1025219e-16 348:0.53377162 349:0.027756968 350:0.070220192 351:1.5435307e-16 352:0.10890866 353:0.056198577 354:0.34252184 355:0.14051074 356:0.35185874 357:-3.720397e-18 358:-1.8601985e-17 359:0 360:0.096449745 361:0 362:0.27795855 363:0.1550268 364:0.32735864 365:0.080251039 366:0.062954094 367:0 368:0.20951867 369:0.018019153 370:0.011396313 371:1.145169e-16 372:0.073833394 373:0.28132316 374:0.40590798 375:0 376:0.25379182 377:0.049347457 378:4.9002699e-18 379:-9.8005398e-18 380:0.25379182 381:0.12336864 382:0.31969777 383:-7.8404319e-17 
0.4495272521805717 0:0.73007113 1:0 2:0.04129906 3:0 4:0.14601423 5:0 6:0.082598119 7:0 8:0.35246986 9:0 10:0.33231177 11:0 12:0.28197589 13:0 14:0.033231177 15:0 16:0.24144087 17:0.061673822 18:0.25459364 19:0.029073318 20:0.14710065 21:0.041115881 22:0.093123814 23:0.13187628 24:0.041371108 25:0 26:0.076198867 27:0.18197605 28:0.48072528 29:0.19380658 30:0.025921841 31:-3.255975e-18 32:0.052301859 33:0 34:0.033884851 35:-3.7162706e-17 36:0.44016073 37:0.39538755 38:0.07826445 39:-4.6453382e-18 40:0.26473956 41:0.053815968 42:0.13614483 43:-1.7100797e-16 44:0.40914296 45:-4.2751993e-17 46:0.13614483 47:-2.1375997e-17 48:0.4344001 49:0.031333811 50:0.099086212 51:0 52:0.056051626 53:0.031333811 54:0.20138832 55:0.1464021 56:0.10120442 57:0.14818302 58:0.19904522 59:0.16657269 60:0.20662257 61:0.077689343 62:0.10068216 63:0 64:0.089427716 65:-3.6797594e-18 66:0.13888041 67:0.33022988 68:0.13512954 69:0.1703384 70:0.076138492 71:0.059855477 72:0.1570682 73:0.0056677221 74:0.047502779 75:0.13288261 76:0.14844202 77:0.32763953 78:0.17278163 79:0.0080153695 80:0.026719778 81:0.017035805 82:1.0360712e-17 83:-2.590178e-17 84:0.092453242 85:0.36090034 86:0.44178069 87:0.061109974 88:0.02455671 89:-6.543222e-18 90:0.017927781 91:-4.362148e-17 92:0.18898869 93:0.35426635 94:0.34583218 95:0.0684278 96:0.63186665 97:0 98:0.085104227 99:0 100:0.18053333 101:0 102:0.054916456 103:0.047574709 104:0.074395083 105:0.2575402 106:0.56937872 107:0.014340919 108:0.019625758 109:0.015162116 110:0.018055747 111:0.031501426 112:7.3205415e-18 113:0.027220345 114:0.28897709 115:0.61889524 116:0.064907302 117:-4.1178046e-18 118:-4.5753385e-19 119:-4.5753385e-18 120:0.03566173 121:-2.1557803e-17 122:-5.3894507e-17 123:0.030940759 124:0.65916147 125:0.20750996 126:0.06672605 127:-3.2336704e-18 128:0.041260796 129:-2.9317559e-17 130:0.029652508 131:0.042371488 132:0.20665407 133:0.34074093 134:0.26877475 135:0.07054541 136:0.120118 137:0.024093709 138:0.067551761 139:0.022211066 140:0.14057406 141:0.11352604 142:0.34195288 143:0.16997213 144:0.64357467 145:0.096701111 146:0.11719487 147:0 148:0.086492103 149:0.019340222 150:0.036695492 151:-3.841021e-18 152:0.57168322 153:0.14053171 154:0.027002842 155:0.0050237369 156:0.0012184352 157:0.0088166798 158:0.010898016 159:0.23482533 160:4.2130002e-13 161:-2.6331251e-14 162:2.6331251e-14 163:1.3165626e-14 164:2.1942709e-14 165:-1.9748438e-14 166:-2.1942709e-15 167:-1.4921042e-13 168:0.98012841 169:-6.0937023e-15 170:2.1763223e-16 171:-2.1763223e-15 172:-6.9642312e-15 173:6.0937023e-15 174:6.9642312e-15 175:-2.7856925e-14 176:0.029379326 177:-7.3063433e-18 178:2.3484675e-18 179:5.2188167e-19 180:5.2188167e-18 181:-1.0437633e-18 182:0.63652563 183:0.33409502 184:0.052624879 185:-1.6313921e-17 186:0.078887295 187:0.024198649 188:0.11695269 189:0.18273805 190:0.28209347 191:0.26250483 192:0.39189611 193:0.11920066 194:0.18820238 195:0.04666504 196:0.12543264 197:0.016498583 198:0.11210347 199:-3.2766637e-18 200:0.23202944 201:0.010078948 202:2.6597426e-17 203:0 204:0.0091392261 205:0.082023356 206:0.20072162 207:0.46600738 208:-3.7220156e-16 209:6.2033593e-17 210:1.0855879e-16 211:5.1694661e-17 212:0.6244977 213:0.3754912 214:7.5991151e-16 215:6.6169166e-16 216:-1.0093646e-13 217:8.7770837e-15 218:-2.1942709e-15 219:-1.3165626e-14 220:-2.6331251e-14 221:6.5828128e-15 222:1.9858152e-13 223:1.4921042e-13 224:0.75656783 225:0.02365676 226:2.0585268e-18 227:0 228:9.6064586e-18 229:-8.920283e-18 230:9.4692235e-17 231:0.21977536 232:0.39946574 233:0.039228452 234:0.026236343 235:0.018708528 236:0.061360278 237:0.029022872 238:0.14384066 239:0.28213706 240:0.039986283 241:0.017664944 242:0 243:0 244:0.11421662 245:0.23042566 246:0.52096557 247:0.076740604 248:0.074844024 249:-3.9374094e-17 250:4.7887411e-17 251:0 252:0.025123103 253:0.37716028 254:0.42877968 255:0.094092799 256:0.0068175835 257:7.3430457e-19 258:5.5072842e-18 259:3.6715228e-18 260:0.1236941 261:0.466901 262:0.31236487 263:0.090222399 264:-6.9269972e-18 265:-1.7317493e-18 266:0.083726948 267:0.24067903 268:0.51149022 269:0.16410349 270:1.3680819e-16 271:4.1561983e-17 272:0.19698932 273:0.45001091 274:0.28250653 275:0.069754348 276:0.0007388778 277:1.4437617e-17 278:4.1508149e-17 279:-1.3125106e-18 280:0.3325034 281:0.10555866 282:6.0434584e-17 283:0.010777187 284:0.1110857 285:0.10297292 286:0.26694336 287:0.070158693 288:-1.7283766e-17 289:3.1425028e-18 290:0 291:0.022377185 292:0.11031514 293:0.335542 294:0.53176542 295:-4.7137543e-18 296:0.014430117 297:-4.6139468e-17 298:5.7674335e-17 299:0 300:-8.9715633e-18 301:0.033718101 302:0.74710587 303:0.20474575 304:0.010366819 305:3.0691948e-18 306:0.0048869651 307:7.6729871e-18 308:0.090815012 309:0.39107099 310:0.47768455 311:0.025175416 312:0.063794839 313:0.052229605 314:0.20546798 315:0.20765321 316:0.097913502 317:0.0366964 318:0.24328467 319:0.09295976 320:0.03178899 321:0.034907331 322:0.51313671 323:0.11517998 324:0.021936949 325:0.018481908 326:0.2481324 327:0.016435705 328:0.061342155 329:0.012469566 330:9.9059596e-18 331:-1.0896556e-16 332:0.1762747 333:0.1179742 334:0.53304936 335:0.098889377 336:0.10558738 337:4.4657349e-18 338:0 339:0 340:0.051095633 341:0.033728652 342:0.55596189 343:0.25362592 344:0.12990686 345:-5.3252524e-17 346:6.6565655e-17 347:0 348:0.037590992 349:0.074096019 350:0.54833454 351:0.21007137 352:0.086885694 353:3.2154166e-18 354:1.2057812e-17 355:8.0385415e-18 356:0.13510326 357:0.10278376 358:0.56137817 359:0.11384885 360:0.2105199 361:0.01459847 362:0.030381443 363:0.010322677 364:0.067877081 365:0.026368133 366:0.35487498 367:0.2850571 368:0.1127195 369:-1.3498655e-17 370:0.0028320052 371:1.3498655e-17 372:0.025367277 373:0.049813713 374:0.46891979 375:0.34034768 376:0.31820467 377:0.025411688 378:0.032143525 379:0 380:0.18183124 381:0.050823376 382:0.35564531 383:0.035937554 
0.1446177153502654 0:0 1:0 2:0 3:0.026282758 4:0.8365906 5:0.11525752 6:0.021868577 7:0 8:0 9:0 10:0.026057169 11:0 12:0.57618656 13:0.2975384 14:0.10021717 15:0 16:0 17:0 18:0.013467663 19:0.024833144 20:0.75254804 21:0.16161196 22:0.047538455 23:0 24:0 25:0 26:0.03612341 27:0.14140393 28:0.61286978 29:0.1324525 30:0.077149787 31:0 32:0 33:0 34:0 35:0 36:0.5940036 37:0.30493411 38:0.10106199 39:0 40:0 41:0 42:0 43:0.11580942 44:0.72386598 45:0.080266444 46:0.06063957 47:0.019418395 48:0 49:0 50:0.067646774 51:0 52:0.39413801 53:0.17901151 54:0.33286556 55:0.026336726 56:0 57:0 58:0.067079473 59:0.024340718 60:0.6297195 61:0.14823309 62:0.130626 63:0 64:0 65:0 66:0.06332393 67:0.15336426 68:0.54879616 69:0.17817186 70:0.056342891 71:0 72:0 73:0 74:0.14914553 75:0.065997995 76:0.68638393 77:0.098471865 78:3.9820301e-17 79:0 80:0 81:0 82:0 83:0.15836071 84:0.78785944 85:0.041388098 86:0.012391352 87:0 88:0.12617562 89:0.011086963 90:0 91:0.025282165 92:0.67617056 93:0.040051116 94:0.074195062 95:0.047038 96:0.026363242 97:0 98:0.29071652 99:0.28633649 100:0.30757116 101:0.039300001 102:0.049711007 103:0 104:0.013013443 105:0 106:0.067399782 107:0.12163582 108:0.65544189 109:0.087296832 110:0.055211365 111:0 112:0.018409519 113:0 114:0.16325145 115:0.25928107 116:0.3630497 117:0.12658085 118:0.069426645 119:0 120:0.01063647 121:0 122:0.11210752 123:0.22337974 124:0.55074769 125:0.04295904 126:0.060168963 127:0 128:0.0034003782 129:0 130:0.56990838 131:0.2762809 132:0.1263658 133:3.0201426e-18 134:0.024044305 135:0 136:0.049192714 137:0.14586896 138:0.56517541 139:0.14440075 140:0.095361583 141:-4.70545e-18 142:-1.6469075e-17 143:0 144:0.11735455 145:0.078723825 146:0.27522698 147:0.04838652 148:0.40640601 149:0.065603187 150:0.0082982198 151:0 152:0.056390526 153:0.11610061 154:0.10489576 155:0.1006343 156:0.51138661 157:0.063535584 158:0.047056231 159:0 160:0.0082828528 161:0.0092605109 162:0.044401679 163:0.36069794 164:0.57735667 165:0 166:-1.8391628e-18 167:0 168:0.045760927 169:0.046205307 170:0.10440017 171:0.2069831 172:0.53400972 173:0.025581136 174:0.037058965 175:0 176:0.3020577 177:0.30954707 178:0.12809478 179:0.080582556 180:0.12340761 181:0.017246738 182:0.039062328 183:0 184:0.21966388 185:0 186:0.41420219 187:-8.6169485e-16 188:0.36610647 189:-6.5033574e-17 190:-7.3162771e-17 191:0 192:0.0049750277 193:0 194:0.0333735 195:0.082239314 196:0.58416462 197:0.17449751 198:0.12074952 199:0 200:0.11573756 201:0.042650083 202:0.049380006 203:0.018663155 204:0.14303984 205:0.220866 206:0.15844095 207:0.25122236 208:0.0084206252 209:0.030378196 210:0.055418344 211:0.06311994 212:0.66682932 213:0.1591022 214:0.016731348 215:2.5642346e-17 216:0.083461422 217:0.066823108 218:0.096153672 219:0.015900789 220:0.67591949 221:0.046872601 222:0.0079669598 223:0.0069018619 224:0.40252672 225:0.21556942 226:0.028250806 227:0.011383118 228:0.2049011 229:0.075242868 230:0.031370215 231:0.030755491 232:0.25546968 233:3.2144543e-16 234:0.36128868 235:-1.3235988e-16 236:0.38320451 237:6.8070796e-16 238:4.8216814e-16 239:9.0761061e-16 240:0.044318428 241:0 242:1.8275526e-17 243:0.020021025 244:0.61529702 245:0.23082596 246:0.089536746 247:0 248:-2.6335597e-17 249:0 250:0.012026155 251:0 252:0.20483063 253:0.48594955 254:0.27319114 255:0.024002299 256:0.015491661 257:0.012369843 258:0.03534878 259:0.062279382 260:0.27698673 261:0.3888139 262:0.18402395 263:0.024685692 264:0.017691903 265:0.1828293 266:0.22523198 267:0.15588681 268:0.36796786 269:0.032440887 270:0.017951093 271:-7.3828477e-18 272:0.13767632 273:0.53165639 274:0.097655805 275:0.021487803 276:0.14269584 277:3.0176039e-17 278:0.068826893 279:-1.8105623e-17 280:0.15014602 281:0.047962386 282:0.39434299 283:-2.8576382e-17 284:0.40753919 285:6.6678226e-17 286:6.0486676e-16 287:-5.7152765e-17 288:0.027314102 289:0 290:0.35392022 291:-2.4259796e-17 292:0.49165383 293:0.030538094 294:0.096569933 295:0 296:0.12589866 297:0.13137505 298:0.21750953 299:0.026541768 300:0.31894327 301:0.056303592 302:0.096884925 303:0.026541768 304:0.27204974 305:0.17975552 306:0.071823312 307:-4.1649926e-17 308:0.13914236 309:0.074898132 310:0.18388552 311:0.078444499 312:0.28317216 313:0.0224837 314:0.093583403 315:-3.5722594e-17 316:0.25300712 317:0.058737578 318:0.28901397 319:1.7861297e-17 320:0.34023374 321:0.023535847 322:0.17862452 323:4.6742835e-18 324:0.13854022 325:0.085022106 326:0.20075659 327:0.033284714 328:0.49162763 329:0.10469646 330:0.033107927 331:-4.1586005e-17 332:0.30434091 333:4.1586005e-17 334:0.066215853 335:4.1586005e-17 336:0.079990075 337:0.022357906 338:0.6181762 339:-1.7761365e-17 340:0.16997891 341:0.067073717 342:0.042421143 343:0 344:0.070156752 345:0 346:0.31262655 347:0 348:0.43263331 349:0.052291756 350:0.13228884 351:-1.45394e-16 352:0.15100844 353:0.14885295 354:0.54332443 355:0.031835373 356:0.11073952 357:2.5036188e-16 358:0.014237212 359:0 360:0.19552739 361:0.054651568 362:0.52190292 363:-4.3415803e-17 364:0.18330693 365:0.027325784 366:0.017282343 367:0 368:0.17089663 369:0.25475766 370:0.34892281 371:6.3244459e-18 372:0.18513802 373:6.3244459e-18 374:0.040280723 375:0 376:0.3307695 377:0 378:0.19240729 379:-3.6722791e-17 380:0.37211568 381:-1.8361395e-17 382:0.10469878 383:0 
0.407421064872564 0:0.20546787 1:0.020730727 2:0.18781301 3:0.076451142 4:0.19733813 5:0.14511509 6:0.16708228 7:0 8:0.049452835 9:0 10:0.27229802 11:0.11217501 12:0.44084593 13:0.036859967 14:0.088366854 15:0 16:-1.0702754e-17 17:0 18:0.21609512 19:0.27522251 20:0.38055998 21:0.080835398 22:0.047286258 23:0 24:0.026042452 25:0.049205497 26:0.55955715 27:0.25060755 28:0.11458679 29:0 30:1.9660792e-17 31:0 32:0.038781449 33:0.027755299 34:0.56162004 35:0.15348517 36:0.15679298 37:0.02124847 38:0.040316137 39:0 40:0.032866494 41:0.16504804 42:0.6060006 43:0.093169406 44:0.10291521 45:0 46:1.2607871e-17 47:0 48:2.1310796e-18 49:0 50:0.021460728 51:0.12942391 52:0.5931207 53:0.18724277 54:0.068751424 55:0 56:0.011632032 57:0 58:0.2354201 59:0.15284773 60:0.48438913 61:0.091035051 62:0.024675266 63:0 64:0 65:0.032935024 66:0.36684847 67:0.41708128 68:0.17295732 69:0.010177482 70:-8.085103e-18 71:0 72:0 73:0.019464024 74:0.419571 75:0.24748696 76:0.24601763 77:0.045439042 78:0.02202103 79:0 80:0 81:0 82:0.6098203 83:0.29711004 84:0.093069394 85:2.702419e-17 86:-3.9741455e-18 87:0 88:1.1927166e-18 89:0.13978817 90:0.72412281 91:0.034030038 92:0.10205884 93:2.0276182e-17 94:-5.3672246e-18 95:0 96:0.15890147 97:0.01581849 98:0.064755994 99:0.039455978 100:0.5243015 101:0.11821311 102:0.065905977 103:0.012647441 104:0.044783702 105:0.0222532 106:0.082416783 107:0.23098282 108:0.53283411 109:0.033379801 110:0.053349079 111:0 112:0.050055346 113:0.024872701 114:0.38423319 115:0.35856605 116:0.11679581 117:0.049745402 118:0.015730877 119:0 120:0.10831216 121:0.068578632 122:0.24254703 123:0.06608665 124:0.370737 125:0.099009691 126:0.044728019 127:0 128:0.10104316 129:0.036912804 130:0.17656796 131:0.035653582 132:0.068251798 133:0.015261566 134:0.28424594 135:0.28206294 136:0.020067089 137:0.036842232 138:0.11747685 139:0.12491456 140:0.34843205 141:0.036246473 142:0.29820316 143:0.017817427 144:0.12400456 145:0.032422214 146:0.30224019 147:0.32502511 148:0.053888359 149:-1.327211e-18 150:0.026955045 151:0.1354645 152:0.20199657 153:0.057884597 154:0.24277662 155:0.031335005 156:0.16845298 157:0.093859382 158:0.20369284 159:-2.2442445e-16 160:0.39503144 161:4.2163661e-17 162:0.1602781 163:0.03752996 164:0.29670039 165:0.026537689 166:0.083919542 167:-2.6879334e-16 168:0.084880002 169:0.17508631 170:0.40677323 171:0.11342406 172:0.135808 173:0 174:0.084026915 175:-1.9224089e-16 176:0.083478371 177:0.075719784 178:0.33210014 179:0.12774802 180:0.22852382 181:0.064569836 182:0.06543676 183:0.022423217 184:0.018483766 185:0.030906301 186:0.082289898 187:0.064537731 188:0.094022963 189:0.060438546 190:0.34233457 191:0.30698612 192:0.14271884 193:0.022169964 194:0.056595826 195:0.017358331 196:0.055948982 197:0.01841129 198:0.20813361 199:0.47866301 200:0.065400099 201:0 202:0.16156105 203:-2.2819876e-17 204:0.16149511 205:0.1691918 206:0.4423515 207:3.3192546e-17 208:0.019024829 209:0.04254081 210:0.57699768 211:0.14479203 212:0.21664383 213:-1.1264961e-17 214:1.1405774e-16 215:4.5059846e-17 216:0.078483839 217:0.23588253 218:0.62244763 219:0.025165835 220:0.0099349741 221:-3.5296118e-18 222:0.0072530905 223:0.02083202 224:0.40602971 225:0.39748324 226:0.11338343 227:-4.4460358e-17 228:0.010921726 229:0.0081405742 230:0.0092188383 231:0.05482242 232:0.33909352 233:0.17417964 234:0.19393836 235:0.09309266 236:0.12242904 237:0.021933508 238:5.5720308e-17 239:0.055333177 240:0.23895804 241:0.12823834 242:0.26864783 243:0.060452134 244:0.10669264 245:0.042746114 246:0.075443089 247:0.078819939 248:0.31781284 249:0.1188618 250:0.051037315 251:0.019563645 252:0.012218447 253:0.018452609 254:0.28615223 255:0.17590106 256:0.22413972 257:0.28992884 258:0.31114861 259:0.049867743 260:0.04765135 261:1.6278039e-18 262:0.057524197 263:0.019739259 264:0.29803411 265:0.31332449 266:0.079623704 267:0.042574366 268:0.094449215 269:0.05226859 270:0.11972483 271:-6.2284108e-17 272:0.18337553 273:0.49511478 274:0.19249871 275:0.056912048 276:0.031783874 277:0.010921723 278:0.029393259 279:-2.5738891e-17 280:0.017635617 281:0.2995374 282:0.32584908 283:0.086617713 284:0.23422862 285:0.012470265 286:0.023660664 287:-7.4298859e-17 288:0.75210241 289:0.062288844 290:0.033250685 291:1.0850781e-16 292:0.034385404 293:-5.6124727e-18 294:0.061322045 295:0.056650249 296:0.59545154 297:0.18273099 298:0.12602104 299:0.044218733 300:0.051577667 301:1.2029109e-18 302:-5.4130991e-18 303:-1.2029109e-18 304:0.035005873 305:0.078159575 306:0.18356235 307:0.26315255 308:0.35611127 309:0.048813057 310:0.0228952 311:0.01229981 312:0.020020819 313:0.044767913 314:0.12180271 315:0.23708338 316:0.43989742 317:0.098675218 318:0.037751619 319:-5.9273532e-18 320:2.3762186e-16 321:0.0097273841 322:0.1730962 323:0.35972001 324:0.27614877 325:0.029182152 326:0.10251862 327:0.049606478 328:0.050586102 329:1.6046244e-16 330:0.032318275 331:0.22458982 332:0.428714 333:0.11311396 334:0.15067677 335:-2.5673991e-17 336:0.55863239 337:0.015804334 338:0.018595496 339:6.0683157e-17 340:0.018847768 341:0.0052681114 342:0.0305273 343:0.35232449 344:0.574854 345:0.0042811327 346:4.6763456e-18 347:-1.7004893e-18 348:0.023210665 349:0.030930769 350:0.07252897 351:0.29419439 352:0.096532445 353:0.015418079 354:0.18524615 355:0.14407689 356:0.34542599 357:0.071115144 358:0.14218432 359:6.5834562e-16 360:0.33353359 361:0.074838334 362:0.093843291 363:4.9372889e-17 364:0.092648219 365:0.062150315 366:0.20798894 367:0.13499556 368:0.43685952 369:0.075142122 370:0.15177818 371:-2.1887698e-16 372:0.15682137 373:0.025047374 374:0.15434887 375:1.0396657e-15 376:0.39463686 377:0.020849241 378:0.08678033 379:-5.3829311e-17 380:0.037296256 381:0.083396964 382:0.25909745 383:0.11794112 
1.725533259669141 0:0.004559705 1:0 2:0 3:0 4:0.84459558 5:0.11215391 6:0.03869038 7:0 8:0 9:0 10:0 11:0.022491977 12:0.82956048 13:0.11675638 14:0.031190761 15:0 16:0 17:0 18:0.061202578 19:0.074192448 20:0.76488197 21:0.091298302 22:0.0084244085 23:0 24:0.012082432 25:0.0090057134 26:0.018011427 27:0.14183353 28:0.73858245 29:0.02352699 30:0.056957133 31:0 32:0.015510484 33:0.087248492 34:0.066864212 35:0.055546664 36:0.32945048 37:0.21418379 38:0.23119576 39:0 40:0.11896325 41:0.038437251 42:0.046054397 43:0 44:0.30950758 45:0.20851542 46:0.21121687 47:0.067304652 48:0 49:0 50:0.045146668 51:0 52:0.66538178 53:0.23745279 54:0.052018128 55:0 56:0 57:0 58:0.011716163 59:0.021603538 60:0.71754087 61:0.18555303 62:0.06358583 63:0 64:0.012853755 65:0 66:0.089745151 67:0.15461524 68:0.64894536 69:0.057483738 70:0.036355908 71:0 72:0.0064100087 73:0 74:0.0090651213 75:0.081080909 76:0.76158203 77:0.11466572 78:0.027195364 79:0 80:0 81:0.02076259 82:0.047883221 83:0.042815158 84:0.77074024 85:0.081361892 86:0.036436458 87:0 88:0.038668974 89:0.01207248 90:0.070954343 91:0.2830149 92:0.53172817 93:0.048289921 94:0.015270614 95:0 96:0.051047555 97:0.014268225 98:0.34651532 99:0.26113568 100:0.21057117 101:0.042804676 102:0.073656542 103:0 104:0.069921765 105:0 106:0.029665293 107:0.53892404 108:0.29480609 109:0.046904946 110:0.019776862 111:0 112:0.021238403 113:0.011872628 114:0.061289804 115:0.09166784 116:0.73954979 117:0.035617885 118:0.038763076 119:0 120:0.018280863 121:0 122:0.096192956 123:0.22492418 124:0.60749669 125:0.027251502 126:0.025853045 127:0 128:0.02328439 129:-1.0340346e-17 130:0.077261258 131:0.30595147 132:0.55578899 133:0.01301637 134:0.024696825 135:0 136:0.0168287 137:0 138:0.14558319 139:0.31936674 140:0.47965453 141:0.032735202 142:0.0058315527 143:0 144:0.14836761 145:0.31444848 146:0.10829528 147:0.074983487 148:0.2692442 149:0.027360333 150:0.03435039 151:0.022950056 152:0.066554712 153:0.095030781 154:0.28834916 155:0.38040037 156:0.16966489 157:9.7762166e-19 158:4.8881083e-18 159:0 160:0.0091431713 161:0.0051111881 162:-5.0754796e-17 163:0.18718926 164:0.79855627 165:1.0150959e-18 166:3.0452878e-18 167:0 168:-5.967203e-18 169:-5.967203e-17 170:0.010015309 171:0.21575408 172:0.76922285 173:0.0050076544 174:8.4535376e-18 175:0 176:-5.9788543e-18 177:0.016236751 178:0.054507195 179:0.054640078 180:0.86458101 181:0.010034864 182:-5.9788543e-18 183:0 184:0.080528668 185:0.063583257 186:0.062326249 187:0.04814017 188:0.43123843 189:0.12049217 190:0.08050372 191:0.11318726 192:0.10255926 193:0.12184834 194:0.050895305 195:0.10031549 196:0.093174051 197:0.13265127 198:0.34696011 199:0.051596 200:0.095872764 201:0.041919045 202:0.042880157 203:0.010966302 204:0.087258984 205:0.031017386 206:0.33018521 207:0.35989991 208:0.1178056 209:3.4412104e-17 210:0.062320455 211:-4.7316643e-17 212:0.36467479 213:0.17327105 214:0.28192619 215:6.8824208e-17 216:0.15663442 217:0.05003503 218:0.18175002 219:0.035380109 220:0.30208067 221:0.10007006 222:0.17404712 223:7.949675e-17 224:0.080611202 225:0.022531516 226:0.12459527 227:-6.2647488e-17 228:0.53731956 229:0.1351891 230:0.099751273 231:7.159713e-17 232:0.052148569 233:0.1022496 234:0.28522245 235:0.076747299 236:0.25710592 237:0.042911854 238:0.14405442 239:0.039558793 240:0.042932064 241:0.016967222 242:0.05111216 243:0.078927713 244:0.43943761 245:0.17309513 246:0.17812488 247:0.019402761 248:0.031842972 249:0.028442845 250:0.013216525 251:0.026814345 252:0.22808779 253:0.25903115 254:0.31993164 255:0.092632652 256:0.0065908996 257:0 258:0.0147377 259:0.15383862 260:0.58584627 261:0.13598831 262:0.10299797 263:-4.2440737e-17 264:0.0052305739 265:0.011695919 266:0.080333694 267:0.17802907 268:0.67052936 269:0.046783675 270:0.0073971486 271:-6.7362402e-17 272:-7.7461383e-18 273:-7.7461383e-18 274:0.35640894 275:0.095284859 276:0.43071469 277:0.068255566 278:0.049335555 279:-5.6159502e-17 280:0.022865477 281:0.070250887 282:0.56842069 283:0.17136835 284:0.12806776 285:0.0080779653 286:0.019524799 287:0.011423968 288:0.034453013 289:4.9725687e-17 290:0.15210186 291:0.035513353 292:0.74648946 293:0.01925982 294:0.01218098 295:-7.6501057e-18 296:0.027408411 297:0.012257414 298:0.020009683 299:0.04520311 300:0.42530479 301:0.39128046 302:0.078535516 303:2.4343559e-17 304:0.003966397 305:0.0088691334 306:0.0056093325 307:0.012542849 308:0.56104201 309:0.30861866 310:0.099351304 311:0 312:0 313:0 314:-1.4884072e-18 315:0.39564563 316:0.51320523 317:0.059955156 318:0.031193751 319:0 320:0.11511833 321:0.091225589 322:0.14678688 323:0.056641729 324:0.38420111 325:0.053281933 326:0.1527437 327:0 328:0.57368143 329:0.032628276 330:0.020635933 331:3.2400323e-17 332:0.074143005 333:0.042619895 334:0.11085021 335:0.14544016 336:0.37635019 337:9.8760444e-17 338:0.12096353 339:-9.8760444e-17 340:0.1881751 341:3.0387829e-17 342:0.31450519 343:-1.5193914e-17 344:0.34175941 345:0 346:0.29624592 347:-1.3009e-16 348:0.29293664 349:-3.1438417e-16 350:0.069045828 351:1.0840833e-16 352:0.33856756 353:0 354:0.2085234 355:-2.7337128e-17 356:0.18467322 357:0.068823644 358:0.19940733 359:0 360:0.12670079 361:0.080946167 362:0.17013235 363:0.085856376 364:0.073869075 365:0.2428385 366:0.21965506 367:0 368:0.42349799 369:0.10772571 370:0.20715922 371:5.3486549e-18 372:0.1324851 373:-6.4183859e-17 374:0.12912901 375:0 376:0.4071034 377:0.12772689 378:0.14393279 379:-4.5197557e-18 380:0.15266378 381:0.022757772 382:0.14581325 383:-6.7796335e-17 
1.047111017846591 0:0.036238815 1:0 2:0.012812356 3:0 4:0.55852268 5:0.18232302 6:0.18145214 7:0.028649299 8:0.035371457 9:0 10:0 11:0.027963592 12:0.43473534 13:0.17795921 14:0.3239688 15:0 16:0.014456944 17:0 18:0 19:0.04571687 20:0.2492871 21:0.34932971 22:0.29549143 23:0.04571687 24:0.0059965932 25:0 26:0.01340879 27:0.037925786 28:0.61020565 29:0.21235976 30:0.12010268 31:0 32:0.0078481729 33:0 34:0.017549048 35:0.049636204 36:0.54789185 37:0.17549048 38:0.20158299 39:0 40:0.0090762818 41:0 42:0.045966785 43:0.028701723 44:0.66404145 45:0.1217711 46:0.13044097 47:0 48:0.2488229 49:0.079483561 50:0.21568614 51:0 52:0.35546129 53:0 54:0.10053964 55:0 56:0.093371765 57:0 58:0.094800557 59:0 60:0.63025941 61:0 62:0.18156547 63:0 64:0.051820367 65:0 66:0.075663571 67:0 68:0.56134182 69:0.16222341 70:0.14894864 71:-9.2051463e-18 72:0.023827454 73:0 74:0.064512177 75:0 76:0.34410462 77:0.40847852 78:0.15907594 79:0 80:0 81:0 82:1.7800452e-17 83:0.021125625 84:0.50303046 85:0.28382338 86:0.19201962 87:0 88:0 89:0 90:1.9808066e-17 91:0.020149943 92:0.82835628 93:0.14248161 94:0.0090113284 95:0 96:0.0056075158 97:0 98:0.0059476687 99:0.014345912 100:0.66141564 101:0.29682277 102:0.01586045 103:0 104:0.0080181619 105:0.0044822888 106:0.05300546 107:0.4264908 108:0.48605179 109:0.0089645776 110:0.012986834 111:0 112:0.024510832 113:0 114:0.01118393 115:0.071082656 116:0.84233882 117:0.020552958 118:0.030330608 119:-2.721249e-18 120:0.15240431 121:0.03407864 122:0.10951493 123:0.062837908 124:0.55495013 125:-8.9339066e-16 126:0.086212898 127:0 128:0.074122897 129:0.054124718 130:0.15936477 131:0.029299648 132:0.37362161 133:0.13699664 134:0.17246797 135:0 136:0.01008723 137:0 138:0.10448843 139:0.031898623 140:0.66575719 141:0.045111465 142:0.14265498 143:0 144:0.031947149 145:0 146:0.016055168 147:8.7780847e-19 148:0.74026631 149:0.18642373 150:0.012806133 151:0.012501426 152:-2.6078268e-18 153:0 154:0.0053588906 155:0.22936865 156:0.74470648 157:0.0065654353 158:0.014000499 159:-1.3039134e-18 160:-2.2172711e-18 161:0 162:1.1086356e-18 163:0 164:0.98390686 165:0.0027910884 166:0.013302021 167:-2.2172711e-18 168:0.014831642 169:0 170:0.006816667 171:0 172:0.65995164 173:0.27858211 174:0.032799732 175:0.0070181883 176:0.01121848 177:0.013244132 178:0.0072073665 179:-1.0875038e-18 180:0.40846427 181:0.4014222 182:0.14295569 183:0.015487829 184:0.044826829 185:0.061736704 186:0.08952263 187:0.018301356 188:0.57679323 189:0.049626519 190:0.10855311 191:0.050639211 192:0.24143565 193:0.056828055 194:0.11826707 195:5.6431035e-18 196:0.36198616 197:0.085242082 198:0.13623768 199:0 200:0.071013038 201:0 202:0.022684283 203:2.1624771e-16 204:0.69477972 205:0.045368566 206:0.16615228 207:0 208:0.029083548 209:0.043355194 210:0.14729349 211:0 212:0.69800515 213:0 214:0.082260696 215:-8.6104599e-18 216:0.11339958 217:0.11222436 218:0.38605712 219:0.021966967 220:0.20839695 221:0.040579187 222:0.095407884 223:0.021966967 224:0.32721656 225:0.01529737 226:0.045929789 227:0.015646405 228:0.082117463 229:0.11895889 230:0.33894354 231:0.055889911 232:0.062657573 233:-3.2527102e-18 234:0.0071180882 235:0.0086319498 236:0.34067852 237:0.13397165 238:0.22540652 239:0.22153567 240:0.27757772 241:0.011899071 242:0.031323775 243:0.021940803 244:0.079821395 245:0.15548765 246:0.37146552 247:0.050483483 248:-9.6570414e-18 249:0 250:0.0076882744 251:0.09392487 252:0.65180264 253:0.11685116 254:0.12973244 255:-4.8285207e-18 256:0.013634141 257:0 258:0.032135979 259:0.10658571 260:0.79434348 261:0.046873065 262:0.0064271958 263:-8.0730333e-18 264:0.0093072663 265:0.01040584 266:0.183893 267:0.54865232 268:0.23733529 269:0.01040584 270:-8.8865016e-17 271:-4.1332565e-18 272:0.10183623 273:0.29086409 274:0.29050492 275:0.21447778 276:0.05150306 277:0.014395543 278:0.036418163 279:-2.8589941e-18 280:0.050730177 281:5.0953641e-18 282:0.030569849 283:0.073235389 284:0.55423176 285:0.093877987 286:0.13522168 287:0.06213313 288:0.024704427 289:0.0089745764 290:0.15325888 291:0.71877582 292:0.073692521 293:0.0048236899 294:0.011539387 295:0.0042306559 296:0.057988097 297:0.040900267 298:0.17672069 299:0.55507372 300:0.1061959 301:0.0071392658 302:0.045885409 303:0.010096447 304:0.0038939508 305:0 306:0.075163987 307:0.16041804 308:0.73760255 309:0.017414277 310:0.005506878 311:-3.4585231e-18 312:0.02156567 313:1.9154163e-18 314:0.11137569 315:0.32181531 316:0.53559848 317:3.0646661e-17 318:0.009644461 319:0 320:0.10716575 321:0.041722536 322:0.28135243 323:0.24969105 324:0.23323606 325:0.020861268 326:0.065969121 327:0 328:0.088524572 329:0 330:0.04531348 331:0.10983321 332:0.58769691 333:0.1122788 334:0.056352669 335:3.6938783e-17 336:0.38354386 337:0.066863443 338:0.07377834 339:-2.8517242e-16 340:0.21787273 341:0.05128192 342:0.20665702 343:0 344:0.40800426 345:0.058859694 346:0.12249519 347:2.5132846e-16 348:0.18425999 349:0.029429847 350:0.19694747 351:0 352:0.046483385 353:0 354:0.026294973 355:3.3028431e-17 356:0.3625704 357:0.43654803 358:0.12810144 359:-8.2571078e-18 360:0.085835127 361:0.054838051 362:0.41292077 363:0.038776358 364:0.35560267 365:0 366:0.052023943 367:0 368:0.1825275 369:-1.4737908e-17 370:0.084037237 371:-1.0316535e-16 372:0.44802204 373:0.07420798 374:0.21119961 375:0 376:0.20845932 377:-3.7029814e-17 378:0.1768836 379:0 380:0.43776458 381:-1.5737671e-16 382:0.1768836 383:1.8514907e-16 
0.6351611295286317 0:0.010058291 1:0 2:0.13263781 3:0.03180711 4:0.75437186 5:0 6:0.071122861 7:0 8:0.059382583 9:0 10:0.069909328 11:0.037556843 12:0.4988137 13:0.079670095 14:0.25466457 15:0 16:0.10213291 17:0 18:0.18347705 19:0 20:0.54896437 21:0.05709403 22:0.10832831 23:0 24:0.031502537 25:0 26:-5.5959748e-17 27:0 28:0.24151945 29:0.23480605 30:0.45896311 31:0.03320659 32:0.17084338 33:0.022471612 34:-5.3555083e-17 35:0 36:0.16079377 37:0.13482967 38:0.44750018 39:0.063559318 40:0.18703804 41:0 42:0.0455161 43:0.03943108 44:0.4987681 45:0 46:0.2292435 47:0 48:0.11629385 49:0.028381692 50:0.21370909 51:0 52:0.46962911 53:0 54:0.17198296 55:0 56:0.047371384 57:0 58:0.044662169 59:0 60:0.52108523 61:0.14123418 62:0.24564193 63:0 64:0.15365383 65:0 66:-3.9804338e-17 67:0 68:0.21767626 69:0.286317 70:0.34234955 71:0 72:0.16504187 73:0.088767269 74:0.089893942 75:0.16110676 76:0.26819305 77:0.046130606 78:0.14824506 79:0.032619264 80:0.092955269 81:0.024222228 82:0.027430596 83:0.022331791 84:0.52412224 85:0.1535565 86:0.15538078 87:0 88:0.21936527 89:0 90:0.044485833 91:0.03853855 92:0.44070821 93:0.13625435 94:0.12064474 95:0 96:0.031066262 97:0 98:0.13180299 99:0 100:0.71452402 101:0.034733136 102:0.087868657 103:0 104:0.023931388 105:0.034885693 106:0.15287353 107:0.42535552 108:0.24529673 109:0.040134158 110:0.077522246 111:0 112:0.014298521 113:0.013702485 114:0.4391147 115:0.46795699 116:0.032682334 117:0.004567495 118:0.027677395 119:0 120:0.0012460504 121:0.0027862535 122:0.12465242 123:0.71263245 124:0.14001136 125:0.0044926987 126:0.0090411336 127:0.0051375976 128:0.012758601 129:0.0067340031 130:0.077117593 131:0.227665 132:0.35689774 133:0.14267658 134:0.15068683 135:0.025463647 136:0.018702285 137:0.017186957 138:0.10494997 139:0.22673948 140:0.2437816 141:0.19601764 142:0.18759736 143:0.0050246528 144:0.68076863 145:0.069003001 146:0.11510451 147:0 148:0.087748183 149:0 150:0.047374576 151:0 152:0.23127622 153:0.19466346 154:0.36336443 155:0.16004721 156:0 157:0.003602455 158:0.018452746 159:0.028593424 160:0.098508378 161:0.10731194 162:0.52614793 163:0.095622935 164:0 165:0 166:0.11837543 167:0.054033225 168:0.12745479 169:0.053960738 170:0.071884832 171:-2.4199969e-16 172:0.35002792 173:0.09182602 174:0.28827557 175:0.016569571 176:0.18750747 177:0.06443219 178:0.038996412 179:0.12481944 180:0.15599178 181:0.024663496 182:0.20928659 183:0.194302 184:0.067215768 185:0.050693642 186:0.28299845 187:0.14830477 188:0.1976788 189:-2.7615899e-18 190:0.13554437 191:0.11756417 192:0.33714597 193:0.005520198 194:0.059589065 195:0.10743036 196:0.089674706 197:0.028809939 198:0.22307309 199:0.14875654 200:0.39474227 201:0.012573098 202:-1.8727887e-17 203:-1.9976413e-17 204:0.008890523 205:0.022709854 206:0.30568326 207:0.25540084 208:0.18329532 209:0 210:5.0310243e-17 211:5.590027e-18 212:0.058686987 213:0.070366944 214:0.58813605 215:0.099513887 216:0.17953607 217:0 218:2.35566e-17 219:-2.7543102e-16 220:0.065285844 221:0.32846306 222:0.42671366 223:9.4226401e-17 224:0.073717168 225:0 226:-1.2591153e-18 227:-2.0397669e-16 228:0.27413137 229:0.30018912 230:0.2693374 231:0.082624281 232:0.20063136 233:-3.1773754e-18 234:3.1773754e-17 235:-9.3203011e-17 236:0.037228732 237:0.011924689 238:0.10632519 239:0.64388991 240:0.0061539089 241:0.010300629 242:0.1938658 243:0.68876167 244:0.079273127 245:0.0092859941 246:0.0092819105 247:0.0030769545 248:0.10932313 249:0.045784811 250:0.26356373 251:0.2197614 252:0.095484018 253:0.064076179 254:0.097589439 255:0.10441722 256:0.089503169 257:-3.66899e-17 258:0.029209983 259:8.5304017e-16 260:0.17296904 261:0.17280753 262:0.48535047 263:0.050158838 264:0.011165823 265:-2.9751729e-17 266:0.023686287 267:0.023018933 268:0.8323369 269:0.049935078 270:0.059856344 271:1.2396554e-17 272:0.0033059336 273:-1.7617553e-17 274:0.034244465 275:0.23957811 276:0.68666851 277:0.022176877 278:0.014025888 279:7.3406472e-18 280:0.0076450494 281:-9.456769e-18 282:0.0051821223 283:0.044730674 284:0.39250033 285:0.33158762 286:0.16047312 287:0.057881044 288:0.015900471 289:0.026665901 290:0.098997185 291:0.55890656 292:0.25926563 293:0.017777267 294:0.022486662 295:0 296:0.048537424 297:6.4664839e-17 298:0.59059875 299:0.076744406 300:0.26695583 301:0 302:0.017160571 303:-5.3887366e-18 304:0.16398058 305:0 306:0.29458355 307:5.4616505e-17 308:0.51243932 309:0 310:0.028987945 311:-1.8205502e-17 312:0.2516439 313:0.037512857 314:0.16992657 315:-5.3641123e-16 316:0.46973527 317:1.4900312e-17 318:0.071175642 319:0 320:0.21266876 321:0 322:0.066835343 323:0.16080049 324:0.38989272 325:0.052837978 326:0.11696185 327:0 328:0.047827912 329:-1.5929895e-17 330:0.050729161 331:0.037811284 332:0.7425166 333:0.053473231 334:0.067638881 335:1.964687e-16 336:0.067448227 337:0 338:0.25544379 339:0.035548337 340:0.56206856 341:0 342:0.079488498 343:0 344:0.028507284 345:5.0639108e-17 346:1.0971807e-16 347:-2.5319554e-17 348:0.95024279 349:0.021248075 350:8.4398514e-18 351:-4.2199257e-18 352:0.044107788 353:0 354:0.059176807 355:7.0516054e-17 356:0.86451264 357:0.019725602 358:0.012475566 359:-7.8351171e-18 360:0.02870986 361:0 362:0.34146514 363:0.03026285 364:0.56462725 365:0.021399066 366:0.013533958 367:0 368:0.019856923 369:0 370:0.014040965 371:0.1037292 372:0.71968272 373:0.044401429 374:0.098286752 375:0 376:0.034710958 377:-1.1561071e-17 378:0.019404016 379:-2.5434357e-16 380:0.549514 381:0.31046425 382:0.085905239 383:1.4258655e-16 
0.9679504988268485 0:0 1:0 2:0 3:0 4:0 5:0 6:0 7:0 8:0 9:0 10:0 11:0 12:0 13:0 14:0 15:0 16:0.064013732 17:0 18:0.045264544 19:0 20:0.80017165 21:0 22:0.090529088 23:0 24:0 25:0 26:0.18554382 27:0 28:0.72159613 29:0 30:0.092771912 31:0 32:0 33:0 34:2.1942709e-15 35:0 36:0 37:0 38:0 39:0 40:0 41:0 42:2.1942709e-15 43:0 44:0 45:0 46:0 47:0 48:0.010821161 49:0.067561361 50:0.74879572 51:0.12953702 52:0.043284642 53:0 54:0 55:0 56:0.0069685538 57:0.010957426 58:0.27167359 59:0.67438748 60:0.032521395 61:0 62:0.0034915367 63:0 64:0.01125314 65:0.0022542699 66:0.018399977 67:0.7015017 68:0.26433662 69:0 70:0.0022542699 71:0 72:0.0056019691 73:-4.6754139e-18 74:0.0049629921 75:0.032981631 76:0.42769878 77:0.37261556 78:0.12448486 79:0.031654188 80:0.0033861642 81:-1.8045108e-17 82:1.8421048e-16 83:-2.2857137e-16 84:0.21323299 85:0.27298669 86:0.51039392 87:0 88:-4.3885418e-15 89:-2.6331251e-14 90:2.6879819e-13 91:-3.3352918e-13 92:4.1252293e-13 93:5.2662502e-14 94:2.6660392e-13 95:0 96:0.0012256521 97:0.10892232 98:0.66635408 99:0.18506064 100:0.011030869 101:0.024665772 102:0.0027406413 103:0 104:0.004904579 105:0.24082211 106:0.42235161 107:0.23871595 108:0.060048804 109:0.010966972 110:0.014435033 111:0.0077548203 112:0.0218563 113:0.034226527 114:0.3461935 115:0.42237019 116:0.11479449 117:0.036957127 118:0.013896164 119:0.0097056636 120:0.030347563 121:0.0075760291 122:0.039562294 123:0.16757761 124:0.46159994 125:0.18281931 126:0.044219203 127:0.066298022 128:0.37807839 129:0.10802169 130:0.11401056 131:6.272005e-17 132:-4.9280039e-17 133:0 134:0.12170848 135:0.27818084 136:-5.2662502e-14 137:3.5108335e-14 138:-1.7554167e-13 139:2.4575834e-13 140:-1.9309584e-13 141:0 142:-5.2662502e-14 143:-7.0216669e-14 144:0.46821153 145:0.13798888 146:0.082883888 147:0.098528913 148:0.11955615 149:0.048381149 150:0.036130549 151:0.0083187944 152:0.12124531 153:0.35687982 154:0.35210692 155:0.012385797 156:0.034092201 157:0.014121981 158:0.071075898 159:0.038092006 160:0.041199622 161:0.010155933 162:0.010155933 163:0.10279628 164:0.44080219 165:0.17717061 166:0.21771901 167:-8.067984e-18 168:0.021063596 169:6.5478811e-17 170:0.030761378 171:0.058882136 172:0.54072967 173:0.18199534 174:0.14991507 175:0.016652235 176:0.083533884 177:1.6422194e-17 178:0.002614845 179:-2.627551e-17 180:0.075786365 181:0.25693383 182:0.24340744 183:0.33772357 184:0.020457023 185:2.543728e-16 186:0.028930599 187:0.18865722 188:0.76194659 189:2.9071178e-16 190:1.0901692e-16 191:1.8169486e-17 192:0.24979157 193:2.1426079e-17 194:0.026592473 195:0.0061028468 196:0.0295747 197:0.0096494481 198:0.17125226 199:0.50703663 200:0.019985715 201:4.9702467e-17 202:0.062876847 203:0.05448656 204:0.43233208 205:0.2503191 206:0.17999937 207:-2.840141e-17 208:4.4547418e-17 209:-8.0995305e-18 210:6.0746479e-17 211:1.052939e-16 212:0.77320218 213:0.18810764 214:0.038689746 215:-3.037324e-17 216:3.1851949e-17 217:0 218:0.057520906 219:0.49834564 220:0.43076825 221:0.013365018 222:-1.3271645e-17 223:-1.9907468e-17 224:5.3820779e-18 225:-6.1509462e-18 226:0.11104176 227:0.18158524 228:0.35312324 229:0.25828881 230:0.09596089 231:-3.9212282e-17 232:0.0076511383 233:0 234:0.017027722 235:0.29609463 236:0.65769589 237:0.019141911 238:0.0023886906 239:-7.1160072e-18 240:0.29372045 241:0.07743232 242:0.088672861 243:-7.3980737e-17 244:0.12339986 245:2.7400273e-18 246:0.21769783 247:0.1990759 248:0.043495717 249:0.014157157 250:0.010688234 251:5.3421352e-17 252:0.32961715 253:0.35463037 254:0.20664258 255:0.040768697 256:0.022848912 257:0.06177327 258:0.16195766 259:0.15375385 260:0.33499542 261:0.1390081 262:0.08679699 263:0.038865498 264:-2.6905307e-17 265:2.2421089e-18 266:0.58791617 267:0.3363516 268:0.075731707 269:-2.1300035e-16 270:3.3631634e-17 271:2.6905307e-17 272:-9.1894057e-17 273:-2.2181324e-17 274:0.047865816 275:0.067692486 276:0.80630184 277:0.047865816 278:0.030273 279:-7.6050254e-17 280:0.047143821 281:0.017569465 282:0.074932204 283:0.04969395 284:0.47398834 285:0.26354197 286:0.07312899 287:4.1872124e-17 288:0.32585066 289:0.052044588 290:0.065831775 291:-2.7907733e-16 292:0.32585066 293:1.0336197e-17 294:0.23041121 295:0 296:0.48125209 297:0.39605686 298:0.089627685 299:9.6751543e-17 300:0.019110974 301:0.0085466875 302:0.0054053998 303:-3.394791e-18 304:0.20908879 305:0.044218232 306:0.24812874 307:0.14406841 308:0.26366659 309:0.029478821 310:0.06134952 311:0 312:0.023815013 313:0.17750663 314:0.52987554 315:0.050206456 316:0.14289008 317:0.053251988 318:0.02245301 319:0 320:0.024884323 321:-4.4203438e-17 322:0.027821519 323:7.1830587e-17 324:0.79629835 325:0.027821519 326:0.12317112 327:-1.9891547e-16 328:0.041690236 329:0 330:0.014739724 331:-5.5542552e-17 332:0.354367 333:0.1398333 334:0.44936751 335:0 336:0.31677692 337:0.33489154 338:0.29040782 339:-7.5142965e-17 340:0.031334614 341:2.7830728e-18 342:0.026588302 343:0 344:0.22146134 345:0.44921716 346:0.18696055 347:1.7700577e-16 348:0.06992659 349:0.046908183 350:0.025525174 351:-6.2107288e-18 352:0.11385889 353:0.028288468 354:0.39650971 355:0.080011872 356:0.2024158 357:-5.0563504e-17 358:0.17891198 359:0 360:0.10050202 361:0.044945868 362:0.5731382 363:-3.5705488e-17 364:0.28140564 365:-1.7852744e-17 366:-1.3389558e-16 367:0 368:0.30848312 369:-2.8540422e-16 370:0.10906525 371:1.2557786e-16 372:0.43701775 373:5.7080844e-16 374:0.14542034 375:-4.1098208e-16 376:0.78426305 377:0.035789092 378:0.022635009 379:-9.950936e-17 380:0.11203758 381:-1.4215623e-17 382:0.045270018 383:0 
0.6039553781533085 0:0.02124056 1:0 2:0.067521129 3:0 4:0.52130258 5:0.12407927 6:0.22772747 7:0.038127972 8:0.013291662 9:0 10:0.024259154 11:0 12:0.51452905 13:0.2923766 14:0.15554262 15:0 16:0 17:0 18:0.17244009 19:0.051179782 20:0.51790298 21:0.14882786 22:0.10964796 23:0 24:0.0065745732 25:0 26:0.21331163 27:0.13106079 28:0.46085636 29:0.097210924 30:0.070194214 31:0.020790626 32:0 33:0 34:0.19169622 35:0.11241311 36:0.51313715 37:0.13248012 38:0.050272672 39:0 40:0 41:0.027526995 42:0.26278489 43:0.34489486 44:0.35812872 45:5.0223505e-17 46:0.0066640853 47:0 48:0.012463468 49:0 50:-1.8449639e-18 51:0.085709665 52:0.60632038 53:0.19435899 54:0.074871842 55:0.026275297 56:0.014758451 57:0 58:0.0110003 59:0.051397096 60:0.59664794 61:0.18770781 62:0.1384879 63:-2.1846896e-18 64:0 65:0 66:0.14982872 67:0.16711764 68:0.56172303 69:0.083042376 70:0.038287749 71:-2.1665087e-18 72:0.0046673981 73:0.071475392 74:0.29489019 75:0.18378391 76:0.3015603 77:0.092232107 78:0.036630636 79:0.014759609 80:0.009685804 81:0.010829058 82:0.16452673 83:0.17641199 84:0.558912 85:0.039119448 86:0.020546693 87:0.019967796 88:0 89:0 90:0.47029466 91:0.26019283 92:0.2695124 93:9.4274086e-18 94:3.1424695e-18 95:-2.0949797e-18 96:0.018217672 97:0.005373329 98:0.023414347 99:0.065920124 100:0.45567904 101:0.27872955 102:0.068415484 103:0.084250419 104:0.022165675 105:0 106:0.042078877 107:0.31165369 108:0.40984587 109:0.11349954 110:0.10075595 111:0 112:0.021457029 113:0.011994844 114:0.13047227 115:0.16687371 116:0.45452985 117:0.13464096 118:0.080030748 119:0 120:0.076299795 121:0.06294388 122:0.24607985 123:0.36281809 124:0.19548885 125:0.012046899 126:0.027285155 127:0.017036888 128:0.048228572 129:0.14171583 130:0.70173495 131:0.026381044 132:0.05403921 133:0.01405434 134:0.013846013 135:0 136:0.056990536 137:0.038875584 138:0.093346732 139:0.12700899 140:0.15632874 141:0.1630226 142:0.31095194 143:0.053474868 144:0.3224867 145:0.11483724 146:0.30352097 147:0.15793012 148:0.014557703 149:0.016612514 150:0.025446454 151:0.044608275 152:0.34048344 153:0.034353153 154:0.24183384 155:3.2748624e-16 156:0.21508476 157:0.068706305 158:0.099533677 159:-5.458104e-17 160:0.19086663 161:0.20904325 162:0.28856175 163:0.074219955 164:0.2246014 165:-2.7928056e-17 166:0.012705374 167:-3.1917778e-17 168:0.073658022 169:0.36111969 170:0.5000098 171:0.023698442 172:0.025110693 173:0.0046470513 174:0.011756213 175:-7.3833367e-18 176:0.26947985 177:0.38808007 178:0.29737254 179:0.0049249827 180:2.0748953e-18 181:-2.0748953e-18 182:0.01126957 183:0.028872933 184:0.34017024 185:0.010487902 186:0.025069779 187:0.022019635 188:0.038069965 189:0.015323298 190:0.051152355 191:0.49770681 192:0.15602748 193:0.13173517 194:0.3871261 195:0.083709069 196:0.0032121857 197:0.020456241 198:0.080029117 199:0.13770462 200:0.10842715 201:0.023090521 202:0.1288714 203:0.016327464 204:0.11359034 205:0.17139969 206:0.43829288 207:3.6686724e-17 208:0.42653083 209:0.29158998 210:0.22408489 211:0.017231682 212:1.4210158e-18 213:-1.1368126e-17 214:0.0071550666 215:0.033407342 216:0.37124052 217:0.42727383 218:0.1093133 219:0.011709156 220:0.018370835 221:-4.0791447e-18 222:0.010269609 223:0.051822646 224:0.18828801 225:0.27639604 226:0.022447938 227:-6.3441608e-17 228:0.11608266 229:0.10589195 230:0.19821613 231:0.09267707 232:0.32020739 233:0.54553237 234:0.054021443 235:0.0044826781 236:0.058885723 237:0.0063510618 238:0.0015375459 239:0.0089817578 240:0.2342261 241:0.079095223 242:0.13232828 243:0.055928769 244:0.24128778 245:0.059321418 246:0.16984644 247:0.027964384 248:0.22713872 249:0.042383831 250:0.01603757 251:0.012553792 252:0.033790822 253:0.13290762 254:0.36565259 255:0.169535 256:0.39596781 257:0.12425518 258:0.026998291 259:0.01277334 260:1.375784e-18 261:0.011169962 262:0.15680066 263:0.27203456 264:0.28362169 265:0.025082046 266:0.0083606821 267:0.015416336 268:0.027240126 269:0.035323072 270:0.25790852 271:0.34704725 272:0.040893794 273:0.34766578 274:0.15732882 275:0.10838979 276:0.090530118 277:0.090016751 278:0.099925354 279:0.065249503 280:0.057806823 281:0.82525151 282:0.099127606 283:0.0069015887 284:0.01091237 285:2.3261115e-17 286:-1.550741e-17 287:-4.6522231e-17 288:0.19340719 289:0.066534095 290:0.34346747 291:2.973117e-16 292:0.312427 293:2.6427706e-17 294:0.084159713 295:1.1231775e-16 296:0.66282518 297:0.1154215 298:0.12139376 299:0.008669843 300:0.0041124676 301:2.43507e-18 302:0.014317145 303:0.073260073 304:0.11313602 305:0.13106336 306:0.47474436 307:0.11695049 308:0.12184803 309:-8.3564711e-18 310:0.042257536 311:-1.6712942e-17 312:0.26482568 313:0.031730759 314:0.057630285 315:0.044874069 316:0.15609469 317:0.08289507 318:0.22920436 319:0.13274405 320:0.2378707 321:0.16747881 322:0.24260052 323:0.055123971 324:0.094498596 325:0.01492029 326:0.12420478 327:0.063301428 328:0.17671262 329:0.021952302 330:0.32027237 331:0.14600387 332:0.23561683 333:0.043904604 334:0.05553542 335:-3.0954489e-16 336:0.41317447 337:0.10291079 338:0.12108881 339:0.03155325 340:0.15964822 341:0.022311517 342:0.1493109 343:7.532918e-17 344:0.71072796 345:0.0088780079 346:-1.2636243e-17 347:-2.9386611e-18 348:-1.586877e-17 349:0.002959336 350:0.066299429 351:0.21113523 352:0.16033593 353:8.164823e-18 354:0.02600109 355:8.164823e-18 356:0.21608563 357:0.22865951 358:0.33015694 359:0.038760136 360:0.30201333 361:0.019790764 362:0.13204587 363:0.027988367 364:0.17988651 365:0.039581528 366:0.23421129 367:0.064480732 368:0.3631729 369:0.09337071 370:0.17412807 371:-1.8543678e-17 372:0.066810642 373:0.067459434 374:0.20864759 375:0.026409225 376:0.33289771 377:0.15181885 378:0.18351836 379:1.1090329e-16 380:0.115947 381:0.03988698 382:0.14772512 383:0.028204354 
1.522573409590113 0:0.19813244 1:0.060432304 2:0.0644346 3:0.042732092 4:0.30031226 5:0.094214988 6:0.15413135 7:0.085609026 8:0.084606288 9:0.011023328 10:0.0069717646 11:0.020326012 12:0.12192852 13:0.21260869 14:0.47526082 15:0.067274083 16:0.011540357 17:0 18:0.074594542 19:0.043886011 20:0.26504566 21:0.33552799 22:0.19447596 23:0.074929174 24:0.035127237 25:0.090839565 26:0.52753015 27:0.039065091 28:0.18275643 29:0.055277607 30:0.050890067 31:0.01851368 32:0.21501279 33:0.34093879 34:0.30099419 35:0.087026976 36:0.019994407 37:0.0073016629 38:0.021999333 39:0.0067318006 40:0.53649854 41:0.10713618 42:0.055480718 43:0 44:0.059864794 45:0.033207013 46:0.058611879 47:0.14920044 48:0.021800903 49:0.024374151 50:0.11041057 51:0.08493198 52:0.66348679 53:0.036561226 54:0.058433775 55:-2.4203865e-18 56:0.072383179 57:0.018861565 58:0.030602013 59:0.070738066 60:0.73464217 61:0.043454037 62:0.011929101 63:0.017389504 64:0.051856437 65:0.017428955 66:0.160499 67:0.49459784 68:0.23770694 69:0.025586587 70:0 71:0.012324132 72:0 73:0.004471744 74:0.27553729 75:0.46497446 76:0.24780595 77:-7.1048046e-18 78:0.0072104705 79:1.7762011e-18 80:0.031661 81:0.13733521 82:0.24236318 83:0.074935581 84:0.44659525 85:0.020030527 86:0.023443435 87:0.023635743 88:0.13409538 89:0.091837062 90:0.15257856 91:0.023140907 92:0.30972252 93:0.17099114 94:0.094492427 95:0.023140907 96:0.020760163 97:0.11615322 98:0.25224391 99:0.13301446 100:0.37533773 101:0.042764034 102:0.022338529 103:0.037387818 104:0.013514296 105:0.046461046 106:0.45291643 107:0.37763948 108:0.076581009 109:0.010072961 110:0.022814362 111:0 112:0.09047053 113:0.13410845 114:0.46516248 115:0.2325303 116:0.077728014 117:-2.8765144e-18 118:2.01356e-17 119:0 120:0.14260888 121:0.1298325 122:0.2227651 123:0.25079502 124:0.13279133 125:0.016574933 126:0.058769606 127:0.045862583 128:0.035945979 129:0.0031849848 130:0.017115873 131:0.042321021 132:0.32075746 133:0.43850028 134:0.084747695 135:0.057426698 136:0.023195217 137:-1.9594569e-17 138:0.012479882 139:0.055647016 140:0.37025254 141:0.17032618 142:0.22809865 143:0.14000049 144:0.40303775 145:0.24086463 146:0.19506601 147:0.10636096 148:1.4645418e-17 149:0 150:0.016387173 151:0.03828319 152:0.43293976 153:0.21940962 154:0.22818757 155:2.0238303e-17 156:0.022786303 157:-1.0119151e-17 158:0.096674096 159:-1.5178727e-17 160:0.63417544 161:0.046553708 162:0.039257534 163:-1.2019402e-16 164:0.027759268 165:0.031035805 166:0.177326 167:0.043891257 168:0.07201938 169:6.1681557e-17 170:0.011502873 171:1.096561e-16 172:0.41854827 173:0.15483985 174:0.18823527 175:0.15485381 176:0.011725693 177:6.9430052e-17 178:0.072058969 179:0.1047043 180:0.52898341 181:0.094716484 182:0.16788098 183:0.019929846 184:0.011395415 185:0.034198665 186:-1.5181742e-18 187:0.17419419 188:0.6340187 189:0.13177874 190:-6.072697e-17 191:0.014414186 192:0.0701998 193:0.010074749 194:0.011854925 195:0.054405794 196:0.14364727 197:0.37349563 198:0.30981325 199:0.026508418 200:0.058544628 201:0 202:0.023453962 203:0.05560076 204:0.33703094 205:0.26509087 206:0.26027797 207:8.6663459e-18 208:0.013924081 209:-3.091767e-18 210:0.046702786 211:0.072737036 212:0.44538724 213:0.24654953 214:0.17469834 215:9.2753009e-18 216:9.3343531e-18 217:0 218:0.019181403 219:0.12156023 220:0.65399131 221:0.16067826 222:0.044588233 223:1.1667941e-17 224:0.011739409 225:3.3886743e-17 226:0.13794198 227:0.20671026 228:0.51048971 229:0.047413638 230:0.085704298 231:7.8200175e-18 232:0.040680629 233:0.01299495 234:0.10199112 235:0.097596627 236:0.31459664 237:0.12491333 238:0.26488688 239:0.042339139 240:0.0088742445 241:5.9114343e-18 242:0.094552103 243:0.091642233 244:0.20950756 245:0.20225482 246:0.39316863 247:-7.8819125e-18 248:0.033445731 249:0.01130648 250:0.02075122 251:0.039915445 252:0.44503206 253:0.17386063 254:0.20927704 255:0.066411312 256:0.0028814982 257:3.8389268e-18 258:0.031554839 259:0.064205197 260:0.76335797 261:0.064432258 262:0.055343872 263:0.018224195 264:0.0192105 265:8.5311756e-18 266:0.039008925 267:0.31450945 268:0.48046946 269:0.080123337 270:0.05149062 271:0.015187233 272:0.06068561 273:0.14298692 274:0.36204141 275:0.11172343 276:0.17488219 277:0.053412101 278:0.094267608 279:-1.5911684e-17 280:0.27167473 281:0.34429721 282:0.10519962 283:0.023371523 284:0.080277836 285:1.3089894e-16 286:0.0925851 287:0.082593326 288:0.064491074 289:1.0321196e-17 290:0.48082953 291:0.27737557 292:0.13170052 293:0.017323018 294:0.028279057 295:-1.3761595e-17 296:0.0037655946 297:0.049245268 298:0.55880243 299:0.18138073 300:0.18996544 301:-5.0167798e-18 302:0.016840251 303:-5.0167798e-18 304:0.056021024 305:0.034995469 306:0.4713291 307:0.36402289 308:0.029634667 309:0.0082831412 310:0.023999296 311:0.011714131 312:0.014390734 313:0.03217866 314:0.34634622 315:0.42871465 316:0.091919749 317:0.03217866 318:0.054270858 319:4.2605132e-18 320:0.067527832 321:0.071070312 322:0.22149419 323:0.11653499 324:0.39259598 325:0.050332274 326:0.080443276 327:0 328:4.3300453e-17 329:7.5305136e-18 330:0.15895273 331:0.22702172 332:0.52962063 333:0.043723126 334:0.027275579 335:0.013405851 336:0.35279079 337:0.11144554 338:0.32586736 339:4.7986172e-17 340:0.075638678 341:6.7180641e-17 342:0.10008516 343:0.034170071 344:0.15570634 345:0.047130078 346:0.019871786 347:2.8080487e-17 348:0.28029405 349:0.13274668 350:0.26863021 351:0.095619853 352:0.075093237 353:-7.4106881e-18 354:0.049113893 355:-9.2633601e-17 356:0.54076633 357:0.14925652 358:0.1857686 359:-2.2232064e-17 360:0.043218983 361:0.012080073 362:0.21003841 363:0.20876634 364:0.51825548 365:4.0785304e-17 366:0.007640109 367:-9.5965421e-18 368:0.031721288 369:2.2136843e-17 370:0.22292214 371:0.36040472 372:0.32415347 373:0.060797963 374:-2.9180384e-17 375:-1.2074642e-17 376:0.099142442 377:8.1723795e-18 378:0.24111439 379:0.044689907 380:0.30630755 381:0.088468511 382:0.22027643 383:2.4517138e-17 
1.089065850733539 0:0.50433566 1:0.066008568 2:0.070772528 3:0 4:0.069871257 5:0.015623688 6:0.16291114 7:0.11047616 8:0.054700428 9:0.017473411 10:0.11872716 11:0.16328329 12:0.33951509 13:0.034946822 14:0.27135254 15:-3.4702671e-18 16:0.0701962 17:0.022423353 18:0.18302564 19:0.063422821 20:0.4211772 21:0.089693414 22:0.15005932 23:-4.4533393e-18 24:0.07220993 25:0.036353854 26:0.015328131 27:0.10003691 28:0.20889651 29:0.13132654 30:0.28833451 31:0.14751302 32:1.7806523e-17 33:0 34:0.055811861 35:0.35112141 36:0.5077426 37:0.06130304 38:0.011341066 39:0.012679698 40:2.0472514e-17 41:0 42:0.033358276 43:0.26519923 44:0.68461426 45:0.010308274 46:0.006519525 47:1.0236257e-17 48:0.039001155 49:0.034883693 50:0.077218347 51:0 52:0.11046904 53:0.21038805 54:0.50337198 55:0.024666496 56:0.050704788 57:-1.8764541e-18 58:3.7529082e-18 59:-1.5011633e-17 60:0.27469692 61:0.25294173 62:0.33336512 63:0.088291073 64:0.045978755 65:-3.4031115e-18 66:0.04964716 67:0.055828809 68:0.71043989 69:0.051405811 70:0.086698373 71:-3.4031115e-18 72:0.097188115 73:-4.3160193e-18 74:0.1809086 75:0.061467161 76:0.33359388 77:0.18716514 78:0.13967517 79:-1.7264077e-17 80:0.1291812 81:0.072214486 82:0.12426374 83:0.06808447 84:0.44269434 85:0.04814299 86:0.1154164 87:-4.7806647e-18 88:0.11121944 89:0 90:0.20702688 91:-4.4452217e-17 92:0.54678009 93:-1.5805233e-16 94:0.13497105 95:-4.9391353e-18 96:0.32601712 97:0.037384432 98:0.070931973 99:0.059109978 100:0.24325073 101:0.030140293 102:0.20672926 103:0.026434786 104:0.21667621 105:0.065638089 106:0.11127257 107:0.19096305 108:0.2196833 109:0.035189171 110:0.059247286 111:0.1013301 112:0.036840142 113:0 114:5.9492035e-18 115:0.034154292 116:0.60485714 117:0.21478773 118:0.088178873 119:0.021181593 120:-6.5124605e-18 121:0 122:8.9546331e-18 123:2.6049842e-17 124:0.76759483 125:0.22203535 126:0.010369549 127:-1.6281151e-18 128:-6.7131296e-18 129:0 130:0.0084504497 131:0.12382554 132:0.6327324 133:0.21895772 134:0.016033601 135:3.3565648e-18 136:0.045394782 137:0.012688227 138:0.0080247395 139:-1.7639416e-17 140:0.18338228 141:0.18667026 142:0.4920636 143:0.071775452 144:0.076586032 145:0.13481424 146:0.38219534 147:0.20326286 148:0.083709216 149:0.0068911562 150:0.1027954 151:0.0097455665 152:0.19293366 153:0.47419688 154:0.10757304 155:0.0703184 156:0.029710637 157:-6.4547281e-19 158:0.049036741 159:0.076230599 160:0.48454729 161:0.054932569 162:0.12159843 163:-1.036427e-16 164:0.085983071 165:0.054932569 166:0.15915979 167:0.038843192 168:0.19550687 169:0.033628203 170:3.3393265e-17 171:-1.2689441e-16 172:0.21298635 173:0.26902563 174:0.28884832 175:-4.0071918e-17 176:0.24395873 177:-3.2935189e-16 178:0.12066255 179:0.061717218 180:0.16088427 181:0.24493111 182:0.16784417 183:-1.3000733e-17 184:0.31451429 185:-9.8019699e-17 186:3.2243322e-18 187:-3.2243322e-17 188:0.032775239 189:0.006494034 190:0.31969266 191:0.32652361 192:0.031931343 193:0.32621447 194:0.414393 195:0.1459792 196:0.075836939 197:-3.5450912e-18 198:0.0056447172 199:0 200:0.066194773 201:0.052694207 202:0.0069294859 203:-2.2019437e-17 204:0.14431947 205:0.25956333 206:0.32824643 207:0.1420521 208:0.20101599 209:0.044948541 210:0.24029714 211:0 212:0.39771783 213:0.044948541 214:0.071069884 215:-3.5707612e-17 216:0.1392827 217:0.06921013 218:0.40460587 219:0 220:0.38689639 221:-1.1683523e-16 222:3.7799633e-17 223:-7.5599265e-17 224:0.21107993 225:0.052443229 226:0.49708343 227:3.645379e-17 228:0.22280659 229:-8.3322949e-17 230:0.016584005 231:-4.1661475e-17 232:0.57340712 233:0.06320241 234:0.025793781 235:-9.4141286e-18 236:0.10656701 237:0.041278309 238:0.11253066 239:0.077220447 240:0.18812729 241:0.087231733 242:0.10545898 243:0.06442515 244:0.17271038 245:0.15704774 246:0.19504118 247:0.029957086 248:0.033706238 249:0.27581665 250:0.4811007 251:0.051954924 252:0.061640655 253:0.060318748 254:0.017828263 255:0.017633795 256:0.0411164 257:0.29373632 258:0.27962892 259:0.19516856 260:0.14639309 261:0.0040885733 262:0.028745946 263:0.011122122 264:0.052841907 265:3.2331651e-16 266:0.19236259 267:0.42801411 268:0.31017409 269:-2.6073912e-18 270:0.016606609 271:-2.3466521e-17 272:0.045701712 273:0.14941817 274:0.35504569 275:0.20818274 276:0.19994499 277:0.012774017 278:0.028932012 279:-1.5221728e-17 280:0.1553892 281:0.030922311 282:0.1137904 283:0.15357544 284:0.30033004 285:0.11025906 286:0.11672714 287:0.019005975 288:0.20769587 289:0.085795918 290:0.13269557 291:0.23665589 292:0.18528341 293:0.069500355 294:0.062218288 295:0.020154371 296:0.042897491 297:0.20956011 298:0.55340317 299:0.1020384 300:0.076452854 301:0.0091663179 302:-2.1845469e-17 303:0.0064815656 304:0.11641433 305:0.15320408 306:0.43452432 307:0.14600795 308:0.085622548 309:0.010076728 310:0.035569058 311:0.018580569 312:0.051202286 313:0.022532703 314:0.30827255 315:0.35795427 316:0.17766283 317:0.022532703 318:0.043909102 319:0.015933027 320:0.029304849 321:0.0093610906 322:0.12902875 323:0.39909965 324:0.37570692 325:0.015094305 326:0.042404075 327:-3.7182763e-18 328:0.021128472 329:8.7573978e-17 330:0.071336694 331:0.42455296 332:0.43735246 333:0.015748233 334:0.029880171 335:-2.5021137e-17 336:0.51860239 337:0.13838709 338:0.14288414 339:1.7660711e-17 340:0.099420964 341:0.022231203 342:0.078472193 343:0 344:0.15900747 345:0.062744383 346:0.41483184 347:0.077271054 348:0.19909029 349:1.2461206e-17 350:0.087053181 351:-4.9844823e-17 352:0.11331293 353:7.878142e-18 354:0.033450862 355:0.060304399 356:0.65369932 357:0.10578091 358:0.033450862 359:0 360:0.047448254 361:8.4285031e-18 362:0.017107711 363:0.039126833 364:0.57781974 365:0.23407509 366:0.084421913 367:-6.3213773e-18 368:0.015238567 369:1.1278805e-17 370:2.5941252e-17 371:0.14675711 372:0.7584967 373:0.079507099 374:4.511522e-18 375:0 376:0.042482481 377:1.0780578e-17 378:0.0085827573 379:0.044214451 380:0.82109418 381:0.040711592 382:0.042913786 383:-1.6170867e-17 
0.2734554472201891 0:0 1:0 2:0 3:0.051310106 4:0.70963388 5:0.23905571 6:0 7:0 8:0.015715221 9:0 10:0 11:0.025414892 12:0.62929756 13:0.26683926 14:0.043240537 15:0.019492333 16:0.052775076 17:0.055540333 18:0.06619966 19:0.06208716 20:0.28939572 21:0.26221129 22:0.17931183 23:0.03247878 24:0.20854909 25:0.056518053 26:0.00990807 27:6.2226344e-18 28:0.27506714 29:0.11925693 30:0.24377326 31:0.086926457 32:0.044628064 33:0.033263795 34:0.37328371 35:1.3212561e-17 36:0.43140462 37:0.033263795 38:0.084151485 39:-5.2850245e-17 40:0.20986426 41:0.046549378 42:0.22180365 43:9.2448337e-18 44:0.4163503 45:0.023274689 46:0.082155513 47:-3.6979335e-17 48:0 49:0.017901197 50:0.04054462 51:0.025316116 52:0.62033315 53:0.21481437 54:0.08108924 55:0 56:0.012491054 57:0 58:0.055861691 59:0.065251147 60:0.69284437 61:0.097757959 62:0.075792985 63:0 64:0.023462822 65:0 66:0.0066362883 67:0.073161928 68:0.70018491 69:0.12025875 70:0.056946912 71:0.019347939 72:0.059554128 73:0.089597094 74:0.38390424 75:0.19670651 76:0.20606195 77:0.039312175 78:0.024863203 79:0 80:0.019297131 81:-1.1426197e-17 82:0.1837419 83:0.092266401 84:0.41793512 85:0.18140782 86:0.10535078 87:0 88:0.0099724219 89:0.043018303 90:0.57498598 91:0.15127412 92:0.22074897 93:0 94:7.0023025e-19 95:0 96:0.33707723 97:0.01974612 98:0.0062442715 99:0 100:0.38358787 101:0.065285131 102:0.08300464 103:0.10505434 104:0.015353763 105:0.068821431 106:0.40327345 107:0.39355939 108:0.11899166 109:-3.4092202e-18 110:-1.0227661e-17 111:1.7046101e-17 112:2.8164072e-17 113:-5.2807636e-18 114:0.08754498 115:0.22760493 116:0.60038511 117:0.053179163 118:0.031285498 119:1.7602545e-17 120:2.6977078e-17 121:0.0075463543 122:0.20342565 123:0.31183494 124:0.29351816 125:0.096822886 126:0.07293699 127:0.01391479 128:0.02533715 129:0.018321748 130:0.13498264 131:0.12142016 132:0.056982557 133:0.2723958 134:0.36258463 135:0.0079752341 136:0.12463004 137:0.033930822 138:0.59504707 139:0.082265769 140:0.089401811 141:-6.6867166e-17 142:0.021043003 143:0.05368103 144:0.37867616 145:0.12455278 146:0.070100443 147:0.047176803 148:0.10615534 149:0.022581612 150:0.035081713 151:0.21567509 152:0.19580943 153:0.25842828 154:0.29003484 155:0.15511077 156:0.074334634 157:2.7509341e-18 158:0.026281262 159:8.802989e-17 160:0.064074579 161:0.035106651 162:0.2689969 163:0.18131164 164:0.41075225 165:-1.3944553e-17 166:0.039756721 167:1.1155643e-16 168:0.043937504 169:0.063773333 170:0.18147356 171:0.22384581 172:0.40044127 173:0.015943333 174:0.070584145 175:1.0132447e-16 176:0.27715599 177:0.020319706 178:0.010563369 179:-1.1020948e-17 180:0.0029196435 181:0.14208633 182:0.14141729 183:0.40553762 184:0.24107669 185:0.056082148 186:0.081533681 187:-2.6362895e-17 188:0.077173151 189:0.034678167 190:0.18526795 191:0.32418749 192:0.05310889 193:0.072863495 194:0.070079058 195:0.15299246 196:0.31567391 197:0.083085812 198:0.20921285 199:0.042983457 200:0.37736323 201:-3.1061e-17 202:0.024728639 203:1.86366e-16 204:0.14467254 205:0.058649117 206:0.28399507 207:0.11058984 208:0.40737495 209:-8.0404809e-17 210:0.1190881 211:1.6751002e-16 212:0.19614349 213:7.3704408e-17 214:0.27738879 215:6.7004007e-18 216:0.27497632 217:-9.7691213e-17 218:0.17061613 219:1.8724149e-16 220:0.47662562 221:1.0583215e-16 222:0.077775048 223:8.1409344e-18 224:0.5830367 225:0.30279526 226:0.035481236 227:2.5216015e-17 228:0.001720649 229:2.2159528e-17 230:0.012561707 231:0.064404395 232:0.37906598 233:0.048117349 234:0.10251129 235:0.16503743 236:0.15398642 237:0.02774385 238:0.0054222443 239:0.11811512 240:0.037584315 241:-2.5036183e-17 242:0.03708126 243:0.023955395 244:0.70640192 245:0.069464699 246:0.10155656 247:0.023955395 248:0.033596071 249:0.018407386 250:0.030049239 251:0.013015987 252:0.51530737 253:0.26604726 254:0.12357634 255:-3.6557571e-18 256:0.055180992 257:0.0094023818 258:0.048537706 259:0.060314949 260:0.52788378 261:0.20851601 262:0.090163825 263:0 264:0.019800771 265:0 266:0.014455678 267:0.016328134 268:0.57094621 269:0.11446041 270:0.26400848 271:0 272:0.10115475 273:0.089810326 274:0.067680772 275:0.11292741 276:0.1409555 277:0.11592006 278:0.22476956 279:0.14678158 280:0.0022757205 281:0.016410454 282:0.0733689 283:0.64542146 284:0.22175909 285:7.2764852e-17 286:0.04076427 287:-3.6382426e-17 288:0.017757391 289:-4.7315196e-17 290:0.050225488 291:1.5771732e-17 292:0.61516322 293:0.27918317 294:0.037669116 295:-6.7029861e-17 296:0.011155318 297:9.907913e-18 298:3.8393163e-17 299:0.022997278 300:0.93301472 301:0.02494405 302:0.0078880013 303:-4.9539565e-18 304:0.064823751 305:0.022300048 306:0.014103789 307:0.015768515 308:0.61243131 309:0.19300124 310:0.077570838 311:0 312:0.066046855 313:0.014768526 314:0.057558359 315:0.03367742 316:0.36363039 317:0.13623822 318:0.27996167 319:0.048117665 320:0.11057627 321:3.6740033e-17 322:0.12902396 323:0.064036031 324:0.21572252 325:0.20731626 326:0.24062203 327:0.032702378 328:0.24782142 329:0.13092767 330:0.3104132 331:-2.4962489e-16 332:0.1756579 333:0.026185534 334:0.10899146 335:-3.640363e-17 336:0.022682127 337:-4.0291551e-17 338:0.016906259 339:0.13407439 340:0.65900861 341:0.11834381 342:0.048983631 343:-5.7079697e-17 344:0.05667692 345:1.2584804e-17 346:0.030057476 347:0.051614135 348:0.65927726 349:0.15227739 350:0.050095793 351:-6.2924021e-18 352:0.1223811 353:0.023223754 354:0.21513414 355:0.29781387 356:0.29089522 357:0.023223754 358:0.027327317 359:0 360:0.15919706 361:0.054730651 362:0.30874069 363:0.2531559 364:0.13797079 365:0.023731697 366:0.062472636 367:0 368:0.14718359 369:0.057319367 370:0.17058405 371:0.093087077 372:0.36305286 373:0.043881669 374:0.12488942 375:-4.7932606e-17 376:0.05403374 377:9.5983203e-18 378:0.26676875 379:0.10252181 380:0.39079662 381:0.048329246 382:0.13754745 383:-9.5983203e-18 
