svm_type c_svc
kernel_type rbf
gamma 0.125
nr_class 2
total_sv 590
rho 0.990503
label 1 -1
probA -6.79673
probB -0.232321
nr_sv 275 315
SV
0.7384752717802413 0:0.006664634 1:0 2:0.06065924 3:0.12531882 4:0.75299292 5:0.02980515 6:0.010794556 7:0.013764631 8:0.0084633577 9:0.0031541072 10:0.011070343 11:0.011631773 12:0.90086518 13:0.038558655 14:0.02625654 15:6.2641431e-19 16:0.0078962435 17:0 18:0.0035313074 19:1.5524542e-17 20:0.88524216 21:0.055463148 22:0.043918985 23:0.0039481217 24:0.0069513295 25:0 26:4.6305157e-18 27:0.0036636723 28:0.85870545 29:0.082037904 30:0.033986928 31:0.014654689 32:0.0032276543 33:0 34:4.3000993e-18 35:1.3378087e-17 36:0.6076292 37:0.080535629 38:0.20390947 39:0.10469802 40:0.36239089 41:0.043219439 42:0.0099683061 43:0.049454462 44:0.23148673 45:4.1319068e-17 46:0.03663078 47:0.26684936 48:0.1194461 49:0.032978017 50:0.074692277 51:-5.2396195e-17 52:0.6636698 53:0 54:0.062571389 55:0.04663796 56:0.16181221 57:0 58:0.1001162 59:0.031980946 60:0.27634041 61:0.13568366 62:0.26208354 63:0.031980946 64:0.22065707 65:0 66:0.039736602 67:0 68:0.1830071 69:0.070177771 70:0.31273907 71:0.17368112 72:0.3968321 73:0.032766109 74:0.047467715 75:0.037359112 76:0.13544794 77:0.14744749 78:0.17950931 79:0.023169138 80:0.47978483 81:0.097123631 82:2.1650027e-18 83:0 84:-3.0310038e-17 85:0.0087888066 86:0.033452991 87:0.38084962 88:0.76537026 89:0.070707313 90:1.0880616e-18 91:0 92:0.014700582 93:-5.440308e-19 94:-6.5283696e-18 95:0.14922181 96:0.12136883 97:0.12135225 98:0.13608349 99:-1.9599487e-17 100:0.049650886 101:0.072128732 102:0.28628315 103:0.21313204 104:0.042363946 105:0.058958399 106:0.72890198 107:0.05329145 108:0.076813503 109:0.0094149149 110:0.030255718 111:-1.7763364e-17 112:0.0017109278 113:0.018067176 114:0.34089532 115:0.59495502 116:0.020778046 117:0.010792338 118:0.012801153 119:-7.9779479e-18 120:0.007889791 121:0.013192347 122:0.029133011 123:0.79464925 124:0.14738086 125:-8.4179176e-19 126:0.0047575989 127:0.0029971222 128:0.043875466 129:0.044885228 130:0.18491479 131:0.66330117 132:0.044993894 133:0.009212288 134:0.002303072 135:0.0065140713 136:0.34613493 137:0.45773261 138:0.12890335 139:9.8789722e-17 140:0.029793037 141:0.0044412838 142:0.0084267435 143:0.024567968 144:0.099803446 145:0.010174389 146:0.0088220335 147:0.40197091 148:0.32243102 149:0.046541885 150:0.030552714 151:0.079703584 152:0.03182646 153:0.37471277 154:0.25500326 155:0.29378631 156:0.039773158 157:6.1522893e-18 158:0.0048980311 159:0 160:0.20044723 161:0.34430764 162:0.32207378 163:0.042994325 164:0.050300806 165:4.0208482e-17 166:0.014227217 167:0.025648479 168:0.32399679 169:0.17697872 170:0.31308471 171:6.4641254e-16 172:0.041588333 173:7.8492951e-17 174:0.11147076 175:0.032878464 176:0.45756412 177:0.12748196 178:0.090172771 179:0.038111672 180:0.038111672 181:0.013474511 182:0.10337774 183:0.13170482 184:0.37469634 185:0.074053392 186:0.21954042 187:0.042341647 188:0.09242422 189:7.2968176e-17 190:0.16446725 191:0.032474561 192:0.75373402 193:0.0071898741 194:0.093375947 195:0.011368189 196:0.074742322 197:0.011633461 198:0.034698662 199:0.013257473 200:0.11252833 201:0.1433629 202:0.14694914 203:0.10960193 204:0.16613828 205:0.014801235 206:0.21652884 207:0.090088449 208:0.24402154 209:0.085701291 210:0.12827929 211:0.067101206 212:0.23513362 213:0.071171577 214:0.13503857 215:0.033550603 216:0.31115299 217:0.0801313 218:0.092449616 219:2.7790722e-16 220:0.15022079 221:0.044422609 222:0.24925352 223:0.07236715 224:0.33454171 225:0.41784325 226:0.1389208 227:5.5091826e-17 228:0.024206002 229:0.017675281 230:0.038107974 231:0.028704788 232:0.020947801 233:0.046840706 234:0.16774307 235:0.2213652 236:0.38954741 237:0.042302446 238:0.07813142 239:0.033121381 240:0.14682731 241:8.6440139e-19 242:0.028399653 243:0.66718304 244:0.050845447 245:0.0084079162 246:0.019139162 247:0.079197447 248:0.011858823 249:0.0032484952 250:0.068334517 251:0.8558752 252:0.028971151 253:0.013765137 254:0.017946665 255:-4.0011126e-19 256:0.043357574 257:0.0069567402 258:0.016379922 259:0.45226271 260:0.34710779 261:0.10111354 262:0.01828535 263:0.014536333 264:0.033525706 265:1.2772317e-18 266:0.0071901751 267:0.0059291703 268:0.32529563 269:0.44642615 270:0.17003932 271:0.011593809 272:0.019790298 273:0.16862622 274:0.11743517 275:0.13399952 276:0.24609178 277:0.23976715 278:0.070228266 279:0.0040615545 280:0.035756518 281:0.11502851 282:0.35209739 283:0.24470164 284:0.16354515 285:0.0088837782 286:0.067423136 287:0.01256356 288:0.44187215 289:0.036202914 290:0.39748951 291:0.063310514 292:0.022081455 293:0.0097783024 294:0.0055367463 295:0.023728385 296:0.069322326 297:0.097550637 298:0.38618835 299:0.27857068 300:0.068555097 301:0.02787161 302:0.071940496 303:-1.1070756e-17 304:0.3406911 305:0.066637175 306:0.065443408 307:5.738521e-17 308:0.21197728 309:0.043341707 310:0.17776675 311:0.094141726 312:0.15949477 313:7.2118332e-18 314:0.011483135 315:7.0315373e-17 316:0.14163155 317:0.10414652 318:0.40281703 319:0.18042667 320:0.0098749119 321:4.3853418e-18 322:-1.5421785e-16 323:1.5348696e-17 324:0.016784123 325:0.28146079 326:0.53509531 327:0.15678481 328:0.033471039 329:2.9728254e-17 330:0.015410356 331:-1.2161559e-17 332:0.065261408 333:0.11798641 334:0.30706576 335:0.46080484 336:0.74703808 337:0.017537466 338:0.079578792 339:0.012378216 340:0.060043166 341:0.02685212 342:0.056571971 343:1.0665809e-17 344:0.15343196 345:1.4600888e-16 346:0.16001995 347:0.034656746 348:0.28672353 349:0.02450602 350:0.30600258 351:0.034656746 352:0.05109861 353:-3.1769278e-17 354:0.045703986 355:1.6338486e-16 356:0.56374314 357:0.11425996 358:0.22519216 359:0 360:0.13557358 361:0.014435798 362:0.043307393 363:1.5768439e-16 364:0.11934887 365:0.22862485 366:0.37704746 367:0.081661203 368:0.15563179 369:1.0970539e-18 370:7.1308506e-18 371:4.0590996e-17 372:4.717332e-17 373:0.02886164 374:0.24982689 375:0.56567955 376:0.36678299 377:0.0216788 378:1.3436161e-17 379:5.3744644e-18 380:0.012102218 381:3.8389031e-18 382:0.013166821 383:0.58626911 
0.8017357921064181 0:0.18781265 1:0.05593349 2:0.29199605 3:0.017149643 4:0.17530232 5:0.068060119 6:0.058143951 7:0.14560118 8:0.009109236 9:0.24458113 10:0.47969052 11:0.16943264 12:0.025333113 13:0.041069379 14:0.017793622 15:0.012990327 16:0.0073013982 17:-4.8637082e-18 18:0.019887999 19:0.10347961 20:0.27044951 21:0.32542996 22:0.24108245 23:0.032369004 24:0.022173591 25:0.0061977071 26:0.01795703 27:0.16848642 28:0.37527873 29:0.25177786 30:0.15812851 31:-4.9235263e-18 32:0.036970198 33:0.032026589 34:0.096920949 35:0.2025558 36:0.42679403 37:0.10307168 38:0.10166044 39:-7.0429379e-18 40:0.072707995 41:-1.7732769e-18 42:0.037318484 43:0.17160484 44:0.52941677 45:0.038272603 46:0.05531604 47:0.095363264 48:0.34058414 49:0.071771033 50:0.040912758 51:0 52:0.032806196 53:0.013173539 54:0.085624016 55:0.41512821 56:0.40053234 57:0.052835654 58:0.022641641 59:0.0034748131 60:0.031860728 61:0.04146054 62:0.057610895 63:0.38958338 64:0.012321062 65:0 66:0.020357591 67:7.7380826e-19 68:0.29617363 69:0.37532243 70:0.25007904 71:0.045746188 72:2.4800134e-16 73:0 74:1.0782667e-17 75:0.010730525 76:0.67037436 77:0.30601843 78:0.01287663 79:-1.0984842e-16 80:2.3510406e-16 81:0 82:1.0194214e-17 83:0.049636914 84:0.78703671 85:0.1351348 86:0.023654583 87:0.0045369452 88:1.8296087e-16 89:0 90:0.021423212 91:0.012512631 92:0.96606413 93:1.2764712e-17 94:3.723041e-18 95:-8.2438765e-17 96:0.19573446 97:0.034849821 98:0.018194533 99:0.0050124249 100:0.014396796 101:0.022046138 102:0.078452593 103:0.63131318 104:0.072635008 105:0.005560114 106:0.035850906 107:0.10805073 108:0.1513482 109:0.10613556 110:0.25669638 111:0.2637231 112:0.0036296363 113:0.013076787 114:0.01540408 115:0.37202542 116:0.51820112 117:0.072793289 118:0.0048696681 119:7.3574018e-17 120:0.012262658 121:0 122:0.0068488147 123:0.067434893 124:0.80076762 125:0.087824695 126:0.024861317 127:9.2950013e-17 128:-1.9001509e-17 129:0 130:0.035549441 131:0.092479512 132:0.68922689 133:0.16545531 134:0.017288799 135:2.4973412e-16 136:0.0022807093 137:0 138:0.014776051 139:0.12231831 140:0.855525 141:0.0050998211 142:1.792724e-16 143:3.8082724e-16 144:0.17221892 145:0.018198112 146:0.0091295353 147:0.05925281 148:0.4245269 149:0.062771672 150:0.080633441 151:0.17326861 152:0.27347742 153:0.069329551 154:0.27758708 155:0.18235557 156:0.021886137 157:0.052071001 158:0.11515085 159:0.0081423579 160:0.041794423 161:7.2765776e-17 162:0.076622158 163:0.17984627 164:0.1950836 165:0.34491592 166:0.14554485 167:0.016192241 168:0.013757878 169:0.016203107 170:0.017528562 171:0.056701992 172:0.42328702 173:0.42066058 174:0.01458258 175:0.037278258 176:0.056015132 177:0.0089858362 178:0.029093516 179:0.13560626 180:0.25491719 181:0.15163232 182:0.18061136 183:0.18313838 184:0.0012672254 185:0.002833602 186:0.046495087 187:0.27621377 188:0.64447548 189:0.010985798 190:0.0097029894 191:0.0080260411 192:0.52514408 193:0.029465202 194:0.0074922529 195:0.026375078 196:0.035593241 197:0.005753979 198:0.0017169732 199:0.36845919 200:0.22259125 201:0.010877971 202:0.023341008 203:0.037111167 204:0.076307069 205:0.013828586 206:0.083857997 207:0.53208492 208:0.15635755 209:0.090461621 210:0.28312878 211:0.069158497 212:0.26022928 213:0.054276973 214:0.086385949 215:3.3057302e-16 216:0.11761044 217:0.032619266 218:0.35870618 219:0.028608989 220:0.28192377 221:0.093308095 222:0.058612596 223:0.028608989 224:0.41260665 225:0.074057251 226:0.072278543 227:0.054864619 228:0.055321628 229:0.099515474 230:0.056902038 231:0.17445375 232:0.039165675 233:0.010584973 234:0.093983556 235:0.20852675 236:0.53904538 237:0.069774059 238:0.029160637 239:0.0097588625 240:0.2639031 241:0.11131927 242:0.045095673 243:0.05964855 244:0.13708186 245:0.086963697 246:0.12662028 247:0.16936747 248:0.023469979 249:0.047309014 250:0.10256155 251:0.035520399 252:0.1137127 253:0.217687 254:0.24148401 255:0.21825534 256:0.014243182 257:-1.5180584e-17 258:0.023654647 259:0.41506785 260:0.44615263 261:0.066471434 262:0.01007145 263:0.02433876 264:0.020445051 265:0.068193396 266:0.17418972 267:0.42348527 268:0.29649414 269:0.0097963977 270:0.0073959899 271:-1.0376487e-16 272:0.046608295 273:0.1022857 274:0.21358815 275:0.24257494 276:0.25504939 277:0.055412567 278:0.036820579 279:0.047660379 280:0.098292 281:0.02932862 282:0.037763131 283:0.05913424 284:0.32711489 285:0.2014102 286:0.1579504 287:0.089006427 288:0.36114659 289:0.13324807 290:0.082507663 291:0.024583714 292:0.014459445 293:0.036148612 294:0.15886694 295:0.1890389 296:0.022608898 297:0.081822049 298:0.36929075 299:0.03806342 300:0.14649117 301:0.19403056 302:0.11967073 303:0.028022405 304:0.14874806 305:0.011469337 306:0.05077692 307:-1.0022504e-16 308:0.3682819 309:0.2204969 310:0.16778616 311:0.032440184 312:0.10967502 313:0.01442593 314:0.060044726 315:0.080045464 316:0.28816861 317:0.30782184 318:0.13981755 319:4.5840466e-17 320:0.010263058 321:9.1154267e-17 322:0.16986873 323:0.21960495 324:0.48179415 325:0.034423343 326:0.084045227 327:-1.8230853e-17 328:0.17685176 329:0.057279107 330:0.10216739 331:-1.9255396e-16 332:0.27719391 333:0.11177087 334:0.074752357 335:0.19998419 336:0.46022663 337:0.072594683 338:0.043297085 339:0.029265103 340:0.010468851 341:0.10927535 342:0.22592608 343:0.048946077 344:0.082567035 345:2.8696014e-17 346:-1.1956673e-17 347:3.2681572e-17 348:0.028403264 349:0.25428004 350:0.50156944 351:0.13318016 352:0.1702361 353:6.5333347e-18 354:9.3333352e-18 355:-5.040001e-17 356:-5.2266677e-17 357:0.3393022 358:0.42324347 359:0.067218138 360:0.33570247 361:3.0693321e-17 362:0.17794119 363:0.050345689 364:0.29184295 365:0.088312181 366:0.055853527 367:1.315428e-17 368:0.36377234 369:0.090379964 370:0.32700608 371:1.5556413e-16 372:0.16167659 373:-2.2137973e-16 374:0.057161308 375:-1.2564795e-16 376:0.28756826 377:0.044099585 378:0.15566369 379:0.040657808 380:0.18857231 381:8.7582981e-18 382:0.28343635 383:6.5687235e-17 
0.7481243668310926 0:0.0016277017 1:0 2:0.14337502 3:0.67823058 4:0.17676664 5:0 6:0 7:0 8:0 9:0 10:0.03428513 11:0.44315045 12:0.52256437 13:0 14:0 15:0 16:0 17:0 18:4.879778e-17 19:0.082830407 20:0.82430433 21:0.075462333 22:0.017402883 23:0 24:0.10770725 25:0.013850955 26:0.004522156 27:0.023491453 28:0.23241985 29:0.073365446 30:0.16326258 31:0.3813803 32:0.0043763064 33:0 34:0.022746712 35:0.34794146 36:0.49127013 37:0.013619036 38:0.1063796 39:0.013666747 40:0.11217784 41:0.061500095 42:0.024118057 43:0.30782919 44:0.25346073 45:0.057370239 46:0.053117724 47:0.13042613 48:0.045535289 49:0.011313334 50:0.080702925 51:0.48406552 52:0.25625799 53:0.056566668 54:0.065557749 55:0 56:0.12727572 57:0.025872469 58:0.18530581 59:0.036589197 60:0.3837048 61:0.077617407 62:0.16363186 63:0 64:0.29185863 65:0.063924007 66:0.17279786 67:-2.1707173e-17 68:0.12026812 69:0.14707556 70:0.16369396 71:0.040381392 72:0.24042968 73:0.032525322 74:0.13745042 75:0.18706164 76:0.05341868 77:0.04288521 78:0.16620665 79:0.14002228 80:0.044297357 81:0.024923605 82:0.070135421 83:0.082622575 84:0.39909022 85:0.28498685 86:0.058238679 87:0.035705226 88:0.12318103 89:0.075913912 90:0.006486874 91:0.07512392 92:0.41691192 93:0.06776248 94:0.075953838 95:0.15866601 96:0.067081165 97:0.034271064 98:0.188654 99:0.27242739 100:0.28793569 101:0.019290042 102:0.089867206 103:0.040473347 104:0.010670715 105:0.17500989 106:0.51454319 107:0.16090675 108:0.096106086 109:0.036386097 110:0.0063772199 111:0 112:0.029114286 113:0.0654597 114:0.70488236 115:0.17738756 116:0.017618922 117:1.7387496e-18 118:0.0055370931 119:0 120:0.10379104 121:0.10794615 122:0.2169296 123:0.19851481 124:0.22975803 125:0.047179912 126:0.042602277 127:0.053278089 128:0.055025169 129:3.9045981e-17 130:0.0055263527 131:0.042716803 132:0.34910832 133:0.21186943 134:0.19231976 135:0.14343408 136:0.42413612 137:0.0090275686 138:0.016244645 139:0.009804308 140:0.059783047 141:0.024043466 142:0.064950158 143:0.39201066 144:0.33005708 145:0.35584492 146:0.16221656 147:0.056204222 148:0.06181931 149:0.0056265337 150:0.0071903768 151:0.021040991 152:0.25228711 153:0.28973806 154:0.28911766 155:0.048015588 156:0.037844259 157:0.0073685978 158:0.03067015 159:0.044958361 160:0.38545232 161:0.32309201 162:0.25088146 163:-6.6753997e-17 164:-1.2015719e-16 165:3.3376998e-18 166:0.016805911 167:0.023767147 168:0.28995006 169:0.15028817 170:0.11177254 171:-1.5153364e-17 172:0.11823088 173:0.039865947 174:0.1687699 175:0.12112156 176:0.38935563 177:0.033308059 178:0.23579487 179:0.021065866 180:0.11990901 181:0.014895817 182:0.12247224 183:0.063197599 184:0.38134978 185:0.015143647 186:0.010588498 187:5.8346853e-17 188:0.061831219 189:0.01579592 190:0.05027131 191:0.46501959 192:0.037603478 193:0.041300119 194:0.16668333 195:0.41990547 196:0.11756288 197:0.034094754 198:0.11074752 199:0.072102415 200:0.18652413 201:0.10427016 202:0.20978414 203:0.079715212 204:0.074609651 205:0.18217158 206:0.1334313 207:0.029492054 208:0.35007747 209:0.064720028 210:0.035217523 211:4.2416796e-16 212:0.1752277 213:0.12944006 214:0.21480601 215:0.030509314 216:0.10654551 217:-7.27934e-18 218:0.057953116 219:4.1492238e-16 220:0.39972773 221:0.10285594 222:0.3069989 223:0.025917421 224:0.043735104 225:0.073229457 226:0.12537439 227:0.076154922 228:0.35314391 229:0.065196443 230:0.24011426 231:0.023050424 232:0.67013015 233:0.16331002 234:0.023012867 235:0.021995403 236:0.034626987 237:0.012780157 238:0.028093219 239:0.046051158 240:0.053834243 241:0.011376566 242:0.11091727 243:0.1612817 244:0.12202062 245:0.25125962 246:0.23985589 247:0.049453958 248:0.0081817004 249:0.012525565 250:0.10331143 251:0.090619699 252:0.17757405 253:0.36464258 254:0.19183696 255:0.051307982 256:0.080098243 257:0.032326121 258:0.044456328 259:0.14601026 260:0.58635168 261:0.024244591 262:0.0750835 263:0.01142901 264:0.049938987 265:0.027427533 266:0.11506147 267:0.49083921 268:0.21268525 269:0.027427533 270:0.048269991 271:0.028349836 272:0.021473156 273:0.071894527 274:0.091587072 275:0.50337337 276:0.17840057 277:0.11070815 278:0.022563111 279:5.8363997e-18 280:0.34123304 281:0.018352046 282:0.038890813 283:0.055551661 284:0.19696767 285:0.19090867 286:0.047846072 287:0.11024999 288:0.0022776167 289:0.0177157 290:0.23573937 291:0.66971604 292:0.058637165 293:0.0046118223 294:0.009024652 295:0.0022776167 296:0.0079455956 297:0.0054209635 298:0.089648757 299:0.34659221 300:0.51094932 301:0.028043703 302:0.0035918716 303:0.0078075643 304:0.0059856117 305:0.0026964597 306:0.02981085 307:0.52637729 308:0.41498125 309:0.015719005 310:0.0015253479 311:0.002904176 312:0.0060260068 313:0.0061730042 314:0.12867035 315:0.72154804 316:0.12974329 317:0.0078393019 318:2.8842245e-17 319:2.7950217e-17 320:-3.2291431e-18 321:2.1527621e-18 322:0.38294932 323:0.53282389 324:0.066640117 325:0.0097893275 326:0.0077973211 327:-4.3055242e-18 328:0.53872641 329:0.086973102 330:0.11781977 331:0.10383435 332:0.12333536 333:0.013566169 334:0.015744802 335:7.766293e-17 336:0.059321142 337:0.11018493 338:0.34008266 339:0.23212011 340:0.17137219 341:0.044215369 342:0.042702711 343:-1.7562586e-17 344:0.10646833 345:-6.0609179e-17 346:0.057737976 347:0.10404853 348:0.33466178 349:0.11736827 350:0.12860129 351:0.15111304 352:0.021889975 353:-1.1109831e-17 354:0.034962481 355:0.15059846 356:0.62511035 357:0.14191396 358:0.015635697 359:0.0098888828 360:0.028715083 361:0 362:0.11511686 363:0.40334789 364:0.4375707 365:0.009412155 366:0.0058371707 367:1.1824636e-16 368:0.060163817 369:0.023969982 370:0.24983656 371:0.21617803 372:0.33711386 373:0.10079389 374:0.011943641 375:0 376:0.39718364 377:0.12969181 378:0.10237339 379:0.14047615 380:0.11143379 381:0.0084007365 382:0.026249289 383:0.084191073 
0.03750327601281947 0:0.078891073 1:0 2:0.21379128 3:0 4:0.66268502 5:0 6:0.04462753 7:0 8:0.15744538 9:0 10:0.21333497 11:0 12:0.39361346 13:0.035205858 14:0.20039526 15:0 16:0.14483492 17:0 18:0.040965502 19:0 20:0.33312032 21:0.064772147 22:0.41630281 23:0 24:0.034561647 25:0 26:0.19397372 27:0 28:0.59906854 29:0.02576073 30:0.14663265 31:0 32:0.066045361 33:0 34:0.034440595 35:0 36:0.35062801 37:0.18987675 38:0.35900746 39:0 40:0.0080793107 41:0 42:0.083689422 43:0 44:0.53039956 45:0.072263551 46:0.30556682 47:0 48:0.14427506 49:0.040326104 50:0.076513403 51:0 52:0.43282517 53:0 54:0.30605361 55:0 56:0.14602212 57:0 58:0.21069539 59:0 60:0.56583573 61:0 62:0.077439926 63:0 64:0.28428411 65:0 66:0.16554524 67:0 68:0.38461968 69:0 70:0.16554524 71:0 72:0.13137249 73:0 74:0.28370803 75:0 76:0.48169914 77:0 78:0.10321598 79:0 80:0.23255706 81:0.047273946 82:0.12202062 83:0 84:0.23255706 85:0.047273946 86:0.31831507 87:0 88:0.049149108 89:0.04710032 90:0.31069875 91:0.13337034 92:0.39433227 93:0.015700107 94:0.049648097 95:0 96:0.31127181 97:0 98:0.21135729 99:0 100:0.34789203 101:0 102:0.12947201 103:0 104:0.17543856 105:0 106:0.14177577 107:0 108:0.57644098 109:0 110:0.10633182 111:0 112:0.26035874 113:0 114:0.3841534 115:0.045740369 116:0.28928749 117:0 118:0.020455715 119:0 120:0.046629584 121:0.01737782 122:0.18545776 123:0.34758265 124:0.26323953 125:0.062776533 126:0.076934889 127:0 128:0.021034868 129:0.14346061 130:0.29271687 131:0.27332423 132:0.15764616 133:0.067761795 134:0.034552697 135:0.009502585 136:0.0045096258 137:0.091408753 138:0.59079253 139:0.18114194 140:0.12493941 141:-1.2666036e-18 142:0.002016766 143:0.0051909691 144:0.073831236 145:0.073040601 146:0.073216112 147:0.32023621 148:0.43168532 149:0.0072189052 150:0.020771408 151:0 152:1.4724212e-17 153:0.05405276 154:0.55944119 155:0.32019374 156:0.066311957 157:0 158:1.3803949e-17 159:0 160:1.3394357e-17 161:1.0045768e-17 162:0.31813109 163:0.61023527 164:0.07163335 165:0 166:1.6742946e-18 167:0 168:1.6768009e-17 169:0.010553738 170:0.20072825 171:0.4518295 172:0.30522684 173:0.031661213 174:1.781601e-17 175:0 176:0.29312263 177:0.09264662 178:0.12631085 179:0.052159625 180:0.028288778 181:0.0063261162 182:0.034425814 183:0.3667195 184:0.10924582 185:0.018138441 186:0.074984326 187:4.7803736e-17 188:0.038706396 189:0.11921883 190:0.32229158 191:0.31741456 192:0.27930948 193:0.016200835 194:0.0098660064 195:0.33174056 196:0.10386228 197:0.07141229 198:0.078769894 199:0.10883865 200:0.19481247 201:0.072305612 202:0.50369815 203:0.020451115 204:0.097008158 205:3.7336239e-17 206:0.070821417 207:0.040902231 208:0.30018084 209:0.19716995 210:0.41872029 211:-1.3568756e-15 212:0.053603721 213:6.1892569e-17 214:0.030322844 215:-2.8565801e-17 216:0.22740523 217:0.072641936 218:0.27421254 219:0.10273121 220:0.29237815 221:6.251651e-17 222:0.030628529 223:-2.8853774e-17 224:0.19197596 225:0.26311153 226:0.22661716 227:-9.8899043e-16 228:0.065931172 229:4.2292354e-17 230:0.17739682 231:0.074966273 232:0.41751536 233:4.0517166e-18 234:0.0016128495 235:-1.4890058e-16 236:0.0022809137 237:1.0635756e-17 238:-1.0129291e-17 239:0.57859085 240:0.23261739 241:0.17608653 242:0.058688083 243:0.14251402 244:0.34564926 245:0.023101547 246:0.0091235382 247:0.012219609 248:0.065574107 249:0.077839447 250:0.22318747 251:0.31777912 252:0.30520752 253:0.010411889 254:4.1356592e-18 255:0 256:0.076941495 257:0.043011603 258:0.29004515 259:0.060827592 260:0.39095042 261:0.043011603 262:0.095210242 263:0 264:0.35399829 265:0.083322552 266:0.25245251 267:7.6121198e-16 268:0.24220936 269:0.041661276 270:0.026348904 271:0 272:0.31042369 273:0.30652457 274:0.20003847 275:0.022219831 276:0.063238748 277:0 278:0.075333857 279:0.022219831 280:0.64744342 281:0.19049898 282:0.006155841 283:5.6541652e-17 284:0.0065292554 285:3.8660958e-18 286:0.0030779205 287:0.14629456 288:0.16579093 289:1.1780154e-16 290:0.21482223 291:0.068357352 292:0.51395188 293:0.037071979 294:4.7856876e-17 295:-1.914275e-16 296:0.27006821 297:0 298:0.19335088 299:9.2257212e-18 300:0.47781298 301:0 302:0.058759095 303:0 304:0.048073255 305:0 306:0.1359717 307:8.0058052e-17 308:0.51873779 309:0.10749507 310:0.18971923 311:0 312:0.25214255 313:0 314:0.13371878 315:-1.1897215e-16 316:0.34669601 317:0 318:0.26743756 319:0 320:0.36306728 321:0.10750169 322:0.019972084 323:-1.5679009e-18 324:0.0070611981 325:0 326:0.042452447 327:0.45994524 328:0.0727669 329:0.30688743 330:0.057989745 331:0.018794117 332:0.28748122 333:0.021013149 334:0.13417737 335:0.10089001 336:0.35246986 337:1.6696327e-16 338:0.33231177 339:-1.2522245e-16 340:0.28197589 341:-1.6696327e-16 342:0.033231177 343:-2.7131531e-16 344:0.094937892 345:0 346:0.37340253 347:8.4321787e-18 348:0.5316522 349:0 350:2.5296536e-17 351:0 352:0.12360157 353:0 354:0.38345886 355:9.1483537e-17 356:0.38453821 357:0.030709056 358:0.07768845 359:0 360:0.20836247 361:0.051768071 362:0.26724116 363:-1.7478177e-16 364:0.43987632 365:0 366:0.032741003 367:0 368:0.31580554 369:9.2616184e-18 370:0.058987726 371:-9.2616184e-18 372:0.083421243 373:0 374:0.058987726 375:0.48279554 376:0.02209884 377:0.015958262 378:0.0039839251 379:3.9255426e-18 380:0.25819666 381:0.46127512 382:0.20065843 383:0.037828739 
0.08414957690397172 0:0 1:0 2:0.11553276 3:0.15076018 4:0.65478079 5:0.070063104 6:0.0088623595 7:0 8:0.0057018384 9:0.020558271 10:0.17587868 11:0.23150394 12:0.43366814 13:0.071557063 14:0.061131401 15:0 16:0.25210488 17:0.028987288 18:0.096535334 19:0.013664739 20:0.080585974 21:0.13957414 22:0.23223019 23:0.15631708 24:0.17814203 25:0.031351856 26:0.12496766 27:0.035852219 28:0.19999513 29:0.15554877 30:0.27414079 31:-1.5446205e-17 32:0.26843959 33:0.082207287 34:0.11607084 35:3.2653184e-17 36:0.11029265 37:0.10871834 38:0.17674492 39:0.13752526 40:0.094783899 41:0.090468215 42:0.26173963 43:0.13894281 44:0.30594416 45:0.024554546 46:0.0662037 47:0.017362686 48:0.0055846329 49:0 50:0.03618121 51:0.16967318 52:0.65756753 53:0.11519707 54:0.015795727 55:0 56:0.00601984 57:0.013460771 58:0.28584891 59:0.16395012 60:0.42936241 61:0.053843085 62:0.047514129 63:0 64:0.025790385 65:0.018013086 66:0.24959777 67:0.29503566 68:0.30236672 69:0.062698054 70:0.046497811 71:-1.7749113e-17 72:0.029836462 73:0.25516214 74:0.3470173 75:0.023587795 76:0.23990215 77:0.083395447 78:0.021097565 79:0 80:0.035114412 81:0.015703642 82:0.42685505 83:0.15560868 84:0.31128614 85:0.015703642 86:0.039727422 87:3.1187863e-18 88:0.013495648 89:0.012164813 90:0.6454461 91:0.17427212 92:0.14507822 93:-5.9932718e-18 94:0.0095428645 95:0 96:0 97:0.0063181085 98:0.018305877 99:0.23669791 100:0.69135648 101:0.039329613 102:0.0079918454 103:0 104:0.0087206195 105:0 106:0.095021892 107:0.50482033 108:0.34010416 109:0.029249847 110:0.022082767 111:0 112:0.0270212 113:0.010070207 114:0.082195824 115:0.61130192 116:0.2264619 117:0.020140414 118:0.022808123 119:-1.5999765e-17 120:0.024999977 121:0.01561002 122:0.19345499 123:0.47474744 124:0.25996729 125:0.0078050098 126:0.023415029 127:0 128:0.0058356363 129:0.027565125 130:0.11838095 131:0.59615052 132:0.12349535 133:0.038256471 134:0.090315774 135:1.2957715e-18 136:0.1314481 137:0.02761772 138:0.55810221 139:0.10947803 140:0.12968571 141:-2.7424774e-18 142:0.04366745 143:0 144:0.051083705 145:0.17976581 146:0.24747164 147:0.26829849 148:0.099707363 149:0.047566391 150:0.10610635 151:0 152:0.0063463281 153:0.025903053 154:0.15343211 155:0.54250184 156:0.24379428 157:0.012357611 158:0.0089750633 159:0.0066896172 160:0.033806325 161:-1.3182238e-17 162:0.023919401 163:0.61795627 164:0.30581227 165:0.0041484317 166:0.0026236986 167:0.011733537 168:0.019111018 169:0.013449641 170:0.06365843 171:0.28476748 172:0.46251527 173:0.12008651 174:0.03641154 175:0 176:0.14130693 177:0.029077501 178:0.064649626 179:0.034694084 180:0.1844165 181:0.044552691 182:0.29800549 183:0.20329707 184:0.35110172 185:0.22022562 186:0.18627721 187:-2.8715476e-16 188:0.19158964 189:7.9765211e-17 190:0.050802875 191:8.5082892e-17 192:0.091968913 193:0.029547199 194:0.0077595322 195:0.038867208 196:0.11528783 197:1.6244244e-18 198:0.25849573 199:0.45807352 200:0.21983163 201:0.033525383 202:0.016762691 203:5.3265861e-17 204:0.2248951 205:0.1843896 206:0.28968556 207:0.030908876 208:0.12608785 209:-2.954398e-17 210:0.042115789 211:0.026297156 212:0.30072156 213:0.074379591 214:0.40409948 215:0.026297156 216:0.054649858 217:0.030550199 218:0.23499518 219:3.0336765e-16 220:0.46452379 221:0.152751 222:0.019321643 223:0.043204506 224:0.7566021 225:0.024487352 226:0.005162387 227:-8.1054249e-19 228:0.021902153 229:0.0081624506 230:0.04471803 231:0.13896546 232:0.030835732 233:0.055589907 234:0.36255636 235:0.15367368 236:0.30835732 237:0.017237698 238:0.071748087 239:0 240:0.10187911 241:0.014768095 242:0.018905907 243:0.032381191 244:0.23368353 245:0.097478906 246:0.1520993 247:0.34880387 248:0.073083482 249:0.013341434 250:0.062802426 251:0.069284553 252:0.15189117 253:0.16811684 254:0.4520634 255:0.0094165912 256:0.042373304 257:2.6882181e-18 258:0.12890514 259:0.019142307 260:0.44455154 261:0.14889221 262:0.21613475 263:1.3441091e-16 264:0.039156551 265:0.049597984 266:0.31160643 267:0.27191582 268:0.21802257 269:0.088246355 270:0.021453989 271:9.7685767e-17 272:0.23972571 273:0.22597904 274:0.23465134 275:0.032754687 276:0.045611922 277:0.022126415 278:0.096077771 279:0.10307302 280:0.13213171 281:6.2590151e-17 282:0.29807651 283:0.15633939 284:0.26513566 285:0.078788129 286:0.06952702 287:2.8947945e-16 288:-6.1926819e-18 289:-6.1926819e-18 290:0.010393751 291:0.11636144 292:0.58002703 293:0.26692299 294:0.026294341 295:5.7798364e-17 296:0.018832934 297:0 298:0.049326519 299:0.036039841 300:0.54113421 301:0.22089473 302:0.10090098 303:0.032870634 304:-7.4822704e-18 305:0.0047093199 306:5.1440609e-18 307:0.18897881 308:0.76508298 309:0.02460574 310:0.016623062 311:-8.4175542e-18 312:0.09223194 313:0.053377675 314:0.22306561 315:0.26074602 316:0.29107556 317:0.039775702 318:0.03010925 319:0.0096180472 320:0.160278 321:0.016171285 322:0.17718894 323:0.0457393 324:0.1961548 325:0.026075413 326:0.33265189 327:0.0457393 328:0.3711888 329:0.03549141 330:0.017184425 331:-1.780755e-16 332:0.067433333 333:0.062568629 334:0.24767595 335:0.1984567 336:0.2596047 337:-3.1442085e-17 338:0.16688022 339:5.2403475e-17 340:0.40120726 341:0.05277216 342:0.11952425 343:2.9345946e-16 344:0.18884323 345:0 346:0.061630304 347:0.045936517 348:0.47427411 349:0.032482022 350:0.1968295 351:0 352:0.21204567 353:0 354:0.067306642 355:2.374651e-16 356:0.24233485 357:0.21877732 358:0.25953378 359:-3.2753806e-17 360:0.42179054 361:0.026947209 362:0.051128734 363:1.3379473e-16 364:0.20486969 365:0 366:0.29526086 367:0 368:0.22774002 369:2.5284221e-17 370:0.27664898 371:0.045011073 372:0.37007753 373:-1.8963166e-17 374:0.080518255 375:-6.3210553e-18 376:0.52826102 377:0.2673445 378:0.1137175 379:-3.0408015e-18 380:0.061625486 381:0 382:0.029050533 383:0 
0.1437040917112765 0:0 1:0 2:0 3:0.046907496 4:0.50521943 5:0.30417896 6:0.14369361 7:0 8:0 9:0.011932216 10:0.16874867 11:0.094627946 12:0.63508181 13:0.066968986 14:0.022639789 15:0 16:0 17:0.055137829 18:0.38628099 19:0.2756376 20:0.26019886 21:0.022744192 22:2.7102352e-17 23:0 24:0 25:2.0892857e-18 26:0.36493171 27:0.50222693 28:0.12232098 29:0.010519924 30:2.5071429e-17 31:0 32:0 33:2.2032679e-18 34:0.31469698 35:0.37394249 36:0.28917234 37:0.02218769 38:2.6439215e-17 39:0 40:0 41:2.4924689e-18 42:0.4015869 43:0.36036095 44:0.23011418 45:-2.9909627e-17 46:0.0079373316 47:0 48:0 49:0 50:0.027390688 51:0.038736283 52:0.7326589 53:0.1232581 54:0.077955266 55:0 56:0 57:0 58:0.21418715 59:0.23942097 60:0.44692164 61:0.078780758 62:0.020688994 63:0 64:0 65:0 66:0.27319799 67:0.35211528 68:0.34693109 69:0.027755177 70:0 71:0 72:0.029009512 73:0.02026146 74:0.54481534 75:0.23641558 76:0.16949746 77:9.9822692e-18 78:0 79:0 80:3.085043e-18 81:0.015533739 82:0.24725056 83:0.13848292 84:0.50712364 85:0.062134955 86:0.029473197 87:0 88:0.032980916 89:0.018436892 90:0.40066575 91:0.15644222 92:0.33805439 93:0.018436892 94:0.034981544 95:0 96:0.0026901749 97:0 98:0.01655757 99:0.056283252 100:0.83007598 101:0.086784023 102:0.0076089637 103:0 104:0.073393661 105:0 106:0.1692602 107:0.12585111 108:0.38242306 109:0.22776778 110:0.02130382 111:0 112:0.11673109 113:0.021751555 114:0.30135426 115:0.10163057 116:0.42302213 117:0.021751555 118:0.013756891 119:0 120:0.16571342 121:0.021590752 122:0.2467216 123:-1.8438324e-16 124:0.29280414 125:0.13440034 126:0.13876784 127:0 128:0.027443075 129:0.040434452 130:0.21277729 131:0.3753278 132:0.22937514 133:0.045901303 134:0.056343107 135:0.012397518 136:0.011468112 137:4.8285306e-19 138:0.0097250033 139:0.69560479 140:0.27443607 141:0.0087659996 142:-2.8971184e-18 143:0 144:0.21030129 145:0.090182591 146:0.053872722 147:0.075766938 148:0.26187253 149:0.14374948 150:0.075363435 151:0.088890953 152:0.15827368 153:0.0245497 154:0.030182218 155:0.14341901 156:0.52883675 157:0.01156963 158:0.086187187 159:0.016981804 160:0.011660789 161:0.0065185794 162:0.034444679 163:0.14121235 164:0.78255031 165:0.0097778692 166:0.013835382 167:0 168:-4.2416986e-17 169:-6.7867177e-18 170:0.016647761 171:0.46455581 172:0.47084872 173:0.047947634 174:-3.2661079e-17 175:0 176:0.14831835 177:0.11980104 178:0.050419455 179:0.046059293 180:0.27700741 181:0.044993635 182:0.076311162 183:0.23708961 184:0.046698659 185:0.040291782 186:0.098153769 187:0.42071902 188:0.13398549 189:0.0051472589 190:0.11100697 191:0.14399693 192:0.39032583 193:0.1225218 194:0.16059304 195:0.03030946 196:0.035665045 197:0.064381064 198:0.086462343 199:0.1097407 200:0.099583786 201:0.17751412 202:0.16743803 203:0.04977743 204:0.171576 205:0.21209838 206:0.094254007 207:0.027758037 208:0.063214055 209:0.075819778 210:0.093786408 211:0.018467308 212:0.64680404 213:0.060423616 214:0.029445411 215:0.012039212 216:0.25588312 217:0.017851635 218:0.035275332 219:0.042892155 220:0.51403379 221:0.036939919 222:0.048805216 223:0.048318646 224:0.19849177 225:0.12012656 226:0.080459494 227:0.093982681 228:0.23179533 229:0.090371748 230:0.13827285 231:0.046499328 232:0.062445682 233:0.014831383 234:0.041258458 235:0.33544359 236:0.45037092 237:0.020618285 238:0.050472737 239:0.024558903 240:0.04866336 241:0.039634649 242:0.1120348 243:0.25076749 244:0.19856546 245:0.16107891 246:0.11812472 247:0.071130557 248:2.0625505e-17 249:0.005192654 250:0.075979369 251:0.0073435217 252:0.079853932 253:0.36000706 254:0.47162335 255:1.2375303e-17 256:0.017571041 257:0.044883274 258:0.48681057 259:0.29723687 260:0.1129324 261:0.024849205 262:0.015716017 263:2.714316e-17 264:0.031678648 265:0.069719495 266:0.76287811 267:0.11568789 268:0.020035336 269:-1.2901341e-16 270:1.9352011e-16 271:2.446806e-17 272:0.15260478 273:0.69630693 274:0.079569132 275:5.3061394e-17 276:0.01037805 277:0.025129206 278:8.1303749e-17 279:0.036011824 280:0.014357936 281:0.2768377 282:0.061979566 283:0.30484534 284:0.34197936 285:-6.3910188e-17 286:9.8861072e-17 287:0 288:0.052099155 289:0.030378766 290:0.066311398 291:0.036839666 292:0.12652479 293:0.45664791 294:0.17802605 295:0.05317171 296:0.048999003 297:0.02843232 298:0.022386863 299:0.049980399 300:0.12522172 301:0.26947572 302:0.42317067 303:0.032333259 304:0.015588786 305:-6.7883754e-18 306:0.094867523 307:0.43138574 308:0.2972208 309:0.12205427 310:0.01367227 311:0.02521042 312:0.031963855 313:0.008934169 314:0.68618894 315:0.23295789 316:0.039954818 317:1.5259413e-16 318:1.7033764e-16 319:7.0974015e-18 320:0.10486025 321:0.08455421 322:0.42013544 323:0.036193548 324:0.22002452 325:0.084615256 326:0.049616096 327:6.353476e-17 328:-1.7893665e-17 329:4.7716439e-17 330:0.064043167 331:5.9645548e-18 332:0.78335614 333:0.10511407 334:0.047485698 335:-1.192911e-17 336:0.17296 337:0.082875066 338:0.31000584 339:-5.4864048e-17 340:0.25943999 341:-1.152145e-16 342:0.17471598 343:1.097281e-17 344:0.1238846 345:0.024817012 346:0.36107409 347:-7.8859624e-17 348:0.32545873 349:0.049634025 350:0.08003246 351:0.035096556 352:0.25342989 353:0.17000594 354:0.15377572 355:-2.4197278e-16 356:0.26610139 357:0.056668647 358:0.10001512 359:0 360:0.098539448 361:0 362:0.41942065 363:-3.2507655e-16 364:0.42231192 365:1.2502944e-17 366:0.059723924 367:0 368:0.10503121 369:0.021350629 370:0.5628843 371:-8.4805864e-17 372:0.20051412 373:0.042701258 374:0.067516616 375:8.9046157e-17 376:0.054841829 377:1.9483732e-16 378:0.29713569 379:5.2971395e-16 380:0.34276143 381:0.091972543 382:0.21328466 383:-4.8709329e-17 
0.9566629762431297 0:0.21992342 1:0.053490803 2:0.040616015 3:0.011040481 4:0.022061755 5:0.13654109 6:0.17805663 7:0.33826978 8:0.17652254 9:0.36674131 10:0.23436063 11:0.0052141869 12:0.062078514 13:0.028378882 14:0.079219566 15:0.047484319 16:0.66976436 17:0.041974085 18:0.01586987 19:-6.644577e-18 20:6.644577e-18 21:-9.9668654e-18 22:0.073393204 23:0.19899819 24:0.42649211 25:0.18921054 26:0.052746084 27:-1.1042164e-17 28:0.063170604 29:0.055599254 30:0.098127738 31:0.11465288 32:0.15800607 33:0.21317263 34:0.3872459 35:0.055521995 36:0.077948923 37:0.014524924 38:0.060456768 39:0.033121923 40:0.26132393 41:0.33269248 42:0.21745674 43:0.030420282 44:0.12320079 45:-7.5465024e-18 46:0.026147585 47:0.0087581013 48:0.1018564 49:0.084307017 50:0.01636484 51:0.0078227815 52:0.068241584 53:0.21175537 54:0.36801559 55:0.14163634 56:0.36407107 57:0.067076671 58:0.027978362 59:0 60:0.059151653 61:0.067076671 62:0.2221884 63:0.192457 64:0.17611419 65:0.019031484 66:0.068154386 67:0 68:0.03968129 69:0.009515742 70:0.36640931 71:0.32109323 72:0.27975996 73:0.06380086 74:0.057119935 75:0 76:0.017832883 77:5.0684101e-17 78:0.26540906 79:0.31607704 80:0.22038553 81:0.44261099 82:0.22446627 83:0.071920961 84:0.016433126 85:0.0091863966 86:0.014996384 87:-1.806199e-16 88:0.15921853 89:0.54823658 90:0.18499374 91:0.031691652 92:0.024923226 93:0.012860776 94:0.013824918 95:0.024250511 96:0.14030055 97:0.025374603 98:0.01005738 99:0 100:0.040692426 101:0.176264 102:0.33982455 103:0.26748647 104:0.19930562 105:0.25608776 106:0.069231138 107:0.012891174 108:0.047327884 109:0.089649464 110:0.16637159 111:0.15913532 112:0.1083791 113:1.3522235e-16 114:0.085377981 115:0.037599205 116:0.11585035 117:0.15793697 118:0.27527873 119:0.21957711 120:0.39000131 121:0.15065027 122:0.042321568 123:-3.7970728e-18 124:0.0076740823 125:3.5439346e-17 126:0.18515617 127:0.22419656 128:0.14028667 129:0.17792831 130:0.16078206 131:0.048739556 132:0.10150086 133:0.065612675 134:0.25232584 135:0.052823983 136:0.26802907 137:0.12539851 138:0.048877235 139:0.10950309 140:0.30554052 141:0.02474704 142:0.038135852 143:0.079768647 144:0.38804193 145:0.13024086 146:0.088402886 147:0.042574773 148:0.057360335 149:0.080162295 150:0.056685656 151:0.15653124 152:0.31271552 153:0.58505698 154:0.031378788 155:0.012639493 156:0.02661742 157:1.3133899e-17 158:0.012886937 159:0.018704816 160:0.28459889 161:0.047535835 162:0.090192904 163:3.1469155e-17 164:0.085034686 165:0.031690556 166:0.15456633 167:0.30637977 168:0.28270372 169:0.077189347 170:0.058231282 171:3.770047e-18 172:-9.4251174e-18 173:0.013287999 174:0.11086468 175:0.45772295 176:0.47850848 177:0.2271841 178:0.15036461 179:0.014047977 180:0.0015386362 181:0.034835713 182:0.032735256 183:0.060785212 184:0.13145742 185:0.21771141 186:0.13611306 187:0.16246969 188:0.25135568 189:0.05745903 190:0.01643497 191:0.026998523 192:0.84675845 193:0.0086275441 194:0.004032261 195:0.010212477 196:0.024340026 197:0.01937452 198:0.054686614 199:0.031968086 200:0.54622971 201:0.01264592 202:0.093923636 203:2.5115143e-18 204:0.016966282 205:0.01264592 206:0.12490834 207:0.19267954 208:0.54151744 209:0.15537687 210:0.12130124 211:0 212:0.10508455 213:4.6666915e-18 214:0.076717638 215:-4.2000223e-17 216:0.49698786 217:0.10535168 218:0.022812197 219:0.0051009622 220:0.026070819 221:0.063917397 222:0.078686724 223:0.20107231 224:0.38682195 225:0.44575488 226:0.15270097 227:-3.5086363e-18 228:2.3390908e-18 229:0.0058888688 230:0.0088333031 231:2.806909e-17 232:0.28915176 233:0.039874926 234:0.084098628 235:0.021585725 236:0.20211761 237:0.061053651 238:0.15728262 239:0.14483412 240:0.40769004 241:0.040860322 242:0.031151092 243:0.010539961 244:0.031173267 245:0.018140736 246:0.080993951 247:0.37945058 248:0.12653882 249:1.6064779e-16 250:0.036469306 251:0.013301667 252:0.11056569 253:0.076403486 254:0.38702268 255:0.24969798 256:0.35862563 257:0.31898149 258:0.19798198 259:0.045364096 260:0.040737435 261:0.015181946 262:0.012391926 263:0.010735257 264:0.51231015 265:0.36029194 266:0.030439213 267:0.020154756 268:-7.8501162e-19 269:-4.7100697e-18 270:0.0079053457 271:0.068898525 272:0.17395309 273:0.28437217 274:0.21990853 275:0.014578415 276:0.14129545 277:0.030925488 278:0.053215319 279:0.0817511 280:0.045011144 281:0.044700366 282:0.059160482 283:0.022846644 284:0.56095559 285:0.089518951 286:0.17780619 287:-1.2303769e-16 288:0.17085499 289:0.12402912 290:0.091861247 291:0.081878256 292:0.21482593 293:0.050901204 294:0.10957832 295:0.15607084 296:0.17536748 297:0.12761089 298:0.0096842765 299:-8.0368163e-18 300:0.036151278 301:0.21550868 302:0.27443596 303:0.16124138 304:0.44393202 305:0.45135864 306:0.058553803 307:0.016840439 308:0.0026627072 309:0.011907988 310:0.0037656366 311:0.010978623 312:0.5968283 313:0.15041515 314:0.018360431 315:-1.8737923e-17 316:0.019474177 317:0.026217719 318:0.087833373 319:0.10087064 320:0.16164663 321:0.02275466 322:0.1392096 323:0.027400239 324:0.17527303 325:0.066540536 326:0.2353161 327:0.17185868 328:0.13451021 329:0.53221397 330:0.12409965 331:0.0064400064 332:0.13881308 333:0.0091075444 334:0.035495439 335:0.019320019 336:0.21944992 337:0.042205815 338:0.19096312 339:0.24553183 340:0.14303626 341:0.023439254 342:0.057326494 343:0.078047215 344:0.35425025 345:0.39691873 346:0.015817342 347:0.035233961 348:0.092898377 349:0.037985294 350:0.027998701 351:0.038897294 352:0.55871763 353:0.073949177 354:0.01028798 355:1.7229952e-17 356:0.13246977 357:0.075099316 358:0.055683394 359:0.093792616 360:0.1868374 361:0.0069497219 362:0.038291704 363:0.0098283909 364:0.574374 365:0.032055255 366:0.10339098 367:0.048272353 368:0.050289389 369:0.031756529 370:0.071739384 371:0.2142468 372:0.49524473 373:0.049571562 374:0.06272621 375:0.024425165 376:0.36539679 377:0.31766273 378:0.1187641 379:0.056301392 380:0.098030057 381:0.020571202 382:-1.9610385e-17 383:0.023273658 
1.03959663395423 0:0.67402479 1:0.0060668943 2:0.036763221 3:0 4:0.040697964 5:0 6:0.040238407 7:0.20220857 8:0.090738231 9:0 10:0.20084771 11:0 12:0.25290787 13:0.1919192 14:0.26358536 15:-4.7582879e-17 16:0.33770494 17:0.10787589 18:0.11709256 19:0 20:0.0771897 21:0.086300709 22:0.2738343 23:-5.141867e-17 24:0.47635994 25:0.15286982 26:0.1586188 27:0 28:0.013070576 29:0.029226697 30:0.1285205 31:0.041332792 32:0.29785097 33:0.46120999 34:0.2409388 35:0 36:0 37:0 38:1.4243358e-17 39:-1.799161e-17 40:0.1134763 41:0.44885236 42:0.32441932 43:0.039131204 44:0.074120621 45:0 46:1.3029317e-17 47:-1.6458084e-17 48:0.57988049 49:0.017319266 50:0.0078265222 51:0.0067801993 52:0.019644723 53:0.078919243 54:0.068785007 55:0.22084445 56:0.10999803 57:0.089549277 58:0.052780177 59:0.074913536 60:0.20886607 61:0.16344 62:0.21802493 63:0.082427237 64:0.12527508 65:0.061833088 66:0.067617239 67:0.12909885 68:0.41540835 69:0.077923431 70:0.081346996 71:0.041496687 72:0.033856473 73:0.10446854 74:0.15468907 75:0.012481623 76:0.46366312 77:0.15277167 78:0.06341047 79:0.014658923 80:0.13773562 81:0.14330994 82:0.080639657 83:0 84:0.10424348 85:0.28863665 86:0.1919338 87:0.053500767 88:0.19718917 89:0.20548369 90:0.098229321 91:0.030390085 92:0.12275787 93:1.2803343e-16 94:0.31672114 95:0.029228248 96:0.54126057 97:0.062614198 98:0.065667938 99:0.091325165 100:0.081308545 101:0.031612931 102:0.027638344 103:0.098572274 104:-9.5927241e-17 105:7.5533261e-19 106:0.068501672 107:0.77854568 108:0.14276325 109:-3.0213304e-18 110:0.0048107524 111:0.0053785847 112:0.0077083709 113:0 114:-2.2250828e-17 115:0.58517636 116:0.39849697 117:0.0086182207 118:0 119:-8.5580109e-19 120:0.035704865 121:-4.5303273e-18 122:0.0024044907 123:-6.0404364e-17 124:0.67213677 125:0.18442864 126:0.061015608 127:0.044309564 128:0.012798994 129:7.5785267e-18 130:-1.3262422e-17 131:-5.0523511e-17 132:0.060147782 133:0.35355806 134:0.32751968 135:0.24597545 136:0.0076138983 137:-3.2967188e-17 138:-2.5359375e-17 139:-6.6779689e-17 140:0.025054061 141:0.18314752 142:0.51145203 143:0.27273242 144:0.59128026 145:0.019445704 146:0.031974282 147:0.004230302 148:0.016684074 149:-1.3669052e-18 150:0.0080981298 151:0.32828723 152:0.15681656 153:0.051757956 154:0.29492535 155:1.1307199e-16 156:0.13366969 157:0.08626326 158:0.22776809 159:0.048797869 160:0.17023014 161:0.060102027 162:0.15615976 163:5.5703325e-17 164:0.29216813 165:0.12020405 166:0.20113424 167:4.456266e-16 168:0.28304876 169:0.030694155 170:0.038488838 171:0 172:0.037998692 173:0.047687687 174:0.16786195 175:0.39421963 176:0.071235937 177:1.4379596e-17 178:-2.1090074e-17 179:0 180:-3.8345589e-18 181:4.9849266e-17 182:0.26369002 183:0.66507395 184:0.058941343 185:-2.3557693e-17 186:-2.0285791e-17 187:6.5438036e-19 188:0.044206007 189:0.041091771 190:0.12645015 191:0.72931069 192:0.45511959 193:0.0097359384 194:0.018326587 195:0.0032503482 196:0.0074882838 197:0.030301863 198:0.068576012 199:0.40720135 200:0.050174871 201:0.01974488 202:0.098447443 203:0.057213944 204:0.10582599 205:0.12796054 206:0.38983089 207:0.15080083 208:0.26504936 209:0.12638172 210:0.19252434 211:3.6620136e-17 212:0.13279386 213:0.11101598 214:0.15050333 215:0.021730438 216:0.17610881 217:0.15301782 218:0.55971346 219:0.021493649 220:0.020651699 221:0.013193886 222:0.025710706 223:0.030109788 224:0.2255057 225:0.34496268 226:0.38028805 227:0.049243502 228:1.4467951e-17 229:3.4562327e-17 230:-2.3711364e-17 231:2.7167596e-16 232:0.18845465 233:0.20314869 234:0.16389362 235:0.0082619118 236:0.084876591 237:0.030589391 238:0.1868178 239:0.13395721 240:0.062674399 241:7.3735774e-18 242:0.011423776 243:0.025145116 244:0.073731063 245:0.12235701 246:0.17456325 247:0.53010536 248:1.2914e-17 249:8.0712498e-19 250:0.013841545 251:0.13154243 252:0.5629584 253:0.18900811 254:0.089417955 255:0.013231482 256:7.025462e-18 257:0.017134494 258:0.37353085 259:0.56106288 260:0.046034457 261:-4.2855318e-17 262:0.0022372765 263:-1.4893979e-16 264:0.054732373 265:0.015917394 266:0.78465087 267:0.13241039 268:-2.846523e-17 269:-2.397072e-17 270:6.7417651e-18 271:0.012288908 272:0.040671651 273:0.080019455 274:0.78708484 275:0.020922381 276:0.0057436596 277:0.012843213 278:0.043633104 279:0.0090815233 280:0.050713658 281:0.018899864 282:0.37949568 283:0.10691378 284:0.31273422 285:0.037799729 286:0.06671316 287:0.026728445 288:0.32602753 289:0.042837844 290:1.2122135e-18 291:2.424427e-18 292:0.031963579 293:0.084302709 294:0.19430142 295:0.32056677 296:0.11041225 297:0.0145229 298:0.074971242 299:0.066285463 300:0.48427606 301:0.11055487 302:0.13897634 303:1.0383435e-16 304:0.39962556 305:0.13522908 306:0.084737985 307:0.043090178 308:0.1337289 309:0.039676389 310:0.077730842 311:0.086180356 312:0.30313141 313:0.10305039 314:0.060540057 315:0 316:0.021404142 317:6.6537441e-17 318:0.18165584 319:0.33021757 320:0.24260553 321:0.016867041 322:0.021335307 323:6.6996808e-18 324:0.12191481 325:0.15939027 326:0.34247149 327:0.095414392 328:0.25951703 329:0.063711673 330:0.082769249 331:4.2177708e-18 332:0.14246363 333:0.063711673 334:0.3878249 335:1.6027529e-16 336:0.3212538 337:0.020346862 338:0.097811533 339:0.051905164 340:0.065554254 341:0.11911261 342:0.23015232 343:0.093863036 344:0.047526248 345:0 346:0.0126023 347:0.14359753 348:0.48758511 349:0.1739984 350:0.097053751 351:0.037636476 352:0.029778195 353:0 354:0.037369884 355:0.20540953 356:0.68928088 357:0.025593751 358:0.012567627 359:-6.6120876e-18 360:0.03226726 361:-1.4329542e-17 362:0.018253119 363:0.57634709 364:0.19544527 365:0.028860715 366:0.11821493 367:0.030611411 368:0.21071701 369:0.014070532 370:0.14242572 371:0.14080145 372:0.094388 373:0.059446635 374:0.29230632 375:0.045843517 376:0.16320148 377:-1.6508426e-16 378:7.650246e-17 379:1.6508426e-16 380:0.48348034 381:0.20273866 382:0.15057783 383:1.2079336e-17 
1.320868920442015 0:0.70522385 1:0.025772178 2:0.020296428 3:0.0079019506 4:0.0074964486 5:0.0055875229 6:0.042073053 7:0.18564844 8:0.19967565 9:0.13857315 10:0.21991278 11:0.020738206 12:0.10049838 13:0.052973444 14:0.16577136 15:0.10185614 16:0.31286031 17:0.083407822 18:0.087919564 19:0 20:0.16163815 21:0.083407822 22:0.23144434 23:0.039318824 24:0.17207182 25:0.081003008 26:0.35908107 27:0 28:0.10867694 29:0.020250752 30:0.20163696 31:0.057277776 32:0.097855481 33:0.061801219 34:0.49968416 35:0.11811858 36:0.15286151 37:0.040363173 38:0.029314892 39:1.5956058e-16 40:0.090677686 41:0.13117672 42:0.33653117 43:0.11035639 44:0.28842487 45:0.012545352 46:0.012545352 47:0.017741808 48:0.62700251 49:0.073399941 50:0.05748015 51:0.0080330952 52:0.0050805755 53:0.0056802561 54:0.036977434 55:0.18634591 56:0.47577847 57:0.031757403 58:0.08034058 59:0 60:0.071885906 61:3.1535535e-18 62:0.17981923 63:0.16041738 64:0.10567538 65:0.14474963 66:0.23303655 67:0.21445824 68:0.18158172 69:0.028949926 70:0.091547703 71:-4.024674e-17 72:0.047151757 73:0.056785385 74:0.083787629 75:0.47079741 76:0.29545566 77:0.025702436 78:0.02031956 79:-2.0418296e-17 80:0.0070528435 81:0.0031541275 82:0.17825627 83:0.45580615 84:0.28592727 85:0.047507365 86:0.01648001 87:0.0058159237 88:0.059102566 89:0.053583257 90:0.073909383 91:0.041134713 92:0.34593557 93:0.38189767 94:0.024033364 95:0.020403421 96:0.20159424 97:0.050839605 98:0.12646908 99:0.056054221 100:0.14984009 101:0.087716093 102:0.13588043 103:0.1916062 104:0.014244403 105:0.03381336 106:0.14452045 107:0.45492051 108:0.30693122 109:0.034714029 110:0.0031851453 111:0.0076708456 112:0.0098966312 113:0.010496963 114:0.11275276 115:0.58017449 116:0.2866791 117:-3.3355607e-17 118:-4.6906322e-17 119:-4.4474143e-17 120:-1.8004954e-17 121:0.02822205 122:0.37984691 123:0.45583776 124:0.086182993 125:-3.6009909e-17 126:0.037611837 127:0.012298397 128:0.10598524 129:0.093200107 130:0.39110206 131:0.11938428 132:0.11367571 133:0.076905722 134:0.055908409 135:0.043838409 136:0.050171097 137:0.052336185 138:0.090011739 139:0.12053031 140:0.22431369 141:0.083872598 142:0.25031089 143:0.12845347 144:0.69219884 145:0.003615374 146:0.0010225822 147:0 148:1.2844389e-18 149:0 150:0.0098892206 151:0.29327397 152:0.095554275 153:0.025679118 154:0.039489991 155:0.068184063 156:0.27354868 157:0.15428258 158:0.12139753 159:0.22186361 160:0.12326033 161:0.074223622 162:0.10527275 163:0.070467659 164:0.27791954 165:0.21372198 166:0.11519333 167:0.01994031 168:0.21717785 169:0.20483404 170:0.15394587 171:0.063392265 172:0.17153387 173:0.02237463 174:0.12048692 175:0.04625404 176:0.18644469 177:0.057959985 178:0.2318778 179:0.058091359 180:0.1141019 181:0.053784752 182:0.16885717 183:0.12888184 184:0.60657356 185:0.13185764 186:0.063940683 187:0.027635959 188:0.064779495 189:0.014643883 190:0.017725548 191:0.072843207 192:0.085752032 193:0.031527708 194:0.01916275 195:0 196:0.0044932619 197:0.021769323 198:0.22511871 199:0.6121762 200:0.023650137 201:0.0097762828 202:0.026159332 203:-1.7102171e-17 204:0.086473734 205:0.30204714 206:0.49039889 207:0.061494447 208:0.073633149 209:0.011625865 210:0.17365562 211:0.085826578 212:0.20469072 213:0.018746144 214:0.31162414 215:0.12019723 216:0.13691843 217:0.15738297 218:0.15225687 219:-1.292085e-16 220:0.094131424 221:0.1148096 222:0.31743833 223:0.027060882 224:0.25862418 225:0.42199861 226:0.17928305 227:0.11058119 228:0.014446297 229:0.0046147002 230:0.010451886 231:-1.2280994e-16 232:0.27167996 233:0.54772925 234:0.076100549 235:0.015177734 236:0.045978361 237:0.0029762171 238:0.0077610247 239:0.032596873 240:0.49009812 241:0.200508 242:0.017794684 243:0.017995459 244:0.0088229997 245:0.0063623555 246:0.132466 247:0.12595232 248:0.16195981 249:0.20483441 250:0.013077128 251:0.10978697 252:0.068614314 253:0.11569 254:0.18739937 255:0.13863798 256:0.020527421 257:0.010688285 258:0.094640773 259:0.28195915 260:0.54479389 261:0.015300236 262:0.022413485 263:0.0096767189 264:0.0070769076 265:9.1468284e-18 266:0.1066686 267:0.65949828 268:0.19107928 269:0.016257995 270:0.019418874 271:1.5244714e-17 272:0.03663926 273:0.096762405 274:0.76513043 275:0.092795021 276:0.0044640723 277:2.1146094e-17 278:0.0042087677 279:1.5859571e-17 280:0.13229137 281:0.16394357 282:0.31951758 283:0.047114703 284:0.24432317 285:0.012325521 286:0.080483458 287:4.8957642e-18 288:0.53664053 289:0.0065862734 290:0.008899064 291:0 292:0.0033824218 293:5.0069901e-19 294:0.012913797 295:0.43157789 296:0.26956985 297:0.068277453 298:0.012231576 299:0.016447464 300:0.084681471 301:0.12005215 302:0.19739296 303:0.23134701 304:0.1247628 305:0.053558147 306:0.072495938 307:0.085723916 308:0.28367825 309:0.15346103 310:0.093252714 311:0.13306693 312:0.13718277 313:0.030185162 314:0.23773447 315:0.042688265 316:0.1641812 317:0.12430352 318:0.17186195 319:0.091861741 320:0.06586473 321:0.050982017 322:0.33142752 323:0.23337571 324:0.14896526 325:0.044212512 326:0.12517176 327:3.3805794e-16 328:0.14522487 329:0.19155417 330:0.32442481 331:0.17098523 332:0.14869326 333:-2.1910974e-16 334:0.019116729 335:3.9619843e-16 336:0.20767733 337:0.054176295 338:0.054129244 339:0.12897304 340:0.096933031 341:0.046246604 342:0.066428606 343:0.34543578 344:0.032975606 345:0.015264111 346:0.014227817 347:0.18944649 348:0.20804124 349:0.1051611 350:0.22304539 351:0.21183822 352:0.035829298 353:0.0060233052 354:0.043058386 355:0.60971819 356:0.21449231 357:0.021847117 358:0.044590633 359:0.024440698 360:0.08308053 361:0.03540675 362:0.15256092 363:0.50997161 364:0.20070168 365:0.0063086068 366:0.01196974 367:1.2779647e-16 368:0.16977 369:0.087618799 370:0.2730825 371:0.31430043 372:0.077997528 373:8.6842827e-17 374:0.039751731 375:0.037478292 376:0.18125592 377:0.031176966 378:0.22009829 379:0.10157837 380:0.44616842 381:-1.4860394e-16 382:0.019718045 383:5.2011378e-16 
0.006516140112475274 0:0.093665628 1:0.021107264 2:0.042738239 3:0.018512295 4:0.38918756 5:0.15282392 6:0.2449398 7:0.03702459 8:0.0571865 9:0 10:0.14734997 11:0.065883549 12:0.59296522 13:0.078017113 14:0.05859731 15:0 16:0.07737973 17:0.0056872454 18:0.090843024 19:0.27469124 20:0.46731615 21:0.035466049 22:0.010790789 23:0.037825639 24:0.02824502 25:0.076001263 26:0.32333829 27:0.24464909 28:0.21734584 29:0.0738268 30:0.017183713 31:0.019409533 32:0.045786864 33:0.092517179 34:0.34742078 35:0.15379494 36:0.22046673 37:0.057178761 38:0.082833916 39:-1.1355858e-17 40:0.14068082 41:0.31591131 42:0.3725358 43:0.04389676 44:0.12697502 45:-2.0504813e-17 46:1.2815508e-17 47:-6.8349376e-18 48:0.014475831 49:0 50:0.010789648 51:0.074944248 52:0.57217479 53:0.17748761 54:0.15012739 55:0 56:0.018966979 57:0 58:0.090134722 59:0.069090856 60:0.46814007 61:0.2389291 62:0.099743097 63:0.014994714 64:0.046747598 65:0.089628101 66:0.29437643 67:0.084848524 68:0.21285754 69:0.089713624 70:0.18182795 71:0 72:0 73:-1.9962043e-18 74:0.28948848 75:0.22508246 76:0.31884236 77:0.11125371 78:0.055332569 79:0 80:0 81:0.10660129 82:0.42379377 83:0.20777324 84:0.22722095 85:0.028584289 86:0.0060260971 87:0 88:0.050980801 89:0.428419 90:0.30389175 91:0.078794588 92:0.13791378 93:-2.8403951e-17 94:1.7752469e-18 95:0 96:0 97:0 98:0 99:0.062528748 100:0.52147982 101:0.34840402 102:0.052885499 103:0.014701763 104:0 105:0 106:0.049995731 107:0.12831576 108:0.60580517 109:0.12531396 110:0.090569124 111:0 112:0.0040396354 113:0 114:0.12341882 115:0.21890838 116:0.488595 117:0.089096582 118:0.075941253 119:0 120:0 121:0.040434873 122:0.26478597 123:0.12061635 124:0.46380774 125:0.05371455 126:0.033591079 127:0.023049066 128:0.087065705 129:0.10269302 130:0.31551626 131:0.24670061 132:0.22880662 133:0.019217411 134:-2.4808097e-17 135:0 136:0.095917493 137:0.073871723 138:0.18653563 139:0.054321639 140:0.17275089 141:0.088633956 142:0.17005662 143:0.15791195 144:0.25493342 145:0.11677416 146:0.0027333575 147:0.03310482 148:0.28251013 149:0.22241426 150:0.044073281 151:0.043456493 152:0.10811188 153:0.17691177 154:0.11993247 155:0.13373566 156:0.22257294 157:0.075607192 158:0.13086372 159:0.032264187 160:0.093587486 161:0.018069724 162:0.35292938 163:0.23450282 164:0.17554988 165:0.068777449 166:0.043805704 167:0.012777224 168:0.19731384 169:0.041018977 170:0.30631071 171:0.1875779 172:0.17835722 173:0.011354886 174:0.029891234 175:0.048174703 176:0.076449695 177:0.68976756 178:0.13227381 179:0.051423077 180:0.025425856 181:-4.3428262e-18 182:0.016595811 183:0.0080641145 184:0.22979043 185:0.06779529 186:0.063576325 187:0.1246506 188:0.14625743 189:0.12866849 190:0.10298171 191:0.1362797 192:0.55482032 193:0.063017934 194:0.098062703 195:0.025564751 196:0.021054281 197:-1.7920793e-17 198:-3.1166596e-18 199:0.23747995 200:0.11276761 201:0.051759268 202:0.15339347 203:-6.1677192e-17 204:0.13452262 205:0.038819451 206:0.10878743 207:0.39994946 208:0.34810018 209:0.18060612 210:0.11917265 211:-2.5293847e-16 212:0.12766152 213:0.021958449 214:0.20249911 215:-1.6571831e-16 216:0.18434283 217:0.5464623 218:0.21094747 219:-6.6925678e-17 220:0.028511422 221:-1.8088021e-18 222:0.029735633 223:-6.873448e-17 224:0.2027108 225:0.54144254 226:0.096411715 227:0.044994162 228:0.038169437 229:0.010089648 230:0.028858418 231:0.03732322 232:0.58215443 233:0.15833521 234:0.10605304 235:0.023330666 236:0.04470003 237:0.005314777 238:0.057161382 239:0.022950423 240:0.52964772 241:0.086939654 242:0.21413451 243:0.013935242 244:0.070943718 245:0.01588862 246:0.032171468 247:0.036338665 248:0.10392456 249:0.036107633 250:0.032800865 251:0.026642394 252:0.078874993 253:0.20437669 254:0.38140863 255:0.13586417 256:0.046487052 257:0.1256306 258:0.30640589 259:0.10601752 260:0.11732072 261:0.045380946 262:0.20462299 263:0.048133762 264:0.24283063 265:0.31638313 266:0.31504521 267:0.011095567 268:0.035087264 269:-3.7396501e-17 270:0.028304966 271:0.051252984 272:0.056213526 273:0.10296751 274:0.28468044 275:0.23469664 276:0.17125405 277:0.067990055 278:0.063347281 279:0.018850214 280:0.13377195 281:0.30902652 282:0.2237768 283:0.13778683 284:0.1217876 285:0.018155023 286:0.026119292 287:0.029575644 288:0.0087091844 289:0 290:0.44055135 291:0.47489917 292:0.071945277 293:-2.8130376e-17 294:0.0038948657 295:2.4461197e-17 296:0.018210015 297:0.046787608 298:0.37981479 299:0.39998107 300:0.10574868 301:0.011797969 302:0.025352315 303:0.012307466 304:0.045039208 305:0.08477204 306:0.33717775 307:0.17857996 308:0.11132367 309:0.057549333 310:0.086036133 311:0.099521794 312:0.17140926 313:0.24691835 314:0.4657042 315:0.03645398 316:0.025018574 317:-8.8883831e-18 318:0.01804115 319:0.03645398 320:0.05466471 321:0.15600767 322:0.33627455 323:0.26114011 324:0.18572143 325:-7.776514e-18 326:0.0061911275 327:-1.36089e-17 328:0.45656863 329:0.2393199 330:0.14465703 331:0.0262904 332:0.08282157 333:5.1823927e-17 334:0.036674363 335:0.013667728 336:0.16620333 337:0.21262712 338:0.44017881 339:0.11359571 340:0.067394772 341:-3.5923375e-17 342:-6.2475435e-18 343:3.1237718e-17 344:0.22421214 345:0.16116414 346:0.33977595 347:0.14467386 348:0.087993509 349:0.011464648 350:0.01450176 351:0.01621346 352:0.32514531 353:0.10843473 354:0.23420799 355:0.043814247 356:0.10391461 357:0 358:0.12043581 359:0.064046317 360:0.47478362 361:0.057675168 362:0.048635972 363:0.027188335 364:0.078774573 365:0.057675168 366:0.19262807 367:0.062637586 368:0.15305956 369:0.34973081 370:0.23691351 371:0.11652893 372:0.071659647 373:0.0083620457 374:0.040093778 375:0.023651437 376:0.21180365 377:0.31212574 378:0.28323332 379:0.089534203 380:0.10330268 381:6.1832338e-17 382:-4.9864789e-18 383:2.3935099e-17 
1.406685562908338 0:0.0059880908 1:0 2:0.026779556 3:0.10043355 4:0.62578698 5:0.16368874 6:0.077322342 7:0 8:0.0059496129 9:0.048059112 10:0.11667324 11:0.073682403 12:0.42589474 13:0.17093335 14:0.15880682 15:0 16:0.27352408 17:0.080549953 18:0.27529899 19:0.040593611 20:0.083439374 21:0.046283837 22:0.1332519 23:0.067057407 24:0.27695293 25:0.043895481 26:0.042393767 27:5.8118416e-18 28:0.10550238 29:0.10571353 30:0.33009776 31:0.095443283 32:0.13480119 33:0.060573634 34:0.21006153 35:9.2098085e-18 36:0.25014026 37:0.092746041 38:0.25167513 39:-1.8419617e-17 40:0.091814669 41:-5.096738e-18 42:0.016230694 43:3.3978253e-18 44:0.36672814 45:0.47880025 46:0.046425946 47:-6.7956507e-18 48:0 49:0 50:0 51:0.079379512 52:0.59421661 53:0.24165444 54:0.084748829 55:0 56:0.0048494504 57:2.1535886e-18 58:0.0068581586 59:0.039989593 60:0.61772396 61:0.20262403 62:0.06650913 63:0.061445195 64:-6.0464483e-18 65:0 66:0.12550785 67:0.043055648 68:0.74756251 69:0.054990436 70:0.028882606 71:9.0696725e-18 72:0.12157552 73:0.068557033 74:0.33576032 75:0.053677833 76:0.33948843 77:0.03795596 78:0.042983437 79:7.5381574e-18 80:0.25819009 81:0.1049692 82:0.28753716 83:0.037112216 84:0.14083096 85:6.2541509e-17 86:0.17135755 87:1.0423585e-17 88:0.18188524 89:0.35625818 90:0.27009835 91:-4.2700099e-18 92:0.16345853 93:3.6295084e-17 94:0.028299236 95:4.2700099e-18 96:0.027497086 97:0 98:0.11694291 99:0.3437389 100:0.479449 101:0.024594142 102:0.0077773505 103:0 104:0.01692568 105:2.505504e-18 106:0.031915369 107:0.13846391 108:0.71924789 109:0.012615657 110:0.080830847 111:-2.505504e-18 112:0.005099296 113:0.011402373 114:0.18753283 115:0.31733467 116:0.42697958 117:0.022804745 118:0.028845974 119:2.2645424e-18 120:5.1026991e-18 121:0 122:0.33817362 123:0.3043249 124:0.32840463 125:0.012846498 126:0.016249677 127:0 128:0.0036321289 129:0.074881779 130:0.38201346 131:0.42687637 132:0.112596 133:-1.6129893e-18 134:3.2259785e-18 135:0 136:0.012486613 137:0.057046298 138:0.56341154 139:0.18911294 140:0.15794456 141:7.0141473e-18 142:0.019997736 143:0 144:0.074623492 145:0.073768371 146:0.31187582 147:0.15756958 148:0.34655564 149:0 150:0.0208579 151:0.014748763 152:0.010538399 153:-2.3399946e-18 154:0.057702185 155:0.18721353 156:0.70295594 157:0.011782288 158:0.029807093 159:-2.3399946e-18 160:-4.3713412e-18 161:-4.3713412e-18 162:0.20031646 163:0.24648876 164:0.53927363 165:2.1856706e-18 166:0.013920649 167:2.1856706e-18 168:0.013230963 169:-3.7161366e-18 170:0.30989389 171:0.27887992 172:0.39799487 173:1.8580683e-18 174:1.3006478e-17 175:0 176:0.044720997 177:0.10679936 178:0.21745426 179:0.17413334 180:0.33532336 181:0.065891631 182:0.055676214 183:0 184:0.25239145 185:1.1867751e-16 186:0.096186509 187:-9.8897928e-17 188:0.23754489 189:2.6372781e-17 190:0.41387264 191:0 192:0.28094124 193:0.12496478 194:0.27710005 195:-4.136391e-18 196:0.19560081 197:0 198:0.062482388 199:0.05890896 200:0.017216618 201:0.098161618 202:0.31953456 203:0.27240318 204:0.29268251 205:1.1468572e-17 206:1.5291429e-17 207:-1.1468572e-17 208:0.044490931 209:0.049304657 210:0.55856314 211:0.26120926 212:0.086431693 213:1.7446992e-18 214:-1.7446992e-18 215:-1.7446992e-18 216:0.0077222621 217:0.017267503 218:0.33944416 219:0.34690976 220:0.28319555 221:1.7146866e-18 222:0.0054604639 223:-3.4293733e-18 224:0.046587431 225:0.0086299459 226:0.032748342 227:0.063938957 228:0.42135751 229:0.081647669 230:0.30476783 231:0.040322007 232:0.34416531 233:0.028484038 234:0.018014888 235:-6.505559e-17 236:0.08279992 237:-2.8285039e-18 238:0.14298475 239:0.38355026 240:0.10306754 241:0.029798616 242:0.038741567 243:0.077834578 244:0.26241412 245:0.19671507 246:0.1492266 247:0.14220181 248:0.10970088 249:0.17799285 250:0.14485395 251:0.065191149 252:0.1504159 253:0.24251585 254:0.10932888 255:1.8310021e-17 256:0.35687159 257:0.16125282 258:0.036522329 259:-5.7645451e-17 260:0.23310676 261:0.14512754 262:0.0671179 263:3.202525e-17 264:0.036069244 265:0 266:0.25201326 267:0.13485477 268:0.47798276 269:0.058271214 270:0.040807691 271:2.8832332e-17 272:0.03180932 273:0.25462199 274:0.49906469 275:0.18394032 276:0.030563284 277:-6.5925149e-17 278:-3.3932062e-17 279:1.7450775e-17 280:0.48992513 281:0.035143066 282:0.026904281 283:-1.0152201e-16 284:0.21755155 285:0.088951629 286:0.10347521 287:0.0380484 288:0.073153097 289:0.057743007 290:0.27084311 291:0.15747317 292:0.34703963 293:0.062873595 294:0.030873625 295:-3.2486501e-17 296:0.064697958 297:0.068863354 298:0.16879422 299:0.048501185 300:0.28197901 301:0.1323361 302:0.17890331 303:0.055924153 304:0.013445099 305:0.015032078 306:0.064110474 307:0.08981539 308:0.5320369 309:0.084366807 310:0.20119233 311:8.9562351e-18 312:0.032085506 313:0.014349075 314:0.37135691 315:0.12203107 316:0.43295114 317:-2.2798123e-17 318:0.027225455 319:5.6995308e-18 320:0.18013956 321:0.021200226 322:0.26024779 323:0.029981647 324:0.16234467 325:0.10600113 326:0.24008313 327:8.4208457e-18 328:0.22419635 329:0.11140406 330:0.063080072 331:0 332:0.28647311 333:0.10061044 334:0.21423279 335:7.7438028e-17 336:0.84876241 337:1.0470173e-17 338:0.033342536 339:8.3761384e-17 340:0.11788367 341:-3.1410519e-17 342:5.7585952e-17 343:-1.2564208e-16 344:0.46028508 345:-4.7170994e-17 346:0.15021725 347:-3.1447329e-17 348:0.38947199 349:-3.1447329e-17 350:1.8082214e-16 351:-3.1447329e-17 352:0.38104007 353:0.0501195 354:0.30370634 355:-2.9861609e-17 356:0.20172709 357:9.9538696e-18 358:0.06339671 359:9.9538696e-18 360:0.15382534 361:0 362:0.20925826 363:1.2420395e-16 364:0.30765068 365:0.21888613 366:0.11037559 367:0 368:0.39060572 369:0.03639254 370:0.092066652 371:-2.6019568e-16 372:0.26040382 373:0.03639254 374:0.1841333 375:0 376:0.21929134 377:1.7853901e-16 378:0.051687464 379:-4.8692459e-17 380:0.5847769 381:0.040862528 382:0.10337493 383:9.7384917e-17 
0.6526681324328113 0:0.074860175 1:0 2:0.52072474 3:0.19854781 4:0.20586548 5:0 6:0 7:0 8:0.018943206 9:0.040444533 10:0.35329349 11:0.31335542 12:0.22800568 13:0.021179148 14:0.024778319 15:0 16:0.078500323 17:0.019122693 18:0.11609054 19:0.32539585 20:0.35396191 21:0.03076979 22:0.063845212 23:0.012313502 24:0.39955195 25:0.12395361 26:0.19252823 27:-1.6014384e-16 28:0.20999363 29:0.01715644 30:0.032552056 31:0.02426287 32:0.22988335 33:0.025494878 34:0.13110164 35:-2.3797756e-16 36:0.25268666 37:0.17460217 38:0.18622864 39:-5.0633523e-18 40:0.32407002 41:0.045290163 42:0.21715425 43:-4.2275325e-16 44:0.38483315 45:0 46:0.028644014 47:-8.99475e-18 48:0.1226405 49:0.13518459 50:0.43538714 51:0.1231222 52:0.042111064 53:0.02824896 54:0.082625659 55:0.030679524 56:0.027263923 57:0.059052107 58:0.29816008 59:0.38417398 60:0.1959574 61:0.024469938 62:0.010922386 63:-1.3452904e-18 64:0.035545057 65:0.0077066208 66:0.13065709 67:0.51670747 68:0.28979737 69:0.014712269 70:0.0048740949 71:-5.1018531e-19 72:0.037011013 73:0.02762877 74:0.034223159 75:0.11642955 76:0.69273305 77:0.084183951 78:0.0016915414 79:0.0060989393 80:0.083904905 81:0.018851558 82:0.037251208 83:0.10747164 84:0.2470044 85:0.20541209 86:0.1979884 87:0.10211558 88:0.46854481 89:0.069100344 90:0.12682253 91:-4.6227441e-16 92:0.18926353 93:-2.1012473e-17 94:0.14626591 95:-1.5759355e-17 96:0.11671576 97:0.45954275 98:0.18131246 99:0.13685636 100:0.086369761 101:0.0079540788 102:3.9492544e-19 103:0.011248766 104:0.0073121158 105:0.29115963 106:0.45558116 107:0.24490249 108:0.001044588 109:4.6389024e-19 110:4.6389024e-19 111:0 112:3.0597782e-18 113:2.3254314e-16 114:0.21615015 115:0.64243639 116:0.14141321 117:0 118:0 119:0 120:0.048457167 121:1.1989327e-16 122:6.1099455e-17 123:9.2225593e-18 124:0.43283014 125:0.40134944 126:0.090854899 127:0.026508284 128:0.090809825 129:0.035702798 130:0.026827705 131:0.049143778 132:0.098066185 133:0.30939933 134:0.25396116 135:0.13608921 136:0.23227454 137:1.269546e-15 138:0.16549392 139:0.056501275 140:0.33947817 141:-2.0312737e-15 142:0.20624556 143:-2.3803988e-16 144:0.51174355 145:0.17955356 146:0.024828632 147:0.01293628 148:0.036319003 149:0.018292997 150:0.012196009 151:0.20412996 152:4.0511447e-15 153:0.89910711 154:0.10078887 155:-3.1649568e-16 156:1.5824784e-16 157:4.1144438e-16 158:1.1077349e-16 159:-1.0127862e-15 160:2.8525522e-13 161:7.6799482e-14 162:-2.7428386e-14 163:1.9748438e-14 164:-1.7554167e-14 165:2.6331251e-14 166:5.4856773e-15 167:-7.0216669e-14 168:2.9183803e-13 169:8.5576566e-14 170:-9.8742191e-15 171:-6.5828128e-15 172:-1.7554167e-14 173:6.1439586e-14 174:5.4856773e-15 175:-7.0216669e-14 176:0.70494719 177:0.017006521 178:0.0067185311 179:-3.6920502e-18 180:0 181:2.109743e-18 182:0.014360037 183:0.2569677 184:0.24087551 185:0.063366354 186:0.28315277 187:0.044806779 188:0.18419892 189:0.063366354 190:0.1202292 191:1.2584731e-16 192:0.037974092 193:0.0014683114 194:-6.1238238e-18 195:-1.1664426e-18 196:0.025276275 197:0.16701063 198:0.3447649 199:0.42350578 200:-3.9793245e-17 201:1.0114117e-16 202:-1.0611532e-16 203:-4.9741557e-18 204:0.63523262 205:0.35948698 206:0.0052801091 207:1.1672685e-15 208:-1.1359418e-16 209:0 210:0.44847256 211:0.47013652 212:0.081388154 213:-3.3561915e-16 214:3.7434444e-16 215:3.6350136e-15 216:0.0094660101 217:0.028614812 218:0.57007576 219:0.34614071 220:0.045702643 221:-3.8250249e-17 222:5.6594756e-17 223:5.495546e-16 224:0.1877444 225:0.26624005 226:0.30953801 227:0.081318584 228:0.070940969 229:0.025795569 230:0.037309032 231:0.021113342 232:0.019480337 233:0.044087792 234:0.45733246 235:0.15075454 236:0.19490274 237:0.038919919 238:0.094521911 239:1.1797717e-15 240:0.13429583 241:0.068390974 242:0.038551272 243:0.0083493441 244:0.040254487 245:0.011807756 246:0.57196329 247:0.12638691 248:0.042628217 249:0.063896402 250:0.087112196 251:0.0025426998 252:0.22194195 253:0.43925403 254:0.094918278 255:0.047706212 256:0.029461695 257:0.0031130086 258:0.42910734 259:0.31186678 260:0.2018473 261:-2.0773268e-16 262:0.0090195271 263:0.015584302 264:0.048198282 265:0.13032102 266:0.52424806 267:0.085677247 268:0.11762905 269:0.037020018 270:0.014520446 271:0.042385642 272:0.017908662 273:0.26246731 274:0.60789473 275:0.11172907 276:1.713138e-16 277:-5.0803403e-16 278:-1.6983696e-16 279:-4.282845e-17 280:-5.8732156e-18 281:0.22559062 282:0.44681665 283:0.21187108 284:0.11572143 285:-4.918818e-16 286:-1.3655226e-16 287:-3.0834382e-17 288:0.073585105 289:0.63682455 290:0.18271919 291:0.010818202 292:0.046807816 293:0.0094881911 294:0.022651772 295:0.01710508 296:0.099259987 297:0.55834575 298:0.27670228 299:0.0043210626 300:0.011153262 301:0.0091663579 302:0.02148228 303:0.019568984 304:0.05908898 305:0.3792055 306:0.34192474 307:0.031400048 308:0.073270107 309:0.057824802 310:0.043656011 311:0.013629437 312:0.0046750807 313:0.13508337 314:0.63890305 315:0.14080149 316:0.056859629 317:0.010453798 318:0.013223125 319:-4.1523057e-18 320:0.17984439 321:0.31051748 322:0.49125681 323:0.018381088 324:6.0632073e-18 325:-1.2126415e-17 326:-2.7284433e-17 327:-1.5158018e-17 328:0.10603723 329:0.16954786 330:0.5434218 331:0.063760263 332:0.08215385 333:0.01545797 334:0.0060631147 335:0.013557537 336:0.031798617 337:0.36646074 338:0.53255773 339:0.061697463 340:0.0055301943 341:9.8235985e-18 342:0.0019552189 343:3.5610544e-17 344:0.20108491 345:0.09420818 346:0.38948949 347:0.23482745 348:0.067762513 349:0.012626799 350:4.1377326e-17 351:1.50463e-17 352:0.081364644 353:0.076653377 354:0.56711671 355:0.15476278 356:0.12010212 357:0 358:9.4282009e-19 359:-1.8856402e-18 360:0.35802268 361:0.052177845 362:0.12836864 363:4.4426401e-16 364:0.33941926 365:0.039945502 366:0.045236505 367:0.036827933 368:0.57898783 369:0.38001924 370:0.040992722 371:4.2908242e-17 372:-2.2884396e-17 373:-1.2872473e-17 374:-2.717522e-17 375:-1.1442198e-17 376:0.19900463 377:0.15501768 378:0.3738847 379:0.082137046 380:0.098050437 381:0.03841256 382:0.024294236 383:0.029198038 
1.231191987681942 0:0.31771177 1:0.087216783 2:0.11959093 3:0 4:0.11976126 5:0.075635945 6:0.19985782 7:0.080224034 8:0.24068577 9:0.10251233 10:0.32680276 11:0 12:0.1260735 13:0.025628084 14:0.17829486 15:0 16:0.23261036 17:0.062171462 18:0.13238353 19:0 20:0.07696691 21:0.079381787 22:0.37503679 23:0.041447949 24:0.036560939 25:8.9395827e-19 26:0.0056936664 27:0 28:0.037245941 29:0.23994529 30:0.46963147 31:0.21092262 32:0.014059058 33:0.0087869113 34:3.121738e-18 35:0.0094637931 36:0.049699379 37:0.31870799 38:0.51688428 39:0.082398528 40:0.3849368 41:0.15049889 42:0.033394583 43:0.049100253 44:0.077599667 45:0.051977338 46:0.16838308 47:0.084109246 48:0.062908319 49:0.032906513 50:0.20486793 51:0 52:0.24500931 53:0.17224012 54:0.22389647 55:0.058171047 56:0.029829966 57:0.0081719631 58:0.13908805 59:0.21515676 60:0.4998674 61:0.037692784 62:0.070192803 63:0 64:0.11464699 65:0.067925576 66:0.08473277 67:0.20391773 68:0.24368377 69:0.12686516 70:0.12849169 71:0.029735862 72:0.045059353 73:0.033195081 74:0.079400878 75:0.10398845 76:0.43336679 77:0.13297694 78:0.15874198 79:0.01327032 80:0.020925339 81:0.078767872 82:0.47373993 83:0.042719002 84:0.051438676 85:0.26891521 86:0.047097796 87:0.016396158 88:0.26779702 89:0.17737828 90:0.1355912 91:0.017167529 92:0.040417236 93:0.0044911401 94:0.18892051 95:0.168237 96:0.082921165 97:0.046114723 98:0.01911374 99:0.035092483 100:0.20190249 101:0.080542469 102:0.23238765 103:0.30192523 104:0.05370097 105:0.064678055 106:0.33965442 107:0.14362836 108:0.28626927 109:0.090089102 110:0.016102583 111:0.0058772373 112:0.024507417 113:0.0068078992 114:0.10806065 115:0.57302165 116:0.24936149 117:0.021987909 118:0.016252938 119:4.0562022e-17 120:0.054365932 121:0.010128687 122:0.0437988 123:0.19460822 124:0.36623591 125:0.25512637 126:0.014947203 127:0.060788829 128:0.067077015 129:0.019587296 130:0.043233407 131:0.01026322 132:0.053812604 133:0.26929761 134:0.3821958 135:0.15453304 136:0.1139737 137:0.036830071 138:0.090139961 139:0.05609744 140:0.34317114 141:0.038868446 142:0.24389563 143:0.077023508 144:0.020516202 145:0.017073064 146:0.055526134 147:0.41374342 148:0.34918836 149:0.09569863 150:0.040955336 151:0.0072988367 152:0.23941643 153:0.10879996 154:0.015769263 155:0.14626609 156:0.24971533 157:0.12172514 158:0.014006033 159:0.10430172 160:0.29631046 161:0.079508438 162:0.34444781 163:-3.737107e-16 164:0.10667176 165:-4.6845426e-16 166:0.17305865 167:2.1054124e-17 168:0.22651861 169:0.072176193 170:0.21925621 171:0.07981992 172:0.19863948 173:0.044629854 174:0.079138621 175:0.07981992 176:0.50088006 177:0.01299528 178:0.008311083 179:0.0095848123 180:0.010215584 181:0.0041831847 182:0.11713117 183:0.33669882 184:0.41836751 185:0.016423843 186:0.011414679 187:0.022700818 188:0.07120453 189:0.017149431 190:0.040985828 191:0.40175335 192:0.051792309 193:0.0082826926 194:0.10028669 195:0.28782313 196:0.46302602 197:0.061084767 198:0.011306759 199:0.016397614 200:0.057525394 201:0.028679512 202:0.014795455 203:0.082547925 204:0.13462448 205:0.23631858 206:0.27672138 207:0.16878727 208:0.002220468 209:0.0016550391 210:0.01225918 211:0.12947357 212:0.70247982 213:0.13725757 214:0.014654341 215:5.2591246e-17 216:0.038282123 217:0.02961656 218:0.078231961 219:0.28820858 220:0.51188621 221:0.018343163 222:0.035431246 223:1.7972145e-16 224:0.29889861 225:0.023691851 226:0.1707127 227:0.1852392 228:0.018458102 229:0.017688673 230:0.088064814 231:0.19724604 232:0.14478465 233:0.035575516 234:0.06812053 235:0.0562012 236:0.49941697 237:0.097789228 238:0.024037342 239:0.074074557 240:-4.4174692e-18 241:3.5339754e-18 242:0.028496854 243:0.31960538 244:0.62304866 245:0.018773463 246:0.010075566 247:5.300963e-18 248:8.3934689e-18 249:-2.0983672e-18 250:0.017609419 251:0.079907833 252:0.56530744 253:0.33717525 254:5.4907276e-17 255:-1.6786938e-17 256:0.0021124935 257:0.0041059493 258:0.039823152 259:0.070121601 260:0.49265899 261:0.31374884 262:0.033020184 263:0.044408782 264:0.01404927 265:0.020228037 266:0.045612121 267:0.39802582 268:0.47013123 269:0.039460254 270:0.0043099953 271:0.0081832693 272:0.11258606 273:0.039297223 274:0.0087372578 275:0.017289009 276:0.17476877 277:0.19518896 278:0.12405343 279:0.32807928 280:0.5067942 281:0.024854552 282:0.002370671 283:-8.7843276e-17 284:0.053642162 285:0.009792409 286:0.073787474 287:0.32875848 288:-2.4908509e-18 289:1.9926807e-18 290:0.028354246 291:0.13660052 292:0.80792527 293:0.027119938 294:-1.2454255e-18 295:2.9890211e-18 296:0.020570974 297:0.0083736185 298:0.0081236032 299:0.1156232 300:0.71738213 301:0.094095696 302:0.028097295 303:0.0077334398 304:-2.7459312e-18 305:0 306:-1.3729656e-18 307:0.054303372 308:0.4817177 309:0.4497271 310:0.014251773 311:2.7459312e-18 312:0.010436183 313:1.5448655e-18 314:5.4070291e-18 315:-5.3297858e-17 316:0.284552 317:0.41276261 318:0.22935164 319:0.062897502 320:0.55065775 321:0.17816313 322:0.0064144987 323:0.012937229 324:0.019413303 325:0.023651918 326:0.02521684 327:0.18354532 328:0.36627433 329:0.10433888 330:0.034486708 331:-5.8052358e-17 332:0.073886511 333:0.010246216 334:0.065953138 335:0.34481406 336:0.023430733 337:0.017537574 338:0.13437576 339:0.46502577 340:0.14642348 341:0.046279567 342:0.13231118 343:0.034615926 344:0.067255589 345:0.052068813 346:0.12519291 347:0.15623308 348:0.39153893 349:0.13750735 350:0.070202926 351:-6.319862e-17 352:0.062910793 353:0.022397871 354:0.06558787 355:0.17707277 356:0.21711147 357:0.18440987 358:0.20946909 359:0.061040059 360:0.019832189 361:0.0271536 362:0.063350394 363:0.14330638 364:0.13980242 365:0.3216931 366:0.25787035 367:0.026991488 368:0.040117286 369:0.32008235 370:0.47951463 371:0.096757406 372:0.028440592 373:0.027673844 374:0.0074138549 375:5.1217926e-17 376:0.20552794 377:0.032855586 378:0.20742064 379:0.094333604 380:0.25539537 381:0.07341369 382:0.09007663 383:0.040975888 
0.07484756548708672 0:0.41451964 1:0.0074737456 2:0.0097614166 3:0.010333692 4:0.011951626 5:0.022103222 6:0.074773006 7:0.44908362 8:0.080809658 9:0.54310926 10:0.095152982 11:0.02934124 12:0.026933254 13:0.0092164016 14:0.036164009 15:0.17927315 16:0.2633709 17:0.55027198 18:0.10468656 19:0.020663998 20:0.016960807 21:0.0028349971 22:0.0044479094 23:0.03676284 24:0.077418805 25:-6.3472349e-17 26:0.12841379 27:0.018832289 28:0.14462657 29:0.12284286 30:0.37770519 31:0.13015977 32:0.043496975 33:-5.7949612e-17 34:0 35:-4.5876776e-17 36:0.027185609 37:0.080392692 38:0.39970661 39:0.44921751 40:0.13595639 41:-8.4431824e-17 42:0 43:-6.6841861e-17 44:0.16100737 45:0.18510491 46:0.4427771 47:0.075152938 48:0.061510164 49:0 50:0 51:0 52:0.01150736 53:0.18262972 54:0.32766136 55:0.41669135 56:0.023540423 57:0.80370506 58:0.067440311 59:0.0030610612 60:0.020293725 61:0.0099315952 62:0.023645828 63:0.048381988 64:0.12304059 65:0.18026442 66:0.27033946 67:0.07946244 68:0.17056269 69:0.044496505 70:0.057197487 71:0.074636083 72:0.19966151 73:-3.5298533e-16 74:0.064002236 75:2.5954804e-18 76:0.072030891 77:0.086416174 78:0.35191146 79:0.22597703 80:0.11095642 81:-3.3506694e-16 82:2.956473e-17 83:2.4637275e-18 84:0.011095642 85:0.037215916 86:0.41745535 87:0.42327604 88:0.30425721 89:0.088830668 90:0.019851416 91:2.4450628e-18 92:0.071575297 93:1.711544e-16 94:0.28890777 95:0.22657702 96:0.19254314 97:0.058430534 98:0.040259857 99:0.048183339 100:0.080314165 101:0.056790087 102:0.41565769 103:0.10782113 104:0.45458023 105:0.42169381 106:0.053579539 107:0.0052530406 108:0.023861918 109:0.0069108321 110:0.012082224 111:0.022038386 112:0.12669585 113:0.10222955 114:0.22486318 115:0.11621551 116:0.15902184 117:0.096237988 118:0.10914322 119:0.065591897 120:0.70545228 121:0.087752396 122:0.0092499147 123:2.033251e-17 124:4.6474308e-17 125:2.3237154e-17 126:0.060874973 127:0.13666956 128:0.66392271 129:0.079198369 130:6.5578875e-17 131:1.7655851e-17 132:4.0356231e-17 133:2.270038e-17 134:0.12569704 135:0.13118122 136:0.52960247 137:0.22011248 138:0.015396047 139:1.3274122e-17 140:0.042700952 141:1.7066729e-17 142:0.13930509 143:0.052882579 144:0.65169261 145:2.4882633e-18 146:0 147:0 148:0.0014007677 149:-8.7089217e-18 150:0.018793271 151:0.32811331 152:0.36302819 153:0.013421938 154:0.027521137 155:0 156:0.018277672 157:0 158:0.046990681 159:0.53076032 160:0.44738456 161:0.081465234 162:0.19175129 163:3.0899557e-18 164:0.10436942 165:3.0899557e-18 166:0.11555573 167:0.059472777 168:0.59513983 169:0.057744224 170:0.01583568 171:0 172:0.0055987584 173:-2.4863482e-18 174:0.15557852 175:0.17010235 176:0.54060984 177:0.336821 178:0.08317266 179:0.013132049 180:1.8441775e-18 181:0 182:1.6597597e-17 183:0.026264098 184:0.28831871 185:0.33009289 186:0.15296698 187:0.017449152 188:0.068044751 189:0 190:0.0091647438 191:0.13396256 192:0.60757703 193:0.037447045 194:0 195:0 196:0.0034129221 197:0.0076315258 198:0.030536283 199:0.31339513 200:0.053462132 201:3.1202443e-17 202:0.0047316659 203:0.015277929 204:0.015524664 205:0.13442362 206:0.46586651 207:0.31071347 208:0.16598201 209:0.095635671 210:0.10695807 211:0.051883252 212:0.14603721 213:0.13325219 214:0.28454717 215:0.015703922 216:0.12206131 217:0.10394384 218:0.24202744 219:0.4819547 220:-1.771618e-18 221:0.011652071 222:0.011741293 223:0.026619259 224:0.068756387 225:0.047331482 226:0.098417596 227:0.70045997 228:-1.2480398e-18 229:0.031698478 230:0.02838802 231:0.024948027 232:0.11268811 233:0.078191769 234:0.23991279 235:0.42709162 236:0.070587671 237:0.0084032941 238:0.017315976 239:0.04580871 240:0.67644132 241:0.020095917 242:0.0038532163 243:0.0071049798 244:0.0017232107 245:-1.071363e-17 246:0.037905455 247:0.25287584 248:0.068970753 249:0.036556883 250:0.0086360752 251:0.028005197 252:0.1215879 253:0.23589176 254:0.31933663 255:0.18101479 256:0.054672901 257:0.0851543 258:0.2880964 259:0.11746404 260:0.28094989 261:0.10246199 262:0.045750018 263:0.025450456 264:0.095676492 265:0.14206205 266:0.45491569 267:0.22081903 268:0.026833928 269:0.015485629 270:0.019993536 271:0.024213613 272:0.039786757 273:0.039644571 274:0.039362248 275:0.46289977 276:0.18990862 277:0.054332665 278:0.10820404 279:0.065861247 280:0.099935002 281:0.0081095777 282:0.041863892 283:0.15794692 284:0.52737941 285:0.11407913 286:0.028625367 287:0.022060436 288:0.49330997 289:3.1935144e-18 290:0.0076273719 291:0 292:0.0017977888 293:0.004019978 294:0.004019978 295:0.48922485 296:0.41633507 297:0.24043254 298:0.040271883 299:0.032103175 300:0.044476585 301:0.036689774 302:0.039692408 303:0.14999851 304:0.30287504 305:0.37653209 306:0.10630605 307:0.020976595 308:0.033398856 309:0.027202626 310:0.066526693 311:0.066181981 312:0.079597793 313:0.031499656 314:0.02396948 315:0.0096580398 316:0.059019904 317:0.082452608 318:0.19660035 319:0.51720198 320:0.48547823 321:0.021661605 322:0.13653763 323:0.038741503 324:0.0037081508 325:0.0082916773 326:0.12767506 327:0.17790585 328:0.30681874 329:0.016063786 330:0.16978558 331:0.08195794 332:0.20302756 333:0.096382717 334:0.10324498 335:0.022717624 336:0.22354619 337:0.036017398 338:0.10166652 339:0.2327775 340:0.15752656 341:0.015744079 342:0.021131525 343:0.21159018 344:0.5378211 345:0.056107133 346:0.082194927 347:0.0780833 348:0.045219386 349:0.0095003701 350:0.079071748 351:0.11200201 352:0.14448097 353:0.07267439 354:0.18578341 355:0.17338133 356:0.079038323 357:0.013971621 358:0.13781027 359:0.1928596 360:0.092121262 361:0.049371797 362:0.0037147183 363:8.6320278e-17 364:0.2752853 365:0.16889533 366:0.21245124 367:0.19816021 368:0.10886126 369:0.034801748 370:0.0019865453 371:2.6200102e-17 372:0.77870273 373:4.9904956e-18 374:0.026084628 375:0.049563049 376:0.043278294 377:0.047500202 378:0.054341632 379:0.30505458 380:0.53224772 381:0.013616891 382:0.0039606523 383:4.4330069e-17 
0.7948731163766559 0:0 1:0 2:0.19706394 3:0.25767009 4:0.33333724 5:0.099381962 6:0.11254565 7:0 8:0.0085171562 9:0 10:0.3851253 11:0.053867226 12:0.45417357 13:0.038089881 14:0.060225389 15:0 16:0.20405091 17:0.30904433 18:0.30665525 19:0.023201489 20:0.12591886 21:0 22:0.031128064 23:0 24:0.2702657 25:0.28923165 26:0.30098956 27:0.022724184 28:0.014372036 29:0.03213685 30:0.040650257 31:0.029628711 32:0.51458187 33:0.079549832 34:0.035857223 35:-2.2519662e-17 36:0.012677443 37:0.063387213 38:0.20767599 39:0.086269608 40:0.086651503 41:0.036344702 42:0.13271711 43:0.13205252 44:0.44400586 45:0.11316898 46:0.055058991 47:-1.4436314e-17 48:0 49:0 50:0.24456783 51:0.094422324 52:0.49751829 53:0.083458332 54:0.080032087 55:0 56:0.03626411 57:0.11419774 58:0.27329098 59:0.10137158 60:0.37669075 61:0.067574179 62:0.030609901 63:0 64:0.12544918 65:0.14816329 66:0.18163875 67:0.16294725 68:0.19852044 69:0.080315085 70:0.10296527 71:0 72:0.070201236 73:0.086976221 74:0.4525008 75:0.026667587 76:0.2951561 77:0.056570494 78:0.011926107 79:0 80:0.36360261 81:0.14663946 82:0.3201258 83:5.8245995e-17 84:0.056210709 85:0.020948494 86:0.062845483 87:0.029625645 88:0.16803159 89:0.15897632 90:0.37326453 91:0.052592059 92:0.1476157 93:0 94:0.083600825 95:0.015918462 96:0.0066687672 97:0.012985466 98:0.025659646 99:0.045552711 100:0.50170339 101:0.37080644 102:0.036623485 103:0 104:0.0031961817 105:4.2581694e-18 106:0.074378895 107:0.23762159 108:0.43584882 109:0.19681272 110:0.052141576 111:0 112:1.8062354e-17 113:2.7788237e-18 114:0.096924327 115:0.30385346 116:0.46223129 117:0.10240257 118:0.024694407 119:0.0098937465 120:0.012023906 121:0.0067215679 122:0.174637 123:0.59172705 124:0.20213701 125:3.2038122e-17 126:0.012753278 127:0 128:0.045762154 129:0.049000359 130:0.17927718 131:0.2597708 132:0.13600606 133:0.01033238 134:0.15255337 135:0.16729761 136:0.083522162 137:9.1673564e-18 138:0.13011101 139:0.026945343 140:0.025803814 141:0.082818566 142:0.41745792 143:0.23334106 144:0.073347648 145:0.012444317 146:0.0096227495 147:0.01562899 148:0.029317437 149:0.1729179 150:0.19647274 151:0.49024819 152:-1.1480004e-17 153:0.063934822 154:0.053420782 155:0 156:0.3228817 157:0.34636963 158:0.21339285 159:-1.1480004e-16 160:0.025713972 161:1.1419297e-17 162:0.14841081 163:0.081452529 164:0.41609231 165:0.17015661 166:0.13784424 167:0.02032868 168:0.14040249 169:0.031394951 170:0.20178127 171:0.13319749 172:0.35100622 173:0.062789901 174:0.079423641 175:-4.9880984e-16 176:0.59171053 177:0.13349748 178:0.072992723 179:3.4828417e-18 180:0.039213312 181:-1.3931367e-17 182:0.13024857 183:0.032336125 184:0.64250641 185:0.020965459 186:0.0076354502 187:0.0047675855 188:0.024366944 189:0.0033711921 190:0.021918521 191:0.27446839 192:0.19695778 193:0.033583552 194:0.038425922 195:0.0057029037 196:0.031927092 197:0.048032228 198:0.3008901 199:0.34448039 200:0.23792567 201:0.24121523 202:0.083764742 203:0.090302292 204:0.074184021 205:0.049936277 206:0.22267098 207:-1.5374018e-16 208:0.17676973 209:0.04419845 210:0.045991556 211:0.015626512 212:0.14136398 213:0.18970289 214:0.33471888 215:0.051627503 216:0.21377199 217:0.026318764 218:0.076255107 219:-1.5680935e-17 220:0.3550133 221:0.078956291 222:0.24968172 223:-2.9793777e-16 224:0.53420312 225:0.11501465 226:0.10511176 227:2.1004477e-17 228:0.067568397 229:2.4005117e-17 230:0.05333121 231:0.12476993 232:0.34951325 233:0.032516807 234:0.020820934 235:0.005081381 236:0.035872742 237:0.027318286 238:0.23668512 239:0.29219143 240:0.19289738 241:0.051363417 242:0.033416899 243:0.014474707 244:0.088090406 245:0.19400775 246:0.34442803 247:0.081320979 248:0.020394015 249:0.04416888 250:0.15086299 251:0.11429007 252:0.51210182 253:0.10482908 254:0.053352829 255:-7.0176482e-18 256:0.033310305 257:0.11917457 258:0.39171705 259:0.20729853 260:0.19986183 261:0.029793643 262:0.018843154 263:-1.1834198e-17 264:0.14907136 265:0.14000729 266:0.38916495 267:0.080554555 268:0.10911127 269:0.079787031 270:0.032198145 271:0.020104566 272:0.15989163 273:0.074485114 274:0.37107619 275:0.14761582 276:0.13406317 277:0.014897023 278:0.076902568 279:0.021067572 280:0.13838994 281:0.0034307475 282:0.0021697952 283:0.010848976 284:0.044494031 285:0.049303114 286:0.3735473 287:0.37781605 288:0.39516773 289:0.080329265 290:0.10160938 291:-4.7860834e-17 292:0.21554604 293:0.040164632 294:0.16717635 295:9.5721669e-17 296:0.31524038 297:0.037099944 298:0.21117658 299:1.47363e-17 300:0.28205719 301:-1.47363e-17 302:0.15442027 303:0 304:0.25428556 305:0.20676356 306:0.26153751 307:-1.7452118e-16 308:0.27740243 309:0 310:6.6728688e-17 311:0 312:0.29925267 313:0.055762443 314:0.16156424 315:-1.661186e-17 316:0.23690837 317:0.083643665 318:0.12343543 319:0.039430002 320:0.35525033 321:0.13524666 322:0.16970387 323:3.6811684e-17 324:0.21059426 325:0.02316917 326:0.07326735 327:0.032766155 328:0.35245322 329:0.010218728 330:0.045240237 331:0 332:0.24220756 333:0.010218728 334:0.045240237 335:0.29442086 336:0.64652058 337:0.041304685 338:0.13061688 339:-4.9219339e-17 340:0.12930412 341:3.6094182e-16 342:0.052246753 343:9.8438679e-17 344:0.4705806 345:0.15032146 346:0.16637537 347:1.4927126e-17 348:0.11764515 349:-1.4927126e-17 350:0.095071638 351:0 352:0.39903642 353:0.046961713 354:0.17820717 355:-1.5855432e-16 356:0.21001917 357:0.046961713 358:0.11880478 359:0 360:0.40062302 361:0.15445178 362:0.26533167 363:-1.8404727e-17 364:0.17958963 365:6.134909e-18 366:4.9079272e-17 367:0 368:0.45217611 369:0.16532567 370:0.18630207 371:4.6801837e-17 372:0.092214821 373:0 374:0.10397777 375:5.8502296e-18 376:0.17923997 377:0.025049547 378:0.12267681 379:0.070850817 380:0.40692575 381:0.050099093 382:0.14515544 383:-1.9899634e-16 
1.069695653146684 0:0.49533677 1:0.17303003 2:0.037634429 3:0 4:0 5:0.0033758568 6:0.020255141 7:0.27036773 8:0.40652212 9:0.24932903 10:0.13460818 11:0 12:0.026883346 13:0 14:0.14646359 15:0.036192813 16:0.39496813 17:0.025852363 18:0.14295897 19:0 20:0.15029987 21:0.077557088 22:0.20836085 23:1.129557e-16 24:0.077886792 25:1.581197e-16 26:0.1375821 27:0.070371332 28:0.5136331 29:0.049760046 30:0.15076409 31:1.0870729e-16 32:0.10488002 33:0.021319897 34:0.061771556 35:0.030150887 36:0.39401094 37:0.042639793 38:0.28492327 39:0.060301774 40:0.089537416 41:0.26132949 42:0.19443575 43:0.10211354 44:0.33162249 45:0 46:0.020960816 47:4.8268615e-17 48:0.28959859 49:0.010699983 50:0.0037466319 51:0 52:0.052777786 53:0.031684337 54:0.053178713 55:0.55831393 56:0.2294612 57:0.059861177 58:0.10535029 59:0 60:0.093697563 61:0.13225361 62:0.30292087 63:0.076454366 64:0.10709987 65:0.023948259 66:0.18667029 67:0.067735906 68:0.31058963 69:0.14368956 70:0.16026414 71:-1.027337e-15 72:0.15329149 73:2.2691698e-17 74:0.12939066 75:0.080791707 76:0.60039165 77:-6.8075095e-17 78:0.03613115 79:-1.2253517e-15 80:0.097048669 81:0.18856374 82:0.36618911 83:0.14400156 84:0.14286566 85:0.023551743 86:0.037779349 87:-2.7967909e-16 88:0.039439995 89:0.041961876 90:0.54046548 91:0.23912295 92:0.12597371 93:0.0022179982 94:0.010817982 95:-9.5148109e-17 96:0.015521595 97:0.023599931 98:0.011200177 99:0 100:0.34015988 101:0.28966265 102:0.11126071 103:0.208595 104:0.047209071 105:0.013113418 106:0.0074251812 107:0.007895323 108:0.55312832 109:0.26776343 110:0.10346522 111:-3.6461048e-17 112:-3.558586e-18 113:3.558586e-18 114:0.010145733 115:0.54049828 116:0.43482025 117:0.01170255 118:0.0028331023 119:-4.8040911e-17 120:-3.417574e-18 121:3.417574e-18 122:0.0043020228 123:0.80220169 124:0.18217133 125:0.0086040457 126:0.0027208381 127:-4.6137249e-17 128:0.028362638 129:0.10376405 130:0.20343751 131:0.54907142 132:0.088485234 133:0.0052068158 134:0.021672213 135:-5.5840743e-17 136:0.20669567 137:0.036512255 138:0.063749991 139:0.082208394 140:0.36888031 141:0.091844148 142:0.07311128 143:0.07699784 144:0.30547677 145:0.074569738 146:0.25339233 147:0.015948326 148:0.16898263 149:0.067663018 150:0.036818956 151:0.077147711 152:0.51849533 153:0.26710434 154:0.034111685 155:0 156:0.0080402013 157:-3.21351e-17 158:0.097036214 159:0.075211895 160:0.16353249 161:-1.9366137e-17 162:0.22731386 163:0.06895135 164:0.39247797 165:-1.9366137e-17 166:0.14772191 167:-8.7147615e-17 168:0.10612858 169:-2.6931747e-17 170:0.1321267 171:2.1545398e-16 172:0.69741638 173:-2.6931747e-17 174:0.064323633 175:-1.2119286e-16 176:0.16295281 177:0.062680088 178:0.38034019 179:0.024538192 180:0.13191418 181:0.086755611 182:0.15081769 183:-6.2027645e-17 184:0.41710263 185:0.011595595 186:0.0790188 187:0.0081993238 188:0.085564177 189:0.011595595 190:0.092762628 191:0.29416111 192:0.54184847 193:0.017775375 194:0.040259643 195:0 196:0.031797557 197:0.017775375 198:0.2270756 199:0.12346669 200:0.031032546 201:1.0335914e-17 202:0 203:0 204:0.0038790682 205:-2.4117133e-17 206:0.32285602 207:0.64223206 208:0.12727571 209:0.043784174 210:0.36810164 211:0.19516745 212:0.14685658 213:0 214:0.11881249 215:-1.7391313e-16 216:0.033477736 217:0 218:0.30582972 219:0.32706304 220:0.31469072 221:0 222:0.018937868 223:-1.1893681e-16 224:0.03323741 225:0.034070052 226:0.28216946 227:0.31363802 228:0.15133878 229:0.060700369 230:0.10594707 231:0.018898664 232:0.091746918 233:0.35689358 234:0.47397076 235:0.029236584 236:0.046173363 237:4.9709315e-18 238:0.0019787575 239:-1.8640993e-17 240:0.5955062 241:0.061152762 242:0.059060657 243:0 244:0.091161156 245:-8.0967371e-17 246:0.16428984 247:0.028827689 248:0.43043406 249:0.4365927 250:0.068904338 251:0 252:5.6686969e-18 253:-1.3226959e-17 254:0.0076706724 255:0.056398128 256:0.014920571 257:0.042492954 258:0.26796977 259:0.63850442 260:-4.301049e-18 261:0 262:0.010828273 263:0.025283895 264:0.016188125 265:0.011748172 266:0.13841401 267:0.75084361 268:0.068624642 269:0.0058740858 270:2.9165237e-18 271:0.0083072118 272:0.019866978 273:0.044970408 274:0.47014225 275:0.2906004 276:0.12912575 277:0.024061163 278:0.021232906 279:3.5839595e-18 280:0.096181149 281:0.24601817 282:0.3107653 283:0.056020906 284:0.22675704 285:0.0344177 286:0.029839034 287:3.6630838e-17 288:0.62316324 289:0.084659102 290:0.062594705 291:0 292:0.062800414 293:0.021603999 294:0.072071976 295:0.073106085 296:0.90881309 297:0.091186854 298:6.483805e-18 299:0 300:6.1024047e-18 301:-1.0679208e-17 302:-9.5350074e-18 303:9.1536071e-18 304:0.3570875 305:0.24905464 306:0.22858066 307:9.1801448e-17 308:0.0054399601 309:0 310:0.10822864 311:0.051607993 312:0.18552694 313:0.17779322 314:0.32490378 315:0.13968755 316:0.11485001 317:0 318:0.057236905 319:-3.9233577e-18 320:0.18478245 321:5.6810695e-17 322:0.45075154 323:0.044948724 324:0.22742456 325:0.031783548 326:0.060305042 327:-6.3122994e-18 328:0.15394503 329:0.026479349 330:0.14370843 331:0.097829662 332:0.53480831 333:0.026479349 334:0.016747011 335:5.2588711e-17 336:0.17130021 337:-2.2348174e-18 338:0.16256041 339:0.16442384 340:0.34270243 341:-2.2348174e-17 342:0.021927953 343:0.13708503 344:0.32331314 345:0.022724897 346:0.0087032775 347:0.011208829 348:0.31179882 349:0.11510266 350:0.06033861 351:0.14680973 352:0.041837859 353:0.0059497142 354:0.10978013 355:0.0084141665 356:0.83401809 357:-9.453036e-18 358:-1.1520888e-17 359:-3.0722367e-17 360:0.015393167 361:3.7286941e-18 362:0.035631697 363:0.019045459 364:0.92992964 365:-9.9431843e-18 366:-1.0875358e-17 367:-3.2315349e-17 368:0.02121017 369:2.0856817e-17 370:0.012305561 371:0.035691194 372:0.92650793 373:-1.0092008e-17 374:0.0042851014 375:-3.4985628e-17 376:0.015859042 377:-4.6952198e-18 378:5.0864881e-17 379:0.21525309 380:0.76245558 381:0.0039402108 382:0.0024920081 383:-3.2084002e-17 
1.792400536923091 0:0.28446081 1:0.25844899 2:0.14392768 3:0 4:0.17090845 5:0.02335476 6:0.098414966 7:0.02048348 8:0.40452553 9:0.017872904 10:0.10794591 11:0 12:0.11288606 13:0.053618712 14:0.20204516 15:0.10110441 16:0.35102697 17:0.089150745 18:0.15264249 19:0.054668625 20:0.12965803 21:0.13529794 22:0.08755366 23:-3.8386488e-18 24:0.42870031 25:0.19467681 26:0.180891 27:0 28:0.11807008 29:0 30:0.077659828 31:-4.3694706e-18 32:0.30614272 33:0.11905321 34:0.4008173 35:0 36:0.079863319 37:0 38:0.094119824 39:-5.9110731e-18 40:0.35181396 41:0.086886667 42:0.14653854 43:0 44:0.18133219 45:0 46:0.23342521 47:-5.7519765e-18 48:0.24377099 49:0.14232713 50:0.2358399 51:0 52:0.27264862 53:0.04304822 54:0.062363237 55:0 56:0.14712957 57:0.061066587 58:0.23590972 59:0.028787065 60:0.20174918 61:0.13459995 62:0.16196917 63:0.028787065 64:0.054272556 65:0.020226187 66:0.33674803 67:0.028604148 68:0.29996693 69:0.085453682 70:0.13743155 71:0.037295247 72:0.11967903 73:0.082341677 74:0.21798861 75:0.029112179 76:0.26847024 77:0.041170839 78:0.21212351 79:0.029112179 80:0.33177936 81:0.10369367 82:0.071091949 83:0.063586573 84:0.19102448 85:0.044962497 86:0.13027284 87:0.063586573 88:0.11605145 89:0.051899788 90:0.26792112 91:-1.030744e-17 92:0.23210291 93:0.15569936 94:0.17632261 95:-1.030744e-17 96:0.16858618 97:0.16382136 98:0.44209 99:0.060711745 100:0.10332319 101:0.0099747393 102:0.051492374 103:0 104:0.098388278 105:0.043202799 106:0.25788624 107:0.17158897 108:0.17633929 109:0.11043611 110:0.14215784 111:0 112:0.073157932 113:-1.0829549e-17 114:0.16306741 115:0.19886843 116:0.30172313 117:0.068160879 118:0.16988497 119:0.02513649 120:0.068637491 121:0.099758475 122:0.17200718 123:0.021769202 124:0.27712035 125:0.18365228 126:0.15528525 127:0.021769202 128:0.055006635 129:0 130:0.079053506 131:0.017394625 132:0.37250025 133:0.34929985 134:0.12674451 135:-4.8855707e-18 136:0.021635835 137:0.015887955 138:0.049464937 139:0.60366092 140:0.2838644 141:0.0087962176 142:0.01668965 143:-1.7469529e-18 144:0.36132238 145:0.38884678 146:0.13605863 147:0.038439912 148:0.052725984 149:0.0089148981 150:0.0034967107 151:0.010194576 152:0.070772752 153:-1.9429093e-16 154:0.066357531 155:0.020345736 156:0.48395616 157:0.19907259 158:0.13914865 159:0.020345736 160:0.071390761 161:0.031926919 162:0.14594232 163:0.11303175 164:0.4121606 165:0.14107475 166:0.061896121 167:0.022575741 168:0.092003275 169:0.094934918 170:0.18225512 171:0.023921498 172:0.2962486 173:0.13532043 174:0.096282172 175:0.079032813 176:0.27678506 177:0.022466181 178:0.056165687 179:0.10659997 180:0.076541621 181:0.017199309 182:0.039652672 183:0.40458942 184:0.061176694 185:0.027853424 186:0.19019959 187:0.49028811 188:0.060391102 189:0 190:0.025011757 191:0.1450793 192:0.16174695 193:0.12136788 194:0.24706964 195:0.31774742 196:0.088800781 197:0.013442453 198:0.035313958 199:0.01451087 200:-2.8081752e-17 201:-6.1973522e-17 202:2.5176743e-17 203:0.29719033 204:0.6833066 205:0.01950298 206:-1.9366726e-18 207:0 208:-2.9129972e-17 209:-6.2143941e-17 210:2.6216975e-17 211:0.17540374 212:0.7239904 213:0.091329253 214:0.009276515 215:0 216:-3.4929785e-17 217:-8.0209137e-17 218:5.3688374e-17 219:0.072111146 220:0.75255125 221:0.17533743 222:1.0349566e-17 223:-3.8810873e-18 224:0.55903311 225:0.08036744 226:0.015486319 227:0.029930224 228:0.1449262 229:0.070738987 230:0.053160373 231:0.046357271 232:0.74077469 233:0.062324823 234:0.040362359 235:1.069984e-16 236:0.037646716 237:-1.00311e-17 238:0.0053240496 239:0.11356707 240:0.22836934 241:0.23280855 242:0.17828804 243:0.030438982 244:0.14511575 245:0.032955422 246:0.12961153 247:0.02241211 248:0.014065798 249:0.018871248 250:0.085210318 251:0.1767614 252:0.51912231 253:0.12847675 254:0.045893065 255:0.011598954 256:0.035920312 257:0.0086341684 258:0.016932997 259:0.17835473 260:0.5640463 261:0.16322144 262:0.032889934 263:0 264:0.021870668 265:1.1870867e-17 266:0.010309932 267:-4.6404299e-17 268:0.60793432 269:0.21685044 270:0.12766538 271:0.015369139 272:0.16496943 273:0.30679909 274:0.049117822 275:-3.9523755e-17 276:0.2258148 277:0.15539064 278:0.063539464 279:0.034368656 280:0.49923829 281:0.34209654 282:0.050001201 283:0.040065688 284:0.050679532 285:4.5012467e-17 286:0.01791792 287:-5.0639025e-17 288:0.12875644 289:0.023992346 290:0.23499863 291:0.033930301 292:0.29144318 293:0.11996173 294:0.16691501 295:0 296:0.10818476 297:0.021991679 298:0.28431211 299:7.8616935e-17 300:0.24747044 301:0.15394175 302:0.15299635 303:0.03110093 304:0.12425234 305:0.059536432 306:0.13484472 307:0.064658995 308:0.41910426 309:0.059536432 310:0.1380652 311:0 312:0.072118907 313:0.037742404 314:0.2594554 315:0.11480827 316:0.3201235 317:0.075484808 318:0.12026586 319:-8.6077132e-18 320:0.1160379 321:0.20435255 322:0.20219355 323:0.015442796 324:0.27434832 325:0.058625223 326:0.069718416 327:0.059280959 328:0.35829749 329:0.092443562 330:0.1364217 331:8.5677872e-17 332:0.23427143 333:-2.4479392e-17 334:0.17856193 335:-8.5677872e-17 336:0.31068877 337:0.11950699 338:0.36784789 339:1.5768404e-16 340:0.14794703 341:6.5701682e-18 342:0.054004833 343:0 344:0.21305685 345:0.021654982 346:0.29606899 347:0.091874307 348:0.23242565 349:0.021654982 350:0.12326232 351:0 352:0.10596976 353:0.013938564 354:0.17281513 355:0.090827096 356:0.47992414 357:0.083631383 358:0.052893131 359:0 360:0.34782225 361:0.020380183 362:0.1106071 363:0 364:0.12907918 365:0.061140549 366:0.3021471 367:0.028821931 368:0.10543017 369:0.098228758 370:0.38764487 371:0.036224976 372:0.13178771 373:0.039291503 374:0.16516546 375:0.036224976 376:0.18078711 377:0.11889773 378:0.34063141 379:0.043847315 380:0.21441647 381:0.023779545 382:0.077638101 383:-7.5562923e-17 
