svm_type c_svc
kernel_type rbf
gamma 0.125
nr_class 2
total_sv 531
rho 2.1215
label 1 -1
probA -6.32242
probB 0.220559
nr_sv 256 275
SV
1.053200585890765 0:0.24047562 1:0.029474733 2:0.14766305 3:0.081622511 4:0.22782482 5:0.062263945 6:0.16899086 7:0.041683567 8:0.41508855 9:0.060319784 10:0.012716527 11:-7.9864493e-18 12:0.044959713 13:0.040213189 14:0.42670058 15:-7.9864493e-18 16:0.26095504 17:0 18:0.035147253 19:-1.1036887e-17 20:0.074558583 21:0.027786343 22:0.60154962 23:-1.1036887e-17 24:0.38822073 25:0.02265096 26:0.094279583 27:-8.9970849e-18 28:0.16332411 29:-3.598834e-17 30:0.29948922 31:0.032033294 32:0.084725372 33:0.012630113 34:0.1304003 35:0.064524441 36:0.62524673 37:0.037890338 38:0.044582051 39:-5.0167498e-18 40:0.036283977 41:0.060048747 42:0.081126846 43:0.23541131 44:0.45454669 45:0.09358249 46:0.027844039 47:0.011155638 48:0.040494097 49:0.035124187 50:0.30878671 51:0.37377093 52:0.19973643 53:0.016454944 54:0.012422995 55:0.013209584 56:0.049735437 57:0.16968407 58:0.40334433 59:0.099913238 60:0.13931883 61:0.060289439 62:0.032400703 63:0.045313866 64:0.19411606 65:0.081967542 66:0.12434058 67:0.048627606 68:0.11165671 69:0.081496518 70:0.25418998 71:0.10360478 72:0.2208166 73:0.030860058 74:0.1788258 75:0 76:0.26221971 77:0.061720116 78:0.24555381 79:-1.2257784e-17 80:0.14238114 81:0 82:5.0935221e-17 83:0 84:0.23519027 85:0.070749759 86:0.42660846 87:0.12506909 88:0.078353553 89:0.021900484 90:0.041553246 91:0.030971961 92:0.70836073 93:0.021900484 94:0.096957575 95:-1.3048488e-17 96:0.040514618 97:0 98:0.23615873 99:0.032029618 100:0.50643273 101:0.1132418 102:0.071620404 103:-1.3494079e-17 104:0.11369745 105:0.019556556 106:0.17199469 107:0.082971441 108:0.47170881 109:0.058669668 110:0.081399817 111:-1.1651956e-17 112:0.17553157 113:0.10059644 114:0.25984554 115:0.051870754 116:0.21374794 117:0.057866948 118:0.081921918 119:0.058618247 120:0.063834515 121:0.019031408 122:0.087446103 123:0.07496421 124:0.20187281 125:0.13745914 126:0.3271136 127:0.088278152 128:0.51996756 129:0.066508039 130:0.096450855 131:-3.9950926e-18 132:0.031486521 133:0.020116 134:0.11504961 135:0.150421 136:0.21709782 137:0.032363033 138:0.14659878 139:0 140:0.41972246 141:0 142:0.18421361 143:0 144:0.13060337 145:4.8332957e-18 146:0.06156702 147:0 148:0.29385759 149:0.19469201 150:0.31927758 151:-9.6665914e-18 152:0.035999423 153:0.020124289 154:0.078431732 155:0 156:0.37799394 157:0.28174005 158:0.20570891 159:0 160:0.048301072 161:0.018000747 162:0.040770091 163:0.11729727 164:0.59931698 165:0.10800448 166:0.068308032 167:0 168:0.15870746 169:0.25893172 170:0.16089757 171:0.021348957 172:0.2857387 173:0.030191984 174:0.062833711 175:0.021348957 176:0.18194752 177:0.20914288 178:0.40756082 179:0.069257162 180:0.055887885 181:1.8050332e-17 182:0.050296531 183:0.025906674 184:0.048141328 185:0.12312283 186:0.24754064 187:0.17941016 188:0.29789461 189:0.052753551 190:0.051136161 191:-5.2384996e-18 192:0.12761393 193:0.030343881 194:0.21203661 195:0.10116645 196:0.27962315 197:0.042035741 198:0.098061695 199:0.10911798 200:0.089600284 201:0.083480136 202:0.29728162 203:0.070835244 204:0.22521239 205:0.10017616 206:0.086189528 207:0.047223496 208:0.066150183 209:0.018489538 210:0.15091675 211:0.21494131 212:0.35180884 213:0.073958153 214:0.12373384 215:-1.4688291e-17 216:0.02138344 217:0.015938275 218:0.22540345 219:0.23224985 220:0.4747832 221:0 222:0.03024075 223:-6.3307699e-18 224:0.084249873 225:0.13419142 226:0.27705947 227:0.36760424 228:0.10799832 229:0 230:0.028896176 231:-4.3600809e-18 232:0.16780011 233:0.11208161 234:0.63120275 235:-1.4732871e-16 236:0.0059241921 237:0.039740689 238:0.043249938 239:-5.2617396e-18 240:0.55735588 241:0.025553189 242:0.18716574 243:-3.2987065e-16 244:0.045710933 245:0.025553189 246:0.12252072 247:0.036137666 248:0.17852958 249:0.083501977 250:0.23170305 251:0.11561837 252:0.21472351 253:-3.3167441e-17 254:0.17592173 255:-1.6583721e-17 256:0.0072199523 257:0.0053814347 258:0.039095645 259:0.14440597 260:0.66184815 261:0.1196497 262:0.022399025 263:0 264:0.0062898563 265:0.0046881821 266:0.033096898 267:0.029656715 268:0.86479011 269:0.055548017 270:0.0059301334 271:0 272:0.019376169 273:0.009980253 274:0.031951867 275:0.070216897 276:0.77761122 277:0.080759369 278:0.010104067 279:-2.4584993e-18 280:0.049197192 281:1.9861766e-18 282:0.051626656 283:0.014143198 284:0.81810652 285:0.010000751 286:0.056925275 287:0 288:0.038693078 289:0.028840118 290:0.099460432 291:0.020393043 292:0.71081199 293:0.014420059 294:0.087380426 295:0 296:0.08178548 297:0.032272569 298:0.070029519 299:-2.9910629e-17 300:0.4944732 301:0.18198686 302:0.119616 303:0.019835892 304:0.040270079 305:0.010005182 306:0.063278325 307:0.04566568 308:0.78810393 309:0.030015545 310:0.022660847 311:-5.9611692e-18 312:0.027458987 313:0.020466721 314:0.12947341 315:0.40026088 316:0.3490454 317:0.040933441 318:0.032360727 319:-4.0647466e-18 320:0.10248873 321:0 322:0.012731765 323:-1.0114254e-17 324:0.14744326 325:0.31744247 326:0.40188767 327:0.018005435 328:0.047099593 329:0.021063579 330:0.043836231 331:0.01941966 332:0.75095657 333:0.031595368 334:0.066608884 335:0.01941966 336:0.019189513 337:0 338:0.017511781 339:0.056521487 340:0.82924564 341:0.074139203 342:0.0033922586 343:-2.1304639e-18 344:0.0095432585 345:0.0092432635 346:0.010881816 347:0.13171792 348:0.77714013 349:0.044028721 350:0.017444817 351:0 352:0.01129642 353:8.3610306e-19 354:-1.6722061e-18 355:0.17380533 356:0.78895544 357:0.0042099273 358:0.021732813 359:0 360:0.018260933 361:2.0273708e-18 362:0.067452343 363:0.1398376 364:0.7155447 365:0.029851346 366:0.029052967 367:0 368:0.18257795 369:0.049207587 370:0.16329772 371:0.12899978 372:0.3955875 373:0.058746204 374:0.021583117 375:-3.5597428e-18 376:0.09779337 377:0.14861887 378:0.087546606 379:0.11758973 380:0.25092951 381:0.068882765 382:0.044727876 383:0.18391117 
1.775225274129707 0:0.078474698 1:0.12656579 2:0.35000887 3:0.1339051 4:0.20247334 5:0.045092409 6:0.040333476 7:0.023146157 8:0.089758106 9:0.052383203 10:0.022658758 11:0.020424328 12:0.29510496 13:0.26056494 14:0.19689295 15:0.062212428 16:0 17:-3.2685758e-17 18:-1.2257159e-16 19:-4.4942918e-17 20:0.17562682 21:0.3331126 22:0.37046559 23:0.12079456 24:0.023219554 25:-5.4994951e-17 26:0.021891605 27:0.073426676 28:0.5914897 29:0.19426753 30:0.095703711 31:1.3748738e-17 32:0.068453937 33:0.049985229 34:0.26704587 35:0.035280351 36:0.50973169 37:0.057400371 38:0.012101061 39:1.5199827e-17 40:0.051031509 41:0.057054962 42:0.45870137 43:0.16954788 44:0.2636628 45:1.2086689e-16 46:8.8761625e-17 47:1.5108362e-17 48:0.25123628 49:0.066532262 50:0.24678296 51:0.17716834 52:0.18427876 53:0.02275183 54:0.051249039 55:9.0371514e-18 56:0.087897958 57:0.28220595 58:0.3031954 59:0.094978973 60:0.17951098 61:0.021365657 62:0.012652987 63:0.018192008 64:0.30521807 65:0.05881251 66:0.036627383 67:0.17855813 68:0.067688025 69:0.038698972 70:0.13342866 71:0.18096823 72:0.034952394 73:0.017367984 74:0.051038971 75:0.080189553 76:0.16995416 77:0.22936514 78:0.35199492 79:0.065136569 80:2.5343544e-16 81:-6.416087e-18 82:3.8496522e-17 83:2.4060326e-17 84:0.39321822 85:0.41711635 86:0.18966516 87:-2.8872392e-17 88:2.5014312e-16 89:-6.3327371e-18 90:3.7996423e-17 91:0.055370353 92:0.59653533 93:0.23483253 94:0.098562592 95:0.01469893 96:0.0092751606 97:-8.2379975e-18 98:0.098408849 99:0.076661166 100:0.72445349 101:0.051849724 102:0.039351174 103:-2.4713992e-17 104:0.0042452112 105:0.028477742 106:0.26867975 107:0.47732334 108:0.22127359 109:-4.5246059e-17 110:2.7336161e-17 111:-2.262303e-17 112:0.14705021 113:0.075519132 114:0.28520308 115:0.17977194 116:0.2504369 117:0.034754697 118:0.027263827 119:-1.7122692e-17 120:0.044652821 121:0.24708673 122:0.088250293 123:0.029961253 124:0.27396034 125:0.18562959 126:0.090414505 127:0.040044428 128:0.18697528 129:0.26233093 130:0.37199164 131:0.056967597 132:0.053775052 133:0.022131216 134:0.03306997 135:0.012758271 136:0.047546684 137:0.030892648 138:0.036142525 139:0.1111626 140:0.5642534 141:0.088687144 142:0.10232682 143:0.018987743 144:0.020685345 145:-2.4802574e-16 146:0.011563459 147:-6.4302969e-17 148:0.5377546 149:0.2881287 150:0.12551415 151:0.016353201 152:0.01164558 153:-1.8618034e-16 154:0.028339763 155:0.12581209 156:0.60744738 157:0.1514802 158:0.07527468 159:6.8955683e-18 160:0.0025078702 161:0.023754887 162:0.25807052 163:0.30949091 164:0.36262638 165:0.018147119 166:0.025402192 167:4.4548723e-18 168:0.013190342 169:0.029408739 170:0.41514263 171:0.41922595 172:0.11140318 173:-7.6532253e-18 174:0.0048169184 175:0.0068121514 176:0.15896471 177:0.10780174 178:0.39548182 179:0.20021748 180:0.090449428 181:0.013339095 182:0.033745539 183:5.2983616e-18 184:0.046608806 185:0.0086850383 186:0.039341678 187:2.7597957e-17 188:0.29849961 189:0.0086850383 190:0.39192103 191:0.20625849 192:0.063837937 193:0.15158868 194:0.1230017 195:0.18139499 196:0.31124746 197:0.054418365 198:0.08114011 199:0.033370189 200:0.049616585 201:0.013868257 202:0.13046126 203:0.025571802 204:0.58815539 205:0.050098407 206:0.10300216 207:0.039225354 208:0.061479792 209:0 210:0.14604855 211:0.32068137 212:0.44186747 213:0.018329732 214:0.011592741 215:-1.456134e-17 216:0.035665155 217:0.026190179 218:0.2802102 219:0.59369625 220:0.042149729 221:2.8797292e-18 222:0.01183526 223:0.010253011 224:0.079590076 225:0.086996183 226:0.53662002 227:0.14810287 228:0.016422883 229:0.051526071 230:0.080741552 231:-3.6466127e-18 232:0.13438277 233:-3.8615137e-17 234:0.27705182 235:0.02499739 236:0.29473607 237:0.12373077 238:0.12010251 239:0.02499739 240:0.10535409 241:0.066537012 242:0.075350208 243:0.10850509 244:0.21814725 245:0.17653021 246:0.22605062 247:0.023524386 248:0.13212565 249:0.015549575 250:0.12691995 251:0.02199042 252:0.50605665 253:0.046648726 254:0.15070804 255:-6.1763763e-18 256:0.23529287 257:0.036986198 258:0.076836287 259:-9.2787741e-17 260:0.22506372 261:0.16989191 262:0.19586234 263:0.06006586 264:0.14764525 265:0.044019307 266:0.19086983 267:0.062252702 268:0.22958398 269:0.22009654 270:0.10553042 271:0 272:0.13741309 273:0 274:0.25584552 275:0.14484611 276:0.27631278 277:0.081937335 278:0.10364344 279:-2.0341223e-17 280:0.13184194 281:0.058513459 282:0.087292872 283:1.4234517e-16 284:0.29048287 285:0.11198956 286:0.31987726 287:4.4482864e-18 288:0.030555034 289:-4.5230537e-18 290:0.014403781 291:-2.2615268e-17 292:0.38703043 293:0.2189176 294:0.31688319 295:0.032207834 296:0.050427512 297:-2.7992892e-18 298:0.07276188 299:0.21583323 300:0.50737907 301:0.11275934 302:0.040838145 303:2.7992892e-18 304:0.023340336 305:-2.5912978e-18 306:0.013047644 307:0.1801552 308:0.41708765 309:0.18560148 310:0.18076699 311:2.5912978e-18 312:0.026030367 313:0.013984091 314:0.078764771 315:0.019776491 316:0.5252761 317:0.17409922 318:0.16206815 319:2.7772787e-18 320:0.15746243 321:0.019024019 322:0.047749614 323:0.053854732 324:0.32745979 325:0.23097374 326:0.13575593 327:0.027719454 328:0.073672001 329:2.9081725e-17 330:0.054911867 331:0.077657107 332:0.57113986 333:0.12812769 334:0.094490102 335:7.2704312e-18 336:0.12629302 337:1.3196557e-17 338:0.010506194 339:0.023492565 340:0.45890587 341:0.24665992 342:0.09626067 343:0.037880623 344:0.034279029 345:0.038325119 346:0.01916256 347:0.035334014 348:0.60544572 349:0.13413792 350:0.13331413 351:7.6114734e-18 352:0.043139533 353:6.3859337e-18 354:0.032154309 355:0.10476268 356:0.63457569 357:0.14469439 358:0.040672341 359:6.3859337e-18 360:0.045896683 361:6.7940739e-18 362:0.11899747 363:0.15248786 364:0.51717865 365:0.044685158 366:0.12075298 367:6.7940739e-18 368:0.14584379 369:7.1964057e-18 370:0.09832758 371:0.059029327 372:0.25117541 373:0.27583855 374:0.14416186 375:0.025622141 376:0.456519 377:0.029031325 378:0.029031325 379:-1.4414251e-17 380:0.13737708 381:0.095984116 382:0.18423424 383:0.067822053 
0.7303451931278521 0:0.2343059 1:0.10493307 2:0.032878053 3:0.067751892 4:0.28031588 5:0.14834684 6:0.063750398 7:0.067717962 8:0.031153297 9:0.11796299 10:0.14851292 11:0.23301028 12:0.22068794 13:0.079222444 14:0.11497217 15:0.054477795 16:0.0048543422 17:5.1738264e-17 18:0.014287177 19:0.23859598 20:0.7353973 21:1.2503414e-16 22:0.0068650766 23:8.623044e-18 24:1.6466968e-16 25:4.9400904e-17 26:0.033734734 27:0.026439398 28:0.90926483 29:0.020728526 30:0.0098324034 31:8.233484e-18 32:0.032006702 33:0.0059640967 34:0.021664316 35:0.22073728 36:0.61153035 37:0.053786185 38:0.045876427 39:0.0084345064 40:0.023946626 41:0.017104733 42:0.022948407 43:0.13915782 44:0.63990201 45:0.11349788 46:0.032624305 47:0.010817983 48:0.016103208 49:0.019353647 50:0.10625427 51:0.1616625 52:0.59229778 53:0.036007868 54:0.068320126 55:1.9070029e-17 56:0.022351424 57:0.032183041 58:0.11523872 59:0.32458345 60:0.43985893 61:0.016659768 62:0.049124379 63:1.3234701e-17 64:0.13830456 65:0.22185995 66:0.39784056 67:0.037594932 68:0.034500611 69:0.078754812 70:0.024062887 71:0.067081691 72:0.24413252 73:0.013694798 74:0.086753303 75:0.20683834 76:0.21711476 77:0.063637921 78:0.12078896 79:0.047039102 80:0.042163725 81:2.8086683e-17 82:0.062047606 83:0.12756783 84:0.60596476 85:0.10141745 86:0.060838059 87:-4.4470582e-17 88:0.010788586 89:2.8746569e-17 90:0.062267425 91:0.044563859 92:0.84743148 93:0.012062006 94:0.022886048 95:-4.5515401e-17 96:0.012045771 97:0.026935162 98:0.14968854 99:0.19776355 100:0.58993145 101:0.017956775 102:0.0056784308 103:-3.3879513e-17 104:0.17290032 105:0.037859205 106:0.086193412 107:0.1745821 108:0.30106209 109:0.027412113 110:0.0046510459 111:0.19533966 112:0.39146942 113:0.036518248 114:0.092364425 115:0.15394488 116:0.1236807 117:0.032027817 118:-4.0595434e-18 119:0.16999451 120:0.096820376 121:0.042352839 122:0.12693077 123:0.4851905 124:0.081021755 125:0.0039932488 126:0.083882269 127:0.079808218 128:0.15639989 129:0.31595066 130:0.10396201 131:0.016229764 132:0.087614138 133:0.02173276 134:0.096060078 135:0.20205051 136:0.3580292 137:0.025825084 138:0.24029082 139:-5.1289323e-18 140:0.24253591 141:0.051650169 142:0.081666088 143:-2.7696235e-16 144:0.21282162 145:7.2701372e-18 146:0.3278842 147:0 148:0.3300745 149:0.036606431 150:0.092607759 151:-3.7804714e-16 152:0.24099856 153:8.9187384e-18 154:0.32892696 155:0 156:0.40166427 157:0 158:0.028401953 159:-4.637744e-16 160:0.13103856 161:0.10987917 162:0.46705035 163:5.0918708e-17 164:0.2456973 165:7.2741012e-18 166:0.046329126 167:-3.7825326e-16 168:0.46448182 169:0.12218048 170:0.07760977 171:0.024412754 172:0.0062571669 173:0 174:0.043382403 175:0.26167552 176:0.26382683 177:0.014813991 178:0.0041306437 179:0.0026470527 180:0.015690789 181:0 182:0.04867869 183:0.65021199 184:0.34305446 185:0.032543443 186:0.034547419 187:-1.56389e-17 188:0.026411754 189:0.0079357444 190:0.068789057 191:0.48671802 192:0.4790574 193:1.4313875e-17 194:0.094770849 195:0.053261551 196:0.072067508 197:0.0080081002 198:0.060595859 199:0.23223847 200:0.29252499 201:0.21667131 202:0.22792175 203:-4.9964304e-18 204:0.12376057 205:0.025157914 206:0.11396087 207:-9.9928608e-18 208:0.26799408 209:-4.7605311e-17 210:0.18950043 211:0 212:0.42879052 213:0 214:0.11370026 215:0 216:0.65904429 217:-4.1810637e-17 218:0.099860291 219:0 220:0.14122378 221:0 222:0.099860291 223:0 224:0.44689149 225:0.13783169 226:0.16521655 227:4.7904063e-17 228:0.17201127 229:6.8434376e-18 230:0.078044131 231:0 232:0.70648055 233:0.038554811 234:0.021412868 235:-1.3448073e-17 236:0.017664715 237:0 238:0.039136669 239:0.17675026 240:0.5536648 241:0.014206647 242:0.0082121855 243:0.00174364 244:0.0012686844 245:0.0037824862 246:0.0072821548 247:0.4098394 248:0.32584911 249:0.021439567 250:0.021588575 251:-1.313221e-17 252:0.037579473 253:0.0044082007 254:0.082936643 255:0.50619835 256:0.037045364 257:0.062191467 258:0.070354249 259:0.065490868 260:0.1208997 261:0.11428517 262:0.32353219 263:0.20620094 264:0.049498036 265:0.15495336 266:0.38437721 267:0.031305307 268:0.23759057 269:0.044272389 270:0.098001111 271:-1.3188926e-16 272:0.036833621 273:-3.2714828e-17 274:0.17140776 275:4.0893535e-17 276:0.73966107 277:3.8439923e-16 278:0.052090607 279:-2.2900379e-16 280:0.24906115 281:-2.4578971e-17 282:0.097840458 283:3.0723713e-17 284:0.41510191 285:0.061879739 286:0.17611283 287:-1.7205279e-16 288:0.26908131 289:-1.7703127e-17 290:0.15503418 291:0.031515178 292:0.30550396 293:2.168633e-16 294:0.20734817 295:0.031515178 296:0.25679864 297:0.22340892 298:0.093373253 299:0.11263866 300:0.14711638 301:0.053920238 302:0.069093419 303:0.043650427 304:0.41227469 305:0.038255999 306:0.03545424 307:0.019428097 308:0.051483175 309:0.045929096 310:0.089265068 311:0.30790962 312:0.16329361 313:0.052967886 314:0.02253224 315:0.014593132 316:0.038557385 317:0.014167707 318:0.10177897 319:0.59210906 320:0.099630623 321:0.15794119 322:0.19624729 323:0.20882273 324:0.059034638 325:0.039959518 326:0.2021445 327:0.036219463 328:0.033528604 329:0.013970252 330:0.079757278 331:0.078840356 332:0.77350521 333:0.012495373 334:0.0079027677 335:-1.7371306e-17 336:0.025365899 337:-1.0013086e-17 338:0.027901066 339:0.29329446 340:0.57323726 341:0.059625011 342:0.02057615 343:-1.5019629e-17 344:0.022766265 345:-8.8277201e-18 346:-1.3848486e-16 347:0.20338797 348:0.71723443 349:0.031183579 350:0.017570064 351:0.0078575716 352:0.066375017 353:0.01884819 354:0.14660986 355:0.55660373 356:0.056831318 357:0.054460861 358:0.028203448 359:0.072067459 360:0.16402844 361:0.10088927 362:0.12868962 363:0.10964675 364:0.17839853 365:0.13631 366:0.094296091 367:0.087741261 368:0.28827627 369:0.09271432 370:0.0229179 371:4.8371143e-17 372:0.044882269 373:0.065653223 374:0.031048942 375:0.45450707 376:0.58568098 377:0.023325447 378:0.0080024437 379:0.0047492343 380:0.0045055193 381:0.015939519 382:0.023388414 383:0.33440843 
1.564873134451148 0:0 1:0 2:0.026696272 3:0.092715356 4:0.74494018 5:0.093436953 6:0.042210513 7:0 8:0 9:0 10:0.019890748 11:0.25272263 12:0.68233544 13:0.019890748 14:0.025160027 15:0 16:0.0071970245 17:0.011995041 18:0.096096991 19:0.38684232 20:0.45069052 21:0.026821727 22:0.020356259 23:0 24:0.0015410324 25:0 26:0.027694317 27:0.79689039 28:0.15622363 29:0.011112542 30:0.0065380466 31:0 32:0.0012080194 33:0 34:0.0034167948 35:0.70290464 36:0.2783029 37:0.0070567892 38:0.0071108243 39:0 40:0 41:0 42:0.051504195 43:0.60663649 44:0.34185928 45:5.3273691e-19 46:2.1309476e-18 47:0 48:0.011549102 49:0.0127564 50:0.028744084 51:0.42488285 52:0.46411724 53:0.043862628 54:0.01408764 55:0 56:0.015041832 57:0.020549793 58:0.13687299 59:0.5536514 60:0.24864716 61:0.01449026 62:0.0050738092 63:0.0056726911 64:0.037795283 65:0.023599426 66:0.072713109 67:0.14623709 68:0.56192567 69:0.097051497 70:0.060677354 71:0 72:0.15723373 73:0.17113976 74:0.14235364 75:0.12900201 76:0.23834097 77:0.066470727 78:0.069059462 79:0.026399603 80:0.12919919 81:0.025675653 82:0.49126849 83:0.21940963 84:0.046997014 85:0.005542925 86:0.022446761 87:0.059460288 88:0.081271255 89:0.096090638 90:0.22786227 91:0.49476564 92:0.051371663 93:0.018886748 94:0.011945028 95:0.017806597 96:0.024686727 97:0.01104024 98:0.15364705 99:0.3806498 100:0.31599011 101:0.04416096 102:0.069824609 103:-3.9467193e-17 104:0.052659161 105:-7.2754469e-17 106:0.12680439 107:0.52376732 108:0.1355229 109:0.052333095 110:0.10891244 111:-4.677073e-17 112:0.053514127 113:-6.654213e-17 114:0.1598391 115:0.19779017 116:0.49241332 117:0.035898368 118:0.060544323 119:-4.2777083e-17 120:0.1412094 121:0.13291843 122:0.036366628 123:0.031504796 124:0.30801068 125:0.10946835 126:0.16786403 127:0.072657173 128:0.02011567 129:0.011600956 130:0.045422699 131:0.73472854 132:0.15309885 133:0.0068787518 134:0.016136667 135:0.012017838 136:0.38850293 137:0.049333473 138:0.024381818 139:1.2575732e-16 140:0.18145436 141:0.035184987 142:0.082377573 143:0.23876483 144:0.40286667 145:0.14748528 146:0.14706526 147:0.064438379 148:0.090541328 149:0.059419097 150:0.058238936 151:0.029944594 152:0.20824718 153:0.054782923 154:0.30964818 155:0.038737376 156:0.25724651 157:0.027391462 158:0.10394329 159:-6.1472216e-16 160:0.38851366 161:0.033413191 162:0.16020733 163:1.9045179e-15 164:0.19425683 165:-2.6543804e-17 166:0.22360441 167:-7.4986246e-16 168:0.35004249 169:-1.8654011e-16 170:0.088639423 171:1.8498561e-15 172:0.43755311 173:-3.1090018e-17 174:0.12375871 175:-8.7829302e-16 176:0.28974371 177:-1.8165466e-16 178:0.23485043 179:1.8770982e-15 180:0.34087495 181:0.038110978 182:0.096413995 183:-8.5529071e-16 184:0.40390826 185:0.087403193 186:0.22111453 187:1.4986183e-15 188:0.19543948 189:-1.7358513e-17 190:0.092131055 191:-6.4226498e-16 192:0.040518232 193:0.0036063026 194:0.028623248 195:0.32275045 196:0.5649482 197:0.0036063026 198:0.019499944 199:0.01644727 200:0.34763377 201:0.058726547 202:0.11914713 203:0.1081496 204:0.01000029 205:0.0086103165 206:0.035510746 207:0.31222157 208:0.48391765 209:0.10698755 210:0.10199041 211:4.0387994e-17 212:0.0780893 213:0.050534912 214:0.14529584 215:0.033184094 216:0.15194816 217:0.095963774 218:0.19534083 219:0.067856636 220:0.22879278 221:0.095963774 222:0.13020338 223:0.033928318 224:0.18234846 225:0.03397863 226:0.19689709 227:2.361887e-16 228:0.3039141 229:0.067957259 230:0.21489972 231:-8.1653809e-16 232:0.29258098 233:0.040889436 234:0.206886 235:-1.1369055e-16 236:0.23772205 237:0 238:0.22191468 239:-9.8261119e-16 240:0.29406024 241:0.059776244 242:0.17012617 243:-2.3743451e-17 244:0.22722837 245:0.059776244 246:0.18902908 247:-7.1823938e-16 248:0.47780404 249:0.16693786 250:0.19004539 251:4.6416042e-17 252:0.089588258 253:6.6308631e-18 254:0.075619882 255:-7.8907271e-16 256:9.9319808e-19 257:0 258:0.012095633 259:0.20502902 260:0.76938935 261:1.4897971e-18 262:0.01348597 263:0 264:0.0067216474 265:0.020912635 266:0.20201016 267:0.25449169 268:0.41748705 269:0.033046246 270:0.018889093 271:0.046441446 272:0.041753983 273:0.15298511 274:0.20898994 275:0.072342546 276:0.1400347 277:0.28242665 278:0.074299931 279:0.027167061 280:0.049492331 281:0.024092946 282:0.26102891 283:0.30740953 284:0.30132972 285:0.024092946 286:0.03255326 287:-4.3958021e-17 288:0.06842937 289:0.038253181 290:0.23534411 291:0.18726273 292:0.37235495 293:0.049967291 294:0.048386871 295:-9.1166234e-17 296:0.10217456 297:-7.1440082e-17 298:0.23807337 299:0.10504389 300:0.41385779 301:0.067446279 302:0.073402034 303:-1.0716012e-16 304:0.25147332 305:0.08314385 306:0.18400364 307:0.025518946 308:0.14855281 309:0.036089239 310:0.22017897 311:0.051037891 312:0.054172638 313:0.069966479 314:0.13380347 315:0.11931966 316:0.36542139 317:0.023932122 318:0.15381627 319:0.079567388 320:0.0036881874 321:0 322:0.002668401 323:0.20800542 324:0.78161554 325:0.0023562965 326:2.3398346e-19 327:0.0016661532 328:0.064083852 329:0.042668366 330:0.027282302 331:0.27789118 332:0.24006247 333:0.11909607 334:0.098731901 335:0.13018386 336:0.057065245 337:0.033476598 338:0.08185756 339:0.088778098 340:0.46301216 341:0.18217116 342:0.056960165 343:0.036678991 344:0.045543333 345:0.0054736274 346:0.043213086 347:0.55030443 348:0.31360037 349:0.0054736274 350:0.02384992 351:0.012541567 352:0.059990504 353:0.0067071423 354:0.058450848 355:0.36106687 356:0.44051542 357:0.051057795 358:0.012725908 359:0.0094853315 360:0.11579232 361:0.046161439 362:0.086663881 363:0.31050096 364:0.34551743 365:0.0093041354 366:0.07216327 367:0.013896433 368:0.15982756 369:0.042638322 370:0.27760452 371:0.39516186 372:0.067281889 373:0.03433658 374:0.013155658 375:0.0099935814 376:0.084609037 377:0.10115029 378:0.5184799 379:0.12985173 380:0.14201579 381:2.135885e-17 382:-2.4028707e-17 383:0.023893234 
1.77342870676873 0:0.34769416 1:0.015930429 2:0.02267674 3:0.020112085 4:0.22320374 5:0.10608222 6:0.11318927 7:0.15111128 8:0.10350181 9:0 10:0.06058796 11:0.12906311 12:0.33454399 13:0.032869752 14:0.28345814 15:0.055974754 16:2.7312268e-17 17:0.044908733 18:0.31427959 19:0.32026941 20:0.243017 21:0.044908733 22:0.032616234 23:-6.828067e-18 24:0.035337353 25:0.20744447 26:0.61405534 27:0.13571278 28:0.0074497682 29:-3.3083617e-17 30:1.1579266e-17 31:-6.6167233e-18 32:0.027706591 33:0.45557557 34:0.47604007 35:0.031915783 36:0.0087615933 37:-3.8909291e-17 38:1.3618252e-17 39:-7.7818581e-18 40:0.24794218 41:0.40165043 42:0.29884409 43:0.012388166 44:0.039174821 45:-3.479423e-17 46:1.2177981e-17 47:-6.9588461e-18 48:0.18169182 49:0.35754085 50:0.40033693 51:0.015213912 52:0.019244245 53:-4.2730809e-17 54:0.01075786 55:0.015213912 56:0.24550289 57:0.10538998 58:0.26777602 59:0.039199673 60:0.23552447 61:0.013859177 62:0.092746997 63:-1.1009882e-17 64:0.15338727 65:0.039652458 66:0.041187629 67:0 68:0.20066663 69:0.082209865 70:0.26598499 71:0.21691092 72:1.1698438e-17 73:2.9246096e-18 74:0.029451857 75:0.18182522 76:0.49598645 77:0.13837071 78:0.14078891 79:0.013576635 80:0.026174808 81:0.015314891 82:0.15970107 83:0.46094221 84:0.28883589 85:0.018995785 86:0.030034973 87:3.7726148e-17 88:0.0088444391 89:0.047944021 90:0.65367238 91:0.24531657 92:0.044222196 93:1.571088e-17 94:-7.85544e-18 95:3.92772e-17 96:0.018777653 97:0.19749898 98:0.71864951 99:0.046660569 100:0.018413003 101:1.3083226e-17 102:-6.5416129e-18 103:3.2708065e-17 104:0.062283404 105:0.33514763 106:0.4384061 107:0.076129894 108:0.088032701 109:1.2943936e-17 110:-6.4719681e-18 111:3.2359841e-17 112:0.066332629 113:0.083984239 114:0.45262423 115:0.26417381 116:0.10111497 117:1.0527545e-17 118:0.031769938 119:2.6318864e-17 120:0.018102151 121:0.23465114 122:0.55634943 123:0.068530091 124:0.1138899 125:4.4896166e-18 126:0.0084772561 127:1.1224041e-17 128:0.038518659 129:0 130:0.0098258263 131:0.017513559 132:0.48038064 133:0.25367797 134:0.11818579 135:0.081897507 136:0.012147846 137:0 138:0.0062570976 139:0.062375258 140:0.45955462 141:0.43227025 142:0.027394859 143:3.0827014e-18 144:0.0036446402 145:0.0040748317 146:0.0092291313 147:0.44569904 148:0.50913802 149:0.0040748317 150:0.01837675 151:0.0057626822 152:0.0018460719 153:0.0041279423 154:0.12889629 155:0.78466993 156:0.07220381 157:0.0082558845 158:-3.1973004e-17 159:4.9189237e-18 160:0.0096854824 161:0.016602956 162:0.2358186 163:0.7086694 164:0.029223519 165:3.808461e-17 166:-2.652321e-17 167:4.0804939e-18 168:8.4149813e-18 169:0.017013253 170:0.45933602 171:0.38322543 172:0.10379793 173:0.023836779 174:0.012790571 175:2.6573625e-18 176:0.035999766 177:0.036910078 178:0.080042438 179:0.33820438 180:0.31340183 181:0.044167667 182:0.091347309 183:0.059926524 184:0.07844829 185:0.068696639 186:0.11504615 187:0.035241878 188:0.23438853 189:0.26298097 190:0.10109704 191:0.10410044 192:0.15519164 193:0.065436307 194:0.17156786 195:0.053416124 196:0.052533934 197:0.065568341 198:0.2598333 199:0.17645218 200:0.065036384 201:1.0196791e-18 202:0.029648991 203:9.1771117e-18 204:0.33252714 205:0.37569228 206:0.17359817 207:0.023496919 208:0.010450432 209:-6.6298918e-19 210:0.020504557 211:0.081250739 212:0.81241264 213:0.058491138 214:0.016890449 215:1.5248751e-17 216:0.012127677 217:1.9795102e-18 218:0.017151126 219:0.66833773 220:0.29573863 221:-2.8372979e-17 222:0.00664479 223:1.5176245e-17 224:0.011320963 225:0.015278725 226:0.35783372 227:0.57940849 228:0.025309001 229:0.0072326982 230:0.0036163491 231:1.6518987e-17 232:0.061553095 233:0.1085765 234:0.55783337 235:0.071340617 236:0.097208212 237:0.070892804 238:0.0091155697 239:0.023479629 240:0.073846447 241:0.10345584 242:0.20784292 243:0.1439015 244:0.21254478 245:0.080247979 246:0.15000219 247:0.028157779 248:0.18209283 249:0.05260936 250:0.030668792 251:4.3191308e-16 252:0.086744443 253:0.067765176 254:0.27438755 255:0.30573168 256:0.031595722 257:0.081467635 258:0.3214922 259:0.15746118 260:0.37914866 261:0.017662545 262:0.011170775 263:1.0523489e-17 264:0.2054406 265:0.15895461 266:0.34723022 267:0.02953001 268:0.093382091 269:0.054550262 270:0.081380407 271:0.02953001 272:0.29772375 273:-3.8887031e-17 274:0.32599475 275:2.0221256e-16 276:0.22767111 277:0 278:0.14860411 279:0 280:0.10209833 281:0.1281316 282:0.22686068 283:0.032286326 284:0.30795181 285:0.15096148 286:0.051707648 287:0 288:0.0085572256 289:3.8001716e-17 290:0.11791234 291:0.054120647 292:0.56755419 293:0.17221084 294:0.079643261 295:0 296:0.011796922 297:-4.4530528e-17 298:0.079136156 299:0.1362354 300:0.68670664 301:0.052757438 302:0.033366733 303:0 304:0.045911029 305:0.060075663 306:0.21695114 307:0.16302968 308:0.40698874 309:0.057150659 310:0.032369625 311:0.017522837 312:0.38564128 313:0.17840521 314:0.090141815 315:0.023935163 316:0.15685791 317:0.025387074 318:0.013814423 319:0.12581683 320:0.037488102 321:0.020956486 322:0.12332849 323:0.25740911 324:0.52938264 325:0.031434729 326:-1.1445542e-17 327:6.243023e-18 328:0.025439645 329:0 330:0.071275611 331:0.31895589 332:0.57295137 333:0.011376955 334:-3.3892415e-18 335:-4.5189887e-18 336:-5.1755823e-18 337:-5.1755823e-18 338:0.013029988 339:0.036854371 340:0.91581408 341:0.013029988 342:0.021270875 343:0 344:0.027021187 345:2.3999636e-18 346:0.024168485 347:0.45034411 348:0.48638137 349:0.012084242 350:-2.3999636e-18 351:0 352:0.030360285 353:3.59538e-17 354:0.02262922 355:0.31960594 356:0.57083098 357:0.056573051 358:-3.3706687e-18 359:0 360:0.022165373 361:-2.7069358e-17 362:0.074344921 363:0.21937731 364:0.67172094 365:0.01239082 366:-1.2304254e-18 367:0 368:0.04254466 369:4.1985832e-18 370:0.097510047 371:0.2596671 372:0.58970742 373:0.010570306 374:3.0439729e-17 375:4.1985832e-18 376:0.14036945 377:0.20745707 378:0.23643029 379:0.1121125 380:0.26820037 381:0.018811271 382:0.016618859 383:-1.5655887e-17 
0.2707274598472127 0:0 1:0 2:0 3:0 4:0.33201403 5:0.3638277 6:0.30415785 7:0 8:0 9:0 10:0.033753484 11:0.036266243 12:0.25580215 13:0.35484659 14:0.31933086 15:0 16:0.090362607 17:0 18:0.052563566 19:0.023285911 20:0.24246029 21:0.20489713 22:0.29170602 23:0.094723824 24:0.035783584 25:0.022343319 26:-1.109361e-18 27:0 28:0.27075153 29:0.24490447 30:0.39461836 31:0.031598225 32:0.086677257 33:0.027688034 34:0.062710935 35:0.019578397 36:0.39494272 37:0.22252074 38:0.18588114 39:-5.4989192e-18 40:0.044248992 41:0 42:0.13325164 43:0.1581486 44:0.54088622 45:0.096644792 46:0.026818939 47:-5.6144286e-18 48:0.57464557 49:0.09148629 50:0.061863687 51:0.048764395 52:0.096371551 53:0.011469266 54:0.031299671 55:0.084099488 56:0.75871173 57:0.04372599 58:0.0053696205 59:-3.1992639e-18 60:0.019210938 61:0.013017355 62:0.072133047 63:0.087831289 64:0.0051843471 65:0.0093462146 66:0 67:0.069177693 68:0.4789858 69:0.23603466 70:0.14956097 71:0.051710173 72:0.034085478 73:0 74:0.022554951 75:0.026738849 76:0.38307605 77:0.33446742 78:0.17997513 79:0.019101982 80:0.13017052 81:0 82:0.015535256 83:0 84:0.48382085 85:0.18360703 86:0.12894336 87:0.057922621 88:0.090755794 89:0 90:0.019502411 91:0.070316943 92:0.38725175 93:0.20987691 94:0.17868651 95:0.043608717 96:0.075716153 97:0.014108872 98:0.037140978 99:0.026015475 100:0.34083896 101:0.32855557 102:0.17762317 103:5.6041211e-18 104:0.03084681 105:0.015528545 106:0.081321079 107:0.16256668 108:0.41981695 109:0.17942177 110:0.096878348 111:0.013619435 112:0.19362579 113:0.30796024 114:0.15498713 115:0.11504554 116:0.11627642 117:0.067666699 118:0.0046722978 119:0.039765832 120:0.10826197 121:0.056358251 122:0.076470968 123:0.040756375 124:0.22575595 125:0.22570075 126:0.16229923 127:0.10439648 128:0.038422778 129:0.083884749 130:0.23969452 131:0.33300192 132:0.22217804 133:0.040578392 134:0.013428971 135:0.028810585 136:0.0074249977 137:0.0061874981 138:0.02527546 139:0.095594008 140:0.65573289 141:0.17198537 142:0.037799747 143:-4.3964818e-18 144:9.3291355e-18 145:9.3291355e-18 146:0.021541104 147:0.050371459 148:0.71263902 149:0.14349822 150:0.055342361 151:0.016607765 152:0.0019446758 153:1.0363315e-17 154:-1.3385948e-17 155:0.12186183 156:0.86208317 157:0.011360056 158:0.0027501869 159:-9.499705e-18 160:8.9357025e-18 161:1.0722843e-17 162:0.014689765 163:0.44582732 164:0.53048426 165:0.0089985695 166:3.1721744e-17 167:-9.8292727e-18 168:0.0062955511 169:0.0215838 170:0.56431902 171:0.38214705 172:0.013935796 173:-3.5364211e-18 174:0.01171871 175:-9.7251579e-18 176:0.070508946 177:0.16116153 178:0.29105744 179:0.26242046 180:0.12869446 181:0.0086483494 182:0.060033839 183:0.01747487 184:0.1302123 185:0.10105849 186:0.058015974 187:0.015189295 188:0.28758946 189:0.13272731 190:0.20768026 191:0.067526847 192:0.12824001 193:0.16712323 194:0.079459529 195:0.042687423 196:0.22465884 197:0.11488928 198:0.17890962 199:0.064031135 200:0.071084495 201:2.1045238e-17 202:0.20181655 203:0.082518523 204:0.27772142 205:0.099121983 206:0.19280611 207:0.074929637 208:0.10058932 209:0.054168604 210:0.17378371 211:0.084824363 212:0.41692351 213:0.029989941 214:0.090864187 215:0.04885545 216:0.043975373 217:0.014047418 218:0.062190569 219:0.17225651 220:0.53067983 221:0.056189671 222:0.12065982 223:5.5797111e-18 224:0.055700238 225:0.027677671 226:0.14430015 227:0.36199585 228:0.2413677 229:0.069194177 230:0.080192359 231:0.019571069 232:0.034827489 233:0.038938316 234:0.26618419 235:0.061566884 236:0.36568863 237:0.077876632 238:0.1549163 239:7.733256e-18 240:0.097857022 241:0.021881495 242:0.22591671 243:0.030945108 244:0.31473047 245:0.10940748 246:0.16831465 247:0.030945108 248:0.14295266 249:0.085240498 250:0.29523851 251:1.6928996e-17 252:0.26684497 253:0.042620249 254:0.13696419 255:0.030137067 256:6.5024372e-18 257:0.016370463 258:0.15399997 259:0.069453991 260:0.36229773 261:0.17373074 262:0.22414601 263:-6.5024372e-18 264:0.020907661 265:0 266:0.046750952 267:0.02203861 268:0.56074696 269:0.093501905 270:0.23401431 271:0.02203861 272:0.020698301 273:0 274:0.13409826 275:0.24025927 276:0.50399406 277:0.043907727 278:0.057041502 279:-2.3253852e-17 280:0.0079190842 281:0 282:0.11744494 283:0.025042343 284:0.65193508 285:0.14166088 286:0.055996381 287:0 288:0.04327929 289:0 290:0.096775435 291:0.09043347 292:0.61152867 293:0.096775435 294:0.061206159 295:0 296:0.014641748 297:0 298:0.086186447 299:0.030184737 300:0.79483291 301:0.016369972 302:0.05778309 303:0 304:0.040641126 305:7.5201189e-17 306:0.074175775 307:0.1397419 308:0.57391795 309:0.075730266 310:0.095792052 311:6.9185094e-17 312:1.7005889e-16 313:0 314:0.11483004 315:0.25100741 316:0.50935502 317:0.076453274 318:0.048353296 319:3.3404424e-17 320:0.080620869 321:1.377033e-17 322:0.15281162 323:0.039222396 324:0.47693763 325:0.15581293 326:0.074982572 327:0.019611198 328:0.054727129 329:0 330:0.080535753 331:0.043265595 332:0.47841426 333:0.16233546 334:0.18072084 335:-6.0759319e-18 336:0.0080147476 337:0 338:0.011334565 339:0.12672429 340:0.69447075 341:0.12545064 342:0.034003694 343:-2.8474103e-17 344:0.060792962 345:0 346:0.016992149 347:3.3746873e-18 348:0.71555047 349:0.15292934 350:0.053733894 351:0 352:0.018983264 353:0 354:0.077095 355:0.030015177 356:0.80678874 357:3.7936183e-17 358:0.067115975 359:0 360:0.018280315 361:0 362:0.079245591 363:0.1734223 364:0.59559349 365:0.081752055 366:0.05170454 367:0 368:0.058455557 369:8.1123382e-17 370:0.016338825 371:0.060254609 372:0.63788327 373:0.1960659 374:0.031000741 375:7.4633512e-17 376:0.047623115 377:0.015212646 378:0.099335872 379:0.17211144 380:0.58159275 381:0.030425292 382:0.053697934 383:3.3234004e-17 
0.5753499711333734 0:0.25583486 1:0.16944331 2:0.1296528 3:0 4:0.25211552 5:0.10249954 6:0.090451283 7:0 8:0.31174065 9:0.15113406 10:0.01749798 11:0.016147315 12:0.066597744 13:0.080139845 14:0.086816544 15:0.2699258 16:0.20794313 17:0.15694719 18:0.13190359 19:0.09278274 20:0.22212587 21:0.060450895 22:0.01820455 23:0.10964191 24:0.030004209 25:0.023564739 26:0.012198446 27:0.39092701 28:0.40048276 29:0.07599344 30:0.066829251 31:6.0566116e-18 32:0.029651128 33:-4.608711e-17 34:0.027058741 35:0.35485914 36:0.5135125 37:0.038226809 38:0.036691398 39:8.2298412e-18 40:0.0094106741 41:-5.8508504e-17 42:0.086537936 43:0.46752873 44:0.35750801 45:0.059051148 46:0.019963054 47:1.0447947e-17 48:1.3264134e-16 49:0.050263703 50:0.20715407 51:0.31135615 52:0.38579726 53:0.027828029 54:0.017599991 55:1.3816806e-17 56:0.016995077 57:0.019001074 58:0.25783435 59:0.13435788 60:0.48573865 61:0.038002147 62:0.048069337 63:1.8868326e-17 64:0.026704037 65:0.050588853 66:0.10795507 67:0.41677997 68:0.26756921 69:0.078911623 70:0.034601535 71:0.016889116 72:0.14242505 73:0.060400865 74:0.24348788 75:0.15431932 76:0.10427095 77:0.074647134 78:0.093643388 79:0.12680525 80:0.20521815 81:0.059646955 82:0.2956917 83:0.16727982 84:0.16619025 85:0 86:0.0074898172 87:0.098483177 88:0.090995866 89:-1.3470094e-17 90:0.092023838 91:0.15672988 92:0.47306023 93:0.095165169 94:0.092023838 95:5.3880377e-17 96:0.018828168 97:-1.1148515e-17 98:0.086198749 99:0.17520236 100:0.54393031 101:0.12630319 102:0.049536421 103:4.4594059e-17 104:0.025539451 105:-7.5611963e-18 106:0.06215079 107:0.2474806 108:0.50938841 109:0.068766565 110:0.073213339 111:0.013460472 112:0.0098647488 113:0.011029124 114:0.042874228 115:0.64664779 116:0.2498298 117:0.011029124 118:0.020926292 119:0.0077987687 120:0.01763772 121:0.050004783 122:0.10114719 123:0.36121953 124:0.45606939 125:0.003943914 126:0.0099774009 127:1.2532354e-17 128:0.27699041 129:0.2811318 130:0.11320031 131:0.22297329 132:0.057987298 133:0 134:0.03557197 135:0.012144625 136:0.16066142 137:0.087704362 138:0.075384593 139:0.031472819 140:0.24067537 141:0.077891254 142:0.27421909 143:0.051990587 144:0.075062517 145:0.041675135 146:6.2584925e-18 147:0 148:0.52467972 149:0.15570587 150:0.15359826 151:0.049278328 152:-2.8323365e-17 153:2.5491029e-17 154:0.0035653293 155:0.18482641 156:0.73495669 157:0.053879111 158:0.022772402 159:-5.6646731e-18 160:-2.3037943e-17 161:2.0734149e-17 162:0.021477068 163:0.61802024 164:0.35350143 165:0.0029000033 166:7.7753057e-18 167:0.0041012239 168:0.0025365091 169:0.010244564 170:0.097330684 171:0.83128846 172:0.050016418 173:-1.6896545e-18 174:0.0045727569 175:0.0040105731 176:0.024553426 177:0.027093702 178:0.40409164 179:0.45430902 180:0.078971529 181:0.0061534571 182:0.0048271689 183:-6.0632812e-18 184:0.064389428 185:0.1094549 186:0.33824877 187:0.27972038 188:0.17925639 189:0.01277311 190:0.016156849 191:-1.0147099e-17 192:0.41403233 193:0.075381188 194:0.062461295 195:-6.7404339e-18 196:0.1563335 197:0.0067878561 198:0.10994391 199:0.17505974 200:0.0086157588 201:3.2522407e-17 202:0.0060922615 203:0.013622711 204:0.89559584 205:0.057796267 206:0.018276784 207:1.7217745e-17 208:0.0091488813 209:-9.4801455e-18 210:0.083897955 211:0.1826043 212:0.66548246 213:0.054553388 214:0.004312824 215:4.0629195e-18 216:0.023387086 217:-9.2319579e-18 218:0.024185199 219:0.31281739 220:0.61696427 221:0.011621137 222:0.011024778 223:-1.1539947e-18 224:0.010536851 225:-9.3586037e-18 226:0.038462473 227:0.36477897 228:0.57071567 229:0.011780558 230:0.0037253394 231:-1.1698255e-18 232:0.029877883 233:0.013361795 234:0.071851219 235:0.2089997 236:0.62410069 237:0.028226145 238:0.023582381 239:-1.3268445e-18 240:0.077352644 241:0.0077477813 242:0.051848925 243:0.32033571 244:0.52247399 245:0.012492922 246:0.0077477813 247:-1.5387305e-18 248:0.029395281 249:0.048317283 250:0.21509396 251:0.24896877 252:0.36387286 253:0.061263746 254:0.018239058 255:0.014848778 256:0.3525179 257:0.047298587 258:0.045203296 259:-5.4594887e-18 260:0.032099734 261:0.024223068 262:0.057409254 263:0.44124804 264:0.21302689 265:0.05835903 266:0.12444804 267:0.041266066 268:0.40453375 269:2.3180526e-17 270:0.15836274 271:-4.8679104e-16 272:0.12402308 273:0.037264298 274:0.25184181 275:0.032682951 276:0.35139873 277:0.06933101 278:0.13345594 279:-4.1307984e-16 280:0.097922587 281:0.031280223 282:0.14169385 283:0.044236916 284:0.50360187 285:0.062560446 286:0.1187001 287:-5.8395975e-16 288:0.12794001 289:-1.7045033e-17 290:0.34907558 291:0.040458182 292:0.37102602 293:0.028608255 294:0.082888603 295:-5.340777e-16 296:0.055728247 297:0.013845794 298:0.11668112 299:0.26542354 300:0.454519 301:0.050017261 302:0.043784246 303:-2.5848238e-16 304:0.2177402 305:0.062095848 306:0.11503313 307:0.11246721 308:0.20880539 309:0.062095848 310:0.19745168 311:0.024309472 312:0.36801888 313:0.10982377 314:0.073529547 315:0.11547462 316:0.11884169 317:0.016608632 318:0.16707693 319:0.030624804 320:0.56525242 321:0.093791963 322:0.12708712 323:-1.3621745e-17 324:0.062342408 325:0.013717581 326:0.048420619 327:0.089387115 328:0.34915522 329:0.2399852 330:0.25714948 331:0.032738696 332:0.050264552 333:6.8038605e-18 334:0.046482033 335:0.02422452 336:0.17762517 337:0.019803494 338:0.036503266 339:0.069010569 340:0.291152 341:0.11131771 342:0.18884825 343:0.10573937 344:0.012789291 345:0.0095325748 346:0.0095325748 347:0.13115795 348:0.82317783 349:7.5727816e-18 350:0.013809682 351:-1.6092161e-17 352:0.0037880989 353:0.0042352233 354:0.0095924041 355:0.19802585 356:0.77632258 357:6.7290154e-18 358:0.0080357712 359:-1.4299158e-17 360:0.023474432 361:6.949828e-18 362:0.0055329767 363:0.26100034 364:0.70999217 365:9.5560135e-18 366:2.1718213e-18 367:-1.4768385e-17 368:0.0480064 369:9.593606e-18 370:0.010183695 371:0.56784975 372:0.32477339 373:0.013996151 374:0.027600016 375:0.0075904784 376:0.02607733 377:0.0064789648 378:0.14395977 379:0.42800721 380:0.36454125 381:9.0071808e-18 382:0.030935302 383:-2.1874582e-17 
2.030824032312353 0:0.15140375 1:0.21082396 2:0.25473145 3:0.21661643 4:0.035505555 5:0.055011182 6:0.063866209 7:0.012041156 8:0.020546403 9:0.20014332 10:0.42657776 11:0.1810201 12:0.033885995 13:0.075575596 14:0.062250484 15:0 16:0.23479578 17:0.18434164 18:0.25066801 19:0.075487484 20:0.18177599 21:0.016099979 22:0.056830061 23:0 24:0.13917419 25:0.020746863 26:0.33743825 27:0.17604297 28:0.16700902 29:-3.2963069e-17 30:0.15958694 31:0 32:0.10689101 33:0.071952678 34:0.16785244 35:0.064895164 36:0.26121094 37:0.19917963 38:0.12801651 39:0 40:0.042924823 41:0.041903477 42:0.12633526 43:0.038633097 44:0.53883012 45:0.098922648 46:0.073746351 47:0.038703774 48:0.12709472 49:0.031188024 50:0.31867828 51:0.32565577 52:0.13012782 53:0.048971217 54:0.0075735227 55:0.010710579 56:0.010516196 57:0.0045551463 58:0.58616837 59:0.24559271 60:0.14740563 61:-1.0855974e-17 62:0.005761855 63:-1.809329e-18 64:0.80437968 65:0.068001474 66:0.070688856 67:-2.0496031e-17 68:0.0065932798 69:0 70:0.029486043 71:0.020849781 72:0.49026981 73:0.11711882 74:0.074072446 75:-2.3260118e-17 76:0.034918086 77:0.019519804 78:0.26409947 79:0 80:0.48355288 81:0.073451179 82:0.10839408 83:0 84:0.032848366 85:0.048967453 86:0.25278359 87:0 88:0.72839574 89:0.10858283 90:0.02289127 91:-2.8753128e-17 92:0.048559716 93:0 94:0.091565079 95:0 96:0.57570009 97:0.055969763 98:0.10619516 99:0 100:0.15018263 101:0.055969763 102:0.055969763 103:0 104:0.2098932 105:0.052148384 106:0.084869124 107:0 108:0.14325658 109:0.11228136 110:0.282735 111:0.11481567 112:0.038079598 113:0.0079430082 114:0.0049260446 115:-2.9349777e-18 116:0.017623953 117:0.088960042 118:0.36934796 119:0.4731193 120:0.056451402 121:0.082441899 122:0.25757939 123:0.10281752 124:0.40927266 125:-6.2673646e-17 126:0.091433046 127:5.5152808e-16 128:0.35972172 129:0.10978458 130:0.21138132 131:0.04695954 132:0.029699821 133:0.016602705 134:0.17888965 135:0.04695954 136:0.70596183 137:0.1059636 138:0.013403453 139:-2.5253593e-17 140:0.0094776728 141:0 142:0.1651916 143:0 144:0.68334362 145:0.049290412 146:0.077934985 147:0 148:0.044086685 149:0 150:0.14534182 151:0 152:0.73626634 153:0.068597566 154:0.04338491 155:-2.7247328e-17 156:0.030677764 157:0 158:0.1210686 159:0 160:0.67257526 161:0 162:0.14633308 163:0 164:0.18107795 165:0 166:-2.8719559e-17 167:0 168:0.31775547 169:0.015468176 170:0.10510213 171:0.021875304 172:0.14032573 173:0.080819719 174:0.20927598 175:0.10937652 176:0.11585558 177:0.035807771 178:0.015059584 179:0.034809894 180:0.0093625333 181:0.023426639 182:0.35185253 183:0.41382536 184:0.16829894 185:0.014474149 186:0.018308511 187:0.020469538 188:0.11109204 189:0.014474149 190:0.22810714 191:0.42477467 192:0.14752208 193:0.13104469 194:0.2300582 195:-2.0513103e-17 196:0.13413656 197:0.034429038 198:0.24977321 199:0.073035018 200:0.31414089 201:0.23414679 202:0.17938175 203:-2.5364832e-17 204:0.11423305 205:0.042572144 206:0.11552353 207:0 208:0.2993693 209:0.10127722 210:0.027774097 211:0.062104769 212:0.17675327 213:0 214:0.2706146 215:0.062104769 216:0.32877685 217:0.11857538 218:0.08999239 219:-1.8839516e-17 220:0.11666275 221:0.14229046 222:0.20369986 223:0 224:0.17560222 225:0.060408999 226:0.12571951 227:0 228:0.39172802 229:0.120818 230:0.12571951 231:0 232:0.43389768 233:0.078666868 234:0.19475789 235:0 236:0.14072357 237:-2.0831273e-17 238:0.15195117 239:-2.0831273e-17 240:0.25000993 241:0.011408963 242:0.051680573 243:-9.0634049e-18 244:0.025511217 245:0.034226889 246:0.25628919 247:0.37087271 248:0.04338242 249:0.011412475 250:0.014435766 251:-1.2466018e-17 252:0.031037002 253:-1.1332744e-18 254:0.37217274 255:0.52755947 256:0.095352029 257:0.026397096 258:0.063329298 259:0.053940258 260:0.1727438 261:0.10091029 262:0.29265104 263:0.19467607 264:0.16781531 265:0.092162723 266:0.25478774 267:0.051148644 268:0.27051448 269:0.012371157 270:0.15119932 271:4.4225021e-17 272:0.24631274 273:0.1390056 274:0.16990383 275:0.033670317 276:0.13066002 277:0.073041172 278:0.15575705 279:0.051647908 280:0.11892244 281:0.14504654 282:0.489328 283:0.034187798 284:0.15135583 285:-1.9204426e-17 286:0.061156992 287:8.6419918e-17 288:0.13892525 289:0.15532316 290:0.40776843 291:0.073220038 292:0.20838788 293:-2.0565069e-17 294:0.016372498 295:9.2542809e-17 296:0.15548433 297:0.077260782 298:0.25538401 299:0.14506388 300:0.25999587 301:0.019315196 302:0.087494401 303:5.3704709e-17 304:0.19777819 305:0.016903937 306:0.099688712 307:0.023905777 308:0.16753951 309:0.061064653 310:0.37804295 311:0.055075096 312:0.25661762 313:0.11273089 314:0.020341113 315:0.014711018 316:0.034654948 317:0.027091096 318:0.13033623 319:0.403517 320:0.064178434 321:0.044388039 322:0.050853127 323:0.13212623 324:0.31147394 325:0.18431667 326:0.16065192 327:0.052011433 328:0.0080586467 329:0.0058111728 330:0.051154866 331:0.13506363 332:0.32865697 333:0.40141074 334:0.058447269 335:0.011396647 336:0.0054772453 337:-1.8242891e-18 338:0.061377806 339:0.14880675 340:0.77021542 341:0.014122742 342:7.6012047e-18 343:3.6485783e-18 344:0.0057008052 345:0 346:0.03661628 347:0.11391413 348:0.8417532 349:3.5443325e-17 350:0.002015539 351:3.7974991e-18 352:0.014576297 353:0 354:0.036062857 355:0.25429481 356:0.69184627 357:0.0032197224 358:7.9930709e-18 359:3.836674e-18 360:0.025026739 361:0 362:0.012116802 363:0.35229272 364:0.57757863 365:0.01816805 366:0.014817017 367:1.2349005e-18 368:0.066593953 369:0.16449477 370:0.16325432 371:0.43473869 372:0.1201678 373:0.048486389 374:0.0022640264 375:2.8437846e-18 376:0.016282771 377:0.2000799 378:0.23553365 379:0.21997358 380:0.24991566 381:0.045976143 382:0.032238242 383:-5.7848023e-17 
0.134864650502968 0:0.23525649 1:0.040621053 2:0.017677945 3:0.0048428989 4:0.022273547 5:0.093218016 6:0.20951958 7:0.37659042 8:0.005776401 9:0.021953702 10:0.027585974 11:0.036155166 12:0.41225573 13:0.25303651 14:0.14480039 15:0.098436047 16:0.082712259 17:0.012828899 18:0.018019961 19:0.065617237 20:0.48693633 21:0.036697334 22:0.131466 23:0.16572171 24:0.051311489 25:-1.0259446e-17 26:0.04239246 27:0.31859251 28:0.34111708 29:0.10671811 30:0.12209538 31:0.017772751 32:0.037645259 33:0.051803787 34:0.20254127 35:0.55669528 36:0.14370876 37:-2.8659177e-17 38:0.0076054909 39:4.5377031e-17 40:0.046086942 41:0.18357226 42:0.60571508 43:0.11298042 44:0.047022295 45:-3.4839382e-17 46:0.004622788 47:5.5162355e-17 48:0.5035486 49:0.17279749 50:0.073561792 51:0.034962663 52:0.034746444 53:0.016178916 54:0.04758522 55:0.11661877 56:0.23824322 57:0.2928536 58:0.29434222 59:0.081921617 60:0.080959753 61:0.0058397261 62:0.0058397261 63:3.2473996e-17 64:0.14994022 65:0.089366835 66:0.04413588 67:0.035262571 68:0.15265457 69:0.16690313 70:0.18628655 71:0.17545018 72:0.041797069 73:0.029878124 74:0.028891591 75:0.081161601 76:0.38635921 77:0.22740937 78:0.13078704 79:0.073715951 80:0.038212132 81:0.012897223 82:0.0079749587 83:0.19242268 84:0.59076206 85:0.069526355 86:0.088204486 87:-1.1787134e-17 88:1.615983e-17 89:-1.077322e-17 90:0.027122538 91:0.41432874 92:0.38847235 93:0.13936111 94:0.030715068 95:-1.3466525e-17 96:0.0070438489 97:0.053933889 98:0.19076506 99:0.57555254 100:0.11721003 101:0.023625788 102:0.020731278 103:0.011137303 104:0.036690128 105:0.16077303 106:0.44809517 107:0.28294596 108:0.071495564 109:-3.895343e-17 110:6.5733913e-17 111:-1.2172947e-17 112:0.019774496 113:0.068292525 114:0.36810297 115:0.37477236 116:0.026147946 117:0.042772677 118:0.051295951 119:0.048841046 120:0.032459966 121:0.10702461 122:0.1062714 123:0.054882747 124:0.43706784 125:0.20181273 126:0.038360691 127:0.022119862 128:0.14563153 129:0.2181616 130:0.10395969 131:0.10409312 132:0.2387341 133:0.11098176 134:0.062975386 135:0.015462541 136:0.06927587 137:0.00761538 138:1.6233159e-17 139:0 140:0.24871444 141:0.42771736 142:0.17913167 143:0.06754523 144:-1.2975252e-17 145:0 146:1.2975252e-17 147:0.019654216 148:0.49431114 149:0.37740001 150:0.10093508 151:0.007699532 152:-1.0642491e-17 153:0 154:0.0025517539 155:0.25867447 156:0.71452959 157:0.021016419 158:0.0032277418 159:0 160:0.0095961142 161:5.8494256e-19 162:0.07758931 163:0.86259979 164:0.050214747 165:-4.2700807e-17 166:3.3341726e-17 167:0 168:0.011723448 169:0.063326603 170:0.57120137 171:0.33397838 172:0.017830459 173:-4.4464381e-17 174:0.0019396982 175:0 176:0.028619029 177:0.16899577 178:0.70345255 179:0.02613665 180:0.062476131 181:-9.1650366e-17 182:0.01031971 183:-2.7620658e-17 184:0.11291037 185:0.062155984 186:0.072392226 187:0.010389095 188:0.19997819 189:0.20844513 190:0.23689117 191:0.096837609 192:0.0047128919 193:-1.88365e-17 194:0.017203382 195:0.16489026 196:0.63700488 197:0.090761 198:0.070523667 199:0.014903473 200:0.15706114 201:0.040315078 202:0.26152989 203:0.18033096 204:0.21868921 205:0.027260111 206:0.071670884 207:0.043142288 208:0.1879738 209:0.053396567 210:0.15797873 211:0.043493139 212:0.085282562 213:0.18786811 214:0.24624928 215:0.037757075 216:0.033644334 217:0.070658551 218:0.12430699 219:0.082438592 220:0.35764842 221:0.067148757 222:0.24354384 223:0.020609648 224:0.040159582 225:0.017394014 226:0.16627448 227:0.3638846 228:0.33908862 229:0.010787309 230:0.027289974 231:0.035120935 232:0.092989259 233:0.045485578 234:0.27488585 235:0.10014609 236:0.3224602 237:0.070912788 238:0.077038118 239:0.01608158 240:0.012706044 241:0.028411578 242:0.15160554 243:0.1851368 244:0.40007308 245:0.1113358 246:0.11073033 247:-7.0532712e-17 248:0.063386244 249:0.093475929 250:0.46293132 251:0.091706875 252:0.23364893 253:0.028147154 254:0.026702735 255:-8.3851526e-18 256:3.3670693e-17 257:-2.0202416e-17 258:0.011302528 259:0.057742104 260:0.67586287 261:0.15385511 262:0.10123686 263:-5.3873108e-17 264:4.6049659e-18 265:0.01159341 266:0.14645324 267:0.42212956 268:0.34262132 269:0.03478023 270:0.026026128 271:0.016395558 272:0.010413037 273:0.034926388 274:0.14872505 275:0.29015301 276:0.41800734 277:0.060958981 278:0.036815646 279:-4.6243174e-18 280:0.024242181 281:0.027103582 282:0.12111245 283:0.27759156 284:0.45786867 285:0.040655373 286:0.051425431 287:0 288:0.0058002987 289:0 290:0.051879449 291:0.22822668 292:0.65057471 293:0.038909587 294:0.024608583 295:0 296:0.0051963238 297:-5.7690783e-17 298:0.07279409 299:0.29338461 300:0.60965638 301:0.011619333 302:0.0073487116 303:0 304:0.015388822 305:-2.7336039e-17 306:0.060389322 307:0.41864403 308:0.49410713 309:0.01147015 310:3.9865056e-17 311:-5.0116071e-17 312:0.004392615 313:0.025613127 314:0.1935479 315:0.31951079 316:0.4152409 317:0.019644372 318:0.022049894 319:0 320:0.030551229 321:-1.2210724e-17 322:-8.1404826e-18 323:0.07587237 324:0.63541636 325:0.15689465 326:0.091604055 327:0.0096611468 328:0.02330073 329:0 330:0.0094149167 331:0.45781887 332:0.48713582 333:0.022329436 334:-1.3304061e-17 335:-1.3304061e-17 336:0.025619286 337:0 338:0.045829172 339:0.28385262 340:0.59279889 341:0.022914586 342:0.028984914 343:-4.5508994e-18 344:0.02043603 345:3.0251401e-18 346:0.015232117 347:0.24159535 348:0.64253981 349:0.060928469 350:0.019267274 351:0 352:0.045947071 353:0.02366636 354:0.1012344 355:0.28875826 356:0.50204942 357:0.014677253 358:0.02366636 359:0 360:0.01795055 361:0.01337955 362:0.030035846 363:0.093023821 364:0.78500252 365:0.0267591 366:0.033847881 367:0 368:0.030616342 369:0.027384088 370:0.23385026 371:0.32288381 372:0.35062629 373:3.2631329e-17 374:0.034638436 375:-5.9824103e-17 376:0.31871118 377:0.091561297 378:0.10930378 379:0.11204396 380:0.27046724 381:0.013391334 382:0.06558227 383:0.018938206 
0.2039498358188954 0:0.031785777 1:0 2:0.23981397 3:0.033505151 4:0.53148233 5:0.1184586 6:0.044951877 7:0 8:0.038259839 9:0 10:0.077506707 11:0.25012137 12:0.50702931 13:0.05133096 14:0.075750616 15:0 16:0.0080595747 17:0 18:0.014709858 19:0.15921724 20:0.51197807 21:0.12468672 22:0.16473297 23:0.016615239 24:0.015525376 25:0 26:-2.7578608e-18 27:0.11865387 28:0.72388584 29:0.096041834 30:0.033090334 31:0.012802553 32:0 33:0 34:-2.2755671e-18 35:0.093624751 36:0.58352783 37:0.12051779 38:0.15111422 39:0.051215273 40:0.098894138 41:0 42:-2.2521959e-18 43:1.8017567e-17 44:0.075960667 45:0.11782386 46:0.41010654 47:0.29721466 48:0.24230101 49:0 50:0.077912031 51:0.098541328 52:0.086690252 53:0.061127479 54:0.27906436 55:0.15436296 56:0.027444865 57:0 58:0.39442748 59:2.315714e-16 60:0.43911785 61:0.061368585 62:0.077625802 63:3.90015e-16 64:0.14330641 65:0.10366322 66:0.37553533 67:0.15745469 68:0.082211941 69:0.026668523 70:0.095957871 71:0.015201842 72:0.003592315 73:0.0096597587 74:0.27442799 75:0.54901 76:0.14815731 77:0.0043174253 78:0.0070485405 79:0.0037866324 80:0.023990879 81:0.0077857496 82:0.037473884 83:0.80406939 84:0.083717845 85:0.015619067 86:0.02734316 87:0 88:0.0070924224 89:0.0077207517 90:0.042483566 91:0.84964194 92:0.074244332 93:0.0051471678 94:0.0100302 95:0.0036395973 96:0.0084375556 97:1.2490091e-17 98:0.069712992 99:0.78741817 100:0.12730925 101:0.0031444913 102:0.0039775019 103:-2.4980183e-18 104:0.0081804503 105:0.046587462 106:0.22928251 107:0.57359969 108:0.12629873 109:0.0060973476 110:0.0099536489 111:2.4218998e-18 112:0.075407342 113:0.012810544 114:0.041569026 115:0.018116846 116:0.50143593 117:0.14867343 118:0.17277367 119:0.029212536 120:0.30080248 121:0.014767592 122:0.018679691 123:6.1590567e-16 124:0.099064019 125:0.18717494 126:0.27508774 127:0.10442265 128:0.35565439 129:0.37911406 130:0.11493982 131:0.019500486 132:0.031065576 133:0.014008436 134:0.071094334 135:0.014622853 136:0.2027279 137:0.09606197 138:0.14928843 139:0.097621451 140:0.16501931 141:0.073361944 142:0.17620473 143:0.039713447 144:0.077704441 145:0.052125724 146:0.27690934 147:0.081182965 148:0.32111015 149:0.086876206 150:0.054945337 151:0.049144604 152:0.12322929 153:0.070213824 154:0.12534811 155:0.0849119 156:0.44019632 157:0.018173329 158:0.13792587 159:-2.1655637e-17 160:0.031971374 161:-4.354097e-16 162:0.092874462 163:0.098281338 164:0.63049978 165:0.086084921 166:0.060285802 167:-4.7327141e-17 168:0.093833883 169:-4.7921207e-16 170:0.075990299 171:0.1483644 172:0.5630033 173:0.026227368 174:0.092577942 175:-2.0835307e-17 176:0.070900868 177:0.019817395 178:0.11687044 179:0.028026029 180:0.35450434 181:0.11890437 182:0.23492288 183:0.056052058 184:0.034404335 185:0.012821739 186:-2.2917891e-17 187:-5.0928646e-18 188:0.11747264 189:0.1104266 190:0.51990512 191:0.20496888 192:0.36401267 193:0.042701117 194:0.003737982 195:-5.8689774e-18 196:0.15984513 197:0.060931858 198:0.062468361 199:0.30630275 200:-7.6401977e-17 201:0 202:0.014248056 203:-2.2354653e-16 204:0.46903696 205:0.14568499 206:0.29042998 207:0.080599177 208:0.0077013537 209:0 210:0.35177152 211:0.15352259 212:0.46978258 213:0.01722075 214:-8.5502202e-18 215:2.2230572e-16 216:-8.4415268e-17 217:0 218:0.083264215 219:0.12022112 220:0.7007514 221:0.068007337 222:0.027754738 223:2.194797e-16 224:-8.6984425e-17 225:0 226:0.032443112 227:0.045881489 228:0.8789718 229:0.032443112 230:0.010259413 231:1.9652037e-16 232:0.007224033 233:0 234:0.068892938 235:0.11422199 236:0.6837483 237:0.064613716 238:0.061297953 239:2.1494371e-16 240:0.0071557806 241:0 242:-1.5889025e-17 243:0.04525713 244:0.66646038 245:0.13780622 246:0.14331945 247:2.0020171e-16 248:0.040018342 249:0 250:-2.2214642e-18 251:-4.4429285e-18 252:0.22769666 253:0.23120291 254:0.32366981 255:0.17741176 256:0.045912341 257:0.067514264 258:0.039475776 259:-7.2531543e-18 260:0.074126395 261:0.14448213 262:0.30473637 263:0.3237525 264:0.017908869 265:1.0604181e-17 266:0.030233127 267:0.037755212 268:0.40943169 269:0.26262752 270:0.20428764 271:0.037755212 272:0.030219651 273:1.3420221e-17 274:0.038261819 275:0.12671263 276:0.71138779 277:0.050679896 278:0.04273704 279:-1.274921e-16 280:0.028923742 281:1.7126296e-17 282:0.064675454 283:0.030488301 284:0.67488732 285:0.064675454 286:0.13634783 287:-1.6269981e-16 288:4.4690776e-18 289:0.067507797 290:0.16071972 291:0.073316223 292:0.65575851 293:1.7876311e-17 294:0.04269568 295:-1.8770126e-16 296:0.020469603 297:1.818066e-17 298:0.1699765 299:0.074564453 300:0.69762739 301:0.022885712 302:0.014474195 303:-1.6362594e-16 304:0.018880122 305:0.028144825 306:0.22054419 307:0.099506981 308:0.42328636 309:0.11029049 310:0.099346224 311:-1.1179278e-16 312:0.34283119 313:0.029546543 314:0.0096733862 315:0 316:0.092762608 317:0.056972268 318:0.23937542 319:0.22883834 320:0.11432914 321:0.087013439 322:0.090173902 323:0.1223227 324:0.23577033 325:0.19121175 326:0.080897291 327:0.078281426 328:0.24880435 329:-1.6331853e-17 330:0.074016677 331:0.027962508 332:0.16880296 333:0.16123859 334:0.29010045 335:0.029074032 336:0.21397176 337:0.086419847 338:0.12983339 339:7.601804e-17 340:0.39209373 341:0.04784554 342:0.12983339 343:0 344:0.098696442 345:0.010509141 346:0.023802269 347:0.58520199 348:0.22089204 349:0.010509141 350:0.050388526 351:0 352:0.07771186 353:-1.3804399e-17 354:0.022871958 355:0.27149216 356:0.60275009 357:8.8003046e-17 358:0.025173625 359:-6.9021997e-18 360:0.29980064 361:0.013407492 362:0.12146711 363:0.0483414 364:0.33672984 365:0.12089528 366:0.059357498 367:5.3255291e-18 368:0.18948289 369:0.0091540048 370:0.33625228 371:0.14407687 372:0.1741774 373:0.084840299 374:0.062015904 375:-3.6360207e-18 376:0.17702746 377:0.2385169 378:0.43765652 379:0.013066301 380:0.059589248 381:0.029899544 382:0.011155311 383:0.033088671 
1.624898410211385 0:0.0055458886 1:0.0049989964 2:0.04064007 3:0.73634556 4:0.15107834 5:0.036783406 6:0.018891121 7:0.0057165711 8:0.017298316 9:0.002947489 10:0.027421209 11:0.33346754 12:0.5556954 13:0.039314986 14:0.015518267 15:0.0083367578 16:0.0033519514 17:0 18:0.011979147 19:0.11106991 20:0.82863946 21:0.021001219 22:0.023958294 23:0 24:1.0083723e-18 25:0.0025386666 26:0.019601328 27:0.06167341 28:0.87630641 29:0.02542981 30:0.014450344 31:0 32:0.010409543 33:0.0081660539 34:0.011406839 35:0.09343848 36:0.7881518 37:0.060103399 38:0.028323855 39:0 40:0.0040480193 41:0.0045258231 42:0.029422281 43:0.1013524 44:0.70562935 45:0.14319855 46:0.011823494 47:0 48:0.031105952 49:0.0097647047 50:0.022116188 51:0.1842996 52:0.64875798 53:0.09777944 54:0.0061757415 55:0 56:8.3291512e-18 57:0 58:0.1634507 59:0.097975976 60:0.69663277 61:0.041938754 62:5.4139483e-17 63:0 64:0.21003583 65:0.13372027 66:0.23628675 67:0.12446606 68:0.10631382 69:0.044573423 70:0.081566603 71:0.06303634 72:0.27687266 73:0.06191061 74:0.2177078 75:0.058369883 76:0.23186337 77:0.04127374 78:0.11200019 79:-2.4591232e-17 80:0.33437431 81:0.10103834 82:0.15336541 83:9.6319149e-17 84:0.14142326 85:0 86:0.24121906 87:0.028577957 88:0.20514121 89:0.088856065 90:0.1275999 91:0 92:0.24072899 93:0.031663905 94:0.25442646 95:0.051582439 96:0.25071841 97:0.11911071 98:0.11100168 99:0 100:0.14500261 101:0.21305551 102:0.13563539 103:0.025474361 104:0.19026088 105:0.032157694 106:0.02406956 107:0.038885275 108:0.083770995 109:0.35167128 110:0.15981334 111:0.11937074 112:0.10641132 113:0.019787758 114:0.06705905 115:0.10055949 116:0.061204955 117:0.22879693 118:0.059810702 119:0.35636969 120:0.15465058 121:0.13863125 122:0.21216547 123:7.848989e-17 124:0.31109376 125:0.074101974 126:0.10935447 127:3.237708e-16 128:0.55809089 129:0.083775643 130:0.13200435 131:3.0397992e-16 132:0.093341172 133:0 134:0.067192251 135:0.065593489 136:0.47643078 137:0.068991376 138:0.12480974 139:1.3701876e-16 140:0.07199239 141:0 142:0.22525071 143:0.032522846 144:0.57010416 145:0.20128289 146:0.13552253 147:1.0660089e-16 148:4.6637888e-16 149:0 150:0.093088366 151:-8.8834073e-18 152:0.48249957 153:0.13077598 154:0.18609748 155:0 156:0.043863598 157:0 158:0.15675898 159:-1.2986234e-17 160:0.34130209 161:0.050878311 162:0.20503054 163:0.071952798 164:0.09101389 165:0.076317467 166:0.16350225 167:-1.0104572e-17 168:0.16673632 169:0.095025152 170:0.17226225 171:0.021588426 172:0.14642017 173:0.07975983 174:0.27503005 175:0.043176852 176:0.57488084 177:0.064735885 178:0.062895519 179:0.058048271 180:0.011820807 181:0.021813673 182:0.035424278 183:0.1703807 184:0.034613275 185:-6.6380167e-18 186:0.01694875 187:0.17985365 188:0.65363481 189:0.020061613 190:0.023084376 191:0.071803504 192:0.37421674 193:0.11582255 194:0.10493111 195:3.0363532e-16 196:0.21754917 197:0.023164511 198:0.098794579 199:0.065519131 200:0.33262035 201:0.14320424 202:0.18359022 203:1.4220377e-16 204:0.085390512 205:0 206:0.25519234 207:0 208:0.47890324 209:0.11639785 210:0.088339756 211:1.1096127e-16 212:4.1610475e-16 213:0.02327957 214:0.29307736 215:0 216:0.46449291 217:0.055654392 218:0.13342398 219:0 220:0.13689171 221:0 222:0.20953384 223:0 224:0.29757093 225:0.092000404 226:0.2061162 227:0.026021644 228:0.06583013 229:0.018400081 230:0.18997265 231:0.10408658 232:0.22019206 233:0.15427383 234:0.29852389 235:0.052980656 236:0.13403163 237:0.01873149 238:0.094774678 239:0.026490328 240:0.62769302 241:0.025122485 242:-4.5997593e-18 243:9.1995186e-19 244:9.1995186e-18 245:-5.5197112e-18 246:8.2795667e-18 247:0.34718447 248:0.75459814 249:2.2425748e-17 250:0.033838116 251:0.019961204 252:0.069435155 253:0 254:0.038301577 255:0.0838656 256:0.43794986 257:0.12245863 258:0.23703545 259:2.2930869e-16 260:0.086059545 261:0 262:0.091754878 263:0.02474038 264:0.14254687 265:0.063264472 266:0.34440539 267:1.4428398e-16 268:0.24177392 269:0.024216515 270:0.18379043 271:0 272:0.45191273 273:0.1036418 274:0.13109766 275:1.2350127e-16 276:0.034762518 277:0 278:0.27858254 279:0 280:0.27780279 281:0.065387991 282:-3.2465584e-17 283:0 284:0.24856039 285:0.065387991 286:0.34285647 287:0 288:0.16179671 289:0.068383649 290:0.043249617 291:0.024177271 292:0.18597398 293:0.078854067 294:0.29968201 295:0.13788149 296:0.51161026 297:0.068883525 298:0.034441762 299:4.5601521e-18 300:0.082148397 301:-2.0520684e-17 302:0.15804051 303:0.14487501 304:0.73069648 305:0.084363942 306:0.0044993717 307:8.935875e-19 308:9.8294625e-18 309:-4.9147313e-18 310:0.022011419 311:0.15842876 312:0.38486858 313:0.22181929 314:0.15743491 315:0.070108414 316:0.1212677 317:2.3289984e-18 318:0.044500534 319:7.4527949e-17 320:0.16879639 321:0.066770701 322:0.090299891 323:0.11424037 324:0.2384503 325:0.11620093 326:0.1454769 327:0.059763837 328:0.12069406 329:0.10523702 330:0.30434102 331:0.03983536 332:0.20785128 333:0.059660471 334:0.16237999 335:-1.3985532e-17 336:0.13958537 337:-3.3060458e-17 338:0.29765138 339:0.21493143 340:0.19541952 341:0.020808159 342:0.13160235 343:-2.0662786e-17 344:0.13953056 345:0.038999978 346:0.35693138 347:0.13577715 348:0.24559365 349:0.038999978 350:0.044165741 351:-1.9363755e-17 352:0.20989843 353:0.041572697 354:0.23814442 355:0.3355053 356:0.14094311 357:0.012891146 358:0.021044223 359:-1.7921518e-17 360:0.30246428 361:0.12967594 362:0.2511795 363:0.13952387 364:0.066278996 365:0.0064160447 366:0.018589634 367:0.085871566 368:0.7500748 369:0.03729046 370:0.02969487 371:0.016311868 372:0.016317671 373:0.03197691 374:0.013358392 375:0.10497501 376:0.15506227 377:0.083713229 378:0.10190227 379:0.17963058 380:0.35233399 381:0.016043941 382:0.062368649 383:0.048944814 
1.408898218129391 0:0.35658022 1:0.15838234 2:0.064068307 3:0.070084432 4:0.075581996 5:0.00536779 6:0.11459361 7:0.15534127 8:0.72151416 9:0.2182146 10:0.053490712 11:-1.3145535e-17 12:-2.92123e-18 13:0 14:-1.752738e-17 15:0.0067804733 16:0.43393598 17:0.44724212 18:0.091504078 19:0.01282798 20:-4.2314526e-18 21:0 22:-2.5388716e-17 23:0.014489725 24:0.005669095 25:0.07114614 26:0.37810276 27:0.21940199 28:0.2509215 29:0.038029445 30:0.036728415 31:5.0351678e-18 32:0.027087051 33:0.030284244 34:0.24162301 35:0.16941886 36:0.4191225 37:0.045426366 38:0.067037032 39:6.0145336e-18 40:0.11820085 41:0.10403381 42:0.56839856 43:-1.0847235e-16 44:0.20936401 45:0 46:-1.446298e-16 47:1.03307e-17 48:0.033172889 49:7.2676495e-16 50:0.47527377 51:0.06993459 52:0.30961363 53:0.049451223 54:0.062551399 55:9.8211479e-18 56:0.12124296 57:0.11202644 58:0.17146345 59:0.068696359 60:0.45619762 61:0.024287831 62:0.046082919 63:9.6472591e-18 64:0.22846703 65:0.15680748 66:0.057302335 67:0.090430311 68:0.084967348 69:0.021825838 70:0.11429344 71:0.24590619 72:0.54411021 73:0.27952647 74:0.083521713 75:6.0714105e-18 76:1.2142821e-17 77:-3.0357052e-18 78:0.024478962 79:0.068362589 80:0.38648566 81:0.21785661 82:0.15686556 83:0.14184906 84:1.6098811e-17 85:0.021380344 86:0.036286055 87:0.039276604 88:0.3402041 89:0.070248721 90:0.24749707 91:0.033115564 92:0.052360305 93:0.02341624 94:0.23315576 95:3.6739181e-16 96:0.13342608 97:0 98:0.20272072 99:9.4804931e-17 100:0.43129387 101:0.089504934 102:0.14305076 103:4.6809935e-16 104:0.30108849 105:0.033662717 106:0.39559563 107:0.12436908 108:0.090326548 109:0.033662717 110:0.021290172 111:5.281551e-16 112:0.28440381 113:0.033470856 114:0.084675312 115:1.0635846e-16 116:0.53393894 117:-2.6589614e-17 118:0.063506484 119:5.2514487e-16 120:0.099619978 121:0.037126174 122:0.53403029 123:1.1797375e-16 124:0.2822566 125:-2.9493438e-17 126:0.046961308 127:5.824954e-16 128:0.26684935 129:0.012245357 130:0.027288486 131:0.26791445 132:0.2229326 133:0.015989811 134:0.11116714 135:0.07561277 136:0.26296444 137:0.38274423 138:0.2122124 139:0.0048787864 140:0.0046284232 141:0 142:0.0090124953 143:0.12355918 144:0.0652054 145:0.09105142 146:0.062678992 147:0.055681599 148:0.44347227 149:0.18475712 150:0.065793047 151:0.031360106 152:-1.9066854e-17 153:-1.4300141e-17 154:0.0076581835 155:0.078584081 156:0.82419 157:0.080485913 158:0.0090818056 159:6.9334016e-18 160:0.0010709896 161:0.010144559 162:0.014368833 163:0.19755331 164:0.75992281 165:0.011584523 166:0.0053549478 167:7.6098386e-18 168:0.010746821 169:0.0080102076 170:0.043290452 171:0.24903153 172:0.64387566 173:0.036327764 174:0.0087175385 175:8.4845287e-18 176:0.068339142 177:0.047047157 178:0.084496008 179:0.10624322 180:0.49821179 181:0.15113174 182:0.044530818 183:1.7637898e-17 184:0.050156193 185:0.022430531 186:0.20091051 187:0.041359856 188:0.47433096 189:0.089722125 190:0.12108776 191:7.1276237e-17 192:0.48251934 193:0.340571 194:0.02219493 195:0.012577951 196:0.016438695 197:0.0030421883 198:0.0091265648 199:0.1135293 200:0.50610578 201:0.19193958 202:0.068350617 203:0.045659945 204:0.028321961 205:0.0044717263 206:0.0056563361 207:0.14949397 208:0.14234936 209:0.049297985 210:0.26973384 211:0.063761894 212:0.31383719 213:0.049297985 214:0.034523684 215:0.077197303 216:0.028659047 217:0.020798666 218:0.26396132 219:0.27609008 220:0.32039835 221:0.023253615 222:0.066838475 223:-7.0221422e-17 224:0.020062881 225:-2.3666978e-16 226:0.083521681 227:0.46534814 228:0.37471766 229:0.021279899 230:0.025038086 231:0.01003144 232:0.052452042 233:0.0078190887 234:0.06094771 235:0.073029939 236:0.56410205 237:0.20415848 238:0.037490444 239:-5.2798341e-17 240:0.015920057 241:0.012742262 242:0.055173311 243:0.12667406 244:0.57278296 245:0.098570025 246:0.076996533 247:0.041140714 248:0.10483383 249:0.046841467 250:0.077823731 251:0.050840019 252:0.19699149 253:0.30589696 254:0.1605504 255:0.056221674 256:0.14372766 257:0.10131498 258:0.24344395 259:0.022682878 260:0.032199222 261:0.078645015 262:0.27411832 263:0.10386797 264:0.028770117 265:0.095572931 266:0.12389428 267:0.063077689 268:0.64356654 269:0.045118424 270:0 271:8.1119765e-18 272:-1.4437596e-17 273:0.013917714 274:0.015970445 275:0.092931062 276:0.87718076 277:-9.3649271e-18 278:1.7559238e-18 279:1.9510265e-17 280:0.0021893686 281:5.8336499e-18 282:0.01078139 283:0.19064836 284:0.76436874 285:0.017179385 286:0.014832728 287:2.2362324e-17 288:0.011292009 289:0.0025249699 290:0.023066543 291:0.23884836 292:0.65643587 293:0.060651441 294:0.0025249699 295:0.0046558144 296:0.0074206378 297:7.2499354e-18 298:0.0095488447 299:0.22669105 300:0.71031166 301:0.026879521 302:0.019148243 303:3.0317912e-17 304:0.037743357 305:0.029395005 306:0.10668279 307:0.24017521 308:0.35181346 309:0.16698148 310:0.044599672 311:0.022608826 312:0.11269931 313:0.054647475 314:0.23931131 315:0.068451054 316:0.21667615 317:0.13495545 318:0.11492628 319:0.058332632 320:0.26304878 321:0.13084312 322:0.36238154 323:0.0858263 324:0.049332374 325:0.041146765 326:0.032819308 327:0.034601646 328:0.50940914 329:0.096109765 330:0.14356452 331:0.014741625 332:0.043468382 333:0 334:0.095298172 335:0.097407952 336:0.29698917 337:0.23321652 338:0.16464652 339:0.042495284 340:0.11890111 341:0.038698365 342:0.045171396 343:0.059881222 344:0.10521749 345:0.076786366 346:0.13213174 347:0.014265092 348:0.33854303 349:0.19839307 350:0.13466279 351:4.0065889e-18 352:0.094000498 353:0.035880194 354:0.08248385 355:0.081267047 356:0.53194619 357:0.12387783 358:0.032229607 359:0.018314379 360:0.029938334 361:0.0083680188 362:0.07035148 363:0.16474525 364:0.67212235 365:0.030229062 366:0.024245218 367:3.3238228e-18 368:0.054958552 369:0.01010428 370:0.042056819 371:0.34022585 372:0.42026511 373:0.083106724 374:0.049282238 375:4.0134752e-18 376:0.048139117 377:0.010764234 378:0.0459085 379:0.039769155 380:0.61634248 381:0.18350808 382:0.055567964 383:8.551225e-18 
0.2221697317818063 0:0.044479231 1:0 2:0.081180859 3:0.08457347 4:0.62131102 5:0.099458585 6:0.068995708 7:0 8:0.0073029631 9:0.008164961 10:0.075971298 11:0.39353089 12:0.49953769 13:0 14:0.015491924 15:0 16:0.0069905333 17:0 18:0.044021323 19:0.5027601 20:0.40588122 21:0.015631308 22:0.024715267 23:0 24:0.0069548057 25:0 26:0.023327127 27:0.31236807 28:0.64465625 29:0.0077757092 30:0.0049177903 31:0 32:0.0068007612 33:0 34:0.069513115 35:0.43480399 36:0.44885024 37:0.030413929 38:0.0096177288 39:0 40:0.011534722 41:0.04158903 42:0.11613552 43:0.34859309 44:0.41790909 45:0.021961456 46:0.033157923 47:0.0091189982 48:0.040955387 49:0 50:0.11135446 51:0.22258946 52:0.22000356 53:0.26126713 54:0.086704866 55:0.057125056 56:0.0098153778 57:0.026084724 58:0.090484857 59:0.21608224 60:0.46238626 61:0.11014601 62:0.069480932 63:0.015519475 64:0.060968776 65:0 66:0.063049408 67:0.29692821 68:0.52575779 69:0 70:0.038825852 71:0.014469541 72:0.19372487 73:0 74:0.02262711 75:0.13337583 76:0.15230189 77:0.074489578 78:0.28026888 79:0.14321145 80:0.014377737 81:0.010716532 82:0.076540408 83:0.53171478 84:0.34237808 85:0.010716532 86:0.01355546 87:1.9154994e-17 88:0.023392161 89:0 90:0.13769444 91:0.36974331 92:0.43955202 93:0.013076616 94:0.016540756 95:2.3373464e-17 96:0.047174664 97:0 98:0.23140547 99:0.37682005 100:0.3223602 101:0 102:0.02223835 103:3.1424639e-17 104:0.068354532 105:0.021835054 106:0.45267867 107:0.14228256 108:0.27341813 109:0 110:0.041429103 111:3.9028513e-17 112:0.29299965 113:0.17698507 114:0.34079687 115:-2.2639437e-16 116:0.052019879 117:0 118:0.13719632 119:4.158264e-17 120:0.26856937 121:0.041851495 122:0.066679721 123:-6.6813964e-17 124:0.20935798 125:0.016020008 126:0.30689753 127:0.09062285 128:0.36691155 129:0.12068705 130:0.073110398 131:0.032695964 132:0.28379157 133:0 134:0.090105314 135:0.032695964 136:0.62050869 137:0.018603279 138:0.24104289 139:0 140:0.058237475 141:0 142:0.03529724 143:0.02630901 144:0.33476387 145:0 146:0.32532563 147:-9.6632263e-17 148:0.18412013 149:0 150:0.15578464 151:0 152:0.32448283 153:0 154:0.29201965 155:3.9299815e-17 156:0.38347971 157:0 158:0 159:0 160:0.28639629 161:0 162:0.16876063 163:-7.4191544e-17 164:0.47732715 165:0 166:0.067504254 167:0 168:0.29374311 169:-7.2471192e-18 170:0.198041 171:-3.6235596e-17 172:0.27742405 173:0 174:0.23078638 175:0 176:0.18253336 177:0.094945347 178:0.2742111 179:0.03178132 180:0.080401087 181:0.022472787 182:0.31365293 183:0 184:0.13755014 185:0.12711259 186:0.30789163 187:3.0542267e-17 188:0.16334079 189:0.038446433 190:0.19847116 191:0.027185734 192:0.037894541 193:0.014455722 194:0.05418637 195:0.050158731 196:0.44277885 197:0.19642027 198:0.19075484 199:0.013350555 200:0.15782241 201:0 202:0.36160348 203:0.055453143 204:0.35071647 205:0 206:0.074398198 207:-3.114988e-17 208:0.20504242 209:0 210:0.24883052 211:0.064840106 212:0.38958059 213:0.091697757 214:-5.4634275e-17 215:0 216:0.322578 217:0 218:0.35481769 219:9.5502272e-17 220:0.322578 221:0 222:-1.1141932e-16 223:0 224:0.28192553 225:0 226:0.11391512 227:-7.1542906e-17 228:0.60412613 229:0 230:-1.2520009e-16 231:0 232:0.1504354 233:0.030135766 234:0.16355249 235:-1.1970091e-17 236:0.3908366 237:0.12054306 238:0.14449296 239:0 240:0.27235915 241:0.07109813 242:0.11815326 243:-5.6666893e-17 244:0.10508441 245:0.087694731 246:0.17945612 247:0.16615304 248:0.30752223 249:0.075646189 250:0.10229295 251:2.9445054e-17 252:0.21268864 253:0.043616628 254:0.19525758 255:0.062975049 256:0.16966345 257:0.28241441 258:0.13787044 259:0.15327473 260:0.020663457 261:0.014542191 262:0.098946312 263:0.12262488 264:0.1877536 265:0.064589201 266:0.22798839 267:0.091342924 268:0.34662202 269:0 270:0.081699594 271:1.0262073e-16 272:0.090375401 273:-6.4215585e-16 274:0.35666301 275:-1.0033685e-16 276:0.451877 277:0.10104277 278:1.7057265e-16 279:4.013474e-16 280:0.36550907 281:-8.6569939e-16 282:0.086151315 283:2.9758416e-16 284:0.54826361 285:0 286:2.0289829e-16 287:5.4106212e-16 288:0.11614753 289:-5.501852e-16 290:0.054752469 291:1.7193288e-17 292:0.77431684 293:0 294:0.054752469 295:3.4386575e-16 296:0.27442885 297:0.16735679 298:0.080815663 299:1.6618758e-17 300:0.17463654 301:0.027892799 302:0.27486617 303:1.1079172e-16 304:0.27696603 305:0.16644852 306:0.17887845 307:0.026154862 308:0.082708936 309:0.10379825 310:0.13888868 311:0.026154862 312:0.24515371 313:0.15271965 314:0.33401149 315:0.028371701 316:0.14355071 317:1.5937331e-17 318:0.096191084 319:7.5702321e-17 320:0.056750248 321:0.04694124 322:0.11585128 323:0.21159405 324:0.53174615 325:0.0034672003 326:0.033649789 327:1.3771909e-18 328:0.083782979 329:0.019553462 330:0.18459013 331:0.26881827 332:0.26290512 333:0.064648161 334:0.11570149 335:-7.7667421e-18 336:0.09500943 337:0.061667657 338:0.311635 339:0.076908901 340:0.23224527 341:0.11802641 342:0.10450504 343:0 344:0.10438583 345:6.1808829e-17 346:0.024603976 347:2.6268752e-16 348:0.78289374 349:0.038902303 350:0.049207953 351:0 352:0.06180845 353:7.3195908e-17 354:0.15041216 355:2.1958772e-16 356:0.7417014 357:0.046069298 358:2.7448466e-17 359:0 360:0.2888741 361:0.088083018 362:0.11141718 363:1.5161058e-16 364:0.31513538 365:0 366:0.19648678 367:0 368:0.60262022 369:0.03093566 370:0.029348144 371:3.3791487e-17 372:0.048421968 373:0.03093566 374:0.21398774 375:0.043749631 376:0.097244984 377:0.051191478 378:0.070651749 379:0.093845998 380:0.58395916 381:0.043179133 382:0.050454131 383:0.0094732558 
0.1504533481076059 0:0 1:0 2:0.013396424 3:0.039425019 4:0.83747277 5:0.086062105 6:0.023643496 7:0 8:0 9:0 10:0 11:0.11709949 12:0.83046792 13:0.048688531 14:0.0037439141 15:0 16:0.010240423 17:0 18:0 19:0.036205361 20:0.84129978 21:0.080524795 22:0.023633747 23:0.0080957649 24:0 25:0 26:0 27:0.013964908 28:0.92993628 29:0.027359028 30:0.028739545 31:0 32:0.013340193 33:0.0074573944 34:0.0094329407 35:0.18747945 36:0.73085341 37:0.014914789 38:0.036521594 39:0 40:0.033330138 41:0 42:0.060073985 43:0.35932228 44:0.40967824 45:0.074019992 46:0.063575098 47:0 48:0.019972042 49:0.0089317689 50:0.0459296 51:0.29004528 52:0.49879329 53:0.10388344 54:0.032444253 55:0 56:0.025386352 57:0 58:0.07036809 59:0.26973873 60:0.59801858 61:0.018537176 62:0.017950862 63:0 64:0.02386615 65:0.014072994 66:0.018288478 67:0.16642027 68:0.54218976 69:0.14776392 70:0.087398414 71:0 72:0.052234062 73:0.16024462 74:0.23683331 75:0.067447105 76:0.35782205 77:0.051555197 78:0.043251513 79:0.030612111 80:0.022050681 81:0.029446921 82:0.13724733 83:0.33768082 84:0.41658241 85:0.024257576 86:0.032734208 87:1.4924012e-18 88:0.023226785 89:0.01562882 90:0.049725166 91:0.36259023 92:0.49181534 93:0.033585147 94:0.02342847 95:1.2763999e-18 96:0.011204679 97:0.0071744954 98:0.032471902 99:0.48142655 100:0.37064803 101:0.041374371 102:0.055699949 103:9.9517544e-19 104:0.047794626 105:0.0559012 106:0.087503976 107:0.20460983 108:0.4879166 109:0.061653775 110:0.016855075 111:0.037764899 112:0.06734713 113:0.020962666 114:0.021858585 115:0.28286179 116:0.3088734 117:0.012709303 118:0.12358789 119:0.16179924 120:0.1267354 121:0.17453903 122:0.03299184 123:0.1051888 124:0.40578361 125:0.10091168 126:0.018540268 127:0.035309377 128:0.10210245 129:0.095683939 130:0.14402112 131:0.080727239 132:0.29852438 133:0.098486007 134:0.073434816 135:0.10702003 136:0.25675825 137:0.18421495 138:0.1922366 139:0.022874991 140:0.080003491 141:0.097078378 142:0.051480655 143:0.11535259 144:0.10610198 145:0.063162978 146:0.15019526 147:0.038850863 148:0.22724265 149:0.14844556 150:0.17376001 151:0.092240504 152:0.059476915 153:0.072587772 154:0.10516753 155:0.23917597 156:0.32421917 157:0.078129567 158:0.077245439 159:0.043997419 160:0.30991106 161:0.095948541 162:0.12509495 163:1.428348e-16 164:0.1862686 165:0.069372469 166:0.15294906 167:0.060454904 168:0.2514814 169:0.11129103 170:0.20708859 171:0.077089042 172:0.13988607 173:0.057127207 174:0.13160062 175:0.024435739 176:0.32805868 177:0.14941147 178:0.14991533 179:-1.9716383e-17 180:0.074479689 181:0.083154102 182:0.044802665 183:0.17017805 184:0.022598821 185:0.47978099 186:0.1782232 187:0.090992694 188:0.14836422 189:0.016745323 190:0.015714858 191:0.047579881 192:0.14067438 193:0.018336687 194:0.070993522 195:0.27579053 196:0.24951099 197:0.048137439 198:0.055198009 199:0.14135841 200:0.28799387 201:0.044603736 202:0.20216914 203:0.019466805 204:0.11280488 205:0.099887919 206:0.1494349 207:0.083638445 208:0.032874814 209:0.021904657 210:0.078241714 211:0.29213784 212:0.39073947 213:0.08297766 214:0.092548392 215:0.008575302 216:0.067628858 217:0.052297044 218:0.075776331 219:0.29010558 220:0.38046898 221:0.077500832 222:0.056222086 223:6.1735006e-17 224:0.11582965 225:0.029897993 226:0.16556424 227:0.15973357 228:0.095351259 229:0.10827533 230:0.20713582 231:0.11821159 232:0.14703986 233:0.035936517 234:0.20893556 235:0.1003406 236:0.35205792 237:0.047915356 238:0.1077736 239:9.7540237e-17 240:0.12595891 241:0.18864517 242:0.23948289 243:0.10594145 244:0.12425415 245:0.030865698 246:0.071563055 247:0.11328863 248:0.032303951 249:0.15430589 250:0.2660789 251:0.17279875 252:0.2230018 253:0.027134569 254:0.078279439 255:0.046096684 256:0.19208745 257:0.21349357 258:0.2531464 259:0.10060696 260:0.13383631 261:0.024716284 262:0.033014987 263:0.049098011 264:0.069656541 265:0.043741806 266:0.15463898 267:0.23530255 268:0.22472539 269:0.096136511 270:0.15984967 271:0.015948404 272:0.099304329 273:0.0748678 274:0.10066546 275:0.11987654 276:0.4290213 277:0.10119723 278:0.035237265 279:0.039829906 280:0.17551999 281:0.039247462 282:0.064069737 283:0.15384662 284:0.47361509 285:0.026164975 286:0.067535432 287:-1.0392871e-17 288:0.26910822 289:0.021268364 290:0.11849395 291:0.069468632 292:0.36432233 293:0.04904965 294:0.082677887 295:0.025610502 296:0.1248835 297:0.050609321 298:0.14205933 299:0.25848734 300:0.27375916 301:0.087027714 302:0.036445642 303:0.026727867 304:0.099883847 305:0.073629374 306:0.20922649 307:0.20504495 308:0.20845377 309:0.038044774 310:0.10321618 311:0.062500593 312:0.037804951 313:0.029935161 314:0.17892418 315:0.20531239 316:0.48608994 317:0.034328885 318:0.020593216 319:0.0070112623 320:0.042256188 321:0.049735357 322:0.22093654 323:0.42373196 324:0.15130467 325:0.07031253 326:0.041722721 327:0 328:0.048133406 329:0.0034739708 330:0.084653096 331:0.26967794 332:0.47604107 333:0.024373914 334:0.08233613 335:0.011310429 336:0.022968724 337:-2.8561116e-18 338:0.067743571 339:0.10008421 340:0.69838527 341:0.076593175 342:0.01031308 343:0.023911911 344:0.006333661 345:-1.4063552e-18 346:0.0093205355 347:0.52608583 348:0.44376695 349:-9.1413091e-18 350:0.0044785746 351:0.010014397 352:0.0061030372 353:-2.710293e-18 354:0.083089451 355:0.55562838 356:0.33617488 357:-1.2648034e-17 358:0.008630998 359:0.010373169 360:0.009922408 361:0.047783573 362:0.051011035 363:0.55293165 364:0.33835111 365:-1.1750492e-17 366:-7.3440572e-17 367:5.8752458e-18 368:0.048258492 369:0.080717181 370:0.17743086 371:0.050225944 372:0.49018153 373:0.024856924 374:0.1283281 375:1.8369493e-17 376:0.028131164 377:9.1832798e-17 378:0.075107391 379:0.10601346 380:0.69149917 381:0.042164555 382:0.057084016 383:2.7549839e-17 
1.731350637044765 0:0.0052725596 1:0.0039299339 2:0.043525321 3:0.56643805 4:0.36559629 5:0.010266762 6:0.0049710169 7:0 8:0.0013064922 9:0 10:0.001847659 11:0.70703692 12:0.28426592 13:5.801991e-19 14:0.0055429771 15:0 16:0 17:0 18:0.031330863 19:0.70043261 20:0.2682365 21:5.2679684e-19 22:2.6339842e-19 23:0 24:0.0012544973 25:0 26:0.0056102827 27:0.83844671 28:0.15188333 29:0.0028051413 30:2.7855437e-19 31:0 32:0.0012107526 33:0 34:0.0051367884 35:0.62536524 36:0.36223342 37:5.3768218e-19 38:0.0060537632 39:0 40:0.020675958 41:0.034066469 42:0.23327512 43:0.36975964 44:0.31096889 45:8.3472453e-19 46:0.019366019 47:0.01188784 48:0.017530256 49:0.0070229151 50:0.039818506 51:0.73011732 52:0.15645472 53:0.041946161 54:0.007110041 55:0 56:0.0037751078 57:-5.0294539e-18 58:0.22794935 59:0.5461418 60:0.20008071 61:0.0084413977 62:0.013611345 63:0 64:0.11936083 65:0.018304395 66:0.07439341 67:0.17680044 68:0.45089278 69:0.036608789 70:0.076944214 71:0.046694798 72:0.13115735 73:0.099460948 74:0.27671582 75:0.36366299 76:0.097212066 77:0 78:0.031790233 79:4.7967588e-18 80:0.081983881 81:0 82:0.39262055 83:0.13941712 84:0.25506096 85:0.020369059 86:0.11054673 87:8.0907015e-18 88:0.20437687 89:0 90:0.24867771 91:-3.6909703e-16 92:0.35425325 93:0 94:0.19268836 95:1.2101542e-17 96:0.16880966 97:0.059600507 98:0.22458567 99:0.084287846 100:0.27542629 101:0.019866836 102:0.16742157 103:7.8912157e-18 104:0.15877834 105:0.080572537 106:0.15004496 107:0.13102696 108:0.30847681 109:0.087342421 110:0.083756721 111:6.9385773e-18 112:0.20758924 113:0.038400572 114:0.23360495 115:0.054306609 116:0.13091755 117:0 118:0.12342872 119:0.21175208 120:2.0546514e-17 121:0 122:0.10437528 123:0.41768018 124:0.42174161 125:0.019397877 126:0.036804885 127:0 128:0.55916099 129:0.088281732 130:0.12470985 131:9.6920002e-18 132:0.049990405 133:0 134:0.11028574 135:0.067570677 136:0.24549772 137:0.047734747 138:0.25519234 139:-2.4174641e-16 140:0.13875958 141:0.047734747 142:0.23132497 143:0.033753563 144:0.41721581 145:0.042405586 146:0.261315 147:-1.0779988e-15 148:0.11378613 149:0 150:0.16527012 151:2.5265596e-17 152:0.41165291 153:0 154:0.079386153 155:-5.5674142e-16 156:0.18711496 157:0.083680353 158:0.23815846 159:2.492872e-17 160:0.36352067 161:0.023596868 162:0.05969588 163:0.033371011 164:0.13718692 165:0.023596868 166:0.28214801 167:0.076881487 168:0.36493302 169:0.060445559 170:0.24048298 171:1.7406747e-16 172:0.18922453 173:0 174:0.14491016 175:2.4009306e-17 176:0.5629181 177:0.04928582 178:0.0029340589 179:-5.5280924e-18 180:-3.6853949e-18 181:1.8426975e-18 182:0.02271964 183:0.36214229 184:2.6396047e-16 185:0 186:0.20994959 187:0.17143694 188:0.44967989 189:0.069403537 190:0.099529463 191:3.7708639e-17 192:0.42913727 193:0.063540053 194:0.19057909 195:0.019481875 196:0.10473207 197:0.013775766 198:0.10231521 199:0.076437885 200:0.35853316 201:0.091930587 202:0.26321156 203:-3.1038032e-16 204:0.17815464 205:0 206:0.10816621 207:1.2171777e-17 208:0.40548697 209:0.24368586 210:0.15412047 211:-2.064925e-15 212:0.14530618 213:0 214:0.051373491 215:3.2264452e-17 216:0.75230802 217:0 218:0.14508057 219:-1.0174616e-15 220:0.10258746 221:0 222:1.5945294e-16 223:3.0371989e-17 224:0.63363007 225:0.036329228 226:0.16083635 227:1.9480727e-16 228:0.14622232 229:0 230:0.022976621 231:7.215084e-18 232:0.40540542 233:0.069442902 234:0.11098673 235:1.3331832e-16 236:0.06211162 237:0.069442902 238:0.24987253 239:0.032735698 240:0.41589877 241:0.031657754 242:0.018994652 243:-7.5447797e-18 244:-1.0059706e-17 245:0.0063315508 246:0.022999077 247:0.50411803 248:0.01232147 249:0 250:0.036264238 251:0.044883315 252:0.5081795 253:0.097596015 254:0.21690746 255:0.083847223 256:0.078846497 257:0.025186589 258:0.28264194 259:0.071238433 260:0.37353277 261:0.025186589 262:0.14336458 263:-5.0021255e-18 264:0.19230632 265:0 266:0.41529888 267:-3.6295494e-16 268:0.25640843 269:0 270:0.13598111 271:0 272:0.20653976 273:0.03552592 274:0.14786874 275:0.050241237 276:0.52429325 277:0.03552592 278:4.9388813e-17 279:0 280:0.27796118 281:0 282:0.10482573 283:-5.5136338e-16 284:0.44473789 285:0.041436007 286:0.13103216 287:0 288:0.26070286 289:0 290:0.18434476 291:1.7366299e-16 292:0.21725238 293:0.19431644 294:0.14337926 295:-6.4319626e-18 296:0.28017189 297:0.086411501 298:0.13090574 299:1.2442131e-16 300:0.22038309 301:0.043205751 302:0.23892012 303:0 304:0.46671837 305:0.091520539 306:0.03526378 307:-1.1073479e-17 308:0.04571464 309:3.6911597e-18 310:0.043048585 311:0.31773373 312:0.077600288 313:0.026366184 314:0.033350878 315:1.0472792e-17 316:0.4804202 317:0.15102815 318:0.19394617 319:0.037287415 320:0.02371508 321:0 322:0.0029460295 323:0.15694643 324:0.71861069 325:0.0959185 326:0.0018632327 327:-5.8508951e-19 328:0.044276183 329:0 330:0.028458969 331:0.26404149 332:0.63381573 333:0.020443453 334:0.0089641402 335:0 336:0.057147455 337:0.0075167997 338:0.012270841 339:0.17782779 340:0.71671264 341:2.3885711e-17 342:0.028524249 343:0 344:0.021786572 345:0 346:0.0415541 347:0.017965668 348:0.83916615 349:0.048716256 350:0.030810866 351:0 352:0.020679489 353:0.026423282 354:0.033768874 355:0.11078545 356:0.77297697 357:0.010651565 358:0.012533663 359:0.012180531 360:0.083584524 361:0.0084954853 362:0.026865084 363:0.054440021 364:0.73216604 365:0.06133853 366:0.033110021 367:-3.3744532e-18 368:0.1625079 369:0.042177282 370:0.076239126 371:0.043135993 372:0.34228047 373:0.14109395 374:0.17103611 375:0.021528611 376:0.022199781 377:0.012410055 378:0.037230164 379:0.15395372 380:0.73496161 381:5.9152099e-17 382:0.039244039 383:-4.9293416e-18 
0.6012738648117302 0:0 1:0 2:0 3:0 4:0 5:0 6:0 7:0 8:0.89574748 9:0.030347761 10:0.01919361 11:0 12:0 13:0 14:0 15:0.054710205 16:0.84932165 17:0.089773535 18:0 19:0 20:0 21:0 22:0.0078406161 23:0.053063949 24:0.30164104 25:0.37467197 26:0.32368646 27:0 28:0 29:0 30:0 31:0 32:0.061884958 33:0.18075418 34:0.30967343 35:0.032616236 36:0.37130975 37:0 38:0.043759273 39:0 40:0.057926594 41:1.8521694e-16 42:0.042289675 43:0 44:0.67194849 45:0.10362224 46:0.12421025 47:0 48:0.098636507 49:1.7521363e-16 50:0.024506437 51:0 52:0.31782874 53:0.098025748 54:0.4610001 55:0 56:0.066588617 57:1.1828514e-16 58:-1.9714191e-17 59:0 60:0.2009665 61:0.16544075 62:0.5202093 63:0.04679371 64:0.08906571 65:0.039831397 66:0.050383174 67:0.16468321 68:0.60564683 69:0 70:0.050383174 71:0 72:0.38332182 73:0.012042032 74:2.3915804e-18 75:0.07724793 76:0.21748866 77:0.10633661 78:0.15235689 79:0.051205462 80:0.30793622 81:0.047276798 82:0.0078705737 83:-1.5631174e-18 84:0.19699425 85:0.24361311 86:0.099536582 87:0.096772398 88:0.047807684 89:0.042994006 90:0.10924785 91:0.079328561 92:0.62325983 93:0.064197363 94:0.033164659 95:9.7823964e-18 96:0.0051858977 97:0.01514702 98:0.090140598 99:0.19804739 100:0.671209 101:0.016602974 102:0.0036669834 103:1.6121009e-17 104:0.033955855 105:0.019177093 106:0.043024735 107:0.28214188 108:0.48766499 109:0.096218545 110:0.037816689 111:2.0447564e-17 112:0.033260111 113:0.0073184253 114:0.054714044 115:0.096507227 116:0.61832726 117:0.13178632 118:0.058086392 119:2.034843e-17 120:0.066570957 121:0.012239252 122:0.047700853 123:-6.8060971e-17 124:0.45694631 125:0.31789799 126:0.09864402 127:2.9168988e-17 128:0.07848379 129:0.10504141 130:0.13415354 131:0.47163397 132:0.17448325 133:0.019351901 134:0.016851968 135:0 136:0.014655575 137:0.014755481 138:0.061519702 139:0.48197606 140:0.3782005 141:0.033057403 142:0.0028937879 143:0.012941413 144:0.0090057432 145:0.012082472 146:0.020791026 147:0.091226654 148:0.83706694 149:0.025799612 150:0.0040274908 151:-5.5990948e-18 152:0.013131345 153:0.0052606377 154:0.023207631 155:0.14868065 156:0.77564274 157:0.0072951919 158:0.022167878 159:0.0046138845 160:0.004577961 161:-1.9537602e-18 162:0.0055702821 163:0.017818631 164:0.92924451 165:0.028169939 166:0.011140564 167:0.0034780918 168:0.00088358864 169:0.0019757643 170:0.0044749303 171:0.072121519 172:0.86129408 173:0.040376623 174:0.018873476 175:-3.9239218e-19 176:0.0032838482 177:-2.4758645e-18 178:0.014313225 179:0.15933562 180:0.79186075 181:0.027827485 182:0.0033790519 183:-3.5369493e-19 184:-8.0540861e-19 185:0.0020276876 186:0.0020276876 187:0.18053317 188:0.76189138 189:0.043260682 190:0.010259378 191:-1.2081129e-18 192:0.82772319 193:0.072274732 194:0.018284222 195:4.593267e-17 196:0.019393346 197:0 198:0.041881279 199:0.020442381 200:0.56871843 201:0.21069615 202:0.11659895 203:-2.2491597e-16 204:0.070669638 205:1.5691812e-17 206:0.033313987 207:-5.230604e-18 208:0.46564342 209:0.10412103 210:0.065851923 211:0 212:0.27938605 213:-8.2714887e-17 214:0.084986478 215:-6.2036165e-17 216:0.20771091 217:-9.2242172e-17 218:0.29374758 219:1.8448434e-17 220:0.49850617 221:3.6896869e-17 222:0 223:0 224:0.18469097 225:6.1514449e-17 226:0.26119247 227:-4.1009633e-17 228:0.5540729 229:2.0504816e-17 230:0 231:0 232:0.38289324 233:0 234:0.34458633 235:1.2366455e-16 236:0.17404238 237:-1.2366455e-16 238:0.098453238 239:0 240:0.31556037 241:0 242:0.1964313 243:-1.701663e-16 244:0.40572048 245:0.050401032 246:0.031876411 247:0 248:0.060886892 249:0 250:0.064517314 251:0.062389615 252:0.59210875 253:0.12442197 254:0.09567452 255:-6.0087137e-18 256:0.078464101 257:0.043849661 258:0.086216088 259:0.6093658 260:0.090775797 261:0.046815191 262:0.025876693 263:0.018636604 264:0.046976785 265:0.0073126317 266:0.058360062 267:0.50353345 268:0.33337636 269:0.0073126317 270:0.043127992 271:-9.0068358e-19 272:0.030722207 273:0.01495562 274:0.083267277 275:0.13459012 276:0.64446885 277:0.040170507 278:0.033173371 279:0.018651921 280:0.081145631 281:0.039058046 282:0.044949304 283:0.077430481 284:0.67618208 285:0.014918846 286:0.03555079 287:0.030764598 288:0.037149091 289:0.049000306 290:0.075500686 291:0.25225113 292:0.47975714 293:0.030299139 294:0.059639944 295:0.016402009 296:0.10204405 297:0.10528038 298:0.083820402 299:0.21614616 300:0.34136345 301:0.09192221 302:0.05942262 303:5.3313718e-18 304:0.1120674 305:1.0301488e-17 306:0.091107293 307:0.27784034 308:0.24098815 309:0.13761649 310:0.14037964 311:5.1507442e-18 312:0.055946867 313:0.10722943 314:0.17321305 315:0.11693059 316:0.39340338 317:0.053614713 318:0.074386441 319:0.025274218 320:0.19151697 321:0.1047192 322:0.28649695 323:0.098490991 324:0.019945033 325:0.12851469 326:0.15779619 327:0.012519856 328:0.2353249 329:0.1051306 330:0.20607198 331:0.060012694 332:0.15047289 333:0.096218729 334:0.12618891 335:0.020578424 336:0.18400134 337:0.10300489 338:0.48880686 339:0.12125382 340:0.071126778 341:0.0031946942 342:0.016399754 343:0.012211822 344:0.017058893 345:0.0065893581 346:0.19054034 347:0.66623284 348:0.093537085 349:0.016296437 350:0.0097450259 351:-2.003734e-18 352:0.027536382 353:0.0057850036 354:0.026943026 355:0.43007832 356:0.4889563 357:0.009355595 358:0.011345325 359:-2.8501136e-18 360:0.030267778 361:0.0056473241 362:0.022799477 363:0.098662748 364:0.71422552 365:0.085689883 366:0.029319481 367:0.013387739 368:0.047518466 369:1.3189024e-17 370:-3.9127437e-17 371:0.0099490557 372:0.64242043 373:0.2859371 374:0.0091270544 375:0.0050478664 376:0.14834383 377:0.0068196241 378:0.050256503 379:0.31778022 380:0.36013436 381:0.11450885 382:0.0021565545 383:-4.0631879e-18 
0.9265317806692427 0:0.11434818 1:0.085230104 2:0.089840417 3:0.064784846 4:0.60985698 5:0 6:0.035936167 7:0 8:0.039735831 9:0.022213005 10:0.15093144 11:0.19802842 12:0.5165658 13:0.044426009 14:0.028097475 15:0 16:0.017212992 17:0.031031164 18:0.45791568 19:0.081648392 20:0.34425985 21:0.019244711 22:0.048685695 23:0 24:0.023397574 25:5.195305e-18 26:0.059248449 27:3.117183e-17 28:0.90080659 29:0 30:0.016544583 31:0 32:0.018166057 33:4.0336749e-18 34:0.13470696 35:0.1239512 36:0.47231748 37:0.073369863 38:0.14876369 39:0.028723058 40:0.27618342 41:0.03851651 42:0.06697545 43:1.3913503e-17 44:0.022378874 45:0.046162046 46:0.23103003 47:0.31875326 48:0.62484096 49:0.022476443 50:0.11538135 51:3.124718e-17 52:0.070362395 53:0 54:0.16693678 55:-3.5711063e-17 56:0.37584515 57:0.081029594 58:0.084316917 59:0.028648288 60:0.1373609 61:0.081029594 62:0.18311959 63:0.028648288 64:0.18767399 65:0.071391277 66:0.10050401 67:0.10607569 68:0.18761255 69:0.15093863 70:0.10331749 71:0.092486104 72:0.0077231036 73:0.017269385 74:0.061844064 75:0.24126032 76:0.60688512 77:0.043173462 78:0.021844236 79:2.9152849e-17 80:0.0076202188 81:0.0085196636 82:0.10570504 83:0.31974569 84:0.54988942 85:0.0085196636 86:-3.384057e-18 87:2.8764484e-17 88:-1.0396168e-17 89:-6.4976048e-18 90:0.084260687 91:0.57800842 92:0.33359236 93:3.6386587e-17 94:0.0041383581 95:2.2091856e-17 96:0.0070307775 97:-5.2038207e-18 98:0.18384742 99:0.5193872 100:0.26545842 101:0.010480864 102:0.013795205 103:1.769299e-17 104:0.27084309 105:0.14941862 106:0.26643453 107:0.066789426 108:0.1072598 109:0.027075348 110:0.091790336 111:0.020388622 112:0.32134984 113:0.08305933 114:0.18599083 115:-4.0414734e-16 116:0.22739245 117:0.020764833 118:0.16144095 119:6.598324e-17 120:0.22697166 121:0.079828324 122:0.12642086 123:-3.3684995e-16 124:0.15479973 125:0.051921407 126:0.25658753 127:0.10346927 128:0.20257862 129:0.055611619 130:0.084026078 131:0.076970383 132:0.26616122 133:0.089979358 134:0.14838708 135:0.076285529 136:0.035905367 137:0.0080286842 138:0.031290726 139:0.12617692 140:0.74404527 141:0.024086053 142:0.030466714 143:1.9134223e-17 144:0.02513417 145:0.009366952 146:0.078937073 147:0.19500454 148:0.59553541 149:0.018733904 150:0.060015792 151:0.017271806 152:0.029219016 153:0.021070132 154:0.067456212 155:0.49279626 156:0.37639054 157:0.013067141 158:3.633238e-17 159:3.114204e-17 160:0.082668643 161:0.02053919 162:0.17056875 163:0.32333893 164:0.31528494 165:0.02053919 166:0.067058627 167:4.894967e-17 168:0.11089516 169:0.022542647 170:0.38481294 171:-8.9540626e-18 172:0.3226041 173:0.022542647 174:0.13660042 175:-1.7908125e-17 176:0.21881958 177:0.1397987 178:0.27809494 179:-1.3882202e-17 180:0.29696943 181:7.6352111e-17 182:0.066312346 183:8.3293212e-17 184:0.19510174 185:0.047758966 186:0.13837523 187:0.051868186 188:0.15181988 189:0.061267104 190:0.22740507 191:0.12640279 192:0.079388229 193:0.13049113 194:0.49388186 195:0.049594261 196:0.14589352 197:0.043497044 198:0.057252017 199:0 200:0.11674254 201:0.029004918 202:0.51488789 203:0.041019149 204:0.29834206 205:-5.760456e-18 206:2.880228e-18 207:0 208:0.068270952 209:0.030531698 210:0.63045241 211:6.0636787e-18 212:0.23212124 213:-6.0636787e-18 214:0.038619883 215:0 216:0.015352005 217:-1.363532e-17 218:0.34885196 219:8.8629577e-17 220:0.6140802 221:-6.8176598e-18 222:0.021711014 223:0 224:0.056174734 225:0.031402631 226:0.35239787 227:0.044410026 228:0.39322314 229:0.062805262 230:0.059582303 231:0 232:0.077436496 233:0.024736181 234:0.2422843 235:0.045611265 236:0.47568133 237:9.8253464e-18 238:0.13424792 239:-7.8602771e-17 240:0.009824437 241:0.043936218 242:0.4760214 243:0.10264239 244:0.35367973 245:0 246:0.013893852 247:0 248:0.088235933 249:0.021534115 250:0.15380255 251:1.2830202e-17 252:0.35750847 253:0.12085918 254:0.22760402 255:0.030453838 256:0.1650905 257:0.119927 258:0.38969769 259:0.030244656 260:0.2199766 261:-1.2742074e-17 262:0.075061678 263:0 264:0.042007396 265:0.046965697 266:0.67563396 267:9.3275157e-18 268:0.22053883 269:0 270:0.014851857 271:0 272:0.012967619 273:-5.7587797e-18 274:0.55909751 275:5.7587797e-18 276:0.42793143 277:0 278:0 279:0 280:0.03844439 281:-1.1381826e-17 282:0.48001715 283:0.040523945 284:0.42288829 285:0 286:0.018122859 287:0 288:0.043441993 289:-9.6460602e-18 290:0.33894339 291:0.068687822 292:0.42355943 293:0.024284812 294:0.10108013 295:0 296:0.011092484 297:0.024803549 298:0.17510423 299:4.9260526e-18 300:0.67664155 301:0.049607098 302:0.062748567 303:-7.8816842e-17 304:0.018954633 305:0.084767697 306:0.61835773 307:0.059939813 308:0.21797828 309:-4.2087741e-18 310:-6.3131611e-18 311:0 312:0.26526384 313:0.13650792 314:0.18424202 315:0.029878474 316:0.11893345 317:0.023957376 318:0.12848542 319:0.11273115 320:0.49773969 321:0.078399512 322:0.21539221 323:-2.7005782e-17 324:0.11402178 325:-1.0127168e-17 326:0.070407728 327:0.024037901 328:0.18714486 329:0.064379789 330:0.48338454 331:1.2786002e-17 332:0.24472789 333:0 334:0.020358677 335:0 336:0.12143263 337:2.3967521e-17 338:0.52448443 339:5.9918801e-18 340:0.29683532 341:0 342:0.057243891 343:0 344:0.1293339 345:0.032133266 346:0.59925684 347:8.2962808e-17 348:0.18681564 349:0.032133266 350:0.020322862 351:0 352:0.094295243 353:2.093775e-17 354:0.4775578 355:6.281325e-17 356:0.3614651 357:0 358:0.066676806 359:0 360:0.13301687 361:0.021001902 362:0.32956394 363:0.077592878 364:0.33812409 365:8.3420701e-18 366:0.10069851 367:-6.6736561e-17 368:0.12413961 369:0.043213337 370:0.28168527 371:0.36801781 372:0.1731904 373:0 374:0.009753329 375:0 376:0.096650846 377:0.40783776 378:0.32422063 379:0.03059248 380:0.040301771 381:8.8767658e-19 382:0.036210856 383:0.064185579 
