svm_type c_svc
kernel_type rbf
gamma 0.125
nr_class 2
total_sv 459
rho 0.788316
label 1 -1
probA -7.15906
probB -0.15846
nr_sv 209 250
SV
0.6768761731086178 0:0.40652644 1:0.041834844 2:0.019125111 3:0.11908672 4:0.22916157 5:0.010894885 6:0.095926261 7:0.077444162 8:0.025330208 9:0.01803642 10:0.071198675 11:0.43996049 12:0.41234463 13:0 14:0.025247237 15:0.0078822046 16:0.056128352 17:0.0085130326 18:0.09260673 19:0.37647976 20:0.44719986 21:0.01907215 22:-8.5979852e-17 23:5.2426739e-17 24:-1.1345433e-16 25:9.4545272e-19 26:0.026324841 27:0.045758005 28:0.85641575 29:0.048675878 30:0.022825434 31:4.7272636e-17 32:-1.1240642e-16 33:9.367202e-19 34:0.0076995621 35:0.1870939 36:0.75853915 37:0.028769235 38:0.017898058 39:4.683601e-17 40:-1.0222497e-16 41:8.5187478e-19 42:0.11674826 43:0.34439258 44:0.46065902 45:0.039925389 46:0.038274681 47:4.2593739e-17 48:0.48240572 49:0.039573172 50:0.04370337 51:0.065873813 52:0.071245355 53:0.0038591221 54:0.065679624 55:0.22765981 56:0.0078823476 57:0.018946806 58:0.086640638 59:0.52549256 60:0.32251713 61:0.015348558 62:0.014863097 63:0.008308724 64:0.020653271 65:0.030430398 66:0.093977573 67:0.44368029 68:0.38486851 69:0.026389782 70:-2.3584873e-17 71:1.0089084e-16 72:-2.7039473e-16 73:0.0075220191 74:0.13860967 75:0.38579362 76:0.45303043 77:0.015044038 78:-2.6890084e-17 79:1.150298e-16 80:0.021713165 81:0.013257355 82:0.10754965 83:0.37471783 84:0.44139797 85:0.03054283 86:0.010821021 87:1.0136845e-16 88:0.028977366 89:-1.6971326e-17 90:0.18684194 91:0.32743717 92:0.3218233 93:0.062749706 94:0.059039583 95:0.013130727 96:0.053688427 97:0.099757403 98:0.21472616 99:0.16381295 100:0.14161579 101:0.13874648 102:0.097840869 103:0.089811892 104:0.0074355112 105:0.14451843 106:0.26473832 107:0.46149684 108:0.11802134 109:0.0023213717 110:0.0014681644 111:5.9933998e-18 112:-1.0644796e-17 113:2.2354072e-17 114:0.0086960975 115:0.33944047 116:0.63717868 117:0.012989787 118:0.0016949314 119:6.9191175e-18 120:-9.9438138e-18 121:0.0023842318 122:0.050724487 123:0.30552111 124:0.63270954 125:0.0071526953 126:0.0015079206 127:6.1556943e-18 128:0.014378491 129:1.1657083e-17 130:0.0073369349 131:0.059442937 132:0.341377 133:0.38760712 134:0.18187406 135:0.0079834483 136:0.044821067 137:0.014775834 138:0.09333782 139:0.19176221 140:0.32920524 141:0.20480442 142:0.10377181 143:0.017521558 144:0.42381565 145:0.33301695 146:0.17627568 147:0.024540028 148:0.0064407105 149:0.0084733151 150:0.00455427 151:0.022883355 152:0.43364782 153:0.2616577 154:0.050826127 155:0.024962916 156:0.075117526 157:0.0058838158 158:0.092381302 159:0.055522647 160:0.081825918 161:0.089504434 162:0.18342403 163:0.12950343 164:0.24164397 165:0.047211727 166:0.18430484 167:0.042580941 168:0.22804339 169:0.055126189 170:0.12309636 171:0.12823143 172:0.23694505 173:0.044598024 174:0.080773093 175:0.10318601 176:0.1601897 177:0.030293772 178:0.05489639 179:0.02730848 180:0.076588456 181:0.10107378 182:0.31677306 183:0.2328763 184:0.060663712 185:5.6907849e-17 186:0.042351601 187:0.13122209 188:0.29017141 189:0.069396876 190:0.31775724 191:0.088437052 192:0.77055903 193:0.067853211 194:0.024909195 195:7.3923497e-18 196:0.0016646092 197:0.0074443585 198:0.013446192 199:0.11412335 200:0.27149766 201:0.021179072 202:0.034573893 203:2.0820797e-16 204:0.14678613 205:0.10268714 206:0.32417191 207:0.099103733 208:0.15633921 209:0.03857894 210:0.11688733 211:0.11740632 212:0.41845067 213:0.05786841 214:0.094467606 215:-7.2787888e-17 216:0.05103028 217:0.014263397 218:0.032305325 219:0.1195734 220:0.38968452 221:0.26236204 222:0.11060872 223:0.020171489 224:0.18108372 225:0.12531815 226:0.18911241 227:0.034627871 228:0.26032507 229:0.068712129 230:0.11290216 231:0.027917882 232:0.56149181 233:0.25035758 234:0.051025091 235:5.0362777e-17 236:0.052269014 237:0.0052830317 238:0.021989445 239:0.057583919 240:0.78473344 241:0.076106155 242:0.10474264 243:1.0731511e-17 244:0.024165214 245:-8.5852087e-18 246:0.010252432 247:1.6097266e-17 248:0.22186129 249:-6.8686487e-17 250:0.089380281 251:3.2380772e-16 252:0.14232831 253:0.12536934 254:0.35118769 255:0.069871979 256:0.038631784 257:0.017276659 258:0.045480036 259:0.048865771 260:0.37337275 261:0.13151773 262:0.32042116 263:0.024432885 264:0.094798197 265:3.2743555e-17 266:0.2282761 267:0.033308691 268:0.49847584 269:0.047105603 270:0.098033299 271:-9.3553014e-18 272:0.25578236 273:0.13425637 274:0.14670369 275:0.094863323 276:0.12142051 277:0.0223595 278:0.16606822 279:0.058545511 280:0.25290204 281:0.056190621 282:0.051224842 283:5.1912371e-17 284:0.24498498 285:0.049136565 286:0.26687648 287:0.078684312 288:0.41439516 289:0.066414014 290:0.093508625 291:0.16644302 292:0.079093471 293:0.011578317 294:0.053263793 295:0.11530346 296:0.011891676 297:0.0088635317 298:0.028028948 299:0.33157946 300:0.4186982 301:0.16404538 302:0.03689248 303:2.2884181e-17 304:0.022071622 305:0.019741459 306:0.038272397 307:0.14596144 308:0.69077018 309:0.029612188 310:0.053570311 311:3.3326015e-17 312:0.017550565 313:0.0098110638 314:-3.6047325e-17 315:1.1691024e-17 316:0.46242619 317:0.48539154 318:0.024820246 319:3.3124569e-17 320:0.073722912 321:5.9526454e-18 322:0.11284427 323:0.20844275 324:0.48663673 325:0.059945252 326:0.058407156 327:4.7621163e-17 328:0.043414646 329:-2.7542823e-17 330:0.071592015 331:1.1017129e-16 332:0.37947727 333:0.29076944 334:0.1951331 335:0.019612738 336:0.42186234 337:0.072131671 338:0.028157064 339:0.061770021 340:0.040659333 341:-8.4971157e-18 342:0.027501192 343:0.34791827 344:0.11342644 345:0.035477857 346:0.038304686 347:0.18175981 348:0.44294061 349:0.18809043 350:1.0043382e-17 351:4.5195219e-17 352:0.030105989 353:-1.1141454e-18 354:-2.7853635e-18 355:0.091199447 356:0.80284855 357:0.075845882 358:7.2419451e-18 359:4.4565816e-17 360:0.045359796 361:-3.7769618e-18 362:1.2589873e-18 363:-5.5395439e-17 364:0.6841034 365:0.25850881 366:0.012027832 367:5.035949e-17 368:0.094552395 369:8.074942e-18 370:-6.4599536e-18 371:-4.8449652e-17 372:0.3817472 373:0.36370827 374:0.15999186 375:6.2984548e-17 376:0.018142255 377:-1.8799153e-17 378:2.9541526e-17 379:0.019123616 380:0.75273231 381:0.16226926 382:0.047731803 383:1.181661e-16 
0.1234276169328841 0:0.66355939 1:0.039719407 2:0.045315835 3:0 4:0.0086436849 5:0.0048319668 6:0.013999979 7:0.22392964 8:0.33738357 9:0.045056664 10:0.0085327553 11:0 12:0 13:0.0011703531 14:0.046531885 15:0.56132477 16:0.29765927 17:0.030666534 18:0.049022368 19:0 20:0.034168048 21:0.0084891197 22:0.12122273 23:0.45877163 24:0.59490906 25:2.6837434e-18 26:2.6837434e-18 27:0 28:0 29:0 30:0.078072043 31:0.32701885 32:0.60448562 33:0.077156536 34:0.066179253 35:0.0093362197 36:0.0022643659 37:0 38:0.040506208 39:0.20007169 40:0.10362143 41:0.32205816 42:0.12055605 43:0.015445559 44:0.27693523 45:0.0083612343 46:0.060584552 47:0.092437715 48:0.57319555 49:0.037732847 50:0.048037377 51:0.0063857898 52:0.0080774562 53:0.011796356 54:0.023219604 55:0.29155493 56:0.11291007 57:0.17957288 58:0.015946008 59:0.0018288773 60:0.02087257 61:0.081635184 62:0.21640044 63:0.37083398 64:0.317606 65:0.055711279 66:0.053805333 67:0 68:0.021436222 69:0.033542383 70:0.22903796 71:0.28886047 72:0.34365109 73:-6.146493e-17 74:5.3190805e-18 75:0 76:2.3640358e-18 77:0.0066541691 78:0.041228256 79:0.60846645 80:0.39828302 81:0.097485478 82:0.073526696 83:0.16592721 84:0.063079892 85:0.043048803 86:0.040597702 87:0.11805116 88:0.098104728 89:0.17339987 90:0.13627999 91:0.10592903 92:0.20691269 93:0.12895636 94:0.059368914 95:0.091048407 96:0.52802572 97:0.055268492 98:0.010874707 99:0 100:0.027225489 101:0.008597211 102:0.075610177 103:0.29439813 104:0.52852059 105:0.36200933 106:0.068097458 107:0.015759537 108:0.0041278634 109:3.2011946e-18 110:0.0097540598 111:0.011731163 112:0.51382325 113:0.066079158 114:0.030993665 115:-7.0148496e-18 116:0.042122766 117:0 118:0.088653648 119:0.25832695 120:0.45488821 121:0.045794582 122:0.047161698 123:0.0088572456 124:0.012774101 125:0.019805403 126:0.028804438 127:0.38191431 128:0.16174744 129:0.31399392 130:0.25113164 131:0.097714956 132:0.042030479 133:0.025372191 134:0.051036533 135:0.056972828 136:0.19474148 137:0.25728195 138:0.2805962 139:0.04849349 140:0.019042879 141:0.014319895 142:0.048275461 143:0.13724861 144:0.6646564 145:0.043853817 146:0.010346247 147:0.019236389 148:0.042838732 149:0.0016097625 150:0.092435917 151:0.12502272 152:0.71191205 153:0.080449224 154:0.028506697 155:0.0094510452 156:0.0076725988 157:6.5799121e-18 158:0.022476041 159:0.13953233 160:0.75807219 161:0.064687729 162:0.04063437 163:-1.1141285e-17 164:0.025087944 165:0 166:0.014024587 167:0.097492377 168:0.28724915 169:0.022990546 170:0.010693111 171:0.046764898 172:0.027981284 173:0 174:0.029607204 175:0.57471378 176:0.077005693 177:0.32367553 178:0.48709215 179:0.021008915 180:4.2737971e-18 181:0.050581864 182:0.0087156946 183:0.031920127 184:0.070857136 185:0.25224149 186:0.17990771 187:0.078472286 188:0.17929785 189:0.037287135 190:0.10597651 191:0.095959573 192:0.53654547 193:0.083962188 194:0.056641782 195:0.0083249853 196:0.010724399 197:0.0025551481 198:0.028758197 199:0.2724878 200:0.084615805 201:0.030163465 202:0.017075524 203:0.0060720004 204:0.0035533695 205:0.049765751 206:0.083493643 207:0.72526043 208:0.51651515 209:0.12384919 210:0.054645701 211:0 212:0.01384676 213:0.015481149 214:0.060335712 215:0.21532536 216:0.32265803 217:-1.6749579e-17 218:1.0468487e-18 219:-4.1873949e-18 220:0.0048596855 221:0.005271069 222:0.0075833885 223:0.6596278 224:0.54697321 225:0.024200706 226:0.019818069 227:-1.2247727e-17 228:0.011255548 229:0.006166948 230:0.044786485 231:0.34679899 232:0.3281677 233:0.084409148 234:0.13557462 235:5.364444e-17 236:0.21139394 237:0.033763659 238:0.10576316 239:0.10092661 240:0.30946807 241:0.31362643 242:0.082304192 243:0 244:0.010494499 245:0.021106315 246:0.078877709 247:0.18412275 248:0.44160672 249:0.2545846 250:0.0070514885 251:0.0020362598 252:0.011258449 253:0.024167935 254:0.052325504 255:0.20696903 256:0.060992955 257:0.020334981 258:0.036487218 259:0.64936921 260:0.17041085 261:0.033293631 262:0.029111106 263:5.9232547e-17 264:0.22422201 265:0.28359857 266:0.31401749 267:0.14151921 268:0.00057845898 269:-2.0550991e-18 270:0.010835298 271:0.025228959 272:0.24849284 273:0.49117015 274:0.098215059 275:0.020600971 276:0.035192821 277:0.0092016489 278:0.039133876 279:0.057992567 280:0.44659425 281:0.011595233 282:0.055596046 283:0.016398135 284:0.26658106 285:0.076672913 286:0.064119573 287:0.062442238 288:0.71533532 289:0.055931701 290:-1.03734e-18 291:0 292:0.0070393092 293:0.0029846807 294:0.02940434 295:0.18930464 296:0.65907775 297:0.17655767 298:0.028625964 299:0.01732761 300:0.010080081 301:0.011086903 302:0.036521816 303:0.060722151 304:0.19812048 305:0.058806171 306:0.07488849 307:0.030525132 308:-4.1211093e-19 309:0 310:0.12797865 311:0.50968106 312:0.22067722 313:0.1609282 314:0.26647302 315:0.021812649 316:0.030380021 317:0.014203015 318:0.16257404 319:0.12295178 320:0.15017652 321:0.20576608 322:0.14099422 323:0.076403484 324:0.18110548 325:0.081587995 326:0.017974248 327:0.1459916 328:0.3868485 329:0.064416623 330:0.2023483 331:0.1127662 332:0.1979938 333:0.016706702 334:0.018919597 335:1.6921783e-16 336:0.19535175 337:0.090447656 338:0.039316593 339:0.071177576 340:0.14176538 341:0.0013236099 342:0.0079666185 343:0.45265081 344:0.12725707 345:0.021494842 346:0.024597796 347:0.10725359 348:0.53260955 349:0.08207221 350:0.05205687 351:0.052658058 352:0.24745794 353:0.066541859 354:0.051096636 355:0.18676408 356:0.049643666 357:0.022010564 358:0.082280786 359:0.29420446 360:0.12326443 361:-1.0310956e-16 362:0.021558659 363:0.079360439 364:0.49447741 365:0.09472597 366:0.041910746 367:0.14470231 368:0.12556805 369:0.015710174 370:0.046566303 371:0.37035616 372:0.35626824 373:0.011361278 374:0.042422279 375:0.031747439 376:0.22126886 377:0.19656906 378:0.12503138 379:0.33844756 380:0.053951435 381:0.0075399422 382:0.0047686782 383:0.052422857 
0.9217580674805145 0:0.12961274 1:0.10724973 2:0.16488467 3:0.21262855 4:0.27846556 5:0.052891159 6:0.017318142 7:0.036949441 8:0.074027215 9:0.1440897 10:0.26762116 11:0.22198924 12:0.23891196 13:0.021211156 14:0.032149521 15:-1.1070355e-17 16:-7.2698265e-17 17:0.013545629 18:0.048176872 19:0.47305005 20:0.4652274 21:6.9902178e-18 22:-7.6892395e-18 23:-1.1184348e-17 24:-6.478804e-17 25:-2.4918477e-18 26:1.0216575e-16 27:0.072132576 28:0.92786738 29:6.2296192e-18 30:-6.8525811e-18 31:-9.9673907e-18 32:-6.587852e-17 33:-2.5337892e-18 34:1.0388536e-16 35:0.028684082 36:0.96045276 37:0.010863112 38:-6.9679204e-18 39:-1.0135157e-17 40:-7.175707e-17 41:-2.7598873e-18 42:1.1315538e-16 43:0.01131095 44:0.988689 45:6.8997183e-18 46:-7.5896901e-18 47:-1.1039549e-17 48:0.04496311 49:0.015415119 50:0.054023141 51:0.016263333 52:0.040987121 53:0.09515806 54:0.15861212 55:0.57457797 56:0.1624642 57:0.26129972 58:0.40208243 59:0.093984505 60:0 61:1.5701265e-17 62:0.016132467 63:0.064036573 64:0.11689394 65:0.21354109 66:0.36123922 67:0.18118809 68:0.032686247 69:0.0091360838 70:0.059474244 71:0.025840747 72:0.054114473 73:0.053988708 74:0.090078335 75:0.34360124 76:0.34523215 77:0.041503384 78:0.05875611 79:0.012725261 80:7.1013125e-17 81:4.5651295e-17 82:0.012770132 83:0.32370505 84:0.65075452 85:0.012770132 86:-4.3115112e-17 87:-6.8476942e-17 88:6.0746158e-17 89:3.9051102e-17 90:-7.8102203e-17 91:3.1457832e-17 92:0.98907603 93:0.010923846 94:-3.6881596e-17 95:-5.8576653e-17 96:0.30427646 97:0.16075807 98:0.0061078071 99:4.7565517e-17 100:0.034779836 101:0.12206694 102:0.2474384 103:0.12457247 104:0.032572419 105:0.19235118 106:0.3233367 107:0.20916945 108:0.20086756 109:0.014542857 110:1.3749154e-17 111:0.027159819 112:0.0031434537 113:0.0052390894 114:4.6532462e-19 115:0.14484339 116:0.72306124 117:0.11926729 118:0.0044455148 119:1.4890388e-17 120:0.021711669 121:0.0088266642 122:0.0055340837 123:-1.9895903e-17 124:0.21868206 125:0.59380709 126:0.1368393 127:0.014599108 128:0.090066401 129:0.0086344452 130:0.10395561 131:0.20642078 132:0.25348702 133:0.065688104 134:0.27174734 135:5.6589206e-17 136:0.028346272 137:1.5357694e-16 138:0.05872489 139:-5.7906058e-17 140:0.66018997 141:0.14720917 142:0.10552904 143:8.3082606e-17 144:0.6716304 145:0.10122746 146:0.016542557 147:3.1156691e-17 148:8.0404365e-18 149:-2.0101091e-18 150:0.0036403155 151:0.20695927 152:0.48620838 153:0.15855268 154:0.22285882 155:0.013931281 156:0.028635476 157:0.014776355 158:0.017385968 159:0.057650932 160:0.1168909 161:0.13587485 162:0.10446942 163:0.043487233 164:0.4489896 165:0.070916713 166:0.079370321 167:-5.6184927e-16 168:0.16116061 169:0.056035302 170:0.0029450477 171:-4.0942616e-18 172:0.058051802 173:0.25763335 174:0.37088923 175:0.093284619 176:0.38230882 177:0.0043300575 178:0.0027385688 179:4.7297869e-18 180:0.0059052555 181:0.035548467 182:0.35864682 183:0.21052199 184:0.21833193 185:6.0913544e-17 186:0.1110816 187:-3.8070965e-18 188:0.39434968 189:0.050079145 190:0.14690008 191:0.079256057 192:0.11808337 193:0.17370399 194:0.28146165 195:0.017600238 196:0.012951622 197:-1.9193312e-18 198:0.024363443 199:0.37183569 200:0.097873616 201:0.13174273 202:0.17546588 203:0.17908618 204:0.14814784 205:0.0087448046 206:0.029134439 207:0.22980443 208:0.0094247027 209:0.010222525 210:0.049066693 211:0.48271551 212:0.41447431 213:0.017408333 214:0.016687818 215:6.4967087e-17 216:0.1414855 217:0.29141001 218:0.17736594 219:0.1569009 220:0.068280062 221:0.05428129 222:0.065462041 223:0.044814224 224:0.26510183 225:0.24915823 226:0.025796026 227:0.040038999 228:0.068579133 229:0.26159384 230:0.047040971 231:0.042690951 232:0.16249664 233:0.031315717 234:0.21612091 235:0.17619641 236:0.31820001 237:0.010438572 238:0.017040505 239:0.068190794 240:0.43918447 241:0.084146637 242:0.14335115 243:0.062163283 244:0.01006486 245:-2.7166701e-18 246:0.035907154 247:0.22518243 248:0.017437177 249:0.1934296 250:0.5104346 251:0.19862967 252:0.063647322 253:0.016421508 254:-3.0439327e-17 255:9.5666455e-17 256:0.029374493 257:0.0079652778 258:0.053892195 259:0.26539332 260:0.52338646 261:0.089333474 262:0.030654527 263:1.645203e-16 264:0.062645049 265:0.0086142321 266:0.060641095 267:0.068455512 268:0.34979632 269:0.28973337 270:0.10768317 271:0.052430951 272:0.071915396 273:0 274:0.019599252 275:0.013950954 276:0.43180209 277:0.36841459 278:0.056918298 279:0.037399376 280:-3.9257099e-17 281:-2.3792181e-18 282:0.0097782336 283:0.026821078 284:0.28429107 285:0.3869787 286:0.29213087 287:6.1859672e-17 288:0.52070465 289:0.024391264 290:0.12265627 291:0.024235075 292:0.042633121 293:0.0037779595 294:0.068119169 295:0.19348243 296:0.025706878 297:0.036009925 298:0.25986283 299:0.21063869 300:0.37546633 301:0.074310052 302:0.018004962 303:-1.0369921e-16 304:0.0044344845 305:0.035773075 306:0.16019814 307:0.29226355 308:0.36486817 309:0.055651997 310:0.086810182 311:-8.2710882e-17 312:1.8524238e-17 313:4.2748242e-18 314:0.05022383 315:0.11570705 316:0.66258153 317:0.16431254 318:0.0071748328 319:-6.2697422e-17 320:9.4979127e-17 321:7.8218105e-18 322:-4.5254761e-17 323:0.08990507 324:0.61998207 325:0.25074541 326:0.039367318 327:-3.6874249e-17 328:0.095380048 329:0.017066558 330:0.045873587 331:0.044156688 332:0.44694365 333:0.074047032 334:0.15460507 335:0.12192723 336:0.87967291 337:0.040936484 338:0.047465927 339:1.504068e-16 340:4.4715537e-17 341:-1.084013e-17 342:0.022275663 343:0.0096488218 344:0.5932977 345:0.22161879 346:0.084044943 347:0.023024236 348:0.014561805 349:3.2333703e-18 350:0.063451441 351:-5.1733925e-17 352:0.21681946 353:1.6047864e-17 354:0.18434887 355:0.19481351 356:0.32123727 357:0.052116913 358:0.030662903 359:0 360:0.15521877 361:0.014461655 362:0.13369666 363:0.36142435 364:0.316905 365:2.8146818e-16 366:0.018292708 367:-5.7442485e-18 368:0.075472228 369:1.5640988e-17 370:0.0071155899 371:0.062427195 372:0.53779384 373:0.21972262 374:0.097468009 375:2.0109841e-17 376:0.056914673 377:5.0550385e-18 378:-3.0330231e-17 379:-3.0330231e-17 380:0.51157875 381:0.33625454 382:0.071254408 383:0.023997333 
1.128052703742737 0:0.13739941 1:0.030551453 2:0.02534967 3:0.23416079 4:0.3477802 5:0.023837759 6:0.011196985 7:0.18972371 8:0.1715393 9:0.024792598 10:0.05478549 11:0.13358989 12:0.15927838 13:0.082008101 14:0.10229441 15:0.27171182 16:0.030917302 17:0.1402549 18:0.25916146 19:0.13199595 20:0.12119646 21:0.18147586 22:0.10115193 23:0.033846055 24:0.18963653 25:0.070112702 26:0.047070271 27:0.16972567 28:0.17933685 29:0.12175858 30:0.073029016 31:0.14933032 32:0.0068980999 33:0.015294525 34:0.17724863 35:0.51996481 36:0.2434213 37:0.019900875 38:0.0082777198 39:0.0089940218 40:-2.6801054e-17 41:-1.1486166e-17 42:0.05353449 43:0.58506611 44:0.35779289 45:-1.2762407e-17 46:0.0036064983 47:-5.1049626e-18 48:0.68858471 49:0.0087149959 50:0.012659023 51:6.6252788e-18 52:0.0029837603 53:0 54:0.021374019 55:0.26568345 56:0.18634142 57:0.026926783 58:0.050694575 59:0.021433759 60:0.11472645 61:0.13978969 62:0.20367763 63:0.25640967 64:0.0082329416 65:0.019829321 66:0.11983887 67:0.42541877 68:0.33177765 69:0.065019416 70:0.021886462 71:0.0079965398 72:0.0066816475 73:0.016881098 74:0.0083232093 75:0.23826131 76:0.64240574 77:0.055899975 78:0.026431242 79:0.0051157466 80:0.044396597 81:0.0050059305 82:0.043143877 83:0.61962586 84:0.2816186 85:0.0062090927 86:1.7263999e-17 87:-4.6859425e-17 88:7.1624246e-17 89:7.1624246e-19 90:0.030473448 91:0.56361145 92:0.38427661 93:0.021638447 94:2.0054789e-17 95:-5.4434427e-17 96:0.053190205 97:0.15608978 98:0.11026243 99:0.18141751 100:0.23957184 101:0.047978708 102:0.062928653 103:0.14856085 104:0.0043933905 105:0.073647663 106:0.7471902 107:0.14158829 108:0.022806607 109:0.0087976489 110:0.0015761981 111:0 112:0.016650965 113:0.0070275938 114:0.063055306 115:0.38605857 116:0.48390632 117:0.035853875 118:4.1181563e-18 119:0.0074473627 120:0.011156565 121:0.0062367096 122:0.036646165 123:0.0076806418 124:0.77366057 125:0.12186586 126:0.025113393 127:0.017640079 128:-8.140766e-18 129:-4.4404178e-18 130:-7.215679e-17 131:-5.0324735e-17 132:0.36873041 133:0.58807507 134:0.043194508 135:-5.9205571e-18 136:0.0041950986 137:-7.451992e-18 138:0.0039551768 139:-1.0556989e-16 140:0.10699643 141:0.74566098 142:0.13034822 143:0.0088440443 144:0.49584538 145:0.4098949 146:0.042744117 147:0.012489928 148:-2.6427975e-17 149:0.0037194069 150:-1.3213988e-18 151:0.035306258 152:0.35044045 153:0.25461021 154:0.28355832 155:0.021419888 156:0.011567227 157:0.015146148 158:0.063257658 159:4.8129062e-17 160:0.15229975 161:0.089848284 162:0.39092255 163:0.15101133 164:0.044839961 165:0.025467012 166:0.14561071 167:4.6465029e-17 168:0.116378 169:0.092938974 170:0.13996279 171:0.078861334 172:0.15097783 173:0.19726207 174:0.17104336 175:0.052574223 176:0.062878902 177:0.0069311729 178:0.056574158 179:0.060923964 180:0.076162367 181:0.24966124 182:0.3359101 183:0.1509579 184:0.0047623866 185:0.0030425772 186:0.00096214738 187:-2.9608943e-17 188:0.15262437 189:0.088998942 190:0.54218195 191:0.20742761 192:0.71208764 193:0.030698825 194:0.0041108198 195:2.5817469e-18 196:-3.4423292e-17 197:0.01963461 198:0.095471349 199:0.13799674 200:0.092075488 201:0.20448172 202:0.22434195 203:0.15065437 204:0.1405866 205:0.12589547 206:0.050509595 207:0.01145455 208:0.14816188 209:0.060761791 210:0.16072553 211:0.067369791 212:0.33102684 213:0.10549653 214:0.12645692 215:5.2379745e-18 216:0.10369173 217:0.069558527 218:0.32314589 219:0.065580408 220:0.39402857 221:0 222:0.043992675 223:0 224:0.28398923 225:0.036200337 226:0.11676548 227:-1.1344116e-16 228:0.03585218 229:0.026179348 230:0.13292384 231:0.36808917 232:0.38264219 233:0.088184325 234:0.028280864 235:0.02745556 236:0.088585367 237:0.066621471 238:0.051146545 239:0.26708365 240:0.83415341 241:0.029865459 242:0.039436672 243:0.015854117 244:0.0058880711 245:0.017234684 246:0.03606535 247:0.02150219 248:0.20831659 249:0.046118451 250:0.15495373 251:0.15967723 252:0.21507485 253:0.06684639 254:0.1490121 255:6.08512e-17 256:0.12734024 257:0.08374748 258:0.25634352 259:0.023687364 260:0.41625851 261:0.050248488 262:0.042373246 263:0 264:0.031403118 265:0.023406502 266:0.09959254 267:0.21111176 268:0.45151205 269:0.13426129 270:0.048712181 271:-4.6485953e-18 272:0.053170375 273:0.0084923267 274:0.14385278 275:0.34098584 276:0.428893 277:0.0084923267 278:0.016113057 279:2.361239e-17 280:0.16196252 281:0.076693479 282:0.21717579 283:0.28226544 284:0.23225112 285:0.0037284816 286:0.012173161 287:0.013749961 288:0.51019911 289:0.012731897 290:0.21268903 291:0.052679593 292:0.031907432 293:-2.2596788e-18 294:0.011743328 295:0.16804957 296:0.0096924242 297:0.038696934 298:0.74084726 299:0.17025273 300:0.027461869 301:0.0036121532 302:0.0094365753 303:4.304301e-18 304:0.05771783 305:0.026509741 306:0.063551217 307:0.21567564 308:0.33105457 309:0.076964501 310:0.12005125 311:0.10847513 312:0.039135312 313:0.041156767 314:0.21570792 315:0.41505304 316:0.24102509 317:0.034032458 318:0.013889119 319:-6.2520187e-17 320:0.052385129 321:0.070566771 322:0.10022625 323:0.11324881 324:0.39729132 325:0.17932316 326:0.086958503 327:-1.654809e-17 328:0.021667884 329:1.7067181e-17 330:0.064070176 331:0.14410522 332:0.66920597 333:0.076865601 334:0.024085123 335:-5.333494e-19 336:0.61245627 337:0.11665416 338:0.081742872 339:0.010178207 340:-4.9633976e-17 341:0.0031239485 342:0.028016056 343:0.14782844 344:0.18146122 345:0.042938366 346:0.11767127 347:0.047882693 348:0.10579586 349:0.070201446 350:0.38208931 351:0.051959764 352:0.13413717 353:0.0087798546 354:0.071663611 355:0.064885511 356:0.30334741 357:0.27728065 358:0.12748889 359:0.012416589 360:0.1035383 361:-3.1787435e-17 362:-1.5257969e-17 363:-5.848888e-17 364:0.40000959 365:0.32288456 366:0.14634371 367:0.027223677 368:0.055465337 369:0.0065275928 370:0.017183598 371:0.014885202 372:0.70350845 373:0.14311792 374:0.050080318 375:0.0092314103 376:0.0064078595 377:-2.4188121e-17 378:-5.6913225e-18 379:0.16198697 380:0.78408869 381:0.042985228 382:0.0045310409 383:1.1382645e-17 
1.009399984510529 0:0.12155478 1:0.12261796 2:0.2769784 3:0.18276976 4:0.20758939 5:0 6:0.064464155 7:0.024024372 8:0.19836001 9:0.14419271 10:0.46681385 11:0.065817928 12:0.081897093 13:0 14:0.022995958 15:0.019921642 16:0.21953042 17:0.18257964 18:0.2944404 19:0.11774366 20:0.17055342 21:0 22:0.015152265 23:0 24:0.0050688435 25:0.088093798 26:0.34052335 27:0.33125467 28:0.11329606 29:0.07068672 30:0.051076431 31:0 32:0.095055547 33:0.016667519 34:0.19618077 35:0.32610226 36:0.30488158 37:0.01111168 38:0.050000515 39:0 40:0.21315099 41:0.13113188 42:0.17811197 43:0.075149347 44:0.14484483 45:0.031026793 46:0.081206178 47:0.1453779 48:0.056871546 49:0.02705904 50:0.029448453 51:0.053158388 52:0.28698203 53:0.27509915 54:0.19099209 55:0.080388965 56:0.11914365 57:0.090294484 58:0.17717772 59:-8.5226131e-19 60:0.312069 61:0.24038445 62:0.043188261 63:0.017742359 64:0.083382675 65:0.039534927 66:0.25559012 67:0.19121882 68:0.22152555 69:0.14419783 70:0.054445126 71:0.010104901 72:0.14198261 73:0.13481877 74:0.20956233 75:0.096161143 76:0.22208484 77:0.086959799 78:0.074985777 79:0.033444709 80:0.0084401264 81:5.9970705e-18 82:0.022951913 83:0.071731026 84:0.70444408 85:0.1594889 86:0.03294394 87:-4.4978029e-18 88:0.076229321 89:0.071250186 90:0.03496088 91:0.14801321 92:0.4593022 93:0.069355189 94:0.040030912 95:0.10085809 96:0.001858267 97:0.065253956 98:0.41526093 99:0.36453286 100:0.12085856 101:0.01425978 102:0.017975635 103:-8.2523634e-19 104:0.010218267 105:0.18027839 106:0.32872506 107:0.23313504 108:0.21110818 109:0.022683213 110:0.013851832 111:0 112:0.056772253 113:0.17002219 114:0.51753283 115:0.20361661 116:0.0086672824 117:0.01504512 118:0.0068096602 119:0.021534036 120:0.060215621 121:0.29845835 122:0.559127 123:0.065619394 124:-1.1697058e-16 125:-3.4403112e-18 126:0.0043306444 127:0.012248912 128:0.034052075 129:0.079567702 130:0.44666657 131:0.1443339 132:0.19750203 133:0.015228551 134:0.082648219 135:6.0488636e-18 136:0.83804799 137:0.010614955 138:0.0080984497 139:0.0020812481 140:0.013821117 141:-8.7682986e-19 142:0.0051947144 143:0.12214152 144:0.024481649 145:0.01936134 146:0.56524587 147:0.19380181 148:0.022420567 149:0.013215427 150:0.099317655 151:0.062155667 152:0.037334542 153:0.038727966 154:0.083961294 155:0.40685076 156:0.38827733 157:0.0036166631 158:0.029447861 159:0.011783531 160:0.14733467 161:0.12603143 162:0.11112513 163:0.35886222 164:0.058831342 165:0.03653163 166:0.084367151 167:0.076916219 168:0.30725578 169:0.22146915 170:0.27450971 171:4.4994314e-16 172:0.093524482 173:-5.5377617e-17 174:0.078593765 175:0.024645865 176:0.17713855 177:0.21114732 178:0.32725456 179:9.1621961e-16 180:0.14756973 181:-3.7018974e-17 182:0.038035623 183:0.098851992 184:0.80488948 185:0.082239438 186:0.005911772 187:4.7296749e-17 188:0.026539622 189:-4.5187977e-18 190:0.0024762117 191:0.077943467 192:0.0012641289 193:-3.0876231e-18 194:0.089390479 195:0.41287725 196:0.40902489 197:0.058711146 198:0.020725663 199:0.0080064297 200:0.14938677 201:0.076506177 202:0.040058848 203:0.42485011 204:0.099453429 205:0.040422259 206:0.048216223 207:0.12110618 208:0.14588442 209:0.1262114 210:0.086738226 211:0.066590469 212:0.42793478 213:0.085460251 214:0.019117596 215:0.042062792 216:0.10383752 217:0.075517787 218:0.11007833 219:0.080779385 220:0.35307872 221:0.15423749 222:0.12247012 223:-4.9993463e-18 224:0.3492767 225:0.084631755 226:0.15229049 227:-1.7760557e-15 228:0.1766262 229:0.028210585 230:0.20896101 231:-1.1205399e-17 232:0.91037784 233:0.02046172 234:0.019871897 235:0.0051591927 236:0.01062235 237:1.5724237e-18 238:0.0067077562 239:0.02679923 240:0.11494239 241:0.088308606 242:0.040840549 243:0.050061475 244:0.22815863 245:0.19524031 246:0.20579502 247:0.076652631 248:0.0210294 249:0.046757279 250:0.081203405 251:0.06430076 252:0.48396058 253:0.12343586 254:0.14408735 255:0.035225337 256:0.1491302 257:0.10392987 258:0.14639846 259:0.074010877 260:0.2920722 261:0.099510048 262:0.060783491 263:0.074164859 264:0.0099224467 265:3.8928893e-17 266:0.019601389 267:0.061545501 268:0.16685375 269:0.27541886 270:0.30617952 271:0.16047851 272:0.65403238 273:0.010402099 274:0.0084904818 275:0.02430105 276:0.12697315 277:0.058821219 278:0.072797273 279:0.04418223 280:0.70292161 281:0.1344425 282:0.053267184 283:0.027707048 284:0.035778249 285:0.0075519355 286:0.011727931 287:0.026603525 288:0.18859493 289:0.1279381 290:0.56156475 291:0.070500479 292:0.014500451 293:0.010807998 294:0.010807998 295:0.015284817 296:0.10977478 297:0.17055404 298:0.60506561 299:0.099694204 300:0.01491125 301:4.1880732e-18 302:-6.8056189e-18 303:-8.3761464e-18 304:0.028645421 305:0.16273054 306:0.50426102 307:0.25999128 308:0.01976789 309:0.0054311945 310:0.0085211591 311:0.010651449 312:0.48677323 313:0.11226426 314:0.24863451 315:0.079386704 316:0.006919693 317:-6.145922e-18 318:-1.3316164e-17 319:0.066021575 320:0.76828835 321:0.009727828 322:0.011359156 323:0.06656292 324:0.0045269108 325:0.0063533698 326:0.024990081 327:0.10819136 328:0.27121623 329:0.2135523 330:0.092055599 331:0.051264835 332:0.029843313 333:0.043200491 334:0.084806055 335:0.2140611 336:0.016240748 337:0.051545754 338:0.27064037 339:0.66157311 340:3.1768442e-17 341:0 342:-7.9421106e-19 343:-7.9421106e-19 344:0.031414729 345:0.046823077 346:0.39169377 347:0.46511341 348:0.052990508 349:0.011964487 350:-2.175602e-18 351:-3.4809632e-18 352:0.050800817 353:0.066019178 354:0.37893414 355:0.45150063 356:0.018939017 357:0.016609496 358:0.0037238106 359:0.013472873 360:0.12878549 361:0.27122431 362:0.3922768 363:0.11094569 364:0.024659059 365:0.041851668 366:0.0031499378 367:0.027106952 368:0.37229835 369:0.096339008 370:0.012543798 371:0.097356483 372:0.13322199 373:0.031080932 374:0.01303406 375:0.24412536 376:0.095910284 377:0.10255276 378:0.14698601 379:0.34963176 380:0.21683979 381:0.010828245 382:0.044328172 383:0.03292293 
0.141068552761197 0:0.30930555 1:0.057736347 2:0.067420842 3:0.28626263 4:0.12155217 5:0.023047705 6:0.041121488 7:0.093553229 8:0.30966941 9:0.52035121 10:0.12249146 11:0.011419033 12:0.0086840148 13:-4.5538735e-18 14:0.012621866 15:0.014762979 16:0.062212922 17:0.077485536 18:0.10175604 19:0.36299021 20:0.35658087 21:0.023123154 22:0.0040483218 23:0.011802785 24:0.013656947 25:-7.2778834e-17 26:0.0038627679 27:0.10785101 28:0.85244364 29:0.012215145 30:0.0099703403 31:2.4259611e-17 32:0.01084531 33:0.025682062 34:0.025585449 35:0.10392747 36:0.47923935 37:0.30064058 38:0.054079628 39:2.4081425e-17 40:0.16247808 41:0.1105216 42:0.11171551 43:0.016943391 44:0.11853495 45:0.023961574 46:0.39471796 47:0.06112635 48:0.53520787 49:0.067838451 50:0.02379951 51:0.045572393 52:0.033700487 53:0 54:0.067435664 55:0.22644558 56:0.36176761 57:0.35821482 58:0.072612693 59:0.042631663 60:0.014110983 61:0.012929293 62:0.0035675487 63:0.13416536 64:0.027103872 65:0.05121098 66:0.3017072 67:0.2423265 68:0.30444304 69:0.01954488 70:0.053662929 71:-1.0592153e-16 72:0.011579915 73:5.9138925e-17 74:0.090627168 75:0.11945038 76:0.64279196 77:0.12736166 78:0.0081882362 79:-1.1313533e-16 80:1.936573e-16 81:4.5450182e-17 82:0.072285781 83:0.17498492 84:0.27367248 85:0.14018009 86:0.33887632 87:-8.6948175e-17 88:0.14112606 89:0.028336064 90:0.02579179 91:0.011952139 92:0.067346722 93:0.0069916463 94:0.38017823 95:0.33827731 96:0.66356502 97:0.26902471 98:0.0057501577 99:0.0040468595 100:0.0031746178 101:0.0035493306 102:1.4098135e-18 103:0.050889285 104:0.15614574 105:0.59368622 106:0.12199564 107:0 108:0.080622681 109:0.01158482 110:0.027773062 111:0.0081917051 112:0.012792863 113:-1.022611e-16 114:0.20488205 115:0.080909171 116:0.66522888 117:0 118:0.036183681 119:3.9768207e-17 120:0.041333646 121:-1.2849078e-16 122:0.27595011 123:0.087138978 124:0.52579536 125:0.030808281 126:0.038969736 127:4.2830262e-17 128:0.11473011 129:0.03174606 130:0.051824031 131:0.044895709 132:0.26670115 133:0.21964075 134:0.18947647 135:0.080984697 136:0.73109242 137:0.046657923 138:0.027583854 139:0 140:0.058354274 141:-8.3595172e-19 142:0.01108044 143:0.12523108 144:0.73041857 145:1.6034329e-17 146:0.0026874597 147:3.0943441e-18 148:0.001900321 149:0 150:0.0085421209 151:0.25645152 152:0.20750868 153:0.09645175 154:0.056108526 155:0.024303706 156:0.1861593 157:0.18624336 158:0.19461605 159:0.048607412 160:0.22302602 161:0.046854605 162:0.15000543 163:1.789009e-16 164:0.24690746 165:0.029057993 166:0.30414504 167:5.6555768e-16 168:0.20351685 169:-3.6151856e-17 170:0.13185264 171:6.3265747e-17 172:0.54949551 173:8.1341675e-17 174:0.11512652 175:8.8572046e-16 176:0.25978083 177:0.21080274 178:0.080909885 179:6.2255173e-18 180:0.070093093 181:0.062693168 182:0.27138851 183:0.044330764 184:0.74089961 185:0.14166707 186:0.015995026 187:0.0031753267 188:0.0057422254 189:0.0011672733 190:0.00073824846 191:0.090615212 192:0.54366509 193:0.0036196122 194:0.0018098061 195:0.0033371176 196:0.011642919 197:0.032609463 198:0.12935781 199:0.27395817 200:0.10002836 201:0.011772116 202:0.087433728 203:0.043492841 204:0.6488636 205:0.011772116 206:0.079988388 207:0.016648286 208:0.069015911 209:6.8109381e-18 210:0.027991945 211:1.1238048e-16 212:0.43689883 213:0.31250498 214:0.15358713 215:-1.2600235e-16 216:0.085934334 217:-3.816251e-18 218:0.0243059 219:3.4346259e-17 220:0.48820488 221:0.36509452 222:0.03645885 223:-1.4120129e-16 224:0.25584257 225:0.41917699 226:0.060911125 227:0.016722754 228:0.031020403 229:0.042772778 230:0.041741303 231:0.13181199 232:0.63691968 233:0.14500806 234:0.020939076 235:0.025468806 236:0.043644254 237:0.021094208 238:0.029534922 239:0.077390992 240:0.4526913 241:0.060851513 242:0.015617697 243:0.0081545345 244:0.04244599 245:0.079021384 246:0.1933399 247:0.14787764 248:0.011954571 249:0.0032749723 250:8.4554398e-18 251:-1.3008369e-18 252:0.32772642 253:0.49810425 254:0.1404137 255:0.018526041 256:-2.9857411e-17 257:2.019766e-17 258:-4.8298753e-18 259:2.6344774e-17 260:0.87003652 261:0.12157384 262:0.0083895615 263:7.0252732e-18 264:0.0045408161 265:2.0165274e-17 266:0.010153574 267:0.46436872 268:0.45421626 269:0.053877154 270:0.012843368 271:8.0661098e-18 272:0.10505636 273:0.49025263 274:0.23968468 275:0.047101848 276:0.022061329 277:0.05591946 278:0.01526511 279:0.024658563 280:0.12691508 281:0.018957107 282:0.015591123 283:0.11472988 284:0.45246366 285:0.087049202 286:0.11125613 287:0.073037753 288:0.81697189 289:4.2423318e-17 290:0.018680737 291:0.010788881 292:0.02415903 293:0.021408389 294:0.093924035 295:0.014066979 296:0.042064235 297:0.037162361 298:0.13122085 299:0.22909168 300:0.3558878 301:0.11782727 302:0.070448478 303:0.016296773 304:0.14876596 305:0.19388598 306:0.25873226 307:0.031026953 308:0.10127018 309:0.13754759 310:0.11325711 311:0.015513476 312:0.12205528 313:0.068230977 314:0.26306152 315:0.13222812 316:0.22979775 317:0.04929622 318:0.13532936 319:0 320:0.26268601 321:0.16564759 322:0.03883251 323:5.2305701e-17 324:0.084946767 325:0.14055088 326:0.1991042 327:0.10823167 328:0.12749583 329:0.013694804 330:0.10450448 331:0.024022275 332:0.3098586 333:0.21651752 334:0.14471721 335:0.059188984 336:0.34444614 337:0.028750593 338:0.076501273 339:0.16838933 340:0.12655983 341:0.019866171 342:0.01540567 343:0.22008092 344:0.064548081 345:0.017098096 346:0.047888429 347:0.19835843 348:0.63128639 349:0.022797462 350:0.018022976 351:-1.1319096e-17 352:0.025699813 353:0.0095777549 354:0.078643187 355:0.085933259 356:0.80014589 357:-6.657589e-18 358:1.1888552e-17 359:-8.5597573e-18 360:0.019660632 361:0.027415272 362:0.038075114 363:0.37614212 364:0.49648687 365:0.018798953 366:0.023420945 367:-8.7310744e-18 368:0.084971368 369:0.047740935 370:0.20374836 371:0.49413498 372:0.080347406 373:0.023149839 374:0.065906936 375:1.527258e-17 376:0.098763816 377:0.11891525 378:0.25650503 379:0.28098095 380:0.20635771 381:-1.0121526e-17 382:0.038476066 383:-6.4102997e-17 
0.1078799236684451 0:0.26035958 1:0.06338284 2:0.1545417 3:0.027120588 4:0.050469586 5:0 6:0 7:0.44412566 8:0 9:0.045697507 10:0.30496858 11:0.59471433 12:0.054619304 13:0 14:0 15:5.17458e-17 16:0.012113869 17:0.065234698 18:0.30255815 19:0.33501689 20:0.26794446 21:0 22:0.017131598 23:5.7382812e-17 24:0.10618771 25:0.1377808 26:0.28510966 27:0.27783866 28:0.15359538 29:0.010732803 30:0.013576041 31:0.015178476 32:0.19501204 33:0.079421197 34:0.22276062 35:0.14395239 36:0.24641639 37:0.034437737 38:0.077998412 39:1.0943086e-16 40:0.023014597 41:0.025731101 42:0.053549994 43:0.10506334 44:0.74249852 45:0.012865551 46:0.037276217 47:8.1764273e-17 48:0.19422752 49:0.088315974 50:0.37091814 51:0.044033527 52:0.056725122 53:0.043527198 54:0.052800364 55:0.14945202 56:0.027029837 57:0.024965868 58:0.26688666 59:0.32186613 60:0.30055255 61:0.034522359 62:0.024176221 63:3.0367122e-17 64:0.045063657 65:4.2923835e-18 66:0.18016628 67:0.24554219 68:0.32841335 69:0.073887575 70:0.096361203 71:0.030565274 72:0.14072102 73:0.19701011 74:0.31099904 75:0.061493044 76:0.09722904 77:0.052359052 78:0.14018784 79:4.6056925e-17 80:0.090779275 81:0.21017398 82:0.30836252 83:0.23871225 84:0.12469973 85:5.0248943e-18 86:0.018326738 87:0.0089453372 88:0.0064581905 89:0.021627011 90:0.16613521 91:0.49377849 92:0.30895658 93:3.824017e-18 94:0.0030444202 95:1.5296068e-17 96:0.55764962 97:-5.1280131e-17 98:0.26681437 99:-1.8314333e-17 100:0.016496084 101:0 102:0.10687332 103:0.052165199 104:0.29740446 105:0.095983305 106:0.25166407 107:0.11999134 108:0.1308168 109:0.073786391 110:0.030352586 111:-6.3541822e-18 112:0.020824791 113:0.031043765 114:0.078535203 115:0.08447984 116:0.67266082 117:0.071593931 118:0.040860665 119:-6.1653765e-18 120:0.058989858 121:0.018902447 122:0.048622723 123:8.817881e-18 124:0.22912248 125:0.37579283 126:0.211765 127:0.056804542 128:0.046101754 129:0.018756708 130:0.07319845 131:0.045989295 132:0.18356372 133:0.19276824 134:0.38443175 135:0.055190058 136:0.018067832 137:0.028171194 138:0.022876507 139:0.65704099 140:0.26268705 141:0.0014953044 142:0.0096611183 143:4.7515446e-18 144:0.43356378 145:0.048777266 146:0.043043769 147:-1.2109123e-17 148:0.043627713 149:0.012194317 150:0.14035437 151:0.27843818 152:0.47034747 153:0.16380136 154:0.19716294 155:-1.0239847e-16 156:-6.6063527e-18 157:0.049896237 158:0.11879086 159:-3.633494e-17 160:0.19656776 161:0.062791269 162:0.15885074 163:9.3528882e-17 164:0.3088922 165:0.094186903 166:0.17870708 167:-6.8587847e-17 168:0.28904772 169:0.055513826 170:0.33188971 171:-2.2050395e-17 172:0.26067865 173:-1.1025198e-17 174:0.062866939 175:-7.1663784e-17 176:0.1703107 177:0.0069476843 178:0.037499199 179:0.014738264 180:0.020196143 181:0.016022929 182:0.55690358 183:0.17738146 184:0.090201089 185:0.02446184 186:0.033391889 187:0.037422495 188:0.057905613 189:0.1144648 190:0.24193556 191:0.4002167 192:0.13895048 193:0.028088526 194:0.068431964 195:-1.3946145e-17 196:0.15277731 197:0.028088526 198:0.49205178 199:0.091610609 200:0.028893204 201:0.009020478 202:0.042981776 203:0.020569855 204:0.72383659 205:0.053292725 206:0.085637026 207:0.035768263 208:0.043654974 209:0.0088741354 210:0.057035743 211:0.38826121 212:0.465237 213:0.0088741354 214:0.02806248 215:-1.0574565e-17 216:0.006049663 217:0.0045091526 218:0.080584864 219:0.77589855 220:0.10517103 221:0.013527458 222:0.014259192 223:-7.1642402e-18 224:0.061296871 225:0.064741402 226:0.43029099 227:0.17757091 228:0.23888857 229:0.0026046511 230:0.003294652 231:0.021311929 232:0.41610225 233:0.27774605 234:0.071936227 235:0.10919362 236:0.063522914 237:0.0073691189 238:0.030657917 239:0.023471879 240:0.14772444 241:0.24668019 242:0.21665051 243:0.042595662 244:0.069897288 245:0.028004157 246:0.14104413 247:0.10740342 248:0.10212939 249:0.044939383 250:0.053851939 251:0.18533196 252:0.41911657 253:0.01449403 254:0.057106809 255:0.12302989 256:0.0034863795 257:0.0049304852 258:0.025347392 259:0.51821922 260:0.42603849 261:0.01381416 262:0.0046774689 263:0.0034863795 264:-1.5040835e-17 265:0.0079719234 266:0.020870766 267:0.75082188 268:0.20675967 269:0.013575696 270:-3.9185333e-17 271:-2.0582195e-17 272:0.049217574 273:0.031678663 274:0.15845819 275:0.29556448 276:0.39173514 277:0.022258857 278:0.051086915 279:-5.4642483e-18 280:0.13231697 281:4.4185552e-17 282:0.10929215 283:0.25489522 284:0.26874657 285:0.077170169 286:0.14292736 287:0.014651311 288:0.22196213 289:0.029677556 290:0.12504918 291:-1.4735109e-17 292:0.18581089 293:0.071946104 294:0.21500568 295:0.15054756 296:0.050332917 297:0 298:0.033741548 299:0.047949471 300:0.24057954 301:0.23626494 302:0.27816077 303:0.11297051 304:0.20977275 305:0.035858202 306:0.18000173 307:0.058415207 308:0.2024276 309:0.089645506 310:0.22387769 311:2.1364611e-17 312:0.047966475 313:0 314:0.15247952 315:0.13208843 316:0.39168707 317:0.16088445 318:0.11489275 319:1.4200929e-17 320:0.048684077 321:0.024191312 322:0.057753483 323:0.20559142 324:0.50161041 325:0.067886284 326:0.094282413 327:6.245799e-17 328:0.031566174 329:0 330:4.0497015e-17 331:0.11016442 332:0.6409359 333:0.072347954 334:0.10834167 335:0.036643632 336:0.03340666 337:-4.4506612e-17 338:0.035433114 339:0.23940218 340:0.59535164 341:0.037349781 342:0.05905519 343:-1.7060868e-16 344:0.050697838 345:0.02031195 346:3.227207e-17 347:-6.2527135e-17 348:0.63406174 349:0.21798139 350:0.062583937 351:0.014362717 352:0.019699696 353:1.7496845e-18 354:0.070817487 355:0.23717684 356:0.41858652 357:0.16276009 358:0.090959044 359:0 360:0.0387353 361:1.9113254e-18 362:0.14354661 363:0.32135234 364:0.37323062 365:0.076990902 366:0.046143854 367:-3.8226509e-18 368:0.011581897 369:0.046430265 370:0.15905994 371:0.34492541 372:0.42627108 373:0.005179582 374:0.0065517106 375:2.0573583e-17 376:0.025509218 377:7.5522457e-18 378:0.017266377 379:0.35166053 380:0.60255749 381:4.8145566e-17 382:0.0030062902 383:2.8320921e-17 
0.230398875612761 0:0.13035128 1:0 2:0.18319797 3:0 4:0.34527823 5:0.038447301 6:0.23183039 7:0.07089332 8:0.63256207 9:0.083348828 10:0.037679908 11:0.070313171 12:0.10146253 13:0.034996027 14:0.017062263 15:0.022575185 16:0.20080126 17:0.29315727 18:0.063494109 19:0.11493674 20:0.20050301 21:0.052185073 22:0.042087766 23:0.032834724 24:0.035355754 25:0.031886101 26:0.01725623 27:0.20610638 28:0.64649748 29:0.009089976 30:0.032519792 31:0.021288215 32:0.026026346 33:0.026753794 34:0.0098824619 35:0.23676411 36:0.63100514 37:0.045842631 38:0.017436187 39:0.0062892833 40:0.056914607 41:0.017852891 42:0.0072554764 43:0.16380129 44:0.37144809 45:0.13188745 46:0.1413851 47:0.10945507 48:0.2709295 49:0 50:0.1141074 51:0.11568849 52:0.12961316 53:0.15290424 54:0.19164816 55:0.025107747 56:0.66954374 57:0.026446394 58:0.0044479818 59:-6.9837428e-19 60:0.0023588986 61:1.3967486e-18 62:0.05364118 63:0.24356179 64:0.036996009 65:0.12275418 66:0.19412936 67:0.26968435 68:0.34159875 69:0.020587267 70:0.0026041061 71:0.011645917 72:0.067846734 73:0.013246173 74:0.068706718 75:0.092035947 76:0.28898459 77:0.31794123 78:0.12021668 79:0.031021795 80:0.079267256 81:0.12796904 82:0.4149936 83:0.083239609 84:0.20870707 85:0.065391901 86:0.02043088 87:2.982718e-17 88:0.14837249 89:0.22996297 90:0.067930691 91:1.0728735e-16 92:0.31061337 93:0.057946424 94:0.13715077 95:0.048022638 96:0.50634743 97:0.05713735 98:0.091319449 99:0 100:0.076657799 101:0.038091566 102:0.14145663 103:0.088988299 104:0.53682779 105:0.067143928 106:0.0077086451 107:0.039599039 108:0.03547676 109:0.023585941 110:0.029509079 111:0.2601488 112:0.036145786 113:0.069248533 114:0.05170757 115:0.11987552 116:0.58730077 117:0.060287763 118:0.041622651 119:0.033811275 120:0.0182795 121:0.010985447 122:0.009639567 123:0.035140513 124:0.11734067 125:0.30705128 126:0.45801339 127:0.043549583 128:0.014409247 129:0.010962714 130:0.016199546 131:0.028042506 132:0.08532651 133:0.15781332 134:0.54378241 135:0.14346371 136:0.036425943 137:0.15971442 138:0.33705233 139:0.12215655 140:0.13956343 141:0.064784559 142:0.10332438 143:0.036977978 144:0.55019119 145:0.048198133 146:0.026435552 147:0 148:0.018692758 149:0 150:0.11556852 151:0.2409134 152:0.68992591 153:0.22448304 154:0.032329069 155:0.0029292197 156:0.0066344222 157:0 158:0.0046315031 159:0.039066817 160:0.28237382 161:0.12942823 162:0.17985195 163:-7.8271722e-17 164:0.11216052 165:0.035828364 166:0.23502133 167:0.025334479 168:0.19621937 169:0.035547756 170:0.061365317 171:1.891678e-17 172:0.1277904 173:0.1307971 174:0.087455072 175:0.36082423 176:0.037699656 177:-2.1692646e-18 178:2.5308087e-18 179:0.002922798 180:0.0051489782 181:0.0057695111 182:0.19531007 183:0.75314898 184:0.16075831 185:0.065899225 186:0.15449832 187:0.019221451 188:0.22588557 189:0.076282298 190:0.18969836 191:0.10775571 192:0.49532576 193:0.055241439 194:0.045447962 195:0 196:0.055299285 197:0.035929768 198:0.13221724 199:0.18053795 200:0.59160786 201:0.019990644 202:0.0085823631 203:-1.876946e-18 204:0 205:0.0070880673 206:0.01957381 207:0.35315724 208:0.4859877 209:0.038810769 210:0.18608728 211:-1.6957434e-16 212:0.19092374 213:-6.1663398e-17 214:0.098184342 215:-1.9269812e-16 216:0.47706237 217:0.10526732 218:0.13843895 219:3.1761019e-17 220:0.051085326 221:-1.6334238e-16 222:0.11142848 223:0.11671541 224:0.51724584 225:1.1218693e-18 226:3.3656079e-19 227:-6.7312158e-19 228:1.1218693e-18 229:2.9168602e-18 230:7.1799636e-18 231:0.48275416 232:0.042938361 233:0.032004365 234:0.11461207 235:0.065997157 236:0.27398527 237:0.17359999 238:0.25160073 239:0.045261007 240:0.29048345 241:0.071860587 242:0.074194481 243:0 244:0.034356143 245:0 246:0.29943958 247:0.22966509 248:0.16449374 249:0.020829861 250:0.0016264888 251:0.0047419889 252:0.0023002025 253:0 254:0.050578464 255:0.75542923 256:0.23446083 257:0.16356196 258:0.11426075 259:-1.0412152e-16 260:0.33274388 261:0.038425479 262:0.038902183 263:0.077642591 264:0.55694911 265:0.091681114 266:0.098038828 267:3.0088478e-17 268:0.058074197 269:0.064928926 270:0.041064658 271:0.089261251 272:0.74160387 273:0.068434675 274:0.044670013 275:0.014864117 276:1.0969442e-18 277:3.0714439e-18 278:0.027313124 279:0.10311419 280:0.073453439 281:0.05602827 282:0.29159938 283:0.28704844 284:0.18629093 285:0.044365971 286:0.0299087 287:0.031304585 288:0.21467694 289:0.18289565 290:0.11036075 291:0.063064774 292:0.16396124 293:0.10318895 294:0.081226074 295:0.080625089 296:0.22648459 297:0.041762628 298:0.0419212 299:0.0081726146 300:0.051251774 301:0.049687131 302:0.2748954 303:0.30582464 304:0.085134603 305:0.040424837 306:0.16974559 307:0.41988467 308:0.14322857 309:0.058664217 310:0.07066385 311:0.012253484 312:0.050669252 313:0.27475631 314:0.33141903 315:0.22785195 316:0.039628704 317:0.01233189 318:0.031722444 319:0.031620356 320:0.071111681 321:0.36167861 322:0.23902767 323:0.076115726 324:0.039744808 325:0.10312381 326:0.048786344 327:0.060411323 328:-9.0957576e-17 329:-1.5633333e-16 330:0.01482117 331:0.066520304 332:0.57767831 333:0.19697183 334:0.12925575 335:0.014752586 336:0.49685571 337:0.10031977 338:0.10716523 339:0 340:0.088330366 341:0.032624658 342:0.035505536 343:0.13919824 344:0.58199303 345:0.086374304 346:0.17631684 347:0.05589567 348:0.026922948 349:0.012067456 350:0.02745014 351:0.032979597 352:0.2465317 353:0.23496402 354:0.28579892 355:0.16262982 356:0.059416643 357:0.010658717 358:-9.8461109e-18 359:0 360:0.11804632 361:0.085265524 362:0.43364916 363:0.17341285 364:0.10953754 365:0.0077185596 366:0.039622721 367:0.032747075 368:0.19694819 369:0.13327771 370:0.12822381 371:0.044341696 372:0.058617882 373:0.032779416 374:0.2208395 375:0.1849717 376:0.20944451 377:0.0096369061 378:0.027319069 379:0.14413851 380:0.19291734 381:0.15245713 382:0.15043631 383:0.11365017 
1.239025549653142 0:0.01132044 1:0.0099803761 2:0.017473298 3:0.23961826 4:0.66836567 5:0.019960752 6:0.029374023 7:0.0039071481 8:0.017372522 9:0.0072488326 10:0.031527544 11:0.034923645 12:0.84259048 13:0.014497665 14:0.031026728 15:0.020812549 16:0.051235567 17:0.038347219 18:0.014536941 19:5.7872521e-17 20:0.86801938 21:0.0032377602 22:0.0020477393 23:0.022575354 24:0.01203681 25:0.0033643907 26:0.021623574 27:0.036390397 28:0.90585247 29:0.0067287814 30:0.014003528 31:-1.3363544e-18 32:0.0026114181 33:0 34:0.012152411 35:0.15336696 36:0.8009516 37:0.0087589624 38:0.022158617 39:-1.1597026e-18 40:0.064617987 41:0.027175111 42:0.0056352651 43:0.16910401 44:0.61081696 45:0.033641677 46:0.0081957243 47:0.080813243 48:0.19514763 49:0.050393859 50:0.15444436 51:0.042662994 52:0.23385524 53:0.065471747 54:0.21536047 55:0.042662994 56:0.24768042 57:0.031158081 58:0.043021766 59:0.019150887 60:0.05184624 61:0.13676615 62:0.35065484 63:0.11972116 64:0.13253088 65:0.010583859 66:0.12073204 67:0.014967837 68:0.075731932 69:0.04471578 70:0.28041562 71:0.32032159 72:0.16621263 73:0.092989436 74:0.16187584 75:0.14614474 76:0.27555386 77:0.066591182 78:0.068753935 79:0.021877796 80:0.28835764 81:0.088717779 82:0.18642181 83:-2.6740043e-17 84:0.20784123 85:0.057703226 86:0.11655367 87:0.054403124 88:0.15570797 89:0.04801323 90:0.084017575 91:0.040313157 92:0.081165715 93:0.015781918 94:0.078402196 95:0.49659798 96:0.088370358 97:0.095820428 98:0.33135701 99:0.079147353 100:0.21477381 101:0.041974223 102:0.11049527 103:0.038060743 104:0.10680976 105:0.020461808 106:0.038283949 107:0.21525309 108:0.28108885 109:0.056774596 110:0.22995472 111:0.051373098 112:0.045628219 113:0.047304363 114:0.26558096 115:0.38001355 116:0.23514347 117:0.0051887158 118:0.0061055453 119:0.015035133 120:0.0057500544 121:-9.9091795e-18 122:0.0039445048 123:0.38055137 124:0.55518411 125:0.047569385 126:0.0070005291 127:-1.8579712e-18 128:0.025950752 129:0.020387108 130:0.045824068 131:0.45300479 132:0.37533124 133:0.043099368 134:0.036402576 135:-3.0367015e-18 136:0.3064652 137:-2.9418047e-17 138:0.068001991 139:-1.4288766e-16 140:0.17110841 141:0.055281373 142:0.18911356 143:0.21002901 144:0.24923239 145:0.30420846 146:0.069842039 147:0.13543705 148:0.14627459 149:0.033099569 150:0.038037271 151:0.023868439 152:0.017190339 153:0.35751636 154:0.50032325 155:0.079845169 156:0.03310468 157:0.0062743979 158:0.0057457958 159:-5.9071401e-19 160:0.0013804599 161:0.035760178 162:0.44243336 163:0.48445303 164:0.033127068 165:0 166:4.5978551e-19 167:0.002845891 168:0.018460883 169:0.0089587593 170:0.05073732 171:0.40039662 172:0.45693584 173:0.0095979533 174:0.042247754 175:0.012664849 176:0.033787607 177:0.009700931 178:-5.3824709e-18 179:-7.5354593e-17 180:0.4857219 181:0.2138212 182:0.2122443 183:0.044724017 184:0.053788204 185:0.019786693 186:0.019335508 187:0.038678904 188:0.064223658 189:0.23654319 190:0.46632994 191:0.10131374 192:0.45368189 193:0.30326879 194:0.060659453 195:0.065652103 196:0.021001637 197:0.0069129108 198:0.062697375 199:0.026125817 200:0.1202931 201:0.62705975 202:0.21460255 203:0.022054943 204:0.011105717 205:0 206:0.0048839245 207:-1.1053871e-18 208:0.10279943 209:0.14052667 210:0.30451951 211:0.18812712 212:0.12121952 213:0.07033818 214:0.059795109 215:0.012674137 216:0.097080983 217:0.036179946 218:0.18934466 219:0.058939348 220:0.28031414 221:0.16280976 222:0.17532982 223:7.1854362e-18 224:0.12387819 225:0.063368305 226:0.14689374 227:0.019429216 228:0.11159008 229:0.10264393 230:0.33077269 231:0.10142308 232:0.052430032 233:2.686168e-16 234:-5.7051356e-17 235:1.0300939e-17 236:0.016058529 237:0.035417425 238:0.32785413 239:0.56823982 240:0.70986589 241:0.072438472 242:0.022030705 243:0.069655278 244:0.047830318 245:0.0036999453 246:0.018561432 247:0.055917951 248:0.24180091 249:0.090817206 250:0.062290796 251:0.04809626 252:0.11777334 253:0.10220914 254:0.11761353 255:0.21939867 256:0.16401482 257:0.18823384 258:0.22650883 259:0.080515628 260:0.17392952 261:0.037183772 262:0.10948386 263:0.020128907 264:0.24265913 265:0.044913176 266:0.16678932 267:0.063516822 268:0.29287359 269:0.022456588 270:0.16678932 271:6.6899095e-17 272:0.17355601 273:0.14176714 274:0.20869239 275:2.0915396e-16 276:0.090571702 277:0.11366588 278:0.21446262 279:0.057282574 280:0.043262527 281:0.0084119958 282:0.014846424 283:3.8424843e-17 284:0.047329727 285:0.0084119958 286:0.10989314 287:0.76784411 288:0.1376339 289:0.10992807 290:0.079720275 291:0.030230317 292:0.30339197 293:0.14417466 294:0.13888947 295:0.056031303 296:3.6313464e-17 297:0.0092133837 298:9.0783661e-18 299:0.028573175 300:0.24330848 301:0.32558951 302:0.37955442 303:0.013760889 304:0.014600194 305:0.0350945 306:0.048178183 307:0.1218623 308:0.19703854 309:0.23708712 310:0.29529272 311:0.05084596 312:0.048832911 313:-6.939574e-17 314:0.17601249 315:-3.0360636e-17 316:0.22780119 317:0.10919371 318:0.40727311 319:0.030884645 320:0.24232578 321:0.12041265 322:0.22049228 323:5.9785703e-17 324:0.24232578 325:0.030103162 326:0.14433663 327:2.3914281e-17 328:0.32001492 329:0.017599884 330:0.026843865 331:0.0068900563 332:0.032682407 333:1.0837048e-16 334:0.0079533324 335:0.58801543 336:0.20226237 337:0.01505318 338:0.027461487 339:0.010624769 340:0.018038194 341:0.1254324 342:0.46865877 343:0.13246869 344:0.25318215 345:0.050222381 346:0.03004008 347:0.052973147 348:0.16463061 349:0.16587243 350:0.21139599 351:0.071683093 352:0.099627968 353:0.01122543 354:0.017611903 355:-1.838879e-16 356:0.20126409 357:0.35574463 358:0.15228067 359:0.16224512 360:0.41511628 361:0.012451637 362:2.967515e-17 363:-6.9242017e-17 364:0.11749077 365:0.25471319 366:0.17023998 367:0.029987514 368:0.40230259 369:0.042672075 370:0.16630872 371:-4.6611348e-17 372:0.12404296 373:-5.9323534e-17 374:0.17415066 375:0.09052114 376:0.28450794 377:0.11876751 378:0.21391022 379:0.075324185 380:0.066071506 381:0.023734839 382:0.022760444 383:0.19492326 
0.1307456424180968 0:0.045408768 1:0.2117759 2:0.20275751 3:0.0062010986 4:0.089321567 5:0.082311232 6:0.029082249 7:0.3331416 8:0.017538092 9:0.42583274 10:0.53637693 11:0 12:0.01376385 13:-5.4332242e-18 14:0.006488341 15:0 16:0.14957994 17:0.39022823 18:0.45398973 19:0.0062020277 20:0 21:-6.9677716e-18 22:0 23:0 24:0.18973569 25:0.12729075 26:0.18947215 27:0.15644169 28:0.27103852 29:-2.135129e-17 30:0.0353761 31:0.030644362 32:0.34097578 33:0.049322276 34:0.14484679 35:0.026699914 36:0.24759468 37:0.075518762 38:0.06164051 39:0.053399828 40:0.2054652 41:0.032816726 42:0.27992084 43:-1.9552474e-17 44:0.44028258 45:-5.2139932e-17 46:0.04151024 47:0 48:0.28570581 49:0.067772075 50:0.025299127 51:0 52:-2.8888704e-18 53:0.0036364938 54:0.1019849 55:0.51560154 56:0.15998581 57:0.3783323 58:0.35548709 59:0.0081420323 60:0.0082193866 61:-8.7695757e-19 62:0.055072425 63:0.034760883 64:0.34153849 65:0.12550177 66:0.34083843 67:0.066566644 68:0.033273059 69:-2.0630597e-18 70:0.07312688 71:0.019154289 72:0.27690157 73:0.04925818 74:0.23487206 75:0.082107557 76:0.1404205 77:0.085789739 78:0.13064929 79:-2.6087491e-17 80:0.11653665 81:0.04420422 82:0.16248677 83:0.20035499 84:0.24800091 85:0.05600121 86:0.17241489 87:-1.5242512e-17 88:0.016508972 89:0.16157682 90:0.42252656 91:0.1771968 92:0.19865922 93:0.0083848119 94:0.0032887938 95:0.011857915 96:0.094697155 97:0.042747345 98:0.090547187 99:0.21449796 100:0.1248575 101:0.13467969 102:0.11159976 103:0.18637335 104:0.048359255 105:0.11452511 106:0.30386905 107:0.051124621 108:0.1111958 109:0.21047314 110:0.14895807 111:0.011494954 112:0.022916272 113:0.023689487 114:0.043695267 115:0.5295847 116:0.3562478 117:0.0033438061 118:0.02052262 119:2.1250849e-17 120:0.040088646 121:0.0064350738 122:0.051938362 123:0.24623321 124:0.37763847 125:0.17787592 126:0.010504972 127:0.089285302 128:0.047946951 129:0.076360032 130:0.10477099 131:0.43003615 132:0.13508649 133:0.06611679 134:0.054062813 135:0.085619778 136:0.0058112852 137:0.20308601 138:0.48422205 139:0.12130322 140:0.094041011 141:0.025332723 142:0.044460626 143:0.021742992 144:0.12104091 145:0.052134769 146:0.052195631 147:0.072195389 148:0.077821237 149:0.0036377717 150:0.069614096 151:0.55136019 152:0.69336604 153:0.22572111 154:0.059640583 155:0.0062228352 156:0.0045872925 157:0.0028738332 158:0.0060325937 159:0.0015557088 160:0.22860134 161:0.092259135 162:0.34498022 163:0.06523706 164:0.19598281 165:4.5807291e-18 166:0.07293725 167:-3.8936197e-16 168:0.19405553 169:0.065433053 170:0.2585951 171:0.035421254 172:0.26882842 173:0.025046609 174:0.081774951 175:0.070842509 176:0.20035749 177:0.096520772 178:0.19046675 179:0.2218773 180:0.011183114 181:0.035971084 182:0.10253418 183:0.14108928 184:0.01225881 185:0.027021871 186:0.38972399 187:0.39857505 188:0.13910216 189:0.013306759 190:0.013727634 191:0.0062837216 192:0.19902268 193:0.031193859 194:0.084012152 195:0.29867774 196:0.23478601 197:0.072116818 198:0.0036521338 199:0.076538602 200:0.1693402 201:0.39708881 202:0.026452781 203:0.0070553535 204:0.056575447 205:0.090833687 206:0.19303139 207:0.05962231 208:0.01751675 209:6.2620949e-16 210:0.3432441 211:0.091458349 212:0.40031276 213:0.07833729 214:0.069129175 215:2.450385e-16 216:0.022298049 217:2.2633881e-16 218:0.15743048 219:0.51933253 220:0.20167185 221:0.032796067 222:0.027029317 223:0.039441497 224:0.20527176 225:0.32440289 226:0.39459234 227:0.041888397 228:0.016131745 229:-7.5230225e-18 230:0.002395726 231:0.015317133 232:0.11737045 233:0.017285446 234:0.28599396 235:0.21355003 236:0.18585887 237:0.051116144 238:0.054988855 239:0.073835997 240:0.54418161 241:0.15402952 242:0.062108648 243:0.035144794 244:0.045246732 245:0.015704996 246:0.061311854 247:0.082271724 248:0.089428961 249:0.44973465 250:0.22543501 251:0.064710559 252:0.050975098 253:0.035353291 254:0.056240926 255:0.028121497 256:0.0034546949 257:0.0083880767 258:0.012596839 259:0.40519352 260:0.4690298 261:0.076104116 262:0.013151712 263:0.012081235 264:0.00046223689 265:0.022516691 266:0.47232334 267:0.48489492 268:0.011555922 269:0.0065802643 270:0.0016666188 271:-2.0527441e-19 272:0.015302411 273:0.1471627 274:0.60096071 275:0.16740571 276:0.052297718 277:0.0080950928 278:0.0087756448 279:2.9911737e-18 280:-1.1383851e-17 281:0.010696069 282:0.20103185 283:0.57380243 284:0.20218678 285:0.0081885302 286:0.0040942651 287:1.6262645e-18 288:0.38705327 289:0.060112941 290:0.09313656 291:-1.2100606e-16 292:0.035735268 293:0.0099883111 294:0.088869666 295:0.32510357 296:0.59455 297:0.13508524 298:0.023422896 299:0.014214604 300:0 301:0.0095037319 302:0.0072366691 303:0.21598685 304:0.055632208 305:0.071599575 306:0.50263563 307:0.21456213 308:0.030677873 309:0.082183172 310:0.027299066 311:0.01541027 312:1.1197926e-16 313:0.092284859 314:0.55067853 315:0.33419458 316:0.022841995 317:-1.0065551e-17 318:-4.4036786e-18 319:-1.3273946e-16 320:7.5547614e-17 321:0.014632094 322:0.54396474 323:0.38385354 324:0.057549593 325:-8.634013e-18 326:-1.6188774e-18 327:-1.1008367e-16 328:9.8744051e-17 329:8.0373065e-18 330:0.2802003 331:0.5585015 332:0.14902758 333:0.0057813235 334:0.006489267 335:-1.1941141e-16 336:0.40993465 337:0.073751526 338:0.068357828 339:0.014445775 340:0.055559171 341:0.020429411 342:0.12668701 343:0.23083421 344:0.17208345 345:0.042455641 346:0.032756475 347:0.10451514 348:0.07265836 349:0.083076587 350:0.18311485 351:0.30933949 352:0.019584209 353:0.054922642 354:0.33575226 355:0.56081441 356:0.010621029 357:0 358:0.0073764779 359:0.010928948 360:0.030482563 361:0.17933978 362:0.51234313 363:0.22492254 364:0.013368657 365:0.016910162 366:0.014837898 367:0.0077951996 368:0.049798033 369:0.068926363 370:0.46120622 371:0.1125144 372:0.26405284 373:0.01194178 374:0.017180415 375:0.014379807 376:0.056273337 377:1.3042704e-17 378:0.10406749 379:0.20500829 380:0.33180273 381:0.13216262 382:0.14054543 383:0.030140066 
0.8844073014648398 0:0.0039392782 1:0.0029361646 2:0 3:0.20602433 4:0.68990061 5:0.054190443 6:0.031785551 7:0.011223585 8:0.0076330346 9:0 10:0 11:0.23152967 12:0.42115308 13:0.067681467 14:0.17356439 15:0.09843832 16:0.035556536 17:0.0056391745 18:0 19:-8.9596437e-17 20:0.46799757 21:0.030795369 22:0.3808207 23:0.079190527 24:0.16339967 25:0.097989232 26:0.12393404 27:0.04287217 28:0.15407899 29:0.12454026 30:0.1785975 31:0.11458772 32:0.10198208 33:0.028504858 34:0.30477679 35:-4.642137e-16 36:0.47166712 37:0.057009716 38:0.03605611 39:-9.0578283e-17 40:0.080150276 41:2.9661561e-17 42:0.24687491 43:-4.864496e-16 44:0.4541849 45:0.029870244 46:0.18891601 47:-9.4916994e-17 48:0.038987353 49:0 50:0 51:-3.1164953e-17 52:0.30176858 53:0.16299774 54:0.31114561 55:0.18510041 56:0.2379603 57:0 58:0 59:1.0543602e-17 60:0.0059355204 61:0.017336525 62:0.32094578 63:0.41782169 64:0.21834584 65:0.098584289 66:0.085161923 67:0.031051478 68:0.021301138 69:0.050549305 70:0.18168172 71:0.31332407 72:0.086923565 73:0.10094344 74:0.27752885 75:0.1334047 76:0.011989457 77:0.052528383 78:0.21849821 79:0.11818321 80:0.11853304 81:-3.6847471e-17 82:0.1368251 83:0.097923667 84:0.51261049 85:-2.1055698e-17 86:0.13410483 87:-2.5266837e-16 88:0.053435189 89:0.029871179 90:0.18100872 91:0.1689769 92:0.40943526 93:0.11948472 94:0.037784385 95:-2.8475989e-16 96:0.34696967 97:0 98:0.0047986595 99:-2.7123621e-17 100:1.9589282e-17 101:0.081077434 102:0.34432403 103:0.22282997 104:0.29049394 105:0.43207868 106:0.2136088 107:6.8156404e-18 108:0.0038368644 109:-1.7039101e-17 110:5.7932943e-17 111:0.059981632 112:0.074399302 113:0.66777168 114:0.23428383 115:0.018201109 116:1.0506719e-17 117:-1.5760078e-17 118:3.1144916e-17 119:0.0053440295 120:0.099072533 121:0.046339653 122:0.35846797 123:0.24424697 124:0.1576401 125:0.016107087 126:0.033521084 127:0.044604336 128:0.02022569 129:-1.6703344e-16 130:0.01984258 131:0.012389734 132:0.21057931 133:0.35162047 134:0.36918766 135:0.016154237 136:0.035376494 137:-5.0273022e-16 138:0.033353279 139:1.3091933e-16 140:0.19058824 141:0.13184041 142:0.53425853 143:0.074580198 144:0.079940624 145:0.029347056 146:0.040517929 147:0.043643974 148:0.10524985 149:0.058379339 150:0.16376218 151:0.47915898 152:0.27967394 153:0.14265692 154:0.12898684 155:0.024104318 156:0.023303933 157:0.0088951618 158:0.010199775 159:0.38217908 160:0.49376525 161:0.31911619 162:0.15774545 163:-8.9522628e-18 164:-3.2228146e-17 165:3.0437694e-17 166:5.4608803e-17 167:0.029372777 168:0.41860016 169:0.1030728 170:0.097783445 171:-1.023527e-17 172:0.17285834 173:9.7235065e-17 174:0.20768253 175:8.3929214e-16 176:0.2229517 177:0.045321378 178:0.057327512 179:-4.5004747e-18 180:0.14187835 181:7.650807e-17 182:0.45868765 183:0.073831299 184:0.11194457 185:0.01894639 186:0.0059913744 187:-1.8814024e-18 188:0.042365415 189:0.04593097 190:0.37678199 191:0.39803892 192:0.24166501 193:0.1348697 194:0.26129796 195:0.13212511 196:0.019441531 197:0.0048302871 198:0.021384593 199:0.18438571 200:0.027234831 201:0.019313535 202:0.0042052396 203:0.01496961 204:0.0084055931 205:0.080943767 206:0.24681969 207:0.59810772 208:0.25628237 209:0.11371084 210:0.36949141 211:-1.1953433e-16 212:0.17043892 213:0.062002764 214:0.028072477 215:-7.3086703e-16 216:0.23211615 217:0.05190275 218:0.098478544 219:-1.6492845e-16 220:0.19918209 221:0.1038055 222:0.3145122 223:-1.0411108e-15 224:0.20977747 225:-1.01629e-16 226:0.026970014 227:-2.6254157e-16 228:0.41955495 229:0.12793001 230:0.21576011 231:-1.6599403e-15 232:0.66544611 233:0.051416736 234:0.04012413 235:-3.8435408e-17 236:0.050254167 237:0.0062428741 238:0.045353925 239:0.1411619 240:0.012900975 241:0.022732088 242:0.54875275 243:0.2741858 244:0.066006869 245:0.01972478 246:0.023353261 247:0.032343463 248:0.022252707 249:0.018613755 250:0.035536532 251:0.012101187 252:0.13021663 253:0.38865653 254:0.34184523 255:0.050777414 256:6.3721666e-18 257:0.012310865 258:0.015219247 259:0.024258879 260:0.22594881 261:0.49098606 262:0.17783007 263:0.053446037 264:0.024951448 265:0.0061992371 266:0.051465507 267:0.38595568 268:0.45159814 269:0.047191392 270:0.032638432 271:4.9247417e-17 272:0 273:-4.4025966e-18 274:0.014451673 275:0.68331725 276:0.27859497 277:0.016625891 278:0.0070100913 279:5.0629861e-17 280:0.37153359 281:0.13635787 282:0.1182216 283:0.083744713 284:0.28027604 285:0.0098660854 286:8.1316408e-17 287:6.2701808e-17 288:0.036104595 289:0.048124673 290:0.67812247 291:0.12536282 292:0.055779513 293:0.027268859 294:0.029236903 295:3.7173498e-17 296:0.074434916 297:0.12459198 298:0.51019363 299:0.11180313 300:0.014820377 301:0.01957449 302:0.09372834 303:0.050853108 304:0.23849635 305:0.13945765 306:0.063902019 307:0.029165415 308:0.024594438 309:0.10701317 310:0.14354124 311:0.25382952 312:0.035704042 313:-7.2071727e-18 314:0.011848164 315:0.221174 316:0.37502842 317:0.21041548 318:0.12530129 319:0.020528381 320:0.0096741213 321:0.010815996 322:0.074385529 323:0.1905754 324:0.53487223 325:0.11721679 326:0.06245945 327:-5.1554075e-17 328:0.15400952 329:0.1712989 330:0.20326025 331:0.030888457 332:0.28188986 333:0.14066475 334:0.017987884 335:-1.1297056e-17 336:0.072758675 337:0.2816333 338:0.61613172 339:0.010184822 340:2.2175684e-18 341:0.00223317 342:0.005649523 343:0.01140877 344:0.25005468 345:0.25593091 346:0.22124429 347:0.18213885 348:0.015699854 349:0.011101473 350:0.028656621 351:0.035173125 352:0.26736917 353:0.23793764 354:0.024780212 355:0.021467361 356:0.067885756 357:0.12143773 358:0.14526173 359:0.11385946 360:0.063137314 361:3.1893908e-16 362:0.028808622 363:3.504825e-18 364:0.37605461 365:0.27551942 366:0.23152154 367:0.024957215 368:0.037654681 369:0.014033071 370:0.16867241 371:0.039691519 372:0.58502746 373:0.078759931 374:0.076160125 375:-1.6722038e-17 376:0.19591622 377:0.2636612 378:0.10535299 379:0.0368905 380:0.20119555 381:0.098406417 382:0.098576702 383:2.3840291e-17 
0.3041078510557161 0:0 1:0 2:0.2444676 3:0.61942646 4:0.11417118 5:0.013436554 6:0.0084980229 7:0 8:0 9:0.045948688 10:0.32287475 11:0.52636982 12:0.10480658 13:0 14:0 15:0 16:0 17:0.03782599 18:0.58975328 19:0.30117408 20:0.071246455 21:0 22:0 23:0 24:0.03101828 25:0.16195006 26:0.60756716 27:0.17868187 28:0.020782447 29:0 30:0 31:0 32:0.16554587 33:0.24638293 34:0.41386958 35:0.10273298 36:0.064911177 37:0 38:0.0065570191 39:0 40:0.26337575 41:0.14170984 42:0.17105641 43:7.0203808e-16 44:0.31616984 45:0.025249188 46:0.082436353 47:0 48:0 49:0 50:0.23298772 51:0.6137527 52:0.15325942 53:0 54:0 55:0 56:0 57:0 58:0.4018338 59:0.4761831 60:0.11079118 61:0 62:0.011191599 63:0 64:0.0040899715 65:1.8163122e-18 66:0.33598357 67:0.44221834 68:0.18112596 69:0.036581818 70:0 71:0 72:0.096926321 73:0.040871514 74:0.18231804 75:0.36592075 76:0.26404814 77:0 78:0.029304491 79:0.020610586 80:0.079058747 81:0.054180078 82:0.19910744 83:0.36546408 84:0.22802083 85:0.0092638962 86:0.047822805 87:0.017081781 88:0.058552737 89:0.40733171 90:0.26813483 91:0.030301662 92:0.20116249 93:0.0074981775 94:0.016414281 95:0.010604024 96:0.044658596 97:0.12115311 98:0.26220303 99:0.17607444 100:0.36150001 101:0.026823412 102:0.0075868067 103:0 104:0.0055771293 105:0.0051418591 106:0.56872059 107:0.36491227 108:0.046048321 109:0.001971813 110:0.0076280048 111:0 112:0.0027312038 113:0.01849842 114:0.069251711 115:0.87841779 116:0.028712497 117:0 118:0.0023883684 119:0 120:-5.956504e-19 121:2.3826016e-18 122:4.065314e-17 123:0.58093726 124:0.41906273 125:0 126:5.956504e-19 127:0 128:0.0077570428 129:0.0041200931 130:0.0092148497 131:0.083902548 132:0.82915651 133:0.046052137 134:0.0028775978 135:0.01691921 136:0.0050505705 137:0.11126453 138:0.28035849 139:0.15609838 140:0.12677397 141:0.11112444 142:0.20932959 143:0 144:0.61389648 145:0.1993449 146:0.056751939 147:0.0066256727 148:0.013618941 149:0 150:0.0067403055 151:0.10302174 152:0.12064123 153:0.24743665 154:0.55173408 155:-3.9552205e-17 156:0.002581555 157:0 158:0.0075979676 159:0.070008488 160:3.1597501e-13 161:2.1065001e-13 162:1.7554167e-13 163:3.2914064e-14 164:-4.3885418e-15 165:0 166:-4.3885418e-15 167:1.7554167e-14 168:3.0061512e-13 169:2.2820418e-13 170:1.7115313e-13 171:-2.5234116e-13 172:1.0093646e-13 173:0 174:-4.3885418e-15 175:1.7554167e-14 176:0.73996736 177:1.6430576e-15 178:2.0446939e-15 179:5.4768587e-17 180:-1.0953717e-15 181:0 182:-3.6512391e-17 183:0.25999803 184:0.44881163 185:0.0062209762 186:0.0031104881 187:6.7952658e-18 188:0.012657214 189:0.025129404 190:0.099008744 191:0.4050615 192:0.35566524 193:0.10457416 194:0.17527652 195:0.21845719 196:0.0081986128 197:0.0091560894 198:0.0091560894 199:0.11951608 200:0.10221964 201:-5.1577233e-17 202:1.3861381e-16 203:0.029483909 204:0.019654802 205:0.22395907 206:0.26230015 207:0.36238231 208:-1.5079075e-14 209:-3.3509055e-15 210:-3.6650529e-16 211:1.0052716e-14 212:0.47159802 213:0.52726262 214:9.9480007e-16 215:-1.9896001e-15 216:0.088932666 217:-9.478569e-16 218:0.25153957 219:-1.3427973e-15 220:0.533596 221:-7.8988075e-16 222:0.12576978 223:-7.5038671e-16 224:0.026065416 225:0.63706909 226:0.31493594 227:0.011253391 228:0.010675904 229:-3.1607024e-17 230:1.5013337e-17 231:-3.3187376e-17 232:0.25335704 233:0.51971053 234:0.22040781 235:6.6642152e-17 236:0.0065245559 237:-1.4487424e-17 238:1.3400868e-17 239:-3.6942932e-17 240:0.022303524 241:0.029923318 242:0.20803679 243:0.35527066 244:0.27524645 245:0.044645747 246:0.050467114 247:0.014105987 248:0.042550284 249:0.0097869945 250:0.056585 251:0.0061898388 252:0.21359343 253:0.3665473 254:0.26887682 255:0.035870257 256:0.0014275444 257:0 258:-8.8753989e-18 259:0.033641775 260:0.94044482 261:0.020448113 262:0.0040377053 263:1.2679141e-18 264:0.0063493993 265:5.6393995e-18 266:0.01694753 267:0.36782084 268:0.59504878 269:0.0070988443 270:0.006734555 271:1.4098499e-18 272:0.064303344 273:0.18683977 274:0.57612211 275:0.15115171 276:0.0062650431 277:5.0080285e-17 278:0.008860109 279:0.0064578586 280:0.18163637 281:0.3951244 282:0.11864148 283:-1.4478145e-17 284:0.18746083 285:0.018225007 286:0.098910553 287:-1.0858609e-16 288:0.06535543 289:0.13804832 290:0.42638904 291:0.029524574 292:0.20691788 293:0.05454022 294:0.079222744 295:-4.5608579e-17 296:0.026379702 297:-4.6859765e-17 298:0.13120681 299:0.25325608 300:0.44530648 301:0.09179679 302:0.052053235 303:-1.1714941e-17 304:0.091564527 305:0.054579312 306:0.33501434 307:0.35861574 308:0.09371981 309:-1.109745e-17 310:0.017920013 311:0.048585996 312:0.002921291 313:0.0065322052 314:0.1047234 315:0.81087179 316:0.058425819 317:-9.0811966e-18 318:0.016525317 319:1.2973138e-18 320:0.053788986 321:0.033859424 322:0.14511327 323:0.49488121 324:0.23385469 325:0.02651855 326:0.01198365 327:-1.4579175e-18 328:0.0064042656 329:0.048956735 330:0.50910318 331:0.20419364 332:0.23134196 333:-1.1376261e-17 334:1.4931343e-17 335:-4.4083012e-17 336:0.051303159 337:0.0071698345 338:0.26731128 339:0.50864093 340:0.16557458 341:1.4239487e-18 342:1.4239487e-18 343:-1.5663436e-17 344:0.049351153 345:-1.5246132e-17 346:0.12470561 347:0.6805912 348:0.11656432 349:0.028787617 350:2.5727847e-17 351:-3.8115329e-18 352:0.03237469 353:0 354:0.22762653 355:0.71321863 356:0.026780073 357:0 358:0 359:-8.4572063e-19 360:0.02032264 361:9.0250653e-18 362:0.11034687 363:0.5367971 364:0.27506231 365:0.037533945 366:0.019936998 367:0 368:0.056779778 369:-4.8029117e-18 370:0.16790338 371:0.38506188 372:0.27593304 373:0.072260527 374:0.04206124 375:-2.4014559e-18 376:0.01228781 377:0.026643952 378:0.71218396 379:0.16430909 380:0.081099549 381:3.2741304e-18 382:0.0034755176 383:-3.4924058e-17 
0.6818575720838963 0:0.24122323 1:0.023720912 2:0.050398695 3:0.043638874 4:0.069802413 5:0.0065707692 6:0.034407403 7:0.53023766 8:0.015870692 9:0.011444519 10:0.12306922 11:0.31411144 12:0.44717075 13:0.056910805 14:0.031422367 15:-2.255361e-16 16:0.075189223 17:-3.6798071e-18 18:0 19:0.070606321 20:0.36006187 21:0.16945488 22:0.16281685 23:0.1618707 24:0.13159716 25:-2.8577789e-18 26:0 27:0.038848483 28:0.031901159 29:0.2162296 30:0.40897939 31:0.17244411 32:0.062627017 33:0.19536534 34:0.42639376 35:0.023411441 36:0.11495605 37:0.094124166 38:0.078643563 39:0.0044786196 40:0.14819415 41:0.56061822 42:0.15945813 43:0.0035217485 44:0.10870148 45:0.0030887778 46:0.0050040308 47:0.011413454 48:0.13042768 49:0.011190588 50:0.043293659 51:0.026543996 52:0.042585302 53:0.034009532 54:0.11105747 55:0.60089176 56:0.17737833 57:0.1034924 58:0.25975471 59:0.058544141 60:0.23442033 61:0.033375296 62:0.13303304 63:1.5785375e-15 64:0.48147247 65:0.10470601 66:0.040344275 67:-3.1672121e-17 68:0.02454466 69:0.01714302 70:0.16631359 71:0.16547551 72:0.022114742 73:0.36247892 74:0.41543716 75:0.038476357 76:0.020448472 77:0.023109222 78:0.07561354 79:0.042321562 80:0.0094682187 81:0.54141102 82:0.41270891 83:0.012482705 84:0.015222739 85:0.0015964939 86:0.0010097114 87:0.0061001948 88:0.28014022 89:0.5741433 90:0.035620158 91:0.0034314726 92:0.028059901 93:0.017725405 94:0.016753174 95:0.04412636 96:0.10377163 97:0 98:0.0035021165 99:0.011930166 100:0.16526617 101:0.2537721 102:0.34877828 103:0.11297953 104:0.0088150902 105:0.031303452 106:0.062281114 107:0.10134207 108:0.64292702 109:0.070037985 110:0.079808768 111:0.0034844704 112:0.11802367 113:0.18348476 114:0.48364135 115:0.071788039 116:2.9738975e-16 117:0.019449745 118:0.066264799 119:0.057347568 120:0.11987131 121:0.23286905 122:0.18095129 123:6.9933293e-18 124:1.0927077e-16 125:0.066930318 126:0.26845962 127:0.13091839 128:0.60870378 129:0.069427786 130:0.075292259 131:0.029891944 132:0.030772517 133:0.019380881 134:0.09731041 135:0.069220334 136:0.53160129 137:0.36234411 138:0.011353927 139:0.0042690182 140:0.054875617 141:0.0018665741 142:0.011014422 143:0.022675034 144:0.63632153 145:0.03351925 146:0.055912645 147:0.08621501 148:0.071823046 149:0.0051615798 150:0.049731095 151:0.061315799 152:0.62345038 153:0.1067964 154:0.012907765 155:0.028479163 156:0.02967086 157:0.034909471 158:0.049510331 159:0.11427563 160:0.029981042 161:-9.4542938e-17 162:0.024384077 163:0.039982752 164:0.065716622 165:0.35080985 166:0.38279587 167:0.1063297 168:0.19378433 169:0.0057244414 170:1.5158529e-17 171:1.0610971e-17 172:0.027401984 173:0.10956259 174:0.24999595 175:0.41353069 176:0.60032153 177:0.025054043 178:0.048324266 179:0.037309404 180:0.094658561 181:0.038465203 182:0.041146868 183:0.11472012 184:0.14074254 185:0.5771607 186:0.2176619 187:0.017566381 188:0.022040785 189:0.0090929303 190:0.0037404452 191:0.0119943 192:0.25305584 193:0 194:0.017559047 195:-4.7261705e-18 196:0.0088686582 197:6.3803302e-17 198:0.007525306 199:0.71299109 200:0.10928194 201:0.0021137225 202:0.012164281 203:1.2593732e-18 204:0.020759471 205:0.11826056 206:0.19402564 207:0.54339439 208:0.080666646 209:0.13286902 210:0.41811953 211:0.067632146 212:0.1025722 213:0.018640778 214:0.15361013 215:0.025889406 216:0.35026076 217:0.42720191 218:0.1093617 219:0.036654811 220:0.013903155 221:0.022007787 222:0.013847058 223:0.026762805 224:0.15910688 225:0.11809976 226:0.17553756 227:0.20200826 228:0.18602018 229:0.071094647 230:0.07873679 231:0.0093957366 232:0.014860928 233:0.011076682 234:0.11076274 235:0.096451119 236:0.55605496 237:0.033230045 238:0.14623344 239:0.031329586 240:0.086781499 241:0.001460619 242:0.021910265 243:0.062891373 244:0.59577736 245:0.036111044 246:0.0097206057 247:0.18534722 248:0.15832346 249:0.16230879 250:0.096489742 251:0.24001726 252:0.090786387 253:0.057838022 254:0.098304885 255:0.095931455 256:0.07623714 257:0.14716019 258:0.22008553 259:0.038614097 260:0.16417262 261:0.26027234 262:0.084755785 263:0.0087022411 264:0.040636382 265:0.073673026 266:9.0948355e-17 267:0.049029314 268:0.45211748 269:0.32073359 270:0.032700605 271:0.03110957 272:-2.5965088e-16 273:-4.9333668e-17 274:4.2193269e-17 275:0.37061352 276:0.51637603 277:0.090271623 278:0.022738786 279:2.8561597e-17 280:-2.597075e-16 281:-1.4038243e-18 282:5.9662535e-17 283:-3.0322606e-16 284:0.49857797 285:0.23639546 286:0.26502652 287:3.2989872e-17 288:0.57216015 289:0.052679947 290:0.097250295 291:0.033560337 292:0.073042869 293:0.01343509 294:0.051622387 295:0.10624882 296:0.52752692 297:0.0026671768 298:0.0026671768 299:4.0257853e-17 300:0.0023855954 301:0.0059639886 302:0.076297425 303:0.38249169 304:0.038124579 305:0.018944255 306:0.034217603 307:0.12291795 308:0.41822435 309:0.17451643 310:0.17965885 311:0.013395612 312:0.019868201 313:-1.0209765e-16 314:0.0040139827 315:1.5125578e-17 316:0.48140681 317:0.32840578 318:0.14012977 319:0.02617529 320:0.02338928 321:6.8813391e-17 322:0.0065375025 323:0.047635756 324:0.33167029 325:0.24224854 326:0.29853883 327:0.049979631 328:0.15947495 329:1.0060043e-16 330:0.011965536 331:0.050331543 332:0.097076242 333:0.087962914 334:0.29441479 335:0.29877397 336:0.29140852 337:0.19502403 338:0.14476665 339:-1.1160526e-17 340:0.064621185 341:0.084292841 342:0.16798174 343:0.051904222 344:0.09439875 345:0.040116434 346:0.015787642 347:0.01209282 348:0.031115367 349:0.21985578 350:0.3998412 351:0.18679195 352:0.0261657 353:0.0072785742 354:0.010051392 355:0.018154967 356:0.57442338 357:0.27658396 358:0.087341998 359:2.3793139e-17 360:0.022616815 361:0.0059497335 362:0.030112404 363:0.11753857 364:0.79494974 365:0.0089246003 366:0.019908105 367:4.96286e-17 368:0.019024906 369:0.0028360655 370:-7.6038798e-18 371:0.54065589 372:0.282411 373:0.068146365 374:0.077685493 375:0.0092402486 376:0.17274684 377:0.013397131 378:0.066370255 379:0.35179199 380:0.063889427 381:0.0085766343 382:0.12560741 383:0.19762024 
0.3765199493903518 0:0 1:0 2:0.3317944 3:0.49519031 4:0.17301502 5:0 6:0 7:0 8:0 9:0 10:0.25940026 11:0.5124667 12:0.21633238 13:0.01180044 14:0 15:0 16:0 17:0.0693846 18:0.48593558 19:0.28813004 20:0.15654955 21:0 22:0 23:0 24:0.33175747 25:0.23812336 26:0.35254315 27:0.047015126 28:0.0222635 29:0 30:0.0082971167 31:0 32:0.40448007 33:0.2243203 34:0.20201841 35:-6.0665394e-16 36:0.048787973 37:0.027273306 38:0.054546612 39:0.038570279 40:0.087764718 41:0.37054606 42:0.36543596 43:0.011412398 44:0.15667087 45:0.0050046674 46:0.0031652296 47:0 48:0 49:0 50:0.13032246 51:0.40898112 52:0.42436047 53:0.030921941 54:0.0054137066 55:0 56:0.071204549 57:0.034662489 58:0.37111671 59:0.3722149 60:0.1424091 61:0 62:0.0083915366 63:0 64:0.013583515 65:0 66:0.3857148 67:0.17664972 68:0.29204557 69:0.015186831 70:0.11681862 71:0 72:0.14460879 73:0.16262122 74:0.15495709 75:0.060685313 76:0.11284053 77:0.078612655 78:0.14595224 79:0.13972187 80:0.015155704 81:0.01071408 82:0.30202761 83:0.58498242 84:0.025566314 85:0.0025985461 86:0.0589553 87:2.0643135e-18 88:1.2741174e-17 89:0.079288572 90:0.78185657 91:0.084661507 92:0.054193303 93:0 94:-5.6627438e-18 95:2.8313719e-18 96:0.023132844 97:0 98:0.032226561 99:0.26716093 100:0.64616382 101:0.017242204 102:0.014073566 103:0 104:0.024117266 105:0.0035280663 106:0.070835122 107:0.73364388 108:0.11854489 109:0.02260036 110:0.021740924 111:0.0049894392 112:0.0021979853 113:0.0024574223 114:0.0073722668 115:0.67372561 116:0.28997384 117:0.016249586 118:0.0080232652 119:0 120:0.0010366773 121:0.0083579595 122:0.022918523 123:0.25844902 124:0.64767943 125:0.031107337 126:0.023120613 127:0.0073304154 128:0.046700204 129:0.0060720106 130:0.058370409 131:0.05370084 132:0.22897136 133:0.17545992 134:0.28538385 135:0.14534139 136:0.089746339 137:0.036487075 138:0.24604755 139:0.085196914 140:0.27152437 141:0.072974151 142:0.19802224 143:-2.3188585e-16 144:0.10744374 145:0.031291391 146:0.048260892 147:0.38081162 148:0.28785042 149:0 150:0.0071090486 151:0.13723286 152:0.0015683206 153:0.0078416031 154:0.054383567 155:0.93620646 156:2.2287177e-17 157:0 158:0 159:-2.2287177e-17 160:-2.6554054e-17 161:-1.5620032e-18 162:0.012839203 163:0.65566763 164:0.33149292 165:0 166:2.3430048e-18 167:-4.9984102e-17 168:0.0035496459 169:1.5763594e-17 170:2.2069032e-17 171:1.7655226e-16 172:0.97345297 173:1.5763594e-18 174:0.022997122 175:-4.4138065e-17 176:0.03149653 177:0.020522578 178:0.011829661 179:0.0051723693 180:0.1033081 181:0.21706556 182:0.23235176 183:0.37825342 184:0.30941979 185:-1.1999169e-17 186:0.038211664 187:0.013925648 188:0.033774658 189:-8.9993768e-18 190:0.23171628 191:0.37295173 192:0.039482629 193:0 194:5.8446031e-18 195:0.027940824 196:0.17453719 197:0.090862718 198:0.44831139 199:0.21886522 200:-1.421243e-16 201:3.5531074e-17 202:0.11314962 203:0.48667493 204:0.40004433 205:0 206:-4.6190397e-16 207:0 208:-4.4372586e-16 209:0 210:1.1980598e-15 211:-3.5498069e-16 212:0.99918181 213:0 214:-1.0205695e-15 215:0 216:-3.297583e-16 217:0.066415662 218:0.26566265 219:0.28177779 220:0.38612583 221:1.3190332e-17 222:-9.2332324e-17 223:5.2761328e-17 224:0.49603008 225:0.22717473 226:0.084950037 227:-5.6611136e-17 228:4.0436526e-17 229:-2.6957684e-18 230:0.023115131 231:0.16872998 232:0.56528 233:0.19387481 234:0.025676271 235:2.0157059e-17 236:0.041587269 237:0.020298874 238:0.079112155 239:0.074170197 240:0.028074749 241:0.035996941 242:0.048886953 243:0.079961279 244:0.2163124 245:0.15233132 246:0.25476511 247:0.18367121 248:0.025249002 249:0.0027696397 250:0.029405363 251:0.053054739 252:0.28949652 253:0.26816114 254:0.22502585 255:0.10683772 256:0 257:-1.9611418e-18 258:0.22992785 259:0.15700558 260:0.58808494 261:1.5689135e-17 262:0.024981227 263:5.4911971e-17 264:-1.8834739e-17 265:0.13423359 266:0.72928532 267:0.10679256 268:0.029688443 269:8.4756325e-18 270:5.1324663e-17 271:3.0135582e-17 272:0.081852551 273:0.24461942 274:0.2815018 275:0.089470753 276:0.05676825 277:0.1558109 278:0.06181291 279:0.028163391 280:0.0096130595 281:0.011593459 282:0.11626128 283:0.23274276 284:0.30148933 285:0.32376841 286:0.0045316397 287:1.4230187e-17 288:1.5200153e-17 289:0 290:0.17024103 291:0.12468096 292:0.65888326 293:0.019133867 294:-7.6000766e-17 295:0.027059374 296:0.10911997 297:0.050440284 298:0.12552544 299:0.062971799 300:0.32393434 301:0.14767244 302:0.12343958 303:0.056895768 304:0.037552893 305:0.0069975684 306:0.057834281 307:0.13177779 308:0.56064814 309:0.10562697 310:0.086659284 311:0.012902879 312:0.27224857 313:0.2796614 314:0.26053624 315:0.025309323 316:0.046536157 317:1.0904011e-17 318:0.032674048 319:0.083034067 320:0.13302286 321:0.027730191 322:-3.8999727e-17 323:0.060628477 324:0.30261984 325:0.31072461 326:0.09702088 327:0.068253027 328:0.033674749 329:-1.5920433e-17 330:0.033956404 331:0.1065801 332:0.30487523 333:0.3281858 334:0.18286971 335:0.0098579548 336:0.068381261 337:0 338:0.35755645 339:0.086496214 340:0.43764007 341:0.03058103 342:0.019341141 343:6.0734761e-17 344:0.18307856 345:7.3912013e-18 346:0.24173275 347:0.13157847 348:0.36615712 349:0.018608005 350:0.058843679 351:0 352:0.16665635 353:0.046581865 354:0.34244668 355:0.38831415 356:0.020832044 357:0.015527288 358:0.019640639 359:0 360:0.13591929 361:0.19632849 362:0.47391985 363:0.086195439 364:0.06167016 365:2.2822544e-18 366:0.045966224 367:9.1290176e-18 368:0.17142519 369:0.12581803 370:0.47905852 371:0.13356167 372:0.058536091 373:6.758764e-17 374:0.013089068 375:0.018510737 376:0.17511441 377:0.31262064 378:0.41184291 379:0.020387112 380:0.070916679 381:-1.6032969e-16 382:0.0091173936 383:-5.7260604e-17 
0.5173267803842094 0:0.026337028 1:0 2:0.041861086 3:0.13876614 4:0.28945287 5:0.19317457 6:0.24925067 7:0.061157244 8:0.12643729 9:0.06178878 10:0.099158845 11:0.055922519 12:0.15945863 13:0.27343283 14:0.17481586 15:0.048984882 16:0.1366995 17:0.029370458 18:0.10885953 19:0.027690733 20:0.2396276 21:0.14017183 22:0.27594999 23:0.041629959 24:0.062012317 25:0.11323123 26:0.40388451 27:0.064283474 28:0.12904588 29:0.032449971 30:0.11754306 31:0.07754936 32:0.15454394 33:0.1829896 34:0.17548524 35:0.027017411 36:0.02725915 37:0.10464131 38:0.21453441 39:0.11352887 40:0.16696161 41:0.033939773 42:0.26455148 43:-1.280701e-16 44:0.36674297 45:0.033939773 46:0.085861589 47:0.047998087 48:0.0335513 49:0.015004598 50:0.12644658 51:0.076553928 52:0.55308827 53:0.13841596 54:0.056938445 55:0 56:0.096611561 57:0.040553395 58:0.02314496 59:0.084987042 60:0.47647838 61:0.099532971 62:0.13383352 63:0.044857857 64:0.020656571 65:0.016387921 66:0.41834115 67:0.32542406 68:0.074103541 69:0.062776892 70:0.082309772 71:-9.0268743e-19 72:-6.2471804e-18 73:0.023055287 74:0.61939309 75:0.1131002 76:0.1352423 77:0.090435028 78:0.018774033 79:-7.8089755e-19 80:0.14506321 81:0.1483714 82:0.20393331 83:0.25165716 84:0.11647614 85:0.044438177 86:0.09006039 87:-1.4152417e-18 88:0.18256609 89:0.050014249 90:0.22655565 91:0.035365415 92:0.31313873 93:0 94:0.1923573 95:-4.9664833e-18 96:0 97:0.046006365 98:0.16022981 99:0.15503678 100:0.49259262 101:0.14613433 102:4.4356992e-18 103:0 104:0.011135053 105:0.14892619 106:0.28346679 107:0.39896271 108:0.12715393 109:0.015776152 110:0.0060388305 111:0.008540196 112:0.15559971 113:0.17287172 114:0.30813282 115:0.31284132 116:0.033173546 117:0.0052984503 118:-9.4705803e-18 119:0.012082326 120:0.055105976 121:0.028631932 122:0.087256219 123:0.12910908 124:0.53650432 125:0.088803936 126:0.034750031 127:0.03983849 128:0.038596585 129:0.016041473 130:0.026038825 131:0.05862196 132:0.26439049 133:0.30631932 134:0.1983443 135:0.091647027 136:0.004687134 137:-8.3260225e-18 138:0.059240089 139:0.11874492 140:0.78973764 141:0.015721125 142:0.011868984 143:-1.2489034e-17 144:0.19852621 145:0.047687617 146:0.27328121 147:0.24302138 148:0.05534949 149:0.028847163 150:0.096093905 151:0.057192807 152:0.31765332 153:0.14486661 154:0.29276467 155:3.0235626e-17 156:0.069465653 157:0 158:0.14833547 159:0.026912792 160:0.37616389 161:0.1071738 162:0.046404218 163:4.5797031e-17 164:0.15267657 165:0.041926578 166:0.14479731 167:0.13085718 168:0.018298263 169:2.8441214e-17 170:-1.3611153e-16 171:0.084443448 172:0.49762681 173:0.31613878 174:0.083492266 175:-1.6252123e-17 176:0.041011003 177:0.012749717 178:0.040651828 179:0.22102254 180:0.4678485 181:0.18601086 182:-1.8990965e-18 183:0.030705385 184:0.013314038 185:0.0049618492 186:0.019095773 187:0.057715086 188:0.6494416 189:0.21631148 190:0.027210363 191:0.011949715 192:0.011115864 193:0.020108787 194:0.17286615 195:0.094845588 196:0.12049103 197:0.31318006 198:0.2586045 199:0.0087878621 200:0.02507527 201:6.6813941e-18 202:0.0070923574 203:0.042865886 204:0.19138588 205:0.26326008 206:0.35759859 207:0.11272142 208:0.017156688 209:0.03836352 210:0.032350961 211:0.041664349 212:0.60344038 213:0.12292249 214:0.1260162 215:0.018084737 216:0.044404321 217:4.92987e-18 218:0.012411385 219:0.12673029 220:0.53987128 221:0.19377215 222:0.08280995 223:2.464935e-18 224:0.035979639 225:5.0217105e-17 226:0.16852883 227:0.11253481 228:0.33655625 229:0.18732113 230:0.14282486 231:0.016253944 232:0.10373574 233:0.021087289 234:0.082184895 235:-3.3503945e-17 236:0.48401736 237:0.042174578 238:0.26679831 239:-4.1879932e-18 240:0.052535234 241:0.071958952 242:0.26209381 243:0.018132063 244:0.098181522 245:0.074924487 246:0.39853194 247:0.023641318 248:0.014281288 249:0.02452356 250:0.065096943 251:0.012817848 252:0.29411034 253:0.39735845 254:0.19181145 255:-2.1140553e-18 256:0.014806285 257:-5.2602491e-18 258:0.09576156 259:0.097094612 260:0.63897346 261:0.11850192 262:0.034861987 263:-3.9451868e-18 264:0.035572905 265:0.018322848 266:0.2855916 267:0.11975967 268:0.45465814 269:0.022726696 270:0.047297409 271:0.016070201 272:0.14039892 273:0.26498929 274:0.27508834 275:0.11403646 276:0.10813537 277:0.027555797 278:0.052858681 279:0.016936793 280:0.042094001 281:0.076252896 282:0.15460781 283:0.24677164 284:0.44686151 285:1.5802586e-16 286:0.033411601 287:0 288:0.28558031 289:0.37059968 290:0.19393357 291:-8.3655012e-17 292:0.090092076 293:0.036627638 294:0.023165352 295:-1.4548698e-17 296:0.29464031 297:0.14446515 298:0.40748626 299:0.097338011 300:0.020621157 301:2.5641373e-17 302:0.018444123 303:0.017004642 304:0.10069636 305:0.059715763 306:0.29519419 307:0.34298417 308:0.12020071 309:0.0744791 310:0.0067292455 311:-8.4524301e-18 312:0.021146793 313:0.030882878 314:0.38287285 315:0.25468477 316:0.21771565 317:0.023642833 318:0.052335642 319:0.016718008 320:0.0040377885 321:2.5103936e-17 322:0.17035623 323:0.40180636 324:0.34889921 325:0.029217712 326:0.045682362 327:-1.7931383e-18 328:-3.31386e-17 329:-2.0711625e-17 330:0.1977884 331:0.10641481 332:0.65812328 333:0.037673068 334:-1.1391394e-17 335:-2.0711625e-18 336:0.44915202 337:0.12892235 338:0.18978385 339:0.026046247 340:0.057655826 341:0.018417478 342:0.13002084 343:-1.4631046e-17 344:0.12614895 345:0.031341958 346:0.045404571 347:0.057897441 348:0.27704828 349:0.19527562 350:0.22255796 351:0.044324222 352:0.036719087 353:-9.3180287e-18 354:0.06175468 355:0.12996791 356:0.67150736 357:0.070376892 358:0.029673503 359:-9.3180287e-18 360:0.090539354 361:0.13090775 362:0.33270069 363:0.2784679 364:0.15085919 365:0.010122608 366:0.0064020991 367:2.0103775e-18 368:0.11052151 369:0.10018974 370:0.22997748 371:0.19946506 372:0.085542759 373:0.058366542 374:0.17474039 375:0.041196012 376:0.14143084 377:0.18787973 378:0.26334693 379:0.083769653 380:0.13426495 381:0.098513294 382:0.090793499 383:-1.304334e-17 
0.7431263563150695 0:0.84434659 1:0 2:0.017859785 3:0 4:0.035836958 5:0 6:0.015594188 7:0.086362322 8:0.13926353 9:0 10:0.12071724 11:0 12:0.26024652 13:0.21381026 14:0.26596042 15:3.5340247e-17 16:0.37546254 17:0.066281034 18:0.091960022 19:0 20:0.1498123 21:0.044187356 22:0.27229476 23:3.5102918e-17 24:0.41903425 25:0.20663405 26:0.14822813 27:0 28:0.013975083 29:-1.2412367e-17 30:0.19003093 31:0.022096546 32:0.28498437 33:0.49700494 34:0.21801047 35:0 36:-5.8140081e-18 37:-5.8140081e-18 38:1.6715273e-17 39:1.1628016e-17 40:0.17979035 41:0.42105804 42:0.31648687 43:0.025972099 44:0.056692432 45:-5.5947772e-18 46:1.6084985e-17 47:1.1189554e-17 48:0.61903367 49:0.009693037 50:0.029271228 51:0 52:0.028880027 53:0.053613437 54:0.10101443 55:0.15849408 56:0.1790867 57:0.042152634 58:0.12945651 59:0.029806414 60:0.21831873 61:0.13109749 62:0.27007972 63:2.5114885e-17 64:0.20283396 65:0.038643083 66:0.04238966 67:0.089192919 68:0.43709335 69:0.10306467 70:0.086782072 71:9.9833529e-18 72:0.05963597 73:0.071819324 74:0.18602331 75:4.2831268e-18 76:0.44627012 77:0.15785016 78:0.06541635 79:0.012984634 80:0.15607986 81:0.16090241 82:0.061734257 83:3.6006905e-18 84:0.10329838 85:0.29411353 86:0.15714439 87:0.066727092 88:0.1497337 89:0.17592077 90:0.1503576 91:0.03171997 92:0.12230057 93:0.029297869 94:0.28337559 95:0.057293428 96:0.4946181 97:0.058081755 98:0.04898932 99:0.1025218 100:0.078242017 101:0.035851215 102:0.023884832 103:0.15781093 104:-2.7307738e-17 105:0 106:0.12161522 107:0.61946035 108:0.23788003 109:0.013797488 110:0.0072468497 111:9.1025793e-18 112:-2.8370167e-17 113:0 114:0.0027377433 115:0.6009445 116:0.37352718 117:0.0086575046 118:0.014132991 119:1.0316424e-17 120:0.011842188 121:7.5128399e-19 122:-1.4650038e-17 123:1.2020544e-16 124:0.71693579 125:0.12697816 126:0.073462612 127:0.070781189 128:-2.3634884e-17 129:-1.5969516e-17 130:-1.5650126e-17 131:1.022049e-16 132:0.061881265 133:0.35845544 134:0.38611165 135:0.19355161 136:0.0073371847 137:-1.0589685e-17 138:-1.5884527e-17 139:1.2707622e-16 140:0.043710153 141:0.16365583 142:0.43466754 143:0.35062922 144:0.79293116 145:0.016475447 146:0.016233886 147:0.023831058 148:0.0063154663 149:9.3487681e-19 150:0.004465709 151:0.13974725 152:0.1527417 153:0.092995122 154:0.282475 155:0.039777974 156:0.2516939 157:0.05625455 158:0.10417196 159:0.019888987 160:0.085094339 161:0.13319371 162:0.17742459 163:-1.3226317e-16 164:0.35579125 165:0.11416604 166:0.1343286 167:-2.8342108e-16 168:0.37945094 169:9.1400961e-18 170:0.026668525 171:-2.0108212e-17 172:0.028814334 173:0.027613204 174:0.28212982 175:0.25532283 176:0.071716179 177:-2.0267152e-17 178:-4.8255123e-18 179:-1.0616127e-17 180:7.7208197e-18 181:2.8953074e-17 182:0.31468219 183:0.61360153 184:0.081850838 185:-5.8378119e-18 186:0 187:-9.7296864e-18 188:0.072774117 189:0.015819909 190:0.17421072 191:0.65534437 192:0.38958901 193:0.0090274354 194:0.022837806 195:-4.4821834e-19 196:0.012624572 197:0.0050464898 198:0.11515812 199:0.44571654 200:0.073273838 201:0.014678481 202:0.051812428 203:0.020758507 204:0.16598378 205:0.10052587 206:0.3937527 207:0.17921351 208:0.34622383 209:0.17083122 210:0.17053781 211:-9.8865276e-17 212:0.092760338 213:0.062225526 214:0.15741951 215:2.5128258e-16 216:0.17318462 217:0.2029577 218:0.53945704 219:0.024945545 220:0.012100367 221:2.6868212e-18 222:0.013528621 223:0.033825916 224:0.18038625 225:0.38919602 226:0.39537977 227:0.017518951 228:2.4602447e-18 229:2.6242611e-17 230:-4.0183997e-17 231:0.017518951 232:0.23784573 233:0.1788303 234:0.15294316 235:0 236:0.11296131 237:0.040041901 238:0.13615272 239:0.14122473 240:0.13437997 241:-2.1674345e-18 242:0.051438806 243:0.022875552 244:0.020850055 245:0.11077849 246:0.21784642 247:0.44183069 248:7.9184271e-19 249:7.9184271e-19 250:0.0039870686 251:0.13455953 252:0.60983424 253:0.1532186 254:0.0984005 255:-3.4841079e-17 256:2.7809869e-18 257:0.013472476 258:0.40424524 259:0.5728889 260:0.0093933386 261:0 262:1.8424038e-17 263:-3.0590856e-17 264:0.055290621 265:0.02433942 266:0.89695191 267:0.018102824 268:5.3742769e-17 269:-1.4928547e-18 270:1.9407111e-17 271:0.005315172 272:0.077233334 273:0.13883336 274:0.63894313 275:0.10122128 276:0.014152877 277:0.006329359 278:0.014335435 279:0.0089510653 280:0.058837449 281:0.075854381 282:0.34126815 283:0.069772632 284:0.25860734 285:0.082227835 286:0.1134311 287:-1.1758084e-16 288:0.25848924 289:0.0060977985 290:0.023139518 291:-1.2110394e-18 292:0.0086235893 293:0.11001824 294:0.28478378 295:0.30884768 296:0.12855857 297:0.026133246 298:0.12900144 299:0.061051652 300:0.27690822 301:0.19187593 302:0.16237658 303:0.024093662 304:0.20656207 305:0.065914174 306:0.14765333 307:0.031964124 308:0.21462785 309:0.070347781 310:0.23096602 311:0.031964124 312:0.34983882 313:0.13979679 314:0.023630117 315:-4.9468624e-18 316:0.011139344 317:0.012454165 318:0.21959293 319:0.24354719 320:0.22944805 321:-1.4676803e-16 322:0.044607559 323:0 324:0.041311528 325:0.11720052 326:0.34308495 327:0.22434642 328:0.18424739 329:0.025490818 330:0.032243618 331:-1.0125092e-17 332:0.27359617 333:0.12745409 334:0.3209158 335:0.036049461 336:0.28380359 337:0.025524536 338:0.1129512 339:0.02763469 340:0.12997074 341:-7.7616636e-18 342:0.088038537 343:0.33207632 344:0.034719721 345:2.8033916e-18 346:0.025637097 347:0.025447213 348:0.55932488 349:0.10002171 350:0.23785176 351:0.016997402 352:0.029914533 353:1.0958183e-18 354:0.023532242 355:0.13279329 356:0.77637929 357:0.019932206 358:0.017448309 359:4.6024369e-17 360:0.035518371 361:0.0072201356 362:0.0045664147 363:0.62032032 364:0.14997684 365:0.082749765 366:0.089437125 367:0.010210814 368:0.28150656 369:0.046897721 370:0.1419699 371:0.059253589 372:0.18815835 373:0.046897721 374:0.21695581 375:0.018359663 376:0.11246979 377:-8.3244364e-17 378:9.7812128e-17 379:8.3244364e-17 380:0.43721796 381:0.20957507 382:0.24073539 383:2.0811091e-16 
