svm_type c_svc
kernel_type rbf
gamma 0.03125
nr_class 2
total_sv 118
rho 2.28554
label 1 -1
probA -3.50576
probB 0.367769
nr_sv 60 58
SV
3.227746109858728 0:0 1:0 2:0.047365797 3:0.26251189 4:0.61677213 5:0.061902802 6:0.01144718 7:0 8:0 9:0 10:0.045526861 11:0.44924337 12:0.41067565 13:0.071665934 14:0.022888028 15:0 16:0 17:0 18:-7.3382274e-18 19:0.1294198 20:0.82611693 21:0.044463113 22:-6.1151895e-19 23:0 24:0 25:0 26:-6.77752e-18 27:0.12005533 28:0.73588411 29:0.14406043 30:-5.6479333e-19 31:0 32:0.063488443 33:0.054065328 34:0.17806274 35:0.18266352 36:0.29976447 37:0.072106868 38:0.1498484 39:0 40:0.12635716 41:0.02329168 42:0.16601965 43:0.058301248 44:0.36051679 45:0.060848386 46:0.20466453 47:0 48:0.020762877 49:0.046427203 50:0.29557546 51:0.13796581 52:0.37863845 53:0.061902938 54:0.058726283 55:0 56:0.0049477642 57:-8.7889947e-18 58:0.075866641 59:0.14212537 60:0.63708283 61:0.057805909 62:0.082170977 63:0 64:0.24932305 65:0.11062323 66:0.037220356 67:0.0170641 68:0.026184794 69:0.07682447 70:0.16662977 71:0.3161302 72:0.014831941 73:0 74:0.017328511 75:0.060630643 76:0.45566197 77:0.18982175 78:0.23073319 79:0.030991819 80:0.0061246937 81:0.0068476157 82:0.03701737 83:0.12675752 84:0.57648653 85:0.17747083 86:0.05666887 87:0.012626379 88:0.093615349 89:0.15492684 90:0.16932232 91:0.10988782 92:0.33019012 93:0.060317327 94:0.061907373 95:0.019832731 96:0.37870858 97:0.0062467529 98:0 99:-4.0068514e-18 100:-2.5498145e-18 101:-1.4570369e-18 102:0.0095655465 103:0.6054791 104:0.42558991 105:0.17048091 106:0.029495633 107:0.014497 108:0.042003122 109:0.080242342 110:0.16740166 111:0.070288986 112:0.13748486 113:0.070944344 114:0.294817 115:0.043604969 116:0.19207986 117:0.070944344 118:0.19012233 119:4.3678196e-16 120:0.32013232 121:0.021209354 122:0.06137632 123:-4.8459559e-18 124:0.066206059 125:0.027831529 126:0.048544322 127:0.45470002 128:0.26668841 129:0.043971156 130:0 131:0.0078909101 132:0.0087204819 133:-1.4775291e-18 134:0.041135401 135:0.63159363 136:0.58719692 137:0.068269825 138:0.046762228 139:3.4864904e-17 140:0.013084797 141:-1.5495513e-17 142:0.05651506 143:0.22817078 144:0.25189507 145:0.031291917 146:0.40223811 147:3.1073301e-17 148:0.22390673 149:-2.4858641e-17 150:0.090664155 151:-1.4604452e-15 152:0.3323803 153:0.12225632 154:0.0079468637 155:0.058459967 156:0.34013143 157:0.038339102 158:0.014393748 159:0.086092253 160:0.12483975 161:0.0087657122 162:0.38997223 163:0.054879738 164:0.011737125 165:0.055555276 166:0.21900546 167:0.1352447 168:0.4324545 169:0.051960449 170:0.048108615 171:2.6530445e-17 172:0.010542574 173:0.042316466 174:0.20066718 175:0.21394997 176:0.1198484 177:0.16358353 178:0.16268328 179:0.12820973 180:0.12269917 181:0.052728718 182:0.14066342 183:0.10958322 184:0.30821311 185:0.04631883 186:0.037138682 187:0.060945114 188:0.21212225 189:0.11921396 190:0.13893516 191:0.077112868 192:0.17367157 193:0.1125077 194:0.077911466 195:0.094627922 196:0.21840944 197:0.18434025 198:0.077331518 199:0.061200097 200:0.18603851 201:0.0044843571 202:-6.234239e-18 203:0.0063418387 204:0.077446021 205:0.15100935 206:0.26711645 207:0.3075634 208:0.021445449 209:-1.1967315e-17 210:0.044671576 211:0.16595737 212:0.62732853 213:0.1211982 214:0.019398692 215:-1.3297017e-17 216:0.077533967 217:0.073098623 218:0.29593649 219:0.23484224 220:0.17395313 221:0.069646405 222:0.06333371 223:0.011655273 224:0.029660272 225:-4.0528636e-18 226:0.033906113 227:0.3166528 228:0.513907 229:0.09619387 230:0.0096798365 231:8.5110135e-17 232:0.12122682 233:0.021064725 234:0.10283294 235:0.18537863 236:0.37173115 237:0.064527913 238:0.12248558 239:0.010752098 240:0.089531104 241:0.04240254 242:0.1491812 243:0.16738862 244:0.39842073 245:0.11078461 246:0.042290781 247:-3.9759797e-18 248:0.24370858 249:0.11413281 250:0.18777864 251:0.05468527 252:0.2216862 253:0.034639579 254:0.12461656 255:0.018751644 
1.988869516386469 0:0.15517304 1:0.073890792 2:0.040109072 3:0.0082840033 4:0.015944519 5:0.032169367 6:0.16395366 7:0.51047552 8:0.29672051 9:0.11779715 10:0.14900292 11:0 12:0.16857756 13:3.7431739e-17 14:0.23458151 15:0.033318067 16:0.34423275 17:-2.1581654e-16 18:0.31500028 19:0 20:0.28348579 21:7.1938847e-17 22:0.057272779 23:3.4170952e-15 24:0.18651368 25:0.029789805 26:0.26988504 27:0.042129147 28:0.37302737 29:4.7330694e-17 30:0.056522181 31:0.042129147 32:0.19673386 33:0.041073139 34:0.037490355 35:0.012144692 36:0.030180425 37:0.11067898 38:0.25095959 39:0.32073878 40:0.050539235 41:0.0062782869 42:0 43:0 44:0.37738101 45:0.15749421 46:0.32155539 47:0.086751714 48:0.086100635 49:0.013751919 50:0.11589002 51:0.050807352 52:0.66610111 53:0.041255758 54:0.026092433 55:2.7311688e-16 56:0.30180965 57:0.026820581 58:0.2260221 59:0 60:0.32385227 61:0.026820581 62:0.094671879 63:5.3266406e-16 64:0.19673913 65:0.37708311 66:0.22272752 67:0 68:0.057369349 69:0.030611922 70:0.10035034 71:0.015118151 72:0.11963421 73:0.038279369 74:0.084904403 75:0 76:0.30482234 77:0.16735026 78:0.16740497 79:0.11760404 80:0.043618235 81:0.011366013 82:0.022035078 83:0 84:0.41556158 85:0.38285667 86:0.10604636 87:0.018515932 88:0.11529474 89:0.052217743 90:0.038701289 91:0.089347748 92:0.32516559 93:0.16930813 94:0.12189047 95:0.088074209 96:0.73172047 97:0.073758499 98:0.037793806 99:0 100:0.052237515 101:0.026999587 102:0.015830358 103:0.061659484 104:0.21620618 105:0.078144565 106:0.34359817 107:0 108:0.29429861 109:-1.1881349e-17 110:0.067748813 111:1.1881349e-17 112:0.50942945 113:0.049221538 114:0.11800207 115:0 116:0.14308152 117:-3.9102128e-17 118:0.18026294 119:-4.887766e-18 120:0.48942203 121:0.047693348 122:0.019099117 123:0.054813461 124:0.10128836 125:0.043391175 126:0.039086184 127:0.20520622 128:0.6122237 129:8.4624809e-18 130:0.023580365 131:0 132:0.0047639532 133:2.1156202e-18 134:0.012063509 135:0.34736835 136:0.29484973 137:0.12361951 138:0.23455152 139:0 140:0.29484973 141:-8.1837239e-18 142:0.052122561 143:-4.9102344e-17 144:0.22492229 145:0.18529425 146:0.28732196 147:0 148:0.14205618 149:-3.6799944e-17 150:0.16040246 151:-4.7314213e-17 152:0.49977194 153:0.072424256 154:0.033546434 155:0.021154828 156:0.10917028 157:0.037218299 158:0.029099598 159:0.19761429 160:0.2544817 161:0.082848346 162:0.068969897 163:0.019698304 164:0.024916602 165:0.033733815 166:0.087749518 167:0.42760162 168:0.026566433 169:0 170:0.27636905 171:0.19640403 172:0.41620745 173:0.0396029 174:0.044848523 175:-1.1011342e-16 176:0.016667779 177:0.13184304 178:0.37253063 179:0.40673088 180:0.072227041 181:-1.2336634e-17 182:-1.2336634e-18 183:-7.6487134e-17 184:0.4729031 185:0.14723073 186:0.043004783 187:0.011208646 188:0.089871681 189:0.042458326 190:0.076674919 191:0.1166478 192:0.067433281 193:0.12645279 194:0.36859145 195:0.038771411 196:0.088185351 197:0.058067019 198:0.13755562 199:0.11494231 200:0.1450115 201:0.10530708 202:0.41494727 203:0.093544781 204:0.039041559 205:0.044992719 206:0.1165212 207:0.040633246 208:0.12320979 209:0.11552324 210:0.32808404 211:0.070840648 212:0.21463456 213:0.075137853 214:0.072567302 215:-4.4767749e-17 216:0.22066158 217:0.060457103 218:0.17309808 219:0.063727382 220:0.37852134 221:0.052550946 222:0.050981906 223:-1.2807409e-16 224:0.43222893 225:0.20233082 226:0.20705429 227:0.028279729 228:0.031299924 229:3.9714167e-18 230:0.039993576 231:0.058812318 232:0.13581398 233:0.12205747 234:0.47332459 235:0.099111122 236:0.12536675 237:-4.6395019e-18 238:0.044323841 239:1.0206904e-16 240:0.14826584 241:0.027627709 242:0.29201003 243:0.050942978 244:0.41125712 245:-3.8408569e-17 246:0.069893189 247:9.8764893e-17 248:0.24725688 249:0.032522541 250:0.16789038 251:0.091987636 252:0.40724663 253:1.1626318e-16 254:0.053091601 255:-3.2295327e-17 
1.552266831750804 0:0 1:0 2:0.039488236 3:0.5311641 4:0.41833893 5:0.011008691 6:0 7:0 8:0 9:0 10:0.087038576 11:0.65167712 12:0.26128426 13:0 14:0 15:0 16:0 17:0 18:0.057325904 19:0.2042688 20:0.65520854 21:0.077866314 22:0.0053303779 23:0 24:0.14352409 25:0.058858613 26:0.026811471 27:0.05926516 28:0.3255975 29:0.17881088 30:0.13070652 31:0.076425726 32:0.071230125 33:0.072291871 34:0.05178175 35:0.41452998 36:0.24873314 37:0.066385756 38:0.063964501 39:0.011082625 40:0.11471093 41:0.046295139 42:0.18272073 43:0.13465647 44:0.34030929 45:0.041809737 46:0.10178835 47:0.037708808 48:0.058388892 49:0.033880269 50:0.16745498 51:0.10963917 52:0.44242468 53:0.15651707 54:0.031694814 55:-1.105862e-18 56:0.14890047 57:0.12862599 58:0.044816832 59:0.086223925 60:0.37818701 61:0.057543156 62:0.10943583 63:0.046266761 64:0.02322769 65:0.057822928 66:0.27524422 67:0.40623322 68:0.16231617 69:0.029444838 70:0.032355861 71:0.013354983 72:0.0091903279 73:0.058351065 74:0.67875658 75:0.16589344 76:0.031567461 77:0.014272448 78:0.025729593 79:0.016238988 80:0.3752739 81:0.26369612 82:0.082158745 83:0.02437154 84:-4.635199e-18 85:0.14294136 86:0.0081519795 87:0.10340633 88:0.12544281 89:0.033517438 90:0.038187048 91:0.076616344 92:0.18830831 93:0.13450819 94:0.13542717 95:0.26799268 96:0.29497187 97:0.30823977 98:0.11963612 99:0.040678239 100:0.025235362 101:0 102:0.056541183 103:0.15469741 104:0.43149527 105:0.16951211 106:0.25193268 107:0.047039643 108:0.034708896 109:0 110:0.029186956 111:0.036123944 112:0.54127805 113:0.013947118 114:-1.9518748e-17 115:1.4639061e-17 116:-4.1477339e-17 117:2.6024997e-17 118:0.010678492 119:0.43409627 120:0.36508978 121:0.0088268261 122:0.0086629833 123:0.063586329 124:0.06068561 125:0.0093526899 126:0.026677779 127:0.457118 128:0.20048008 129:0.12454939 130:0.069703305 131:0.025397138 132:0.055007635 133:0.02716562 134:0.2920666 135:0.2056302 136:0.37988136 137:0.17237371 138:0.16071358 139:0.020165769 140:0.1182766 141:0.014259352 142:0.087870087 143:0.046458715 144:0.19437745 145:3.788089e-17 146:-2.2927907e-17 147:2.4921638e-17 148:0.0044894832 149:3.9874621e-17 150:0.21177618 151:0.58935679 152:0.6215564 153:0.029887369 154:0.016803765 155:0.0044148098 156:0.050821698 157:0.0093546606 158:0.039126337 159:0.22803495 160:0.010230189 161:0.055726416 162:0.36805059 163:0.2468665 164:0.10689985 165:0.046722816 166:0.1121859 167:0.053317726 168:0.076757443 169:0.097748691 170:0.1914808 171:0.099128083 172:0.19031226 173:0.201015 174:0.10308656 175:0.040471104 176:0.1837093 177:0.025728956 178:0.0038515487 179:0.039099166 180:0.094800079 181:0.10171703 182:0.37129442 183:0.17979936 184:0.23037852 185:-1.3606109e-18 186:0.0030057893 187:0.068639238 188:0.25481228 189:0.21367299 190:0.077804701 191:0.15168648 192:0.011261491 193:0.076631546 194:0.21254433 195:0.46699978 196:0.12176454 197:0.050289431 198:0.035588298 199:0.024920488 200:0.0032874593 201:1.7519102e-17 202:0.11582873 203:0.73132162 204:0.14258838 205:-8.0295886e-18 206:0.0069737543 207:0 208:0.020755417 209:0.049517822 210:0.4057187 211:0.43918674 212:0.084821252 213:1.8720108e-17 214:1.3836602e-17 215:3.0928874e-17 216:0.19483955 217:0.099316305 218:0.097200348 219:0.20179186 220:0.28395245 221:0.065177791 222:0.038076293 223:0.019645327 224:0.1609173 225:0.14707884 226:0.27170336 227:0.12180222 228:0.17961803 229:0.042777761 230:0.05748144 231:0.018620639 232:0.081551991 233:0.073399505 234:0.1745869 235:0.26365566 236:0.36451515 237:-1.6935272e-18 238:0.010786163 239:0.031504327 240:0.042252585 241:0.013203933 242:0.28032836 243:0.33378606 244:0.31549038 245:3.8700579e-17 246:0.014938545 247:4.6909793e-17 248:0.050641398 249:-1.6355854e-17 250:0.43841825 251:0.30898826 252:0.19165766 253:0.010294328 254:2.453378e-17 255:-5.8267728e-17 
6.763473264978529 0:0.17659085 1:0.021741169 2:0.23469012 3:0 4:0.29326621 5:0.10870585 6:0.16500387 7:0 8:0.18040551 9:0 10:0.0043425996 11:0.020087861 12:0.10246657 13:0.21673381 14:0.1320021 15:0.34396153 16:0.16635936 17:0 18:0.015122715 19:0.011767162 20:0.011920985 21:0.18820421 22:0.44091145 23:0.16571405 24:0.30866058 25:0.14362828 26:0.012756516 27:1.2017346e-17 28:0.049611205 29:0.06769077 30:0.22031978 31:0.19733245 32:0.23548305 33:0.03510374 34:0.21201396 35:0 36:0.3139774 37:0.03510374 38:0.16831307 39:0 40:0.080848467 41:0.0052765856 42:0.44368601 43:0 44:0.04049887 45:0.024337995 46:0.048345542 47:0.35700642 48:0.079266778 49:0.026161482 50:0.34401747 51:0.018318747 52:0.0577699 53:0.12330885 54:0.20658147 55:0.1445753 56:0.090907914 57:0.20494898 58:0.27503451 59:4.2502354e-18 60:0.045697648 61:0.047964219 62:0.28145038 63:0.053996232 64:0.20788888 65:0.046485366 66:0.23142765 67:0 68:0.23907221 69:0.069728049 70:0.090585256 71:0.11481038 72:0.060213533 73:0.60042389 74:0.32568288 75:0.0095085827 76:0.00065190449 77:0.0014577028 78:-1.5922706e-18 79:0.002061503 80:0.26682674 81:0.40581515 82:0.20734322 83:-6.94363e-18 84:0.015635665 85:1.8516347e-17 86:0.072675987 87:0.031702679 88:0.14159161 89:0.051967958 90:0.016774753 91:-1.3168957e-18 92:0.09785772 93:0.12778723 94:0.41911875 95:0.1449018 96:0.22305245 97:0.7146031 98:0.045802729 99:0 100:0.0099522773 101:0.0016907384 102:0.004898689 103:0 104:0.061517921 105:0.7424477 106:0.19603428 107:0 108:-3.8680079e-18 109:-7.7360158e-18 110:-5.8020119e-18 111:-2.5142051e-17 112:0.17768979 113:0.39421367 114:0.41415188 115:-6.1922264e-18 116:0.013943654 117:2.4768906e-17 118:-6.5018378e-17 119:1.8576679e-17 120:0.29900507 121:0.41889312 122:0.15345689 123:0 124:0.097499016 125:-1.2370932e-17 126:0.031144918 127:9.2781988e-18 128:0.56228191 129:0.17255246 130:0.0022542437 131:0.0031489167 132:0.00061755337 133:0 134:0.023475152 135:0.23566976 136:0.13319968 137:0.36985597 138:0.43787836 139:0.053433009 140:0.0056323337 141:-2.0010069e-17 142:-3.0015103e-17 143:-1.8009062e-16 144:0.075716334 145:0.39997279 146:0.47894587 147:0.023279256 148:0.022084641 149:2.6153469e-17 150:-8.8267959e-17 151:-1.3076735e-16 152:0.17233643 153:0.39247123 154:0.16946364 155:0.013847113 156:0.25188136 157:-5.9657489e-18 158:-8.9486234e-18 159:-6.4131801e-17 160:0.068039314 161:0.071400067 162:0.18879423 163:0.16877196 164:0.065175909 165:0.039216513 166:0.13360515 167:0.26499685 168:0.23639282 169:0.10431153 170:0.45375577 171:0.084797735 172:0.065777906 173:0.025955977 174:0.0054720004 175:0.023535963 176:0.088033517 177:0.073784008 178:0.40953556 179:0.34023133 180:0.067363977 181:0.021051243 182:-4.2910211e-16 183:-5.5717834e-16 184:0.12419492 185:0.27043601 186:0.021975849 187:0.036280282 188:0.46563764 189:0.081475294 190:-6.5914937e-17 191:-9.5157775e-17 192:0.13540298 193:0.15358899 194:0.22540432 195:0.17499268 196:0.18871822 197:0.03653844 198:0.012992598 199:0.072361669 200:0.079779819 201:0.065077147 202:0.29487661 203:0.18410656 204:0.068891396 205:0.18626291 206:0.056785638 207:0.064219359 208:0.15311885 209:0.03926082 210:0.13940329 211:0.05564865 212:0.30203979 213:0.073449816 214:0.099322891 215:0.1377552 216:0.014286811 217:0.003194628 218:0.0091921031 219:0.40371359 220:0.34283356 221:0.12301396 222:0.1037653 223:-1.0151389e-17 224:0.64721476 225:0.08740837 226:0.018766444 227:-1.0803852e-16 228:-7.8573473e-18 229:7.8573473e-18 230:0.065402333 231:0.18120769 232:0.27498491 233:0.12218388 234:0.39341461 235:0.03455882 236:0.17485534 237:-3.3972473e-17 238:-2.1839447e-17 239:-9.706421e-18 240:0.25945638 241:0.050448879 242:0.39423546 243:-2.003857e-17 244:0.23872557 245:4.0077141e-17 246:0.057131112 247:1.4026999e-16 248:0.056816713 249:0.065563949 250:0.25444845 251:0.075038971 252:0.38960032 253:0.094829031 254:0.063701211 255:9.7322231e-17 
5.185648033843159 0:0.14627943 1:0.076409209 2:0.091590443 3:0.035222905 4:0.33594218 5:0.069006142 6:0.2455482 7:0 8:0.19219643 9:0 10:0.012442868 11:0.020425855 12:0.12905261 13:0.14693521 14:0.12797888 15:0.37096814 16:0.2065931 17:0.094010336 18:0.061469726 19:9.3031673e-18 20:0.0331654 21:0.11297677 22:0.18117793 23:0.3106066 24:0.24875429 25:0.19147586 26:0.33773511 27:0.042150811 28:0.1399572 29:-1.4798448e-16 30:0.018850416 31:0.021075405 32:0.18087299 33:0.066805108 34:0.23809563 35:0.03149223 36:0.26888537 37:0.022268369 38:0.1285938 39:0.06298446 40:0.10017662 41:0 42:0.040589539 43:0.017390644 44:0.051461942 45:0.082366323 46:0.1052704 47:0.60274451 48:0.051782875 49:0.18397612 50:0.16646062 51:0.062986502 52:0.10321142 53:0.07971387 54:0.21546666 55:0.13640191 56:0.20904244 57:0.37470115 58:0.24293834 59:1.4204337e-17 60:0.059972483 61:4.2613012e-17 62:0.02261704 63:0.090728223 64:0.26464799 65:0.063982908 66:0.29872667 67:0 68:0.17524705 69:0.024491519 70:0.17290141 71:0 72:0.075365825 73:0.56671393 74:0.34143962 75:0 76:0.00064838508 77:0.0079637156 78:0.0078685179 79:-1.4684982e-17 80:0.22034335 81:0.096929331 82:0.24451531 83:0 84:-1.1278237e-18 85:0.039694836 86:0.21914035 87:0.17937669 88:0.10451466 89:0.020513295 90:0.032960705 91:0 92:0.14629585 93:0.14563818 94:0.45402339 95:0.096053816 96:0.2839657 97:0.59850305 98:0.033579997 99:0.0024925448 100:0.0078821186 101:0.0035249906 102:0.0046396905 103:0.065411893 104:0.0502052 105:0.80752726 106:0.13155214 107:0 108:0 109:0 110:-5.4761217e-18 111:0.010715333 112:0.25646354 113:0.35154139 114:0.39199431 115:0 116:-2.7080169e-18 117:5.4160338e-18 118:1.0832068e-17 119:-1.4081688e-16 120:0.47373988 121:0.17642062 122:0.06759959 123:0 124:0.10766746 125:-7.650233e-18 126:0.062366303 127:0.11220577 128:0.56146054 129:0.17568237 130:0.0073833046 131:0.0051485356 132:0.0072310861 133:0.0048675377 134:0.0078804902 135:0.23034613 136:0.13897603 137:0.36347609 138:0.43468134 139:0.016579483 140:0.031457357 141:0 142:0.01482914 143:-1.1175898e-16 144:0.16518942 145:0.34200823 146:0.49280156 147:2.7527688e-18 148:0 149:5.5055376e-18 150:2.7527688e-18 151:-4.9549838e-17 152:0.22238142 153:0.60746691 154:0.079821416 155:0.0079916607 156:0.082338565 157:-2.2445912e-18 158:-1.2064678e-17 159:1.1222956e-18 160:0.091960568 161:0.09745206 162:0.14919742 163:0.25023241 164:0.039268035 165:0.032308928 166:0.072468561 167:0.26711201 168:0.19019165 169:0.11370501 170:0.40223912 171:0.23122705 172:0.028607567 173:0.0079960582 174:-1.2704312e-17 175:0.026033279 176:0.23165928 177:0.22320219 178:0.16001865 179:0.073185524 180:0.015440788 181:0.12365469 182:0.070405599 183:0.10243322 184:0.020750993 185:0.082985058 186:0.10868128 187:0.16669124 188:0.52842519 189:0.04565499 190:0.04487084 191:0.0019404069 192:0.25665215 193:0.1865387 194:0.18198557 195:0.16990848 196:0.058307569 197:0.09433333 198:0.0089372237 199:0.043336856 200:0.087895688 201:0.013796 202:0.28683794 203:0.12928582 204:0.20836643 205:0.068980001 206:0.15988828 207:0.044949058 208:0.27986993 209:0.094702259 210:0.24997174 211:-3.351143e-17 212:0.27549517 213:0.016873599 214:0.059223266 215:0.023862873 216:0.13994529 217:0.074506473 218:0.26791426 219:0.17943535 220:0.16660154 221:0.11899726 222:0.052598919 223:-3.2553816e-17 224:0.33263781 225:0.015059191 226:-1.644938e-17 227:-2.9907965e-18 228:1.9938643e-18 229:0.24393692 230:0.24578971 231:0.16257627 232:0.32289834 233:0.044898725 234:0.40765638 235:8.9170095e-18 236:0.14055524 237:0 238:0.042594671 239:0.041394579 240:0.21562892 241:0.048218695 242:0.26175926 243:-2.1993973e-17 244:0.40648517 245:0.018457259 246:0.023346791 247:0.026102506 248:0.11257085 249:0.086994037 250:0.21375806 251:0.20000178 252:0.30448056 253:0.019362774 254:0.062830403 255:1.9612049e-16 
6.69732420934301 0:0.29477046 1:0.16676428 2:0.067693196 3:0 4:0.005684072 5:0 6:0.14878226 7:0.31630565 8:0.13376778 9:0.092035029 10:0.34414223 11:0.09761789 12:0.23666607 13:0.023008757 14:0.072760079 15:-3.1987214e-16 16:0.13658618 17:0.050902665 18:0.33651553 19:0.03599362 20:0.375612 21:0 22:0.064387344 23:-3.5382929e-16 24:0.098422706 25:0.06287996 26:0.46639241 27:-1.2488132e-17 28:0.28120773 29:0.03143998 30:0.059653168 31:-4.3708462e-16 32:0.091923191 33:4.3620359e-18 34:4.7982394e-18 35:0 36:0.097366628 37:0.41657235 38:0.20945125 39:0.18468651 40:0.14535613 41:0.01625131 42:0.057364232 43:0 44:0.079945873 45:0.34263768 46:0.35844369 47:9.0371526e-17 48:0.37496244 49:0.076221955 50:0.18273197 51:0 52:0.25565621 53:0.038110978 54:0.072310496 55:2.1193044e-16 56:0.18928607 57:0.10052156 58:0.28183326 59:0 60:0.29253302 61:1.8340342e-16 62:0.13582002 63:2.1397066e-16 64:0.25759357 65:0.10468415 66:0.11428095 67:0.059109849 68:0.081723258 69:0.041778108 70:0.23734633 71:0.10348367 72:0.014581038 73:-3.2376408e-18 74:0.0034367836 75:0.019592681 76:0.43551128 77:0.30115581 78:0.14471422 79:0.081008072 80:0.08322158 81:0.017867765 82:0.01880528 83:0.047509643 84:0.20758823 85:0.35154232 86:0.19759381 87:0.075871272 88:0.031741939 89:0.0030826137 90:0.053962395 91:0.082004633 92:0.44655824 93:0.26405666 94:0.010881078 95:0.10771241 96:0.65037792 97:0.17710324 98:0.077057897 99:0 100:0.0083082292 101:1.475838e-17 102:0.024266756 103:0.0628856 104:0.27727984 105:0.16316226 106:0.36284964 107:0 108:0.10215573 109:0.032632451 110:0.061915723 111:0 112:0.57411554 113:0.036261585 114:0.053589984 115:0 116:0.012271078 117:-8.7191254e-18 118:0.089113314 119:0.23464838 120:0.24782736 121:0.093210554 122:0.10124283 123:0.003047633 124:0.12634472 125:0.098734911 126:0.10687537 127:0.22271661 128:0.67028078 129:0.053773102 130:0.014787341 131:0 132:0.032810163 133:0.018341439 134:0.049575784 135:0.16043105 136:0.17093801 137:0.20783571 138:0.39271846 139:0 140:0.12209858 141:-1.0844532e-17 142:0.10640619 143:8.675626e-17 144:0.72306214 145:0.037978193 146:0.033514066 147:0 148:0.012738273 149:-1.6970789e-17 150:0.07130233 151:0.12140463 152:0.5166559 153:0.011157504 154:0.069814747 155:0.021324961 156:0.044908089 157:1.6619331e-17 158:0.0070566253 159:0.32908204 160:0.29148564 161:0.010076864 162:0.045646401 163:0 164:0.13198124 165:0.071390425 166:0.28926152 167:0.16015749 168:0.024489961 169:0.013690304 170:0.32087316 171:0.36902021 172:0.26326708 173:5.4378637e-18 174:0.0086585088 175:3.5346114e-17 176:0.16625546 177:0.14965012 178:0.30844066 179:0.12334497 180:0.038372212 181:0.046367533 182:0.079172709 183:0.088395959 184:0.064027485 185:0.07005678 186:0.060109929 187:0.29483715 188:0.32930888 189:0.012434595 190:0.091087418 191:0.078137515 192:0.13866266 193:0.1807462 194:0.25419473 195:0.06167558 196:0.085975636 197:0.098285188 198:0.05086828 199:0.12959149 200:0.27456569 201:0.1231277 202:0.33593973 203:8.3622866e-18 204:0.14122647 205:0.021052799 206:0.074312634 207:0.029773153 208:0.22898452 209:0.1989773 210:0.21168018 211:-4.5884073e-18 212:0.23764002 213:0.023103445 214:0.066939149 215:0.032673205 216:0.19162549 217:0.060511116 218:0.31487518 219:0.098576313 220:0.21649115 221:0.030255558 222:0.087661443 223:1.7425626e-16 224:0.1410259 225:0.28931659 226:0.39570049 227:0.040542095 228:0.089743754 229:2.2773847e-17 230:0.023399283 231:0.020271048 232:0.063211655 233:-1.6040922e-17 234:0.30161137 235:0.11422446 236:0.40929145 237:0.040384445 238:0.071274954 239:1.6040922e-17 240:0.17831899 241:0 242:0.30597209 243:0.09314264 244:0.33700179 245:0.021953931 246:0.063608586 247:-4.3601107e-17 248:0.10441459 249:-1.8547758e-17 250:0.32114275 251:-8.3464909e-17 252:0.40721691 253:0.023347813 254:0.1438757 255:1.8547758e-17 
1.36167393352138 0:0.023977022 1:0.037804976 2:0.48200061 3:0.28921413 4:0.11852331 5:0.031395557 6:0.01708395 7:0 8:0.038788365 9:0.089292794 10:0.40228382 11:0.29262085 12:0.1321045 13:0.01748168 14:0.027427516 15:0 16:0.010414455 17:0.011643715 18:0.25044991 19:0.19369617 20:0.45039967 21:0.046574861 22:0.03682066 23:0 24:0.017320476 25:0.088269706 26:0.65707204 27:0.085863361 28:0.13856381 29:0.012909921 30:7.6918366e-18 31:0 32:0.042908801 33:0.021826293 34:0.014161696 35:0.041906316 36:0.66380251 37:0.11754493 38:0.040741541 39:0.057107862 40:0.15215976 41:0.037272689 42:0.15386414 43:0.091720411 44:0.34542952 45:0.18170033 46:0.020282002 47:0.017570514 48:0.30543807 49:0.02419178 50:0.20238359 51:0.048881954 52:0.19540418 53:0.030006211 54:0.14481135 55:0.048881954 56:0.092726231 57:0.097931425 58:0.31366325 59:0.062834162 60:0.16558256 61:0.053500964 62:0.18645194 63:0.027308575 64:0.12730355 65:0.061985176 66:0.10537908 67:0.11736357 68:0.054940687 69:0.083691838 70:0.37571368 71:0.073622381 72:1.816669e-17 73:0 74:0.011434063 75:0.054236524 76:0.34735707 77:0.3132767 78:0.27369551 79:0 80:2.2652427e-17 81:1.2584681e-18 82:0.0080152487 83:0.12586827 84:0.68540442 85:0.15433716 86:0.026374732 87:0 88:1.2885889e-17 89:0.02878774 90:0.079305587 91:0.13222478 92:0.47830934 93:0.2039411 94:0.047909291 95:0.029522092 96:0.38681492 97:0.18225389 98:0.016629663 99:-4.2402244e-18 100:0.05006377 101:0.046416577 102:0.059856561 103:0.25796462 104:0.17145677 105:0.0088655021 106:2.0248199e-17 107:0.016347178 108:0.08110432 109:0.13359117 110:0.27040961 111:0.31822513 112:0.11852903 113:0.015590528 114:0.09416118 115:0.086507493 116:0.14754966 117:0.046771584 118:0.29425584 119:0.19663369 120:0.18732908 121:0.13833545 122:0.090674149 123:0.11045461 124:0.20343652 125:0.044380281 126:0.053197902 127:0.1721919 128:0.72711877 129:0.12172746 130:0.0030944739 131:-4.9165678e-18 132:0.031596472 133:0.030762176 134:0.020432903 135:0.065267736 136:0.4448727 137:0.24194452 138:0.086165557 139:-4.1256771e-17 140:0.023979293 141:2.6816901e-17 142:0.080962009 143:0.12207547 144:0.31240817 145:0.33469666 146:0.26449215 147:-3.6735252e-17 148:0.038178661 149:4.8038406e-17 150:0.050223534 151:-7.3470503e-17 152:0.65370809 153:0.044525046 154:0.11504183 155:0.07363086 156:0.076925487 157:3.0530968e-18 158:0.016172122 159:0.019996541 160:0.22343461 161:0.31117662 162:0.070791903 163:0.019890157 164:0.088457054 165:0.046370431 166:0.09793496 167:0.14194426 168:0.16616457 169:0.21394024 170:0.11310789 171:0.013505046 172:0.024181723 173:0.033762616 174:0.16041619 175:0.27492163 176:0.079169572 177:0.070283681 178:0.46935794 179:0.23793574 180:0.11864294 181:0.0094201787 182:0.015189582 183:2.4321352e-17 184:0.11019958 185:0.008733168 186:0.059020608 187:0.33769345 188:0.23747761 189:0.05977827 190:0.084147989 191:0.10294929 192:0.24030229 193:0.026852885 194:0.18283067 195:0.25920455 196:0.21255429 197:0.055035954 198:0.0078879393 199:0.015331398 200:0.17403657 201:0.15499914 202:0.27685959 203:0.086720254 204:0.0089952446 205:0.020610548 206:0.060925657 207:0.21685293 208:0.065225973 209:0.097042063 210:0.16733855 211:0.19707567 212:0.32255895 213:0.075584733 214:0.075173685 215:4.5968575e-17 216:0.08304108 217:0.1121567 218:0.11962969 219:0.037514136 220:0.28070587 221:0.12548322 222:0.16074115 223:0.080727428 224:0.1092562 225:0.1717079 226:0.27767636 227:0.26095104 228:0.13117149 229:4.3558951e-18 230:0.049236884 231:0 232:0.038978938 233:-5.0199364e-17 234:0.31711759 235:0.37283444 236:0.25150222 237:5.1930377e-18 238:0.01956651 239:3.1158226e-17 240:0.053244948 241:0.011905932 242:0.38360196 243:0.3186178 244:0.21003887 245:1.8916405e-17 246:0.022589918 247:-9.4582027e-18 248:0.11225422 249:0.060450301 250:0.21648621 251:0.078186272 252:0.48857067 253:0.033467743 254:0.01058343 255:-4.3204104e-17 
8 0:0.25750888 1:0.16438359 2:0.21608303 3:0 4:0.17788156 5:0 6:0.18414042 7:0 8:0.17601172 9:0.059348908 10:0.19934172 11:0.064255378 12:0.30479002 13:0.06815312 14:0.086207636 15:0.041889381 16:0.20480477 17:4.5475795e-18 18:0.19230423 19:0.064764956 20:0.31012956 21:0.04579574 22:0.1821986 23:0 24:0.065407274 25:4.1495235e-18 26:0.15518062 27:0.029547995 28:0.4978931 29:0.041787175 30:0.21018206 31:0 32:0.034236737 33:1.3821969e-18 34:0.039614775 35:0.097580864 36:0.2905056 37:0.026888887 38:0.40665119 39:0.10452175 40:0.11054697 41:0.080506428 42:0.15777925 43:0.20022904 44:0.28227312 45:0.056482821 46:0.11218113 47:2.7731537e-17 48:0.032998231 49:0.031622695 50:0.087748292 51:0.25651584 52:0.52249516 53:0.038078485 54:0.030540847 55:1.674761e-17 56:0.12202201 57:0 58:0.10577184 59:0.055123923 60:0.48520993 61:0.155914 62:0.075956752 63:3.0964946e-17 64:0.19851863 65:0.14301974 66:0.017468907 67:0.019347213 68:0.19728297 69:0.16616064 70:0.15843465 71:0.099767238 72:0.066155132 73:0.11635051 74:0.24838536 75:0.40976541 76:0.10521099 77:0.018197475 78:0.013573884 79:0.022361193 80:0.057552085 81:0.012530144 82:0.010566345 83:0.2793726 84:0.38511819 85:0.17956827 86:0.061684052 87:0.013608248 88:0.06135171 89:0.019097607 90:0.02663898 91:0.0076425097 92:0.2164909 93:0.21083046 94:0.28684731 95:0.17110045 96:0.61700498 97:0.26490334 98:0.031897535 99:0.0067422161 100:0.033489197 101:0.018343381 102:0.014115428 103:0.01350391 104:0.39965774 105:0.25595519 106:0.15741831 107:0.021023071 108:0.019944237 109:0.023969989 110:0.10100749 111:0.021023071 112:0.40576875 113:0.38728017 114:0.13580272 115:-2.374672e-17 116:0.011882858 117:-3.4300817e-17 118:0.021687888 119:0.037576895 120:0.38956004 121:0.18409193 122:0.032356674 123:0 124:0.18438087 125:0.026476576 126:0.024582883 127:0.15855078 128:0.51600879 129:0.31467955 130:0.06986993 131:0 132:0.021417066 133:0.052283031 134:0.015664738 135:0.010076875 136:0.27137469 137:0.28331835 138:0.27090524 139:0.022169163 140:0.091136565 141:0.015675966 142:0.04541902 143:1.2453159e-17 144:0.52755068 145:0.33577328 146:0.076046837 147:-2.031171e-17 148:0.010163979 149:1.1284283e-17 150:0.018323373 151:0.032141322 152:0.11279702 153:0.060496523 154:0.086299349 155:0.2807771 156:0.20460806 157:0.031558647 158:0.16674794 159:0.05671531 160:0.12805785 161:0.08921874 162:0.17612545 163:0.079468246 164:0.070135241 165:0.0555456 166:0.070098233 167:0.33135059 168:0.0036128732 169:0.02110503 170:0.11788402 171:0.5365488 172:0.27633723 173:0.02918366 174:0.015328123 175:-7.3804148e-17 176:0.25107367 177:0.15162267 178:0.10871371 179:0.18717885 180:0.1192008 181:6.6087951e-18 182:0.14090942 183:0.041300854 184:0.0034249869 185:0.048876012 186:0.079022014 187:0.1898776 188:0.52611673 189:0.067217333 190:0.072266094 191:0.013199222 192:0.15063897 193:0.19338371 194:0.3057861 195:0.027056999 196:0.10877098 197:0.13524179 198:0.036705492 199:0.042415802 200:0.023827223 201:0.039959468 202:0.21197195 203:0.25811125 204:0.367467 205:0.034797391 206:0.063864996 207:-1.5872119e-17 208:0.24812587 209:0.020549123 210:0.35001053 211:0.029060848 212:0.20217664 213:0.11108604 214:0.038989219 215:-2.4486672e-17 216:0.27200483 217:-3.1733462e-16 218:0.1467018 219:-3.2214272e-16 220:0.41317838 221:0.024209638 222:0.10966536 223:0.034237599 224:0.31941702 225:0.11635349 226:0.29766555 227:0.094640603 228:0.081364619 229:0.0075807008 230:0.061536332 231:0.02144146 232:0.22975612 233:0.039274126 234:0.2576243 235:0.1280924 236:0.24589493 237:3.8999744e-18 238:0.099356554 239:0 240:0.24748009 241:0.027669115 242:0.2726619 243:-8.2427427e-17 244:0.30935011 245:0.027669115 246:0.11516654 247:0 248:0.20509161 249:9.7584613e-17 250:0.32886906 251:0.046325473 252:0.36623502 253:0.032757056 254:0.020717381 255:-1.8215794e-16 
2.977074212100745 0:0.14785849 1:0.50123304 2:0.34081763 3:0 4:0 5:0 6:0 7:0.010090716 8:0.062050233 9:0.31326023 10:0.58066882 11:0.013698161 12:0.030322172 13:0 14:0 15:0 16:0.0417425 17:0.1219219 18:0.64537895 19:0.072685248 20:0.11827042 21:0 22:0 23:0 24:0.064001468 25:0.094299353 26:0.44638575 27:0.066610746 28:0.22857667 29:0.040889038 30:0.059235266 31:0 32:0.31843781 33:0.22745335 34:0.084708334 35:0.07222304 36:0.074618228 37:0.056191562 38:0.058837708 39:0.10752981 40:0.32331623 41:0.054033949 42:0.11106573 43:0.02490842 44:0.024164717 45:0.078940208 46:0.28964972 47:0.093920282 48:0.26304082 49:0.093884359 50:0.1559335 51:0.1492159 52:0.13435636 53:0.018776872 54:0.15823624 55:0.026554507 56:0.21187108 57:0.18047442 58:0.29224838 59:-5.5346858e-18 60:0.19940807 61:0.027868125 62:0.08812675 63:-7.7485602e-17 64:0.21820516 65:0.28723984 66:0.12543564 67:0.16325996 68:0.075883274 69:0.055813159 70:0.060487442 71:0.013675515 72:0.078714888 73:1.0663668e-16 74:-3.5455344e-17 75:8.6608475e-18 76:0.38671668 77:0.25099388 78:0.13795218 79:0.14562234 80:-2.7026174e-17 81:1.6891359e-16 82:0.023515842 83:0.033249937 84:0.34262796 85:0.40755674 86:0.16476592 87:0.028283535 88:0.054960502 89:0.0087522409 90:0.019735507 91:0.30434754 92:0.39445735 93:0.018467808 94:0.0055354032 95:0.19374357 96:0.74498619 97:0.11056233 98:0.0021177235 99:-4.6550304e-18 100:0.014918661 101:0.019118324 102:0.014402077 103:0.093894677 104:0.69766414 105:0.018612336 106:-9.7678644e-18 107:0 108:-1.3023819e-17 109:2.6047638e-17 110:0.024596816 111:0.25912658 112:0.42527379 113:-8.2584994e-17 114:1.9785988e-17 115:-3.4410414e-18 116:0 117:0.050666468 118:0.12073806 119:0.40332137 120:0.057608929 121:-2.6511188e-17 122:0.0061701972 123:0 124:0.020711512 125:0.048534241 126:0.10465238 127:0.76232271 128:0.72141676 129:0.0024600806 130:0.0024600806 131:0.0066921426 132:0.0088796393 133:0.0039667607 134:0.0079827328 135:0.24614178 136:0.7883733 137:0.010002171 138:-1.0471568e-17 139:2.4638984e-18 140:-1.4783391e-17 141:2.9566781e-17 142:0.028735506 143:0.17288887 144:0.73037326 145:0.080854114 146:0.011881628 147:0 148:0 149:0.015146163 150:0.057695923 151:0.10404855 152:0.055359377 153:0.015712193 154:0.010259435 155:1.1544785e-18 156:0.074090152 157:0.011626008 158:0.017910673 159:0.81504213 160:0.18143787 161:0.0027940304 162:0.094685298 163:0.28843248 164:0.082477858 165:0.067048629 166:0.0643882 167:0.21873562 168:0.414918 169:0.23810725 170:0.089584293 171:3.9679237e-17 172:0.11383201 173:0.028997051 174:0.06619868 175:0.048362591 176:0.12970648 177:0.16283903 178:0.14576562 179:0.10806001 180:0.37925455 181:0.033479706 182:0.033117906 183:0.0077765802 184:0.33744922 185:0.020886156 186:0.016558427 187:0.041602969 188:0.34336766 189:0.086255233 190:0.048390671 191:0.1054896 192:0.15955847 193:0.30030037 194:0.36068767 195:0.019450921 196:0.1258831 197:0.017059586 198:0.017059586 199:-5.9291407e-17 200:0.10608602 201:0.23722293 202:0.4667454 203:0.082301121 204:0.07277385 205:0.023246754 206:0.011623377 207:-4.6168688e-17 208:0.19390618 209:0.066429366 210:0.18719204 211:0.23963404 212:0.18474143 213:0.047987808 214:0.0431018 215:0.037006803 216:0.081386804 217:0.078163996 218:0.24101347 219:0.12568811 220:0.21483812 221:0.077100491 222:0.11616012 223:0.065648215 224:0.065706595 225:0.13431721 226:0.66048381 227:0.075010858 228:0.036997074 229:-2.917959e-17 230:0.013938474 231:0.013545762 232:0.11082024 233:0.15844522 234:0.33766483 235:0.10780397 236:0.21091413 237:0.038081326 238:0.036270119 239:-2.2620067e-17 240:0.070389659 241:4.1339774e-17 242:0.40587689 243:0.20940088 244:0.2310065 245:0.02081531 246:0.043319549 247:0.019190767 248:0.06485239 249:6.0218697e-17 250:0.30664262 251:0.13063265 252:0.44998453 253:0.026366246 254:0.021520862 255:7.5927923e-17 
2.801794525422554 0:0.57997545 1:0.25363743 2:0.11061388 3:0 4:0 5:0 6:0.055772905 7:0 8:0.14759673 9:0.14778738 10:0.43732671 11:0 12:0.1302324 13:0.038827801 14:0.098227431 15:0 16:0.19534752 17:0.082563957 18:0.25732768 19:0.11676307 20:0.25996404 21:0.041281978 22:0.046750005 23:0 24:0.075463258 25:0.024105853 26:0.20953048 27:0.10227247 28:0.43121862 29:0.096423414 30:0.060983521 31:0 32:0.23954777 33:0.1056722 34:-3.2418788e-18 35:0 36:0.1566386 37:0.085502282 38:0.33026731 39:0.08237155 40:0.22740123 41:0.031304043 42:0.075047268 43:0 44:0.15082772 45:0.20699647 46:0.25742606 47:0.050996203 48:0.22601784 49:0.047763409 50:0.13593704 51:0 52:0.29009918 53:0.023881704 54:0.27629848 55:4.2686746e-17 56:0.13441367 57:0.054646927 58:0.16837477 59:0.038641212 60:0.41546043 61:0.10929385 62:0.07916609 63:4.883863e-17 64:0.11158508 65:0.31566761 66:0.23800505 67:0.17199277 68:0.074115453 69:0.019681314 70:0.0094035768 71:0.059549132 72:0.031843414 73:3.1468199e-17 74:0.029793373 75:0.04746885 76:0.41502477 77:0.21141738 78:0.16097398 79:0.10347819 80:0.016778053 81:0.010890111 82:0.063680468 83:0.098451006 84:0.22627301 85:0.28806088 86:0.29586639 87:-2.9803808e-17 88:0.14359253 89:0.052425806 90:0.11628677 91:0.056759932 92:0.47325446 93:0.14498694 94:0.012691907 95:-1.4347776e-16 96:0.45656212 97:0.041867121 98:0.0097595863 99:0 100:0.0034505348 101:0.013849981 102:0.084179755 103:0.39033088 104:0.19909832 105:0 106:2.1969554e-17 107:0 108:3.6615923e-17 109:0.023782715 110:0.29871385 111:0.47840489 112:0.073407657 113:-1.0866516e-18 114:1.1409842e-17 115:0 116:4.3466064e-18 117:0.037746273 118:0.40138937 119:0.48745658 120:0.023084619 121:0.01765216 122:0.068379297 123:0.21197023 124:0.26999486 125:0.037767819 126:0.039074475 127:0.33207648 128:0.1448922 129:0.0036193678 130:0.0050839023 131:0 132:0.017263942 133:0.032213931 134:0.3213899 135:0.47553674 136:0.36622597 137:0.013933203 138:1.7294826e-17 139:0 140:4.0123996e-17 141:0.011233307 142:0.18458596 143:0.42402136 144:0.54848968 145:0 146:1.3427094e-17 147:0 148:1.3427094e-17 149:2.5175801e-17 150:0.12659247 151:0.32491756 152:0.051558173 153:0 154:0.038922001 155:0.13855414 156:0.1276957 157:0.044675963 158:0.13040229 159:0.46819169 160:0.13238748 161:0.04349466 162:0.040873956 163:0.01373405 164:0.079005651 165:0.14902471 166:0.23316589 167:0.30831359 168:0.42882306 169:0.11921412 170:0.03403375 171:0 172:0.14699456 173:-1.4200414e-17 174:0.064082986 175:0.20685144 176:0.24087411 177:0.18937216 178:0.12354159 179:0 180:0.35510824 181:0.063677444 182:0.016683473 183:0.010742837 184:0.13779666 185:0.085419636 186:0.027552214 187:0.13141106 188:0.48462573 189:0.049481844 190:0.032908915 191:0.050803772 192:0.036602877 193:0.11668511 194:0.32410835 195:0.42182133 196:0.042775666 197:0.031185456 198:0.014039053 199:0.012782114 200:0.15965908 201:0.322168 202:0.42124708 203:0.012624314 204:0.028436568 205:-3.1911743e-17 206:0.026780215 207:0.029084406 208:0.16086955 209:0.070122363 210:0.38735453 211:0.16469504 212:0.087807087 213:0.028048945 214:0.081268077 215:0.019833599 216:0.07652516 217:0.11233836 218:0.12152222 219:0.081538385 220:0.45214132 221:0.052142357 222:0.065333446 223:0.038458303 224:0.1853538 225:0.24248301 226:0.52892786 227:0 228:0.0031768459 229:-1.5518833e-17 230:0.030012205 231:0.010046069 232:0.1748417 233:0.11562534 234:0.57828648 235:0.061601491 236:0.048876857 237:-2.0013725e-17 238:0.0098052655 239:0.01096262 240:0.05287374 241:0.027823736 242:0.33068054 243:0.23312573 244:0.26589351 245:0.043374185 246:0.031250368 247:0.014978013 248:0.030370035 249:4.4956682e-17 250:0.27714191 251:0.26835235 252:0.28085617 253:0.040886607 254:0.086385991 255:0.016006414 
8 0:0.038431179 1:0.210667 2:0.51781635 3:0.18852411 4:0.044561022 5:0 6:0 7:0 8:0.027459141 9:0.14755235 10:0.57948277 11:0.13684602 12:0.08924221 13:0 14:0.019416545 15:0 16:0.24735169 17:0.17543377 18:0.3103516 19:-4.5769258e-17 20:0.18551377 21:0 22:0.081346987 23:0 24:0.28426917 25:0.039727825 26:0.25454351 27:-7.8900545e-17 28:0.2309687 29:0 30:0.19048432 31:0 32:0.084145748 33:0.15135442 34:0.3229472 35:0.039005528 36:0.15299227 37:0.051315167 38:0.19823847 39:0 40:0.030219395 41:0.018159597 42:0.18949091 43:0.42167658 44:0.30804784 45:0.018159597 46:0.01424556 47:0 48:0.027423473 49:-3.0446171e-18 50:0.08258931 51:0.13774829 52:0.71469992 53:0.015330188 54:0.022208587 55:0 56:0.18736057 57:-1.544426e-17 58:0.25071552 59:0.04779694 60:0.41875568 61:0.02592153 62:0.03278843 63:0.036658579 64:0.10971358 65:0.20514021 66:0.18435664 67:0.36291792 68:0.07652244 69:0.016545402 70:0.036169658 71:0.0086341289 72:-7.8072593e-18 73:1.4313309e-17 74:7.8072593e-18 75:0.59963353 76:0.20647743 77:0.082903859 78:0.10171946 79:0.0092656764 80:0.010820562 81:2.2104357e-17 82:1.922118e-18 83:0.030605172 84:0.32095539 85:0.18042138 86:0.33145983 87:0.12573757 88:0.012540883 89:2.4504791e-17 90:0.078628475 91:0.13221165 92:0.20744867 93:0.11182847 94:0.29755505 95:0.15978668 96:0.36079342 97:0.002796592 98:0.013695936 99:8.3311621e-18 100:0.0025013479 101:0.01250674 102:0.035993432 103:0.5717125 104:0.31342438 105:0 106:2.187246e-17 107:2.6512073e-17 108:2.6512073e-18 109:1.3256037e-18 110:0.2661577 111:0.42041774 112:0.3509464 113:1.6466834e-18 114:1.0703442e-17 115:0 116:3.6227036e-17 117:0.013369389 118:0.22293897 119:0.41274497 120:0.16256021 121:0.0284262 122:0.03508027 123:0.15815216 124:0.23773977 125:0.013742813 126:0.081999643 127:0.28229882 128:0.16156744 129:0.0041103278 130:0.012897626 131:7.5939242e-18 132:0.011540339 133:0.032649499 134:0.1759882 135:0.60124655 136:0.6383844 137:1.3898283e-18 138:3.4050792e-17 139:2.7796565e-17 140:1.1118626e-17 141:1.2508454e-17 142:0.027992128 143:0.33362327 144:0.60931203 145:0.017923251 146:2.5807148e-17 147:0 148:4.9834492e-17 149:-1.7798033e-18 150:0.066021879 151:0.30674252 152:0.15876916 153:-7.1604409e-19 154:8.9505511e-18 155:2.8641764e-18 156:0.087068949 157:3.5802204e-18 158:0.09024468 159:0.66391716 160:0.13088762 161:0.034520174 162:0.0076427066 163:0.019961587 164:0.068305817 165:0.20190755 166:0.23242584 167:0.30434869 168:0.5452559 169:0.015844474 170:0.030705412 171:0.047767579 172:1.2587024e-17 173:0.072762009 174:0.038158264 175:0.24950625 176:0.71636369 177:0.21673258 178:5.7411664e-18 179:6.561333e-18 180:5.2490664e-17 181:0.023651233 182:-1.1974433e-16 183:0.043252218 184:0.15829602 185:0.20884217 186:0.048847888 187:0.10653115 188:0.32560908 189:0.043824805 190:0.057416838 191:0.050631903 192:0.053093054 193:0.048355891 194:0.32693915 195:0.26204958 196:0.20078432 197:0.054486469 198:0.054291474 199:9.7225629e-17 200:0.30434379 201:0.20610866 202:0.22148511 203:0.060727495 204:0.058796587 205:-7.9013071e-18 206:0.063394076 207:0.0851441 208:0.15366291 209:0.29576855 210:0.19603261 211:0.047654169 212:0.12394709 213:0.13682998 214:0.031233025 215:0.014871397 216:0.090023932 217:0.15589109 218:0.30363804 219:0.066107391 220:0.17668631 221:0.15087152 222:0.038156637 223:0.018624372 224:0.39945916 225:0.14807719 226:0.21800256 227:0.021784931 228:0.021488524 229:0.0080083001 230:0.104903 231:0.078276067 232:0.11486058 233:0.37890264 234:0.50623656 235:2.1659867e-17 236:5.7759645e-18 237:1.4439911e-18 238:-2.8879823e-17 239:-1.4439911e-17 240:0.18380071 241:0.38204276 242:0.2899224 243:0.084690111 244:0.020480558 245:-1.2733273e-17 246:0.039063106 247:-2.7285585e-17 248:0.025153107 249:0.08499433 250:0.33623447 251:0.18044066 252:0.24155433 253:0.05739805 254:0.051649088 255:0.022575604 
3.532592132015381 0:0.089665364 1:0.036975455 2:0.39103134 3:0.1229315 4:0.19666318 5:0.071253587 6:0.070410456 7:0.021068584 8:0.097017855 9:0.020571448 10:0.042158658 11:0.16901919 12:0.37809454 13:0.16940491 14:0.10341416 15:0.020319028 16:1.788152e-17 17:0 18:0.075659101 19:0.3384288 20:0.45194061 21:0.10158785 22:0.032383502 23:-2.23519e-18 24:1.4669853e-17 25:0 26:0.076197499 27:0.26861128 28:0.61315009 29:0.036201479 30:0.0058395657 31:-1.8337316e-18 32:0.042445545 33:0.033977714 34:0.057493564 35:0.029691887 36:0.31477888 37:0.26874001 38:0.19590239 39:0.056969919 40:0.07984306 41:0.10369384 42:0.29758939 43:0.19768142 44:0.23538865 45:0.011902301 46:0.057068356 47:0.016832395 48:0.067266821 49:0.1065667 50:0.18782932 51:0.3001977 52:0.30139039 53:3.9285039e-17 54:0.036748633 55:-6.2029009e-18 56:0.063110632 57:0.14402486 58:0.23741415 59:0.20443777 60:0.23122663 61:0.03370921 62:0.051600951 63:0.034475438 64:0.20108596 65:0.24604645 66:0.071779758 67:0.018189267 68:0.25932061 69:0.11118431 70:0.070743631 71:0.021650003 72:0.42115636 73:0.0086704578 74:0.0024001589 75:0.018459995 76:0.12233046 77:0.17890345 78:0.067766629 79:0.18031246 80:0.081827748 81:0.098905919 82:0.29019542 83:0.16220562 84:0.16019966 85:0.042045099 86:0.1333294 87:0.031290445 88:0.15063252 89:0.069119683 90:0.33666861 91:0.18374047 92:0.19258207 93:0.039004021 94:0.028252237 95:-2.7112068e-17 96:0.38250626 97:0.22534474 98:0.15181289 99:0.04313032 100:0.07325475 101:0.018268389 102:0.029578516 103:0.076104118 104:0.59304022 105:1.2711148e-17 106:2.581952e-17 107:3.1777871e-18 108:0.020479122 109:0.050771364 110:0.1240656 111:0.21164363 112:0.054908541 113:0.024555846 114:7.721692e-17 115:0.037330629 116:0.36061587 117:0.16730933 118:0.34018659 119:0.015092914 120:0.46026365 121:0.24684968 122:0.045421004 123:0.040454022 124:0.14801423 125:0.024646561 126:0.034350816 127:2.4982278e-18 128:0.45091128 129:0.090651192 130:0.089371549 131:0.074017632 132:0.10133954 133:0.034503847 134:0.031493197 135:0.12771175 136:0.63241003 137:0.20709873 138:0.026332362 139:0 140:0.002611234 141:0.0058388967 142:0.016917424 143:0.10879119 144:0.3826097 145:0.065582961 146:0.24741902 147:0.046374157 148:0.083036147 149:0.026437337 150:0.14853957 151:2.6049911e-17 152:0.33149813 153:0.25029862 154:0.15938888 155:0.1049305 156:0.12200599 157:0.015077382 158:0.010342565 159:0.006457912 160:0.45807664 161:0.06486279 162:0.071891139 163:0.015900466 164:0.0011664608 165:0.021051651 166:0.096082091 167:0.27096874 168:0.47542225 169:0.23175707 170:0.13569781 171:0.019875901 172:0.012570623 173:-2.2329913e-17 174:0.043827201 175:0.080848938 176:0.14117351 177:0.59835297 178:0.092814299 179:0.03257121 180:0.05981776 181:0.024245701 182:0.017059223 183:0.033965278 184:0.20098284 185:0.24262231 186:0.087989794 187:0.25623469 188:0.16626051 189:0.010267878 190:0.023657473 191:0.011984485 192:0.087659395 193:0.12297165 194:0.306919 195:0.3733119 196:0.085187264 197:-1.3740828e-17 198:-1.4053119e-17 199:0.023950743 200:0.43247343 201:0.16618506 202:0.03301141 203:0.007756487 204:0.0098112662 205:0.026675018 206:0.12170449 207:0.20238272 208:0.056995674 209:0.054602644 210:0.072636412 211:0.090118754 212:0.36706413 213:0.19416078 214:0.096943305 215:0.067478213 216:0.0083572821 217:-3.1318241e-17 218:0.041029941 219:0.36978486 220:0.50845074 221:0.057836843 222:0.014540296 223:-9.6363819e-18 224:0.087894405 225:0.055352771 226:0.13027399 227:0.31164147 228:0.31029905 229:0.050989558 230:0.032977938 231:0.020570748 232:0.064768308 233:0.090643194 234:0.51326598 235:0.20540905 236:0.085368828 237:-2.2661194e-17 238:0.021956407 239:0.018588099 240:0.20075903 241:0.11725371 242:0.35012404 243:0.13028449 244:0.093538155 245:0.029650543 246:0.022385281 247:0.056004354 248:0.17927599 249:0.083328963 250:0.27417966 251:0.035756695 252:0.17411102 253:0.10168106 254:0.10329185 255:0.048373863 
3.922702374589947 0:0.25452639 1:0.062174107 2:0.13890146 3:0 4:0.15266327 5:0.048694484 6:0.306371 7:0.036668538 8:0.18742369 9:0.1111475 10:0.34184338 11:0 12:0.23026897 13:0.039607467 14:0.089707391 15:0 16:0.22504414 17:0.038342195 18:0.39738537 19:0 20:0.23395266 21:0 22:0.10527332 23:0 24:0.25218828 25:0.072652033 26:0.30191349 27:0.034248497 28:0.25992782 29:0.024217344 30:0.054850131 31:0 32:0.0048905147 33:0.051032443 34:0.24718753 35:0.072090676 36:0.036128315 37:0.1332189 38:0.34188331 39:0.11356825 40:0.012883716 41:0.0070930666 42:0.18272193 43:0.5613317 44:0.19274105 45:0.026997813 46:0.011215123 47:0.0050155555 48:0.0045312159 49:0.0054458438 50:0.0067547379 51:0.023459003 52:0.53183274 53:0.27843826 54:0.14183657 55:0.0077015862 56:0.06887529 57:0.0085561017 58:0.048702184 59:0.085213643 60:0.2002833 61:0.45305376 62:0.10370436 63:0.031611069 64:0.57249645 65:0.052440371 66:0.15567501 67:0.050010445 68:0.025296851 69:0.029399861 70:0.027638753 71:0.087042185 72:0.2373712 73:0.078826121 74:0.33569358 75:-1.9068038e-16 76:0.13661902 77:0.043641344 78:0.16784679 79:0 80:0.21507952 81:0.066644195 82:0.02741459 83:0.020433629 84:0.11840743 85:0.052195437 86:0.39946413 87:0.10036021 88:0.093071479 89:0.0065037099 90:0.0051019298 91:0.013141408 92:0.068601623 93:0.043864597 94:0.38931228 95:0.3804029 96:0.38889398 97:0.0045599199 98:1.2075197e-17 99:0.0076928347 100:0.10931817 101:0.046656486 102:0.056269676 103:0.3866089 104:0.17679683 105:0.16405929 106:0.38450999 107:-1.9366679e-16 108:0.18858329 109:0.026355316 110:0.059692446 111:-1.0049736e-15 112:0.22410863 113:0.11045486 114:0.054537307 115:6.6349484e-18 116:0.18918172 117:0.033408143 118:0.2938157 119:0.094492497 120:0.19602783 121:-4.9686308e-18 122:8.6951039e-18 123:4.9686308e-18 124:0.19894097 125:0.05611289 126:0.22579496 127:0.3231232 128:0.18960755 129:0.0096826155 130:0.0039122402 131:1.0291551e-18 132:0.003089935 133:0.0066451565 134:0.2089965 135:0.57806599 136:0.27288416 137:0.050507452 138:0.22569272 139:0.035714162 140:0.25029655 141:0.025253726 142:0.13964861 143:1.0833391e-15 144:0.43882111 145:0.12999519 146:0.084171915 147:0.026887732 148:0.11903706 149:0.038024995 150:0.13617279 151:0.026887732 152:0.65457558 153:0.11395736 154:0.032256159 155:-2.2110289e-18 156:0.029872767 157:3.0954405e-17 158:0.071330695 159:0.098006933 160:0.064197795 161:0.0069799132 162:5.4338209e-18 163:0.041401791 164:0.11534394 165:0.10510129 166:0.31408205 167:0.35289321 168:0.062547958 169:0.015540165 170:0.122523 171:0.26390189 172:0.19448384 173:0.12139596 174:0.19762984 175:0.021977112 176:0.051572941 177:0.034778798 178:0.21799658 179:0.57293903 180:0.083137739 181:0.035655598 182:0.0039191506 183:7.9994575e-17 184:0.0332151 185:0.089751875 186:0.16700513 187:0.15443356 188:0.41883636 189:0.030847199 190:0.043560972 191:0.062349764 192:0.16702343 193:0.065927872 194:0.26148649 195:0.073829671 196:0.085241142 197:0.10471837 198:0.068738491 199:0.17303451 200:0.16571121 201:0.38516247 202:0.18546907 203:0.098962817 204:0.029525715 205:0.011464953 206:0.10359269 207:0.020110858 208:0.13632735 209:0.037948086 210:0.18221172 211:0.16107976 212:0.13194623 213:0.037948086 214:0.22043817 215:0.092099951 216:0.028762058 217:0.0075689626 218:0.042026584 219:0.0062415264 220:0.72326173 221:0.092510073 222:0.068974292 223:0.03065473 224:0.45617741 225:0.17299039 226:0.082948084 227:0 228:0.051219059 229:0.12606405 230:0.06536529 231:0.045235682 232:0.40884098 233:0.14558024 234:0.12339426 235:0.058474411 236:0.068500481 237:0.077266084 238:0.10140606 239:0.016536928 240:0.3186542 241:0.080031302 242:0.28661021 243:0.031330898 244:0.1387078 245:0.022154291 246:0.12250929 247:-9.6797859e-17 248:0.23702925 249:0.12470906 250:0.13802764 251:0.044091312 252:0.33462953 253:0.031177265 254:0.090331967 255:-2.1052426e-16 
8 0:0.20518188 1:0.090545142 2:0.099928668 3:0.012523363 4:0.036284772 5:0.14153617 6:0.34952388 7:0.064475799 8:0.096509623 9:0.023978009 10:0.31068332 11:0.06782005 12:0.38603849 13:0.023978009 14:0.090990145 15:2.8572588e-17 16:0.12998756 17:0.02235854 18:0.20485515 19:0.094859251 20:0.3499665 21:1.7761868e-17 22:0.19797095 23:2.6642803e-17 24:0.13486323 25:0.05026056 26:0.31637681 27:0.035539583 28:0.29220367 29:0.05026056 30:0.12049299 31:2.9945654e-17 32:0.079741487 33:0.036155438 34:0.036558833 35:0.052260325 36:0.081062802 37:0.15269332 38:0.49611118 39:0.065416543 40:0.095877415 41:0 42:0.073679907 43:4.4819079e-18 44:0.17884104 45:0.35429216 46:0.25417702 47:0.043131931 48:0.25586886 49:0 50:0.29799677 51:0.047595788 52:0.30102219 53:1.8715299e-16 54:0.097511754 55:2.0052106e-17 56:0.13619563 57:0.076135673 58:0.27807313 59:1.0080502e-17 60:0.39723726 61:1.4112702e-16 62:0.11235566 63:1.5120753e-17 64:0.21243452 65:0.23298765 66:0.10936148 67:0.044394505 68:0.18458674 69:0.11803739 70:0.043958728 71:0.054238954 72:0.013208521 73:-6.9215987e-17 74:9.3852186e-18 75:-2.3463046e-18 76:0.3572707 77:0.22391106 78:0.29392598 79:0.11168359 80:0.0056716753 81:-7.430253e-17 82:0.010351606 83:0.035185139 84:0.6328182 85:0.25550639 86:0.06046682 87:1.0074919e-17 88:0.054055609 89:0.043314463 90:0.083877225 91:0.03424309 92:0.44299363 93:0.19086529 94:0.15065022 95:1.7204741e-17 96:0.29556327 97:0.10481554 98:0.0038172956 99:2.7864478e-18 100:0.020393007 101:0.022485298 102:0.11851406 103:0.4344115 104:0.23934784 105:0 106:0.11382884 107:0 108:0.14729098 109:0.04116908 110:0.37102872 111:0.087332807 112:0.21931567 113:0.028609724 114:0.019073149 115:0 116:0.083097821 117:0.12703342 118:0.26212833 119:0.2607415 120:0.20674989 121:0.022922845 122:0.11506715 123:0.032417798 124:0.095679808 125:-1.2140106e-17 126:0.14935438 127:0.37780788 128:0.28890216 129:0.044502132 130:0.06887933 131:0.0087352811 132:1.2754876e-18 133:6.377438e-18 134:0.15685669 135:0.43212436 136:0.15123021 137:0.059230924 138:0.072198123 139:2.3502444e-18 140:0.047022778 141:0.085683773 142:0.35252325 143:0.2321108 144:0.22308036 145:0.14842955 146:0.43696537 147:0.039286894 148:0.053925638 149:0.012058139 150:0.046994989 151:0.039258457 152:0.21049567 153:0.021133831 154:0.089920432 155:0.08966358 156:0.35804728 157:0.027261823 158:0.061309444 159:0.14216787 160:0.16146549 161:0.2071932 162:0.31916143 163:0.036510373 164:0.03716047 165:0.0078869602 166:0.034078806 167:0.1965432 168:0.053446983 169:0.46745296 170:0.39405347 171:0.055849297 172:0.014455419 173:-1.0271193e-17 174:-3.0813579e-17 175:0.014741693 176:0.088962708 177:0.11650119 178:0.43794437 179:0.17439005 180:0.04388113 181:-1.5156662e-17 182:0.0068952544 183:0.13142481 184:0.12322174 185:0.2558049 186:0.05157343 187:0.10316772 188:0.34906497 189:0.065305479 190:0.035068724 191:0.016792992 192:0.2690534 193:0.36322169 194:0.064058797 195:3.758606e-18 196:0.021229426 197:6.2643433e-18 198:0.13625534 199:0.1461813 200:0.11706965 201:0.19586028 202:0.54975354 203:0.046643662 204:0.070425984 205:-2.274576e-17 206:-2.3883048e-16 207:0.020246047 208:0.081494174 209:0.091113256 210:0.45425061 211:0.077312162 212:0.2363331 213:0.018222651 214:0.041272684 215:3.6190683e-16 216:0.12440113 217:0.15875404 218:0.40164212 219:0.032782576 220:0.2384355 221:-2.7622599e-17 222:0.043982441 223:3.9132016e-16 224:0.081548832 225:0.092736677 226:0.080200292 227:0.082264349 228:0.11442833 229:0.044984392 230:0.25320162 231:0.25063539 232:0.24541746 233:0.083854833 234:0.061649848 235:0.068790751 236:0.020615657 237:0.14764475 238:0.26622538 239:0.10580098 240:0.2141813 241:0.02082278 242:0.2222227 243:0.058895716 244:0.30881477 245:0.075221284 246:0.099839675 247:2.4812766e-17 248:0.13066579 249:-1.0444908e-16 250:0.45906173 251:0.041320152 252:0.33973107 253:0.02921776 254:-1.7408181e-17 255:-5.2224542e-17 
8 0:0.49288453 1:0.046481327 2:0.068593869 3:0 4:0.034645136 5:0.061975103 6:0.19602867 7:0.099390379 8:0.33802837 9:0.10709929 10:0.09345372 11:0 12:0.23180092 13:0.05724733 14:0.11019594 15:0.062172937 16:0.21613547 17:0.22154453 18:0.28389917 19:0 20:0.17653199 21:0 22:0.10188724 23:-1.9598988e-17 24:0.29713061 25:0.22397347 26:0.22666005 27:0 28:0.21563917 29:0 30:0.036595181 31:-1.9152606e-17 32:0.034373342 33:0.27553376 34:0.54839846 35:0.026498004 36:0.034877409 37:0.012237323 38:0.041583605 39:0.026498004 40:0.0018207136 41:3.5576609e-17 42:0.067481344 43:0.33518381 44:0.46430477 45:0.11168878 46:0.019520507 47:-3.2342371e-18 48:0.0040807338 49:0.020403669 50:0.078727408 51:0.058950099 52:0.18884854 53:0.48380361 54:0.16518586 55:-3.6244197e-18 56:0.020766499 57:0.085020715 58:0.46667049 59:0.050430634 60:0.33226398 61:0.015478434 62:0.029368264 63:-1.2296237e-17 64:0.5705768 65:0.23235097 66:0.078983652 67:0 68:2.4349005e-18 69:0 70:0.018849792 71:0.099238718 72:0.20137616 73:0.21300018 74:0.32215995 75:0.10813685 76:0.074138173 77:0.033155599 78:0.048031963 79:-6.9140322e-17 80:0.016872967 81:2.7831525e-17 82:0.010449244 83:-2.1408865e-18 84:0.0085848521 85:0.1134329 86:0.40714863 87:0.44351138 88:0.0051770382 89:0.095647575 90:0.31028352 91:0.035229586 92:0.093347842 93:0.16939755 94:0.12876319 95:0.16215355 96:0.11676156 97:3.5173133e-17 98:0.0032944044 99:0 100:0.0023294957 101:0.020046595 102:0.29633036 103:0.56123747 104:0.35402035 105:0.046160324 106:0.08350693 107:-3.361441e-17 108:0.076809584 109:0.015386775 110:0.25337139 111:0.17074368 112:0.2203668 113:0.032850342 114:0.078754313 115:-6.5241677e-18 116:0.058764479 117:0.049275513 118:0.21072842 119:0.34925903 120:0.011908168 121:0.0066568681 122:0.016480605 123:0.0072296304 124:0.0585369 125:0.049001262 126:0.14158263 127:0.70860391 128:0.18297191 129:0.023027466 130:0.0144567 131:0.0090267835 132:0.019981637 133:0.010292117 134:0.44292343 135:0.29731979 136:0.094997574 137:0.0075864655 138:0.0095962041 139:-1.6573621e-17 140:3.0133855e-18 141:0.027405739 142:0.60219955 143:0.25821423 144:0.31700423 145:0.084512581 146:0.19598498 147:-1.118962e-17 148:0.20361871 149:0.02817086 150:0.17070539 151:6.2102389e-16 152:0.14035349 153:0.095152928 154:0.015217776 155:0.0074035789 156:0.099455372 157:0.067924452 158:0.14699524 159:0.42749715 160:0.085011456 161:0.26083005 162:0.10145353 163:0.031658538 164:0.2317629 165:0.19896916 166:0.038246918 167:0.052067249 168:5.4985042e-18 169:1.0997008e-17 170:0.034384365 171:-6.8731302e-18 172:0.10568113 173:0.5147459 174:0.34518856 175:5.4985042e-18 176:4.1589714e-18 177:1.3308708e-17 178:0.27053854 179:0.25017664 180:0.44126619 181:0.013553403 182:0.018542092 183:0.0059230542 184:0.036184839 185:0.58919112 186:0.25926821 187:0.018606712 188:0.08548537 189:3.1635942e-18 190:-6.5249131e-17 191:0.011263687 192:0.21860114 193:0.056101719 194:0.065229368 195:0.062883948 196:0.069447879 197:0.12112791 198:0.19123308 199:0.21537493 200:0.30969627 201:0.080913609 202:0.13578503 203:0.046011084 204:0.080558104 205:0.10253606 206:0.203061 207:0.041438368 208:0.1328332 209:0.092004756 210:0.17617235 211:0.082980424 212:0.46637801 213:-1.0116341e-17 214:0.049630598 215:-9.104707e-17 216:0.17023138 217:0.14440487 218:0.3676245 219:0.069238475 220:0.1824594 221:0.03263933 222:0.010321462 223:0.023079492 224:0.22009861 225:0.085003003 226:0.093099488 227:0.097165725 228:0.11953318 229:0.10357857 230:0.093347813 231:0.18817358 232:0.14017552 233:0.014440286 234:0.044777426 235:0.065196916 236:0.27212079 237:0.12950501 238:0.30460566 239:0.029178067 240:0.10708881 241:-6.4850431e-17 242:4.3233621e-18 243:2.3778492e-17 244:0.18178437 245:0.28037572 246:0.37514439 247:0.055606227 248:0.10568162 249:-7.8220112e-17 250:0.029734669 251:0.024207582 252:0.40171537 253:0.25335623 254:0.15536645 255:0.029937369 
1.703149047977282 0:0.29369503 1:0.13147301 2:0.15715073 3:0.13043276 4:0.065760494 5:0.019624722 6:0.032661838 7:0.16920123 8:0.42633887 9:0.16674776 10:0.033333122 11:1.1691495e-17 12:0.080963742 13:0.014717188 14:0.15559182 15:0.12230728 16:0.11361337 17:0.075787589 18:0.48814991 19:2.8500767e-17 20:0.26572192 21:0 22:0.056725893 23:2.8500767e-17 24:0.16394435 25:0.055279945 26:0.44386963 27:0.039017444 28:0.236578 29:0.02116018 30:0.040148619 31:3.3619756e-17 32:0.3681841 33:0.035467449 34:0.054131318 35:0.010874596 36:0.030949643 37:0.017194246 38:0.022125481 39:0.46107292 40:0.27130047 41:0.056906476 42:0.017850616 43:0.13621876 44:0.36394353 45:0.017631876 46:0.039343205 47:0.096805013 48:0.020405578 49:0.020603734 50:0.084824213 51:0.11937944 52:0.5955036 53:0.1403956 54:0.010821692 55:0.0080660129 56:0.089147109 57:0.06546386 58:0.31466921 59:0.059042805 60:0.40621181 61:0.047342133 62:0.018121727 63:-1.7995122e-16 64:0.45094334 65:0.31544602 66:0.089807296 67:1.2414271e-17 68:0.018636301 69:0.010418009 70:0.02635571 71:0.088393212 72:0.090284743 73:0.10202964 74:0.25418939 75:0.2419604 76:0.17584183 77:0.056953238 78:0.063840954 79:0.014899347 80:0.12615763 81:0.016899234 82:0.023178414 83:0.016198402 84:0.043892503 85:0.25515322 86:0.3588979 87:0.15962262 88:0.085701669 89:0.014657652 90:0.044765827 91:0.052929935 92:0.06196825 93:0.16410344 94:0.23398208 95:0.34189104 96:0.32221229 97:0.007829781 98:0.0037139912 99:0.022827538 100:0.032444529 101:0.20453108 102:0.16992413 103:0.23651665 104:0.30282727 105:0.17371926 106:0.27594779 107:-8.8717163e-17 108:0.16647774 109:0.049634073 110:0.031391344 111:2.0207798e-16 112:0.6443201 113:0.10013753 114:0.031666266 115:4.9718966e-18 116:0.033587147 117:2.3865104e-16 118:0.13180379 119:0.058484521 120:0.35442153 121:0 122:0.021086643 123:0.019921268 124:0.067816172 125:0.025584111 126:0.06268678 127:0.44848341 128:0.61647057 129:0.0046418852 130:0.0073444152 131:0.0025128187 132:0.0031784921 133:-7.0576703e-18 134:0.0011237667 135:0.36472804 136:0.26881469 137:0.10928871 138:0.24472504 139:0.077278789 140:0.15884504 141:0.027322178 142:0.11372249 143:2.0619785e-16 144:0.69957226 145:0.15544544 146:0.019417287 147:4.7245713e-18 148:-3.3071999e-17 149:0.019179349 150:0.089563676 151:0.016821402 152:0.2752303 153:0.030918943 154:0.044346057 155:2.9068532e-18 156:0.36850182 157:0.069176797 158:0.082124951 159:0.12970092 160:0.20360953 161:0.067705021 162:0.14344448 163:0.043000797 164:0.13931603 165:0.1054353 166:0.067769414 167:0.22971942 168:0.0060853134 169:0.017774042 170:0.11312983 171:0.52470145 172:0.32008152 173:3.2429064e-17 174:0.0086059327 175:0.0096217253 176:0.075385631 177:0.061660299 178:0.24252077 179:0.48037654 180:0.056062478 181:3.9834786e-17 182:0.035304094 183:0.048690028 184:0.0081349029 185:0.038853024 186:0.030480735 187:0.096662325 188:0.63831717 189:0.12163908 190:0.048389594 191:0.017523117 192:0.11075637 193:0.32221338 194:0.46490656 195:4.9185709e-17 196:0.055378185 197:-9.8371418e-17 198:0.046743758 199:7.3778563e-17 200:0.39116494 201:-2.2791758e-17 202:0.35359318 203:-1.4814643e-16 204:0.15396743 205:0 206:0.10127108 207:1.1395879e-17 208:0.22707864 209:0.084627212 210:0.13525497 211:-1.4005996e-16 212:0.39107988 213:4.4819188e-17 214:0.10994109 215:0.052014956 216:0.050639174 217:0.0065977627 218:0.016691166 219:0.012165673 220:0.45698975 221:0.35198843 222:0.092762196 223:0.012165673 224:0.25886734 225:0.10524454 226:0.43108688 227:0.037209564 228:0.11766697 229:-1.2541112e-16 230:0.049921868 231:9.4058339e-17 232:0.21556257 233:0.066275497 234:0.41304838 235:-1.3099759e-16 236:0.21556257 237:0.025369082 238:0.064179265 239:1.0076738e-17 240:0.33239824 241:0.048759742 242:0.40840536 243:-1.2104772e-16 244:0.13083612 245:0.024379871 246:0.05521824 247:4.3577181e-17 248:0.33166577 249:0.082403024 250:0.33875561 251:5.727913e-17 252:0.22111051 253:-1.9638559e-16 254:0.026058124 255:5.8915676e-16 
8 0:0.32323723 1:0.36957045 2:0.27718057 3:0.03001158 4:0 5:0 6:0 7:0 8:0.029973469 9:0.11239997 10:0.28086834 11:0.35134171 12:0.225416 13:0 14:0 15:0 16:0.005536454 17:-1.1309926e-16 18:0.097520864 19:0.32056004 20:0.4786135 21:0.061899438 22:0.035869073 23:0 24:0.0058242813 25:-1.1897902e-16 26:0.094093445 27:0.1328925 28:0.58692573 29:0.10418791 30:0.057657443 31:0.018417995 32:0.40414207 33:0.12563103 34:0.066753801 35:0.037786314 36:0.08301594 37:0.048827256 38:0.12463266 39:0.1092107 40:0.075339059 41:0.067385303 42:0.075158195 43:-5.3531621e-17 44:0.32485219 45:0.23630772 46:0.22095701 47:-4.9070653e-17 48:0.26509365 49:0.07113209 50:0.19109978 51:0.033531989 52:0.21207492 53:0.07113209 54:0.1224012 55:0.033531989 56:0.088498268 57:0.059366443 58:0.32625487 59:0.14843121 60:0.34514324 61:0.019788814 62:0.012515545 63:-8.6462477e-17 64:0.31454337 65:0.032672185 66:0.13289472 67:0.056534451 68:0.10576563 69:0.1101549 70:0.082900854 71:0.16453387 72:0 73:1.2466034e-17 74:3.6151498e-17 75:-1.3297103e-17 76:0.015431966 77:0.58517588 78:0.36198302 79:0.037409067 80:0.013395706 81:2.082111e-17 82:0.014208292 83:0 84:0.10003913 85:0.31231289 86:0.54945352 87:0.010590236 88:0.14651121 89:0.043681203 90:0.085120832 91:4.7713635e-17 92:0.27665766 93:0.065521805 94:0.35161806 95:0.030887275 96:0.55390127 97:0.0054091832 98:0.005886834 99:0.014006291 100:0.0080635342 101:2.8647428e-18 102:0.077697433 103:0.33503544 104:0.21627891 105:0 106:1.7269427e-17 107:-3.7097287e-17 108:-7.6753008e-18 109:0.041681831 110:0.28227221 111:0.45976688 112:0.051484351 113:-1.1431822e-18 114:6.2875023e-18 115:-1.4861369e-17 116:0.010613771 117:0.19899911 118:0.52880683 119:0.2100958 120:2.5689733e-16 121:-1.7840092e-18 122:9.8120507e-18 123:0.012703602 124:0.17592925 125:0.16440856 126:0.5293539 127:0.11760436 128:0.25578716 129:0.043401232 130:0.10714284 131:0.031871446 132:0.0093784138 133:0.020558778 134:0.05199384 135:0.47986628 136:0.49043548 137:0.014230851 138:2.4023431e-17 139:-3.1089146e-17 140:-5.6525719e-18 141:0.025704131 142:0.11195924 143:0.35767009 144:0.52353503 145:0.016086292 146:1.4376517e-17 147:-9.5843446e-18 148:9.5843446e-18 149:0.008043146 150:0.10973467 151:0.34260059 152:0.22642064 153:0 154:0.0069239647 155:0.015482456 156:0.21132175 157:0.11693405 158:0.18240682 159:0.24050983 160:0.28243553 161:0.053018984 162:0.3373705 163:0.013785636 164:0.072817946 165:0.042374943 166:0.087780594 167:0.11041577 168:0.60099568 169:0.2520358 170:0.099746727 171:0.013339934 172:0.019412455 173:1.1494483e-17 174:0.01446919 175:-2.2988965e-17 176:0.42385059 177:0.050004166 178:0.023671154 179:0.021823726 180:0.09871032 181:0.088304898 182:0.18960164 183:0.10403294 184:0.023320599 185:-5.5924703e-17 186:0.010429289 187:0.057762339 188:0.43078971 189:0.23513415 190:0.12695652 191:0.11560696 192:0.12582693 193:0.41098982 194:0.18725577 195:0.061524143 196:0.15203905 197:6.5160639e-18 198:0.039164165 199:0.023199847 200:0.048850252 201:0.32731089 202:0.44806675 203:0.10309125 204:0.072680566 205:2.0385256e-17 206:1.0532382e-16 207:-4.0770512e-17 208:0.045999689 209:0.064696998 210:0.26821185 211:0.19111549 212:0.40980468 213:0.012356027 214:0.0078146377 215:2.4539407e-18 216:0.065153077 217:0.042332102 218:0.35049492 219:0.21797583 220:0.29208378 221:0.014110701 222:0.017848781 223:1.1209695e-17 224:0.24463797 225:0.35505134 226:0.31830312 227:5.2636566e-18 228:0.068446442 229:5.2636566e-18 230:0.0041905626 231:0.0093703828 232:0.064359799 233:0.33281539 234:0.22513314 235:0.15791755 236:0.20462517 237:0.015148725 238:9.62745e-17 239:-4.0615805e-17 240:0.034457381 241:-2.3463298e-16 242:0.12515187 243:0.34908627 244:0.41923146 245:0.059230831 246:0.012841508 247:-5.100717e-18 248:0.026598009 249:-2.7167344e-16 250:0.25962262 251:0.19377669 252:0.46205285 253:0.029737478 254:0.028211449 255:2.9529722e-18 
4.645065782469364 0:0 1:0 2:0.046028263 3:0.30081241 4:0.62392062 5:0.017953912 6:0.0034401027 7:0.0078446412 8:0 9:0 10:0.099632341 11:0.49073758 12:0.40425517 13:0.0053748614 14:0 15:0 16:0.008783953 17:0.038106107 18:0.043569255 19:0.18153323 20:0.60276595 21:0.080534686 22:0.035946242 23:0.0087605393 24:0.19389088 25:0.18722577 26:0.021709045 27:0.086401857 28:0.1577963 29:0.072835063 30:0.10067599 31:0.17946509 32:0.053819647 33:0.036172974 34:0.024187037 35:0.15351315 36:0.63439099 37:0.01743303 38:0.059053096 39:0.021429946 40:0.014885726 41:0.041514123 42:0.12441518 43:0.41042808 44:0.3114577 45:0.032245317 46:0.052778599 47:0.012275084 48:0.037713835 49:0.026116652 50:0.17667671 51:0.14264434 52:0.26663752 53:0.17272047 54:0.16234982 55:0.015140593 56:0.025250386 57:0.071203883 58:0.40472306 59:0.17751692 60:0.23110282 61:0.03934339 62:0.034368695 63:0.016490831 64:0.12855155 65:0.060548925 66:0.4568661 67:0.17842663 68:0.088244618 69:0.005991798 70:0.01345103 71:0.067919201 72:0.075835057 73:0.25936049 74:0.59126401 75:0.045526515 76:0.018714525 77:0 78:0.0092993223 79:0 80:0.25292148 81:0.082538979 82:0.036122239 83:2.4140081e-18 84:0.042130044 85:0.15615725 86:0.26438982 87:0.16574019 88:0.10627815 89:0.074085292 90:0.037422874 91:0.054197256 92:0.2200067 93:0.1218273 94:0.16028812 95:0.22589431 96:0.18624428 97:0.11265808 98:0.095303978 99:0.0091204871 100:0.015517526 101:0.0061064768 102:0.23172833 103:0.34332078 104:0.56014629 105:0.23700659 106:0.096563269 107:0.029028656 108:0.012239556 109:0 110:0.027630757 111:0.037384693 112:0.46451581 113:5.1263183e-18 114:-6.4078979e-18 115:-1.2815796e-18 116:-2.2427643e-17 117:0 118:0.062268185 119:0.47321597 120:0.096255775 121:0.0036331682 122:0.045026779 123:0.018719523 124:0.060723664 125:0.066900683 126:0.098959987 127:0.60978042 128:0.20277643 129:0.055551107 130:0.21812686 131:0.1544203 132:0.010723175 133:0.012087895 134:0.082302095 135:0.26401212 136:0.35394645 137:0.18794027 138:0.19260517 139:0.047484282 140:0.097478927 141:0.010162857 142:0.04852489 143:0.061856732 144:0.17236199 145:-8.6299373e-18 146:-2.5889812e-18 147:-4.4875674e-17 148:-3.1930768e-17 149:0.076372303 150:0.3100691 151:0.44119653 152:0.39266626 153:0.026908632 154:0.013485143 155:0.0071529166 156:0.048572674 157:0.084446926 158:0.080807527 159:0.34595991 160:0.11493559 161:0.064744779 162:0.088482868 163:0.35207485 164:0.14264366 165:0.047378043 166:0.12325851 167:0.066481681 168:0.035057251 169:0.13959807 170:0.13072701 171:0.05954147 172:0.36526439 173:0.11431507 174:0.099485349 175:0.056011245 176:0.10480953 177:-1.8329166e-17 178:-1.9293859e-17 179:0.011076577 180:0.16005272 181:0.37003253 182:0.1929788 183:0.16104974 184:0.16110089 185:0.041520487 186:0.013676553 187:0.018555449 188:0.15709693 189:0.15532089 190:0.26955416 191:0.18317463 192:-3.8757698e-17 193:0.060152912 194:0.13982602 195:0.35187735 196:0.33173183 197:0.09786759 198:0.0038570279 199:0.014687125 200:-1.508431e-17 201:0.028376251 202:0.05703374 203:0.41576804 204:0.45057419 205:0.017485505 206:0.021616369 207:0.0091458535 208:0.025690581 209:0.13664166 210:0.37847907 211:0.40190875 212:0.036420105 213:0.0035093637 214:0.01238743 215:0.0049629898 216:0.15220231 217:0.15779761 218:0.25395291 219:0.14902906 220:0.19843352 221:0.0065436911 222:0.024890857 223:0.057149977 224:0.075760362 225:0.037626994 226:0.20588686 227:0.20736347 228:0.42508848 229:0.026748208 230:0.0089160694 231:0.012609226 232:0.046450214 233:-7.7355145e-18 234:0.082124018 235:0.44733481 236:0.23056207 237:0.11794734 238:0.048039796 239:0.027541589 240:0.033306089 241:-2.5065247e-17 242:0.090343465 243:0.50269469 244:0.33751498 245:0.029488917 246:0.0066517439 247:1.0548292e-16 248:0.032874065 249:-3.3369183e-17 250:0.31035688 251:0.44265226 252:0.21411668 253:-1.042787e-17 254:-4.2754265e-17 255:-2.6695346e-16 
8 0:0 1:0 2:0 3:0 4:0.045987671 5:0.55297996 6:0.38909201 7:0.011940293 8:0 9:0.038562496 10:0.016642003 11:0.12750746 12:0.44062058 13:0.23665193 14:0.07131122 15:0.068704253 16:0.045052874 17:0.086077417 18:0.21966023 19:0.20680284 20:0.17436961 21:0.093374292 22:0.091542327 23:0.083120345 24:0.024703098 25:0.030333839 26:0.11524792 27:0.43740899 28:0.29300265 29:0.060981893 30:0.03832158 31:-4.2632694e-18 32:0.14598431 33:0.034854187 34:0.021852648 35:0.017790673 36:0.10618874 37:0.14397208 38:0.39519311 39:0.13416387 40:0.0080020219 41:1.7768058e-18 42:0.011316568 43:0.11784766 44:0.71596111 45:0.11858089 46:0.02829142 47:3.7312921e-17 48:0.029773215 49:0.060938585 50:0.37423634 51:0.29116219 52:0.21215622 53:-1.9438638e-17 54:0.0051585705 55:0.026574602 56:0.014938289 57:0.10382258 58:0.23455032 59:0.091916969 60:0.4283037 61:0.040222277 62:0.086245357 63:5.0860154e-17 64:0.2474296 65:0.037078577 66:0.11270642 67:0.29012581 68:0.13698567 69:0.10767334 70:0.021773547 71:0.046227004 72:0.034445895 73:-6.0851176e-18 74:0.04486685 75:0.30856662 76:0.48505389 77:0.072555726 78:0.054510776 79:0 80:0.049705926 81:-1.849177e-17 82:0.07564224 83:0.43255218 84:0.35194909 85:0.031036448 86:0.044806771 87:0.014307096 88:0.018892389 89:0.060060317 90:0.25323337 91:0.14392943 92:0.29582858 93:0.12901345 94:0.021646159 95:0.077396195 96:0.39656041 97:0.28008213 98:0.096858913 99:0.01192088 100:0.044938963 101:0.010455304 102:0.032480614 103:0.12670268 104:5.7409124e-17 105:0.029169977 106:0.29991197 107:0.26144652 108:0.38172306 109:0.027748331 110:-1.7940351e-18 111:-2.3920468e-17 112:0.0050799153 113:0.029674931 114:0.073164015 115:0.17768756 116:0.6030056 117:0.054951147 118:0.056436702 119:-3.1583098e-17 120:0.25809785 121:0.028159209 122:0.02846816 123:0.025159089 124:0.039719006 125:0.068000479 126:0.10369012 127:0.44870606 128:0.56062662 129:0.1414931 130:0.012727366 131:0.010453931 132:0.010141802 133:0.0056694399 134:0.029685572 135:0.22920204 136:0.25455433 137:0.14843337 138:0.23969402 139:0.14241323 140:0.051081857 141:0.03315564 142:0.13066689 143:0 144:0.53821662 145:0.036040191 146:0.068955504 147:0.041747391 148:0.055340388 149:0 150:0.028646775 151:0.23105286 152:0.65510352 153:0.053476648 154:0.083588369 155:3.77633e-17 156:0.11751846 157:0.0077616309 158:0.054084805 159:0.02846653 160:0.050411437 161:0.038812554 162:0.10107651 163:0.1557003 164:0.12737996 165:0.14071292 166:0.21235451 167:0.17355176 168:0.019693575 169:0.003669681 170:0 171:0.097924288 172:0.55915662 173:0.23290589 174:0.072628068 175:0.014021832 176:0.19166293 177:0.19684334 178:0.041926418 179:0.26371523 180:0.11134504 181:0.025423569 182:0.10252706 183:0.066556375 184:0.008069181 185:0.031320233 186:0.038651526 187:0.19738497 188:0.29589849 189:0.24577211 190:0.14940077 191:0.033502707 192:0.12345533 193:0.056784563 194:0.27097594 195:0.22784115 196:0.28956526 197:-8.3735354e-17 198:0.0148143 199:0.016562891 200:0.048867979 201:0.20907938 202:0.52889054 203:0.042885369 204:0.087142064 205:0.016811096 206:0.054436047 207:0.01188724 208:0.18771214 209:0.40847148 210:0.34152253 211:-4.9181642e-17 212:0.011252679 213:0.0075340519 214:0.015068104 215:0.02843892 216:0.060414978 217:0.014861373 218:0.053351948 219:0.016774616 220:0.23819342 221:0.17132271 222:0.27732361 223:0.16775732 224:0.24840424 225:0.033498831 226:0.35597069 227:0.11634044 228:0.21844198 229:-1.1975327e-16 230:0.027342676 231:0 232:0.22587103 233:0.20704193 234:0.43089334 235:0.014005234 236:9.8340087e-17 237:0.019806392 238:0.0743712 239:0.028010468 240:0.29156451 241:0.16313367 242:0.03811397 243:2.3936983e-17 244:0.095989907 245:0.069600765 246:0.18262171 247:0.15897517 248:0.14432476 249:0.11589494 250:0.096064187 251:0.17784368 252:0.36913641 253:0.062942337 254:0.008630601 255:0.02516231 
4.629285897779861 0:0.093773246 1:0.031827763 2:0.0088838564 3:0 4:0 5:0.12370231 6:0.40479661 7:0.33701609 8:0.071878573 9:0.03571675 10:0.42126297 11:0.050511112 12:0.21791494 13:0.017858375 14:0.15960042 15:0.025255556 16:0.033661519 17:0 18:0.4461923 19:0.22097987 20:0.18513835 21:0.018817361 22:0.095209152 23:8.5955124e-17 24:0.12563438 25:0 26:0.43751744 27:0.035592269 28:0.36016844 29:0.025167535 30:0.015917346 31:1.1496185e-16 32:0.11794456 33:0.023765795 34:0.03751771 35:0.062468103 36:0.19054335 37:0.14711898 38:0.30207427 39:0.11856721 40:0.079041153 41:0.12152482 42:0.035805706 43:2.5341311e-17 44:0.10625553 45:0.31940243 46:0.26430986 47:0.073660243 48:0.14781527 49:0.058327939 50:0.27728251 51:5.4059078e-17 52:0.19377176 53:0.1137107 54:0.13725817 55:0.071832109 56:0.19006669 57:0.078887776 58:0.2854259 59:8.3559082e-17 60:0.35279686 61:0.026295925 62:0.066524014 63:5.2224426e-18 64:0.56369512 65:0.22600803 66:0.049492067 67:0.051450029 68:0.0028696746 69:0.0098483696 70:0.025589999 71:0.071046695 72:0.06721068 73:0.028178934 74:0.074740028 75:1.4923769e-17 76:0.47629104 77:0.22237964 78:0.13119931 79:7.4618844e-18 80:0.10159075 81:1.2235119e-17 82:0.01975025 83:0.059646289 84:0.31637989 85:0.29085174 86:0.12518084 87:0.08660014 88:0.0062855152 89:0.0089053228 90:0.010226398 91:0.17784472 92:0.66135279 93:0.044763232 94:0.069062833 95:0.021559139 96:0.070453654 97:0.0033409125 98:-1.6587859e-19 99:0.0092405074 100:0.0093735763 101:0.0087279721 102:0.074492376 103:0.82437099 104:0.30565839 105:0.048819495 106:0.17482939 107:0 108:0.19649468 109:0.024409747 110:0.024409747 111:0.22537612 112:0.57030112 113:0.064268265 114:0.093104362 115:-1.914578e-17 116:0.064668694 117:3.1909633e-18 118:1.5316624e-16 119:0.2076565 120:0.058655482 121:0.010645683 122:9.6697345e-18 123:0.012519346 124:0.29511995 125:0.087216737 126:0.035865422 127:0.49997735 128:0.12280918 129:0.011111176 130:0.0024315881 131:0.01409046 132:0.0021065106 133:0.0087093841 134:0.15686272 135:0.68187897 136:0.18518002 137:0.042469243 138:0.061524482 139:-1.6869015e-17 140:0.018992823 141:0.04084561 142:0.44782116 143:0.2031662 144:0.32509978 145:0.12892156 146:0.30510739 147:-5.4209614e-17 148:0.1220692 149:-7.7442306e-18 150:0.063655277 151:0.055145243 152:0.30222661 153:0.0061030782 154:0.012206156 155:0.019299628 156:0.18488269 157:0.040356309 158:0.19077466 159:0.24415072 160:0.09809503 161:0.068578826 162:0.26563161 163:0.089311927 164:0.080492519 165:0.069724542 166:0.073210282 167:0.25495526 168:0.078256732 169:0.21579697 170:0.25244277 171:0.032584748 172:0.047945559 173:0.066734588 174:0.2071302 175:0.099108394 176:0.061645495 177:0.054275717 178:0.38840609 179:0.25745651 180:0.12084229 181:0.051752276 182:0.065621112 183:1.559843e-16 184:0.047655914 185:0.007326737 186:0.087497395 187:0.25481059 188:0.43061085 189:0.05521543 190:0.028790979 191:0.0880921 192:0.39819161 193:0.19023702 194:0.14868294 195:8.8597703e-18 196:-4.4298851e-19 197:-3.1009196e-18 198:0.01918839 199:0.24370002 200:0.28761873 201:0.33159565 202:0.34040637 203:0.016344022 204:0.0051684336 205:4.1314421e-17 206:0.018866238 207:1.4230523e-16 208:0.29810963 209:0.11500276 210:0.28931335 211:0.037782885 212:0.14661913 213:0.020490646 214:0.025918845 215:0.066761035 216:0.1790957 217:-4.878114e-16 218:0.23913437 219:0.060880831 220:0.37325093 221:0.026698011 222:0.12093724 223:-8.4836766e-17 224:0.19270603 225:-1.0805401e-17 226:2.5083966e-17 227:0.063979351 228:-3.8590717e-19 229:0.16568372 230:0.22121604 231:0.35641485 232:0.35614476 233:0.048505778 234:0.035790706 235:1.2844507e-17 236:0.010846222 237:0.19467638 238:0.25999731 239:0.09403857 240:0.30078356 241:0.086772697 242:0.34701918 243:2.3852631e-17 244:0.19336086 245:0.048040892 246:0.024020446 247:5.6292209e-16 248:0.11068224 249:0 250:0.35425981 251:0.024331176 252:0.33209891 253:0.06206921 254:0.11655745 255:6.8338164e-17 
4.600495965353453 0:0.56175733 1:0.016112661 2:0.024273087 3:0.0074275697 4:0.054865388 5:0.0040281652 6:0.064438384 7:0.26709735 8:0.35720289 9:0.089401482 10:0.17488551 11:0.03947866 12:0.050449287 13:0.0093052093 14:0.12552554 15:0.15375107 16:0.13368787 17:0.074542782 18:0.47876299 19:0.029182236 20:0.23161961 21:0 22:0.05220277 23:8.1963176e-17 24:0.14702648 25:0.10159279 26:0.29141831 27:0.084575453 28:0.25904502 29:0.018101321 30:0.098239284 31:7.1899435e-17 32:0.33841536 33:0.063846772 34:0.13241361 35:0 36:0.09279772 37:0.061428888 38:0.11346625 39:0.19763035 40:0.038579706 41:0.0096470954 42:0.035056439 43:0.052496129 44:0.38934143 45:0.15907948 46:0.19265878 47:0.12314088 48:0.038087565 49:0.00849674 50:0.052878288 51:0.088868885 52:0.51783075 53:0.27745587 54:0.0066653912 55:0.0097163939 56:0.2007996 57:0.085277548 58:0.17882304 59:0.02614676 60:0.31806558 61:0.055465654 62:0.13542042 63:5.1406276e-17 64:0.19160948 65:0.17518446 66:0.1353277 67:0 68:0.17394334 69:0.096768006 70:0.12500257 71:0.1021644 72:0.14166708 73:0.058158397 74:0.31947359 75:0.053495452 76:0.12058914 77:0.17559296 78:0.11319092 79:0.017831817 80:0.061435609 81:0.010468584 82:0.0066209136 83:0 84:0.032080598 85:0.52400772 86:0.29239778 87:0.072988685 88:0.016475365 89:2.0851433e-17 90:0.03741697 91:0.16813944 92:0.34864016 93:0.14033047 94:0.16633719 95:0.12266034 96:0.71827835 97:0.010940275 98:0.018791262 99:0.002204497 100:0.032957086 101:0.0138375 102:0.11485693 103:0.088134088 104:0.28568688 105:0.13308652 106:0.38991982 107:-3.1717615e-17 108:0.10713258 109:0 110:0.084171304 111:-1.0043911e-16 112:0.41972649 113:0.21376665 114:0.14246505 115:0 116:0.04145273 117:1.2579285e-16 118:0.095198071 119:0.087390027 120:0.56422066 121:0.11135482 122:0.033031536 123:9.0880844e-18 124:0.056094316 125:0.022880059 126:0.038724263 127:0.17369421 128:0.56452352 129:0.0071627384 130:0.0082470991 131:0 132:0.041870429 133:-8.059584e-18 134:0.0010694147 135:0.37712679 136:0.21481187 137:0.1183941 138:0.32562507 139:0.033486908 140:0.22409773 141:1.8810713e-17 142:0.083582023 143:-7.9004996e-16 144:0.49007062 145:0.28524873 146:0.14905978 147:0 148:0.012469311 149:1.2459345e-16 150:0.063150766 151:-4.7899259e-16 152:0.44024633 153:0.12852278 154:0.050860476 155:0.073821719 156:0.1293417 157:0.047080091 158:0.070563542 159:0.059562664 160:0.19733482 161:0.088452762 162:0.11270112 163:0.062543102 164:0.21638603 165:0.055071979 166:0.096438864 167:0.1710713 168:0.039768768 169:0.046587193 170:0.17848329 171:0.39742603 172:0.21870661 173:0.065222071 174:0.053805685 175:6.6616876e-17 176:0.13581339 177:0.16601055 178:0.31721674 179:0.17655824 180:0.062516781 181:0.12880515 182:0.0033403477 183:0.0097387033 184:0.0035959488 185:0.034234879 186:0.10681747 187:0.084245886 188:0.55808655 189:0.16796032 190:0.045058925 191:2.1292294e-17 192:0.33732655 193:0.21347147 194:0.21552481 195:0 196:0.034940499 197:0.016494679 198:0.091934199 199:0.090307758 200:0.22721878 201:0.060281069 202:0.27592132 203:0.09388447 204:0.23364045 205:0.02009369 206:0.088958557 207:-5.5869264e-17 208:0.25558698 209:0.04572079 210:0.21316302 211:0.03232948 212:0.18402263 213:0.082582069 214:0.18659289 215:-8.6262601e-17 216:0.14393023 217:-1.7379652e-16 218:0.10296015 219:1.4791194e-17 220:0.34139477 221:0.11171443 222:0.17854696 223:0.12145204 224:0.19878414 225:0.072048098 226:0.097781939 227:0.041600071 228:0.14623143 229:0.056245006 230:0.28635348 231:0.10095583 232:0.12889454 233:0.043232543 234:0.14820904 235:0.14885239 236:0.33721747 237:0.08970613 238:0.083507017 239:0.020380016 240:0.15620631 241:0.041106925 242:0.31434599 243:0.16406539 244:0.15620631 245:0.10317693 246:0.064890752 247:-4.381234e-17 248:0.20954458 249:0.068004424 250:0.33356937 251:-5.1698047e-18 252:0.33948873 253:-7.7547071e-17 254:0.04939013 255:-2.0679219e-17 
1.203803516449748 0:0.013797957 1:0.0061706342 2:0.0039026517 3:0 4:0.057765445 5:0.35094983 6:0.50886034 7:0.058552986 8:0.30254092 9:0.042281379 10:0.1302748 11:0.059794899 12:0.19062231 13:0.076369716 14:0.1682167 15:0.02989745 16:0.1542438 17:0.024635687 18:0.26993349 19:0 20:0.33052242 21:0.049271374 22:0.17139074 23:-2.4463574e-17 24:0.088924446 25:0 26:0.15703211 27:0.028120379 28:0.36603327 29:0.13148272 30:0.22840546 31:-1.9745193e-17 32:0.023900906 33:0.04055362 34:0.022093112 35:0.073058999 36:0.15781676 37:0.20596669 38:0.36471835 39:0.11189154 40:0.1022946 41:0.12017372 42:0.020961895 43:-2.5946909e-17 44:0.14500059 45:0.32398202 46:0.17723132 47:0.1103557 48:0.2613898 49:0.029224268 50:0.25343565 51:-1.1608039e-16 52:0.3790152 53:-1.3929647e-16 54:0.076931585 55:5.8040194e-17 56:0.20743417 57:-6.6995838e-17 58:0.28218572 59:-1.674896e-16 60:0.41486834 61:-1.9261303e-16 62:0.095504486 63:8.3744798e-17 64:0.29512763 65:0.32050457 66:0.10752109 67:0.058885112 68:0.041450776 69:0.063799168 70:0.10114013 71:0.011571502 72:0.053738203 73:6.9884839e-17 74:0.02615416 75:0.0088863767 76:0.49805618 77:0.22597852 78:0.14269427 79:0.044492125 80:0.006084342 81:0.0045350007 82:0.011938188 83:0.057644033 84:0.41005122 85:0.35373638 86:0.11807755 87:0.037933205 88:0.025609273 89:0.0057264075 90:0.038767542 91:0.047311296 92:0.70653395 93:0.12182121 94:0.043671212 95:0.010558974 96:0.38510203 97:0.019723123 98:0.0012713321 99:0.020104118 100:0 101:0.017268603 102:0.11032298 103:0.4462078 104:0.33763315 105:0.14006852 106:0.17505062 107:-7.4537627e-17 108:0.16784382 109:-5.8565279e-17 110:0.17940094 111:1.1127403e-15 112:0.23840196 113:0.025799818 114:0.086327477 115:0.018243226 116:0.088757241 117:0.051599635 118:0.35753109 119:0.13333886 120:0.02131718 121:0 122:0.0030147045 123:0.049233208 124:0.32494399 125:0.048065617 126:0.25581098 127:0.29761423 128:0.090544777 129:0.022274685 130:0.015999046 131:-1.3089353e-18 132:0.073097017 133:0.024562169 134:0.23117785 135:0.54234444 136:0.057140648 137:0.037884264 138:0.027417706 139:0.0099488951 140:0.050848414 141:0.12497973 142:0.61309258 143:0.078687553 144:0.078356532 145:0.21852458 146:0.47691587 147:0.055063358 148:0.12188794 149:-3.4797291e-17 150:0.049250165 151:-6.0315304e-16 152:0.48870853 153:0.15631647 154:0.046013426 155:-2.4081778e-18 156:0.0329764 157:1.5653156e-17 158:0.030314006 159:0.24567102 160:0.028412462 161:-7.875404e-17 162:0.18180755 163:0.30868915 164:0.05707988 165:0.013518428 166:0.21729096 167:0.19320149 168:0.073992368 169:0.14299772 170:0.14151499 171:0.11549859 172:0.11575414 173:0.050431752 174:0.17989287 175:0.17991755 176:0.088770079 177:0.060312784 178:0.41876721 179:0.28640523 180:0.10442179 181:0.0096889515 182:0.031633565 183:1.6548569e-16 184:0.11989863 185:0.078168516 186:0.1592386 187:0.16640003 188:0.38583555 189:0.012808114 190:0.072053152 191:0.005597351 192:0.2890039 193:0.39382563 194:0.25507732 195:-1.2177438e-17 196:0.0057728744 197:-1.2818356e-17 198:0.016328155 199:0.039992075 200:0.098996213 201:0.2270544 202:0.61644601 203:0.018988093 204:0.030022811 205:-1.5999368e-17 206:0.0084917332 207:-1.0399589e-16 208:0.077436754 209:-1.4443307e-16 210:0.33105783 211:0.19413423 212:0.28349548 213:0.034630769 214:0.054756054 215:0.024487652 216:0.18694996 217:0.063703697 218:0.28982785 219:0.10078388 220:0.21201872 221:0.019753678 222:0.12696062 223:-9.0232091e-17 224:0.22117627 225:-4.3509939e-17 226:0.035779445 227:0.009484478 228:0.018968956 229:0.25968308 230:0.25266452 231:0.20224323 232:0.36881043 233:0.15411455 234:0.073874456 235:0.014840852 236:0.037544715 237:0.19196465 238:0.14400904 239:0.014840852 240:0.19363998 241:0.045192139 242:0.26142438 243:0.031955668 244:0.36542956 245:0.045192139 246:0.057164037 247:1.8399329e-16 248:0.13034655 249:0.093994233 250:0.2533432 251:-1.1577099e-17 252:0.43014361 253:-1.0303618e-15 254:0.092168929 255:2.8363893e-16 
0.2539225903964926 0:0.036385159 1:0.012183669 2:0.0042661494 3:0.40535903 4:0.42796171 5:0.037347191 6:0.051144224 7:0.025352816 8:0.019609609 9:0.015459174 10:0.092902042 11:0.17019745 12:0.53521535 13:0.12573039 14:0.025237085 15:0.01564886 16:0.01765259 17:8.6309916e-19 18:0.027267651 19:0.14099058 20:0.2466902 21:0.26492168 22:0.19328262 23:0.10919461 24:-2.1460658e-18 25:0.0087119321 26:0.30072166 27:0.46262062 28:0.21173694 29:0.016208733 30:2.1460658e-17 31:4.2921315e-18 32:0 33:0 34:0 35:1.6069764e-17 36:0.2463758 37:0.55423219 38:0.14993336 39:0.049458549 40:0.026647622 41:0.022206352 42:0.090791759 43:0.26453131 44:0.37233156 45:0.11375018 46:0.081651762 47:0.02808906 48:0.025695085 49:0.14687886 50:0.46921859 51:0.26229539 52:0.033035475 53:0.011580618 54:0.051295771 55:8.5581824e-18 56:0.15988505 57:0.13121644 58:0.22460784 59:0.089619788 60:0.13000542 61:-1.3453316e-17 62:0.03048272 63:0.23418265 64:0.033879926 65:0.057840962 66:0.034087663 67:0.030078947 68:0.15699733 69:0.27940901 70:0.17773076 71:0.22997533 72:-2.4331643e-18 73:9.7326571e-18 74:0.12345846 75:0.074425401 76:0.54740899 77:0.16566465 78:0.08904235 79:5.5962778e-17 80:0 81:0.17304004 82:0.49222544 83:0.16973973 84:0.053754008 85:0.10098908 86:0.010251586 87:5.7945375e-17 88:0.4366573 89:0.087437476 90:0.058395271 91:0.023045929 92:0.072877625 93:0.023547307 94:0.13292088 95:0.16511817 96:0.2591928 97:0.0081574225 98:0 99:9.5134749e-18 100:-1.522156e-17 101:2.663773e-17 102:0.01437061 103:0.71827915 104:0.020624869 105:0.042499968 106:0.25847168 107:0.12541402 108:0.21374368 109:0.04254397 110:0.1751624 111:0.12153906 112:0.12635056 113:0.326798 114:0.41937054 115:0.071814088 116:0.027466621 117:2.1345853e-17 118:0.009710917 119:0.018489035 120:0.24962204 121:0.049311047 122:0.0311938 123:0.023737265 124:0.10488277 125:0.031273587 126:0.032304048 127:0.47767541 128:0.13996632 129:0.017119748 130:0.009523519 131:8.3967899e-18 132:0.0076220141 133:0.012163648 134:0.025885465 135:0.78771926 136:0.22551625 137:0.1641485 138:0.26338807 139:0.025177624 140:0.17645304 141:0.035606538 142:0.10970869 143:2.8286223e-16 144:0.127083 145:0.22542957 146:0.21302785 147:0.081593553 148:0.14130266 149:0.09153676 150:0.12002572 151:2.5699864e-16 152:0.50009965 153:0.12127095 154:0.11742912 155:0.0076077767 156:0.060257724 157:-2.136771e-18 158:0.048764627 159:0.14457012 160:0.1334158 161:0.0017704914 162:0.39878885 163:0.041816541 164:0.04937323 165:1.9690968e-17 166:0.11863567 167:0.25619939 168:0.021231315 169:0.014942225 170:0.18078967 171:0.3188847 172:0.38547854 173:0.057684772 174:0.02098842 175:-2.0980636e-16 176:0.002991279 177:0.053420465 178:0.35299555 179:0.14060555 180:0.3895235 181:0.03085132 182:0.029612152 183:-1.4080984e-16 184:0.17109622 185:0.19300324 186:0.19424648 187:0.073044005 188:0.24282578 189:0.046957108 190:0.026562811 191:0.052264234 192:0.069702485 193:0.18855837 194:0.15209982 195:0.10354442 196:0.19023839 197:0.064052019 198:0.097370555 199:0.1344339 200:0.026269343 201:0.035510294 202:0.040904672 203:0.19584613 204:0.4595814 205:0.17480757 206:0.044209388 207:0.022871099 208:0.006720334 209:0.022540685 210:0.066367787 211:0.4304336 212:0.41475032 213:0.037567809 214:0.021619242 215:-2.9844278e-17 216:0.11760361 217:0.05701395 218:0.11510769 219:0.1629429 220:0.43772322 221:0.035254343 222:0.074353538 223:4.8241644e-17 224:0.047770805 225:0 226:0.13675616 227:0.30367302 228:0.26429862 229:0.18976808 230:0.057733153 231:2.9949881e-17 232:0.020452761 233:0 234:-3.6331402e-17 235:0.34015187 236:0.56791065 237:0.052201429 238:0.019283048 239:0 240:0.035414418 241:-3.2884064e-17 242:0.076399084 243:0.60743485 244:0.26180038 245:0.014398009 246:0.0045530501 247:1.1437935e-17 248:0.020342886 249:-7.227245e-18 250:0.15666214 251:0.42211123 252:0.4008834 253:0 254:-4.5170281e-17 255:8.3113317e-17 
4.361000331021335 0:0.14106078 1:0.4779105 2:0.38102863 3:0 4:0 5:0 6:0 7:0 8:0.028971575 9:0.24421814 10:0.60652883 11:0.075133308 12:0.03955404 13:0 14:0.005593786 15:0 16:0.034550361 17:0.071268792 18:0.65849067 19:0.10276658 20:0.11747123 21:0.015451391 22:0 23:0 24:0.18105486 25:0.11670972 26:0.40996015 27:-1.0050564e-17 28:0.26026637 29:0 30:0.03200628 31:0 32:0.38017863 33:0.10531385 34:-3.6373375e-17 35:0.073381644 36:0.15704 37:0.083092516 38:0.079499984 39:0.12149327 40:0.24047053 41:0.081316758 42:0.070896106 43:-2.5943746e-18 44:0.17065991 45:0.14156984 46:0.27661209 47:0.018474065 48:0.18596622 49:0.10655612 50:0.29649764 51:-4.5880885e-18 52:0.26861788 53:0.02310184 54:0.11925811 55:-1.192903e-16 56:0.2097249 57:-6.7735683e-17 58:0.39315495 59:0 60:0.3431862 61:-1.0160352e-16 62:0.053926508 63:-2.2014097e-16 64:0.31292604 65:0.25612986 66:0.18816986 67:0.11966824 68:0.05856381 69:0.031799595 70:0.032742579 71:-8.9946309e-19 72:0.084867189 73:-8.5364461e-18 74:0 75:0 76:0.48325499 77:0.17132056 78:0.086796261 79:0.17376097 80:0.0098742573 81:-5.2620613e-18 82:4.3850511e-18 83:0.028804892 84:0.47695496 85:0.33466004 86:0.12955069 87:0.020155074 88:0.02007798 89:0.018237533 90:0.12284539 91:0.36685609 92:0.37665477 93:0.05006852 94:0.036662311 95:0.0085972554 96:0.43767647 97:0.19907643 98:0.076766277 99:0.01793764 100:0.00314046 101:0.023586978 102:0.02486682 103:0.21694887 104:0.4014455 105:2.6692884e-17 106:4.5476766e-17 107:-2.965876e-18 108:-2.3727008e-17 109:3.9545014e-18 110:0.082842006 111:0.51571239 112:0.16446681 113:7.9020393e-17 114:1.0605369e-16 115:-6.2384521e-18 116:0.029615247 117:0.033766577 118:0.45481282 119:0.31733809 120:0.021586217 121:0.0030167655 122:0.01273115 123:0.092119631 124:0.35959877 125:0.01760993 126:0.18178496 127:0.31155254 128:0.090557011 129:0.10125319 130:0.12476344 131:0.046772216 132:0.054864234 133:0.048898114 134:0.23440347 135:0.29848821 136:0.098830261 137:-1.1411258e-17 138:2.808925e-17 139:0.014389903 140:0.092694887 141:-1.7555781e-18 142:0.20817241 143:0.58591246 144:0.47560275 145:0.067174858 146:0.0064250165 147:-2.017574e-18 148:-4.6404202e-17 149:0.010158843 150:0.18554663 151:0.25509148 152:0.25053924 153:0.023591786 154:0.0070632416 155:1.6634914e-17 156:0.094894855 157:0.0055839828 158:0.21214187 159:0.4061849 160:0.012187372 161:0.082956224 162:0.62782601 163:0.18478275 164:0.065109434 165:0.010140146 166:0.0057861809 167:0.011211868 168:0.093327406 169:0.12936261 170:0.076169044 171:0.22766763 172:0.074312369 173:0.0081729206 174:0.22191284 175:0.16907516 176:0.28781287 177:0.21611481 178:0.05757345 179:1.0916415e-16 180:0.15718371 181:0.11048088 182:0.13419152 183:0.036642602 184:0.03730567 185:0.085098639 186:0.22674353 187:0.097990377 188:0.43465442 189:0.038603451 190:0.058153508 191:0.021450225 192:0.12368212 193:0.21969003 194:0.49411301 195:0.0085691773 196:0.033561466 197:0.027948336 198:0.072693695 199:0.019742018 200:0.20907175 201:0.3437017 202:0.34568257 203:0.029994621 204:0.031582733 205:1.5583945e-18 206:0.017772288 207:0.022194082 208:0.23388298 209:0.21211949 210:0.31997494 211:0.065576317 212:0.095146728 213:0.044214349 214:0.029084783 215:-1.9936439e-18 216:0.14360245 217:0.15068892 218:0.30574417 219:0.038520145 220:0.13637641 221:0.010077127 222:0.11268157 223:0.10230878 224:0.18617652 225:0.22486811 226:0.46922417 227:0.046580848 228:0.067045733 229:9.5846819e-19 230:0.0061045334 231:2.3003237e-17 232:0.061737823 233:0.075965826 234:0.66459123 235:0.1110838 236:0.054558304 237:0.023747563 238:0.0083152825 239:-4.5695168e-17 240:0.094886059 241:0.068308593 242:0.359797 243:0.3102881 244:0.10908037 245:0.057639709 246:-2.5830249e-18 247:0 248:0.039070978 249:0.098143305 250:0.1701389 251:0.32568318 252:0.29922753 253:0.012480766 254:0.055254707 255:-1.7103128e-16 
0.1829343414183795 0:0 1:0.11404218 2:0.56505749 3:0.29444749 4:0.026452624 5:0 6:0 7:0 8:0 9:2.9937162e-17 10:0.12683032 11:0.67010207 12:0.20306737 13:0 14:0 15:0 16:0 17:2.9333864e-17 18:0.014770121 19:0.26828374 20:0.6976528 21:0.019293113 22:0 23:0 24:0 25:2.6837983e-17 26:0.040540202 27:0.41449249 28:0.54496712 29:1.3418991e-18 30:0 31:0 32:0.014012304 33:0.13377206 34:0.28918165 35:0.26660906 36:0.265155 37:0.0099081953 38:0.010031116 39:0.011330455 40:0.048405735 41:0.053714507 42:0.14686227 43:0.34684326 44:0.36781139 45:0.016246473 46:0.0051375858 47:0.014978508 48:0.0085454803 49:0.0063694249 50:0.072130905 51:0.14559268 52:0.72463394 53:0.042727401 54:-6.324926e-19 55:0 56:1.6122457e-18 57:-3.8693896e-17 58:0.12061119 59:0.21085416 60:0.42494371 61:0.22536664 62:0.018224028 63:0 64:0.42312379 65:0.17884729 66:0.1865441 67:0.11788831 68:0.049380027 69:0.027770662 70:0.011023165 71:0.0054226429 72:0.0027578514 73:9.1854904e-18 74:0 75:0.088384316 76:0.81288525 77:0.07889215 78:0.012719849 79:0.0043605459 80:0.0076216475 81:1.0154074e-17 82:0.010778637 83:0.70632488 84:0.25536434 85:8.8001977e-18 86:0.015090092 87:0.0048203531 88:0.008366709 89:0.002944171 90:0.006632491 91:0.031358093 92:0.034428288 93:0.21524122 94:0.12292982 95:0.5780992 96:0.20914757 97:4.3022238e-18 98:0.01334901 99:0.017690113 100:0.065781766 101:0.020481332 102:0.0048630211 103:0.66868717 104:0.23511901 105:0.065057921 106:0.27940641 107:-4.9098587e-16 108:0.27640047 109:0 110:0.14401185 111:0 112:0.14226566 113:0 114:0.16422015 115:5.8124353e-16 116:0.42910564 117:0.095434707 118:0.12398135 119:0.044988352 120:0.021322042 121:0 122:0.0076200354 123:6.3125925e-19 124:0.019189838 125:0.0015892512 126:0.0040205228 127:0.9462583 128:0.068152289 129:3.1363529e-18 130:0.0220116 131:0.016829404 132:0.027296703 133:0.0015792094 134:0.04182555 135:0.82230523 136:0.40454819 137:0.056537328 138:0.28605877 139:-8.8704896e-16 140:0.25284262 141:4.4913872e-17 142:-1.5719855e-16 143:-3.7727652e-15 144:0.14801986 145:0.047283211 146:0.029904528 147:0.2618768 148:0.35947681 149:0.1235251 150:0.029904528 151:-3.1552332e-15 152:0.3743457 153:0.010916027 154:0.006035262 155:0.0022492093 156:0.028681342 157:0.0015904312 158:0.028216889 159:0.54796513 160:0.17520674 161:0.121174 162:0.42606154 163:0.083708592 164:0.017702336 165:0.064102911 166:0.058355023 167:0.053688849 168:0.0069593417 169:2.3694359e-17 170:0.04930446 171:0.41771286 172:0.44847208 173:0.056064391 174:0.021486748 175:8.2415162e-18 176:-1.112668e-16 177:0.021779047 178:0.094739168 179:0.50601096 180:0.3774707 181:-7.8673493e-18 182:-1.123907e-18 183:8.9912563e-18 184:0.12050218 185:0.13516367 186:0.11023807 187:0.17250581 188:0.20441195 189:0.098139046 190:0.0071459887 191:0.15189324 192:0.069303149 193:0.023197133 194:0.089776491 195:0.26734527 196:0.36535184 197:0.10407472 198:0.057910751 199:0.023040495 200:0.0062778465 201:0.0070188458 202:0.018302911 203:0.094222485 204:0.57858688 205:0.21954604 206:0.076044797 207:5.5758478e-18 208:-3.5837905e-18 209:0.014598729 210:0.14983119 211:0.40912271 212:0.38566716 213:0.013533766 214:0.027246359 215:3.5837905e-18 216:0.0055751731 217:0.040235971 218:0.44310764 219:0.22953142 220:0.21878838 221:0.051267737 222:7.4276226e-18 223:0.011493514 224:0.11010748 225:-2.2492871e-17 226:0.044611104 227:0.1091062 228:0.36327584 229:0.29367813 230:0.072257335 231:0.0069638086 232:0.011638581 233:0 234:0.0065061647 235:0.066529471 236:0.81037429 237:0.092606736 238:0.012344579 239:0 240:0.021007204 241:0 242:0.010438563 243:0.09456875 244:0.87398537 245:-6.9449762e-17 246:-1.0365636e-17 247:0 248:0.02768574 249:1.7883547e-17 250:1.7883547e-17 251:0.12963341 252:0.78069721 253:0.061983501 254:-1.7324686e-17 255:-3.0178485e-17 
8 0:0.22080086 1:0.19797434 2:0.42694419 3:0.030093947 4:0.099923686 5:0 6:0 7:0.024262515 8:0.035284712 9:-9.0351839e-17 10:0.18781649 11:0.10741154 12:0.49580812 13:0.075822924 14:0.097854746 15:0 16:0.082331325 17:0.023012305 18:0.29771035 19:0.032544314 20:0.36313654 21:0.15760022 22:0.043662779 23:0 24:0.21188356 25:-1.188571e-16 26:0.12872711 27:-4.952379e-18 28:0.32340122 29:0.049872215 30:0.25084837 31:0.035264981 32:0.057751318 33:0 34:0.046663833 35:0.10720641 36:0.095027181 37:0.34809087 38:0.25157289 39:0.093687452 40:0.15670238 41:0.05839953 42:0.20059365 43:0.12697988 44:0.29843194 45:0.03893302 46:0.11995804 47:-6.1857633e-17 48:0.0456039 49:0 50:0.04473852 51:0.1337629 52:0.57130426 53:0.095102592 54:0.10948716 55:-4.05044e-17 56:0.12977564 57:0.022322089 58:0.240961 59:0.031568202 60:0.39317193 61:0.089288358 62:0.092910734 63:-7.0931647e-17 64:0.30794429 65:0.00394677 66:0.022656298 67:0.077851549 68:0.12877956 69:0.11231664 70:0.22558736 71:0.12091752 72:0.11453957 73:0.11719849 74:0.28379986 75:0.33838557 76:0.079782487 77:0.02698006 78:0.03931392 79:1.042359e-17 80:0.020821458 81:0.0038798496 82:0.006333682 83:0.12077445 84:0.59515812 85:0.18557318 86:0.054818176 87:0.012641025 88:0.033354972 89:0.016897432 90:0.02916213 91:0.0098669763 92:0.22475774 93:0.18391523 94:0.26973242 95:0.23231305 96:0.81069845 97:0.14414632 98:0.017869275 99:0.0069428323 100:0.009883031 101:-5.0521182e-18 102:0.002966208 103:0.0074938717 104:0.19279667 105:0.31107009 106:0.16349686 107:0.024111819 108:0.13085939 109:3.3861033e-18 110:0.12211419 111:0.055549786 112:0.47789414 113:0.22521945 114:0.070823293 115:7.9696364e-18 116:0.089730129 117:1.9924091e-17 118:0.13633134 119:7.9696364e-18 120:0.51836705 121:0.067547995 122:0.056670368 123:0 124:0.22424743 125:1.0297838e-18 126:0.017416259 127:0.11575087 128:0.56235661 129:0.030217303 130:0.022820682 131:0.060516646 132:0.05738139 133:0.0064377348 134:0.043328179 135:0.21694144 136:0.062447396 137:-3.169396e-17 138:0.090361294 139:0.084632573 140:0.4768096 141:0.11968853 142:0.16605897 143:-9.5081879e-17 144:0.20663251 145:0.42449371 146:0.277995 147:0.040200913 148:0.04379557 149:8.6440622e-18 150:0.0068818099 151:-5.4025389e-17 152:0.81716983 153:0.020359987 154:0.010544276 155:0.0062461588 156:0.051371766 157:0.030569209 158:0.018383537 159:0.045355215 160:0.11578791 161:0.051844871 162:0.090234962 163:0.36821465 164:0.15914989 165:0.036315901 166:0.13875646 167:0.039695329 168:0.050301095 169:0.026663933 170:0.052580528 171:0.22683452 172:0.54000825 173:0.016487562 174:0.058202584 175:0.028921096 176:0.12448813 177:0.16632575 178:0.20704139 179:0.25300532 180:0.069810807 181:0.037104953 182:0.019745478 183:0.12247791 184:0.15456504 185:0.08915398 186:0.0089670482 187:0.06441629 188:0.57076313 189:0.03928125 190:0.06409953 191:0.0087536877 192:0.0055237805 193:0.012351549 194:0.57524443 195:0.14536939 196:0.19975248 197:0.037054646 198:0.024703097 199:5.3967129e-17 200:0.024152155 201:-3.2177134e-17 202:0.28212834 203:0.07637582 204:0.39547629 205:0.090009767 206:0.1318563 207:0 208:0.14442845 209:5.3449262e-17 210:0.34870752 211:-4.8104336e-17 212:0.37505994 213:0.080737956 214:0.051063167 215:-1.0689852e-17 216:0.1814005 217:-8.0558005e-18 218:0.17957733 219:0.057363875 220:0.48978135 221:0.040562385 222:0.05130781 223:1.6111601e-16 224:0.07519467 225:0.016814039 226:0.27759673 227:0.09511457 228:0.46356845 229:0.050442118 230:0.021268264 231:7.3464911e-17 232:0.064322046 233:-2.8564727e-17 234:0.10787135 235:0.050851042 236:0.5462107 237:0.064946671 238:0.16579686 239:0 240:0.065826932 241:3.5729259e-17 242:0.049064498 243:0.046258453 244:0.56151994 245:0.16354833 246:0.11378075 247:-6.496229e-18 248:0.084789077 249:0 250:0.12981464 251:0.17875107 252:0.33279294 253:0.15219992 254:0.12165054 255:8.3675365e-17 
